// Neural Network File Format by Kyle Julian, Stanford 2016
6,784,10,784,
784,100,100,100,100,100,10,
0,
-3.4028235e+38,-3.4028235e+38,-3.4028235e+38,-3.4028235e+38,-3.4028235e+38,-3.4028235e+38,-3.4028235e+38,-3.4028235e+38,-3.4028235e+38,-3.4028235e+38,-3.4028235e+38,-3.4028235e+38,-3.4028235e+38,-3.4028235e+38,-3.4028235e+38,-3.4028235e+38,-3.4028235e+38,-3.4028235e+38,-3.4028235e+38,-3.4028235e+38,-3.4028235e+38,-3.4028235e+38,-3.4028235e+38,-3.4028235e+38,-3.4028235e+38,-3.4028235e+38,-3.4028235e+38,-3.4028235e+38,-3.4028235e+38,-3.4028235e+38,-3.4028235e+38,-3.4028235e+38,-3.4028235e+38,-3.4028235e+38,-3.4028235e+38,-3.4028235e+38,-3.4028235e+38,-3.4028235e+38,-3.4028235e+38,-3.4028235e+38,-3.4028235e+38,-3.4028235e+38,-3.4028235e+38,-3.4028235e+38,-3.4028235e+38,-3.4028235e+38,-3.4028235e+38,-3.4028235e+38,-3.4028235e+38,-3.4028235e+38,-3.4028235e+38,-3.4028235e+38,-3.4028235e+38,-3.4028235e+38,-3.4028235e+38,-3.4028235e+38,-3.4028235e+38,-3.4028235e+38,-3.4028235e+38,-3.4028235e+38,-3.4028235e+38,-3.4028235e+38,-3.4028235e+38,-3.4028235e+38,-3.4028235e+38,-3.4028235e+38,-3.4028235e+38,-3.4028235e+38,-3.4028235e+38,-3.4028235e+38,-3.4028235e+38,-3.4028235e+38,-3.4028235e+38,-3.4028235e+38,-3.4028235e+38,-3.4028235e+38,-3.4028235e+38,-3.4028235e+38,-3.4028235e+38,-3.4028235e+38,-3.4028235e+38,-3.4028235e+38,-3.4028235e+38,-3.4028235e+38,-3.4028235e+38,-3.4028235e+38,-3.4028235e+38,-3.4028235e+38,-3.4028235e+38,-3.4028235e+38,-3.4028235e+38,-3.4028235e+38,-3.4028235e+38,-3.4028235e+38,-3.4028235e+38,-3.4028235e+38,-3.4028235e+38,-3.4028235e+38,-3.4028235e+38,-3.4028235e+38,-3.4028235e+38,-3.4028235e+38,-3.4028235e+38,-3.4028235e+38,-3.4028235e+38,-3.4028235e+38,-3.4028235e+38,-3.4028235e+38,-3.4028235e+38,-3.4028235e+38,-3.4028235e+38,-3.4028235e+38,-3.4028235e+38,-3.4028235e+38,-3.4028235e+38,-3.4028235e+38,-3.4028235e+38,-3.4028235e+38,-3.4028235e+38,-3.4028235e+38,-3.4028235e+38,-3.4028235e+38,-3.4028235e+38,-3.4028235e+38,-3.4028235e+38,-3.4028235e+38,-3.4028235e+38,-3.4028235e+38,-3.4028235e+38,-3.4028235e+38,-3.4028235e+38,-3.4028235e+38,-3.4028235e+38,-3.4028235e+38,-3.4028235e+38,-3.4028235e+38,-3.4028235e+38,-3.4028235e+38,-3.4028235e+38,-3.4028235e+38,-3.4028235e+38,-3.4028235e+38,-3.4028235e+38,-3.4028235e+38,-3.4028235e+38,-3.4028235e+38,-3.4028235e+38,-3.4028235e+38,-3.4028235e+38,-3.4028235e+38,-3.4028235e+38,-3.4028235e+38,-3.4028235e+38,-3.4028235e+38,-3.4028235e+38,-3.4028235e+38,-3.4028235e+38,-3.4028235e+38,-3.4028235e+38,-3.4028235e+38,-3.4028235e+38,-3.4028235e+38,-3.4028235e+38,-3.4028235e+38,-3.4028235e+38,-3.4028235e+38,-3.4028235e+38,-3.4028235e+38,-3.4028235e+38,-3.4028235e+38,-3.4028235e+38,-3.4028235e+38,-3.4028235e+38,-3.4028235e+38,-3.4028235e+38,-3.4028235e+38,-3.4028235e+38,-3.4028235e+38,-3.4028235e+38,-3.4028235e+38,-3.4028235e+38,-3.4028235e+38,-3.4028235e+38,-3.4028235e+38,-3.4028235e+38,-3.4028235e+38,-3.4028235e+38,-3.4028235e+38,-3.4028235e+38,-3.4028235e+38,-3.4028235e+38,-3.4028235e+38,-3.4028235e+38,-3.4028235e+38,-3.4028235e+38,-3.4028235e+38,-3.4028235e+38,-3.4028235e+38,-3.4028235e+38,-3.4028235e+38,-3.4028235e+38,-3.4028235e+38,-3.4028235e+38,-3.4028235e+38,-3.4028235e+38,-3.4028235e+38,-3.4028235e+38,-3.4028235e+38,-3.4028235e+38,-3.4028235e+38,-3.4028235e+38,-3.4028235e+38,-3.4028235e+38,-3.4028235e+38,-3.4028235e+38,-3.4028235e+38,-3.4028235e+38,-3.4028235e+38,-3.4028235e+38,-3.4028235e+38,-3.4028235e+38,-3.4028235e+38,-3.4028235e+38,-3.4028235e+38,-3.4028235e+38,-3.4028235e+38,-3.4028235e+38,-3.4028235e+38,-3.4028235e+38,-3.4028235e+38,-3.4028235e+38,-3.4028235e+38,-3.4028235e+38,-3.4028235e+38,-3.4028235e+38,-3.4028235e+38,-3.4028235e+38,-3.4028235e+38,-3.4028235e+38,-3.4028235e+38,-3.4028235e+38,-3.4028235e+38,-3.4028235e+38,-3.4028235e+38,-3.4028235e+38,-3.4028235e+38,-3.4028235e+38,-3.4028235e+38,-3.4028235e+38,-3.4028235e+38,-3.4028235e+38,-3.4028235e+38,-3.4028235e+38,-3.4028235e+38,-3.4028235e+38,-3.4028235e+38,-3.4028235e+38,-3.4028235e+38,-3.4028235e+38,-3.4028235e+38,-3.4028235e+38,-3.4028235e+38,-3.4028235e+38,-3.4028235e+38,-3.4028235e+38,-3.4028235e+38,-3.4028235e+38,-3.4028235e+38,-3.4028235e+38,-3.4028235e+38,-3.4028235e+38,-3.4028235e+38,-3.4028235e+38,-3.4028235e+38,-3.4028235e+38,-3.4028235e+38,-3.4028235e+38,-3.4028235e+38,-3.4028235e+38,-3.4028235e+38,-3.4028235e+38,-3.4028235e+38,-3.4028235e+38,-3.4028235e+38,-3.4028235e+38,-3.4028235e+38,-3.4028235e+38,-3.4028235e+38,-3.4028235e+38,-3.4028235e+38,-3.4028235e+38,-3.4028235e+38,-3.4028235e+38,-3.4028235e+38,-3.4028235e+38,-3.4028235e+38,-3.4028235e+38,-3.4028235e+38,-3.4028235e+38,-3.4028235e+38,-3.4028235e+38,-3.4028235e+38,-3.4028235e+38,-3.4028235e+38,-3.4028235e+38,-3.4028235e+38,-3.4028235e+38,-3.4028235e+38,-3.4028235e+38,-3.4028235e+38,-3.4028235e+38,-3.4028235e+38,-3.4028235e+38,-3.4028235e+38,-3.4028235e+38,-3.4028235e+38,-3.4028235e+38,-3.4028235e+38,-3.4028235e+38,-3.4028235e+38,-3.4028235e+38,-3.4028235e+38,-3.4028235e+38,-3.4028235e+38,-3.4028235e+38,-3.4028235e+38,-3.4028235e+38,-3.4028235e+38,-3.4028235e+38,-3.4028235e+38,-3.4028235e+38,-3.4028235e+38,-3.4028235e+38,-3.4028235e+38,-3.4028235e+38,-3.4028235e+38,-3.4028235e+38,-3.4028235e+38,-3.4028235e+38,-3.4028235e+38,-3.4028235e+38,-3.4028235e+38,-3.4028235e+38,-3.4028235e+38,-3.4028235e+38,-3.4028235e+38,-3.4028235e+38,-3.4028235e+38,-3.4028235e+38,-3.4028235e+38,-3.4028235e+38,-3.4028235e+38,-3.4028235e+38,-3.4028235e+38,-3.4028235e+38,-3.4028235e+38,-3.4028235e+38,-3.4028235e+38,-3.4028235e+38,-3.4028235e+38,-3.4028235e+38,-3.4028235e+38,-3.4028235e+38,-3.4028235e+38,-3.4028235e+38,-3.4028235e+38,-3.4028235e+38,-3.4028235e+38,-3.4028235e+38,-3.4028235e+38,-3.4028235e+38,-3.4028235e+38,-3.4028235e+38,-3.4028235e+38,-3.4028235e+38,-3.4028235e+38,-3.4028235e+38,-3.4028235e+38,-3.4028235e+38,-3.4028235e+38,-3.4028235e+38,-3.4028235e+38,-3.4028235e+38,-3.4028235e+38,-3.4028235e+38,-3.4028235e+38,-3.4028235e+38,-3.4028235e+38,-3.4028235e+38,-3.4028235e+38,-3.4028235e+38,-3.4028235e+38,-3.4028235e+38,-3.4028235e+38,-3.4028235e+38,-3.4028235e+38,-3.4028235e+38,-3.4028235e+38,-3.4028235e+38,-3.4028235e+38,-3.4028235e+38,-3.4028235e+38,-3.4028235e+38,-3.4028235e+38,-3.4028235e+38,-3.4028235e+38,-3.4028235e+38,-3.4028235e+38,-3.4028235e+38,-3.4028235e+38,-3.4028235e+38,-3.4028235e+38,-3.4028235e+38,-3.4028235e+38,-3.4028235e+38,-3.4028235e+38,-3.4028235e+38,-3.4028235e+38,-3.4028235e+38,-3.4028235e+38,-3.4028235e+38,-3.4028235e+38,-3.4028235e+38,-3.4028235e+38,-3.4028235e+38,-3.4028235e+38,-3.4028235e+38,-3.4028235e+38,-3.4028235e+38,-3.4028235e+38,-3.4028235e+38,-3.4028235e+38,-3.4028235e+38,-3.4028235e+38,-3.4028235e+38,-3.4028235e+38,-3.4028235e+38,-3.4028235e+38,-3.4028235e+38,-3.4028235e+38,-3.4028235e+38,-3.4028235e+38,-3.4028235e+38,-3.4028235e+38,-3.4028235e+38,-3.4028235e+38,-3.4028235e+38,-3.4028235e+38,-3.4028235e+38,-3.4028235e+38,-3.4028235e+38,-3.4028235e+38,-3.4028235e+38,-3.4028235e+38,-3.4028235e+38,-3.4028235e+38,-3.4028235e+38,-3.4028235e+38,-3.4028235e+38,-3.4028235e+38,-3.4028235e+38,-3.4028235e+38,-3.4028235e+38,-3.4028235e+38,-3.4028235e+38,-3.4028235e+38,-3.4028235e+38,-3.4028235e+38,-3.4028235e+38,-3.4028235e+38,-3.4028235e+38,-3.4028235e+38,-3.4028235e+38,-3.4028235e+38,-3.4028235e+38,-3.4028235e+38,-3.4028235e+38,-3.4028235e+38,-3.4028235e+38,-3.4028235e+38,-3.4028235e+38,-3.4028235e+38,-3.4028235e+38,-3.4028235e+38,-3.4028235e+38,-3.4028235e+38,-3.4028235e+38,-3.4028235e+38,-3.4028235e+38,-3.4028235e+38,-3.4028235e+38,-3.4028235e+38,-3.4028235e+38,-3.4028235e+38,-3.4028235e+38,-3.4028235e+38,-3.4028235e+38,-3.4028235e+38,-3.4028235e+38,-3.4028235e+38,-3.4028235e+38,-3.4028235e+38,-3.4028235e+38,-3.4028235e+38,-3.4028235e+38,-3.4028235e+38,-3.4028235e+38,-3.4028235e+38,-3.4028235e+38,-3.4028235e+38,-3.4028235e+38,-3.4028235e+38,-3.4028235e+38,-3.4028235e+38,-3.4028235e+38,-3.4028235e+38,-3.4028235e+38,-3.4028235e+38,-3.4028235e+38,-3.4028235e+38,-3.4028235e+38,-3.4028235e+38,-3.4028235e+38,-3.4028235e+38,-3.4028235e+38,-3.4028235e+38,-3.4028235e+38,-3.4028235e+38,-3.4028235e+38,-3.4028235e+38,-3.4028235e+38,-3.4028235e+38,-3.4028235e+38,-3.4028235e+38,-3.4028235e+38,-3.4028235e+38,-3.4028235e+38,-3.4028235e+38,-3.4028235e+38,-3.4028235e+38,-3.4028235e+38,-3.4028235e+38,-3.4028235e+38,-3.4028235e+38,-3.4028235e+38,-3.4028235e+38,-3.4028235e+38,-3.4028235e+38,-3.4028235e+38,-3.4028235e+38,-3.4028235e+38,-3.4028235e+38,-3.4028235e+38,-3.4028235e+38,-3.4028235e+38,-3.4028235e+38,-3.4028235e+38,-3.4028235e+38,-3.4028235e+38,-3.4028235e+38,-3.4028235e+38,-3.4028235e+38,-3.4028235e+38,-3.4028235e+38,-3.4028235e+38,-3.4028235e+38,-3.4028235e+38,-3.4028235e+38,-3.4028235e+38,-3.4028235e+38,-3.4028235e+38,-3.4028235e+38,-3.4028235e+38,-3.4028235e+38,-3.4028235e+38,-3.4028235e+38,-3.4028235e+38,-3.4028235e+38,-3.4028235e+38,-3.4028235e+38,-3.4028235e+38,-3.4028235e+38,-3.4028235e+38,-3.4028235e+38,-3.4028235e+38,-3.4028235e+38,-3.4028235e+38,-3.4028235e+38,-3.4028235e+38,-3.4028235e+38,-3.4028235e+38,-3.4028235e+38,-3.4028235e+38,-3.4028235e+38,-3.4028235e+38,-3.4028235e+38,-3.4028235e+38,-3.4028235e+38,-3.4028235e+38,-3.4028235e+38,-3.4028235e+38,-3.4028235e+38,-3.4028235e+38,-3.4028235e+38,-3.4028235e+38,-3.4028235e+38,-3.4028235e+38,-3.4028235e+38,-3.4028235e+38,-3.4028235e+38,-3.4028235e+38,-3.4028235e+38,-3.4028235e+38,-3.4028235e+38,-3.4028235e+38,-3.4028235e+38,-3.4028235e+38,-3.4028235e+38,-3.4028235e+38,-3.4028235e+38,-3.4028235e+38,-3.4028235e+38,-3.4028235e+38,-3.4028235e+38,-3.4028235e+38,-3.4028235e+38,-3.4028235e+38,-3.4028235e+38,-3.4028235e+38,-3.4028235e+38,-3.4028235e+38,-3.4028235e+38,-3.4028235e+38,-3.4028235e+38,-3.4028235e+38,-3.4028235e+38,-3.4028235e+38,-3.4028235e+38,-3.4028235e+38,-3.4028235e+38,-3.4028235e+38,-3.4028235e+38,-3.4028235e+38,-3.4028235e+38,-3.4028235e+38,-3.4028235e+38,-3.4028235e+38,-3.4028235e+38,-3.4028235e+38,-3.4028235e+38,-3.4028235e+38,-3.4028235e+38,-3.4028235e+38,-3.4028235e+38,-3.4028235e+38,-3.4028235e+38,-3.4028235e+38,-3.4028235e+38,-3.4028235e+38,-3.4028235e+38,-3.4028235e+38,-3.4028235e+38,-3.4028235e+38,-3.4028235e+38,-3.4028235e+38,-3.4028235e+38,-3.4028235e+38,-3.4028235e+38,-3.4028235e+38,-3.4028235e+38,-3.4028235e+38,-3.4028235e+38,-3.4028235e+38,-3.4028235e+38,-3.4028235e+38,-3.4028235e+38,-3.4028235e+38,-3.4028235e+38,-3.4028235e+38,-3.4028235e+38,-3.4028235e+38,-3.4028235e+38,-3.4028235e+38,-3.4028235e+38,-3.4028235e+38,-3.4028235e+38,-3.4028235e+38,-3.4028235e+38,-3.4028235e+38,-3.4028235e+38,-3.4028235e+38,-3.4028235e+38,-3.4028235e+38,-3.4028235e+38,-3.4028235e+38,-3.4028235e+38,-3.4028235e+38,-3.4028235e+38,-3.4028235e+38,-3.4028235e+38,-3.4028235e+38,-3.4028235e+38,-3.4028235e+38,-3.4028235e+38,-3.4028235e+38,-3.4028235e+38,-3.4028235e+38,-3.4028235e+38,-3.4028235e+38,-3.4028235e+38,-3.4028235e+38,-3.4028235e+38,-3.4028235e+38,-3.4028235e+38,-3.4028235e+38,-3.4028235e+38,-3.4028235e+38,-3.4028235e+38,-3.4028235e+38,-3.4028235e+38,-3.4028235e+38,-3.4028235e+38,-3.4028235e+38,-3.4028235e+38,-3.4028235e+38,-3.4028235e+38,-3.4028235e+38,-3.4028235e+38,-3.4028235e+38,-3.4028235e+38,-3.4028235e+38,-3.4028235e+38,-3.4028235e+38,-3.4028235e+38,-3.4028235e+38,-3.4028235e+38,-3.4028235e+38,-3.4028235e+38,-3.4028235e+38,-3.4028235e+38,-3.4028235e+38,-3.4028235e+38,-3.4028235e+38,-3.4028235e+38,-3.4028235e+38,-3.4028235e+38,-3.4028235e+38,-3.4028235e+38,-3.4028235e+38,-3.4028235e+38,-3.4028235e+38,-3.4028235e+38,-3.4028235e+38,-3.4028235e+38,-3.4028235e+38,-3.4028235e+38,-3.4028235e+38,-3.4028235e+38,-3.4028235e+38,-3.4028235e+38,-3.4028235e+38,-3.4028235e+38,-3.4028235e+38,-3.4028235e+38,-3.4028235e+38,-3.4028235e+38,-3.4028235e+38,-3.4028235e+38,-3.4028235e+38,-3.4028235e+38,-3.4028235e+38,-3.4028235e+38,-3.4028235e+38,-3.4028235e+38,-3.4028235e+38,-3.4028235e+38,-3.4028235e+38,-3.4028235e+38,-3.4028235e+38,-3.4028235e+38,-3.4028235e+38,-3.4028235e+38,-3.4028235e+38,-3.4028235e+38,
3.4028235e+38,3.4028235e+38,3.4028235e+38,3.4028235e+38,3.4028235e+38,3.4028235e+38,3.4028235e+38,3.4028235e+38,3.4028235e+38,3.4028235e+38,3.4028235e+38,3.4028235e+38,3.4028235e+38,3.4028235e+38,3.4028235e+38,3.4028235e+38,3.4028235e+38,3.4028235e+38,3.4028235e+38,3.4028235e+38,3.4028235e+38,3.4028235e+38,3.4028235e+38,3.4028235e+38,3.4028235e+38,3.4028235e+38,3.4028235e+38,3.4028235e+38,3.4028235e+38,3.4028235e+38,3.4028235e+38,3.4028235e+38,3.4028235e+38,3.4028235e+38,3.4028235e+38,3.4028235e+38,3.4028235e+38,3.4028235e+38,3.4028235e+38,3.4028235e+38,3.4028235e+38,3.4028235e+38,3.4028235e+38,3.4028235e+38,3.4028235e+38,3.4028235e+38,3.4028235e+38,3.4028235e+38,3.4028235e+38,3.4028235e+38,3.4028235e+38,3.4028235e+38,3.4028235e+38,3.4028235e+38,3.4028235e+38,3.4028235e+38,3.4028235e+38,3.4028235e+38,3.4028235e+38,3.4028235e+38,3.4028235e+38,3.4028235e+38,3.4028235e+38,3.4028235e+38,3.4028235e+38,3.4028235e+38,3.4028235e+38,3.4028235e+38,3.4028235e+38,3.4028235e+38,3.4028235e+38,3.4028235e+38,3.4028235e+38,3.4028235e+38,3.4028235e+38,3.4028235e+38,3.4028235e+38,3.4028235e+38,3.4028235e+38,3.4028235e+38,3.4028235e+38,3.4028235e+38,3.4028235e+38,3.4028235e+38,3.4028235e+38,3.4028235e+38,3.4028235e+38,3.4028235e+38,3.4028235e+38,3.4028235e+38,3.4028235e+38,3.4028235e+38,3.4028235e+38,3.4028235e+38,3.4028235e+38,3.4028235e+38,3.4028235e+38,3.4028235e+38,3.4028235e+38,3.4028235e+38,3.4028235e+38,3.4028235e+38,3.4028235e+38,3.4028235e+38,3.4028235e+38,3.4028235e+38,3.4028235e+38,3.4028235e+38,3.4028235e+38,3.4028235e+38,3.4028235e+38,3.4028235e+38,3.4028235e+38,3.4028235e+38,3.4028235e+38,3.4028235e+38,3.4028235e+38,3.4028235e+38,3.4028235e+38,3.4028235e+38,3.4028235e+38,3.4028235e+38,3.4028235e+38,3.4028235e+38,3.4028235e+38,3.4028235e+38,3.4028235e+38,3.4028235e+38,3.4028235e+38,3.4028235e+38,3.4028235e+38,3.4028235e+38,3.4028235e+38,3.4028235e+38,3.4028235e+38,3.4028235e+38,3.4028235e+38,3.4028235e+38,3.4028235e+38,3.4028235e+38,3.4028235e+38,3.4028235e+38,3.4028235e+38,3.4028235e+38,3.4028235e+38,3.4028235e+38,3.4028235e+38,3.4028235e+38,3.4028235e+38,3.4028235e+38,3.4028235e+38,3.4028235e+38,3.4028235e+38,3.4028235e+38,3.4028235e+38,3.4028235e+38,3.4028235e+38,3.4028235e+38,3.4028235e+38,3.4028235e+38,3.4028235e+38,3.4028235e+38,3.4028235e+38,3.4028235e+38,3.4028235e+38,3.4028235e+38,3.4028235e+38,3.4028235e+38,3.4028235e+38,3.4028235e+38,3.4028235e+38,3.4028235e+38,3.4028235e+38,3.4028235e+38,3.4028235e+38,3.4028235e+38,3.4028235e+38,3.4028235e+38,3.4028235e+38,3.4028235e+38,3.4028235e+38,3.4028235e+38,3.4028235e+38,3.4028235e+38,3.4028235e+38,3.4028235e+38,3.4028235e+38,3.4028235e+38,3.4028235e+38,3.4028235e+38,3.4028235e+38,3.4028235e+38,3.4028235e+38,3.4028235e+38,3.4028235e+38,3.4028235e+38,3.4028235e+38,3.4028235e+38,3.4028235e+38,3.4028235e+38,3.4028235e+38,3.4028235e+38,3.4028235e+38,3.4028235e+38,3.4028235e+38,3.4028235e+38,3.4028235e+38,3.4028235e+38,3.4028235e+38,3.4028235e+38,3.4028235e+38,3.4028235e+38,3.4028235e+38,3.4028235e+38,3.4028235e+38,3.4028235e+38,3.4028235e+38,3.4028235e+38,3.4028235e+38,3.4028235e+38,3.4028235e+38,3.4028235e+38,3.4028235e+38,3.4028235e+38,3.4028235e+38,3.4028235e+38,3.4028235e+38,3.4028235e+38,3.4028235e+38,3.4028235e+38,3.4028235e+38,3.4028235e+38,3.4028235e+38,3.4028235e+38,3.4028235e+38,3.4028235e+38,3.4028235e+38,3.4028235e+38,3.4028235e+38,3.4028235e+38,3.4028235e+38,3.4028235e+38,3.4028235e+38,3.4028235e+38,3.4028235e+38,3.4028235e+38,3.4028235e+38,3.4028235e+38,3.4028235e+38,3.4028235e+38,3.4028235e+38,3.4028235e+38,3.4028235e+38,3.4028235e+38,3.4028235e+38,3.4028235e+38,3.4028235e+38,3.4028235e+38,3.4028235e+38,3.4028235e+38,3.4028235e+38,3.4028235e+38,3.4028235e+38,3.4028235e+38,3.4028235e+38,3.4028235e+38,3.4028235e+38,3.4028235e+38,3.4028235e+38,3.4028235e+38,3.4028235e+38,3.4028235e+38,3.4028235e+38,3.4028235e+38,3.4028235e+38,3.4028235e+38,3.4028235e+38,3.4028235e+38,3.4028235e+38,3.4028235e+38,3.4028235e+38,3.4028235e+38,3.4028235e+38,3.4028235e+38,3.4028235e+38,3.4028235e+38,3.4028235e+38,3.4028235e+38,3.4028235e+38,3.4028235e+38,3.4028235e+38,3.4028235e+38,3.4028235e+38,3.4028235e+38,3.4028235e+38,3.4028235e+38,3.4028235e+38,3.4028235e+38,3.4028235e+38,3.4028235e+38,3.4028235e+38,3.4028235e+38,3.4028235e+38,3.4028235e+38,3.4028235e+38,3.4028235e+38,3.4028235e+38,3.4028235e+38,3.4028235e+38,3.4028235e+38,3.4028235e+38,3.4028235e+38,3.4028235e+38,3.4028235e+38,3.4028235e+38,3.4028235e+38,3.4028235e+38,3.4028235e+38,3.4028235e+38,3.4028235e+38,3.4028235e+38,3.4028235e+38,3.4028235e+38,3.4028235e+38,3.4028235e+38,3.4028235e+38,3.4028235e+38,3.4028235e+38,3.4028235e+38,3.4028235e+38,3.4028235e+38,3.4028235e+38,3.4028235e+38,3.4028235e+38,3.4028235e+38,3.4028235e+38,3.4028235e+38,3.4028235e+38,3.4028235e+38,3.4028235e+38,3.4028235e+38,3.4028235e+38,3.4028235e+38,3.4028235e+38,3.4028235e+38,3.4028235e+38,3.4028235e+38,3.4028235e+38,3.4028235e+38,3.4028235e+38,3.4028235e+38,3.4028235e+38,3.4028235e+38,3.4028235e+38,3.4028235e+38,3.4028235e+38,3.4028235e+38,3.4028235e+38,3.4028235e+38,3.4028235e+38,3.4028235e+38,3.4028235e+38,3.4028235e+38,3.4028235e+38,3.4028235e+38,3.4028235e+38,3.4028235e+38,3.4028235e+38,3.4028235e+38,3.4028235e+38,3.4028235e+38,3.4028235e+38,3.4028235e+38,3.4028235e+38,3.4028235e+38,3.4028235e+38,3.4028235e+38,3.4028235e+38,3.4028235e+38,3.4028235e+38,3.4028235e+38,3.4028235e+38,3.4028235e+38,3.4028235e+38,3.4028235e+38,3.4028235e+38,3.4028235e+38,3.4028235e+38,3.4028235e+38,3.4028235e+38,3.4028235e+38,3.4028235e+38,3.4028235e+38,3.4028235e+38,3.4028235e+38,3.4028235e+38,3.4028235e+38,3.4028235e+38,3.4028235e+38,3.4028235e+38,3.4028235e+38,3.4028235e+38,3.4028235e+38,3.4028235e+38,3.4028235e+38,3.4028235e+38,3.4028235e+38,3.4028235e+38,3.4028235e+38,3.4028235e+38,3.4028235e+38,3.4028235e+38,3.4028235e+38,3.4028235e+38,3.4028235e+38,3.4028235e+38,3.4028235e+38,3.4028235e+38,3.4028235e+38,3.4028235e+38,3.4028235e+38,3.4028235e+38,3.4028235e+38,3.4028235e+38,3.4028235e+38,3.4028235e+38,3.4028235e+38,3.4028235e+38,3.4028235e+38,3.4028235e+38,3.4028235e+38,3.4028235e+38,3.4028235e+38,3.4028235e+38,3.4028235e+38,3.4028235e+38,3.4028235e+38,3.4028235e+38,3.4028235e+38,3.4028235e+38,3.4028235e+38,3.4028235e+38,3.4028235e+38,3.4028235e+38,3.4028235e+38,3.4028235e+38,3.4028235e+38,3.4028235e+38,3.4028235e+38,3.4028235e+38,3.4028235e+38,3.4028235e+38,3.4028235e+38,3.4028235e+38,3.4028235e+38,3.4028235e+38,3.4028235e+38,3.4028235e+38,3.4028235e+38,3.4028235e+38,3.4028235e+38,3.4028235e+38,3.4028235e+38,3.4028235e+38,3.4028235e+38,3.4028235e+38,3.4028235e+38,3.4028235e+38,3.4028235e+38,3.4028235e+38,3.4028235e+38,3.4028235e+38,3.4028235e+38,3.4028235e+38,3.4028235e+38,3.4028235e+38,3.4028235e+38,3.4028235e+38,3.4028235e+38,3.4028235e+38,3.4028235e+38,3.4028235e+38,3.4028235e+38,3.4028235e+38,3.4028235e+38,3.4028235e+38,3.4028235e+38,3.4028235e+38,3.4028235e+38,3.4028235e+38,3.4028235e+38,3.4028235e+38,3.4028235e+38,3.4028235e+38,3.4028235e+38,3.4028235e+38,3.4028235e+38,3.4028235e+38,3.4028235e+38,3.4028235e+38,3.4028235e+38,3.4028235e+38,3.4028235e+38,3.4028235e+38,3.4028235e+38,3.4028235e+38,3.4028235e+38,3.4028235e+38,3.4028235e+38,3.4028235e+38,3.4028235e+38,3.4028235e+38,3.4028235e+38,3.4028235e+38,3.4028235e+38,3.4028235e+38,3.4028235e+38,3.4028235e+38,3.4028235e+38,3.4028235e+38,3.4028235e+38,3.4028235e+38,3.4028235e+38,3.4028235e+38,3.4028235e+38,3.4028235e+38,3.4028235e+38,3.4028235e+38,3.4028235e+38,3.4028235e+38,3.4028235e+38,3.4028235e+38,3.4028235e+38,3.4028235e+38,3.4028235e+38,3.4028235e+38,3.4028235e+38,3.4028235e+38,3.4028235e+38,3.4028235e+38,3.4028235e+38,3.4028235e+38,3.4028235e+38,3.4028235e+38,3.4028235e+38,3.4028235e+38,3.4028235e+38,3.4028235e+38,3.4028235e+38,3.4028235e+38,3.4028235e+38,3.4028235e+38,3.4028235e+38,3.4028235e+38,3.4028235e+38,3.4028235e+38,3.4028235e+38,3.4028235e+38,3.4028235e+38,3.4028235e+38,3.4028235e+38,3.4028235e+38,3.4028235e+38,3.4028235e+38,3.4028235e+38,3.4028235e+38,3.4028235e+38,3.4028235e+38,3.4028235e+38,3.4028235e+38,3.4028235e+38,3.4028235e+38,3.4028235e+38,3.4028235e+38,3.4028235e+38,3.4028235e+38,3.4028235e+38,3.4028235e+38,3.4028235e+38,3.4028235e+38,3.4028235e+38,3.4028235e+38,3.4028235e+38,3.4028235e+38,3.4028235e+38,3.4028235e+38,3.4028235e+38,3.4028235e+38,3.4028235e+38,3.4028235e+38,3.4028235e+38,3.4028235e+38,3.4028235e+38,3.4028235e+38,3.4028235e+38,3.4028235e+38,3.4028235e+38,3.4028235e+38,3.4028235e+38,3.4028235e+38,3.4028235e+38,3.4028235e+38,3.4028235e+38,3.4028235e+38,3.4028235e+38,3.4028235e+38,3.4028235e+38,3.4028235e+38,3.4028235e+38,3.4028235e+38,3.4028235e+38,3.4028235e+38,3.4028235e+38,3.4028235e+38,3.4028235e+38,3.4028235e+38,3.4028235e+38,3.4028235e+38,3.4028235e+38,3.4028235e+38,3.4028235e+38,3.4028235e+38,3.4028235e+38,3.4028235e+38,3.4028235e+38,3.4028235e+38,3.4028235e+38,3.4028235e+38,3.4028235e+38,3.4028235e+38,3.4028235e+38,3.4028235e+38,3.4028235e+38,3.4028235e+38,3.4028235e+38,3.4028235e+38,3.4028235e+38,3.4028235e+38,3.4028235e+38,3.4028235e+38,3.4028235e+38,3.4028235e+38,3.4028235e+38,3.4028235e+38,3.4028235e+38,3.4028235e+38,3.4028235e+38,3.4028235e+38,3.4028235e+38,3.4028235e+38,3.4028235e+38,3.4028235e+38,3.4028235e+38,3.4028235e+38,3.4028235e+38,3.4028235e+38,3.4028235e+38,3.4028235e+38,3.4028235e+38,3.4028235e+38,3.4028235e+38,3.4028235e+38,3.4028235e+38,3.4028235e+38,3.4028235e+38,3.4028235e+38,3.4028235e+38,3.4028235e+38,3.4028235e+38,3.4028235e+38,3.4028235e+38,3.4028235e+38,3.4028235e+38,3.4028235e+38,3.4028235e+38,3.4028235e+38,3.4028235e+38,3.4028235e+38,3.4028235e+38,3.4028235e+38,3.4028235e+38,3.4028235e+38,3.4028235e+38,3.4028235e+38,3.4028235e+38,3.4028235e+38,3.4028235e+38,3.4028235e+38,3.4028235e+38,3.4028235e+38,3.4028235e+38,3.4028235e+38,3.4028235e+38,3.4028235e+38,3.4028235e+38,3.4028235e+38,3.4028235e+38,3.4028235e+38,3.4028235e+38,3.4028235e+38,3.4028235e+38,3.4028235e+38,3.4028235e+38,3.4028235e+38,3.4028235e+38,3.4028235e+38,3.4028235e+38,3.4028235e+38,3.4028235e+38,3.4028235e+38,3.4028235e+38,3.4028235e+38,3.4028235e+38,3.4028235e+38,3.4028235e+38,3.4028235e+38,3.4028235e+38,3.4028235e+38,3.4028235e+38,3.4028235e+38,3.4028235e+38,3.4028235e+38,3.4028235e+38,3.4028235e+38,3.4028235e+38,3.4028235e+38,3.4028235e+38,3.4028235e+38,3.4028235e+38,3.4028235e+38,3.4028235e+38,3.4028235e+38,3.4028235e+38,3.4028235e+38,3.4028235e+38,3.4028235e+38,3.4028235e+38,3.4028235e+38,3.4028235e+38,3.4028235e+38,3.4028235e+38,3.4028235e+38,3.4028235e+38,3.4028235e+38,3.4028235e+38,3.4028235e+38,3.4028235e+38,3.4028235e+38,3.4028235e+38,3.4028235e+38,3.4028235e+38,3.4028235e+38,3.4028235e+38,3.4028235e+38,3.4028235e+38,3.4028235e+38,3.4028235e+38,3.4028235e+38,3.4028235e+38,3.4028235e+38,3.4028235e+38,3.4028235e+38,3.4028235e+38,3.4028235e+38,3.4028235e+38,3.4028235e+38,3.4028235e+38,3.4028235e+38,3.4028235e+38,3.4028235e+38,3.4028235e+38,3.4028235e+38,3.4028235e+38,3.4028235e+38,3.4028235e+38,3.4028235e+38,3.4028235e+38,3.4028235e+38,3.4028235e+38,3.4028235e+38,3.4028235e+38,3.4028235e+38,3.4028235e+38,3.4028235e+38,
0.0,0.0,0.0,0.0,0.0,0.0,0.0,0.0,0.0,0.0,0.0,0.0,0.0,0.0,0.0,0.0,0.0,0.0,0.0,0.0,0.0,0.0,0.0,0.0,0.0,0.0,0.0,0.0,0.0,0.0,0.0,0.0,0.0,0.0,0.0,0.0,0.0,0.0,0.0,0.0,0.0,0.0,0.0,0.0,0.0,0.0,0.0,0.0,0.0,0.0,0.0,0.0,0.0,0.0,0.0,0.0,0.0,0.0,0.0,0.0,0.0,0.0,0.0,0.0,0.0,0.0,0.0,0.0,0.0,0.0,0.0,0.0,0.0,0.0,0.0,0.0,0.0,0.0,0.0,0.0,0.0,0.0,0.0,0.0,0.0,0.0,0.0,0.0,0.0,0.0,0.0,0.0,0.0,0.0,0.0,0.0,0.0,0.0,0.0,0.0,0.0,0.0,0.0,0.0,0.0,0.0,0.0,0.0,0.0,0.0,0.0,0.0,0.0,0.0,0.0,0.0,0.0,0.0,0.0,0.0,0.0,0.0,0.0,0.0,0.0,0.0,0.0,0.0,0.0,0.0,0.0,0.0,0.0,0.0,0.0,0.0,0.0,0.0,0.0,0.0,0.0,0.0,0.0,0.0,0.0,0.0,0.0,0.0,0.0,0.0,0.0,0.0,0.0,0.0,0.0,0.0,0.0,0.0,0.0,0.0,0.0,0.0,0.0,0.0,0.0,0.0,0.0,0.0,0.0,0.0,0.0,0.0,0.0,0.0,0.0,0.0,0.0,0.0,0.0,0.0,0.0,0.0,0.0,0.0,0.0,0.0,0.0,0.0,0.0,0.0,0.0,0.0,0.0,0.0,0.0,0.0,0.0,0.0,0.0,0.0,0.0,0.0,0.0,0.0,0.0,0.0,0.0,0.0,0.0,0.0,0.0,0.0,0.0,0.0,0.0,0.0,0.0,0.0,0.0,0.0,0.0,0.0,0.0,0.0,0.0,0.0,0.0,0.0,0.0,0.0,0.0,0.0,0.0,0.0,0.0,0.0,0.0,0.0,0.0,0.0,0.0,0.0,0.0,0.0,0.0,0.0,0.0,0.0,0.0,0.0,0.0,0.0,0.0,0.0,0.0,0.0,0.0,0.0,0.0,0.0,0.0,0.0,0.0,0.0,0.0,0.0,0.0,0.0,0.0,0.0,0.0,0.0,0.0,0.0,0.0,0.0,0.0,0.0,0.0,0.0,0.0,0.0,0.0,0.0,0.0,0.0,0.0,0.0,0.0,0.0,0.0,0.0,0.0,0.0,0.0,0.0,0.0,0.0,0.0,0.0,0.0,0.0,0.0,0.0,0.0,0.0,0.0,0.0,0.0,0.0,0.0,0.0,0.0,0.0,0.0,0.0,0.0,0.0,0.0,0.0,0.0,0.0,0.0,0.0,0.0,0.0,0.0,0.0,0.0,0.0,0.0,0.0,0.0,0.0,0.0,0.0,0.0,0.0,0.0,0.0,0.0,0.0,0.0,0.0,0.0,0.0,0.0,0.0,0.0,0.0,0.0,0.0,0.0,0.0,0.0,0.0,0.0,0.0,0.0,0.0,0.0,0.0,0.0,0.0,0.0,0.0,0.0,0.0,0.0,0.0,0.0,0.0,0.0,0.0,0.0,0.0,0.0,0.0,0.0,0.0,0.0,0.0,0.0,0.0,0.0,0.0,0.0,0.0,0.0,0.0,0.0,0.0,0.0,0.0,0.0,0.0,0.0,0.0,0.0,0.0,0.0,0.0,0.0,0.0,0.0,0.0,0.0,0.0,0.0,0.0,0.0,0.0,0.0,0.0,0.0,0.0,0.0,0.0,0.0,0.0,0.0,0.0,0.0,0.0,0.0,0.0,0.0,0.0,0.0,0.0,0.0,0.0,0.0,0.0,0.0,0.0,0.0,0.0,0.0,0.0,0.0,0.0,0.0,0.0,0.0,0.0,0.0,0.0,0.0,0.0,0.0,0.0,0.0,0.0,0.0,0.0,0.0,0.0,0.0,0.0,0.0,0.0,0.0,0.0,0.0,0.0,0.0,0.0,0.0,0.0,0.0,0.0,0.0,0.0,0.0,0.0,0.0,0.0,0.0,0.0,0.0,0.0,0.0,0.0,0.0,0.0,0.0,0.0,0.0,0.0,0.0,0.0,0.0,0.0,0.0,0.0,0.0,0.0,0.0,0.0,0.0,0.0,0.0,0.0,0.0,0.0,0.0,0.0,0.0,0.0,0.0,0.0,0.0,0.0,0.0,0.0,0.0,0.0,0.0,0.0,0.0,0.0,0.0,0.0,0.0,0.0,0.0,0.0,0.0,0.0,0.0,0.0,0.0,0.0,0.0,0.0,0.0,0.0,0.0,0.0,0.0,0.0,0.0,0.0,0.0,0.0,0.0,0.0,0.0,0.0,0.0,0.0,0.0,0.0,0.0,0.0,0.0,0.0,0.0,0.0,0.0,0.0,0.0,0.0,0.0,0.0,0.0,0.0,0.0,0.0,0.0,0.0,0.0,0.0,0.0,0.0,0.0,0.0,0.0,0.0,0.0,0.0,0.0,0.0,0.0,0.0,0.0,0.0,0.0,0.0,0.0,0.0,0.0,0.0,0.0,0.0,0.0,0.0,0.0,0.0,0.0,0.0,0.0,0.0,0.0,0.0,0.0,0.0,0.0,0.0,0.0,0.0,0.0,0.0,0.0,0.0,0.0,0.0,0.0,0.0,0.0,0.0,0.0,0.0,0.0,0.0,0.0,0.0,0.0,0.0,0.0,0.0,0.0,0.0,0.0,0.0,0.0,0.0,0.0,0.0,0.0,0.0,0.0,0.0,0.0,0.0,0.0,0.0,0.0,0.0,0.0,0.0,0.0,0.0,0.0,0.0,0.0,0.0,0.0,0.0,0.0,0.0,0.0,0.0,0.0,0.0,0.0,0.0,0.0,0.0,0.0,0.0,0.0,0.0,0.0,0.0,0.0,0.0,0.0,0.0,0.0,0.0,0.0,0.0,0.0,0.0,0.0,0.0,0.0,0.0,0.0,0.0,0.0,0.0,0.0,0.0,0.0,0.0,0.0,0.0,0.0,0.0,0.0,0.0,0.0,0.0,0.0,0.0,0.0,0.0,0.0,0.0,0.0,0.0,0.0,0.0,0.0,0.0,0.0,0.0,0.0,0.0,0.0,0.0,0.0,0.0,0.0,0.0,0.0,0.0,0.0,0.0,0.0,0.0,0.0,0.0,0.0,0.0,0.0,0.0,0.0,0.0,0.0,0.0,0.0,0.0,0.0,0.0,0.0,0.0,0.0,0.0,0.0,0.0,0.0,0.0,0.0,0.0,0.0,0.0,0.0,0.0,0.0,0.0,0.0,0.0,0.0,0.0,0.0,0.0,0.0,0.0,0.0,0.0,0.0,0.0,0.0,0.0,0.0,0.0,0.0,0.0,0.0,0.0,0.0,
1.0,1.0,1.0,1.0,1.0,1.0,1.0,1.0,1.0,1.0,1.0,1.0,1.0,1.0,1.0,1.0,1.0,1.0,1.0,1.0,1.0,1.0,1.0,1.0,1.0,1.0,1.0,1.0,1.0,1.0,1.0,1.0,1.0,1.0,1.0,1.0,1.0,1.0,1.0,1.0,1.0,1.0,1.0,1.0,1.0,1.0,1.0,1.0,1.0,1.0,1.0,1.0,1.0,1.0,1.0,1.0,1.0,1.0,1.0,1.0,1.0,1.0,1.0,1.0,1.0,1.0,1.0,1.0,1.0,1.0,1.0,1.0,1.0,1.0,1.0,1.0,1.0,1.0,1.0,1.0,1.0,1.0,1.0,1.0,1.0,1.0,1.0,1.0,1.0,1.0,1.0,1.0,1.0,1.0,1.0,1.0,1.0,1.0,1.0,1.0,1.0,1.0,1.0,1.0,1.0,1.0,1.0,1.0,1.0,1.0,1.0,1.0,1.0,1.0,1.0,1.0,1.0,1.0,1.0,1.0,1.0,1.0,1.0,1.0,1.0,1.0,1.0,1.0,1.0,1.0,1.0,1.0,1.0,1.0,1.0,1.0,1.0,1.0,1.0,1.0,1.0,1.0,1.0,1.0,1.0,1.0,1.0,1.0,1.0,1.0,1.0,1.0,1.0,1.0,1.0,1.0,1.0,1.0,1.0,1.0,1.0,1.0,1.0,1.0,1.0,1.0,1.0,1.0,1.0,1.0,1.0,1.0,1.0,1.0,1.0,1.0,1.0,1.0,1.0,1.0,1.0,1.0,1.0,1.0,1.0,1.0,1.0,1.0,1.0,1.0,1.0,1.0,1.0,1.0,1.0,1.0,1.0,1.0,1.0,1.0,1.0,1.0,1.0,1.0,1.0,1.0,1.0,1.0,1.0,1.0,1.0,1.0,1.0,1.0,1.0,1.0,1.0,1.0,1.0,1.0,1.0,1.0,1.0,1.0,1.0,1.0,1.0,1.0,1.0,1.0,1.0,1.0,1.0,1.0,1.0,1.0,1.0,1.0,1.0,1.0,1.0,1.0,1.0,1.0,1.0,1.0,1.0,1.0,1.0,1.0,1.0,1.0,1.0,1.0,1.0,1.0,1.0,1.0,1.0,1.0,1.0,1.0,1.0,1.0,1.0,1.0,1.0,1.0,1.0,1.0,1.0,1.0,1.0,1.0,1.0,1.0,1.0,1.0,1.0,1.0,1.0,1.0,1.0,1.0,1.0,1.0,1.0,1.0,1.0,1.0,1.0,1.0,1.0,1.0,1.0,1.0,1.0,1.0,1.0,1.0,1.0,1.0,1.0,1.0,1.0,1.0,1.0,1.0,1.0,1.0,1.0,1.0,1.0,1.0,1.0,1.0,1.0,1.0,1.0,1.0,1.0,1.0,1.0,1.0,1.0,1.0,1.0,1.0,1.0,1.0,1.0,1.0,1.0,1.0,1.0,1.0,1.0,1.0,1.0,1.0,1.0,1.0,1.0,1.0,1.0,1.0,1.0,1.0,1.0,1.0,1.0,1.0,1.0,1.0,1.0,1.0,1.0,1.0,1.0,1.0,1.0,1.0,1.0,1.0,1.0,1.0,1.0,1.0,1.0,1.0,1.0,1.0,1.0,1.0,1.0,1.0,1.0,1.0,1.0,1.0,1.0,1.0,1.0,1.0,1.0,1.0,1.0,1.0,1.0,1.0,1.0,1.0,1.0,1.0,1.0,1.0,1.0,1.0,1.0,1.0,1.0,1.0,1.0,1.0,1.0,1.0,1.0,1.0,1.0,1.0,1.0,1.0,1.0,1.0,1.0,1.0,1.0,1.0,1.0,1.0,1.0,1.0,1.0,1.0,1.0,1.0,1.0,1.0,1.0,1.0,1.0,1.0,1.0,1.0,1.0,1.0,1.0,1.0,1.0,1.0,1.0,1.0,1.0,1.0,1.0,1.0,1.0,1.0,1.0,1.0,1.0,1.0,1.0,1.0,1.0,1.0,1.0,1.0,1.0,1.0,1.0,1.0,1.0,1.0,1.0,1.0,1.0,1.0,1.0,1.0,1.0,1.0,1.0,1.0,1.0,1.0,1.0,1.0,1.0,1.0,1.0,1.0,1.0,1.0,1.0,1.0,1.0,1.0,1.0,1.0,1.0,1.0,1.0,1.0,1.0,1.0,1.0,1.0,1.0,1.0,1.0,1.0,1.0,1.0,1.0,1.0,1.0,1.0,1.0,1.0,1.0,1.0,1.0,1.0,1.0,1.0,1.0,1.0,1.0,1.0,1.0,1.0,1.0,1.0,1.0,1.0,1.0,1.0,1.0,1.0,1.0,1.0,1.0,1.0,1.0,1.0,1.0,1.0,1.0,1.0,1.0,1.0,1.0,1.0,1.0,1.0,1.0,1.0,1.0,1.0,1.0,1.0,1.0,1.0,1.0,1.0,1.0,1.0,1.0,1.0,1.0,1.0,1.0,1.0,1.0,1.0,1.0,1.0,1.0,1.0,1.0,1.0,1.0,1.0,1.0,1.0,1.0,1.0,1.0,1.0,1.0,1.0,1.0,1.0,1.0,1.0,1.0,1.0,1.0,1.0,1.0,1.0,1.0,1.0,1.0,1.0,1.0,1.0,1.0,1.0,1.0,1.0,1.0,1.0,1.0,1.0,1.0,1.0,1.0,1.0,1.0,1.0,1.0,1.0,1.0,1.0,1.0,1.0,1.0,1.0,1.0,1.0,1.0,1.0,1.0,1.0,1.0,1.0,1.0,1.0,1.0,1.0,1.0,1.0,1.0,1.0,1.0,1.0,1.0,1.0,1.0,1.0,1.0,1.0,1.0,1.0,1.0,1.0,1.0,1.0,1.0,1.0,1.0,1.0,1.0,1.0,1.0,1.0,1.0,1.0,1.0,1.0,1.0,1.0,1.0,1.0,1.0,1.0,1.0,1.0,1.0,1.0,1.0,1.0,1.0,1.0,1.0,1.0,1.0,1.0,1.0,1.0,1.0,1.0,1.0,1.0,1.0,1.0,1.0,1.0,1.0,1.0,1.0,1.0,1.0,1.0,1.0,1.0,1.0,1.0,1.0,1.0,1.0,1.0,1.0,1.0,1.0,1.0,1.0,1.0,1.0,1.0,1.0,1.0,1.0,1.0,1.0,1.0,1.0,1.0,1.0,1.0,1.0,1.0,1.0,1.0,1.0,1.0,1.0,1.0,1.0,1.0,1.0,1.0,1.0,1.0,1.0,1.0,1.0,1.0,1.0,1.0,1.0,1.0,1.0,1.0,1.0,1.0,1.0,1.0,1.0,1.0,1.0,1.0,1.0,1.0,1.0,1.0,1.0,1.0,1.0,1.0,1.0,1.0,1.0,1.0,1.0,1.0,1.0,1.0,1.0,1.0,1.0,1.0,1.0,1.0,1.0,1.0,1.0,1.0,1.0,1.0,1.0,1.0,1.0,
4.29788e-02,-5.36489e-02,1.05850e-01,-8.29967e-02,-9.51616e-02,-5.03454e-02,-4.93068e-03,1.12692e-01,-9.60251e-02,-1.70313e-01,-4.64048e-02,-5.03822e-02,-6.92028e-02,-1.03394e-01,-1.59866e-02,1.35355e-02,-6.84796e-03,5.36277e-02,-1.17171e-01,6.08870e-02,1.24925e-01,-5.93099e-02,-2.41119e-02,4.35762e-02,8.78410e-02,-8.16460e-02,1.53507e-02,1.09120e-01,5.99893e-02,5.63438e-02,-1.47168e-01,7.82280e-02,-5.65733e-03,-5.26923e-02,1.52127e-01,7.12780e-02,9.66639e-02,6.70245e-03,-6.10361e-02,-1.87097e-01,5.07875e-02,-9.12990e-02,1.15188e-02,-7.50861e-02,1.34146e-01,7.29259e-02,8.18790e-02,-1.10587e-01,2.99170e-02,3.50534e-02,-1.89544e-03,-1.17420e-02,9.46210e-02,-2.02762e-03,1.75538e-02,1.94247e-01,1.94108e-03,-9.34830e-02,1.55148e-01,1.00025e-01,1.12913e-01,1.90183e-02,3.88854e-02,-1.18828e-01,1.29483e-01,1.03536e-01,-7.19144e-02,8.55514e-02,-4.00975e-02,1.27118e-01,2.45253e-03,-8.36782e-02,7.13587e-02,-6.14916e-02,-5.39804e-03,-1.34242e-01,7.10713e-02,-3.01786e-02,5.28932e-02,1.22682e-01,1.55537e-01,-1.85988e-01,-1.49997e-02,-1.61267e-01,-9.52043e-02,-1.88995e-01,-6.58591e-02,-6.86388e-02,2.60054e-02,1.57014e-02,-2.35087e-02,-4.70087e-02,-1.30477e-01,-8.70087e-02,-1.53111e-01,-1.88301e-01,-1.78510e-01,5.99417e-02,-9.97746e-02,-1.46474e-01,1.07088e-01,-2.12475e-02,7.73224e-02,-1.39080e-01,-7.54496e-02,6.63172e-02,-4.96194e-02,-4.27602e-02,-1.67956e-02,1.02073e-01,-7.51266e-02,-3.88634e-02,2.36211e-02,-7.92398e-03,1.30885e-02,-8.74246e-02,4.74302e-02,-1.23335e-01,-1.46998e-02,-3.65978e-02,-9.50562e-02,8.15895e-02,-7.30154e-02,7.65715e-02,-1.70197e-01,5.25247e-03,4.22682e-02,-3.65239e-02,-6.95890e-02,-1.84664e-01,1.75845e-02,-1.57421e-01,-7.03858e-02,-2.28714e-02,1.93577e-01,-6.88368e-02,-1.15558e-01,-4.79022e-03,-1.12596e-01,9.95263e-02,3.98765e-02,-2.62534e-02,-1.30750e-02,-5.97709e-03,9.68292e-02,8.33704e-02,-1.04236e-02,-1.47894e-02,2.42612e-02,1.19038e-01,4.54003e-02,7.54871e-02,-9.82252e-02,-1.93613e-01,-8.81082e-02,1.17212e-01,1.69314e-01,4.97242e-02,1.27049e-01,3.83225e-02,1.16435e-02,-5.38925e-02,6.43391e-02,-6.16619e-02,-5.49439e-02,2.26671e-02,-7.22090e-03,-2.83014e-03,1.27614e-01,-7.41275e-02,4.57095e-02,-1.14665e-01,-4.65188e-02,-1.13478e-01,1.28815e-01,1.26609e-01,4.14111e-02,6.52619e-02,1.67652e-01,-1.04034e-01,6.69441e-02,5.73789e-02,1.62102e-02,-5.25358e-02,-2.07718e-02,1.03486e-01,-5.34748e-02,-9.40204e-02,6.66086e-02,2.86497e-03,-4.10181e-02,5.58186e-02,-9.80105e-02,1.51249e-02,2.01667e-02,-4.76537e-02,7.22232e-02,-1.83659e-01,-6.13700e-02,1.47569e-01,-1.69389e-01,1.11553e-02,-9.02774e-02,-1.25747e-01,7.12961e-02,5.26928e-02,-1.30597e-02,-3.22219e-02,-6.16568e-02,-5.11888e-02,-1.40936e-01,-2.15177e-01,-1.05441e-01,-1.20919e-01,-3.66436e-02,-2.98287e-02,-2.50837e-02,4.50172e-02,-1.58978e-02,1.10733e-01,1.68795e-02,6.79536e-02,-1.98264e-02,-1.26488e-02,3.65749e-02,-7.29082e-02,1.51161e-01,1.18396e-01,6.34891e-02,-9.20900e-02,-3.58019e-02,-4.56903e-02,6.29789e-02,-3.71765e-02,1.52683e-02,3.72523e-02,-8.37726e-02,2.49691e-02,-1.28359e-01,-4.53379e-02,-2.70251e-01,-8.90091e-03,-7.75770e-03,1.83781e-02,1.14853e-01,4.49222e-02,9.51044e-02,-1.09985e-01,9.02693e-02,-4.51118e-02,-7.77193e-02,6.57385e-02,-1.74968e-01,3.16339e-02,6.37295e-02,8.85891e-03,4.10875e-02,4.20047e-02,6.16829e-02,-9.16724e-02,-1.90247e-01,2.60734e-02,5.26332e-02,6.60202e-03,1.94702e-01,2.72691e-02,6.45977e-02,2.50173e-02,-3.64855e-02,-1.35326e-01,-1.06961e-01,-7.89211e-02,5.63455e-02,1.66580e-02,3.90868e-02,-7.20964e-02,6.49964e-03,-1.99397e-02,-1.07541e-01,-1.90537e-01,-2.61620e-02,-9.13273e-03,-1.40530e-01,-9.14472e-03,-1.01756e-01,6.70224e-03,-1.00061e-01,-4.45532e-02,-2.14718e-03,-5.92053e-02,-1.08605e-02,8.93282e-02,-2.57322e-02,2.20497e-01,9.16564e-02,-1.15188e-01,-1.11052e-01,-1.84678e-01,-2.25398e-01,-1.59420e-02,2.67321e-01,1.91424e-01,8.14067e-02,-5.10182e-02,2.99525e-02,-1.60388e-02,-1.50960e-01,-4.98771e-02,3.26745e-02,-5.25078e-02,-4.54280e-02,1.98147e-01,5.49669e-02,1.13269e-02,-8.76994e-02,-2.11638e-01,5.88603e-02,-1.94194e-01,-2.12902e-01,-5.15293e-02,-7.67659e-02,-3.36728e-02,-2.99878e-02,1.07897e-01,-1.83795e-01,-5.65387e-02,-4.01083e-02,-5.65607e-02,5.24585e-02,4.34245e-02,8.63169e-03,-3.44315e-02,-7.86277e-02,-1.33684e-01,-4.94606e-02,-6.64874e-02,-1.60634e-01,-8.21082e-02,-1.52643e-01,-7.73850e-02,-1.11938e-01,-7.48159e-02,3.71584e-03,-2.80034e-01,-1.46417e-01,-2.64019e-02,-1.05149e-01,-1.77722e-01,-8.39652e-02,-2.21519e-01,-1.70402e-02,-1.00970e-01,-7.08461e-02,-1.42944e-01,-7.94394e-02,9.06830e-02,1.21658e-01,1.88208e-01,2.41972e-02,-9.89484e-02,4.56885e-02,1.03120e-01,3.85421e-02,9.76589e-02,-1.15777e-02,1.01608e-01,5.13647e-04,-2.44454e-02,9.05960e-02,1.33710e-01,-8.01192e-02,-6.90194e-02,-1.80187e-01,-7.32819e-02,1.13272e-02,-8.68112e-02,-1.23759e-02,4.52239e-02,-6.30261e-02,-1.69720e-01,-3.31007e-02,-6.19516e-02,3.90839e-03,2.99999e-02,7.93143e-02,1.33421e-01,1.50462e-03,1.02130e-01,9.62129e-02,8.73042e-02,8.81837e-03,1.92077e-01,-1.75312e-01,-6.70609e-02,-3.98690e-02,-1.05572e-01,9.89564e-02,-1.69872e-02,1.10292e-01,-1.81329e-01,-5.57959e-02,1.18818e-01,1.35006e-01,7.67317e-02,1.64963e-01,-7.85415e-02,-6.71473e-02,-1.11061e-01,4.01172e-02,3.65936e-02,-1.89989e-02,-1.02876e-01,1.26359e-01,2.28356e-03,-1.56318e-01,1.56509e-01,7.44774e-03,-1.43243e-01,-1.71375e-02,8.17630e-03,-9.50706e-02,9.58169e-02,-1.60874e-01,1.24563e-01,-1.43489e-01,-6.68510e-02,5.94199e-02,-4.05862e-02,1.74577e-01,7.99960e-02,3.75537e-02,1.27657e-01,9.28754e-02,-3.22279e-02,4.18688e-02,-3.74578e-03,-1.27386e-01,-8.01286e-02,5.43518e-02,1.82492e-01,1.51250e-01,-1.04559e-01,3.90861e-02,-1.53611e-01,1.39935e-02,1.76645e-02,7.64905e-02,-1.01548e-01,-1.03925e-01,-5.91593e-02,1.28769e-01,2.10219e-01,2.66943e-02,8.77400e-02,6.21833e-02,1.93354e-01,6.76053e-02,4.35599e-02,1.01924e-01,-1.29343e-01,1.09951e-01,6.78281e-02,-8.88214e-02,7.87701e-02,9.48557e-02,4.70145e-02,1.96501e-01,2.40218e-01,-8.62894e-02,-2.08614e-02,6.00387e-02,-6.62432e-02,-4.47990e-03,1.28669e-01,-9.92569e-02,-7.77844e-02,-8.64083e-02,-6.39418e-02,7.27284e-02,9.45410e-02,1.63408e-01,8.11816e-02,1.45131e-01,5.18587e-02,1.67803e-01,-1.36256e-02,1.42423e-01,-2.58774e-02,2.03659e-02,-4.14776e-02,1.78174e-02,1.81099e-01,7.64615e-02,1.82652e-01,-3.19631e-02,1.33108e-01,-8.14702e-02,1.26747e-01,7.85860e-02,4.06999e-02,1.19464e-01,-7.19055e-02,-1.26143e-01,8.15651e-03,5.16898e-02,3.46729e-02,2.28456e-02,1.61188e-01,-9.71602e-02,3.95192e-02,2.06026e-01,-9.46705e-03,-4.85558e-02,-2.47584e-02,-4.93624e-02,-3.47124e-02,1.24739e-01,9.97663e-02,1.02688e-01,-7.87573e-02,-9.32554e-02,-1.15726e-01,3.29295e-02,8.11936e-02,1.78478e-03,-4.10664e-02,8.30858e-03,-4.72964e-02,1.65252e-01,-2.04534e-02,1.39603e-02,1.52329e-01,5.56869e-02,-1.38070e-02,7.80083e-02,-1.35023e-01,2.18657e-01,1.54098e-01,2.43840e-01,7.87807e-02,-8.88792e-02,2.68666e-02,1.24006e-01,-2.20522e-01,-1.38434e-01,-1.33913e-01,-7.36955e-02,-1.30591e-01,-1.77469e-02,-5.92121e-03,-8.10320e-03,-4.60011e-02,2.55788e-02,1.30847e-01,-5.89755e-02,1.59765e-01,5.88942e-02,-3.31954e-02,-1.07346e-01,1.86190e-01,9.26823e-02,1.02366e-01,-2.80299e-02,9.55286e-02,1.07287e-01,1.63863e-01,8.97830e-02,1.98625e-01,-5.64130e-02,-6.51068e-02,-1.86508e-01,-3.17483e-02,3.34524e-02,-8.99455e-02,-2.64191e-02,-1.30511e-01,-4.14052e-03,-2.03223e-02,-2.70853e-02,4.91355e-03,-4.31654e-02,-4.92617e-02,1.05827e-01,1.61688e-01,5.27526e-02,5.27227e-02,-3.77934e-02,1.44877e-01,-5.91607e-02,4.94378e-02,1.39329e-01,1.41739e-01,6.79476e-02,1.85523e-01,6.11449e-02,1.00272e-01,5.38624e-02,-3.07959e-02,-1.61106e-01,-3.87453e-02,-5.27635e-02,6.40104e-02,-1.73651e-01,3.99371e-02,-1.34180e-01,9.59959e-02,6.19693e-02,-1.87224e-01,7.53978e-02,5.12123e-02,6.36498e-02,6.79954e-02,-1.10692e-01,1.36594e-01,3.67181e-02,4.37212e-02,2.24250e-02,4.04648e-02,5.33637e-02,4.71510e-02,-1.25893e-01,1.34759e-01,1.83769e-01,-1.16946e-02,1.82016e-01,2.04397e-01,-1.97741e-02,-2.97254e-02,4.38722e-02,-1.28990e-02,-1.23880e-01,-6.41972e-02,1.11725e-01,-2.77403e-02,-1.23417e-01,-3.64968e-02,-7.36687e-02,9.42377e-02,2.82528e-02,-1.11830e-01,-4.09680e-02,1.87419e-01,-1.08952e-01,-4.51023e-02,-2.29378e-02,-1.48785e-01,-1.41196e-01,-1.37100e-01,3.70902e-03,-3.65213e-02,-9.76511e-02,-1.35553e-01,-9.43000e-02,6.68496e-02,-8.17598e-02,-6.98968e-02,-8.90453e-02,-6.81713e-02,-1.80879e-01,-1.97991e-01,7.50444e-02,-9.24369e-02,8.07250e-03,-1.86109e-02,4.71670e-02,2.92605e-02,-1.45313e-01,-1.78414e-01,1.52939e-01,4.92146e-02,-6.61881e-02,1.72380e-02,-7.76125e-02,1.64794e-01,5.47723e-02,-4.76341e-02,-9.09608e-02,7.25384e-02,-9.44614e-02,-1.21177e-02,-4.21980e-02,-8.32177e-03,-5.10507e-02,1.41787e-01,-5.29105e-02,-1.73392e-02,-7.32189e-02,-3.47804e-02,-3.88370e-02,-5.53124e-02,1.64709e-02,1.20859e-01,-3.32641e-02,-1.99257e-01,-1.60738e-01,-4.98166e-02,-7.41398e-02,-7.29237e-02,1.06817e-01,1.35573e-01,1.13051e-01,-2.97177e-02,3.64893e-03,-7.01212e-02,-1.98115e-01,6.68100e-03,-5.09158e-02,-7.36059e-02,1.57704e-02,7.67402e-03,-1.35682e-01,-1.58145e-01,5.07303e-02,-5.58211e-02,2.72693e-02,-4.25524e-02,3.73515e-02,-2.30048e-01,7.47680e-02,-1.11789e-01,2.34779e-02,-1.22276e-02,1.66174e-01,6.76357e-02,-5.62774e-02,1.89410e-01,-8.22240e-03,6.42615e-02,-5.70364e-02,2.33199e-02,-7.75892e-02,2.39088e-02,-1.49069e-01,4.05664e-02,-3.95814e-02,2.58430e-02,2.07930e-02,-1.72281e-02,-1.15075e-01,-9.69902e-02,3.00989e-02,-1.07873e-01,1.37958e-01,8.83631e-02,1.30078e-01,-8.56600e-02,-1.03220e-02,1.16204e-01,-8.86078e-02,6.03130e-02,1.49348e-02,-8.46843e-02,-1.35610e-01,-6.68934e-02,1.73850e-01,-1.38200e-01,3.25294e-02,4.85762e-03,-9.47424e-02,2.85873e-02,9.23741e-02,7.12838e-02,2.77383e-02,-6.88140e-03,-2.68556e-02,9.37762e-02,-1.22358e-01,-9.74315e-02,9.87902e-02,5.94485e-02,4.55872e-03,9.83088e-02,1.23972e-01,1.13935e-01,2.59726e-02,-2.09330e-02,1.54981e-01,7.11408e-02,7.66715e-02,6.22936e-03,9.34239e-03,-1.52875e-01,-4.82722e-02,-2.55669e-03,
2.06811e-02,1.07315e-01,7.04185e-02,9.70635e-02,8.19961e-02,6.48827e-02,-2.11922e-02,1.28511e-01,-1.00532e-01,-8.06694e-02,-8.37820e-02,5.69589e-03,-1.73002e-02,-2.08394e-02,2.93765e-02,-7.13144e-03,-1.10078e-01,-3.89802e-02,-7.40496e-02,1.13848e-02,-2.78753e-02,-1.32874e-01,-9.25874e-02,5.38318e-02,-1.65908e-01,1.02404e-01,1.58466e-01,6.53090e-05,-3.54397e-02,1.18014e-02,-1.55967e-01,9.02508e-02,2.16558e-02,-2.48855e-02,4.75419e-02,-5.68819e-02,-1.44687e-02,1.81998e-02,-5.48641e-02,5.22916e-02,-1.35940e-01,-2.74522e-03,5.14581e-03,-8.09935e-03,-1.34393e-01,4.14333e-02,-1.05522e-01,1.29452e-01,3.70064e-02,8.93157e-02,1.55360e-01,4.83769e-02,5.57567e-02,2.62202e-02,1.01742e-01,-5.83326e-02,1.17019e-01,-2.12070e-02,-1.39890e-01,1.17474e-01,1.46310e-01,-3.94984e-02,-7.43780e-02,-8.92444e-02,-1.20242e-01,-8.09129e-02,-2.55893e-02,5.26249e-02,2.11332e-03,1.13934e-01,-1.24900e-01,1.71718e-02,-1.38825e-01,3.03142e-02,-1.62105e-01,-1.29065e-01,-1.88688e-01,-5.26535e-02,-8.82701e-02,-1.06773e-02,-8.17345e-02,-9.63544e-02,-1.17485e-01,2.79853e-02,2.04492e-02,-6.98896e-02,-3.03819e-02,1.01339e-01,7.31023e-02,6.28682e-02,-5.04655e-02,-1.02363e-01,1.20082e-01,-4.61863e-02,-1.95950e-02,2.22489e-01,2.31299e-01,7.68298e-02,-5.02098e-02,-5.80465e-02,4.30505e-02,1.36936e-01,1.60258e-01,-7.26950e-02,2.55774e-04,-5.35519e-02,9.76079e-02,5.39446e-02,7.65560e-02,7.52126e-02,1.48336e-01,-1.41932e-01,-4.72627e-02,-1.12619e-01,-4.88214e-02,1.01676e-01,7.50108e-02,-2.24544e-02,1.24705e-02,-8.49463e-02,1.77444e-01,1.31253e-01,5.01334e-02,2.93655e-02,-1.11780e-01,1.44979e-01,-8.30571e-02,-6.22398e-02,2.61947e-02,6.27985e-02,-4.03785e-03,5.44517e-02,-9.40559e-02,-7.13066e-02,-9.58365e-02,6.13921e-03,-1.38714e-01,-9.69777e-04,1.30514e-01,1.24730e-01,-6.20212e-02,8.16732e-02,-1.66600e-01,-8.35746e-02,-2.68208e-03,8.92726e-02,-4.18794e-02,-1.29128e-01,1.77664e-01,1.71463e-01,1.83130e-01,-7.07445e-02,3.52061e-02,-4.46246e-03,-5.59145e-02,2.84489e-04,9.94518e-02,3.99418e-02,-1.01352e-01,-2.22014e-03,-9.03181e-02,-2.23113e-02,7.95149e-02,1.20200e-02,-1.16467e-01,-1.39424e-01,9.41219e-02,2.21081e-02,-5.54475e-02,-1.90240e-02,-5.59253e-02,1.17187e-01,4.65625e-02,-4.59654e-02,-5.90521e-02,-5.75644e-02,4.55849e-02,9.31026e-02,3.49525e-02,-2.84710e-02,2.35175e-02,-7.45309e-02,2.08737e-02,-5.20624e-02,4.30623e-02,1.16585e-01,1.58087e-02,2.42074e-02,-7.43207e-02,-7.23820e-02,1.53278e-02,-3.02655e-02,1.03887e-01,-1.11611e-01,-1.51891e-01,1.25062e-02,-7.40256e-02,-9.30811e-02,-1.58445e-01,-7.95262e-02,2.37881e-02,5.45775e-03,5.21183e-02,9.55679e-02,1.33319e-01,-2.55942e-01,3.26620e-02,7.40277e-02,-6.90673e-02,3.91730e-02,-1.55944e-01,-1.63153e-01,-5.86639e-02,-9.53862e-02,-1.38956e-01,6.33023e-02,-5.89456e-02,-1.63640e-01,-8.77084e-02,1.15722e-01,1.01644e-01,-1.62733e-01,1.62890e-01,1.51748e-03,-1.23190e-01,-3.50771e-02,1.22706e-02,3.61784e-02,6.17253e-02,-6.94694e-02,5.34529e-02,9.88531e-03,-2.97152e-01,8.68658e-03,-8.65047e-02,-6.07040e-02,-9.24820e-02,4.39007e-02,1.49031e-01,-1.15210e-01,6.20897e-02,-5.96463e-02,1.44154e-01,1.40536e-02,6.40376e-02,1.29271e-01,2.61369e-03,-6.38708e-02,-1.79038e-02,-1.03336e-02,-3.64387e-02,1.12243e-02,4.43869e-02,4.68837e-02,3.64714e-02,-8.15675e-02,8.10913e-02,9.35356e-02,-3.04475e-02,5.58679e-02,-1.38712e-01,-2.41520e-02,3.44963e-02,6.05671e-02,-2.87474e-02,-7.92769e-02,4.02076e-02,-1.29730e-02,7.53302e-02,-5.27533e-02,-1.35944e-01,-2.19064e-02,-1.04511e-01,-3.19436e-02,1.32079e-01,-3.71351e-02,-5.86118e-02,1.26919e-01,1.75831e-02,3.51698e-02,-1.04213e-01,-1.70856e-01,1.85849e-01,-1.70928e-01,1.39555e-01,-4.95850e-02,-2.14074e-01,-2.30998e-02,-1.47800e-01,-1.57054e-01,-1.65173e-01,-2.27281e-01,-2.20315e-01,-1.73084e-01,-1.22309e-01,-4.13191e-02,4.08294e-02,-7.68594e-02,-3.14844e-02,2.90443e-02,9.20065e-02,7.07652e-02,-1.75866e-01,-1.43468e-01,-1.30651e-01,1.51406e-02,6.82312e-02,1.19205e-02,-3.54945e-02,-4.15941e-02,1.10043e-02,-1.97410e-01,-1.60806e-02,-1.38419e-02,-1.61224e-02,-4.69424e-02,-1.61948e-01,-2.48814e-01,-1.79295e-01,-2.02251e-01,-2.19343e-01,-4.27816e-02,-2.08539e-01,1.46119e-01,-1.13140e-01,2.53349e-02,-9.08463e-02,-6.31882e-02,-7.68092e-02,-1.14799e-01,-8.55475e-02,8.61522e-02,1.37376e-01,2.00868e-02,1.58335e-01,-4.42587e-03,-2.24299e-02,5.43185e-02,-1.98395e-01,5.15612e-03,-2.65189e-03,-1.65107e-01,-1.46343e-01,-2.62312e-01,-1.93946e-01,-1.87685e-01,-5.58437e-02,-1.12665e-01,-1.12978e-02,1.03195e-01,5.13577e-02,1.00444e-01,-4.49533e-02,-2.07070e-03,-8.24084e-02,-3.44420e-02,-5.29832e-02,-2.10801e-01,-1.03027e-01,-1.44498e-01,-5.63549e-03,-8.88881e-02,-8.28451e-02,2.59701e-02,-1.22546e-01,-1.08912e-01,1.21065e-02,1.05561e-01,-2.53584e-02,1.62283e-02,-3.14914e-01,-2.84028e-02,-1.84206e-01,2.95368e-02,-1.33019e-01,-1.85873e-02,3.34788e-02,1.48329e-01,-1.18561e-01,-1.01731e-01,-1.79652e-02,2.14557e-03,-9.46937e-02,-1.30273e-01,-8.63158e-02,-1.84926e-01,-1.62455e-01,-1.03190e-01,9.21917e-02,-7.89641e-02,4.23501e-02,-4.30360e-02,9.17083e-02,3.12659e-02,-6.44329e-02,9.15925e-02,2.34115e-02,-2.48273e-01,1.92936e-02,-5.15914e-02,-8.93074e-02,4.90048e-02,1.03110e-01,2.34691e-01,6.03103e-02,6.80475e-02,1.13622e-01,2.47700e-03,2.38138e-02,1.18186e-01,-4.79273e-02,-8.82334e-02,2.07372e-02,-1.39570e-01,-1.00789e-01,-7.60683e-02,9.70681e-02,-3.92126e-05,-5.52110e-02,7.89754e-02,3.18246e-02,-7.83813e-03,-6.56376e-02,-2.82630e-02,7.53613e-02,9.22972e-02,4.64889e-02,4.24704e-02,-1.10149e-01,1.35035e-01,3.05600e-02,2.90686e-02,4.52870e-02,7.28161e-02,-2.22059e-01,1.19491e-01,7.45864e-03,-6.09533e-02,1.93047e-01,1.50983e-01,1.49488e-01,1.12503e-01,-3.89790e-02,-9.75175e-03,1.93603e-01,2.18657e-02,6.35519e-03,-2.77881e-02,1.32866e-01,-1.30994e-01,-1.10779e-01,-5.18633e-02,-1.59995e-03,1.04506e-01,1.60769e-01,-2.13636e-01,-1.42176e-01,-2.08742e-01,-1.64307e-01,-1.05666e-01,5.80806e-03,-9.08985e-02,-2.12826e-01,1.06941e-01,1.59715e-01,1.94851e-01,2.67530e-02,7.40992e-02,7.88782e-02,-1.62932e-01,2.87423e-02,-1.73799e-03,-4.89409e-02,9.35939e-03,-1.23868e-01,5.77534e-02,-1.07849e-01,4.38407e-02,2.88696e-02,1.00083e-01,6.54918e-02,2.32129e-01,1.89255e-01,1.22928e-01,1.05312e-01,-4.32512e-02,-9.11307e-02,-1.54648e-01,-4.70538e-02,-9.16158e-02,-8.63646e-02,9.85726e-02,2.81169e-03,-2.21889e-02,4.41910e-02,8.76015e-02,-2.17147e-02,-8.79747e-02,-5.64253e-02,7.53611e-02,1.25950e-01,1.49952e-01,-1.21244e-01,-5.63794e-02,3.42089e-03,1.61515e-01,-7.24579e-02,1.62892e-01,7.69137e-02,1.42543e-02,2.56630e-02,1.28127e-01,3.98773e-02,2.36558e-01,-3.60148e-02,6.70921e-02,6.88619e-02,5.27376e-02,7.89474e-02,-9.49249e-03,7.41454e-02,1.64998e-01,5.01060e-02,-4.99876e-03,1.90615e-02,-1.00641e-02,1.39172e-01,1.98084e-01,8.57729e-02,9.91687e-05,-9.32648e-04,4.02652e-02,-9.71848e-02,1.37739e-02,7.83195e-02,1.10544e-01,1.54734e-01,1.20881e-01,2.43300e-01,1.08528e-01,2.72005e-01,1.93323e-02,-5.08932e-02,1.72750e-01,9.97647e-02,3.40888e-02,1.60913e-01,1.96897e-01,-3.28393e-02,-1.07477e-02,-7.03363e-02,3.58810e-02,8.25372e-02,-2.55513e-02,-1.80654e-02,2.02181e-01,2.25341e-03,-1.00072e-01,1.12483e-01,-5.65862e-02,-9.64269e-02,-5.32463e-02,5.89829e-02,2.16994e-02,2.18512e-01,1.86664e-01,1.10661e-01,1.95097e-01,8.02604e-02,1.75164e-01,2.06902e-01,1.14913e-01,2.44478e-01,-1.13905e-02,1.03288e-01,1.49727e-01,-1.87272e-01,9.67677e-02,-6.61928e-02,-4.35464e-02,-6.99791e-03,-8.94979e-02,1.24841e-01,8.53106e-02,-1.14539e-01,7.26660e-02,-1.22870e-01,1.12612e-02,-2.62261e-02,-6.47976e-02,1.39068e-01,4.48822e-02,2.76727e-02,-2.94217e-02,1.41849e-01,-5.01728e-02,6.71178e-02,2.07390e-01,5.32861e-02,1.10419e-01,9.63583e-02,8.16142e-02,1.02827e-01,-1.70108e-01,8.81790e-03,1.05845e-01,-8.23755e-03,4.24333e-02,6.84025e-02,5.51691e-02,7.36168e-02,3.14238e-02,-1.61376e-02,-9.27083e-02,-3.57644e-02,2.07375e-02,1.16825e-01,1.18733e-01,-7.99818e-02,-7.67630e-02,1.06465e-01,7.97892e-02,-7.90244e-02,-1.89299e-01,-1.69886e-02,-2.14110e-02,-1.15722e-02,-1.40776e-01,-1.66799e-01,-4.33954e-02,-1.74877e-01,-2.02816e-01,-9.83047e-03,-1.28033e-01,-4.28173e-02,7.85782e-02,-1.77661e-02,-1.34444e-01,-1.30014e-01,5.36298e-03,3.42454e-03,7.54074e-02,-4.45496e-02,1.42076e-02,-9.60818e-02,5.51786e-02,1.10741e-01,1.34522e-01,6.68521e-02,-1.06063e-01,-1.37830e-01,-1.79641e-01,2.32975e-03,-1.38281e-01,-1.31356e-01,-1.23567e-01,-1.56831e-01,-1.59828e-01,-2.15206e-01,-1.07808e-01,-2.84947e-02,-1.21842e-01,-1.48679e-01,-4.13866e-04,6.94373e-02,-5.66313e-03,-4.19399e-02,-8.25291e-02,1.81371e-02,-9.87390e-02,-6.32926e-02,-9.65693e-02,-1.19514e-01,1.76773e-01,4.98109e-02,2.66855e-02,-3.79823e-02,-7.32026e-02,-4.00686e-02,-1.42815e-01,-2.28224e-01,-5.79238e-02,-1.87644e-02,-1.71215e-01,-9.44149e-02,-1.12739e-01,5.48453e-02,-1.33522e-01,-3.90255e-02,1.11131e-01,-4.19887e-02,1.28715e-01,1.14507e-01,4.65352e-02,1.48130e-01,-6.81041e-02,1.52976e-02,1.24521e-01,1.89855e-02,-7.55873e-02,6.03571e-02,-3.71356e-02,-1.20281e-01,2.26447e-02,-8.00352e-02,5.56886e-02,-1.75453e-01,4.19397e-02,-1.70477e-01,-4.87930e-02,1.13924e-01,-4.64080e-02,-1.48301e-03,-1.48244e-01,-7.53076e-02,6.44334e-02,-1.60148e-01,-1.63894e-01,-2.18988e-02,-5.63796e-02,1.49559e-01,1.52209e-01,-5.48896e-02,-2.14404e-02,-1.79629e-01,-4.81280e-02,1.76615e-01,-1.64010e-01,1.51888e-01,-1.93105e-01,-3.98669e-02,-1.12062e-01,5.78552e-02,3.16305e-02,-6.85988e-02,-5.79834e-02,-9.35839e-03,-9.82166e-02,-5.95968e-02,1.53690e-01,-2.75263e-02,-2.57771e-03,5.95167e-03,-1.01943e-01,-1.36093e-01,-1.05518e-01,-3.44865e-02,1.89377e-02,3.23065e-02,-1.44087e-01,-5.42436e-02,2.08302e-02,-5.22949e-02,1.17817e-01,1.04769e-01,-1.95835e-01,1.18386e-01,-1.21985e-01,1.06821e-01,-6.85079e-02,1.79416e-01,1.39582e-02,6.58664e-03,5.65686e-02,-1.47639e-02,1.92318e-01,-5.71640e-02,-3.15579e-02,-3.28930e-02,1.35478e-01,-4.48819e-03,3.90454e-02,1.47901e-01,1.20656e-01,4.91998e-03,-4.84628e-02,-8.26957e-02,-2.25770e-02,6.59477e-02,-4.46295e-02,8.02842e-02,-1.30298e-01,-3.89156e-02,3.70892e-02,
-2.72564e-02,-1.62803e-01,-4.34407e-02,6.58265e-03,-3.33392e-03,-3.25845e-02,5.45733e-02,-1.42323e-01,-1.87235e-02,-3.34148e-02,3.55707e-02,4.82769e-02,7.56788e-02,2.95616e-02,-1.35714e-01,-1.25461e-01,-5.48877e-02,1.17338e-01,-1.33099e-01,-1.27476e-01,-1.59708e-01,-5.67111e-02,3.32703e-02,-1.73727e-01,-4.39665e-02,-2.85798e-02,-6.78647e-02,9.49694e-02,-8.75503e-02,-3.10238e-02,2.83345e-02,8.53403e-02,1.31255e-01,-1.27249e-01,-2.25738e-02,3.54092e-02,5.75705e-03,5.08791e-04,-1.02885e-01,-7.31531e-02,7.96022e-02,-2.69430e-02,-1.32842e-01,2.97746e-02,-7.27397e-02,-1.78888e-02,8.82482e-02,1.44675e-01,8.82959e-02,-5.11773e-02,-5.79998e-02,4.13892e-02,-1.51019e-02,-1.25176e-01,-4.91162e-03,-5.96018e-03,5.35206e-02,-1.52514e-01,4.89928e-02,-9.63701e-02,1.83805e-02,-6.27511e-02,1.01351e-02,3.64095e-02,7.25948e-02,2.47770e-02,-1.25556e-02,-5.27249e-04,-3.04315e-02,-1.26675e-01,4.03757e-02,2.86149e-02,-6.57250e-02,-7.01119e-02,-6.08535e-02,1.25634e-01,-8.02709e-02,-9.84314e-02,-2.93283e-02,-1.67768e-02,7.24985e-02,-1.16953e-01,-1.74160e-01,1.62432e-02,5.49052e-02,-6.01236e-03,5.16614e-02,-4.29976e-03,-7.49606e-02,6.04665e-02,-1.03915e-01,-5.54917e-02,3.53881e-02,-5.54229e-02,4.05590e-02,-4.39792e-02,-1.90112e-01,-1.35749e-01,-4.76240e-02,-1.24168e-01,-8.83525e-02,1.25159e-01,-1.85617e-01,6.67411e-03,3.24014e-02,-1.41297e-01,-1.73758e-02,3.12866e-02,-7.23445e-02,-1.51785e-01,1.32019e-01,-5.35863e-02,-5.33268e-02,6.11404e-02,-4.43794e-02,-7.36859e-02,1.76607e-01,2.15883e-02,4.01033e-02,-3.21827e-03,-9.99623e-02,-1.70308e-01,-1.35210e-01,-1.80909e-01,-5.05089e-02,-3.66968e-02,1.44190e-01,-2.35528e-02,1.04391e-01,9.40616e-02,1.81726e-01,-7.10899e-03,-4.33506e-02,-1.36371e-01,-1.43067e-01,-5.37374e-02,-3.62026e-04,-9.22787e-02,9.59460e-03,5.27200e-02,-5.22773e-02,3.94415e-02,1.12849e-02,1.18033e-01,-1.98694e-02,-8.40817e-02,6.81106e-02,-7.83832e-02,1.04510e-01,-1.17344e-01,-1.24604e-01,4.56568e-02,-7.65050e-02,-7.02658e-02,-4.91151e-02,-9.84649e-02,1.50753e-02,-1.02957e-01,-1.47365e-01,4.64408e-03,-4.30725e-02,7.19901e-02,-1.03659e-01,6.83411e-02,1.12938e-02,1.07624e-02,-7.64121e-03,-6.70483e-02,7.66005e-02,-2.93825e-02,-4.72603e-02,-3.20064e-02,-3.04083e-02,3.17195e-02,1.19118e-01,1.09365e-01,-1.00813e-01,-4.53399e-02,-3.06640e-02,4.40021e-02,-2.06229e-01,-1.04135e-01,-3.38814e-02,-1.62636e-01,4.22913e-02,-1.67006e-01,4.04448e-02,-1.44396e-02,-2.38522e-02,-3.25820e-02,2.65750e-02,-5.40215e-02,3.78824e-02,-1.21347e-01,1.09173e-01,4.00272e-02,-8.71808e-02,-5.70638e-02,3.40915e-02,9.52131e-03,5.15945e-02,-1.66225e-01,5.15134e-02,-1.11995e-01,-1.48274e-01,-2.22683e-01,1.16868e-02,-1.40069e-01,-1.31890e-01,-3.16803e-01,-1.12251e-01,-2.20986e-01,-8.57184e-02,-3.43462e-02,-1.73248e-01,-1.15629e-01,-8.04814e-02,-7.85693e-02,1.75289e-01,1.38005e-01,-8.75837e-02,1.76148e-01,6.57867e-02,7.30523e-02,-1.04640e-01,5.20150e-02,6.67217e-02,-4.64157e-02,-1.71117e-02,1.43145e-01,1.33475e-02,-1.33300e-01,-1.08042e-01,-8.82758e-02,-9.86325e-02,-9.97295e-02,-1.05408e-01,3.69599e-02,-2.85097e-01,-3.04781e-01,-1.01128e-01,1.03604e-01,-8.64999e-02,-1.22410e-02,-5.86709e-02,-3.16907e-02,-2.12189e-02,4.33513e-02,-5.21383e-02,1.01860e-01,1.90160e-01,-5.78241e-02,-6.48986e-02,7.75036e-02,1.06240e-01,1.22708e-01,-6.37426e-02,-2.31072e-02,-7.90598e-02,-3.22592e-02,-7.12699e-02,-2.10308e-01,-1.83734e-01,5.35948e-02,5.70213e-03,-1.11108e-01,-3.08236e-02,-1.78019e-01,-1.05209e-01,4.77446e-02,6.21148e-02,-7.39242e-02,-8.10684e-02,-7.61895e-02,-1.16329e-01,3.28683e-02,-2.95218e-03,-5.29001e-02,-4.68044e-02,6.36909e-03,3.48494e-02,8.07738e-02,1.28540e-01,2.90006e-02,-2.37935e-02,-9.40327e-02,-1.09365e-01,-6.58460e-02,-1.07209e-02,-1.12004e-01,-8.77209e-02,5.40759e-02,-1.61480e-01,-6.46613e-02,-3.01028e-01,-8.27089e-02,1.16775e-01,1.45359e-01,-2.04315e-02,3.04882e-02,-4.98679e-02,-8.86429e-02,3.28589e-03,-5.49941e-02,-1.34393e-01,8.06065e-02,-2.20774e-03,5.60217e-02,1.17577e-01,1.56947e-01,-9.41489e-02,-8.81402e-02,2.68986e-03,3.83581e-02,6.56601e-04,2.88685e-02,-1.68685e-01,1.12393e-01,1.08469e-01,-1.04961e-02,-5.87402e-02,-2.81597e-01,-1.94608e-01,-8.39613e-02,9.97191e-02,1.42298e-01,-1.62187e-01,-1.36108e-01,-1.29104e-01,-1.62351e-01,2.59440e-02,8.49002e-02,-3.85804e-02,-2.54656e-02,-1.53201e-02,7.92003e-02,6.89469e-02,2.78537e-02,8.03477e-02,-1.20995e-01,-1.53847e-02,-1.92148e-02,-7.32392e-02,-5.04798e-02,-4.17100e-02,7.43403e-02,8.43088e-03,1.07587e-01,1.28297e-01,9.35221e-02,-1.21896e-01,9.66955e-02,1.37837e-01,3.63165e-02,2.70019e-02,-1.57489e-02,8.19988e-02,7.97793e-02,-1.36485e-02,-1.26907e-01,-3.85176e-02,-1.24273e-01,-5.46273e-02,1.41450e-01,1.29365e-01,1.38657e-01,-5.39267e-02,1.01166e-02,-6.29327e-02,7.67474e-02,-8.58829e-02,1.49341e-01,3.13425e-04,2.16573e-01,1.73951e-01,2.99949e-01,3.27639e-01,1.19394e-01,-9.79540e-02,2.89346e-02,3.32414e-02,5.39688e-02,-5.85329e-02,7.32627e-02,-8.63982e-02,2.67076e-02,-9.13191e-02,4.36326e-02,1.01127e-02,-2.10891e-02,-3.35834e-02,-4.14474e-02,2.25707e-02,9.37342e-02,3.09431e-02,-5.31055e-02,-1.14158e-01,2.57093e-03,-1.14792e-03,1.19403e-03,2.70497e-01,1.88670e-01,-3.28397e-02,1.26267e-01,3.12896e-01,1.78088e-01,1.59582e-01,7.57380e-03,7.65621e-02,1.36571e-01,5.23343e-02,-2.96323e-02,1.07015e-01,-1.82064e-02,-1.56937e-01,-6.95019e-02,-1.09772e-01,1.91228e-01,-3.37528e-02,-1.58980e-01,1.28784e-01,-6.83896e-02,4.86501e-02,-8.06534e-02,2.05979e-03,2.80318e-01,4.25022e-03,1.90745e-01,7.12082e-02,1.24502e-01,3.11404e-02,1.02656e-01,1.25865e-01,1.36022e-01,2.52561e-01,1.32062e-01,2.87970e-01,1.13772e-01,8.78129e-02,2.14797e-01,1.15722e-01,6.26402e-02,1.16686e-01,-6.35685e-02,1.57783e-01,1.08770e-01,-5.28729e-02,-3.09361e-02,1.28687e-01,-2.95871e-02,1.51458e-01,4.33035e-02,8.76750e-02,1.96037e-01,1.33932e-01,1.35612e-01,1.06788e-01,-1.58635e-01,-8.49597e-02,9.03139e-02,-2.37778e-02,1.38941e-01,1.38536e-01,2.29870e-01,3.09089e-01,2.60344e-01,-7.13362e-02,5.29284e-03,5.02154e-03,7.36288e-02,8.34063e-02,-6.62827e-02,5.27219e-02,1.26829e-01,1.38779e-01,-8.95594e-02,1.36634e-01,7.86793e-02,2.70208e-02,-1.55577e-02,5.09906e-02,1.43170e-01,5.90608e-02,1.34749e-01,8.32760e-02,1.20903e-02,-6.43923e-02,-1.37918e-01,-4.91551e-03,2.03067e-01,2.12456e-01,1.40050e-01,1.32748e-01,2.30348e-02,4.94309e-02,1.24492e-02,1.30119e-01,-1.21604e-02,-1.39299e-02,-3.55222e-02,8.05332e-02,-7.14954e-03,-1.67756e-02,9.91518e-03,-1.15206e-01,-7.06097e-02,-3.71580e-02,-2.18541e-02,-7.77094e-02,8.83936e-02,9.06475e-02,4.53686e-02,1.11023e-01,-1.81509e-01,-1.26913e-02,3.45466e-02,-2.64561e-03,-3.47345e-04,7.15720e-02,-7.77801e-02,-1.13411e-01,-1.33937e-01,-1.81876e-01,-1.63903e-01,-1.19930e-01,-1.85337e-01,7.77564e-02,-1.34729e-02,1.10940e-01,1.06701e-01,-4.80057e-02,1.46114e-01,7.97500e-02,-3.71151e-02,-7.82558e-02,-1.50195e-02,3.65845e-02,5.39021e-02,1.41109e-03,2.65125e-02,-6.77578e-02,5.80798e-02,4.53871e-02,-3.37686e-02,-1.63830e-02,-1.51145e-01,-1.40051e-01,-8.60071e-02,-7.03006e-02,-1.56355e-01,-1.31893e-01,-1.21518e-01,-1.49156e-02,1.90616e-02,-2.60832e-02,8.79972e-02,4.60445e-02,1.45988e-02,2.23386e-03,-8.57807e-02,6.05250e-02,4.63329e-02,-1.18402e-01,-2.69495e-02,2.48658e-02,-4.73138e-02,1.03622e-01,-4.38753e-02,6.43832e-02,-1.43546e-01,-1.28297e-01,-5.96014e-02,-1.13673e-02,-1.81740e-01,3.27791e-05,-1.07653e-01,-1.48769e-01,-1.41929e-01,1.78219e-02,-7.01469e-02,-6.18998e-02,1.50066e-01,-9.45353e-02,1.17886e-01,1.74242e-01,-1.64482e-02,-1.28181e-02,-3.12740e-02,1.31083e-01,-9.38566e-02,-1.23471e-01,1.25916e-01,-5.43646e-02,-1.23989e-01,-1.02836e-01,-9.88299e-02,-1.83629e-01,1.75406e-02,-1.24917e-01,-1.39052e-01,-1.70544e-01,-2.13066e-01,-1.04470e-01,-9.58805e-02,-1.12336e-01,-2.19482e-01,-4.93679e-02,-6.58318e-02,-1.34977e-01,-9.53909e-04,1.48614e-02,-1.10802e-01,-4.83155e-02,1.17068e-01,-1.09448e-01,-2.13022e-02,8.55582e-03,4.54024e-02,7.12693e-03,6.52681e-02,-5.85431e-02,-1.80232e-02,1.45833e-02,-1.34180e-01,2.20784e-03,-2.06747e-01,-2.18240e-01,-1.82192e-01,-1.86460e-01,-1.35945e-01,-1.07488e-01,1.47978e-02,-1.30450e-01,2.75661e-02,-2.46258e-02,-4.94755e-02,3.89984e-02,1.45440e-02,-2.17127e-02,-2.87169e-02,-1.32911e-02,9.54428e-03,-5.66360e-02,-1.09208e-01,1.24195e-01,-4.66928e-03,9.80171e-02,1.09534e-01,2.93449e-02,6.14609e-02,-1.33083e-01,-1.16828e-01,-3.37051e-02,-1.26279e-01,-1.83342e-02,-1.33112e-01,-1.39465e-01,-1.48940e-01,-3.53365e-02,-7.24234e-02,-1.40023e-01,-3.72998e-02,-1.71905e-01,-2.53581e-02,1.05342e-03,-6.78033e-02,6.36624e-02,8.14775e-02,-5.95504e-03,1.12086e-01,-3.75276e-02,-1.48538e-01,-2.11831e-03,-4.69655e-02,-1.02018e-01,1.51664e-01,2.09828e-02,1.13838e-01,-9.48713e-02,2.08156e-02,4.10802e-02,-1.43938e-01,-2.37765e-02,8.21728e-02,1.38039e-02,-1.16638e-02,-3.59247e-02,-9.23140e-02,-1.01986e-01,2.33910e-02,2.51225e-02,-1.49865e-02,-2.68330e-02,1.85391e-02,1.31388e-01,1.22031e-01,1.28954e-01,-7.17245e-02,6.21553e-05,1.37598e-01,-1.68359e-01,-1.13786e-01,1.42281e-02,-3.15455e-02,6.80697e-02,-1.04078e-02,-1.98266e-02,-6.89406e-02,1.54087e-02,-6.23844e-02,-1.08328e-01,8.93990e-03,-1.14812e-01,-4.21414e-02,8.57906e-03,-1.26070e-01,-4.52014e-02,-1.05131e-01,-8.59694e-02,-2.23655e-01,9.99898e-02,5.36251e-02,-4.26080e-02,-1.06828e-01,2.43084e-02,-5.07275e-02,8.83133e-02,4.45206e-02,2.47681e-02,2.20375e-02,-2.51222e-04,8.87407e-02,-1.12342e-01,-1.81873e-02,-1.47755e-02,-1.08441e-01,-9.37751e-02,3.11526e-02,-1.93158e-02,-3.64491e-02,-1.33746e-03,-1.81993e-01,-1.06038e-01,-1.76394e-03,-1.34164e-02,-4.17997e-02,9.96089e-02,-1.76122e-02,-1.11449e-02,-3.79625e-02,1.26862e-02,-9.62231e-02,2.76601e-02,6.81889e-02,-6.00308e-02,1.40378e-01,2.33717e-02,-8.44113e-02,-7.09377e-02,3.07783e-02,-2.84475e-02,-3.87582e-02,8.16707e-02,-5.75134e-02,-1.18127e-01,-1.60615e-01,2.33119e-03,-1.23705e-01,-8.48554e-02,-6.09466e-02,-6.23380e-02,1.45973e-01,1.65945e-01,1.37313e-01,3.19319e-02,4.84893e-03,-7.44265e-02,5.65651e-02,-5.49861e-02,4.38019e-02,6.35689e-02,-4.17735e-02,6.48429e-02,2.49174e-02,
-3.77997e-02,2.79509e-02,-1.40016e-02,-8.97699e-02,9.29320e-03,-5.82023e-03,1.55967e-01,-1.13180e-01,5.83929e-02,-5.60456e-02,-1.09993e-01,-9.81571e-02,-7.20475e-03,-1.90265e-02,1.52720e-01,1.11590e-01,2.24730e-03,-5.80151e-02,6.42215e-02,1.63232e-01,-3.85091e-02,1.03413e-01,1.13469e-01,9.26398e-02,4.53056e-02,-1.24522e-01,-5.23612e-02,3.52427e-02,-6.05521e-02,1.52825e-02,4.85935e-02,1.13524e-01,5.98295e-02,1.49377e-01,-5.89056e-02,1.41889e-01,4.08722e-02,6.79879e-02,-9.28142e-02,-7.40010e-02,1.75841e-02,4.44559e-02,-8.41940e-02,1.33365e-01,9.83719e-02,1.19731e-02,7.06488e-02,3.88425e-03,-1.11745e-01,3.79521e-02,-5.23805e-02,-1.97871e-02,-1.23216e-02,4.17119e-02,-4.17571e-02,-1.39116e-01,6.66057e-02,8.01694e-02,5.18868e-02,-1.69931e-01,3.33796e-02,7.05579e-03,-7.11151e-03,-9.77404e-02,5.67683e-02,4.47017e-02,-4.85650e-02,-1.79365e-02,3.35420e-02,-5.62708e-02,-1.84037e-01,-2.70018e-02,-6.80453e-02,-2.31734e-02,8.40266e-02,-2.15811e-02,4.93128e-02,6.77509e-02,1.35739e-02,-8.83265e-02,-2.05965e-02,-8.19273e-02,-4.23091e-02,-1.82360e-01,5.69541e-02,2.29733e-02,4.36396e-02,7.19499e-02,-7.35351e-02,-8.80783e-02,-1.45896e-01,-1.54055e-02,1.60909e-01,-2.68412e-02,1.62107e-01,9.30235e-03,-3.43412e-02,-9.34190e-02,-7.96525e-02,-1.04925e-01,-3.34338e-02,-7.04530e-02,-9.82483e-02,-3.96626e-02,-3.31739e-02,-9.38127e-02,1.10760e-02,6.10820e-02,-5.90165e-02,3.17373e-02,-1.12655e-01,2.01801e-02,-1.02252e-01,-6.17346e-03,-7.28128e-02,2.49887e-02,6.98388e-02,7.44819e-02,-1.30997e-01,1.48207e-01,-3.95504e-02,-1.72002e-02,1.05956e-01,-1.61837e-01,-8.44636e-02,7.25877e-02,-2.70294e-02,-9.93548e-02,-7.20547e-03,-1.42479e-01,-1.31280e-01,-4.82261e-02,-8.95764e-02,7.40962e-02,-1.66290e-03,-1.21720e-01,-1.63194e-01,3.15110e-02,6.04016e-02,4.03850e-02,-2.84644e-02,7.87375e-02,-1.21332e-01,4.62203e-03,8.62964e-02,4.90489e-03,-1.89252e-01,-2.09950e-01,4.75887e-02,-4.13191e-02,-7.75824e-02,3.05058e-02,-4.89919e-02,-7.85546e-02,-1.33949e-01,3.22245e-02,3.27095e-02,-1.40449e-01,-2.33844e-01,-2.12889e-02,-1.29741e-01,-1.77373e-01,-7.27420e-02,-7.43977e-02,-8.04860e-02,-4.58444e-03,1.51363e-02,-1.72206e-01,-7.65054e-02,7.00498e-02,3.77576e-02,2.14263e-02,2.19534e-02,5.06853e-02,6.76016e-02,-4.10564e-02,-2.39654e-01,-3.81333e-02,-3.20097e-01,-1.97770e-01,-4.98804e-02,9.66846e-02,4.26374e-02,1.61713e-01,2.66815e-01,1.49312e-01,-1.91077e-02,-1.76116e-01,-6.08354e-02,-8.09640e-02,3.37038e-02,-5.57498e-02,-3.18683e-02,-1.26387e-01,-9.19137e-02,-2.51240e-03,-8.16004e-02,-9.21839e-02,5.38149e-02,9.18007e-02,1.34665e-01,8.85474e-02,-2.62049e-02,-8.29509e-02,-1.20233e-01,-1.75742e-01,-1.67758e-01,-1.24197e-01,-1.32750e-01,-6.14725e-02,6.14601e-02,1.49303e-01,3.17190e-01,-3.04008e-02,1.65582e-01,2.78495e-02,1.25291e-01,3.60556e-02,-3.38948e-02,-1.24479e-01,1.91761e-02,1.12639e-01,3.56336e-02,4.90703e-02,1.69466e-01,4.30144e-02,1.25883e-02,-3.47960e-02,2.20220e-02,-1.28862e-01,-1.19313e-02,-1.25569e-01,-2.34478e-01,-1.43029e-01,1.84535e-02,-1.20525e-01,5.38729e-02,1.11928e-01,1.30741e-01,4.36550e-02,5.06389e-02,1.10912e-01,2.03153e-01,8.26370e-02,-8.67053e-02,6.50082e-02,-1.68004e-01,-2.93981e-02,2.21926e-03,-1.78807e-01,-4.51001e-02,3.93217e-02,-8.73666e-02,5.71563e-02,4.60621e-02,5.54993e-02,9.84288e-02,3.62584e-02,5.50976e-02,4.58266e-03,4.29122e-02,4.90837e-02,6.24352e-03,1.29275e-01,1.97722e-01,8.67281e-02,5.49771e-02,-6.10976e-02,-1.68272e-02,1.75729e-01,3.35095e-02,6.52142e-02,8.52496e-02,-1.22732e-01,1.07045e-01,-2.09182e-02,-5.24038e-02,7.98557e-02,-9.21925e-03,-1.64840e-01,1.97976e-01,1.11191e-01,-1.17054e-01,-7.19165e-02,-6.38801e-02,-1.99475e-01,-1.69013e-02,4.62902e-02,-1.81155e-01,8.78133e-02,1.22381e-01,2.07173e-01,7.69873e-02,3.21129e-02,-3.85184e-02,-7.98089e-02,-2.01655e-02,1.00258e-01,1.60539e-01,8.15203e-02,6.20692e-02,-1.12192e-01,-1.01303e-01,-8.79959e-02,-1.01453e-01,8.88402e-02,8.88253e-02,1.24095e-01,9.24380e-02,2.72767e-02,-1.43210e-01,-1.43661e-01,3.89170e-03,-8.51293e-02,-8.89470e-02,1.31331e-01,1.05432e-01,1.65034e-01,9.14408e-02,2.58024e-01,-7.71736e-02,-1.54708e-02,-1.59481e-02,6.15288e-02,-2.66789e-02,6.06119e-03,2.59508e-01,2.98942e-02,1.50622e-01,1.21266e-01,-6.69700e-03,-1.17310e-01,5.00354e-02,-2.46453e-02,1.06867e-01,-7.45507e-02,-1.57302e-01,-2.45723e-02,-1.79714e-01,-3.07989e-03,7.36451e-02,-4.60674e-02,-5.17188e-02,1.06318e-01,2.18413e-02,-5.64428e-02,2.67185e-02,9.16246e-02,5.92256e-02,9.54240e-02,-6.88373e-02,9.90873e-02,8.03991e-02,1.31746e-01,2.07260e-01,2.52760e-01,1.47095e-01,1.12263e-02,-6.47746e-02,-2.10228e-01,-2.37189e-02,-6.66026e-02,8.13373e-03,8.36982e-02,8.43365e-02,-1.10760e-01,7.29168e-02,5.96586e-03,3.24276e-02,2.03185e-02,1.25477e-03,1.02976e-01,7.91652e-02,5.45533e-02,-7.72954e-03,-8.36444e-02,-1.92376e-01,1.12370e-01,9.35405e-02,7.33468e-02,6.31692e-02,1.68027e-01,-5.15809e-03,2.51973e-01,1.91696e-01,5.92747e-02,3.43419e-02,-9.27275e-02,7.61212e-02,-9.29525e-02,7.70220e-02,9.59509e-02,1.12011e-01,4.57289e-02,-3.93809e-02,-9.79331e-02,-3.09360e-02,-7.01565e-04,-7.38207e-04,1.05641e-01,-4.60101e-02,-2.47298e-02,-1.62693e-01,-1.20519e-01,-4.73688e-02,-8.64117e-02,3.15334e-02,2.67263e-01,1.15904e-01,5.41254e-02,2.27498e-01,-2.49793e-02,-5.66283e-02,-5.15197e-02,-1.82983e-01,-1.41846e-01,5.39414e-03,-3.20383e-02,-1.38401e-01,8.69459e-03,-7.64508e-02,-2.66704e-02,1.60700e-01,1.21939e-01,6.66102e-03,-6.76684e-02,-1.15900e-02,-1.12341e-01,6.23180e-02,-1.31509e-01,-7.35780e-02,-3.05057e-02,-7.97720e-02,8.39909e-02,1.32223e-01,2.65231e-02,4.72950e-02,2.33888e-01,6.26298e-02,-3.33369e-02,3.41074e-02,-1.47930e-01,3.26490e-02,-1.70725e-01,-2.14731e-01,-3.57309e-02,-7.32880e-02,-7.51721e-02,-1.15670e-02,5.48265e-03,6.28189e-02,-2.01597e-03,1.13680e-01,-1.17775e-01,-5.85280e-02,6.76304e-02,-1.27876e-01,-6.00262e-02,-1.00703e-02,6.22987e-02,-3.20971e-02,-1.59131e-01,-6.51916e-02,-1.18756e-02,8.23020e-02,1.84189e-02,-1.01229e-01,-1.57603e-01,-2.57582e-02,-2.15896e-01,-1.39318e-01,-1.54713e-01,-4.45724e-02,-5.79602e-02,1.10145e-01,-3.27694e-02,4.45648e-03,-2.10815e-02,-1.14575e-01,-4.18798e-02,1.36260e-01,5.85813e-02,-6.57238e-02,-3.89921e-02,7.48161e-02,6.94010e-02,-3.26388e-02,8.45874e-02,1.84725e-02,-1.02707e-01,-5.29781e-02,-9.91418e-02,7.49273e-02,8.70105e-02,-9.43172e-02,-2.08526e-01,-2.24679e-01,-1.62350e-01,-2.24031e-01,-1.58159e-01,-1.49019e-02,1.02227e-02,-1.02268e-01,-1.70062e-01,7.47674e-02,3.33619e-02,-8.56447e-02,-1.16295e-02,-1.28605e-02,-2.92157e-02,-1.11772e-01,-9.47157e-02,-5.57409e-02,4.08824e-02,-1.43942e-01,-1.58806e-02,-1.29827e-01,-1.92466e-02,-3.60297e-02,6.88750e-02,2.24240e-02,-5.85370e-02,-4.95434e-02,-1.14492e-01,-1.34165e-01,-2.06232e-01,-1.22446e-01,-8.16365e-03,-1.06912e-01,-2.51345e-02,-4.98566e-02,1.25684e-01,1.24149e-03,9.05278e-04,-1.37156e-01,4.05965e-02,-8.53543e-02,-2.02760e-01,-6.83843e-02,-9.05106e-02,-1.67872e-01,-1.48225e-01,-2.38036e-01,-1.72110e-01,-1.31713e-01,-1.57424e-01,-2.89301e-02,-4.24743e-02,-2.22811e-01,-1.35944e-01,-2.24709e-01,-3.26316e-01,-3.65944e-02,-1.31192e-01,-1.84830e-01,-7.99442e-02,-2.87848e-02,-6.21098e-02,-8.24787e-02,-1.16466e-01,-1.13459e-01,-1.38442e-02,-2.23825e-02,-4.67780e-02,7.20443e-02,2.64909e-02,-2.81372e-01,-1.64551e-01,-1.09355e-01,-1.30860e-01,-1.13582e-01,-9.49375e-02,-2.80928e-01,5.18201e-02,-1.98872e-01,-9.35815e-02,5.15409e-02,-1.66442e-01,-9.25890e-02,-1.01787e-01,-7.49862e-02,-6.71737e-02,9.49619e-02,-3.66053e-02,-1.44155e-01,7.14331e-02,-7.80552e-02,1.22190e-01,-1.24173e-01,-5.79872e-02,-8.57030e-02,-6.56257e-02,-1.88499e-01,-1.95191e-01,-1.40469e-01,-1.08758e-01,-2.94653e-02,-1.05331e-01,-1.20508e-01,-2.28417e-01,-1.14273e-01,-1.98802e-02,-1.01016e-01,-5.33740e-02,4.42756e-03,-3.13156e-01,-2.79910e-01,-5.12227e-02,-2.28513e-01,-2.09619e-01,2.21513e-02,3.55509e-02,1.02071e-01,1.37458e-01,-1.34359e-03,-4.92215e-02,-3.07320e-03,-2.38203e-02,-2.58835e-02,-1.70485e-01,-1.95186e-01,-1.69473e-01,-3.08373e-02,-8.57641e-02,3.10475e-02,-2.16281e-02,-7.83021e-02,-1.10676e-01,-7.19642e-02,-2.51704e-01,-1.66337e-01,-1.70932e-01,-3.03744e-01,-1.52331e-01,-4.86151e-02,-1.31374e-01,-7.77267e-02,-1.81338e-01,-1.26347e-01,-1.55077e-01,-9.35728e-02,1.55750e-01,-8.80813e-03,-2.48429e-02,1.34908e-01,4.41507e-02,-7.30885e-02,4.02951e-02,-1.88889e-01,-4.02194e-02,-8.44431e-02,-1.09710e-01,1.14791e-02,-9.66767e-02,-1.32100e-01,-6.23882e-02,3.41403e-02,-8.15188e-02,7.00260e-02,-8.38578e-02,-1.58374e-01,-6.56964e-02,-1.99012e-01,-8.20206e-02,-1.07187e-02,3.69109e-02,-8.08025e-02,1.35729e-01,-1.96161e-01,1.36643e-01,-2.54361e-02,3.46513e-02,-3.61958e-02,-4.53692e-02,4.76466e-03,5.64798e-02,-2.41054e-02,5.39053e-02,1.71488e-01,1.48055e-01,3.90466e-02,-4.34335e-02,-4.57678e-02,-1.85162e-01,1.18041e-02,-1.04296e-01,-1.44984e-01,-3.97537e-02,7.27347e-02,1.97609e-02,7.64522e-02,1.08941e-01,-3.07696e-03,1.96912e-02,1.68219e-01,2.82855e-02,-7.85309e-02,-4.08204e-02,9.68140e-03,-1.20923e-02,-5.13788e-02,1.05592e-02,6.80260e-02,-1.67128e-02,1.09811e-01,1.03263e-01,1.64147e-01,1.80672e-01,-3.77545e-02,1.09459e-01,-5.48222e-02,-9.60229e-03,1.32582e-01,7.98053e-02,1.94969e-01,-7.61185e-03,9.65995e-02,8.63758e-02,4.14538e-02,1.67217e-01,1.74574e-02,7.19578e-02,6.18338e-02,-1.34228e-02,5.41527e-02,-4.15671e-02,1.26554e-03,1.22193e-01,-4.91194e-02,-1.32654e-01,4.43818e-03,-5.41025e-02,1.86594e-01,-5.51612e-02,6.19864e-02,-1.44641e-02,-5.59392e-03,4.24105e-04,1.70469e-01,1.54013e-01,-7.64768e-03,7.38578e-02,7.61287e-02,1.73589e-01,1.58193e-01,1.58627e-01,8.70479e-02,-3.33957e-02,3.59703e-02,1.26037e-01,-3.59567e-02,5.15374e-02,-5.30236e-03,6.51640e-02,1.44558e-01,-3.97915e-02,5.74718e-02,6.46531e-02,-4.70005e-02,6.59874e-02,1.23246e-01,1.81680e-01,-5.08290e-02,7.51663e-02,-2.42713e-02,-5.69074e-02,2.73874e-02,3.17953e-02,5.92984e-02,-7.79639e-02,-8.84944e-02,-2.28936e-02,-9.59578e-02,-4.04710e-02,-3.88411e-02,4.27844e-02,4.64670e-02,9.07857e-02,-1.27878e-01,1.65744e-01,3.09364e-02,8.28295e-02,6.00712e-02,-6.00610e-02,
6.01191e-02,9.82261e-02,5.75629e-02,-5.06605e-02,-5.82481e-02,-7.07549e-02,-1.23080e-01,1.53889e-01,-8.04010e-02,-1.99296e-01,7.91546e-02,-7.76691e-02,7.01698e-02,-7.51376e-02,-3.97989e-02,-7.08771e-02,6.57734e-02,9.10553e-02,-9.53941e-03,7.97145e-02,2.22662e-02,-9.08434e-02,1.13111e-02,2.07680e-02,-4.99500e-02,-4.10982e-02,-1.21697e-02,9.28869e-02,-1.92251e-04,-4.43134e-02,-7.52898e-02,3.12139e-02,-1.47909e-01,-2.78741e-02,1.18535e-01,-2.00190e-01,1.76268e-01,1.45769e-03,-8.09206e-02,3.47722e-02,-4.04627e-02,1.99986e-02,2.34688e-02,9.07463e-03,3.25072e-02,3.36245e-02,3.46418e-02,-3.47111e-02,-9.83934e-03,-1.18546e-01,-4.95176e-02,5.45993e-02,-4.72735e-02,-1.38527e-01,1.42843e-02,-1.24135e-01,-7.17813e-02,-7.22574e-02,-1.26193e-01,-1.37950e-01,-3.90038e-02,1.25285e-01,1.00045e-01,1.63180e-02,-9.96565e-02,-7.35770e-02,-9.93404e-02,-1.10635e-01,4.15442e-02,-1.73122e-03,-6.03637e-02,-1.28122e-02,-3.30572e-02,-3.58396e-02,-1.80868e-02,6.83162e-03,6.47412e-03,7.71703e-02,5.20307e-02,-1.17241e-01,1.18359e-01,-1.03036e-02,-3.85399e-02,-9.68496e-02,1.08961e-01,5.58152e-03,6.82900e-02,-1.05755e-01,-2.89047e-02,-3.54816e-02,4.51132e-02,2.56539e-02,1.08457e-01,1.70269e-01,-1.46008e-01,-1.61287e-01,4.73958e-02,-3.64115e-02,-1.51763e-01,-2.66227e-02,-1.58609e-01,1.74985e-02,-1.50390e-01,-4.06940e-02,-1.34598e-03,4.64533e-02,6.49101e-02,1.20996e-03,1.80971e-02,2.03565e-02,-7.75596e-02,9.94222e-03,9.72409e-02,1.96185e-01,-5.81977e-02,4.22316e-02,-1.53652e-01,4.90338e-02,-9.03183e-02,4.95679e-02,-7.28442e-02,-6.39482e-02,-4.88579e-03,7.35612e-02,-9.40160e-02,3.33818e-02,-6.58566e-02,6.58338e-02,-1.52078e-01,2.50207e-03,-5.13549e-02,6.65446e-02,-5.93121e-02,-1.14557e-01,1.49817e-02,-2.49866e-02,-7.13894e-02,-2.39988e-02,-6.30625e-02,-8.54793e-03,1.39863e-02,1.85529e-02,2.64734e-02,-6.20681e-02,1.36212e-01,2.34201e-02,-9.65261e-02,-1.64863e-01,-5.60833e-02,-7.08395e-02,-1.29793e-01,9.86662e-03,9.66949e-02,3.49632e-02,-1.74784e-01,1.15031e-01,6.75752e-03,-1.60416e-01,3.51226e-02,-5.55927e-02,8.93248e-02,-1.05258e-01,4.03587e-03,6.62402e-02,-5.39352e-02,-2.69049e-02,-1.66481e-02,-1.14901e-01,1.21708e-02,-1.24478e-01,-4.77562e-02,1.41161e-01,-1.55763e-01,1.19578e-01,1.05479e-01,1.32365e-01,7.51968e-03,4.99753e-02,4.44235e-02,1.04773e-01,-4.81982e-02,8.03180e-02,-1.75561e-01,-2.13341e-01,-4.92485e-02,-2.99093e-01,-1.59404e-01,-1.30710e-01,-2.38868e-02,-4.27745e-02,1.64372e-01,6.67919e-02,-1.29992e-01,3.07322e-03,1.09078e-01,1.47320e-01,-5.52165e-02,5.46996e-02,1.36404e-02,-3.95464e-03,-1.74250e-01,-2.92856e-03,-9.03297e-02,-1.39831e-02,-9.56300e-02,-6.93532e-02,2.22259e-02,1.11393e-01,8.58844e-02,-4.66432e-02,-7.66448e-02,-5.54754e-02,-3.15370e-01,-1.48759e-01,-1.28920e-01,-1.32750e-01,-8.80421e-02,1.09043e-01,2.20803e-01,9.64485e-02,1.17648e-01,-5.37130e-03,-3.34527e-02,-4.63706e-02,-1.27169e-01,-8.21696e-02,-1.13303e-01,-4.37297e-02,1.11515e-01,1.32443e-01,-6.99956e-02,-1.26889e-01,-1.88620e-01,1.47308e-01,-1.85292e-01,1.38370e-01,1.31334e-01,-6.63185e-02,-2.36612e-01,-1.55618e-01,-3.61858e-01,-4.85659e-02,1.62411e-02,5.38147e-02,1.35438e-01,-1.05147e-01,2.12243e-01,1.42945e-01,1.82146e-02,4.65869e-02,-8.76214e-02,5.13232e-02,-2.88532e-02,1.34453e-02,-4.33342e-02,1.07468e-01,1.97226e-02,6.40995e-02,-8.90524e-02,-1.24570e-01,7.43143e-03,-1.52129e-01,-1.01893e-01,7.83380e-02,1.23986e-01,-7.86464e-02,-1.57777e-01,-6.77821e-02,-3.53208e-02,3.08651e-02,2.08221e-02,1.65470e-01,1.07153e-01,1.12794e-01,7.54269e-02,1.49211e-01,1.68777e-01,7.19573e-02,4.58811e-02,-4.20487e-02,-2.35383e-02,4.42626e-02,1.57101e-02,1.07897e-01,-1.20691e-01,-4.49164e-02,1.69888e-02,-2.47816e-01,-1.11582e-01,-1.36885e-01,-6.42024e-02,4.33741e-02,4.41171e-02,1.69876e-02,-1.11013e-01,1.97804e-02,4.99798e-02,1.02492e-01,6.31760e-02,9.89119e-02,9.27437e-02,1.38245e-01,1.15356e-01,-1.71008e-02,-1.41782e-01,5.70364e-02,1.01246e-01,7.16447e-02,-1.11628e-01,-1.01571e-01,4.88920e-02,1.17195e-02,-1.61805e-02,-2.13864e-01,7.77694e-02,-2.04403e-01,-1.03520e-01,-1.83266e-01,3.87120e-02,2.13669e-01,9.71212e-02,-1.15398e-01,2.38666e-02,6.75798e-02,6.84151e-02,-8.96755e-02,9.47044e-02,1.60785e-01,5.04458e-02,-1.21888e-02,3.15460e-03,7.21873e-02,-2.51539e-02,1.06435e-01,-7.69044e-02,6.91704e-02,1.76589e-02,-2.41072e-02,-3.39363e-02,-8.39988e-02,-1.06538e-01,-4.53779e-02,-1.51716e-02,-1.99188e-01,-8.85486e-02,-8.49496e-02,2.53038e-01,2.43567e-01,2.06839e-01,8.29949e-02,-1.27382e-01,-8.70126e-03,7.17279e-02,-1.14586e-02,-6.91444e-02,-8.73985e-02,5.24026e-02,1.48792e-02,-1.12518e-01,2.57087e-02,-8.29857e-03,-1.36071e-01,-4.58741e-02,-5.70159e-02,-6.65346e-02,-1.64312e-01,9.15180e-02,1.79535e-03,-3.14198e-02,-1.15973e-01,2.82791e-02,-3.09903e-03,7.53054e-02,1.86718e-01,3.09624e-01,1.98623e-01,8.46992e-02,-1.89012e-01,-2.53211e-01,-1.18610e-01,-2.44144e-02,-1.16497e-01,-7.23213e-02,-4.03608e-02,-1.17894e-02,-2.16727e-03,-7.81761e-02,-3.96383e-02,-7.30639e-02,9.64430e-02,-3.49714e-02,6.90699e-02,1.51837e-02,7.02716e-02,1.30560e-02,-8.49448e-02,6.96191e-02,1.22380e-01,2.52088e-02,2.03988e-01,2.71999e-01,7.48394e-02,5.67693e-02,7.85389e-02,4.77004e-02,-1.30478e-01,-2.09920e-01,2.96030e-02,2.89235e-04,1.65246e-01,5.08066e-02,1.22992e-01,1.53360e-01,8.38682e-02,-1.30951e-01,9.61958e-02,-8.94616e-02,-1.13873e-01,-2.82168e-02,6.30047e-02,7.10546e-02,9.56088e-02,-3.48342e-02,8.03635e-02,-1.13795e-01,1.84802e-02,6.73798e-02,4.24227e-02,1.54632e-01,-5.90239e-02,6.51104e-02,-3.30308e-02,-7.40776e-02,-1.42606e-01,1.08293e-01,8.15386e-02,-8.41006e-03,1.52760e-01,1.66455e-01,1.26777e-01,-5.39336e-02,-4.52786e-02,1.20076e-01,5.40767e-03,4.90434e-02,4.88127e-02,7.06988e-02,3.40797e-02,-6.43031e-02,-8.68874e-02,5.77820e-02,-1.01789e-01,-4.23964e-02,-3.76076e-02,-1.16603e-01,1.91262e-01,9.62387e-02,6.03753e-02,6.31067e-02,-4.27475e-02,-1.35482e-01,6.68408e-02,7.58113e-02,1.53596e-01,1.38600e-01,-6.68634e-03,9.82780e-02,1.28500e-01,1.31759e-01,1.98424e-01,8.70407e-03,-6.14510e-02,-7.81356e-02,-7.28405e-03,-7.11928e-02,-1.25268e-01,-5.74984e-03,4.37164e-02,-8.86067e-02,-1.82318e-02,-8.82337e-02,-8.32355e-02,2.34812e-02,-6.07142e-02,1.07007e-01,-1.92690e-02,6.50753e-02,-4.11624e-02,-6.12196e-02,2.12766e-02,2.09019e-01,7.65744e-02,1.52293e-01,1.87628e-01,1.25635e-01,1.12379e-01,5.54187e-03,-3.06182e-02,5.45518e-02,-6.79715e-02,-1.29827e-01,5.82034e-02,-7.24907e-02,4.19081e-02,8.91782e-02,1.37103e-01,2.00608e-02,8.45836e-02,-4.17705e-02,-4.35607e-02,-3.39756e-02,9.41894e-02,-4.92537e-02,1.60606e-03,-9.72641e-02,-1.00984e-01,3.59876e-02,1.39024e-01,7.57914e-02,-4.67263e-02,-1.17491e-02,-1.45258e-01,-2.12659e-01,-1.22952e-01,-1.65425e-01,-2.20034e-01,-3.22102e-02,2.95497e-02,-2.92604e-02,1.00197e-01,-1.64994e-01,1.96116e-03,-6.35331e-02,-6.27078e-02,7.70615e-03,1.40724e-01,-1.45735e-01,1.23387e-02,1.20164e-01,-3.94613e-02,-5.97086e-02,4.60315e-02,-4.26232e-02,-4.14059e-02,-7.64520e-02,-9.14193e-02,1.07968e-01,3.39518e-02,-1.59090e-01,-1.95355e-01,-9.83180e-02,-5.13725e-02,-5.07102e-02,-5.69447e-02,-9.97376e-02,5.53498e-02,1.06631e-01,-6.10157e-03,-4.29657e-02,-2.46943e-02,-2.38582e-02,1.37043e-02,-1.98074e-01,-1.62440e-01,-1.92607e-01,-1.37588e-01,-1.77422e-01,-3.84334e-02,3.11335e-02,-1.37476e-01,-1.62548e-01,-2.15501e-02,-1.32203e-01,-6.01444e-02,-2.40455e-02,6.64361e-02,-2.67543e-02,-1.02090e-01,-6.72902e-04,-1.40104e-01,-9.15917e-02,-2.31309e-01,-2.24422e-02,4.05117e-02,-5.68422e-02,1.01721e-01,7.25376e-02,1.26859e-01,1.27367e-01,-2.05041e-02,6.80324e-02,-7.52156e-02,-5.46211e-02,1.42139e-01,-3.39914e-02,-2.09139e-01,-1.30949e-01,-9.68253e-02,-1.08242e-02,-8.05655e-02,-1.62002e-01,-8.26278e-02,-2.51212e-01,-2.26385e-01,-1.90591e-01,-5.98330e-03,-1.06464e-01,-3.02866e-02,-4.34612e-02,6.19594e-02,1.69043e-01,-5.19952e-02,-2.25178e-02,5.96801e-02,7.91487e-03,-4.23986e-02,1.37598e-01,3.27356e-02,-3.41216e-02,-2.82923e-02,6.71082e-02,6.08404e-02,5.14949e-02,1.14081e-01,-1.21251e-01,-3.62369e-02,-1.20926e-01,-6.45023e-03,1.52742e-02,-2.90146e-02,-4.56076e-02,1.26378e-02,2.51418e-02,-6.23317e-02,-1.79461e-01,-2.02938e-01,-8.91357e-03,-2.72021e-02,-1.17390e-02,2.97598e-02,-1.02135e-01,4.45265e-02,1.81566e-01,9.33892e-02,-6.03679e-03,-7.14599e-03,8.61723e-02,-9.60370e-03,7.45375e-02,7.41431e-02,-8.43771e-02,-2.15759e-02,9.86528e-02,1.13155e-01,-5.33384e-03,1.82267e-02,1.11255e-01,-3.53445e-02,1.34583e-02,1.77374e-01,-9.55271e-02,4.16562e-02,-2.05832e-02,8.31770e-03,8.54662e-02,1.08346e-01,1.05696e-01,6.18428e-02,6.55285e-02,-8.66233e-02,-5.36271e-02,1.08954e-01,1.23930e-02,1.32183e-01,2.08613e-03,-8.41246e-02,6.03477e-02,-2.38894e-02,1.04298e-01,2.15695e-02,-2.61520e-02,-3.39464e-02,-1.69362e-01,1.62012e-01,-8.86236e-02,1.04947e-01,-2.12763e-02,9.96419e-03,-1.76386e-02,-4.02619e-02,-3.46475e-02,-8.73540e-02,-7.38588e-02,4.39795e-02,-7.89724e-02,1.10664e-01,5.66796e-02,2.42270e-02,-3.79285e-02,9.33114e-02,-3.12259e-02,2.87652e-02,9.32046e-03,9.35340e-02,1.00058e-01,4.11830e-02,-1.02818e-01,-1.01900e-01,-2.16327e-02,-1.69505e-01,-1.45040e-01,-4.05359e-02,-3.40998e-02,7.14424e-05,-5.34362e-02,1.20404e-01,-5.94789e-02,7.77188e-02,-1.88884e-01,-3.21158e-02,-1.09043e-01,-2.41405e-02,-1.98977e-02,4.77269e-02,-1.57952e-02,3.95533e-02,-9.55773e-02,2.10602e-02,8.34376e-02,1.27537e-01,9.43235e-02,5.13466e-02,2.25523e-02,6.38814e-02,-1.19588e-01,-9.65345e-02,-3.34770e-02,-1.65210e-01,8.11950e-02,8.24041e-02,-2.27795e-01,-1.27606e-01,-2.54752e-01,-2.77854e-02,6.53186e-03,5.04053e-02,-3.73381e-02,1.86600e-02,-7.86404e-02,-8.31396e-02,-5.56007e-02,-1.13331e-01,-1.89163e-03,1.13980e-01,1.82637e-02,-3.26245e-03,6.18197e-03,1.37045e-01,4.38549e-02,9.28495e-02,-2.47210e-02,8.17688e-03,2.74200e-02,-3.49014e-02,9.97899e-03,-1.38804e-02,9.34151e-02,-4.73902e-02,7.47822e-02,-2.59210e-02,5.43670e-03,-2.33150e-03,-1.20687e-01,1.01405e-01,-1.06286e-01,8.36577e-02,-1.72476e-03,-1.16620e-01,-2.81469e-03,4.45660e-02,-8.00448e-02,9.07385e-02,5.04875e-02,4.46414e-02,
-1.72804e-01,1.79175e-02,-4.62734e-02,2.39237e-02,-1.29612e-01,-8.75264e-02,1.77308e-02,-1.23057e-01,4.66092e-02,-1.23558e-02,-9.68562e-02,9.20612e-02,-1.25275e-01,-1.32760e-01,6.83514e-02,1.35282e-01,-7.85226e-02,-1.47607e-02,-8.71842e-02,-1.14717e-01,5.49866e-02,7.20797e-02,-6.72265e-02,5.08671e-02,1.49539e-01,6.96948e-02,1.65891e-02,4.47747e-02,3.93471e-02,-5.71007e-03,1.38976e-01,1.41188e-02,6.51234e-02,-2.61991e-02,-3.52889e-02,1.18820e-01,1.63610e-01,3.86454e-02,1.70647e-01,-7.99099e-02,-8.95570e-03,-1.98453e-02,-2.72318e-02,-5.68469e-02,-5.88038e-02,7.65241e-02,9.59075e-03,-5.04296e-02,-4.51535e-02,2.94913e-02,1.64633e-01,7.43257e-02,4.34433e-02,-7.19845e-02,-1.26569e-01,-9.33546e-02,-1.35035e-01,-8.86386e-03,5.66838e-02,1.24418e-01,1.52276e-01,-1.71096e-01,-1.68159e-02,-1.76174e-01,1.23690e-01,3.41080e-02,-5.39384e-03,1.04085e-01,-3.76952e-02,3.10815e-02,-5.23252e-03,1.99685e-01,-4.43748e-02,2.40818e-02,-1.83114e-01,-7.77602e-03,-1.27993e-01,-4.04476e-02,8.51634e-02,1.92403e-02,4.20515e-02,7.23355e-02,4.71450e-02,-9.70258e-02,-6.80937e-02,-1.79188e-01,3.36111e-02,5.77812e-02,-7.78884e-02,2.39266e-02,1.72174e-01,7.87765e-02,-8.35674e-02,1.36688e-01,-4.36999e-02,-6.26571e-02,1.79801e-01,-2.06747e-02,1.97951e-01,-1.14269e-01,1.48094e-01,1.43896e-01,1.38868e-02,8.02560e-02,9.98909e-02,3.96053e-02,-2.02862e-02,-6.16965e-02,-1.44189e-01,1.20612e-01,-1.57195e-01,4.48173e-02,1.07223e-02,-1.12535e-02,-4.12107e-03,-3.53600e-02,1.18504e-02,3.22433e-02,1.15243e-01,7.70591e-02,7.47501e-02,-2.01201e-02,6.91836e-02,7.89790e-02,1.08987e-02,-6.02892e-02,-2.81165e-03,-8.11279e-02,-3.29982e-02,6.23932e-02,-3.42298e-02,7.38519e-02,-6.89526e-02,9.07883e-02,-1.07577e-01,-1.94018e-01,7.89554e-03,-1.39632e-02,-6.62592e-02,4.41344e-02,3.38878e-02,-7.77496e-02,-9.96357e-02,-6.42772e-02,-8.20403e-03,1.28278e-02,-3.09890e-02,5.06629e-02,1.02336e-01,-1.63249e-01,8.31317e-02,8.41616e-02,9.47494e-02,6.86166e-02,-3.69917e-02,1.08715e-01,-1.02046e-02,1.24535e-01,-3.30153e-02,9.86472e-02,-1.04724e-02,2.10905e-02,-5.41215e-02,-1.52460e-01,-2.34664e-02,1.05431e-01,8.99493e-02,-1.31093e-01,-3.87853e-02,4.01727e-02,4.16442e-02,2.59268e-02,-7.88680e-02,4.90666e-02,4.45241e-02,-6.53627e-02,-6.25352e-02,-4.40979e-02,1.06544e-01,9.34642e-02,-4.25746e-02,-1.40843e-02,9.73994e-02,-2.34952e-02,-1.06893e-02,-3.04572e-02,-5.64433e-02,6.00578e-02,-5.27051e-02,3.17575e-02,-9.13076e-02,-2.50044e-02,-4.49370e-02,-1.39202e-01,-3.63443e-02,-4.35798e-02,6.74184e-02,1.16456e-01,-7.35002e-02,-6.80672e-02,7.68830e-02,8.66953e-02,1.85625e-01,6.35338e-02,-6.42148e-02,1.26766e-01,1.08794e-01,-1.02471e-02,1.61144e-01,3.00859e-02,1.39623e-01,3.00504e-02,7.04053e-02,1.69442e-01,9.05628e-02,2.11091e-01,1.45808e-02,4.52847e-03,-2.77396e-02,-5.17428e-02,-2.57237e-02,-1.76056e-01,-1.44474e-01,1.45458e-01,9.68725e-02,1.04564e-01,-1.70715e-01,1.07636e-03,-1.20815e-01,4.68521e-02,-2.56910e-02,5.52807e-02,7.54960e-02,-1.12830e-01,-8.03989e-02,8.95944e-03,4.50774e-02,1.20802e-01,3.13268e-02,-1.00759e-02,-6.45615e-02,7.12957e-02,-6.09087e-03,4.12000e-02,7.88082e-02,9.02015e-02,-1.51921e-01,1.33588e-01,1.09209e-01,-1.36119e-01,2.52807e-02,-3.78589e-02,1.40818e-02,-8.90525e-02,2.66277e-02,-1.06984e-01,1.21217e-01,9.43265e-02,-1.95112e-03,9.04776e-03,-1.41399e-01,3.36181e-02,-7.24113e-02,-3.21991e-02,-3.34844e-01,-3.44282e-01,-2.38224e-01,5.55664e-02,1.79120e-01,1.00666e-01,1.73445e-01,7.60133e-02,1.91576e-01,1.22631e-01,5.42156e-02,9.17334e-02,8.82682e-03,1.27751e-01,-1.37193e-02,5.57163e-02,3.01894e-02,1.47706e-01,1.39357e-01,5.98684e-02,5.44939e-02,1.69423e-02,-5.05819e-02,-2.93992e-02,-1.95128e-01,-1.68529e-01,-2.98385e-01,-4.54966e-01,-5.62695e-01,-3.70927e-01,-1.29115e-01,-1.38701e-01,8.65808e-02,2.68725e-02,1.05448e-01,1.21016e-01,1.21716e-01,1.37556e-01,-7.01977e-02,-2.24154e-01,-8.87108e-02,-1.98413e-02,4.19820e-02,-4.03646e-02,4.86425e-02,2.88574e-02,3.57718e-02,3.16113e-02,5.66836e-02,-5.47710e-02,-2.88659e-01,-1.56229e-01,-3.25529e-01,-3.50627e-01,-3.84393e-01,-4.82966e-01,-3.90786e-01,-2.19932e-01,-9.45971e-02,5.42924e-02,9.71901e-02,1.21645e-01,-1.56765e-02,7.03510e-02,7.29344e-02,1.42971e-02,-7.82435e-02,-8.52202e-02,-1.72414e-02,1.74648e-01,-4.33156e-03,4.89282e-02,3.57334e-02,-2.72415e-02,-3.11248e-02,-1.87955e-02,-6.18991e-02,1.91379e-03,-6.28171e-02,-3.44035e-01,-3.75990e-01,-3.95553e-01,-3.83206e-01,-2.35699e-01,2.84070e-03,9.79681e-02,1.91428e-01,1.17342e-01,1.05284e-01,-2.25558e-02,-1.82731e-01,-3.85037e-02,-1.35968e-01,-3.28740e-02,-1.91791e-03,-2.01195e-01,7.28692e-03,-6.47593e-02,5.50573e-03,-1.72157e-01,-3.42227e-02,1.46818e-01,1.23592e-02,1.24559e-01,-1.74096e-01,-6.76354e-02,-1.97077e-01,-3.22191e-01,-1.75488e-01,-1.19025e-01,2.87911e-02,-6.16488e-02,2.14279e-01,7.23863e-02,3.03774e-02,1.84296e-01,-8.35870e-02,1.13834e-01,3.38218e-02,1.38292e-01,3.64877e-02,-1.38617e-01,-7.91425e-03,-1.25836e-01,4.80208e-02,-1.32520e-01,-1.24983e-01,5.16924e-02,-1.90306e-01,1.44171e-01,3.18074e-02,1.06997e-01,2.14346e-03,-5.57363e-02,-1.46495e-01,-4.58463e-02,-2.65166e-02,-3.77497e-03,1.31450e-01,-2.61029e-02,9.16800e-02,1.11668e-02,2.78697e-02,1.66201e-02,1.68347e-02,2.34904e-02,1.26726e-01,1.11862e-01,1.09326e-01,2.51760e-02,-1.47806e-01,-1.59416e-01,-8.55870e-02,-2.66436e-02,-1.20336e-01,7.91302e-02,-1.92164e-03,7.59727e-02,-2.77613e-03,-5.96329e-02,-1.24399e-01,-3.68363e-02,-2.54977e-02,5.40095e-02,5.46891e-02,-8.76697e-02,2.91171e-03,9.34111e-02,9.27083e-02,3.62276e-02,7.12892e-02,1.05465e-01,2.55908e-02,-6.26232e-02,1.71819e-01,2.97285e-02,-9.36492e-02,1.86273e-01,-6.72223e-02,2.43413e-02,8.79894e-02,-1.33621e-01,-8.37240e-02,-1.22763e-01,-6.94901e-02,8.77968e-03,-1.18843e-02,8.06170e-03,2.48841e-02,1.00376e-01,-8.03920e-03,1.21729e-01,-8.37657e-02,3.91339e-02,-7.32798e-02,4.45519e-02,1.06674e-01,3.67950e-02,-8.83331e-02,4.37569e-02,-7.22284e-02,-2.55204e-02,9.97953e-02,-1.89743e-02,1.04098e-01,-5.59240e-02,8.76531e-02,-1.14859e-02,-5.95339e-02,-5.30649e-02,-2.96443e-02,1.38820e-01,3.05564e-02,-1.05221e-01,1.21867e-01,5.49787e-02,1.20304e-01,4.45806e-02,-7.42221e-02,-8.02602e-02,-8.66572e-03,-4.97474e-02,-2.21002e-01,-1.69142e-01,-9.85243e-02,-8.75186e-02,-1.90582e-02,-1.81169e-03,-8.52178e-02,1.75263e-02,6.13823e-02,5.47244e-02,-9.01027e-02,4.14506e-02,7.22508e-02,1.81168e-01,1.74903e-02,1.18030e-01,8.90776e-03,-6.67740e-02,1.37357e-01,8.82636e-02,-6.91209e-03,8.90099e-02,2.13562e-01,-5.06479e-02,3.18226e-02,-1.39998e-01,-1.52095e-01,-2.32964e-01,-1.79156e-01,-2.92372e-01,-9.01978e-02,3.34816e-02,-1.97370e-02,7.48297e-03,1.64520e-01,1.21173e-01,-2.71090e-02,9.87962e-02,1.00997e-01,-9.59303e-02,-5.91554e-02,1.38497e-01,4.40065e-02,3.66516e-04,2.68940e-02,-1.07792e-03,-1.70983e-01,-5.02697e-03,1.30219e-01,9.95497e-02,2.29107e-01,2.32238e-01,-1.04336e-01,-1.37520e-01,-2.01692e-02,-1.73443e-01,-8.14879e-02,-3.15372e-01,-1.33389e-01,-5.98202e-02,-1.48190e-01,-6.79537e-02,-2.74466e-02,-3.93209e-02,-4.48071e-02,-4.71969e-03,7.24673e-02,-1.27761e-01,-1.36666e-01,-6.15497e-02,3.80843e-02,-9.87595e-03,9.37403e-02,-6.35900e-03,4.74399e-02,-1.35235e-01,6.87314e-02,-1.32339e-02,1.81327e-01,8.49350e-02,9.13011e-02,3.59893e-03,-1.64502e-01,-4.81660e-02,8.31997e-02,-9.57201e-04,-1.57475e-02,-1.47406e-01,2.49637e-02,5.87286e-02,-7.82041e-02,9.98463e-02,-4.22035e-02,4.33977e-02,-1.40528e-02,-1.04079e-01,-1.62039e-01,-1.72390e-01,-3.81475e-04,-1.07389e-01,-8.09050e-02,1.88654e-01,8.63390e-02,-2.84489e-02,6.63902e-02,6.53335e-02,4.69124e-02,-8.37748e-02,8.49129e-02,-3.03267e-02,-1.47352e-01,-1.80669e-02,-8.37852e-02,-8.91140e-02,5.53668e-02,1.23174e-01,-4.32095e-02,-5.23030e-03,8.94800e-02,-1.77739e-01,-6.48267e-02,-7.34296e-02,-7.98203e-02,1.64143e-02,2.41613e-02,-1.47566e-01,-4.47107e-02,3.12560e-02,-5.64397e-02,7.32760e-02,1.49046e-01,8.45650e-02,-4.04701e-03,2.01341e-02,1.35107e-01,5.09513e-02,-1.71660e-02,1.65719e-02,-9.26547e-02,7.26157e-02,-1.34630e-01,7.53443e-02,-1.21871e-03,5.25579e-03,1.34703e-01,1.24872e-01,1.62781e-01,5.62603e-02,-1.08907e-01,-1.21104e-01,-1.95331e-01,-1.24527e-01,-1.40529e-01,-1.22538e-01,-4.82543e-02,8.85869e-02,-6.12462e-02,2.40955e-02,1.04915e-01,4.17721e-02,-3.10220e-02,-8.30675e-02,-1.15485e-02,1.25207e-01,5.92088e-02,2.39142e-01,-2.39901e-02,3.47882e-02,-2.85618e-02,-9.37166e-02,4.37204e-02,1.77582e-02,-1.48407e-01,8.58915e-02,-1.94755e-01,1.54449e-02,8.81519e-02,-5.53340e-02,-2.84249e-02,-4.46237e-02,-2.08551e-01,-1.91973e-01,-1.01446e-01,4.14568e-02,1.21101e-01,-1.69864e-01,4.48078e-02,2.23158e-02,2.25792e-02,1.44522e-01,3.04637e-02,-1.39677e-03,1.36809e-01,2.60791e-01,7.11079e-02,1.97922e-01,-9.80422e-03,-3.97003e-02,-1.00612e-01,-4.94215e-02,-1.70103e-03,-2.22830e-03,5.71957e-02,8.68000e-02,-6.62392e-02,-1.34801e-01,-1.04025e-01,-7.87911e-02,-8.54892e-02,1.84677e-01,8.63903e-02,-1.20835e-01,9.03239e-02,-1.01535e-01,-1.13500e-02,-1.58493e-01,-4.88957e-02,3.28019e-03,1.16537e-01,9.30685e-02,-5.26822e-02,6.29305e-02,1.93121e-02,8.82800e-02,-1.08129e-02,2.67110e-02,9.70685e-02,1.17664e-01,9.08208e-02,4.85017e-02,2.03229e-02,-4.45168e-02,-1.53965e-02,-1.09621e-01,6.91633e-02,-1.49829e-01,-1.43218e-01,6.57543e-05,2.66829e-02,-7.95512e-02,3.33897e-02,-8.29697e-02,-1.58267e-01,-1.55690e-01,1.10265e-01,1.36194e-01,1.55739e-01,3.37766e-02,-4.75514e-03,1.38600e-01,-8.45486e-02,1.57925e-01,1.54405e-01,1.40294e-01,-9.78326e-02,-2.56370e-02,7.62297e-02,1.33263e-01,-3.93315e-02,1.59366e-01,1.81205e-01,4.81941e-02,1.00083e-01,-1.12211e-01,1.83010e-01,-1.19052e-01,2.24797e-03,7.31050e-02,2.86288e-02,-1.26362e-01,-1.90443e-01,4.22019e-02,1.57605e-02,-9.28629e-02,7.27716e-02,-2.83129e-02,-1.08305e-01,1.74304e-02,-1.67469e-01,1.69011e-02,-1.33273e-01,1.19544e-01,8.62419e-02,1.25410e-01,-1.14957e-01,-1.59012e-02,-1.12931e-01,1.18087e-01,-3.09468e-03,2.84221e-02,-2.11887e-02,9.23864e-02,-1.84882e-01,1.82857e-02,-1.39343e-01,3.26672e-02,-3.30558e-02,-6.40923e-02,
7.92553e-02,-1.61049e-01,3.82771e-02,-6.16962e-02,-3.81892e-02,-6.49245e-02,3.26059e-02,-8.72384e-02,9.50378e-02,9.34389e-03,-4.62339e-02,1.54289e-01,-7.15536e-02,-1.30431e-02,1.08978e-01,2.17580e-03,-7.34224e-02,-1.02879e-01,5.76076e-02,6.91069e-02,5.23553e-02,8.06858e-02,1.10411e-01,-4.04251e-02,-1.26544e-01,3.03718e-02,-1.05206e-01,1.17933e-01,-7.65057e-02,8.15174e-02,1.40482e-01,1.37437e-01,-7.81819e-02,-7.35962e-02,-2.20800e-02,2.25648e-02,1.26975e-01,-1.61156e-02,-8.79454e-02,2.40175e-02,1.43844e-01,1.25394e-02,1.06733e-01,1.35844e-01,-7.15944e-02,3.28920e-03,-3.68393e-03,-1.25997e-01,-8.14279e-02,-1.95769e-02,-3.84514e-02,-1.80858e-01,6.82139e-02,1.19621e-01,-3.21411e-02,-4.40169e-02,6.34642e-02,-1.20933e-01,9.55578e-02,5.17181e-02,-8.23233e-02,-4.19538e-02,-9.22484e-02,-8.23485e-02,5.65191e-02,-1.38510e-01,-5.69482e-03,1.32614e-01,-4.93408e-02,8.29600e-02,-1.65837e-03,1.20376e-01,8.33909e-02,-4.34676e-02,-5.84613e-02,8.48891e-03,-1.49534e-02,-9.61607e-02,-1.02318e-01,5.51366e-02,-7.46855e-02,1.04944e-01,-9.07234e-02,1.10284e-01,-1.59184e-01,8.43397e-02,2.28911e-02,6.41924e-02,9.26367e-02,6.99055e-02,4.76679e-02,-1.23251e-02,8.03024e-02,-5.24978e-02,-6.02766e-02,8.35391e-02,9.63481e-02,1.73059e-01,-7.90842e-02,1.93513e-01,-2.03363e-02,4.92234e-02,1.55087e-02,-4.03813e-03,1.49269e-01,-4.95574e-03,-1.67020e-01,1.85593e-02,6.24210e-02,9.79910e-02,6.67634e-02,-6.89167e-02,-1.41621e-01,-8.88709e-02,2.16150e-02,-1.03878e-01,-8.65936e-02,3.84707e-02,2.73057e-02,-1.98022e-02,9.74605e-02,-5.93943e-03,-5.37338e-02,1.06828e-01,6.33440e-02,8.78586e-03,-5.89955e-02,1.20934e-01,-1.03999e-01,9.06944e-02,-1.61463e-01,-6.30774e-02,-1.73110e-02,3.35812e-02,-4.00650e-02,-6.27940e-02,-8.02711e-02,4.35604e-02,5.24453e-02,-5.79203e-03,-1.07510e-01,1.05562e-01,-8.41456e-02,-7.19735e-02,1.73047e-01,-1.15302e-01,-3.30643e-02,-4.75923e-02,-1.58218e-01,-1.06817e-01,3.87836e-04,1.53003e-01,6.32159e-02,7.87790e-03,6.69544e-02,1.90844e-01,8.54259e-02,5.23177e-02,7.55020e-02,-9.11968e-02,-1.82280e-01,9.49687e-02,-5.31057e-02,-9.13804e-02,8.38395e-02,2.87966e-02,8.10070e-02,-1.33151e-01,-5.78718e-02,1.85809e-02,8.68247e-03,-6.97150e-02,-9.90379e-02,7.66262e-02,4.80386e-02,2.74086e-02,1.66060e-02,2.15475e-02,-1.21891e-01,8.69773e-02,5.79940e-02,1.06278e-01,2.37362e-01,4.25109e-02,4.23713e-02,8.13185e-02,2.19138e-01,1.39227e-01,-3.72413e-02,5.61755e-03,-3.46316e-02,-1.83041e-01,1.02743e-01,-6.73253e-02,-9.67560e-02,-1.23506e-01,2.50392e-02,6.47794e-03,-2.21899e-02,6.75611e-02,-6.96784e-02,-1.91300e-01,-5.30906e-02,1.21795e-02,-5.11238e-02,-1.61838e-01,-1.29326e-01,1.07161e-01,8.69858e-02,-4.21871e-02,7.70574e-02,9.24769e-02,4.97816e-02,-2.02991e-02,3.16738e-02,2.34665e-01,-5.60043e-02,1.40176e-01,-8.43903e-02,-7.92229e-03,-9.92540e-02,-1.63425e-01,-4.22303e-02,-6.33853e-02,-1.20525e-02,-7.02158e-03,-1.57675e-01,-5.45166e-05,6.77131e-02,-8.92339e-02,-1.72295e-01,2.89608e-02,1.02735e-01,-4.73446e-02,-6.33498e-02,-1.34220e-01,1.02120e-01,-1.22019e-01,-8.91644e-02,6.25369e-02,1.48705e-01,9.89273e-02,4.61558e-02,-6.37967e-02,9.47034e-03,-1.44758e-01,-3.21710e-02,-1.43280e-01,-1.55478e-01,-1.05755e-02,-6.73490e-02,-2.32870e-02,1.00045e-01,9.98426e-02,5.30291e-03,-5.36285e-02,-1.05472e-01,7.15624e-02,8.61086e-03,-1.81774e-01,-1.26099e-01,-1.99092e-01,2.43619e-02,1.34668e-02,3.56608e-02,1.60845e-01,1.22661e-01,4.64686e-02,-5.39772e-02,1.10377e-02,1.73170e-02,5.19943e-02,-4.39696e-02,1.67673e-02,5.49423e-02,-3.37364e-02,7.51778e-02,7.03873e-02,-7.67641e-02,8.59205e-02,-1.68476e-02,-9.12342e-02,-3.24335e-03,-7.25501e-02,5.92513e-02,9.03394e-02,-1.00186e-02,-5.11228e-02,-5.46223e-02,7.36561e-02,-2.98970e-02,5.05380e-02,-2.53640e-02,-1.73521e-01,-5.40384e-02,-3.05043e-01,-6.23771e-02,1.48535e-01,1.90975e-01,-5.64295e-02,1.47507e-02,4.49980e-02,3.54028e-02,4.30650e-02,-3.62926e-02,9.05475e-02,-1.24167e-02,-1.92359e-02,-2.77093e-02,4.90388e-03,-1.11532e-01,-8.21509e-04,-6.61957e-02,-2.41633e-01,-5.66965e-03,-4.58367e-02,3.39867e-02,-7.25275e-02,-1.03534e-01,2.71573e-02,-4.26788e-03,-5.32705e-02,-1.87515e-01,-2.40227e-01,-8.27430e-02,-9.45591e-02,-7.18143e-02,8.04031e-02,-6.34697e-02,-3.19704e-02,1.32185e-01,-3.27811e-03,9.16319e-03,-2.33377e-02,-3.56456e-02,-4.70294e-03,6.35133e-02,-1.22820e-01,-2.69200e-02,-1.35505e-02,5.72753e-02,-1.11221e-01,-1.55967e-01,-7.19216e-02,-6.05476e-02,-1.99341e-01,-3.20963e-02,-9.10223e-02,7.97675e-02,-1.04387e-01,-3.31037e-01,-2.09123e-01,-3.51019e-01,-9.44558e-02,1.14941e-01,-6.17523e-02,-2.18859e-02,1.51409e-01,3.21741e-02,2.00674e-01,1.58647e-01,-8.06193e-02,1.70877e-02,-8.69647e-02,-1.75800e-01,1.86528e-02,1.96704e-01,1.27037e-01,-2.36756e-02,-4.46844e-02,4.76841e-02,-2.68686e-02,3.37464e-02,2.61505e-02,5.23711e-02,-5.50545e-02,7.92002e-02,4.12510e-03,-1.62567e-01,-2.78247e-01,-1.68205e-01,-1.47840e-01,-9.69840e-02,-2.49238e-01,-2.04548e-02,-1.24134e-01,-3.27553e-02,1.07552e-01,1.55845e-02,-4.27215e-02,9.09508e-03,1.34308e-01,6.77108e-02,-1.41317e-02,-1.95151e-02,1.13519e-01,-1.25661e-01,7.36684e-02,-7.00658e-02,9.81744e-02,-8.07308e-02,-4.45332e-02,5.53798e-02,3.26438e-02,1.37285e-01,-1.05370e-01,-2.17378e-01,-2.03606e-01,-2.80303e-01,-3.03190e-01,-5.50753e-02,-1.19775e-01,-1.95577e-01,-7.61356e-02,2.83160e-02,-5.68424e-02,-2.25815e-02,-1.16863e-01,-9.41753e-03,5.11067e-02,-9.73504e-02,1.79716e-01,3.82029e-02,7.25151e-02,-5.01046e-02,-4.11069e-02,3.73230e-02,-1.07460e-01,1.73612e-01,-2.04102e-02,-2.87281e-02,1.08321e-01,5.71944e-02,-2.15101e-01,-1.07309e-01,-2.70950e-01,-1.70380e-01,-1.18362e-01,-2.52773e-02,-1.65170e-01,7.94640e-02,5.41300e-03,4.37368e-02,7.01549e-02,2.74249e-02,-1.75318e-01,3.98803e-02,7.73558e-03,2.38029e-02,1.69412e-01,8.99782e-02,3.19797e-03,8.76596e-04,1.00690e-01,5.79548e-02,7.66234e-02,1.77525e-01,1.53430e-01,8.57032e-02,1.72769e-01,-4.71605e-03,-1.35229e-01,-1.26812e-01,-3.76630e-01,-3.08734e-01,4.59412e-02,1.38072e-02,-5.91050e-02,-1.37741e-01,-7.68533e-02,-1.17018e-01,8.78045e-02,6.23104e-02,-1.13168e-01,-1.38502e-01,1.15820e-01,-3.25782e-02,7.32732e-02,-1.48850e-02,-3.72816e-02,1.10908e-01,2.34760e-02,-9.17460e-02,4.99835e-02,-5.63452e-04,6.93895e-02,1.46201e-01,7.21927e-02,2.16810e-02,-2.38989e-01,-2.95990e-01,-2.75498e-01,-2.38655e-01,-7.67612e-02,-7.25859e-03,7.54711e-02,-1.61552e-02,-7.27558e-03,-1.97572e-02,1.48274e-01,5.03223e-03,-3.84592e-02,4.66095e-02,-1.78585e-03,-1.22003e-02,1.48446e-01,-1.47434e-01,-1.03591e-01,-1.10411e-01,3.80111e-02,2.71422e-02,7.81826e-02,7.65157e-02,1.42675e-01,9.60200e-02,1.58700e-01,-1.48050e-02,-1.62720e-01,-3.55963e-01,-1.98849e-01,-5.88482e-02,-5.54481e-02,9.59298e-03,7.13234e-02,-7.62526e-02,-4.09580e-02,5.58719e-03,-5.79445e-02,3.43896e-02,6.32961e-02,-1.08769e-01,-6.36951e-02,-6.30094e-02,3.99869e-02,-8.16520e-02,-2.12088e-01,1.18667e-01,1.19410e-01,-8.01829e-02,-4.52934e-02,-1.42344e-01,1.64299e-01,1.95122e-01,7.03500e-02,-3.05260e-02,-1.42485e-01,-2.05837e-01,9.29864e-02,-8.09089e-02,6.52260e-02,-2.40083e-02,3.20421e-02,-5.10364e-02,1.36853e-01,3.80377e-02,-9.10281e-03,-1.65408e-02,4.39880e-02,9.46079e-02,1.48217e-01,1.29092e-02,-1.02541e-01,2.93149e-02,-4.59057e-03,-3.50775e-02,-1.68629e-01,-4.05148e-02,-1.20853e-01,-4.63152e-02,6.32356e-02,4.58437e-02,1.69175e-01,3.19219e-02,-4.09653e-03,1.17035e-02,9.05772e-02,4.90689e-02,-8.80522e-03,5.99074e-02,8.05481e-02,-7.77107e-02,-1.41582e-02,-1.52740e-01,7.89848e-02,-1.33564e-01,-3.42028e-02,3.33586e-02,5.47982e-03,-1.15915e-01,8.54786e-02,1.63979e-01,-5.89885e-02,-1.68573e-01,-1.46577e-01,-7.54030e-03,-1.37624e-01,5.59670e-02,9.15125e-03,-1.53768e-02,-3.53389e-02,1.15064e-01,8.15813e-02,-5.68517e-02,1.44606e-01,4.26492e-02,2.01423e-02,6.06854e-02,1.68288e-02,-1.61088e-01,-1.52837e-01,-5.83229e-02,5.38230e-02,1.99073e-02,3.66565e-02,1.70307e-01,-1.42098e-01,-1.95677e-01,-7.99870e-02,-1.35102e-01,1.55981e-01,2.45431e-02,2.01084e-02,1.04099e-02,8.87198e-02,-1.41479e-03,8.70743e-02,-6.21919e-02,2.27957e-01,2.02407e-01,1.46634e-01,1.91722e-01,1.71138e-01,-3.35435e-02,1.94849e-02,-7.20086e-02,-1.02469e-02,2.73207e-02,-2.30599e-03,1.52640e-01,-1.58209e-01,2.29990e-02,-7.66846e-02,-4.18163e-02,7.97445e-02,1.16746e-01,1.05006e-01,3.65451e-02,-6.73033e-03,-2.75434e-02,5.78207e-02,6.93688e-02,1.49778e-02,6.62950e-02,-3.66563e-02,-2.96130e-03,8.04542e-02,9.50285e-02,2.50692e-01,1.09290e-01,1.94167e-01,-5.97799e-02,3.50189e-02,-1.54108e-01,-1.83940e-01,6.23674e-02,9.84659e-03,1.52985e-01,3.93658e-02,1.24456e-01,-3.34392e-02,1.36520e-01,7.02892e-02,-7.77785e-02,1.02699e-01,-1.32500e-01,-5.49972e-03,-4.68135e-02,8.69245e-02,4.98420e-02,3.38874e-02,-3.37243e-02,-2.19173e-02,-3.29542e-02,1.37469e-01,2.91776e-02,9.30770e-02,-3.14177e-02,-2.89530e-02,3.87874e-02,-1.06694e-01,-2.00329e-01,-2.53395e-02,-1.92330e-02,4.69429e-02,8.01346e-02,-1.70020e-01,-2.50930e-02,-1.72912e-01,-1.51340e-01,1.42493e-01,3.08362e-02,7.83337e-02,-3.35616e-03,-8.19060e-02,3.77722e-02,-4.08232e-02,4.52579e-02,1.31735e-02,8.70326e-03,7.90064e-02,-1.82072e-01,-1.75144e-01,-1.11114e-01,-9.74060e-02,-2.34419e-02,-1.53156e-01,-1.01277e-01,-6.32890e-03,-1.32734e-01,-1.60205e-01,8.03855e-02,1.20298e-01,-2.44656e-02,-2.51179e-02,-7.73985e-02,-1.32487e-01,2.72918e-02,1.19974e-01,2.44905e-02,-1.54140e-01,1.90106e-03,1.14212e-01,1.30543e-01,-1.15095e-01,-1.51725e-01,9.51783e-02,-1.59543e-01,1.20052e-01,3.45919e-02,-9.95243e-02,-8.40506e-02,1.39021e-01,5.13938e-02,-3.76865e-02,-6.24646e-02,-1.25897e-01,1.71266e-02,9.85769e-02,3.25127e-02,-6.93032e-03,4.99688e-02,7.00942e-02,-1.11296e-01,1.41075e-01,-1.45185e-02,1.88296e-02,-6.32504e-02,7.21657e-02,-2.80072e-02,-1.15703e-01,-1.02014e-01,-1.15373e-01,1.22378e-01,2.48639e-02,-3.23211e-02,6.64684e-02,2.30031e-02,-3.01266e-02,-2.07791e-02,2.02366e-02,1.29330e-01,-1.38128e-01,6.70402e-02,6.87863e-02,1.17702e-01,-1.28486e-01,-2.65682e-02,9.27697e-02,1.51250e-01,-8.41948e-02,7.73922e-02,-1.84935e-02,-1.90814e-02,6.78758e-02,
