// Neural Network File Format by Kyle Julian, Stanford 2016
9,784,10,784,
784,100,100,100,100,100,100,100,100,10,
0,
-3.4028235e+38,-3.4028235e+38,-3.4028235e+38,-3.4028235e+38,-3.4028235e+38,-3.4028235e+38,-3.4028235e+38,-3.4028235e+38,-3.4028235e+38,-3.4028235e+38,-3.4028235e+38,-3.4028235e+38,-3.4028235e+38,-3.4028235e+38,-3.4028235e+38,-3.4028235e+38,-3.4028235e+38,-3.4028235e+38,-3.4028235e+38,-3.4028235e+38,-3.4028235e+38,-3.4028235e+38,-3.4028235e+38,-3.4028235e+38,-3.4028235e+38,-3.4028235e+38,-3.4028235e+38,-3.4028235e+38,-3.4028235e+38,-3.4028235e+38,-3.4028235e+38,-3.4028235e+38,-3.4028235e+38,-3.4028235e+38,-3.4028235e+38,-3.4028235e+38,-3.4028235e+38,-3.4028235e+38,-3.4028235e+38,-3.4028235e+38,-3.4028235e+38,-3.4028235e+38,-3.4028235e+38,-3.4028235e+38,-3.4028235e+38,-3.4028235e+38,-3.4028235e+38,-3.4028235e+38,-3.4028235e+38,-3.4028235e+38,-3.4028235e+38,-3.4028235e+38,-3.4028235e+38,-3.4028235e+38,-3.4028235e+38,-3.4028235e+38,-3.4028235e+38,-3.4028235e+38,-3.4028235e+38,-3.4028235e+38,-3.4028235e+38,-3.4028235e+38,-3.4028235e+38,-3.4028235e+38,-3.4028235e+38,-3.4028235e+38,-3.4028235e+38,-3.4028235e+38,-3.4028235e+38,-3.4028235e+38,-3.4028235e+38,-3.4028235e+38,-3.4028235e+38,-3.4028235e+38,-3.4028235e+38,-3.4028235e+38,-3.4028235e+38,-3.4028235e+38,-3.4028235e+38,-3.4028235e+38,-3.4028235e+38,-3.4028235e+38,-3.4028235e+38,-3.4028235e+38,-3.4028235e+38,-3.4028235e+38,-3.4028235e+38,-3.4028235e+38,-3.4028235e+38,-3.4028235e+38,-3.4028235e+38,-3.4028235e+38,-3.4028235e+38,-3.4028235e+38,-3.4028235e+38,-3.4028235e+38,-3.4028235e+38,-3.4028235e+38,-3.4028235e+38,-3.4028235e+38,-3.4028235e+38,-3.4028235e+38,-3.4028235e+38,-3.4028235e+38,-3.4028235e+38,-3.4028235e+38,-3.4028235e+38,-3.4028235e+38,-3.4028235e+38,-3.4028235e+38,-3.4028235e+38,-3.4028235e+38,-3.4028235e+38,-3.4028235e+38,-3.4028235e+38,-3.4028235e+38,-3.4028235e+38,-3.4028235e+38,-3.4028235e+38,-3.4028235e+38,-3.4028235e+38,-3.4028235e+38,-3.4028235e+38,-3.4028235e+38,-3.4028235e+38,-3.4028235e+38,-3.4028235e+38,-3.4028235e+38,-3.4028235e+38,-3.4028235e+38,-3.4028235e+38,-3.4028235e+38,-3.4028235e+38,-3.4028235e+38,-3.4028235e+38,-3.4028235e+38,-3.4028235e+38,-3.4028235e+38,-3.4028235e+38,-3.4028235e+38,-3.4028235e+38,-3.4028235e+38,-3.4028235e+38,-3.4028235e+38,-3.4028235e+38,-3.4028235e+38,-3.4028235e+38,-3.4028235e+38,-3.4028235e+38,-3.4028235e+38,-3.4028235e+38,-3.4028235e+38,-3.4028235e+38,-3.4028235e+38,-3.4028235e+38,-3.4028235e+38,-3.4028235e+38,-3.4028235e+38,-3.4028235e+38,-3.4028235e+38,-3.4028235e+38,-3.4028235e+38,-3.4028235e+38,-3.4028235e+38,-3.4028235e+38,-3.4028235e+38,-3.4028235e+38,-3.4028235e+38,-3.4028235e+38,-3.4028235e+38,-3.4028235e+38,-3.4028235e+38,-3.4028235e+38,-3.4028235e+38,-3.4028235e+38,-3.4028235e+38,-3.4028235e+38,-3.4028235e+38,-3.4028235e+38,-3.4028235e+38,-3.4028235e+38,-3.4028235e+38,-3.4028235e+38,-3.4028235e+38,-3.4028235e+38,-3.4028235e+38,-3.4028235e+38,-3.4028235e+38,-3.4028235e+38,-3.4028235e+38,-3.4028235e+38,-3.4028235e+38,-3.4028235e+38,-3.4028235e+38,-3.4028235e+38,-3.4028235e+38,-3.4028235e+38,-3.4028235e+38,-3.4028235e+38,-3.4028235e+38,-3.4028235e+38,-3.4028235e+38,-3.4028235e+38,-3.4028235e+38,-3.4028235e+38,-3.4028235e+38,-3.4028235e+38,-3.4028235e+38,-3.4028235e+38,-3.4028235e+38,-3.4028235e+38,-3.4028235e+38,-3.4028235e+38,-3.4028235e+38,-3.4028235e+38,-3.4028235e+38,-3.4028235e+38,-3.4028235e+38,-3.4028235e+38,-3.4028235e+38,-3.4028235e+38,-3.4028235e+38,-3.4028235e+38,-3.4028235e+38,-3.4028235e+38,-3.4028235e+38,-3.4028235e+38,-3.4028235e+38,-3.4028235e+38,-3.4028235e+38,-3.4028235e+38,-3.4028235e+38,-3.4028235e+38,-3.4028235e+38,-3.4028235e+38,-3.4028235e+38,-3.4028235e+38,-3.4028235e+38,-3.4028235e+38,-3.4028235e+38,-3.4028235e+38,-3.4028235e+38,-3.4028235e+38,-3.4028235e+38,-3.4028235e+38,-3.4028235e+38,-3.4028235e+38,-3.4028235e+38,-3.4028235e+38,-3.4028235e+38,-3.4028235e+38,-3.4028235e+38,-3.4028235e+38,-3.4028235e+38,-3.4028235e+38,-3.4028235e+38,-3.4028235e+38,-3.4028235e+38,-3.4028235e+38,-3.4028235e+38,-3.4028235e+38,-3.4028235e+38,-3.4028235e+38,-3.4028235e+38,-3.4028235e+38,-3.4028235e+38,-3.4028235e+38,-3.4028235e+38,-3.4028235e+38,-3.4028235e+38,-3.4028235e+38,-3.4028235e+38,-3.4028235e+38,-3.4028235e+38,-3.4028235e+38,-3.4028235e+38,-3.4028235e+38,-3.4028235e+38,-3.4028235e+38,-3.4028235e+38,-3.4028235e+38,-3.4028235e+38,-3.4028235e+38,-3.4028235e+38,-3.4028235e+38,-3.4028235e+38,-3.4028235e+38,-3.4028235e+38,-3.4028235e+38,-3.4028235e+38,-3.4028235e+38,-3.4028235e+38,-3.4028235e+38,-3.4028235e+38,-3.4028235e+38,-3.4028235e+38,-3.4028235e+38,-3.4028235e+38,-3.4028235e+38,-3.4028235e+38,-3.4028235e+38,-3.4028235e+38,-3.4028235e+38,-3.4028235e+38,-3.4028235e+38,-3.4028235e+38,-3.4028235e+38,-3.4028235e+38,-3.4028235e+38,-3.4028235e+38,-3.4028235e+38,-3.4028235e+38,-3.4028235e+38,-3.4028235e+38,-3.4028235e+38,-3.4028235e+38,-3.4028235e+38,-3.4028235e+38,-3.4028235e+38,-3.4028235e+38,-3.4028235e+38,-3.4028235e+38,-3.4028235e+38,-3.4028235e+38,-3.4028235e+38,-3.4028235e+38,-3.4028235e+38,-3.4028235e+38,-3.4028235e+38,-3.4028235e+38,-3.4028235e+38,-3.4028235e+38,-3.4028235e+38,-3.4028235e+38,-3.4028235e+38,-3.4028235e+38,-3.4028235e+38,-3.4028235e+38,-3.4028235e+38,-3.4028235e+38,-3.4028235e+38,-3.4028235e+38,-3.4028235e+38,-3.4028235e+38,-3.4028235e+38,-3.4028235e+38,-3.4028235e+38,-3.4028235e+38,-3.4028235e+38,-3.4028235e+38,-3.4028235e+38,-3.4028235e+38,-3.4028235e+38,-3.4028235e+38,-3.4028235e+38,-3.4028235e+38,-3.4028235e+38,-3.4028235e+38,-3.4028235e+38,-3.4028235e+38,-3.4028235e+38,-3.4028235e+38,-3.4028235e+38,-3.4028235e+38,-3.4028235e+38,-3.4028235e+38,-3.4028235e+38,-3.4028235e+38,-3.4028235e+38,-3.4028235e+38,-3.4028235e+38,-3.4028235e+38,-3.4028235e+38,-3.4028235e+38,-3.4028235e+38,-3.4028235e+38,-3.4028235e+38,-3.4028235e+38,-3.4028235e+38,-3.4028235e+38,-3.4028235e+38,-3.4028235e+38,-3.4028235e+38,-3.4028235e+38,-3.4028235e+38,-3.4028235e+38,-3.4028235e+38,-3.4028235e+38,-3.4028235e+38,-3.4028235e+38,-3.4028235e+38,-3.4028235e+38,-3.4028235e+38,-3.4028235e+38,-3.4028235e+38,-3.4028235e+38,-3.4028235e+38,-3.4028235e+38,-3.4028235e+38,-3.4028235e+38,-3.4028235e+38,-3.4028235e+38,-3.4028235e+38,-3.4028235e+38,-3.4028235e+38,-3.4028235e+38,-3.4028235e+38,-3.4028235e+38,-3.4028235e+38,-3.4028235e+38,-3.4028235e+38,-3.4028235e+38,-3.4028235e+38,-3.4028235e+38,-3.4028235e+38,-3.4028235e+38,-3.4028235e+38,-3.4028235e+38,-3.4028235e+38,-3.4028235e+38,-3.4028235e+38,-3.4028235e+38,-3.4028235e+38,-3.4028235e+38,-3.4028235e+38,-3.4028235e+38,-3.4028235e+38,-3.4028235e+38,-3.4028235e+38,-3.4028235e+38,-3.4028235e+38,-3.4028235e+38,-3.4028235e+38,-3.4028235e+38,-3.4028235e+38,-3.4028235e+38,-3.4028235e+38,-3.4028235e+38,-3.4028235e+38,-3.4028235e+38,-3.4028235e+38,-3.4028235e+38,-3.4028235e+38,-3.4028235e+38,-3.4028235e+38,-3.4028235e+38,-3.4028235e+38,-3.4028235e+38,-3.4028235e+38,-3.4028235e+38,-3.4028235e+38,-3.4028235e+38,-3.4028235e+38,-3.4028235e+38,-3.4028235e+38,-3.4028235e+38,-3.4028235e+38,-3.4028235e+38,-3.4028235e+38,-3.4028235e+38,-3.4028235e+38,-3.4028235e+38,-3.4028235e+38,-3.4028235e+38,-3.4028235e+38,-3.4028235e+38,-3.4028235e+38,-3.4028235e+38,-3.4028235e+38,-3.4028235e+38,-3.4028235e+38,-3.4028235e+38,-3.4028235e+38,-3.4028235e+38,-3.4028235e+38,-3.4028235e+38,-3.4028235e+38,-3.4028235e+38,-3.4028235e+38,-3.4028235e+38,-3.4028235e+38,-3.4028235e+38,-3.4028235e+38,-3.4028235e+38,-3.4028235e+38,-3.4028235e+38,-3.4028235e+38,-3.4028235e+38,-3.4028235e+38,-3.4028235e+38,-3.4028235e+38,-3.4028235e+38,-3.4028235e+38,-3.4028235e+38,-3.4028235e+38,-3.4028235e+38,-3.4028235e+38,-3.4028235e+38,-3.4028235e+38,-3.4028235e+38,-3.4028235e+38,-3.4028235e+38,-3.4028235e+38,-3.4028235e+38,-3.4028235e+38,-3.4028235e+38,-3.4028235e+38,-3.4028235e+38,-3.4028235e+38,-3.4028235e+38,-3.4028235e+38,-3.4028235e+38,-3.4028235e+38,-3.4028235e+38,-3.4028235e+38,-3.4028235e+38,-3.4028235e+38,-3.4028235e+38,-3.4028235e+38,-3.4028235e+38,-3.4028235e+38,-3.4028235e+38,-3.4028235e+38,-3.4028235e+38,-3.4028235e+38,-3.4028235e+38,-3.4028235e+38,-3.4028235e+38,-3.4028235e+38,-3.4028235e+38,-3.4028235e+38,-3.4028235e+38,-3.4028235e+38,-3.4028235e+38,-3.4028235e+38,-3.4028235e+38,-3.4028235e+38,-3.4028235e+38,-3.4028235e+38,-3.4028235e+38,-3.4028235e+38,-3.4028235e+38,-3.4028235e+38,-3.4028235e+38,-3.4028235e+38,-3.4028235e+38,-3.4028235e+38,-3.4028235e+38,-3.4028235e+38,-3.4028235e+38,-3.4028235e+38,-3.4028235e+38,-3.4028235e+38,-3.4028235e+38,-3.4028235e+38,-3.4028235e+38,-3.4028235e+38,-3.4028235e+38,-3.4028235e+38,-3.4028235e+38,-3.4028235e+38,-3.4028235e+38,-3.4028235e+38,-3.4028235e+38,-3.4028235e+38,-3.4028235e+38,-3.4028235e+38,-3.4028235e+38,-3.4028235e+38,-3.4028235e+38,-3.4028235e+38,-3.4028235e+38,-3.4028235e+38,-3.4028235e+38,-3.4028235e+38,-3.4028235e+38,-3.4028235e+38,-3.4028235e+38,-3.4028235e+38,-3.4028235e+38,-3.4028235e+38,-3.4028235e+38,-3.4028235e+38,-3.4028235e+38,-3.4028235e+38,-3.4028235e+38,-3.4028235e+38,-3.4028235e+38,-3.4028235e+38,-3.4028235e+38,-3.4028235e+38,-3.4028235e+38,-3.4028235e+38,-3.4028235e+38,-3.4028235e+38,-3.4028235e+38,-3.4028235e+38,-3.4028235e+38,-3.4028235e+38,-3.4028235e+38,-3.4028235e+38,-3.4028235e+38,-3.4028235e+38,-3.4028235e+38,-3.4028235e+38,-3.4028235e+38,-3.4028235e+38,-3.4028235e+38,-3.4028235e+38,-3.4028235e+38,-3.4028235e+38,-3.4028235e+38,-3.4028235e+38,-3.4028235e+38,-3.4028235e+38,-3.4028235e+38,-3.4028235e+38,-3.4028235e+38,-3.4028235e+38,-3.4028235e+38,-3.4028235e+38,-3.4028235e+38,-3.4028235e+38,-3.4028235e+38,-3.4028235e+38,-3.4028235e+38,-3.4028235e+38,-3.4028235e+38,-3.4028235e+38,-3.4028235e+38,-3.4028235e+38,-3.4028235e+38,-3.4028235e+38,-3.4028235e+38,-3.4028235e+38,-3.4028235e+38,-3.4028235e+38,-3.4028235e+38,-3.4028235e+38,-3.4028235e+38,-3.4028235e+38,-3.4028235e+38,-3.4028235e+38,-3.4028235e+38,-3.4028235e+38,-3.4028235e+38,-3.4028235e+38,-3.4028235e+38,-3.4028235e+38,-3.4028235e+38,-3.4028235e+38,-3.4028235e+38,-3.4028235e+38,-3.4028235e+38,-3.4028235e+38,-3.4028235e+38,-3.4028235e+38,-3.4028235e+38,-3.4028235e+38,-3.4028235e+38,-3.4028235e+38,-3.4028235e+38,-3.4028235e+38,-3.4028235e+38,-3.4028235e+38,-3.4028235e+38,-3.4028235e+38,-3.4028235e+38,-3.4028235e+38,-3.4028235e+38,-3.4028235e+38,-3.4028235e+38,-3.4028235e+38,-3.4028235e+38,-3.4028235e+38,-3.4028235e+38,-3.4028235e+38,-3.4028235e+38,-3.4028235e+38,-3.4028235e+38,-3.4028235e+38,-3.4028235e+38,-3.4028235e+38,-3.4028235e+38,-3.4028235e+38,-3.4028235e+38,-3.4028235e+38,-3.4028235e+38,-3.4028235e+38,-3.4028235e+38,-3.4028235e+38,-3.4028235e+38,-3.4028235e+38,-3.4028235e+38,-3.4028235e+38,-3.4028235e+38,-3.4028235e+38,-3.4028235e+38,-3.4028235e+38,-3.4028235e+38,-3.4028235e+38,-3.4028235e+38,-3.4028235e+38,-3.4028235e+38,-3.4028235e+38,-3.4028235e+38,-3.4028235e+38,-3.4028235e+38,-3.4028235e+38,-3.4028235e+38,-3.4028235e+38,-3.4028235e+38,-3.4028235e+38,-3.4028235e+38,-3.4028235e+38,-3.4028235e+38,-3.4028235e+38,-3.4028235e+38,-3.4028235e+38,-3.4028235e+38,-3.4028235e+38,-3.4028235e+38,-3.4028235e+38,-3.4028235e+38,-3.4028235e+38,-3.4028235e+38,-3.4028235e+38,-3.4028235e+38,-3.4028235e+38,-3.4028235e+38,-3.4028235e+38,-3.4028235e+38,-3.4028235e+38,-3.4028235e+38,-3.4028235e+38,-3.4028235e+38,-3.4028235e+38,-3.4028235e+38,-3.4028235e+38,-3.4028235e+38,-3.4028235e+38,-3.4028235e+38,-3.4028235e+38,-3.4028235e+38,-3.4028235e+38,-3.4028235e+38,-3.4028235e+38,-3.4028235e+38,-3.4028235e+38,-3.4028235e+38,-3.4028235e+38,-3.4028235e+38,-3.4028235e+38,-3.4028235e+38,-3.4028235e+38,-3.4028235e+38,-3.4028235e+38,-3.4028235e+38,-3.4028235e+38,-3.4028235e+38,-3.4028235e+38,-3.4028235e+38,-3.4028235e+38,-3.4028235e+38,-3.4028235e+38,-3.4028235e+38,-3.4028235e+38,-3.4028235e+38,-3.4028235e+38,-3.4028235e+38,-3.4028235e+38,-3.4028235e+38,-3.4028235e+38,-3.4028235e+38,-3.4028235e+38,-3.4028235e+38,-3.4028235e+38,-3.4028235e+38,-3.4028235e+38,-3.4028235e+38,-3.4028235e+38,-3.4028235e+38,-3.4028235e+38,-3.4028235e+38,
3.4028235e+38,3.4028235e+38,3.4028235e+38,3.4028235e+38,3.4028235e+38,3.4028235e+38,3.4028235e+38,3.4028235e+38,3.4028235e+38,3.4028235e+38,3.4028235e+38,3.4028235e+38,3.4028235e+38,3.4028235e+38,3.4028235e+38,3.4028235e+38,3.4028235e+38,3.4028235e+38,3.4028235e+38,3.4028235e+38,3.4028235e+38,3.4028235e+38,3.4028235e+38,3.4028235e+38,3.4028235e+38,3.4028235e+38,3.4028235e+38,3.4028235e+38,3.4028235e+38,3.4028235e+38,3.4028235e+38,3.4028235e+38,3.4028235e+38,3.4028235e+38,3.4028235e+38,3.4028235e+38,3.4028235e+38,3.4028235e+38,3.4028235e+38,3.4028235e+38,3.4028235e+38,3.4028235e+38,3.4028235e+38,3.4028235e+38,3.4028235e+38,3.4028235e+38,3.4028235e+38,3.4028235e+38,3.4028235e+38,3.4028235e+38,3.4028235e+38,3.4028235e+38,3.4028235e+38,3.4028235e+38,3.4028235e+38,3.4028235e+38,3.4028235e+38,3.4028235e+38,3.4028235e+38,3.4028235e+38,3.4028235e+38,3.4028235e+38,3.4028235e+38,3.4028235e+38,3.4028235e+38,3.4028235e+38,3.4028235e+38,3.4028235e+38,3.4028235e+38,3.4028235e+38,3.4028235e+38,3.4028235e+38,3.4028235e+38,3.4028235e+38,3.4028235e+38,3.4028235e+38,3.4028235e+38,3.4028235e+38,3.4028235e+38,3.4028235e+38,3.4028235e+38,3.4028235e+38,3.4028235e+38,3.4028235e+38,3.4028235e+38,3.4028235e+38,3.4028235e+38,3.4028235e+38,3.4028235e+38,3.4028235e+38,3.4028235e+38,3.4028235e+38,3.4028235e+38,3.4028235e+38,3.4028235e+38,3.4028235e+38,3.4028235e+38,3.4028235e+38,3.4028235e+38,3.4028235e+38,3.4028235e+38,3.4028235e+38,3.4028235e+38,3.4028235e+38,3.4028235e+38,3.4028235e+38,3.4028235e+38,3.4028235e+38,3.4028235e+38,3.4028235e+38,3.4028235e+38,3.4028235e+38,3.4028235e+38,3.4028235e+38,3.4028235e+38,3.4028235e+38,3.4028235e+38,3.4028235e+38,3.4028235e+38,3.4028235e+38,3.4028235e+38,3.4028235e+38,3.4028235e+38,3.4028235e+38,3.4028235e+38,3.4028235e+38,3.4028235e+38,3.4028235e+38,3.4028235e+38,3.4028235e+38,3.4028235e+38,3.4028235e+38,3.4028235e+38,3.4028235e+38,3.4028235e+38,3.4028235e+38,3.4028235e+38,3.4028235e+38,3.4028235e+38,3.4028235e+38,3.4028235e+38,3.4028235e+38,3.4028235e+38,3.4028235e+38,3.4028235e+38,3.4028235e+38,3.4028235e+38,3.4028235e+38,3.4028235e+38,3.4028235e+38,3.4028235e+38,3.4028235e+38,3.4028235e+38,3.4028235e+38,3.4028235e+38,3.4028235e+38,3.4028235e+38,3.4028235e+38,3.4028235e+38,3.4028235e+38,3.4028235e+38,3.4028235e+38,3.4028235e+38,3.4028235e+38,3.4028235e+38,3.4028235e+38,3.4028235e+38,3.4028235e+38,3.4028235e+38,3.4028235e+38,3.4028235e+38,3.4028235e+38,3.4028235e+38,3.4028235e+38,3.4028235e+38,3.4028235e+38,3.4028235e+38,3.4028235e+38,3.4028235e+38,3.4028235e+38,3.4028235e+38,3.4028235e+38,3.4028235e+38,3.4028235e+38,3.4028235e+38,3.4028235e+38,3.4028235e+38,3.4028235e+38,3.4028235e+38,3.4028235e+38,3.4028235e+38,3.4028235e+38,3.4028235e+38,3.4028235e+38,3.4028235e+38,3.4028235e+38,3.4028235e+38,3.4028235e+38,3.4028235e+38,3.4028235e+38,3.4028235e+38,3.4028235e+38,3.4028235e+38,3.4028235e+38,3.4028235e+38,3.4028235e+38,3.4028235e+38,3.4028235e+38,3.4028235e+38,3.4028235e+38,3.4028235e+38,3.4028235e+38,3.4028235e+38,3.4028235e+38,3.4028235e+38,3.4028235e+38,3.4028235e+38,3.4028235e+38,3.4028235e+38,3.4028235e+38,3.4028235e+38,3.4028235e+38,3.4028235e+38,3.4028235e+38,3.4028235e+38,3.4028235e+38,3.4028235e+38,3.4028235e+38,3.4028235e+38,3.4028235e+38,3.4028235e+38,3.4028235e+38,3.4028235e+38,3.4028235e+38,3.4028235e+38,3.4028235e+38,3.4028235e+38,3.4028235e+38,3.4028235e+38,3.4028235e+38,3.4028235e+38,3.4028235e+38,3.4028235e+38,3.4028235e+38,3.4028235e+38,3.4028235e+38,3.4028235e+38,3.4028235e+38,3.4028235e+38,3.4028235e+38,3.4028235e+38,3.4028235e+38,3.4028235e+38,3.4028235e+38,3.4028235e+38,3.4028235e+38,3.4028235e+38,3.4028235e+38,3.4028235e+38,3.4028235e+38,3.4028235e+38,3.4028235e+38,3.4028235e+38,3.4028235e+38,3.4028235e+38,3.4028235e+38,3.4028235e+38,3.4028235e+38,3.4028235e+38,3.4028235e+38,3.4028235e+38,3.4028235e+38,3.4028235e+38,3.4028235e+38,3.4028235e+38,3.4028235e+38,3.4028235e+38,3.4028235e+38,3.4028235e+38,3.4028235e+38,3.4028235e+38,3.4028235e+38,3.4028235e+38,3.4028235e+38,3.4028235e+38,3.4028235e+38,3.4028235e+38,3.4028235e+38,3.4028235e+38,3.4028235e+38,3.4028235e+38,3.4028235e+38,3.4028235e+38,3.4028235e+38,3.4028235e+38,3.4028235e+38,3.4028235e+38,3.4028235e+38,3.4028235e+38,3.4028235e+38,3.4028235e+38,3.4028235e+38,3.4028235e+38,3.4028235e+38,3.4028235e+38,3.4028235e+38,3.4028235e+38,3.4028235e+38,3.4028235e+38,3.4028235e+38,3.4028235e+38,3.4028235e+38,3.4028235e+38,3.4028235e+38,3.4028235e+38,3.4028235e+38,3.4028235e+38,3.4028235e+38,3.4028235e+38,3.4028235e+38,3.4028235e+38,3.4028235e+38,3.4028235e+38,3.4028235e+38,3.4028235e+38,3.4028235e+38,3.4028235e+38,3.4028235e+38,3.4028235e+38,3.4028235e+38,3.4028235e+38,3.4028235e+38,3.4028235e+38,3.4028235e+38,3.4028235e+38,3.4028235e+38,3.4028235e+38,3.4028235e+38,3.4028235e+38,3.4028235e+38,3.4028235e+38,3.4028235e+38,3.4028235e+38,3.4028235e+38,3.4028235e+38,3.4028235e+38,3.4028235e+38,3.4028235e+38,3.4028235e+38,3.4028235e+38,3.4028235e+38,3.4028235e+38,3.4028235e+38,3.4028235e+38,3.4028235e+38,3.4028235e+38,3.4028235e+38,3.4028235e+38,3.4028235e+38,3.4028235e+38,3.4028235e+38,3.4028235e+38,3.4028235e+38,3.4028235e+38,3.4028235e+38,3.4028235e+38,3.4028235e+38,3.4028235e+38,3.4028235e+38,3.4028235e+38,3.4028235e+38,3.4028235e+38,3.4028235e+38,3.4028235e+38,3.4028235e+38,3.4028235e+38,3.4028235e+38,3.4028235e+38,3.4028235e+38,3.4028235e+38,3.4028235e+38,3.4028235e+38,3.4028235e+38,3.4028235e+38,3.4028235e+38,3.4028235e+38,3.4028235e+38,3.4028235e+38,3.4028235e+38,3.4028235e+38,3.4028235e+38,3.4028235e+38,3.4028235e+38,3.4028235e+38,3.4028235e+38,3.4028235e+38,3.4028235e+38,3.4028235e+38,3.4028235e+38,3.4028235e+38,3.4028235e+38,3.4028235e+38,3.4028235e+38,3.4028235e+38,3.4028235e+38,3.4028235e+38,3.4028235e+38,3.4028235e+38,3.4028235e+38,3.4028235e+38,3.4028235e+38,3.4028235e+38,3.4028235e+38,3.4028235e+38,3.4028235e+38,3.4028235e+38,3.4028235e+38,3.4028235e+38,3.4028235e+38,3.4028235e+38,3.4028235e+38,3.4028235e+38,3.4028235e+38,3.4028235e+38,3.4028235e+38,3.4028235e+38,3.4028235e+38,3.4028235e+38,3.4028235e+38,3.4028235e+38,3.4028235e+38,3.4028235e+38,3.4028235e+38,3.4028235e+38,3.4028235e+38,3.4028235e+38,3.4028235e+38,3.4028235e+38,3.4028235e+38,3.4028235e+38,3.4028235e+38,3.4028235e+38,3.4028235e+38,3.4028235e+38,3.4028235e+38,3.4028235e+38,3.4028235e+38,3.4028235e+38,3.4028235e+38,3.4028235e+38,3.4028235e+38,3.4028235e+38,3.4028235e+38,3.4028235e+38,3.4028235e+38,3.4028235e+38,3.4028235e+38,3.4028235e+38,3.4028235e+38,3.4028235e+38,3.4028235e+38,3.4028235e+38,3.4028235e+38,3.4028235e+38,3.4028235e+38,3.4028235e+38,3.4028235e+38,3.4028235e+38,3.4028235e+38,3.4028235e+38,3.4028235e+38,3.4028235e+38,3.4028235e+38,3.4028235e+38,3.4028235e+38,3.4028235e+38,3.4028235e+38,3.4028235e+38,3.4028235e+38,3.4028235e+38,3.4028235e+38,3.4028235e+38,3.4028235e+38,3.4028235e+38,3.4028235e+38,3.4028235e+38,3.4028235e+38,3.4028235e+38,3.4028235e+38,3.4028235e+38,3.4028235e+38,3.4028235e+38,3.4028235e+38,3.4028235e+38,3.4028235e+38,3.4028235e+38,3.4028235e+38,3.4028235e+38,3.4028235e+38,3.4028235e+38,3.4028235e+38,3.4028235e+38,3.4028235e+38,3.4028235e+38,3.4028235e+38,3.4028235e+38,3.4028235e+38,3.4028235e+38,3.4028235e+38,3.4028235e+38,3.4028235e+38,3.4028235e+38,3.4028235e+38,3.4028235e+38,3.4028235e+38,3.4028235e+38,3.4028235e+38,3.4028235e+38,3.4028235e+38,3.4028235e+38,3.4028235e+38,3.4028235e+38,3.4028235e+38,3.4028235e+38,3.4028235e+38,3.4028235e+38,3.4028235e+38,3.4028235e+38,3.4028235e+38,3.4028235e+38,3.4028235e+38,3.4028235e+38,3.4028235e+38,3.4028235e+38,3.4028235e+38,3.4028235e+38,3.4028235e+38,3.4028235e+38,3.4028235e+38,3.4028235e+38,3.4028235e+38,3.4028235e+38,3.4028235e+38,3.4028235e+38,3.4028235e+38,3.4028235e+38,3.4028235e+38,3.4028235e+38,3.4028235e+38,3.4028235e+38,3.4028235e+38,3.4028235e+38,3.4028235e+38,3.4028235e+38,3.4028235e+38,3.4028235e+38,3.4028235e+38,3.4028235e+38,3.4028235e+38,3.4028235e+38,3.4028235e+38,3.4028235e+38,3.4028235e+38,3.4028235e+38,3.4028235e+38,3.4028235e+38,3.4028235e+38,3.4028235e+38,3.4028235e+38,3.4028235e+38,3.4028235e+38,3.4028235e+38,3.4028235e+38,3.4028235e+38,3.4028235e+38,3.4028235e+38,3.4028235e+38,3.4028235e+38,3.4028235e+38,3.4028235e+38,3.4028235e+38,3.4028235e+38,3.4028235e+38,3.4028235e+38,3.4028235e+38,3.4028235e+38,3.4028235e+38,3.4028235e+38,3.4028235e+38,3.4028235e+38,3.4028235e+38,3.4028235e+38,3.4028235e+38,3.4028235e+38,3.4028235e+38,3.4028235e+38,3.4028235e+38,3.4028235e+38,3.4028235e+38,3.4028235e+38,3.4028235e+38,3.4028235e+38,3.4028235e+38,3.4028235e+38,3.4028235e+38,3.4028235e+38,3.4028235e+38,3.4028235e+38,3.4028235e+38,3.4028235e+38,3.4028235e+38,3.4028235e+38,3.4028235e+38,3.4028235e+38,3.4028235e+38,3.4028235e+38,3.4028235e+38,3.4028235e+38,3.4028235e+38,3.4028235e+38,3.4028235e+38,3.4028235e+38,3.4028235e+38,3.4028235e+38,3.4028235e+38,3.4028235e+38,3.4028235e+38,3.4028235e+38,3.4028235e+38,3.4028235e+38,3.4028235e+38,3.4028235e+38,3.4028235e+38,3.4028235e+38,3.4028235e+38,3.4028235e+38,3.4028235e+38,3.4028235e+38,3.4028235e+38,3.4028235e+38,3.4028235e+38,3.4028235e+38,3.4028235e+38,3.4028235e+38,3.4028235e+38,3.4028235e+38,3.4028235e+38,3.4028235e+38,3.4028235e+38,3.4028235e+38,3.4028235e+38,3.4028235e+38,3.4028235e+38,3.4028235e+38,3.4028235e+38,3.4028235e+38,3.4028235e+38,3.4028235e+38,3.4028235e+38,3.4028235e+38,3.4028235e+38,3.4028235e+38,3.4028235e+38,3.4028235e+38,3.4028235e+38,3.4028235e+38,3.4028235e+38,3.4028235e+38,3.4028235e+38,3.4028235e+38,3.4028235e+38,3.4028235e+38,3.4028235e+38,3.4028235e+38,3.4028235e+38,3.4028235e+38,3.4028235e+38,3.4028235e+38,3.4028235e+38,3.4028235e+38,3.4028235e+38,3.4028235e+38,3.4028235e+38,3.4028235e+38,3.4028235e+38,3.4028235e+38,3.4028235e+38,3.4028235e+38,3.4028235e+38,3.4028235e+38,3.4028235e+38,3.4028235e+38,3.4028235e+38,3.4028235e+38,3.4028235e+38,3.4028235e+38,3.4028235e+38,3.4028235e+38,3.4028235e+38,3.4028235e+38,3.4028235e+38,3.4028235e+38,3.4028235e+38,3.4028235e+38,3.4028235e+38,3.4028235e+38,3.4028235e+38,3.4028235e+38,3.4028235e+38,3.4028235e+38,3.4028235e+38,3.4028235e+38,3.4028235e+38,3.4028235e+38,3.4028235e+38,3.4028235e+38,3.4028235e+38,3.4028235e+38,3.4028235e+38,3.4028235e+38,3.4028235e+38,3.4028235e+38,3.4028235e+38,3.4028235e+38,3.4028235e+38,3.4028235e+38,3.4028235e+38,3.4028235e+38,3.4028235e+38,3.4028235e+38,3.4028235e+38,3.4028235e+38,3.4028235e+38,3.4028235e+38,3.4028235e+38,3.4028235e+38,3.4028235e+38,3.4028235e+38,3.4028235e+38,3.4028235e+38,3.4028235e+38,3.4028235e+38,3.4028235e+38,3.4028235e+38,3.4028235e+38,3.4028235e+38,3.4028235e+38,3.4028235e+38,3.4028235e+38,3.4028235e+38,3.4028235e+38,3.4028235e+38,3.4028235e+38,3.4028235e+38,3.4028235e+38,3.4028235e+38,3.4028235e+38,3.4028235e+38,3.4028235e+38,3.4028235e+38,3.4028235e+38,3.4028235e+38,3.4028235e+38,3.4028235e+38,3.4028235e+38,3.4028235e+38,3.4028235e+38,3.4028235e+38,3.4028235e+38,3.4028235e+38,3.4028235e+38,3.4028235e+38,3.4028235e+38,3.4028235e+38,3.4028235e+38,3.4028235e+38,3.4028235e+38,3.4028235e+38,3.4028235e+38,3.4028235e+38,3.4028235e+38,3.4028235e+38,3.4028235e+38,3.4028235e+38,
0.0,0.0,0.0,0.0,0.0,0.0,0.0,0.0,0.0,0.0,0.0,0.0,0.0,0.0,0.0,0.0,0.0,0.0,0.0,0.0,0.0,0.0,0.0,0.0,0.0,0.0,0.0,0.0,0.0,0.0,0.0,0.0,0.0,0.0,0.0,0.0,0.0,0.0,0.0,0.0,0.0,0.0,0.0,0.0,0.0,0.0,0.0,0.0,0.0,0.0,0.0,0.0,0.0,0.0,0.0,0.0,0.0,0.0,0.0,0.0,0.0,0.0,0.0,0.0,0.0,0.0,0.0,0.0,0.0,0.0,0.0,0.0,0.0,0.0,0.0,0.0,0.0,0.0,0.0,0.0,0.0,0.0,0.0,0.0,0.0,0.0,0.0,0.0,0.0,0.0,0.0,0.0,0.0,0.0,0.0,0.0,0.0,0.0,0.0,0.0,0.0,0.0,0.0,0.0,0.0,0.0,0.0,0.0,0.0,0.0,0.0,0.0,0.0,0.0,0.0,0.0,0.0,0.0,0.0,0.0,0.0,0.0,0.0,0.0,0.0,0.0,0.0,0.0,0.0,0.0,0.0,0.0,0.0,0.0,0.0,0.0,0.0,0.0,0.0,0.0,0.0,0.0,0.0,0.0,0.0,0.0,0.0,0.0,0.0,0.0,0.0,0.0,0.0,0.0,0.0,0.0,0.0,0.0,0.0,0.0,0.0,0.0,0.0,0.0,0.0,0.0,0.0,0.0,0.0,0.0,0.0,0.0,0.0,0.0,0.0,0.0,0.0,0.0,0.0,0.0,0.0,0.0,0.0,0.0,0.0,0.0,0.0,0.0,0.0,0.0,0.0,0.0,0.0,0.0,0.0,0.0,0.0,0.0,0.0,0.0,0.0,0.0,0.0,0.0,0.0,0.0,0.0,0.0,0.0,0.0,0.0,0.0,0.0,0.0,0.0,0.0,0.0,0.0,0.0,0.0,0.0,0.0,0.0,0.0,0.0,0.0,0.0,0.0,0.0,0.0,0.0,0.0,0.0,0.0,0.0,0.0,0.0,0.0,0.0,0.0,0.0,0.0,0.0,0.0,0.0,0.0,0.0,0.0,0.0,0.0,0.0,0.0,0.0,0.0,0.0,0.0,0.0,0.0,0.0,0.0,0.0,0.0,0.0,0.0,0.0,0.0,0.0,0.0,0.0,0.0,0.0,0.0,0.0,0.0,0.0,0.0,0.0,0.0,0.0,0.0,0.0,0.0,0.0,0.0,0.0,0.0,0.0,0.0,0.0,0.0,0.0,0.0,0.0,0.0,0.0,0.0,0.0,0.0,0.0,0.0,0.0,0.0,0.0,0.0,0.0,0.0,0.0,0.0,0.0,0.0,0.0,0.0,0.0,0.0,0.0,0.0,0.0,0.0,0.0,0.0,0.0,0.0,0.0,0.0,0.0,0.0,0.0,0.0,0.0,0.0,0.0,0.0,0.0,0.0,0.0,0.0,0.0,0.0,0.0,0.0,0.0,0.0,0.0,0.0,0.0,0.0,0.0,0.0,0.0,0.0,0.0,0.0,0.0,0.0,0.0,0.0,0.0,0.0,0.0,0.0,0.0,0.0,0.0,0.0,0.0,0.0,0.0,0.0,0.0,0.0,0.0,0.0,0.0,0.0,0.0,0.0,0.0,0.0,0.0,0.0,0.0,0.0,0.0,0.0,0.0,0.0,0.0,0.0,0.0,0.0,0.0,0.0,0.0,0.0,0.0,0.0,0.0,0.0,0.0,0.0,0.0,0.0,0.0,0.0,0.0,0.0,0.0,0.0,0.0,0.0,0.0,0.0,0.0,0.0,0.0,0.0,0.0,0.0,0.0,0.0,0.0,0.0,0.0,0.0,0.0,0.0,0.0,0.0,0.0,0.0,0.0,0.0,0.0,0.0,0.0,0.0,0.0,0.0,0.0,0.0,0.0,0.0,0.0,0.0,0.0,0.0,0.0,0.0,0.0,0.0,0.0,0.0,0.0,0.0,0.0,0.0,0.0,0.0,0.0,0.0,0.0,0.0,0.0,0.0,0.0,0.0,0.0,0.0,0.0,0.0,0.0,0.0,0.0,0.0,0.0,0.0,0.0,0.0,0.0,0.0,0.0,0.0,0.0,0.0,0.0,0.0,0.0,0.0,0.0,0.0,0.0,0.0,0.0,0.0,0.0,0.0,0.0,0.0,0.0,0.0,0.0,0.0,0.0,0.0,0.0,0.0,0.0,0.0,0.0,0.0,0.0,0.0,0.0,0.0,0.0,0.0,0.0,0.0,0.0,0.0,0.0,0.0,0.0,0.0,0.0,0.0,0.0,0.0,0.0,0.0,0.0,0.0,0.0,0.0,0.0,0.0,0.0,0.0,0.0,0.0,0.0,0.0,0.0,0.0,0.0,0.0,0.0,0.0,0.0,0.0,0.0,0.0,0.0,0.0,0.0,0.0,0.0,0.0,0.0,0.0,0.0,0.0,0.0,0.0,0.0,0.0,0.0,0.0,0.0,0.0,0.0,0.0,0.0,0.0,0.0,0.0,0.0,0.0,0.0,0.0,0.0,0.0,0.0,0.0,0.0,0.0,0.0,0.0,0.0,0.0,0.0,0.0,0.0,0.0,0.0,0.0,0.0,0.0,0.0,0.0,0.0,0.0,0.0,0.0,0.0,0.0,0.0,0.0,0.0,0.0,0.0,0.0,0.0,0.0,0.0,0.0,0.0,0.0,0.0,0.0,0.0,0.0,0.0,0.0,0.0,0.0,0.0,0.0,0.0,0.0,0.0,0.0,0.0,0.0,0.0,0.0,0.0,0.0,0.0,0.0,0.0,0.0,0.0,0.0,0.0,0.0,0.0,0.0,0.0,0.0,0.0,0.0,0.0,0.0,0.0,0.0,0.0,0.0,0.0,0.0,0.0,0.0,0.0,0.0,0.0,0.0,0.0,0.0,0.0,0.0,0.0,0.0,0.0,0.0,0.0,0.0,0.0,0.0,0.0,0.0,0.0,0.0,0.0,0.0,0.0,0.0,0.0,0.0,0.0,0.0,0.0,0.0,0.0,0.0,0.0,0.0,0.0,0.0,0.0,0.0,0.0,0.0,0.0,0.0,0.0,0.0,0.0,0.0,0.0,0.0,0.0,0.0,0.0,0.0,0.0,0.0,0.0,0.0,0.0,0.0,0.0,0.0,0.0,0.0,0.0,0.0,0.0,0.0,0.0,0.0,0.0,0.0,0.0,0.0,0.0,0.0,0.0,0.0,0.0,0.0,0.0,0.0,0.0,0.0,0.0,0.0,0.0,0.0,0.0,0.0,0.0,0.0,0.0,0.0,0.0,0.0,0.0,0.0,0.0,0.0,0.0,0.0,0.0,0.0,0.0,0.0,0.0,0.0,0.0,0.0,0.0,0.0,0.0,0.0,0.0,0.0,0.0,0.0,0.0,0.0,0.0,0.0,0.0,0.0,0.0,
1.0,1.0,1.0,1.0,1.0,1.0,1.0,1.0,1.0,1.0,1.0,1.0,1.0,1.0,1.0,1.0,1.0,1.0,1.0,1.0,1.0,1.0,1.0,1.0,1.0,1.0,1.0,1.0,1.0,1.0,1.0,1.0,1.0,1.0,1.0,1.0,1.0,1.0,1.0,1.0,1.0,1.0,1.0,1.0,1.0,1.0,1.0,1.0,1.0,1.0,1.0,1.0,1.0,1.0,1.0,1.0,1.0,1.0,1.0,1.0,1.0,1.0,1.0,1.0,1.0,1.0,1.0,1.0,1.0,1.0,1.0,1.0,1.0,1.0,1.0,1.0,1.0,1.0,1.0,1.0,1.0,1.0,1.0,1.0,1.0,1.0,1.0,1.0,1.0,1.0,1.0,1.0,1.0,1.0,1.0,1.0,1.0,1.0,1.0,1.0,1.0,1.0,1.0,1.0,1.0,1.0,1.0,1.0,1.0,1.0,1.0,1.0,1.0,1.0,1.0,1.0,1.0,1.0,1.0,1.0,1.0,1.0,1.0,1.0,1.0,1.0,1.0,1.0,1.0,1.0,1.0,1.0,1.0,1.0,1.0,1.0,1.0,1.0,1.0,1.0,1.0,1.0,1.0,1.0,1.0,1.0,1.0,1.0,1.0,1.0,1.0,1.0,1.0,1.0,1.0,1.0,1.0,1.0,1.0,1.0,1.0,1.0,1.0,1.0,1.0,1.0,1.0,1.0,1.0,1.0,1.0,1.0,1.0,1.0,1.0,1.0,1.0,1.0,1.0,1.0,1.0,1.0,1.0,1.0,1.0,1.0,1.0,1.0,1.0,1.0,1.0,1.0,1.0,1.0,1.0,1.0,1.0,1.0,1.0,1.0,1.0,1.0,1.0,1.0,1.0,1.0,1.0,1.0,1.0,1.0,1.0,1.0,1.0,1.0,1.0,1.0,1.0,1.0,1.0,1.0,1.0,1.0,1.0,1.0,1.0,1.0,1.0,1.0,1.0,1.0,1.0,1.0,1.0,1.0,1.0,1.0,1.0,1.0,1.0,1.0,1.0,1.0,1.0,1.0,1.0,1.0,1.0,1.0,1.0,1.0,1.0,1.0,1.0,1.0,1.0,1.0,1.0,1.0,1.0,1.0,1.0,1.0,1.0,1.0,1.0,1.0,1.0,1.0,1.0,1.0,1.0,1.0,1.0,1.0,1.0,1.0,1.0,1.0,1.0,1.0,1.0,1.0,1.0,1.0,1.0,1.0,1.0,1.0,1.0,1.0,1.0,1.0,1.0,1.0,1.0,1.0,1.0,1.0,1.0,1.0,1.0,1.0,1.0,1.0,1.0,1.0,1.0,1.0,1.0,1.0,1.0,1.0,1.0,1.0,1.0,1.0,1.0,1.0,1.0,1.0,1.0,1.0,1.0,1.0,1.0,1.0,1.0,1.0,1.0,1.0,1.0,1.0,1.0,1.0,1.0,1.0,1.0,1.0,1.0,1.0,1.0,1.0,1.0,1.0,1.0,1.0,1.0,1.0,1.0,1.0,1.0,1.0,1.0,1.0,1.0,1.0,1.0,1.0,1.0,1.0,1.0,1.0,1.0,1.0,1.0,1.0,1.0,1.0,1.0,1.0,1.0,1.0,1.0,1.0,1.0,1.0,1.0,1.0,1.0,1.0,1.0,1.0,1.0,1.0,1.0,1.0,1.0,1.0,1.0,1.0,1.0,1.0,1.0,1.0,1.0,1.0,1.0,1.0,1.0,1.0,1.0,1.0,1.0,1.0,1.0,1.0,1.0,1.0,1.0,1.0,1.0,1.0,1.0,1.0,1.0,1.0,1.0,1.0,1.0,1.0,1.0,1.0,1.0,1.0,1.0,1.0,1.0,1.0,1.0,1.0,1.0,1.0,1.0,1.0,1.0,1.0,1.0,1.0,1.0,1.0,1.0,1.0,1.0,1.0,1.0,1.0,1.0,1.0,1.0,1.0,1.0,1.0,1.0,1.0,1.0,1.0,1.0,1.0,1.0,1.0,1.0,1.0,1.0,1.0,1.0,1.0,1.0,1.0,1.0,1.0,1.0,1.0,1.0,1.0,1.0,1.0,1.0,1.0,1.0,1.0,1.0,1.0,1.0,1.0,1.0,1.0,1.0,1.0,1.0,1.0,1.0,1.0,1.0,1.0,1.0,1.0,1.0,1.0,1.0,1.0,1.0,1.0,1.0,1.0,1.0,1.0,1.0,1.0,1.0,1.0,1.0,1.0,1.0,1.0,1.0,1.0,1.0,1.0,1.0,1.0,1.0,1.0,1.0,1.0,1.0,1.0,1.0,1.0,1.0,1.0,1.0,1.0,1.0,1.0,1.0,1.0,1.0,1.0,1.0,1.0,1.0,1.0,1.0,1.0,1.0,1.0,1.0,1.0,1.0,1.0,1.0,1.0,1.0,1.0,1.0,1.0,1.0,1.0,1.0,1.0,1.0,1.0,1.0,1.0,1.0,1.0,1.0,1.0,1.0,1.0,1.0,1.0,1.0,1.0,1.0,1.0,1.0,1.0,1.0,1.0,1.0,1.0,1.0,1.0,1.0,1.0,1.0,1.0,1.0,1.0,1.0,1.0,1.0,1.0,1.0,1.0,1.0,1.0,1.0,1.0,1.0,1.0,1.0,1.0,1.0,1.0,1.0,1.0,1.0,1.0,1.0,1.0,1.0,1.0,1.0,1.0,1.0,1.0,1.0,1.0,1.0,1.0,1.0,1.0,1.0,1.0,1.0,1.0,1.0,1.0,1.0,1.0,1.0,1.0,1.0,1.0,1.0,1.0,1.0,1.0,1.0,1.0,1.0,1.0,1.0,1.0,1.0,1.0,1.0,1.0,1.0,1.0,1.0,1.0,1.0,1.0,1.0,1.0,1.0,1.0,1.0,1.0,1.0,1.0,1.0,1.0,1.0,1.0,1.0,1.0,1.0,1.0,1.0,1.0,1.0,1.0,1.0,1.0,1.0,1.0,1.0,1.0,1.0,1.0,1.0,1.0,1.0,1.0,1.0,1.0,1.0,1.0,1.0,1.0,1.0,1.0,1.0,1.0,1.0,1.0,1.0,1.0,1.0,1.0,1.0,1.0,1.0,1.0,1.0,1.0,1.0,1.0,1.0,1.0,1.0,1.0,1.0,1.0,1.0,1.0,1.0,1.0,1.0,1.0,1.0,1.0,1.0,1.0,1.0,1.0,1.0,1.0,1.0,1.0,1.0,1.0,1.0,1.0,1.0,1.0,1.0,1.0,1.0,1.0,1.0,1.0,1.0,1.0,1.0,1.0,1.0,1.0,1.0,1.0,1.0,1.0,1.0,1.0,1.0,1.0,1.0,1.0,1.0,1.0,1.0,1.0,1.0,1.0,1.0,1.0,1.0,1.0,1.0,1.0,1.0,1.0,1.0,1.0,1.0,1.0,1.0,1.0,1.0,1.0,1.0,
1.87989e-03,6.21412e-02,-6.08869e-02,3.56821e-02,6.76282e-02,-4.13623e-02,2.40996e-02,-1.42323e-02,-1.91153e-02,-9.71162e-02,-4.41989e-02,2.99379e-02,-5.03488e-02,-5.15515e-02,-6.91253e-02,2.36821e-02,-9.48358e-02,4.43181e-02,6.34536e-02,-7.51365e-02,6.43595e-02,4.65979e-02,-7.02780e-02,-2.88716e-02,1.45744e-02,9.33015e-02,-1.03729e-01,1.55058e-01,3.15824e-02,8.29168e-03,-1.02378e-01,-2.70191e-02,-1.35442e-01,2.14142e-02,9.77798e-02,-1.61187e-01,7.15190e-03,2.44746e-02,3.35817e-02,1.40852e-01,6.55834e-02,-5.49789e-03,2.77279e-02,-3.36835e-02,-1.33255e-01,-1.60294e-02,8.28847e-02,-7.14184e-02,-6.22959e-02,5.83140e-02,1.64216e-02,-1.20282e-01,-1.77551e-01,1.10432e-01,3.24532e-02,-7.14836e-02,7.31256e-02,-5.67791e-02,-1.31608e-02,1.60480e-01,-1.20769e-03,-3.51430e-02,1.64289e-01,2.39102e-02,1.11049e-01,5.37070e-02,3.21045e-02,-4.02941e-02,-4.11833e-02,8.29653e-03,1.15220e-01,-1.82251e-02,5.93513e-02,1.58144e-01,-7.29984e-02,8.81662e-02,-5.56246e-02,4.76901e-02,-2.40255e-02,2.76104e-02,7.03955e-02,-7.92997e-02,1.83150e-02,1.22295e-01,-1.61695e-02,-2.44684e-02,3.84239e-02,1.77626e-02,1.56148e-02,1.20102e-01,-6.86048e-02,4.96275e-02,6.75352e-02,1.05935e-02,7.44187e-02,6.59057e-02,-1.88740e-02,5.15216e-02,1.28923e-01,1.31628e-01,1.05669e-01,-1.23570e-02,1.66079e-01,9.39258e-02,1.70659e-01,1.68780e-01,-9.18450e-02,1.74931e-01,-3.70979e-04,1.77908e-01,5.55477e-02,3.37664e-02,3.30551e-02,-1.90034e-02,-1.24339e-01,1.59852e-01,4.80749e-02,-1.61823e-01,-8.41267e-02,-6.17191e-02,-1.88968e-01,-6.05891e-02,3.58636e-02,7.95576e-02,-2.63454e-02,8.43720e-02,1.34265e-02,2.65955e-02,5.14833e-02,-5.36648e-02,1.14176e-01,-1.87021e-02,2.30936e-01,1.41997e-01,-9.35017e-02,3.31568e-04,3.95599e-02,-1.40496e-01,2.27748e-02,1.31970e-01,-1.35064e-01,-2.11511e-02,5.55357e-02,-2.58114e-02,-3.18868e-02,9.22469e-02,5.02600e-03,-1.21955e-01,-3.50244e-02,-1.03688e-01,1.15666e-02,-1.37469e-01,-1.73385e-01,-1.93583e-01,-3.39568e-02,-2.02285e-02,-1.94956e-01,-2.16699e-01,5.49091e-02,-8.12986e-02,7.98815e-02,1.11714e-01,-8.67370e-02,-9.83855e-02,8.59051e-03,1.30496e-02,8.45901e-02,1.02425e-01,-1.13811e-01,-7.52029e-02,7.79155e-02,6.66058e-02,-3.57624e-02,-5.05923e-02,-1.42821e-01,1.60900e-01,-7.85284e-02,2.28118e-02,-9.25475e-02,-3.95202e-02,-9.78135e-02,-1.80671e-01,-2.75135e-01,-2.24673e-01,-1.06706e-01,3.19779e-02,-2.23952e-01,-8.48490e-02,-1.62297e-01,-1.55935e-02,-2.75627e-01,-2.05203e-01,1.26422e-01,-5.76723e-02,-2.02940e-01,-5.27807e-02,-1.58591e-01,-1.25414e-01,-1.61424e-01,-1.31209e-01,4.43681e-02,-3.32329e-02,-1.15919e-01,-1.54426e-01,-1.02445e-01,-8.96517e-02,-1.32528e-01,7.02871e-02,-1.27520e-01,-1.69460e-01,3.57773e-02,-6.68469e-02,-2.36081e-01,5.10605e-03,-8.76720e-02,-3.47479e-01,-2.56001e-01,-2.40570e-01,-1.85733e-01,-1.41018e-01,-1.76668e-01,-4.24558e-02,-1.11751e-01,4.40049e-02,1.19284e-01,1.75730e-01,-4.41294e-02,3.57149e-02,3.08395e-02,-1.66178e-01,9.89766e-02,-1.06303e-03,3.19130e-02,-4.09475e-02,-4.91692e-02,-1.78507e-02,-3.85713e-02,4.42572e-02,-2.49629e-02,-2.04823e-02,-2.18232e-01,-2.20220e-01,-1.21829e-01,-3.23465e-01,-2.20433e-01,-2.55956e-01,-1.79018e-01,-2.36119e-02,-4.56282e-02,6.22732e-02,2.27911e-02,-2.59758e-02,-1.50618e-01,2.97573e-03,-1.31277e-01,-1.47307e-01,7.37688e-02,-5.01271e-02,-1.75086e-01,2.19555e-02,8.83094e-02,-8.84309e-03,9.09776e-02,-1.30069e-01,-1.35918e-03,-2.06559e-01,-1.20355e-01,-6.69799e-02,-2.59766e-01,-4.64196e-01,-3.36689e-01,-3.67411e-01,-3.28036e-01,-3.22888e-01,-2.46236e-01,-2.75191e-01,-1.19427e-01,-1.06902e-01,-1.75542e-02,-1.04267e-01,-2.67740e-02,8.32134e-02,-5.87127e-02,1.73532e-02,-2.34199e-01,3.15800e-02,-2.96163e-02,-6.25114e-02,2.19379e-01,-2.21880e-02,-1.33836e-01,-2.80555e-02,-8.12953e-02,-7.69583e-02,-2.28845e-02,-1.50361e-01,-3.93245e-02,-3.01896e-01,-3.22125e-01,-1.50907e-01,-1.31434e-01,-1.08780e-01,-1.22321e-01,-6.66431e-02,5.66641e-02,-1.60794e-01,1.03563e-01,-7.64570e-02,7.95064e-02,-1.46029e-01,-1.40670e-01,-8.17185e-02,-6.35427e-02,1.30453e-02,3.76822e-02,1.97677e-01,-3.47451e-02,2.68343e-02,-1.57042e-01,9.56444e-02,-1.72302e-01,-4.48533e-02,-2.75412e-03,-1.98258e-01,-2.80145e-01,1.01622e-01,-1.02454e-01,-5.09066e-02,1.38881e-01,-1.14739e-01,-8.47346e-02,-1.30374e-02,3.52499e-02,-1.44294e-01,4.75416e-02,1.00249e-01,1.44803e-01,-5.22841e-02,-1.63364e-01,1.59848e-01,1.51031e-01,-5.32883e-02,-1.49202e-02,-6.76497e-02,7.51102e-03,-6.55427e-03,5.52530e-02,-1.56464e-01,-5.61822e-02,8.58884e-02,-2.19457e-01,-6.58911e-02,-9.93913e-03,6.21500e-03,1.57007e-01,1.54887e-01,-6.21373e-02,2.02178e-01,5.37965e-03,-8.34559e-02,1.26876e-01,6.09328e-02,1.61444e-01,7.18882e-02,2.85524e-02,-5.44136e-02,-1.69035e-01,-1.39868e-01,-2.09928e-02,-3.66761e-02,1.17383e-01,-9.25664e-02,-2.47306e-01,-3.00196e-01,5.20652e-03,2.56447e-01,-1.87196e-02,1.20975e-01,3.71400e-02,1.10039e-01,2.63337e-02,2.58388e-02,1.08839e-01,3.66111e-02,-1.61324e-02,3.06151e-02,1.45403e-01,1.71636e-01,7.82128e-02,9.80873e-02,4.21471e-02,4.16008e-03,-2.21899e-02,-3.26396e-02,-3.85253e-02,-3.22141e-02,-3.68159e-03,7.86351e-02,1.47880e-02,4.11613e-02,-1.09400e-01,-5.63359e-02,1.93475e-01,6.89919e-02,1.92392e-01,4.07068e-02,1.13414e-01,-4.23107e-02,3.31019e-01,-3.53455e-02,8.33200e-02,-1.01625e-01,-5.95315e-02,-1.68910e-02,9.18867e-03,1.42992e-01,1.55695e-01,7.07323e-02,-1.37492e-01,-1.28689e-01,3.71609e-02,1.09793e-01,-1.13486e-01,1.04073e-02,-1.06711e-01,-1.42449e-01,-1.28115e-01,4.94165e-02,-1.61860e-01,-1.65640e-01,-1.00457e-02,2.18523e-01,1.59026e-02,3.40607e-02,8.05833e-02,8.64466e-02,1.71424e-01,5.22274e-02,-6.76907e-02,4.27953e-02,8.91443e-02,6.29583e-02,6.58306e-02,1.22540e-01,9.37125e-02,9.41448e-02,-1.33691e-02,-1.45384e-01,3.30396e-02,6.65484e-02,8.41458e-02,-7.35202e-03,-3.01001e-02,-1.61670e-01,-1.49129e-01,-1.42925e-02,-5.37871e-02,-4.84802e-02,2.11317e-01,-8.30755e-03,3.27458e-02,1.72414e-01,2.04728e-01,5.01939e-02,4.16157e-02,4.55651e-02,9.29511e-02,1.60913e-01,1.52525e-01,1.21317e-01,8.21764e-02,1.55729e-01,5.96970e-02,-1.27564e-01,-4.65342e-02,1.33857e-01,1.04399e-01,8.93556e-02,1.13677e-01,-4.21832e-02,-7.01471e-02,-6.08492e-02,-1.42832e-01,-2.19661e-01,3.66357e-02,5.43566e-02,1.94684e-01,6.88096e-02,1.53095e-01,-1.58515e-01,-5.36262e-02,1.01773e-01,8.66943e-02,6.11275e-02,-7.84618e-02,7.20936e-02,1.15859e-01,-1.03780e-01,3.04438e-02,8.37056e-02,2.43559e-01,2.91196e-03,8.45155e-02,6.23167e-02,-6.31577e-02,-9.87982e-02,-1.20543e-02,-4.27273e-02,-8.51826e-02,1.29659e-02,-5.37952e-02,-9.70365e-02,5.36379e-02,1.54033e-02,1.13254e-01,2.31754e-01,2.08659e-01,9.58328e-02,-2.16479e-02,-9.09344e-02,5.21607e-02,8.43494e-02,1.92906e-01,1.77173e-01,-1.26853e-01,8.69236e-02,-6.26861e-02,1.61859e-01,-5.23318e-02,-1.90652e-02,-5.53357e-02,-6.02460e-02,4.97870e-02,-1.40201e-02,2.72343e-02,9.16449e-02,-6.05783e-02,-1.49831e-02,-1.08411e-01,3.81579e-02,1.53501e-01,1.38256e-01,1.26876e-01,2.24121e-01,1.81402e-01,-1.23209e-02,7.61749e-02,1.08975e-01,2.41977e-01,1.26375e-01,8.03039e-02,9.84478e-02,1.93909e-01,3.09583e-02,1.01634e-01,2.46747e-01,1.99910e-01,2.57906e-02,-8.08883e-02,2.78958e-03,-6.62210e-02,-8.92672e-02,1.71838e-02,-6.82102e-02,6.33932e-03,-4.19298e-02,-5.80464e-02,8.98026e-02,-8.07832e-02,1.18030e-01,2.77099e-01,2.44257e-01,1.59488e-01,2.67381e-01,9.27202e-02,1.70281e-01,2.65849e-01,5.99942e-02,7.17321e-02,-6.12024e-02,4.59180e-02,6.68880e-02,-8.09155e-02,2.03607e-02,-3.18729e-02,-6.09960e-02,7.99931e-02,-1.70465e-01,-1.29163e-02,-9.35177e-02,1.19386e-01,-8.05363e-02,-4.91360e-02,2.79083e-02,-1.11332e-01,-5.67808e-02,-2.33592e-01,1.07169e-01,-3.06046e-02,3.13045e-03,2.12461e-01,1.53133e-01,5.42211e-02,1.06177e-01,-8.04859e-02,-7.50417e-02,3.47151e-02,-7.56272e-02,7.54472e-02,-4.71111e-02,-3.10263e-02,4.80688e-03,1.51001e-02,-8.20302e-02,1.41783e-01,1.38441e-02,1.74532e-03,-7.03356e-02,1.25850e-01,-1.46680e-01,1.29508e-01,-4.49128e-03,-7.01487e-02,-3.12277e-03,-1.15467e-01,-1.03110e-01,-1.12203e-01,-2.28866e-01,-1.21753e-01,-1.03289e-01,-2.46166e-01,-9.06167e-02,-2.14775e-01,-1.85619e-01,-2.18281e-01,-1.49579e-01,-1.41642e-01,8.93850e-02,5.02967e-02,-1.55137e-01,9.96815e-02,-1.39014e-01,9.40042e-02,1.31535e-01,-1.32218e-01,-3.89537e-02,5.05165e-02,7.76153e-02,-1.31744e-01,-1.40791e-01,-2.15664e-01,-1.46258e-02,-1.02367e-01,-8.15053e-02,-4.91367e-02,-9.44236e-02,-1.60322e-01,-1.97675e-01,-3.43656e-01,-4.01321e-01,-2.27276e-01,-1.35391e-01,-1.47703e-01,-9.88545e-02,-1.45383e-02,-3.46145e-02,2.18637e-03,-1.15156e-01,1.96651e-03,-9.02264e-02,-1.05726e-01,-7.51120e-02,-2.90690e-02,-5.02323e-02,6.57824e-02,1.76881e-01,2.68113e-02,4.03373e-02,6.01015e-02,-1.51878e-01,1.90858e-02,-1.88234e-01,-1.59628e-01,-2.71095e-01,8.10745e-02,-9.66815e-02,3.22031e-03,-9.52234e-02,-1.96094e-01,-1.53722e-01,8.51740e-02,-1.07550e-01,-3.58607e-02,-5.86728e-02,-1.76564e-01,-3.80922e-02,-5.77064e-02,8.75267e-03,-1.59488e-01,-1.69215e-01,-1.03978e-01,1.00565e-01,-4.08769e-02,-1.18765e-01,3.54030e-02,-1.12163e-01,-5.37982e-02,7.24214e-02,-1.29060e-01,9.81811e-02,-1.37854e-01,-6.42220e-02,-2.88769e-02,-1.33612e-01,-1.75801e-01,2.81423e-03,-4.67795e-02,9.15457e-02,5.40466e-02,7.19520e-02,1.15488e-01,-1.75817e-01,3.77704e-02,2.53170e-02,1.31394e-01,3.23847e-02,-1.20076e-01,2.39705e-02,1.11533e-02,1.13136e-01,1.26111e-01,-4.09693e-03,-7.43147e-02,4.82571e-02,-4.32161e-02,1.22653e-02,1.98754e-02,9.17377e-03,-1.02171e-01,1.31971e-01,9.91446e-02,-1.25495e-01,1.84871e-01,-1.45587e-02,9.38781e-03,8.26409e-02,-1.87455e-01,-7.21842e-02,-1.31916e-02,-7.10334e-02,-1.30779e-01,1.76864e-01,-1.39078e-01,-1.64832e-01,1.04591e-01,-3.97334e-02,-5.91943e-02,-1.59391e-01,6.85695e-02,-6.26734e-02,-4.16258e-02,7.75211e-02,1.43236e-02,6.76867e-02,-3.57954e-02,-1.06893e-02,-1.55121e-01,-7.20258e-02,9.21191e-02,-1.51745e-01,-2.73206e-02,-1.18010e-02,1.37273e-02,5.53877e-02,4.82855e-02,-2.26177e-02,1.23965e-01,-9.26479e-02,-1.36795e-01,8.37316e-02,1.37450e-02,1.14905e-01,8.25134e-02,-8.71923e-02,
-1.22159e-01,-7.04459e-02,-8.15738e-02,6.78361e-02,-1.18684e-01,4.19530e-03,3.71659e-02,-3.08927e-02,-3.11533e-02,-6.13120e-02,1.10214e-01,5.35260e-02,5.15177e-02,-5.11925e-02,-2.09340e-02,-1.24424e-01,-2.90247e-02,6.08499e-02,-1.25253e-02,6.13694e-02,-2.72349e-02,1.03253e-02,4.62690e-02,-4.73052e-02,3.04897e-02,7.85513e-02,2.51701e-03,-5.18966e-02,-1.05454e-02,-6.79641e-02,8.45590e-02,5.33526e-02,8.57672e-02,-5.80407e-02,8.40944e-02,9.50968e-03,1.33636e-02,-3.58107e-02,-9.78238e-02,-1.05886e-01,6.29447e-02,4.47191e-02,1.17652e-01,4.48977e-02,-1.52794e-01,-3.12329e-02,5.76940e-02,8.55327e-02,1.65327e-01,6.12858e-03,-2.09632e-02,-1.07654e-01,-8.46318e-02,-5.60659e-02,-1.01167e-01,9.88793e-02,-2.61624e-02,-7.33283e-03,-1.41473e-01,-1.10351e-01,-1.83223e-02,6.26273e-02,1.02734e-01,9.23520e-02,-1.10321e-01,9.66992e-02,-1.01893e-01,-9.76458e-02,1.05705e-01,9.57473e-02,8.14754e-02,1.28817e-01,8.87621e-02,-1.28238e-01,1.31820e-01,1.36148e-01,-2.94807e-02,-3.99593e-02,-1.32513e-01,-4.19964e-02,7.09703e-02,-1.02597e-01,1.65484e-01,-1.15415e-01,-1.27785e-01,8.97057e-03,9.15252e-02,8.06878e-02,-5.32724e-02,-1.33174e-01,3.51843e-02,-6.48807e-02,-5.64945e-02,-1.37674e-01,1.85038e-02,8.24163e-02,-5.30439e-02,-5.42895e-02,7.12692e-03,1.87821e-02,6.99077e-02,-2.58518e-02,-7.29907e-02,-8.69444e-03,5.27436e-02,7.24049e-02,-5.70932e-02,-8.53376e-03,1.39411e-01,1.00167e-01,1.57077e-01,9.54654e-03,-8.31621e-03,4.19683e-02,-1.29747e-01,-4.61711e-02,-1.97441e-03,1.64030e-01,1.43952e-01,-1.70324e-02,-1.26653e-01,4.10566e-02,-1.51591e-01,4.91677e-02,-1.82471e-01,-6.90659e-02,7.89840e-02,-1.04863e-01,-2.05752e-02,1.43648e-01,1.32630e-01,6.96474e-02,4.34076e-02,1.42884e-02,1.54420e-01,1.07085e-02,-1.22218e-01,1.56751e-04,1.63278e-02,1.28727e-01,-5.65607e-03,1.86198e-01,1.47738e-01,1.36847e-01,8.91288e-03,1.02105e-01,5.66580e-02,-3.22118e-02,1.07744e-01,8.53473e-02,-7.95726e-03,1.49546e-01,9.22777e-02,5.17955e-03,2.06228e-02,-8.12151e-02,5.51576e-02,6.45353e-02,-9.05230e-02,1.22792e-01,6.28596e-02,9.15211e-02,-1.37623e-01,-8.14886e-02,1.97761e-01,-8.16495e-02,1.43879e-02,1.61220e-01,-1.39412e-01,-9.10651e-03,-7.35006e-02,-6.49414e-03,1.58257e-01,4.47800e-02,7.35399e-02,9.99833e-02,5.16868e-02,-7.75034e-02,-7.63574e-02,-8.25832e-02,-8.83466e-04,-1.07080e-01,-3.65162e-02,-8.47109e-02,9.42597e-02,2.11242e-02,3.90977e-02,5.83490e-02,1.89942e-02,-4.47822e-02,5.71998e-02,-4.83141e-02,1.88524e-01,-5.33854e-02,-1.55842e-01,-1.57150e-02,5.05844e-02,-6.45756e-03,-1.68531e-01,1.97791e-01,3.05118e-02,-2.99370e-02,5.47300e-03,7.88466e-02,-5.53232e-02,-2.31954e-02,1.48160e-01,-4.55762e-02,-2.21575e-02,-1.02411e-02,-6.24454e-02,-1.10702e-01,-4.66397e-02,1.45702e-01,6.23912e-02,9.23219e-02,3.37743e-02,1.31546e-01,-1.26201e-01,-1.54380e-01,8.01192e-02,9.31620e-02,3.53054e-02,-1.28383e-01,-1.20689e-01,-5.24634e-02,-9.53081e-02,-1.58422e-01,4.56406e-02,6.18887e-02,1.23514e-01,-5.59483e-02,2.14419e-01,1.44024e-01,-1.68007e-01,1.55733e-01,-1.37028e-01,-5.70494e-02,-7.70952e-02,-7.82131e-02,6.11468e-02,-4.14024e-02,1.47320e-01,-7.03634e-02,9.08018e-02,-5.73959e-02,-7.43368e-02,-1.40967e-01,-8.12980e-02,3.81059e-02,-8.56321e-02,-8.78522e-02,-1.52097e-02,-5.40461e-03,-1.14625e-01,-6.27876e-02,-8.91348e-02,2.38899e-02,7.64106e-02,1.22593e-01,1.82699e-01,8.88276e-02,-6.26966e-02,3.34371e-02,8.69878e-03,-1.36453e-01,-9.03776e-02,-9.18897e-02,-1.48761e-02,-1.29946e-01,-8.58036e-02,1.48979e-02,8.40429e-02,-9.03935e-03,-5.95978e-02,-6.95795e-02,-4.69614e-02,-2.01889e-02,-4.71230e-02,3.06200e-02,9.24451e-02,1.35896e-01,-9.66061e-02,4.20695e-02,-4.00262e-02,-7.15447e-02,1.45700e-01,4.04049e-02,2.99933e-03,-1.13408e-01,8.41864e-02,-2.29997e-03,-2.25306e-03,-2.04556e-01,2.58950e-02,1.22664e-02,2.04454e-01,6.98450e-02,1.17213e-01,5.82927e-02,6.23721e-04,-1.09133e-01,-1.18966e-02,6.19416e-02,9.45228e-03,-1.89993e-01,6.90956e-02,8.30708e-02,-3.84732e-02,1.39199e-03,9.56347e-02,-4.56800e-02,-1.47665e-01,-1.57017e-01,-1.09923e-02,6.92016e-02,-7.85787e-02,1.54015e-01,-7.29433e-02,-4.00359e-02,-6.93547e-03,-2.29996e-01,-1.58172e-01,1.03607e-01,1.86367e-01,8.49595e-02,1.16813e-01,2.02605e-04,-1.90055e-01,-6.61299e-02,7.08957e-02,7.60611e-03,-1.32865e-01,-5.58695e-02,1.14588e-01,2.73937e-02,-8.44337e-03,-1.27391e-01,-6.76919e-02,7.09958e-02,-2.14776e-02,1.22175e-01,-8.92446e-02,-4.86176e-02,-3.25716e-02,2.83684e-03,8.28576e-02,-3.37202e-02,-1.08636e-01,6.26762e-02,-1.97791e-03,1.47869e-01,1.01739e-01,2.93433e-02,-6.57732e-02,3.73210e-02,-1.65574e-01,-8.73972e-02,-2.86158e-02,6.65231e-03,-1.13368e-01,-5.14960e-02,1.65727e-01,-1.68994e-02,-2.76136e-02,9.04636e-03,-7.28226e-02,-1.12915e-01,-3.72240e-02,4.65339e-02,1.95276e-02,-3.19741e-02,-7.56209e-03,-7.32900e-02,-2.17350e-02,-1.81233e-01,-2.05204e-02,-9.78584e-02,1.32766e-01,1.81634e-01,5.13263e-02,6.26391e-03,3.14786e-02,-3.24072e-02,-1.27735e-01,-1.61752e-02,-1.99269e-01,-5.07474e-03,2.70221e-02,-1.19409e-01,-2.95607e-02,3.90716e-02,-3.44229e-02,-7.40288e-02,-7.25998e-02,4.80332e-03,4.81015e-03,-1.70955e-01,5.39529e-02,2.45608e-02,1.21062e-01,4.87011e-03,-1.69957e-01,-3.43093e-02,-2.39884e-02,-1.06546e-01,-5.20370e-03,-5.60767e-02,3.17957e-02,-7.76333e-02,1.22987e-01,-6.24234e-02,-9.95745e-02,3.81330e-03,-1.10467e-01,1.27222e-02,3.64089e-02,-1.61276e-01,-1.77625e-02,1.07453e-01,1.01649e-01,7.67013e-02,-8.90718e-02,5.30678e-02,5.96630e-02,-8.88576e-02,-1.79896e-02,-2.00315e-01,-1.14534e-01,9.34138e-02,2.87457e-02,4.08682e-02,-1.26403e-02,6.36742e-02,3.04266e-02,4.44825e-02,-2.50573e-02,5.49746e-02,-1.43003e-01,-1.18236e-01,-2.69906e-02,1.21050e-01,-9.94584e-03,-1.29011e-01,1.10188e-01,1.57840e-01,-5.43098e-02,2.48138e-02,5.13299e-03,-5.97362e-03,-1.03638e-01,-6.78047e-02,6.36715e-02,1.57335e-01,7.89073e-02,-5.65623e-02,9.72656e-02,-6.73653e-02,3.62909e-02,-1.45470e-01,5.83781e-02,-2.47040e-02,1.10228e-01,-8.74558e-02,4.12551e-02,-1.88461e-01,-3.91756e-02,6.55712e-02,-1.30983e-01,-8.26380e-02,7.18668e-02,6.79721e-02,6.86519e-02,1.99873e-01,8.68990e-02,-1.89332e-02,7.95803e-02,3.69075e-02,-3.33992e-02,-1.01545e-01,2.03306e-02,-4.66958e-02,-1.00681e-01,-2.14597e-01,3.63378e-02,-1.00967e-02,1.74663e-01,1.20631e-01,2.59483e-02,-4.99225e-02,-7.64965e-02,-4.64353e-02,-1.73913e-01,-1.77892e-01,-1.72661e-01,6.23188e-02,-1.24076e-01,-9.39157e-02,1.48530e-02,8.41385e-02,9.44725e-02,4.07478e-02,-4.56797e-03,5.99562e-02,1.18873e-01,5.91286e-02,-3.56396e-02,-1.21222e-01,1.31233e-01,-1.25268e-01,-1.21474e-01,-2.77243e-02,-6.05773e-02,6.05205e-02,9.02353e-02,-8.64729e-02,1.47999e-01,-5.65395e-02,-3.08131e-02,-1.88108e-01,-2.86365e-02,-8.79393e-03,-7.37563e-02,2.63922e-02,-6.02442e-02,1.04919e-01,2.05747e-01,7.56695e-02,-1.53383e-01,-2.99289e-02,2.84574e-02,6.65185e-02,6.92780e-02,-9.48690e-03,-3.36575e-02,3.98381e-02,-1.88899e-01,-1.40575e-01,-1.45553e-02,6.83017e-02,1.64819e-01,-1.80441e-02,9.35423e-02,-1.32390e-01,-6.26971e-02,-1.14299e-01,-2.95560e-02,-1.46184e-01,-5.99079e-02,-4.21181e-02,-1.48019e-02,1.48727e-01,-8.16274e-02,1.99060e-02,-1.79267e-01,-2.52756e-02,-7.04473e-02,5.58489e-02,-6.53606e-02,2.69976e-02,3.18919e-02,-6.89164e-02,-9.01911e-02,2.07550e-02,-1.74229e-01,2.34790e-02,-1.31077e-01,8.24441e-02,8.74370e-03,1.62345e-01,-2.31760e-03,9.12900e-02,3.74572e-02,-1.90306e-01,-1.82849e-02,5.80037e-03,-8.68753e-02,7.94283e-02,-7.97527e-02,1.39519e-01,6.31899e-02,-4.47012e-02,-9.56826e-02,-1.22432e-01,-1.70083e-01,-1.07581e-01,8.67840e-02,-7.95780e-03,-1.07679e-01,-2.64385e-02,1.18112e-01,8.62501e-02,5.95058e-02,1.43872e-01,1.33416e-01,1.28124e-01,8.09799e-02,4.37950e-02,2.21452e-02,4.54950e-02,5.21020e-02,-5.58369e-02,-9.87796e-02,5.69428e-02,-4.79485e-02,-5.45276e-02,1.90070e-01,-1.87586e-02,-4.19759e-02,3.97929e-02,5.81293e-03,3.00895e-02,1.53797e-01,1.44244e-01,-2.66959e-02,1.39067e-01,1.28708e-01,1.08979e-03,-4.05795e-02,-1.38390e-01,-1.13650e-02,2.67621e-02,-7.68012e-03,-6.21335e-02,-5.63384e-02,-4.63710e-02,3.00695e-02,-3.87628e-02,-1.46667e-01,-8.15474e-02,-1.40556e-02,-7.39444e-02,3.64181e-02,-1.53074e-01,1.33457e-02,-5.13575e-02,-1.42102e-01,-7.33084e-02,6.42398e-02,1.21830e-01,1.12904e-01,4.35890e-02,1.77942e-02,-7.74462e-02,-1.61075e-01,-1.07594e-01,1.91605e-01,-7.07606e-02,-5.49380e-02,-1.29445e-01,-9.19749e-02,7.35583e-02,2.67955e-02,-3.18376e-02,-3.80779e-02,-2.18690e-02,-1.12890e-01,1.37775e-02,6.61014e-03,4.87432e-02,-5.03700e-02,-7.44046e-02,-7.70570e-02,1.88913e-02,6.15131e-02,1.32038e-01,5.25657e-02,2.23852e-02,-2.74272e-02,-5.57415e-02,7.32448e-03,-7.43700e-02,-6.25644e-02,8.77230e-02,1.07592e-01,3.79757e-02,-1.38322e-01,-2.32902e-02,-5.27430e-02,-1.07828e-01,-3.56663e-02,-2.36594e-02,-6.73053e-02,9.66539e-02,-1.26346e-02,-1.14072e-01,-6.91701e-02,-1.49318e-01,-2.23591e-02,2.50044e-02,-1.40265e-01,2.25670e-02,1.04723e-01,2.50939e-02,1.64150e-01,1.24662e-02,-7.85486e-02,-1.20492e-01,-4.61871e-02,-2.80045e-02,-4.63645e-02,7.56249e-03,-3.67140e-02,-3.72917e-03,6.17341e-02,-5.86026e-02,5.94221e-02,-9.91707e-02,1.51689e-01,7.17392e-03,-4.76753e-02,4.66496e-03,1.55577e-02,7.01656e-02,-2.65282e-02,-1.73525e-02,-1.08332e-01,4.52518e-02,5.59637e-02,-9.77648e-02,-1.16168e-01,1.20280e-01,3.38104e-02,-4.42378e-02,-5.57552e-02,-6.74861e-02,3.09875e-02,-4.02809e-02,2.42684e-02,-1.39824e-02,9.29893e-02,3.66424e-02,3.90356e-02,-3.70383e-02,8.47617e-02,3.90790e-02,-7.31703e-02,-8.98271e-02,1.00729e-01,3.77097e-02,-5.39863e-02,-7.84236e-02,-1.70072e-01,1.24516e-01,2.90023e-03,-3.47274e-02,-4.47472e-02,8.95632e-02,1.55882e-01,-1.88128e-03,7.82118e-03,3.00629e-02,-1.05831e-01,-1.06986e-01,2.18876e-02,-2.97105e-02,1.18892e-01,-7.16451e-02,-5.70611e-02,5.76350e-02,-4.95980e-02,-4.26554e-02,-9.25862e-04,5.11491e-02,-8.21080e-02,-3.73430e-05,-6.58157e-02,-1.23315e-01,-1.34578e-02,-9.86354e-02,-6.14250e-05,5.11383e-02,1.76707e-01,5.58742e-02,-5.95180e-02,3.67442e-02,9.16065e-02,-1.11957e-01,3.90647e-02,-1.37468e-01,6.13907e-02,-2.94849e-02,7.03572e-02,-2.05167e-02,
-1.33445e-02,1.66491e-01,9.61689e-02,1.41364e-01,-1.72438e-01,1.98295e-02,-6.32430e-02,5.60337e-02,1.94955e-01,-7.72049e-02,3.07998e-02,6.28837e-02,1.30215e-01,7.25060e-02,1.98043e-02,1.27439e-01,6.28879e-02,1.22161e-01,-9.20548e-02,-1.18884e-01,4.25499e-02,1.01882e-02,7.01104e-02,-1.02733e-01,8.79905e-02,2.36302e-02,1.42012e-01,-1.63408e-01,-7.98458e-02,9.50459e-02,-1.30796e-01,5.89236e-02,-6.89183e-02,-1.65864e-01,1.41479e-01,1.31956e-01,-1.17993e-01,1.89508e-01,-6.00975e-02,4.98168e-03,-1.06046e-01,8.35559e-02,3.46470e-02,-5.09250e-02,-1.36788e-01,-8.53462e-02,-7.29190e-04,-1.76614e-02,7.17421e-02,1.72910e-01,9.89365e-02,1.69218e-01,6.84962e-02,1.44398e-01,-3.85238e-02,9.13642e-02,-4.42275e-03,5.20106e-02,2.28718e-02,5.14332e-02,1.03131e-01,9.24497e-02,5.67223e-03,-1.50100e-01,1.95020e-02,1.36746e-01,-5.89780e-02,1.34940e-02,-5.54862e-02,-5.57661e-02,9.46688e-02,1.01436e-02,3.98465e-02,-6.05836e-03,-1.09122e-01,-1.31348e-01,1.24948e-01,6.56802e-02,1.12709e-01,-1.65762e-02,-8.42841e-02,-5.15638e-02,9.08947e-02,1.23020e-01,7.42264e-02,-1.99694e-02,-3.17153e-02,6.49761e-02,-5.42325e-04,1.20095e-01,-8.21442e-02,-2.80068e-02,-4.74048e-02,1.62812e-01,-5.26065e-02,7.68229e-02,1.28364e-01,-1.47179e-01,-1.18804e-01,-4.94090e-02,1.01224e-01,-1.80427e-01,1.34854e-01,-1.63328e-01,-1.98290e-01,-1.21405e-01,-6.21619e-02,1.01212e-01,-4.39374e-02,1.35612e-01,-1.54649e-01,-1.61803e-02,9.18828e-02,9.56232e-02,-1.39627e-01,9.13467e-02,2.11535e-02,-9.34950e-02,2.21193e-02,-7.93681e-02,-4.86024e-02,-1.76373e-01,-1.27047e-01,5.93022e-02,-1.60930e-01,-1.35577e-01,6.55065e-02,9.41634e-03,1.77679e-03,-5.34423e-02,1.01764e-01,-4.43755e-03,7.56133e-02,1.70803e-02,-7.17947e-02,-1.12203e-02,2.52608e-02,2.11717e-02,-2.64893e-02,-7.20665e-02,1.32393e-01,8.51764e-02,1.01461e-01,-1.26132e-01,1.37244e-01,1.43498e-02,9.04261e-02,-1.01531e-01,-1.66933e-01,5.03718e-03,-4.82147e-02,6.83473e-02,-1.40254e-01,-4.36914e-02,2.17494e-01,2.06789e-01,9.36253e-02,-1.96442e-02,1.05961e-01,-9.30231e-02,-4.25713e-02,1.20151e-01,1.39781e-01,-1.18058e-01,1.95600e-01,-7.57222e-02,-1.56241e-01,1.14664e-01,-1.09081e-01,-1.21062e-01,8.43863e-02,-3.93640e-02,-5.74513e-02,4.63031e-02,-2.81524e-02,3.86159e-02,7.87966e-02,-4.68874e-02,6.52031e-02,-1.41685e-03,1.74102e-01,-3.84125e-02,1.32115e-02,-2.77469e-02,-7.25081e-02,1.26184e-01,-2.56822e-03,-1.75054e-01,3.46956e-02,-4.40997e-03,-3.15031e-02,3.70398e-02,-9.98066e-02,6.41954e-02,-2.14478e-02,-1.23521e-01,-5.43224e-03,-1.17188e-01,3.22273e-02,8.51191e-02,-7.78461e-02,-3.11951e-02,1.00450e-01,1.04463e-01,1.31231e-02,-1.91609e-01,9.13232e-02,1.03999e-01,-5.49317e-02,-2.54500e-02,2.21167e-02,9.54388e-02,-9.75769e-02,1.45048e-01,2.53396e-02,1.42491e-02,4.03368e-03,-1.41382e-01,1.75523e-01,-6.01767e-02,-1.18740e-01,2.70231e-02,-1.16989e-01,-7.19548e-02,1.46857e-01,-1.23036e-01,-1.62037e-01,6.23029e-02,-1.04863e-01,-9.35162e-02,1.57637e-01,-6.17395e-02,1.19907e-01,-7.69200e-03,-1.28870e-01,1.90653e-02,1.92857e-01,1.83764e-01,7.49709e-02,2.33663e-01,1.34765e-02,2.25062e-01,7.76712e-02,-4.43798e-02,8.46450e-03,4.17241e-02,-2.03332e-01,-4.45827e-02,-1.66383e-01,-3.33420e-02,-1.67815e-01,2.41007e-02,7.17804e-02,4.60300e-02,-6.44503e-02,5.50608e-02,-3.55278e-02,-1.03128e-01,-1.04630e-01,-2.17614e-02,-3.89523e-02,1.76574e-02,1.22181e-01,6.19211e-02,1.08345e-01,1.31057e-01,-8.57672e-02,4.87207e-02,7.22296e-02,2.57727e-01,-4.61429e-02,7.42686e-02,7.55890e-02,-1.02102e-01,5.63843e-02,5.35326e-02,3.51094e-02,-4.91351e-02,1.80113e-01,-1.30180e-01,8.82369e-02,-1.01715e-01,-6.89545e-02,5.83315e-04,2.96711e-02,-9.06825e-02,-9.14847e-03,-4.55369e-02,5.68312e-02,-4.32399e-02,-1.25130e-01,1.38756e-01,6.32948e-02,2.26581e-01,1.73306e-01,-1.31573e-02,-1.17205e-01,-3.03135e-03,1.46784e-01,-4.19685e-02,-2.96409e-02,1.68434e-03,4.56267e-02,-3.28560e-02,3.92889e-02,-1.99867e-01,-1.07067e-01,1.51292e-01,7.96942e-02,6.58274e-02,-1.10000e-01,-4.23380e-04,3.50081e-02,-1.19399e-01,1.46187e-01,-1.10763e-01,-4.42635e-02,1.79177e-01,1.09584e-02,2.08778e-01,2.53594e-01,-6.23115e-02,-1.16442e-01,-9.41901e-02,-1.15401e-01,-1.52486e-01,1.09462e-01,1.42781e-01,5.97130e-02,3.27508e-02,4.50738e-02,8.37391e-02,-1.07494e-04,1.24979e-02,-5.99015e-02,2.15390e-03,-1.58560e-02,2.23085e-02,-5.20348e-02,-1.37649e-02,7.32307e-02,-1.11571e-01,1.68618e-01,-3.39389e-02,-3.69065e-02,9.55288e-02,1.30134e-02,1.37211e-02,1.06697e-01,-1.46817e-01,-2.11005e-01,-2.00779e-01,-2.45669e-01,-1.37528e-01,9.90442e-02,-4.24634e-02,-3.54602e-02,2.97572e-02,5.30446e-02,-5.48153e-02,1.53589e-01,4.96389e-02,-6.27859e-02,-1.03630e-01,-1.05613e-01,-1.57193e-01,3.61237e-02,4.71432e-02,-1.35070e-01,-1.39637e-01,9.81197e-02,4.64876e-03,-9.22828e-03,2.50556e-02,-4.68593e-02,1.92889e-01,-2.43246e-02,-8.36807e-02,-3.98977e-01,-2.19759e-01,-7.50198e-02,-1.53489e-01,-8.04319e-02,-7.64946e-02,2.68411e-02,-7.03029e-02,4.01259e-02,-6.47042e-02,-1.27802e-01,-3.85147e-02,-1.56953e-01,2.07071e-02,-2.95949e-02,-5.03177e-02,-5.00899e-02,1.10634e-01,-1.03251e-01,2.90579e-02,7.90374e-02,-3.41169e-02,1.05024e-01,4.67900e-04,1.33432e-01,-5.74163e-03,-6.18298e-02,-2.19649e-01,-3.76064e-01,-9.66140e-02,-2.28962e-01,-3.90927e-02,-1.75251e-01,-1.72909e-01,-2.44420e-02,2.42773e-02,1.78159e-02,1.19286e-01,1.90386e-02,2.64330e-02,1.17023e-01,1.66193e-03,-2.07353e-02,-4.70411e-03,-6.27690e-02,-6.84439e-03,-2.19434e-02,-1.81776e-02,-5.12634e-02,5.86070e-03,1.03500e-01,-2.36350e-02,2.25893e-01,-1.01937e-01,-1.50350e-01,-1.86088e-01,-3.55768e-01,-1.90082e-01,-1.15582e-01,5.00273e-02,-1.13102e-01,-1.08286e-01,-5.92764e-02,-6.47756e-02,-6.43416e-02,-3.87909e-02,-3.43677e-03,-6.49703e-02,-5.78062e-02,-1.34478e-01,7.73092e-02,-1.09193e-01,2.72847e-02,1.52546e-01,8.54221e-02,7.87363e-02,-5.24061e-02,-1.85507e-02,-6.18544e-03,-1.06719e-01,4.86122e-02,-7.64594e-02,-2.96798e-01,-1.76109e-01,-1.22182e-01,-6.36385e-03,9.02459e-02,3.36523e-02,-2.72813e-01,6.27857e-02,3.13905e-02,8.93427e-02,-4.74450e-02,-3.99766e-02,6.14893e-04,-8.53169e-02,1.49625e-01,-4.14723e-02,-6.57443e-02,-1.85948e-02,7.91260e-03,-3.86027e-02,-9.24613e-02,3.07262e-02,-1.56518e-01,-1.04778e-01,-1.02740e-01,-1.12277e-02,6.91977e-03,-6.10943e-02,-2.32045e-01,-3.86240e-01,-1.75662e-01,-1.27257e-01,7.39609e-02,1.71001e-02,-5.74123e-02,-1.63241e-01,-1.58680e-01,-1.40901e-01,1.16140e-02,3.55036e-02,-2.09834e-02,1.59099e-01,1.04856e-01,-1.20158e-01,-8.26823e-02,7.34867e-02,-2.11245e-03,9.25585e-02,7.21941e-02,-9.34343e-02,-3.02698e-02,-1.45070e-01,-1.87403e-01,2.11208e-02,-2.06718e-01,-2.44323e-01,-1.50652e-01,-1.56470e-01,-3.11359e-01,-1.86860e-01,-1.23051e-02,1.19169e-01,2.59511e-02,7.44248e-02,-5.29419e-02,-1.47653e-01,-9.83794e-02,-1.25795e-01,-3.39054e-02,-8.74093e-02,-1.21926e-01,-6.24386e-02,-1.24979e-01,1.86377e-01,-4.71375e-02,-9.29770e-02,-1.91331e-02,-6.77573e-02,-5.89541e-02,-6.38905e-02,-1.92664e-02,2.77082e-02,-1.42893e-01,4.55047e-02,-1.31460e-02,6.88125e-03,-6.63764e-02,1.03047e-01,2.43326e-02,8.06975e-02,-8.09447e-02,-1.80305e-02,5.11746e-03,-1.16498e-02,1.86520e-02,1.88313e-01,8.11014e-02,7.63894e-02,-3.40586e-02,1.50734e-01,-6.14308e-02,1.23724e-01,1.30908e-02,-3.09085e-02,-6.64192e-02,1.60397e-01,1.63196e-02,-9.97757e-02,1.06121e-03,-1.07950e-01,-1.02084e-01,1.30825e-01,-1.79046e-02,3.20139e-02,-8.61132e-02,4.61252e-02,-6.61349e-02,1.20979e-01,-3.96867e-04,-1.52773e-01,-4.20987e-02,3.10063e-02,-6.22787e-04,4.46079e-02,-1.43999e-01,-1.27715e-02,-1.18146e-02,7.52997e-02,1.91424e-02,1.73955e-02,-1.06318e-01,-1.00340e-01,-3.32688e-02,-8.04799e-02,-2.44966e-02,-5.11348e-02,6.78629e-02,8.12231e-03,-1.26248e-01,1.02555e-01,-6.77540e-02,-3.09879e-02,3.09606e-02,3.29232e-02,-8.01293e-04,-1.00825e-01,-3.50565e-02,-1.33944e-01,-1.31424e-01,1.27581e-01,8.04811e-02,-1.53666e-01,1.95134e-01,-1.28436e-02,-1.52815e-01,1.85525e-01,6.41381e-02,7.93120e-02,-1.61315e-02,1.90061e-02,2.28672e-02,-2.68888e-02,-8.72356e-02,6.09977e-02,-1.12242e-01,-9.53922e-03,1.00343e-01,-2.85004e-02,9.23256e-02,2.64574e-01,4.35458e-02,9.19962e-02,-9.35947e-02,-8.16732e-02,7.91352e-02,-4.78146e-02,-3.15247e-02,7.77707e-02,6.99719e-02,-1.31549e-02,-2.03695e-03,-2.07145e-02,-4.62942e-03,-1.03920e-02,-7.83095e-02,9.37003e-02,7.49179e-02,1.39268e-01,-5.22040e-02,-1.29438e-01,1.49880e-01,-1.49590e-02,6.54715e-02,-1.27634e-01,4.15635e-02,8.79448e-02,-4.46666e-02,1.25571e-01,9.64167e-03,-8.56771e-03,2.74442e-02,-2.46126e-03,-8.87643e-02,-2.78070e-03,-3.16563e-02,2.18377e-02,-4.91954e-04,-2.04737e-02,-9.81971e-02,9.29528e-02,-6.09467e-03,7.25543e-02,-1.34946e-01,-3.66784e-02,4.65224e-02,-9.25585e-02,8.67211e-02,7.56376e-02,-4.05099e-02,1.30409e-01,-5.29865e-02,6.37241e-02,1.87899e-01,-8.95586e-02,2.14395e-01,4.00245e-02,1.51091e-01,2.27700e-02,3.42102e-02,1.25789e-01,3.29840e-02,1.06958e-01,1.22321e-01,-3.32171e-02,-3.07019e-02,-3.97971e-02,-1.21553e-01,-1.18861e-01,1.55917e-01,-7.52957e-02,2.33852e-02,6.16477e-02,3.42713e-02,1.13980e-02,4.71846e-02,1.97555e-02,-4.62527e-02,-1.76734e-01,2.13382e-02,7.40248e-02,5.43115e-02,-4.36966e-02,1.17828e-01,4.91163e-02,1.12571e-01,-1.69155e-02,-9.57474e-04,-7.17841e-02,5.04634e-02,-1.43488e-01,-5.53948e-03,-4.67011e-02,-1.45060e-01,-7.70000e-02,1.63023e-01,1.12730e-01,1.78342e-01,-4.49355e-03,-9.92524e-05,-7.14218e-02,-4.42577e-02,-8.64663e-02,-5.09621e-03,-1.16696e-01,-1.49288e-01,-8.57547e-02,8.93075e-03,-4.71837e-02,-1.49657e-01,1.27804e-01,1.56927e-01,4.47610e-02,5.19930e-02,5.80540e-02,1.41957e-01,-2.50719e-02,-1.60475e-01,4.32720e-02,-3.39231e-02,-1.51624e-01,-7.29723e-02,-1.35495e-01,2.39147e-02,9.18942e-02,7.44603e-02,1.36350e-01,-2.87417e-02,9.37852e-02,-7.16715e-02,-1.02289e-01,6.10684e-02,-1.56509e-02,-1.99058e-02,-1.08633e-01,1.40523e-01,-2.53093e-02,1.51367e-01,-1.37218e-03,-2.55229e-02,-6.16864e-02,1.96646e-02,-3.24505e-02,1.55212e-01,-1.42121e-01,6.49515e-02,4.70222e-02,4.86154e-02,-1.61123e-01,-2.80631e-02,1.06490e-02,1.73383e-02,-2.73368e-03,-6.32954e-02,1.00095e-01,
-9.27930e-02,2.71178e-02,-8.39160e-02,5.62872e-02,1.46011e-01,-3.64410e-02,-1.01090e-01,-4.55819e-02,6.70253e-02,-9.08141e-02,6.99634e-02,8.57911e-03,1.59123e-01,6.80377e-02,-1.85322e-02,-5.14578e-02,-1.83523e-01,-1.54052e-01,-4.80288e-02,-6.91602e-04,-1.98613e-01,-1.35891e-01,4.40812e-02,-5.55066e-02,-1.12874e-01,-1.91979e-01,1.00233e-01,4.59938e-02,1.04802e-01,5.48001e-02,-6.99202e-02,-9.41371e-02,5.03871e-02,-2.12232e-02,4.50064e-02,7.14248e-02,-6.64746e-02,7.71408e-02,-2.09421e-02,4.36612e-02,-1.16799e-01,6.67939e-03,-5.00978e-03,4.95790e-03,-1.03720e-01,-6.02775e-02,1.23496e-01,-1.70616e-01,2.80039e-02,-1.76997e-01,-3.28382e-02,-1.90446e-01,6.65564e-02,-7.72192e-03,4.56159e-02,9.79091e-02,4.20368e-02,7.29389e-02,-1.31924e-01,2.94702e-02,8.40564e-03,-1.83087e-04,2.83927e-02,8.09446e-02,1.64843e-01,-1.83996e-01,1.50533e-02,1.15456e-01,-2.34049e-02,6.15874e-02,-2.29685e-02,-5.29270e-02,-8.61309e-02,-6.99781e-02,1.23498e-01,7.91717e-02,8.41887e-02,6.15771e-04,-8.20170e-02,-2.81034e-02,6.97468e-04,-5.45718e-02,1.79638e-02,-1.19384e-01,-7.72200e-02,-9.54652e-02,-2.13296e-02,1.61453e-01,8.20415e-02,-8.25278e-02,-6.52427e-02,9.92364e-02,-3.28577e-02,-3.17158e-02,1.07837e-01,7.14988e-02,5.43608e-02,-6.80603e-02,-1.16489e-01,-1.65362e-01,-1.27220e-01,-6.32436e-02,-2.14441e-02,1.74760e-01,-4.32147e-02,1.59856e-01,-5.67139e-02,-1.37126e-01,1.18888e-01,-8.35017e-02,1.70233e-01,1.98882e-01,-2.83047e-02,1.11567e-02,-3.93345e-02,-9.07058e-02,-1.21892e-01,3.27354e-02,1.72105e-01,-1.17879e-02,7.44465e-02,-7.78279e-02,4.66220e-02,1.34258e-01,-8.53207e-02,-1.74702e-01,-6.72761e-02,-1.20327e-01,-3.37879e-01,-3.12327e-01,-1.32460e-01,-1.93346e-02,1.81998e-01,1.71154e-01,4.88821e-02,1.36633e-01,2.63780e-02,-9.77392e-02,-2.28224e-02,-1.94173e-01,5.61859e-03,1.82694e-02,-7.91075e-02,5.50548e-02,2.76277e-02,2.09768e-01,1.42816e-01,6.76569e-02,9.31784e-02,2.41312e-01,6.50836e-02,6.12064e-02,-2.01820e-01,-2.06952e-01,-2.48712e-01,-1.39736e-01,-3.00532e-01,-9.74928e-03,1.07083e-01,3.79493e-02,-2.84002e-02,7.47133e-02,9.62021e-02,1.05898e-02,1.15231e-01,1.24166e-01,-1.34217e-01,1.13774e-01,3.28362e-02,5.44228e-02,-9.20164e-02,-1.15947e-01,2.08631e-02,1.09206e-01,2.55607e-03,3.41332e-02,1.65447e-01,2.91879e-01,1.03557e-01,-3.43684e-02,-2.53450e-01,-4.48242e-01,-4.16514e-01,-3.33587e-01,-1.59055e-01,-7.82543e-03,1.54906e-01,1.72445e-01,2.14580e-01,2.22580e-01,1.03408e-02,-1.40261e-01,-5.71755e-02,7.11839e-02,-1.37361e-02,6.81526e-02,-7.67472e-02,7.61046e-02,-6.92191e-02,3.34658e-02,1.52159e-03,1.18174e-01,1.91298e-02,1.92716e-01,2.87360e-02,1.10583e-02,1.28974e-01,5.70137e-02,-3.63801e-01,-5.33191e-01,-3.42466e-01,-4.09443e-01,-4.18246e-03,1.20483e-01,5.67161e-02,1.22187e-01,1.44322e-01,-2.21478e-01,1.30591e-01,-4.62248e-02,-6.55106e-02,-9.52689e-02,-7.32424e-02,4.95039e-03,-3.93957e-02,1.68133e-01,-1.24175e-01,1.87344e-02,5.98711e-02,2.71893e-02,3.77171e-02,2.48435e-02,-3.61655e-02,1.49132e-01,-6.47411e-02,-1.33235e-01,-2.68357e-01,-4.98287e-01,-3.87911e-01,-1.72225e-01,3.96045e-02,1.62421e-01,7.15645e-02,2.41811e-02,1.17545e-03,-1.37714e-01,-2.34067e-01,-1.62968e-01,-1.74419e-01,1.07816e-02,1.91595e-02,-1.14362e-01,2.65294e-02,1.33967e-02,2.31487e-02,3.60670e-02,-1.56969e-02,-3.90878e-03,3.49991e-02,-9.05958e-03,5.58401e-02,-1.37916e-01,-1.47860e-02,4.42949e-02,-2.68571e-01,-2.84956e-01,-3.42116e-01,-3.55337e-02,2.75744e-01,2.79874e-01,-1.95381e-02,-9.70716e-02,-8.36214e-02,9.89383e-02,-1.20364e-01,-1.84073e-01,-1.72328e-01,-2.17506e-01,-9.76629e-02,-1.90568e-01,-9.62179e-02,1.43407e-01,-1.85837e-01,-1.83826e-02,-1.69864e-01,4.51661e-02,-3.19419e-02,-1.10077e-02,1.73267e-01,7.39796e-02,4.83680e-02,-3.03345e-01,-3.74537e-01,-3.20522e-01,-1.56795e-01,1.01428e-01,2.32223e-01,7.54372e-02,9.49931e-02,-2.10655e-01,-3.83393e-02,-7.54350e-02,-5.84725e-02,-2.03801e-01,-4.64856e-02,-1.49330e-01,-8.96058e-02,2.98167e-02,-6.58406e-02,4.75588e-02,5.45800e-03,-1.31966e-02,-3.71922e-02,-1.10614e-02,-1.08258e-01,1.31142e-01,8.65075e-02,2.06582e-01,9.97505e-02,-1.35747e-01,-2.68108e-01,-2.22434e-01,-7.87620e-02,6.34924e-02,1.18419e-01,4.45585e-02,-1.17446e-02,-2.68146e-03,-1.93108e-01,-1.42804e-01,1.36213e-01,1.46915e-01,-3.44512e-02,-6.50933e-02,-2.21555e-03,1.41506e-01,-5.11911e-03,1.58684e-01,4.91214e-03,3.38884e-02,2.47640e-02,-2.61817e-02,5.19320e-02,3.42742e-02,-3.38183e-02,-9.03064e-02,5.59513e-03,-7.50905e-02,-1.94979e-01,-8.46007e-02,-7.65750e-02,1.09110e-01,-5.86928e-03,-1.30606e-01,-1.04291e-01,-1.55393e-01,7.72808e-02,-2.50078e-02,5.95809e-02,-6.32237e-02,4.81861e-02,-1.99910e-02,1.42155e-01,-7.83969e-02,-3.75950e-02,1.77726e-02,-1.33394e-01,5.51021e-02,-3.25011e-03,3.56519e-02,1.39350e-01,5.96836e-02,6.06196e-03,-1.08682e-01,-3.73798e-02,-6.60658e-02,-1.22954e-01,1.68243e-02,-1.68114e-01,-2.83468e-03,-3.26930e-02,-1.19435e-01,1.18519e-01,1.27386e-01,-9.40450e-02,-1.49460e-02,-8.07111e-04,7.95309e-02,5.59581e-02,1.69469e-02,4.98577e-02,-3.68096e-02,2.71580e-02,-1.00633e-01,1.81166e-02,7.80859e-02,9.86940e-02,1.08585e-01,8.04407e-02,1.15631e-02,-1.67727e-02,2.78964e-01,2.75016e-02,1.39444e-01,-4.24705e-03,1.46742e-01,-7.07188e-02,-2.82256e-02,1.78330e-01,-4.61851e-03,1.08623e-01,-7.96719e-03,9.00153e-02,4.17817e-03,4.70281e-02,6.30996e-02,1.03666e-02,1.67470e-01,-3.05338e-02,-4.41815e-02,-1.51614e-01,-5.58702e-02,-4.10560e-02,-1.23892e-01,1.51135e-01,1.36608e-01,-6.01346e-02,-7.94798e-02,4.19567e-02,1.00903e-01,1.53951e-01,4.61134e-02,-7.31003e-02,1.54519e-01,-2.24554e-02,-1.01557e-01,1.34355e-01,-1.65257e-01,-1.04912e-01,2.03919e-02,-5.55318e-02,-1.30375e-02,2.47792e-02,-6.46087e-02,1.91416e-01,1.55916e-02,-4.33101e-02,-1.00049e-01,-3.94455e-02,-6.63473e-02,1.16432e-01,1.93353e-02,-3.53805e-02,4.81476e-02,-8.40861e-02,3.81422e-03,-3.11563e-02,2.24413e-01,6.03055e-02,1.28522e-01,3.04341e-02,1.53237e-01,3.72408e-02,1.00178e-01,-8.34196e-03,8.35606e-02,-7.15951e-02,1.94824e-02,-1.08566e-01,3.42235e-02,-3.38994e-02,-1.65623e-01,1.75002e-01,-7.91451e-03,-3.47816e-02,-3.07887e-02,-3.31131e-02,-1.99669e-02,-8.15837e-02,1.09154e-01,-1.30281e-01,-5.79238e-02,-6.14073e-03,-1.09597e-01,1.28889e-01,2.13241e-01,1.75627e-01,-2.37446e-02,-3.31889e-02,-1.10451e-02,-4.66458e-03,-4.99390e-02,5.47583e-02,6.46899e-02,4.20830e-02,6.15171e-02,5.06061e-02,-5.92024e-02,4.70916e-02,1.21631e-01,-2.95276e-02,2.81495e-02,-7.15574e-03,-1.62463e-02,-1.18887e-01,2.99987e-02,1.32861e-01,-5.32996e-02,4.25980e-02,-1.75017e-01,-1.40351e-01,1.53579e-01,5.48077e-02,1.42891e-01,2.34099e-02,-9.26809e-02,6.97334e-02,4.31427e-02,1.20674e-01,1.80666e-01,-2.24653e-02,1.17118e-01,1.72911e-03,8.38504e-02,-2.74488e-02,1.57223e-01,1.30097e-02,5.95743e-03,-5.46547e-02,-6.10272e-02,-1.39130e-02,-7.88215e-02,-1.45619e-01,1.00635e-01,3.26207e-02,1.05331e-01,-5.33226e-02,3.43004e-03,2.60340e-02,-4.92285e-02,7.70649e-02,-1.32243e-01,-4.12957e-02,1.27648e-01,-9.26131e-02,3.32748e-02,9.33563e-02,1.37834e-02,6.98091e-02,3.83029e-02,-6.55570e-02,-1.00480e-01,-1.74148e-01,3.27756e-02,7.66202e-02,1.55374e-01,-1.96961e-02,4.30525e-02,-3.57767e-02,1.18427e-01,-4.32286e-02,-6.38738e-02,1.26559e-01,-9.32164e-02,-9.53772e-02,4.72900e-02,-1.27203e-02,2.90544e-02,5.44406e-02,1.13793e-02,-2.01970e-02,-2.50070e-02,-1.99047e-01,1.15069e-02,6.39647e-02,1.57796e-01,3.69641e-02,7.90503e-02,1.27966e-01,-7.74160e-02,-1.17300e-02,7.60983e-02,1.96822e-03,9.90660e-02,-1.28370e-01,-1.83690e-02,-6.36724e-02,-1.07211e-01,1.58798e-01,-7.46354e-02,8.06353e-02,-2.97322e-02,-2.77660e-02,-1.64468e-01,-7.65739e-02,4.68041e-02,2.04342e-01,1.60242e-01,2.22893e-02,-6.56374e-02,5.01041e-02,8.50774e-02,-1.13417e-02,6.29527e-02,1.22421e-01,3.26971e-02,-5.80752e-02,-1.14545e-01,6.67230e-02,1.39853e-01,1.00165e-01,6.26325e-02,1.05002e-01,-4.09122e-02,4.46577e-02,1.58980e-02,4.71911e-02,-1.18948e-01,-4.55805e-03,2.24027e-02,6.75106e-02,9.31816e-03,1.01468e-01,7.80656e-02,-1.51174e-02,2.15698e-02,9.02724e-03,5.05347e-02,-2.16963e-01,-8.47804e-03,-7.14171e-02,7.04397e-02,-8.12774e-02,-5.18286e-02,-1.13765e-02,-2.57716e-02,-1.86876e-01,-8.82743e-02,-8.99266e-02,6.10526e-02,-1.55677e-01,1.66869e-02,-9.53792e-02,6.34280e-03,8.48777e-03,-4.69419e-02,7.56636e-02,-2.18536e-02,2.34166e-02,-5.56378e-03,9.60603e-02,-1.16617e-02,2.82896e-03,-4.54568e-02,7.32830e-02,-8.02257e-03,-7.08419e-02,-1.35811e-01,-1.57139e-02,-7.89255e-02,1.02494e-01,2.11889e-02,1.64034e-01,-1.34938e-01,9.18208e-02,5.11842e-02,9.31308e-02,2.15921e-02,-4.84107e-02,5.49720e-02,-8.72190e-03,-5.50279e-02,2.46356e-02,7.09251e-02,-1.09518e-01,4.18340e-03,-3.46162e-02,2.39765e-02,4.89015e-02,3.65688e-02,3.97747e-02,-1.85220e-01,-1.74966e-01,-9.58711e-02,5.09909e-02,-8.69218e-02,-8.10396e-02,4.09859e-02,-2.29539e-02,-8.63865e-02,-1.59860e-01,3.63440e-02,3.38713e-02,1.05510e-01,-3.83130e-02,-4.44404e-02,-1.58621e-01,7.72865e-02,3.41155e-02,-1.51172e-01,1.48554e-01,9.50676e-02,-1.46462e-01,-3.42525e-02,4.87744e-03,7.10352e-02,-1.27151e-02,3.84850e-02,1.57254e-02,-7.11918e-02,-1.40743e-01,-8.01440e-02,-1.52316e-01,-9.30399e-02,8.78607e-02,5.00083e-02,-1.68655e-01,-1.50382e-01,-3.80279e-02,-3.83815e-02,-1.43288e-01,-5.74986e-02,-3.55883e-02,3.14746e-02,-5.36026e-03,-1.38549e-02,3.99992e-02,9.25106e-02,4.16502e-03,-1.58552e-01,3.08397e-02,-2.24185e-02,5.64209e-02,8.49536e-02,-2.81588e-02,-8.95508e-02,-3.86979e-02,-3.47296e-02,-9.64958e-02,-9.74567e-02,9.66464e-03,-4.59596e-02,-2.19062e-01,-3.19428e-02,-1.99937e-03,-9.31263e-02,-4.02478e-02,9.23765e-02,6.07326e-02,-5.67596e-02,5.71107e-02,-6.25404e-02,-3.96852e-02,-1.46160e-01,1.15091e-01,1.34294e-01,4.99149e-02,9.42682e-02,-8.77193e-02,3.88533e-02,-3.59828e-02,4.06760e-02,-1.54524e-01,8.09679e-02,-4.56098e-02,-2.19858e-02,-1.07569e-01,-1.64873e-01,8.40920e-02,1.43678e-01,9.50620e-03,-1.05714e-01,-3.45864e-02,-3.32217e-02,1.11396e-01,-2.78680e-02,-1.93233e-01,1.55568e-01,-9.67896e-03,9.21929e-02,9.37195e-02,1.23931e-01,-4.79431e-02,2.42510e-02,
1.45971e-01,-7.13863e-02,3.89617e-02,-3.17199e-03,-7.81450e-02,-1.45709e-02,-1.20490e-01,1.33309e-01,-2.04330e-02,1.04461e-01,-7.92923e-02,-2.01389e-02,-9.42690e-02,1.24486e-01,8.16617e-03,7.22426e-02,-1.66963e-01,9.21955e-02,-1.56858e-01,-8.73319e-02,-3.40260e-02,5.21623e-02,-1.26000e-01,1.21278e-01,4.79178e-02,-6.44269e-02,2.45641e-02,6.82954e-02,9.92866e-02,3.00820e-02,7.73488e-02,1.09535e-02,1.03896e-01,-6.10629e-02,1.10960e-01,-4.59210e-02,-1.61175e-01,-1.44245e-02,4.96201e-02,-1.13733e-01,-6.91512e-02,1.09105e-01,-2.27370e-02,-1.34184e-01,4.71379e-02,3.13722e-02,-3.83371e-02,-3.97782e-02,1.83195e-01,6.83171e-02,3.92192e-02,6.04428e-02,1.15475e-01,5.24164e-02,-1.77599e-02,2.41564e-02,1.86107e-01,2.52215e-02,-1.85784e-02,-1.69287e-01,4.59313e-02,-7.68871e-02,-1.90624e-01,7.40810e-02,-1.09820e-01,-1.98617e-01,-1.29013e-01,-2.23013e-02,4.04595e-02,-1.43567e-01,7.23218e-02,-6.31802e-02,-1.05150e-01,-1.91701e-01,1.18178e-01,-3.83756e-02,6.69735e-02,6.30068e-02,7.60988e-02,1.53724e-01,7.39478e-02,-4.01197e-02,8.91304e-03,-3.40942e-02,-5.65087e-02,-8.02478e-02,6.53351e-02,4.59901e-02,9.86793e-02,1.21690e-01,-8.20898e-02,8.72880e-02,-5.21884e-02,-1.16811e-01,1.62248e-02,2.80037e-02,1.70516e-02,-3.61865e-02,-1.22622e-01,-1.48077e-01,-6.90324e-02,5.84159e-02,-7.50969e-02,-3.01241e-02,-1.09830e-01,2.05802e-02,9.70832e-02,1.15134e-01,1.19169e-01,-6.28987e-02,9.44932e-02,1.49485e-01,4.05330e-02,8.81017e-02,1.95809e-02,-1.96687e-01,-7.58107e-03,-7.01513e-02,1.33435e-01,5.10410e-02,-4.91717e-04,1.78777e-02,5.02618e-02,-1.14629e-01,2.58503e-02,1.20389e-01,-1.58738e-01,-4.32525e-02,-2.27084e-01,-1.02573e-01,-7.34799e-02,1.63446e-02,-1.68030e-02,-3.83430e-02,-8.08412e-02,1.33609e-01,6.17339e-02,2.90804e-02,1.17911e-01,-1.18019e-01,2.97951e-02,7.08092e-02,-2.25551e-03,9.43851e-03,-9.91118e-02,-9.20010e-02,6.00134e-02,3.28437e-02,-2.21666e-01,-2.38024e-02,-2.48073e-01,-2.46164e-01,-8.88824e-02,-2.70712e-01,-5.35462e-02,-1.63144e-01,1.71436e-02,-6.15805e-02,-1.16023e-01,-1.24176e-01,2.25631e-02,-6.48824e-03,-1.05411e-01,7.61877e-02,2.73059e-02,1.02902e-01,8.02009e-02,4.53971e-02,1.55646e-01,-5.81526e-02,-3.54269e-02,-1.03250e-01,-6.40918e-02,1.41042e-01,9.95829e-02,6.95712e-02,-3.79641e-03,9.72807e-03,-1.72008e-01,-1.71029e-03,-1.17184e-01,-5.55006e-02,-1.34134e-01,-2.22132e-02,-1.48042e-01,1.05186e-01,-1.02748e-01,-2.04983e-01,1.06015e-02,-7.80854e-02,-8.65071e-02,-8.88808e-02,-1.37011e-02,4.85309e-02,-1.98760e-01,3.22310e-02,1.24002e-01,9.81105e-02,-1.70926e-02,6.08866e-02,4.12107e-02,-5.01993e-02,-8.88874e-02,5.07332e-02,5.31559e-02,1.38683e-01,-9.86889e-02,7.22037e-02,5.92814e-02,-4.86101e-02,-1.29622e-01,-1.34701e-01,-1.84281e-01,-6.02796e-03,-2.75079e-02,7.21930e-02,5.74337e-02,-2.47692e-02,1.40590e-02,-5.69913e-02,-5.39682e-02,-8.72884e-03,3.22190e-02,5.15722e-02,1.06087e-01,-1.47756e-01,-6.55961e-02,-3.82759e-02,2.04446e-01,8.40639e-02,2.67776e-02,-3.43302e-02,7.26151e-02,1.56265e-01,-1.28646e-02,3.61685e-02,-8.08138e-02,-9.86750e-02,-3.98953e-02,-4.81820e-02,1.08418e-01,7.91899e-02,1.80570e-02,1.39639e-02,1.31023e-01,9.67860e-02,-1.02705e-01,-5.21214e-02,-1.27809e-01,8.06348e-02,-1.45535e-01,3.40978e-02,-1.74712e-02,1.46500e-02,-6.22172e-02,1.74204e-01,1.99236e-01,-2.71574e-02,2.41516e-02,8.87775e-03,3.07650e-02,6.45732e-02,9.07068e-02,2.13984e-01,1.49450e-01,-1.41516e-02,1.20734e-01,-3.66800e-02,9.42320e-02,2.95449e-01,9.23263e-02,2.03473e-01,2.21651e-02,9.23868e-02,-9.50646e-02,-1.57203e-01,-8.52647e-02,7.61065e-02,7.85359e-02,-5.55720e-02,1.22117e-01,3.77608e-02,-3.96982e-02,4.41436e-02,2.77465e-01,-1.20641e-01,1.51370e-01,3.20014e-01,1.14815e-01,-4.67249e-02,2.08281e-01,1.16325e-01,8.44665e-02,4.96873e-02,1.10065e-01,1.71258e-02,8.11293e-02,3.19100e-01,1.32714e-01,9.95775e-02,5.38216e-02,-4.73055e-02,1.38201e-01,2.09501e-02,-1.55657e-01,7.82411e-02,-3.22568e-02,-4.91666e-02,-1.64368e-02,2.12646e-02,-4.16387e-02,9.58935e-02,1.51677e-01,1.97988e-01,3.68450e-02,-1.51195e-02,7.66552e-03,2.41788e-01,1.61168e-02,1.89910e-01,5.37853e-02,1.53125e-01,-1.72619e-01,-2.81112e-01,1.33165e-01,5.03585e-02,2.85780e-01,1.33145e-01,6.57295e-02,-1.81306e-02,5.18344e-02,-3.10952e-02,-1.98216e-02,1.11307e-01,8.66085e-03,-1.72381e-01,-4.44147e-02,3.82592e-02,5.51275e-02,-3.32406e-02,1.95104e-01,1.08101e-01,9.48962e-02,9.50233e-02,5.67607e-02,-3.98808e-02,1.15550e-01,6.38379e-02,-3.01363e-01,-2.51685e-01,-2.75779e-01,-6.62746e-02,6.88351e-02,9.23610e-02,7.31770e-02,3.44316e-03,-1.20321e-01,-5.61747e-02,8.90162e-02,-7.31236e-02,7.92778e-02,-1.99750e-02,1.04162e-01,-1.02035e-02,-9.38631e-02,-5.56971e-02,3.29185e-02,2.65657e-02,-3.04959e-02,1.08366e-01,-1.00803e-01,1.44034e-01,5.28740e-02,1.03596e-01,-1.22286e-01,3.73734e-02,-3.20671e-01,-4.15953e-01,-4.79089e-01,-1.05915e-01,-9.55956e-02,8.86756e-02,-1.98613e-02,1.69444e-02,1.05206e-01,1.59177e-01,7.39775e-02,-1.03145e-01,-2.02075e-01,-9.81639e-03,3.77469e-02,-1.01177e-02,1.10568e-01,1.79173e-01,6.43687e-02,-2.49145e-03,1.00717e-01,5.53501e-02,5.17756e-02,-1.94507e-01,1.87660e-02,-1.01885e-01,-5.67397e-02,-2.15235e-01,-3.27804e-01,-3.86796e-01,-3.77118e-01,-1.18752e-01,-2.25163e-01,-5.49246e-02,-1.92928e-01,8.45687e-02,9.71415e-02,2.06728e-02,-3.06832e-03,1.03351e-01,5.34191e-02,3.62938e-02,6.81486e-03,4.91774e-02,6.28331e-02,2.83334e-02,-2.85237e-03,-8.87733e-02,-1.43131e-01,6.87285e-02,-8.38022e-02,9.48362e-02,-8.37324e-02,-3.13167e-01,-1.88848e-01,-3.09325e-01,-3.10612e-01,-3.94510e-01,-3.62361e-01,-3.19367e-02,2.28156e-02,5.57697e-02,-1.07080e-01,-2.50363e-02,4.39813e-03,-3.27519e-02,-9.33252e-02,-9.31078e-02,3.93907e-02,-7.79840e-02,1.28333e-01,-3.94585e-02,8.03713e-02,1.52321e-01,-3.42273e-02,-1.09096e-01,6.75746e-02,5.05244e-03,-3.16181e-02,-1.23899e-01,-1.88927e-01,-1.43377e-01,-2.12107e-01,-2.54421e-01,-3.20775e-01,-1.09605e-01,-1.20605e-01,-1.59173e-01,-1.67053e-01,4.18754e-02,8.54987e-02,-6.67955e-02,-1.40247e-02,4.22301e-03,3.65652e-03,-1.71621e-01,-1.98404e-01,-8.51366e-02,-1.42997e-01,1.03358e-01,-3.84573e-02,-9.70050e-02,6.06188e-02,5.63323e-02,-7.01485e-02,-2.61156e-02,-3.82108e-02,5.34711e-02,-2.01429e-02,-4.34113e-02,-2.50132e-01,-3.43911e-01,-3.00045e-01,-2.53238e-01,6.42886e-02,7.68102e-02,-3.73756e-02,6.00104e-02,1.30889e-01,-5.96261e-02,-1.97865e-04,-1.30833e-01,-1.82587e-02,3.00581e-02,-4.81716e-02,3.03812e-02,4.12423e-02,-5.64168e-03,-3.91858e-02,-7.14036e-02,4.99496e-02,-1.39948e-01,6.21213e-03,-1.15680e-01,-8.96432e-02,-1.23943e-02,-7.22553e-02,-1.39107e-01,-1.17239e-01,-2.93469e-01,-1.58796e-01,7.94512e-02,1.23044e-02,-3.33354e-02,-1.14713e-01,-1.37732e-01,3.64132e-02,8.61595e-02,-9.44825e-03,1.08618e-02,-1.20985e-01,-4.27117e-02,-1.20999e-01,3.03012e-02,-1.07342e-01,9.83417e-02,1.36008e-01,-1.47271e-01,1.68020e-01,-8.62020e-03,-1.17596e-01,4.21060e-02,-8.47106e-02,-2.88043e-02,-1.07648e-01,-1.59386e-01,-9.57746e-02,-1.63961e-01,-1.12550e-01,1.17012e-01,-7.42969e-02,9.10192e-02,-1.24037e-01,-9.78362e-02,3.48663e-02,5.68742e-02,-2.25159e-01,-3.73219e-02,-4.40367e-02,-1.35510e-01,-1.20557e-02,9.87432e-02,-1.27974e-01,1.81972e-02,-1.89844e-02,2.16407e-02,-4.45875e-02,4.02694e-02,3.05627e-02,-8.63831e-02,-4.69274e-02,-4.29279e-02,-1.68977e-01,-1.44624e-01,-1.32920e-01,-8.41803e-02,5.57143e-02,7.47744e-02,-1.06117e-01,-1.04570e-01,-1.96614e-01,-4.16138e-02,-1.42850e-01,-1.09880e-01,-1.37478e-01,9.62035e-03,-1.24689e-01,-6.82685e-02,5.29473e-02,-8.74367e-02,2.24947e-04,-1.20011e-03,-3.65978e-02,1.02737e-01,-6.05355e-02,-9.02620e-02,-1.22918e-01,-1.77657e-01,-2.30831e-01,-2.12346e-01,-2.60504e-01,-1.98231e-01,-1.04518e-02,8.65049e-02,-1.95807e-01,4.97172e-02,-1.20847e-01,-1.43179e-01,-3.80978e-03,-8.98061e-02,-2.05306e-01,6.18507e-02,1.78565e-03,3.70581e-02,-1.79041e-01,-2.91990e-02,-9.15424e-03,-1.10012e-02,3.82317e-02,-1.03796e-01,-1.42179e-01,-8.04009e-02,1.01134e-01,1.04997e-01,-4.91307e-02,-3.87971e-02,-1.49788e-01,-1.63226e-01,2.27152e-02,-8.61894e-02,-6.11446e-02,6.42409e-02,-1.21182e-01,-8.63743e-02,1.01102e-01,4.82821e-02,-2.80904e-02,-1.22272e-02,1.07998e-01,1.76425e-02,-1.56496e-01,-7.93812e-02,8.19797e-02,-4.76064e-02,-2.85118e-02,1.91024e-02,1.80036e-02,6.86088e-02,1.39847e-01,-6.88847e-02,1.14172e-01,-2.15317e-02,4.26450e-02,-7.50064e-02,1.47079e-02,2.28500e-02,-9.98190e-02,-1.88377e-02,1.05394e-01,-1.13577e-01,-8.42303e-02,9.90566e-02,-8.97714e-02,-2.26902e-02,-4.46936e-03,-3.67437e-02,-4.08912e-02,2.61194e-02,-8.00437e-02,1.26382e-01,-1.21077e-01,3.97824e-02,1.54644e-01,-3.00428e-02,1.91991e-01,-1.03624e-01,9.95242e-02,-1.06137e-01,-9.92470e-02,6.50171e-02,1.03430e-01,1.24640e-01,7.29961e-02,-1.97059e-03,3.78527e-02,3.85077e-02,7.03034e-02,6.60381e-02,-3.70962e-02,-9.93472e-02,-8.27765e-02,6.50455e-02,2.03190e-02,-6.62514e-02,-6.53321e-02,-2.17130e-04,-1.42764e-02,9.37961e-02,-1.87669e-02,-3.51757e-02,4.02656e-03,5.35573e-02,-1.81516e-01,-9.13110e-02,-8.15096e-02,-7.73716e-02,1.17702e-01,1.19647e-01,-1.73232e-01,6.83367e-02,-4.47514e-02,2.09584e-01,2.29715e-01,1.81136e-01,9.09546e-02,1.21178e-01,7.38360e-02,7.65546e-02,9.95884e-02,1.89657e-01,3.86784e-02,7.39627e-02,-2.03910e-02,-1.04225e-01,-1.39147e-02,-2.02903e-02,2.20878e-02,-5.11421e-02,6.52550e-02,-5.43607e-02,3.21746e-02,-1.62737e-01,1.22884e-02,4.78664e-02,9.83429e-03,-5.41957e-02,6.53358e-02,7.32405e-02,4.72833e-02,1.23578e-01,2.36929e-01,8.18636e-02,-3.71729e-02,2.82193e-03,1.53300e-01,5.42971e-02,3.22550e-02,1.10246e-01,-6.08382e-02,-1.31522e-01,1.79625e-02,-1.09307e-01,1.11296e-01,-1.57771e-01,-2.51836e-02,8.95721e-02,8.36971e-02,4.34919e-02,-1.55661e-03,-4.68154e-03,-5.24699e-02,3.44682e-02,-7.78348e-02,7.01766e-03,-8.75568e-02,1.78516e-02,3.86814e-02,-5.61545e-03,-1.45620e-01,1.35985e-01,9.85645e-02,7.19994e-02,-6.11537e-02,-1.16127e-01,5.38927e-02,-4.62975e-02,1.02064e-02,4.19810e-02,-1.61413e-01,-1.89095e-01,-1.04374e-02,-1.07635e-01,-1.36981e-01,1.73546e-01,3.45792e-02,-4.94330e-02,2.52744e-03,-2.82805e-02,
1.08554e-02,-1.39184e-01,1.05490e-01,-5.37590e-02,-1.25787e-01,-3.53713e-02,-3.96617e-02,7.73984e-02,1.09738e-02,9.10068e-02,4.42487e-02,9.77219e-02,-2.33752e-02,-1.26839e-01,-1.36377e-01,-1.65617e-02,-9.91778e-02,5.63498e-02,5.71929e-02,1.86000e-01,-5.58535e-02,-1.16990e-01,-1.67493e-01,-1.15871e-01,3.35263e-02,-5.90162e-02,-5.72320e-02,-1.09962e-01,-8.76001e-02,1.23677e-02,1.52868e-01,1.30856e-01,1.25607e-01,-8.80791e-02,2.43797e-02,-7.41335e-02,-6.42675e-02,-1.15661e-01,7.92113e-02,-4.84548e-02,1.64563e-01,-6.72765e-02,-1.06857e-01,1.25771e-01,-2.50590e-02,-8.00019e-02,1.22749e-01,-3.29835e-02,-1.83665e-01,3.65532e-02,7.40332e-02,3.68479e-02,-6.39330e-02,6.55450e-02,8.52348e-03,1.54357e-01,3.02547e-02,4.82224e-02,-1.44394e-01,4.84895e-02,1.84827e-01,-4.10697e-02,-8.01183e-03,-8.36492e-03,1.13093e-01,-4.85786e-02,4.76667e-02,2.15613e-04,-8.79144e-02,-8.99556e-02,-1.84227e-02,-7.85711e-02,-5.02028e-02,7.91465e-02,-1.16425e-01,-1.12952e-02,1.40894e-01,5.20796e-02,1.09453e-01,9.38880e-02,9.41148e-03,1.30771e-01,-2.03461e-02,-3.34293e-02,5.91089e-02,1.30016e-01,6.74971e-02,7.56688e-02,2.15665e-02,-1.42428e-01,8.45730e-03,-5.67654e-02,1.24953e-02,-4.32207e-02,-4.48579e-02,9.75844e-02,-1.56574e-01,6.31240e-02,-1.04760e-01,-1.43014e-01,-1.06888e-01,-7.06198e-02,7.25067e-02,-7.24832e-02,3.17575e-02,-4.22533e-03,1.52149e-01,-3.64787e-02,6.63140e-03,1.74081e-01,5.87633e-02,1.00660e-01,-7.00494e-02,-6.01751e-02,1.11468e-01,-9.13149e-02,-1.18646e-01,-8.23887e-02,-5.77648e-02,-1.40844e-01,-7.15167e-02,9.88628e-02,-6.31881e-02,-1.23370e-01,-2.84353e-02,2.50079e-02,-8.23156e-02,-1.91205e-01,-1.46101e-01,5.32853e-02,-2.58948e-01,2.12029e-02,3.82197e-02,2.08700e-01,3.72601e-02,-1.41526e-02,1.04651e-01,-6.04597e-02,7.92728e-02,-4.46698e-02,-1.89715e-01,1.46716e-01,-2.13707e-05,-1.98925e-01,1.15348e-01,-2.10748e-01,1.23765e-01,-1.51555e-01,-1.15614e-01,5.20817e-03,-1.61361e-01,-3.72602e-02,-6.78403e-02,1.05825e-01,7.84592e-02,-6.16239e-02,-5.73285e-02,-1.10169e-01,-5.38109e-02,1.05566e-01,8.45050e-02,2.01352e-01,2.01667e-01,1.89140e-01,1.33912e-01,1.45139e-01,-1.69934e-01,-9.96527e-03,-1.00369e-01,1.53460e-02,7.47031e-02,-1.03705e-01,-8.76359e-02,-7.58245e-02,-1.17239e-01,-2.19251e-01,1.90058e-02,-1.77651e-01,6.50503e-02,2.39294e-02,1.14278e-01,1.85658e-01,-3.77437e-02,-2.64094e-01,-3.38138e-01,-4.40105e-02,-5.70965e-02,1.43029e-01,1.08048e-01,1.24242e-01,1.16798e-01,3.57461e-01,8.74905e-02,7.15619e-02,-7.50912e-03,-3.45696e-02,-1.81210e-02,2.62906e-02,-1.22527e-01,-4.99483e-02,-1.05715e-01,-1.70757e-01,-1.59725e-01,2.72888e-02,-4.36937e-02,5.12147e-02,-8.83868e-02,1.70007e-01,1.46885e-01,3.56137e-02,-3.71295e-01,-2.73975e-01,-2.11804e-01,-1.81435e-02,9.39166e-02,1.75256e-01,7.58360e-02,1.73405e-01,1.48495e-01,2.94847e-01,2.01895e-01,4.67941e-03,-7.07083e-02,-8.47219e-02,-6.14829e-02,9.99561e-02,1.60314e-01,1.36327e-01,-1.22525e-01,-9.60562e-02,-4.47018e-02,-9.88789e-02,-1.67957e-01,-5.75291e-02,5.83781e-02,2.23038e-01,9.96506e-02,-1.42975e-01,-2.74680e-01,-3.89277e-01,-2.31584e-01,1.19093e-02,1.95155e-02,-3.95519e-03,-4.65576e-02,-9.71935e-03,1.00314e-01,1.08658e-01,1.52482e-01,-2.52283e-02,-4.82081e-02,-1.10281e-01,1.19214e-01,-1.50391e-01,3.33436e-02,3.37996e-03,-4.07527e-02,-2.36144e-01,-2.35954e-01,-2.22976e-01,9.47309e-02,2.94386e-02,1.44062e-01,1.21422e-01,-4.78444e-03,-1.70961e-01,-4.69983e-01,-4.71379e-01,-9.20735e-02,-2.25766e-01,-2.37406e-01,3.79763e-02,2.58796e-02,-4.95029e-02,-1.67675e-01,-9.14943e-02,-2.29354e-02,6.86749e-02,9.11233e-02,-2.48142e-02,5.39382e-02,1.03631e-01,-1.09213e-01,-1.17134e-01,-4.85078e-02,3.87147e-02,-1.59332e-01,6.58583e-02,5.37005e-02,9.79802e-02,6.57916e-02,1.43787e-01,3.19005e-01,-4.49822e-02,-1.95923e-01,-3.08562e-01,-2.67125e-01,-1.80206e-01,-2.18748e-01,-1.98468e-01,-3.88896e-01,-2.42376e-01,-1.04849e-01,-1.51449e-01,9.14668e-02,6.10604e-02,-9.42244e-02,-7.27046e-02,-1.85589e-01,-2.48232e-02,1.22759e-01,-1.11914e-01,-1.11669e-01,1.50557e-02,-1.43598e-01,-3.39878e-02,5.93537e-03,5.99537e-02,1.76789e-01,4.13729e-01,2.55311e-01,5.95728e-02,-1.32427e-01,-2.33250e-01,-5.26938e-03,-3.65791e-02,-1.05043e-02,-1.45330e-01,-1.60569e-02,-1.83827e-01,-7.56773e-02,-2.74897e-02,-8.25024e-02,6.84515e-02,-4.20256e-02,-1.03667e-01,1.32421e-01,-7.08568e-02,-1.84528e-02,4.62149e-02,-1.11244e-01,-2.02278e-01,-6.51336e-02,7.81757e-02,-6.61262e-03,5.07339e-03,1.32893e-01,1.96127e-01,3.50488e-01,3.04321e-01,-3.23268e-02,7.58849e-03,5.00800e-02,1.11909e-01,-5.21099e-02,-1.04393e-01,4.44288e-02,-1.75970e-01,-1.74353e-01,-1.21307e-01,-1.11756e-01,1.02792e-01,-1.10494e-01,3.86667e-02,4.02929e-02,-9.35555e-04,-2.92598e-03,-1.53333e-01,1.11646e-01,-2.27086e-01,1.19064e-01,-1.45705e-01,-2.00625e-01,-1.45278e-01,5.16265e-02,1.23888e-01,3.80689e-01,3.23029e-01,-1.03292e-01,2.25374e-01,-4.98814e-02,-3.57126e-02,1.29193e-01,-1.08971e-01,-1.87371e-02,1.54523e-01,5.19326e-03,4.07934e-03,-1.66981e-01,3.71904e-02,8.49728e-02,-1.88663e-02,1.67690e-01,-9.41186e-02,1.56597e-01,-7.58157e-02,1.41311e-01,-1.62146e-01,2.41397e-02,-3.43914e-02,6.12971e-02,-1.09093e-02,3.06921e-02,9.96256e-02,2.59392e-01,-9.17978e-02,3.71280e-02,1.59338e-02,5.54616e-02,-6.15346e-02,-1.63948e-02,1.41597e-01,-3.18290e-02,1.21601e-01,-1.16695e-01,1.13881e-02,-7.73491e-02,-4.58071e-02,-2.55858e-02,1.32911e-01,5.07138e-02,-2.83835e-02,-2.22490e-02,-1.15789e-01,-4.81458e-02,8.83559e-02,-9.48715e-02,-1.37106e-01,-1.42435e-01,4.48112e-02,-3.69480e-02,-3.07198e-02,5.46051e-02,1.05797e-01,4.13171e-02,-9.40879e-02,2.63492e-02,1.02209e-01,2.86276e-02,-4.57612e-02,1.74303e-02,-1.14001e-01,-1.42341e-02,-4.65114e-02,-3.11112e-02,-4.91893e-02,1.74435e-01,-5.17460e-02,-8.26814e-02,-8.83292e-02,-5.80044e-02,2.58395e-02,-1.49193e-01,-4.31385e-02,-6.16551e-02,4.76725e-03,-4.47950e-02,-4.61294e-02,-1.86488e-02,-2.66134e-02,1.33549e-01,6.80175e-02,2.77268e-02,5.43253e-02,-1.74719e-02,1.27906e-01,-5.81837e-02,1.83190e-02,-2.72607e-02,-1.39856e-02,3.72642e-02,-1.85096e-02,-2.13511e-01,-9.87536e-02,-1.28534e-01,2.66579e-02,-5.41687e-03,-7.52498e-02,-2.52939e-02,-6.36302e-02,-2.85307e-02,-9.90617e-02,9.45956e-02,-5.23635e-03,-9.55912e-02,4.55308e-02,-7.47912e-02,2.12949e-01,1.06263e-01,1.16109e-01,4.46903e-02,3.98742e-02,-3.74962e-02,8.60704e-02,-7.35734e-03,-1.81229e-02,5.25527e-03,-8.87846e-02,-1.23883e-01,1.44962e-02,-1.25470e-01,-1.13320e-01,1.91934e-02,-1.23063e-01,3.59958e-02,7.83799e-02,4.50064e-02,6.17251e-02,-5.48131e-02,9.67334e-02,4.85689e-02,-5.26323e-02,-1.38109e-01,-1.36411e-01,-1.27362e-01,6.89146e-02,1.73542e-01,9.55445e-02,1.60442e-01,-1.59745e-01,-4.59839e-02,9.04888e-02,-2.04253e-01,-1.90162e-02,-5.17438e-02,-6.05171e-02,-1.98912e-01,-3.95023e-02,-3.81092e-03,-1.78125e-02,1.13290e-03,3.22008e-02,6.97799e-02,1.86705e-01,5.04399e-02,-6.98188e-02,4.32982e-02,-8.44750e-02,5.70607e-02,-9.46914e-02,5.25741e-02,-6.35310e-02,-1.09406e-01,-6.35454e-02,-9.83390e-02,-4.74774e-03,2.25886e-02,-1.65969e-01,-1.92643e-01,-9.81585e-02,1.59331e-02,-1.43471e-01,6.41468e-02,-5.52375e-02,-2.42016e-01,-5.06762e-02,-2.07357e-02,-5.30988e-02,4.50394e-02,-6.45634e-03,-5.28827e-02,1.03985e-01,-8.55094e-02,3.08962e-02,-5.36965e-02,-2.44224e-02,-5.03168e-02,1.80203e-02,1.03051e-01,-3.09245e-02,-1.02217e-01,-1.08045e-01,-4.00814e-03,-1.78032e-01,-1.29946e-01,-1.41804e-01,-7.02968e-02,-1.14236e-01,1.93090e-01,9.74114e-02,6.89058e-02,-1.85304e-01,-1.75412e-01,-1.19074e-01,-7.13016e-02,-1.58976e-01,-9.65074e-02,-6.88700e-02,4.97251e-02,-3.96787e-02,-3.11786e-02,-5.32001e-02,5.31551e-02,-4.79848e-02,-8.59020e-02,-7.10283e-02,-6.90953e-02,9.76204e-02,8.71436e-02,7.22248e-02,3.87413e-02,8.76405e-02,1.26396e-01,-1.70688e-01,-2.28157e-02,-2.77277e-02,4.71707e-02,-1.03246e-01,-2.14908e-02,1.53294e-01,-1.29153e-01,3.01038e-03,1.29482e-02,-1.62043e-03,5.99831e-02,-4.20154e-02,1.50345e-01,5.14115e-02,-2.04166e-02,3.47742e-02,2.49258e-03,-1.99550e-01,-1.24476e-01,1.05017e-01,-3.59500e-02,-5.49315e-03,-1.19614e-01,7.51470e-02,-6.21020e-03,2.71647e-02,-4.38735e-02,4.46194e-02,-1.53958e-01,-8.58902e-02,3.09116e-02,-2.37960e-01,-6.84000e-02,1.38937e-01,-1.20844e-01,5.48126e-02,-4.89647e-02,6.83082e-02,-4.18871e-02,-1.30401e-01,4.92300e-02,-9.90365e-02,-3.28371e-02,-2.19825e-02,1.38686e-01,-5.24456e-02,-1.05478e-01,-7.46510e-02,-7.96709e-02,-5.18545e-02,-2.63523e-02,7.64420e-02,-7.49590e-03,1.57000e-01,1.99290e-01,2.31838e-01,4.46611e-02,3.53261e-02,-1.65431e-01,-3.66063e-02,-3.00302e-02,-7.67248e-02,-1.12050e-02,3.11860e-02,-1.33221e-01,1.19918e-01,7.72286e-02,1.14218e-01,-3.76181e-02,7.57982e-02,7.62123e-03,-5.94145e-02,5.07511e-02,-3.45862e-03,-1.33175e-02,7.44501e-02,4.33608e-02,4.68902e-02,-1.12579e-01,-5.10757e-02,1.44703e-01,-1.67055e-01,5.21951e-02,4.82519e-02,-3.81988e-02,-2.76495e-02,2.42330e-03,7.17356e-02,8.76006e-02,-1.26231e-01,-7.14727e-02,1.02242e-02,-6.65078e-02,7.77654e-02,4.67531e-02,-4.79580e-02,1.31658e-01,-2.30615e-02,-1.85765e-02,-4.10176e-02,-5.28815e-02,-8.46546e-02,-4.12474e-02,3.82462e-02,-2.17424e-01,-3.20937e-02,-8.85134e-02,5.41138e-02,-7.13561e-02,-1.12595e-02,2.83144e-02,-1.35997e-02,9.50605e-02,-1.11665e-01,9.07874e-02,-8.60419e-02,-6.51973e-02,5.97677e-02,-7.02631e-02,1.44199e-01,2.43296e-02,1.72564e-02,-5.17374e-02,-5.18201e-02,-7.60883e-02,-5.19615e-02,1.35529e-02,3.74975e-02,1.51564e-01,-2.97031e-02,1.11864e-01,1.61041e-01,1.36011e-01,7.20803e-02,-9.43666e-02,-1.43627e-01,-1.12614e-03,-3.09689e-02,-1.14579e-01,-2.24714e-01,-8.85776e-02,-1.07085e-01,-1.00520e-01,-5.41920e-02,1.09560e-01,9.58408e-02,-1.99436e-01,-1.01378e-01,-7.82423e-02,-2.16033e-02,7.16867e-02,-5.51976e-02,-1.45445e-01,5.87889e-02,-9.18152e-02,1.09735e-01,-2.81348e-02,-1.72867e-02,1.07199e-02,1.82910e-02,-2.96516e-03,-9.64232e-02,-1.16084e-02,1.11504e-01,-1.30708e-02,-1.22124e-01,-6.93675e-02,1.69128e-02,6.21130e-02,-1.22538e-01,-1.02548e-01,-8.00199e-02,8.69843e-02,-1.60054e-02,3.30025e-02,1.64461e-02,1.17086e-01,-8.51287e-02,4.28461e-02,1.17570e-02,
-1.25437e-01,-1.19653e-01,-1.34468e-02,7.14579e-02,-9.96031e-02,3.92363e-02,-5.15387e-02,7.39148e-02,-4.21612e-02,1.68056e-01,-5.02803e-02,1.49578e-01,2.82482e-02,1.30520e-01,-8.15218e-03,5.27100e-02,4.01411e-02,3.91248e-02,1.92721e-02,1.53167e-02,-1.22256e-03,2.86191e-02,-2.70614e-03,-1.25814e-01,2.91579e-02,7.84714e-02,2.84175e-02,-1.50172e-02,-1.06943e-01,-6.44120e-02,-5.80794e-02,6.10235e-02,7.90226e-02,-1.20054e-01,-3.16148e-02,1.28134e-01,7.51428e-02,8.47361e-02,-2.97299e-02,1.23148e-01,-6.57400e-02,-8.96304e-02,-8.98333e-02,-1.67281e-02,-9.62796e-02,7.37432e-02,1.63452e-01,5.31056e-02,-1.56459e-01,1.24196e-01,-4.82560e-03,-6.53363e-02,3.16219e-02,-4.27839e-02,-9.30198e-02,1.75551e-02,1.10606e-01,-4.01524e-02,6.55108e-02,-4.22320e-02,-1.00037e-01,3.99851e-02,1.83739e-01,-9.53185e-02,9.97227e-02,1.08192e-01,-8.12032e-02,-1.42734e-01,1.63338e-01,9.34087e-02,3.51328e-03,6.73605e-02,-5.31734e-03,1.79098e-02,9.84583e-02,-2.83968e-02,-9.45473e-02,-8.16657e-03,7.74588e-02,8.05368e-02,9.96651e-02,-7.39048e-02,-4.64446e-02,-4.59407e-03,1.08717e-01,-7.58617e-02,3.81105e-02,5.31929e-02,-3.76646e-02,3.43574e-02,2.82215e-02,1.42287e-01,-6.38991e-02,2.31062e-03,-5.67924e-02,1.21778e-02,-1.63356e-02,1.14681e-01,7.30553e-02,9.16390e-02,1.24776e-01,9.63182e-02,4.35296e-02,-1.02955e-01,1.70874e-02,6.98123e-02,-4.66101e-04,-2.40516e-02,-1.18791e-01,6.88749e-02,5.59056e-02,-1.60844e-01,-1.56806e-01,5.37214e-02,-4.68592e-02,1.59761e-02,-1.32878e-01,1.26710e-01,-1.96695e-02,3.92862e-02,9.41871e-02,1.00382e-01,1.08772e-01,1.60383e-01,-4.53866e-03,7.54412e-02,-1.34064e-02,1.40225e-01,-2.38093e-02,-1.83487e-01,2.98157e-02,1.39986e-01,-4.97311e-02,-4.66902e-02,3.57889e-02,1.23683e-01,5.28532e-03,-8.61535e-02,1.17340e-02,8.00468e-02,-1.21143e-01,3.30036e-02,1.56320e-01,-1.25235e-01,-7.18467e-02,1.00153e-01,-6.66916e-02,1.68287e-02,-3.89013e-02,-4.65753e-02,6.17327e-02,-4.80172e-02,-3.44359e-02,-1.68311e-01,8.70539e-02,8.96428e-02,1.27539e-01,1.84803e-02,-1.02360e-01,-1.52722e-01,-7.00265e-02,2.75451e-02,4.49481e-02,1.44284e-01,-1.54792e-02,-1.19089e-01,-1.30498e-01,5.52398e-02,-7.04617e-02,6.92911e-02,4.76679e-02,-4.59924e-02,-4.14541e-02,1.19180e-02,-1.99798e-02,-1.26912e-04,1.40790e-01,-3.43508e-02,-2.95978e-02,-5.59858e-02,9.23535e-02,-6.20933e-02,3.94743e-02,1.79944e-02,-1.03974e-01,-7.80352e-02,-7.96978e-02,-1.26156e-01,9.37758e-02,-2.39888e-02,1.02312e-01,-1.16757e-01,-5.87982e-02,8.20896e-02,-9.30660e-03,1.10810e-02,7.21733e-02,-3.07325e-02,1.12592e-01,7.15657e-02,9.45214e-03,-2.79846e-02,1.30219e-01,2.96049e-02,1.78520e-02,-1.85645e-01,7.08448e-02,-2.12402e-02,1.45401e-01,1.35973e-01,-2.69607e-02,-6.22342e-02,1.01866e-01,7.81162e-03,6.03332e-02,1.08898e-01,-1.20551e-01,6.84017e-02,-6.06795e-02,2.37212e-02,-1.12415e-01,5.45285e-02,-1.42126e-01,-1.84655e-02,1.77764e-01,-9.74773e-02,-7.53694e-02,6.04756e-02,-7.22304e-02,-3.93930e-02,-3.94117e-02,1.25264e-01,-1.61188e-02,-1.85322e-01,-1.23797e-01,1.79457e-02,-4.14519e-02,1.24087e-01,-7.12860e-02,8.73274e-03,1.68392e-02,-1.03443e-01,4.95315e-02,-7.51406e-02,7.87890e-03,-1.01639e-01,6.80165e-03,-1.27632e-01,-1.83447e-01,-1.37427e-01,8.77263e-02,2.08992e-02,3.81293e-02,-1.16682e-01,5.76931e-03,1.85477e-02,-6.45214e-02,-1.90361e-01,1.57363e-01,4.64212e-02,-1.14369e-01,-1.99352e-02,-7.30630e-03,-1.67512e-02,5.10749e-02,-2.00986e-01,2.33883e-01,5.03310e-03,1.51823e-01,2.01213e-02,-7.11408e-02,-2.23909e-01,8.74609e-02,-6.77669e-03,-2.27036e-01,6.53849e-02,7.04364e-02,-1.29725e-01,-4.70373e-02,-1.21482e-01,-1.98364e-01,-1.11291e-01,-5.86805e-02,4.19124e-02,-1.67970e-01,-1.14386e-01,9.56865e-02,-9.73170e-02,8.03768e-02,-1.11484e-01,6.89949e-02,-1.31828e-01,-2.38873e-01,1.22367e-01,1.63816e-01,1.20622e-01,2.43157e-01,2.01073e-02,-9.41906e-02,-1.80216e-01,-1.32234e-01,-9.23147e-02,6.97113e-02,-3.86449e-02,-3.06591e-02,6.13772e-02,6.70178e-02,-1.32826e-01,1.19823e-01,-7.45202e-02,-9.50584e-02,-2.31618e-02,2.88624e-02,-2.26783e-03,-1.88857e-02,-1.50679e-01,3.67378e-02,-1.00997e-01,-3.00781e-02,-4.08657e-02,-4.46352e-02,5.57975e-02,1.05210e-01,7.28058e-02,1.46075e-01,-1.11251e-01,-1.43826e-01,-5.99879e-02,-2.08560e-01,-1.49723e-01,-8.86054e-02,-4.52522e-02,-8.71781e-02,-1.67632e-02,4.83876e-03,1.18227e-01,1.20081e-01,1.67089e-02,-1.94494e-01,5.70787e-02,-1.15237e-01,1.30461e-01,1.32687e-01,1.43954e-01,-1.22852e-01,-1.48207e-01,4.17924e-02,-2.43956e-01,1.08612e-01,-5.94782e-02,9.85872e-02,-5.41405e-04,1.23498e-01,-9.00534e-02,-1.22606e-01,-5.77463e-02,9.23411e-02,-2.18042e-02,-6.04962e-02,3.50534e-02,-8.19734e-02,-1.38433e-01,-1.97489e-01,9.04112e-02,2.21932e-02,-3.47663e-02,1.88273e-01,-6.37586e-02,7.95350e-02,-1.75837e-01,-5.07102e-02,-1.12887e-02,3.18976e-02,-1.22083e-01,-1.59602e-01,1.31634e-02,6.60034e-02,1.37837e-01,-1.21917e-02,7.37316e-02,7.41029e-02,-1.29449e-01,-3.10183e-03,-3.72505e-02,-1.28504e-01,-7.24696e-02,-1.05523e-01,5.78190e-03,-8.86351e-03,-2.14322e-02,9.52204e-02,1.85683e-01,-8.49043e-02,-9.27238e-02,3.07755e-02,1.04018e-01,-5.59086e-02,-9.18603e-02,-5.39334e-02,7.72235e-02,-9.67119e-02,-1.00468e-02,-3.50695e-02,-8.08030e-02,-1.65601e-01,9.60030e-02,-5.99333e-03,2.01446e-01,-4.69145e-02,-1.87616e-01,-1.28702e-01,4.21354e-02,7.31704e-02,-1.91377e-01,1.12001e-02,-1.12011e-01,-8.18539e-02,3.62683e-02,-2.38414e-02,-1.84999e-02,-1.80779e-01,1.14757e-01,1.81372e-02,1.16757e-01,3.29989e-02,2.03279e-02,-1.18343e-01,7.99377e-02,-4.88014e-02,-1.63893e-01,1.37671e-01,-9.56075e-02,1.13689e-01,2.07953e-01,1.50683e-01,2.84823e-02,-2.01793e-01,-9.45770e-02,-1.59227e-01,-2.21155e-01,3.65783e-02,-2.14787e-01,-1.93287e-03,7.85403e-03,8.58079e-02,7.52610e-02,-1.62430e-03,-3.65583e-02,1.66026e-01,-4.25690e-02,-3.31983e-02,3.16968e-02,1.84642e-01,-1.53562e-01,7.06478e-03,-9.80570e-03,5.36317e-02,-8.79957e-02,-2.69146e-02,2.48149e-02,-3.23278e-02,8.24581e-02,7.08688e-02,-1.51993e-01,-1.34668e-01,-2.31163e-01,-8.09905e-02,-1.45054e-01,2.98498e-02,-1.75866e-01,-1.33789e-01,-6.04086e-02,-2.67003e-02,8.49156e-02,1.50571e-01,-3.92655e-02,-7.70199e-02,8.43802e-02,-1.17802e-03,-1.17747e-01,8.53465e-02,1.21747e-02,-8.51225e-02,-9.07663e-02,-1.06284e-01,5.32350e-02,3.34888e-02,-5.64703e-02,1.11353e-02,1.37179e-01,4.56964e-02,-1.12178e-01,-2.71233e-01,-2.00670e-01,-9.53040e-03,1.89159e-02,1.98249e-02,9.72907e-02,-6.87847e-02,9.72553e-02,-9.93204e-02,1.00594e-01,-1.43685e-02,4.43226e-02,-1.00440e-01,-1.45516e-02,-6.48051e-02,5.58055e-02,2.64563e-02,-5.90276e-02,-2.00912e-01,-3.63385e-02,-1.28124e-01,1.08553e-01,-1.08146e-01,5.22499e-02,1.01187e-01,6.78632e-02,6.73716e-02,-1.63213e-01,-1.69935e-01,-1.77890e-01,-1.20681e-01,1.03028e-01,9.92514e-02,1.75100e-01,-1.48567e-02,-1.70160e-02,2.10684e-01,2.14430e-01,7.98294e-02,-9.99803e-02,-1.78375e-01,-3.11677e-02,-9.97363e-02,2.88043e-02,1.76843e-01,-1.62071e-01,3.13253e-02,4.57376e-02,-5.65380e-02,-8.77850e-02,1.50461e-01,-1.85092e-01,1.87320e-01,3.22706e-02,4.37479e-02,-2.54318e-01,-1.01476e-01,4.06482e-02,-6.39706e-02,-3.21912e-02,-1.40208e-01,1.86633e-02,1.03764e-01,-1.29265e-02,1.64479e-01,-3.48279e-02,6.45901e-02,2.40942e-02,9.26071e-02,-7.31412e-02,-2.16830e-02,3.30205e-02,6.44265e-02,-8.56397e-02,-1.91868e-01,-2.08512e-02,-1.50747e-01,-8.01664e-03,8.30986e-02,1.41544e-02,5.93909e-02,-1.21833e-02,-1.40757e-02,-4.05232e-02,-1.11652e-02,1.95283e-02,4.26989e-02,1.63699e-01,-5.08049e-02,-1.13219e-01,-3.73838e-02,1.36118e-02,-5.92274e-03,-1.02573e-03,1.13172e-01,-5.99231e-02,-2.14039e-02,5.26380e-02,5.96386e-02,1.24911e-01,1.04418e-01,3.57346e-02,1.20456e-01,-1.11580e-01,5.88875e-02,1.00948e-01,-1.73845e-01,-4.21645e-02,1.29246e-01,9.63500e-03,-9.74751e-03,-6.99664e-02,1.06151e-01,5.15293e-02,2.88950e-02,4.25867e-02,1.51804e-01,1.23595e-01,1.32649e-01,7.18622e-02,8.73231e-02,-8.52109e-02,-7.46802e-03,5.89211e-02,1.95705e-01,1.83080e-01,-4.11053e-02,4.55497e-02,-3.86573e-02,2.84415e-02,-2.91787e-02,-1.37782e-01,8.11480e-02,1.29960e-01,7.36045e-02,-1.20678e-01,1.41346e-02,-1.44269e-01,1.88057e-02,-9.70614e-02,8.53518e-02,1.42443e-02,3.61666e-02,1.08512e-02,-3.98075e-03,-8.46119e-02,1.06828e-01,3.46276e-02,1.93011e-02,-3.98031e-02,1.32668e-01,2.02917e-02,-8.90266e-02,-8.26230e-02,5.31932e-02,1.71688e-02,-3.45577e-02,9.86705e-02,2.30210e-01,-9.99999e-02,-4.91263e-02,6.62192e-02,-1.16193e-01,3.05274e-02,6.12498e-02,5.43811e-02,-1.46217e-01,-6.15094e-02,-1.32725e-01,-3.05500e-02,-5.51104e-02,1.11065e-01,-7.80853e-02,2.72013e-02,2.51354e-02,-6.89689e-02,8.10061e-02,1.48077e-01,-3.36837e-02,2.55470e-02,-4.54315e-02,1.59073e-03,-1.23341e-01,6.86515e-02,-6.05562e-02,6.57816e-02,-5.87828e-02,-2.08010e-01,-1.25979e-01,-1.41557e-01,-1.62512e-01,-1.85938e-01,-2.15127e-02,-5.05122e-02,-7.37360e-02,1.39967e-02,-6.84083e-02,1.86071e-02,5.68704e-02,4.32093e-02,-8.18177e-02,5.49961e-02,3.70033e-02,-1.56893e-01,2.82516e-02,-8.79177e-02,-5.20670e-02,3.39956e-02,-3.67261e-02,1.00341e-01,6.22654e-02,1.65929e-02,-2.77002e-02,2.41283e-02,6.42547e-02,9.97456e-02,-1.01577e-01,1.08936e-02,3.64920e-02,-2.09667e-01,2.10471e-02,-2.77951e-02,-2.03188e-01,3.11182e-02,-2.20727e-01,-1.61961e-02,1.14931e-01,1.07307e-01,5.10323e-03,-4.33439e-02,-1.19658e-01,1.32227e-01,-3.35707e-02,-6.97480e-03,6.66852e-03,-5.78487e-02,1.88630e-01,-5.05651e-02,-2.44796e-02,-1.15123e-01,-4.97350e-03,7.81376e-02,-1.65937e-01,-1.00571e-02,-1.59897e-03,-2.97653e-02,-1.48637e-01,6.12072e-02,4.53066e-02,-5.49129e-02,-7.21524e-03,-3.36474e-03,1.29268e-02,4.32267e-02,9.25612e-02,4.68753e-02,7.15785e-03,6.79702e-02,1.28540e-01,-2.67088e-03,-8.19638e-02,-2.01395e-03,-6.25936e-02,-5.13913e-02,-1.10886e-01,5.30624e-02,1.30734e-01,-1.01188e-01,1.52941e-01,-7.96634e-02,-1.93016e-03,-3.73503e-02,4.46604e-02,2.19013e-02,2.72587e-02,5.36582e-02,6.82313e-02,-1.47530e-01,1.55555e-02,-3.98951e-02,-8.62211e-02,1.32711e-01,-1.70353e-01,9.56240e-02,-1.26001e-02,-3.08914e-02,-1.08238e-01,-4.07039e-02,-8.89303e-03,2.20372e-02,9.75966e-02,-2.12137e-02,
