// Neural Network File Format by Kyle Julian, Stanford 2016
7,784,10,784,
784,100,100,100,100,100,100,10,
0,
-3.4028235e+38,-3.4028235e+38,-3.4028235e+38,-3.4028235e+38,-3.4028235e+38,-3.4028235e+38,-3.4028235e+38,-3.4028235e+38,-3.4028235e+38,-3.4028235e+38,-3.4028235e+38,-3.4028235e+38,-3.4028235e+38,-3.4028235e+38,-3.4028235e+38,-3.4028235e+38,-3.4028235e+38,-3.4028235e+38,-3.4028235e+38,-3.4028235e+38,-3.4028235e+38,-3.4028235e+38,-3.4028235e+38,-3.4028235e+38,-3.4028235e+38,-3.4028235e+38,-3.4028235e+38,-3.4028235e+38,-3.4028235e+38,-3.4028235e+38,-3.4028235e+38,-3.4028235e+38,-3.4028235e+38,-3.4028235e+38,-3.4028235e+38,-3.4028235e+38,-3.4028235e+38,-3.4028235e+38,-3.4028235e+38,-3.4028235e+38,-3.4028235e+38,-3.4028235e+38,-3.4028235e+38,-3.4028235e+38,-3.4028235e+38,-3.4028235e+38,-3.4028235e+38,-3.4028235e+38,-3.4028235e+38,-3.4028235e+38,-3.4028235e+38,-3.4028235e+38,-3.4028235e+38,-3.4028235e+38,-3.4028235e+38,-3.4028235e+38,-3.4028235e+38,-3.4028235e+38,-3.4028235e+38,-3.4028235e+38,-3.4028235e+38,-3.4028235e+38,-3.4028235e+38,-3.4028235e+38,-3.4028235e+38,-3.4028235e+38,-3.4028235e+38,-3.4028235e+38,-3.4028235e+38,-3.4028235e+38,-3.4028235e+38,-3.4028235e+38,-3.4028235e+38,-3.4028235e+38,-3.4028235e+38,-3.4028235e+38,-3.4028235e+38,-3.4028235e+38,-3.4028235e+38,-3.4028235e+38,-3.4028235e+38,-3.4028235e+38,-3.4028235e+38,-3.4028235e+38,-3.4028235e+38,-3.4028235e+38,-3.4028235e+38,-3.4028235e+38,-3.4028235e+38,-3.4028235e+38,-3.4028235e+38,-3.4028235e+38,-3.4028235e+38,-3.4028235e+38,-3.4028235e+38,-3.4028235e+38,-3.4028235e+38,-3.4028235e+38,-3.4028235e+38,-3.4028235e+38,-3.4028235e+38,-3.4028235e+38,-3.4028235e+38,-3.4028235e+38,-3.4028235e+38,-3.4028235e+38,-3.4028235e+38,-3.4028235e+38,-3.4028235e+38,-3.4028235e+38,-3.4028235e+38,-3.4028235e+38,-3.4028235e+38,-3.4028235e+38,-3.4028235e+38,-3.4028235e+38,-3.4028235e+38,-3.4028235e+38,-3.4028235e+38,-3.4028235e+38,-3.4028235e+38,-3.4028235e+38,-3.4028235e+38,-3.4028235e+38,-3.4028235e+38,-3.4028235e+38,-3.4028235e+38,-3.4028235e+38,-3.4028235e+38,-3.4028235e+38,-3.4028235e+38,-3.4028235e+38,-3.4028235e+38,-3.4028235e+38,-3.4028235e+38,-3.4028235e+38,-3.4028235e+38,-3.4028235e+38,-3.4028235e+38,-3.4028235e+38,-3.4028235e+38,-3.4028235e+38,-3.4028235e+38,-3.4028235e+38,-3.4028235e+38,-3.4028235e+38,-3.4028235e+38,-3.4028235e+38,-3.4028235e+38,-3.4028235e+38,-3.4028235e+38,-3.4028235e+38,-3.4028235e+38,-3.4028235e+38,-3.4028235e+38,-3.4028235e+38,-3.4028235e+38,-3.4028235e+38,-3.4028235e+38,-3.4028235e+38,-3.4028235e+38,-3.4028235e+38,-3.4028235e+38,-3.4028235e+38,-3.4028235e+38,-3.4028235e+38,-3.4028235e+38,-3.4028235e+38,-3.4028235e+38,-3.4028235e+38,-3.4028235e+38,-3.4028235e+38,-3.4028235e+38,-3.4028235e+38,-3.4028235e+38,-3.4028235e+38,-3.4028235e+38,-3.4028235e+38,-3.4028235e+38,-3.4028235e+38,-3.4028235e+38,-3.4028235e+38,-3.4028235e+38,-3.4028235e+38,-3.4028235e+38,-3.4028235e+38,-3.4028235e+38,-3.4028235e+38,-3.4028235e+38,-3.4028235e+38,-3.4028235e+38,-3.4028235e+38,-3.4028235e+38,-3.4028235e+38,-3.4028235e+38,-3.4028235e+38,-3.4028235e+38,-3.4028235e+38,-3.4028235e+38,-3.4028235e+38,-3.4028235e+38,-3.4028235e+38,-3.4028235e+38,-3.4028235e+38,-3.4028235e+38,-3.4028235e+38,-3.4028235e+38,-3.4028235e+38,-3.4028235e+38,-3.4028235e+38,-3.4028235e+38,-3.4028235e+38,-3.4028235e+38,-3.4028235e+38,-3.4028235e+38,-3.4028235e+38,-3.4028235e+38,-3.4028235e+38,-3.4028235e+38,-3.4028235e+38,-3.4028235e+38,-3.4028235e+38,-3.4028235e+38,-3.4028235e+38,-3.4028235e+38,-3.4028235e+38,-3.4028235e+38,-3.4028235e+38,-3.4028235e+38,-3.4028235e+38,-3.4028235e+38,-3.4028235e+38,-3.4028235e+38,-3.4028235e+38,-3.4028235e+38,-3.4028235e+38,-3.4028235e+38,-3.4028235e+38,-3.4028235e+38,-3.4028235e+38,-3.4028235e+38,-3.4028235e+38,-3.4028235e+38,-3.4028235e+38,-3.4028235e+38,-3.4028235e+38,-3.4028235e+38,-3.4028235e+38,-3.4028235e+38,-3.4028235e+38,-3.4028235e+38,-3.4028235e+38,-3.4028235e+38,-3.4028235e+38,-3.4028235e+38,-3.4028235e+38,-3.4028235e+38,-3.4028235e+38,-3.4028235e+38,-3.4028235e+38,-3.4028235e+38,-3.4028235e+38,-3.4028235e+38,-3.4028235e+38,-3.4028235e+38,-3.4028235e+38,-3.4028235e+38,-3.4028235e+38,-3.4028235e+38,-3.4028235e+38,-3.4028235e+38,-3.4028235e+38,-3.4028235e+38,-3.4028235e+38,-3.4028235e+38,-3.4028235e+38,-3.4028235e+38,-3.4028235e+38,-3.4028235e+38,-3.4028235e+38,-3.4028235e+38,-3.4028235e+38,-3.4028235e+38,-3.4028235e+38,-3.4028235e+38,-3.4028235e+38,-3.4028235e+38,-3.4028235e+38,-3.4028235e+38,-3.4028235e+38,-3.4028235e+38,-3.4028235e+38,-3.4028235e+38,-3.4028235e+38,-3.4028235e+38,-3.4028235e+38,-3.4028235e+38,-3.4028235e+38,-3.4028235e+38,-3.4028235e+38,-3.4028235e+38,-3.4028235e+38,-3.4028235e+38,-3.4028235e+38,-3.4028235e+38,-3.4028235e+38,-3.4028235e+38,-3.4028235e+38,-3.4028235e+38,-3.4028235e+38,-3.4028235e+38,-3.4028235e+38,-3.4028235e+38,-3.4028235e+38,-3.4028235e+38,-3.4028235e+38,-3.4028235e+38,-3.4028235e+38,-3.4028235e+38,-3.4028235e+38,-3.4028235e+38,-3.4028235e+38,-3.4028235e+38,-3.4028235e+38,-3.4028235e+38,-3.4028235e+38,-3.4028235e+38,-3.4028235e+38,-3.4028235e+38,-3.4028235e+38,-3.4028235e+38,-3.4028235e+38,-3.4028235e+38,-3.4028235e+38,-3.4028235e+38,-3.4028235e+38,-3.4028235e+38,-3.4028235e+38,-3.4028235e+38,-3.4028235e+38,-3.4028235e+38,-3.4028235e+38,-3.4028235e+38,-3.4028235e+38,-3.4028235e+38,-3.4028235e+38,-3.4028235e+38,-3.4028235e+38,-3.4028235e+38,-3.4028235e+38,-3.4028235e+38,-3.4028235e+38,-3.4028235e+38,-3.4028235e+38,-3.4028235e+38,-3.4028235e+38,-3.4028235e+38,-3.4028235e+38,-3.4028235e+38,-3.4028235e+38,-3.4028235e+38,-3.4028235e+38,-3.4028235e+38,-3.4028235e+38,-3.4028235e+38,-3.4028235e+38,-3.4028235e+38,-3.4028235e+38,-3.4028235e+38,-3.4028235e+38,-3.4028235e+38,-3.4028235e+38,-3.4028235e+38,-3.4028235e+38,-3.4028235e+38,-3.4028235e+38,-3.4028235e+38,-3.4028235e+38,-3.4028235e+38,-3.4028235e+38,-3.4028235e+38,-3.4028235e+38,-3.4028235e+38,-3.4028235e+38,-3.4028235e+38,-3.4028235e+38,-3.4028235e+38,-3.4028235e+38,-3.4028235e+38,-3.4028235e+38,-3.4028235e+38,-3.4028235e+38,-3.4028235e+38,-3.4028235e+38,-3.4028235e+38,-3.4028235e+38,-3.4028235e+38,-3.4028235e+38,-3.4028235e+38,-3.4028235e+38,-3.4028235e+38,-3.4028235e+38,-3.4028235e+38,-3.4028235e+38,-3.4028235e+38,-3.4028235e+38,-3.4028235e+38,-3.4028235e+38,-3.4028235e+38,-3.4028235e+38,-3.4028235e+38,-3.4028235e+38,-3.4028235e+38,-3.4028235e+38,-3.4028235e+38,-3.4028235e+38,-3.4028235e+38,-3.4028235e+38,-3.4028235e+38,-3.4028235e+38,-3.4028235e+38,-3.4028235e+38,-3.4028235e+38,-3.4028235e+38,-3.4028235e+38,-3.4028235e+38,-3.4028235e+38,-3.4028235e+38,-3.4028235e+38,-3.4028235e+38,-3.4028235e+38,-3.4028235e+38,-3.4028235e+38,-3.4028235e+38,-3.4028235e+38,-3.4028235e+38,-3.4028235e+38,-3.4028235e+38,-3.4028235e+38,-3.4028235e+38,-3.4028235e+38,-3.4028235e+38,-3.4028235e+38,-3.4028235e+38,-3.4028235e+38,-3.4028235e+38,-3.4028235e+38,-3.4028235e+38,-3.4028235e+38,-3.4028235e+38,-3.4028235e+38,-3.4028235e+38,-3.4028235e+38,-3.4028235e+38,-3.4028235e+38,-3.4028235e+38,-3.4028235e+38,-3.4028235e+38,-3.4028235e+38,-3.4028235e+38,-3.4028235e+38,-3.4028235e+38,-3.4028235e+38,-3.4028235e+38,-3.4028235e+38,-3.4028235e+38,-3.4028235e+38,-3.4028235e+38,-3.4028235e+38,-3.4028235e+38,-3.4028235e+38,-3.4028235e+38,-3.4028235e+38,-3.4028235e+38,-3.4028235e+38,-3.4028235e+38,-3.4028235e+38,-3.4028235e+38,-3.4028235e+38,-3.4028235e+38,-3.4028235e+38,-3.4028235e+38,-3.4028235e+38,-3.4028235e+38,-3.4028235e+38,-3.4028235e+38,-3.4028235e+38,-3.4028235e+38,-3.4028235e+38,-3.4028235e+38,-3.4028235e+38,-3.4028235e+38,-3.4028235e+38,-3.4028235e+38,-3.4028235e+38,-3.4028235e+38,-3.4028235e+38,-3.4028235e+38,-3.4028235e+38,-3.4028235e+38,-3.4028235e+38,-3.4028235e+38,-3.4028235e+38,-3.4028235e+38,-3.4028235e+38,-3.4028235e+38,-3.4028235e+38,-3.4028235e+38,-3.4028235e+38,-3.4028235e+38,-3.4028235e+38,-3.4028235e+38,-3.4028235e+38,-3.4028235e+38,-3.4028235e+38,-3.4028235e+38,-3.4028235e+38,-3.4028235e+38,-3.4028235e+38,-3.4028235e+38,-3.4028235e+38,-3.4028235e+38,-3.4028235e+38,-3.4028235e+38,-3.4028235e+38,-3.4028235e+38,-3.4028235e+38,-3.4028235e+38,-3.4028235e+38,-3.4028235e+38,-3.4028235e+38,-3.4028235e+38,-3.4028235e+38,-3.4028235e+38,-3.4028235e+38,-3.4028235e+38,-3.4028235e+38,-3.4028235e+38,-3.4028235e+38,-3.4028235e+38,-3.4028235e+38,-3.4028235e+38,-3.4028235e+38,-3.4028235e+38,-3.4028235e+38,-3.4028235e+38,-3.4028235e+38,-3.4028235e+38,-3.4028235e+38,-3.4028235e+38,-3.4028235e+38,-3.4028235e+38,-3.4028235e+38,-3.4028235e+38,-3.4028235e+38,-3.4028235e+38,-3.4028235e+38,-3.4028235e+38,-3.4028235e+38,-3.4028235e+38,-3.4028235e+38,-3.4028235e+38,-3.4028235e+38,-3.4028235e+38,-3.4028235e+38,-3.4028235e+38,-3.4028235e+38,-3.4028235e+38,-3.4028235e+38,-3.4028235e+38,-3.4028235e+38,-3.4028235e+38,-3.4028235e+38,-3.4028235e+38,-3.4028235e+38,-3.4028235e+38,-3.4028235e+38,-3.4028235e+38,-3.4028235e+38,-3.4028235e+38,-3.4028235e+38,-3.4028235e+38,-3.4028235e+38,-3.4028235e+38,-3.4028235e+38,-3.4028235e+38,-3.4028235e+38,-3.4028235e+38,-3.4028235e+38,-3.4028235e+38,-3.4028235e+38,-3.4028235e+38,-3.4028235e+38,-3.4028235e+38,-3.4028235e+38,-3.4028235e+38,-3.4028235e+38,-3.4028235e+38,-3.4028235e+38,-3.4028235e+38,-3.4028235e+38,-3.4028235e+38,-3.4028235e+38,-3.4028235e+38,-3.4028235e+38,-3.4028235e+38,-3.4028235e+38,-3.4028235e+38,-3.4028235e+38,-3.4028235e+38,-3.4028235e+38,-3.4028235e+38,-3.4028235e+38,-3.4028235e+38,-3.4028235e+38,-3.4028235e+38,-3.4028235e+38,-3.4028235e+38,-3.4028235e+38,-3.4028235e+38,-3.4028235e+38,-3.4028235e+38,-3.4028235e+38,-3.4028235e+38,-3.4028235e+38,-3.4028235e+38,-3.4028235e+38,-3.4028235e+38,-3.4028235e+38,-3.4028235e+38,-3.4028235e+38,-3.4028235e+38,-3.4028235e+38,-3.4028235e+38,-3.4028235e+38,-3.4028235e+38,-3.4028235e+38,-3.4028235e+38,-3.4028235e+38,-3.4028235e+38,-3.4028235e+38,-3.4028235e+38,-3.4028235e+38,-3.4028235e+38,-3.4028235e+38,-3.4028235e+38,-3.4028235e+38,-3.4028235e+38,-3.4028235e+38,-3.4028235e+38,-3.4028235e+38,-3.4028235e+38,-3.4028235e+38,-3.4028235e+38,-3.4028235e+38,-3.4028235e+38,-3.4028235e+38,-3.4028235e+38,-3.4028235e+38,-3.4028235e+38,-3.4028235e+38,-3.4028235e+38,-3.4028235e+38,-3.4028235e+38,-3.4028235e+38,-3.4028235e+38,-3.4028235e+38,-3.4028235e+38,-3.4028235e+38,-3.4028235e+38,-3.4028235e+38,-3.4028235e+38,-3.4028235e+38,-3.4028235e+38,-3.4028235e+38,-3.4028235e+38,-3.4028235e+38,-3.4028235e+38,-3.4028235e+38,-3.4028235e+38,-3.4028235e+38,-3.4028235e+38,-3.4028235e+38,-3.4028235e+38,-3.4028235e+38,-3.4028235e+38,-3.4028235e+38,-3.4028235e+38,-3.4028235e+38,-3.4028235e+38,-3.4028235e+38,-3.4028235e+38,-3.4028235e+38,-3.4028235e+38,-3.4028235e+38,-3.4028235e+38,-3.4028235e+38,-3.4028235e+38,-3.4028235e+38,-3.4028235e+38,-3.4028235e+38,-3.4028235e+38,-3.4028235e+38,-3.4028235e+38,-3.4028235e+38,-3.4028235e+38,-3.4028235e+38,-3.4028235e+38,-3.4028235e+38,-3.4028235e+38,-3.4028235e+38,-3.4028235e+38,-3.4028235e+38,-3.4028235e+38,-3.4028235e+38,-3.4028235e+38,-3.4028235e+38,-3.4028235e+38,-3.4028235e+38,-3.4028235e+38,-3.4028235e+38,-3.4028235e+38,-3.4028235e+38,-3.4028235e+38,-3.4028235e+38,-3.4028235e+38,-3.4028235e+38,-3.4028235e+38,-3.4028235e+38,-3.4028235e+38,-3.4028235e+38,-3.4028235e+38,-3.4028235e+38,-3.4028235e+38,-3.4028235e+38,-3.4028235e+38,-3.4028235e+38,-3.4028235e+38,-3.4028235e+38,-3.4028235e+38,-3.4028235e+38,-3.4028235e+38,-3.4028235e+38,-3.4028235e+38,-3.4028235e+38,-3.4028235e+38,-3.4028235e+38,-3.4028235e+38,-3.4028235e+38,-3.4028235e+38,-3.4028235e+38,-3.4028235e+38,-3.4028235e+38,-3.4028235e+38,-3.4028235e+38,-3.4028235e+38,-3.4028235e+38,-3.4028235e+38,-3.4028235e+38,-3.4028235e+38,-3.4028235e+38,-3.4028235e+38,-3.4028235e+38,-3.4028235e+38,-3.4028235e+38,-3.4028235e+38,-3.4028235e+38,-3.4028235e+38,-3.4028235e+38,-3.4028235e+38,-3.4028235e+38,-3.4028235e+38,-3.4028235e+38,-3.4028235e+38,-3.4028235e+38,-3.4028235e+38,-3.4028235e+38,-3.4028235e+38,-3.4028235e+38,-3.4028235e+38,-3.4028235e+38,-3.4028235e+38,-3.4028235e+38,-3.4028235e+38,
3.4028235e+38,3.4028235e+38,3.4028235e+38,3.4028235e+38,3.4028235e+38,3.4028235e+38,3.4028235e+38,3.4028235e+38,3.4028235e+38,3.4028235e+38,3.4028235e+38,3.4028235e+38,3.4028235e+38,3.4028235e+38,3.4028235e+38,3.4028235e+38,3.4028235e+38,3.4028235e+38,3.4028235e+38,3.4028235e+38,3.4028235e+38,3.4028235e+38,3.4028235e+38,3.4028235e+38,3.4028235e+38,3.4028235e+38,3.4028235e+38,3.4028235e+38,3.4028235e+38,3.4028235e+38,3.4028235e+38,3.4028235e+38,3.4028235e+38,3.4028235e+38,3.4028235e+38,3.4028235e+38,3.4028235e+38,3.4028235e+38,3.4028235e+38,3.4028235e+38,3.4028235e+38,3.4028235e+38,3.4028235e+38,3.4028235e+38,3.4028235e+38,3.4028235e+38,3.4028235e+38,3.4028235e+38,3.4028235e+38,3.4028235e+38,3.4028235e+38,3.4028235e+38,3.4028235e+38,3.4028235e+38,3.4028235e+38,3.4028235e+38,3.4028235e+38,3.4028235e+38,3.4028235e+38,3.4028235e+38,3.4028235e+38,3.4028235e+38,3.4028235e+38,3.4028235e+38,3.4028235e+38,3.4028235e+38,3.4028235e+38,3.4028235e+38,3.4028235e+38,3.4028235e+38,3.4028235e+38,3.4028235e+38,3.4028235e+38,3.4028235e+38,3.4028235e+38,3.4028235e+38,3.4028235e+38,3.4028235e+38,3.4028235e+38,3.4028235e+38,3.4028235e+38,3.4028235e+38,3.4028235e+38,3.4028235e+38,3.4028235e+38,3.4028235e+38,3.4028235e+38,3.4028235e+38,3.4028235e+38,3.4028235e+38,3.4028235e+38,3.4028235e+38,3.4028235e+38,3.4028235e+38,3.4028235e+38,3.4028235e+38,3.4028235e+38,3.4028235e+38,3.4028235e+38,3.4028235e+38,3.4028235e+38,3.4028235e+38,3.4028235e+38,3.4028235e+38,3.4028235e+38,3.4028235e+38,3.4028235e+38,3.4028235e+38,3.4028235e+38,3.4028235e+38,3.4028235e+38,3.4028235e+38,3.4028235e+38,3.4028235e+38,3.4028235e+38,3.4028235e+38,3.4028235e+38,3.4028235e+38,3.4028235e+38,3.4028235e+38,3.4028235e+38,3.4028235e+38,3.4028235e+38,3.4028235e+38,3.4028235e+38,3.4028235e+38,3.4028235e+38,3.4028235e+38,3.4028235e+38,3.4028235e+38,3.4028235e+38,3.4028235e+38,3.4028235e+38,3.4028235e+38,3.4028235e+38,3.4028235e+38,3.4028235e+38,3.4028235e+38,3.4028235e+38,3.4028235e+38,3.4028235e+38,3.4028235e+38,3.4028235e+38,3.4028235e+38,3.4028235e+38,3.4028235e+38,3.4028235e+38,3.4028235e+38,3.4028235e+38,3.4028235e+38,3.4028235e+38,3.4028235e+38,3.4028235e+38,3.4028235e+38,3.4028235e+38,3.4028235e+38,3.4028235e+38,3.4028235e+38,3.4028235e+38,3.4028235e+38,3.4028235e+38,3.4028235e+38,3.4028235e+38,3.4028235e+38,3.4028235e+38,3.4028235e+38,3.4028235e+38,3.4028235e+38,3.4028235e+38,3.4028235e+38,3.4028235e+38,3.4028235e+38,3.4028235e+38,3.4028235e+38,3.4028235e+38,3.4028235e+38,3.4028235e+38,3.4028235e+38,3.4028235e+38,3.4028235e+38,3.4028235e+38,3.4028235e+38,3.4028235e+38,3.4028235e+38,3.4028235e+38,3.4028235e+38,3.4028235e+38,3.4028235e+38,3.4028235e+38,3.4028235e+38,3.4028235e+38,3.4028235e+38,3.4028235e+38,3.4028235e+38,3.4028235e+38,3.4028235e+38,3.4028235e+38,3.4028235e+38,3.4028235e+38,3.4028235e+38,3.4028235e+38,3.4028235e+38,3.4028235e+38,3.4028235e+38,3.4028235e+38,3.4028235e+38,3.4028235e+38,3.4028235e+38,3.4028235e+38,3.4028235e+38,3.4028235e+38,3.4028235e+38,3.4028235e+38,3.4028235e+38,3.4028235e+38,3.4028235e+38,3.4028235e+38,3.4028235e+38,3.4028235e+38,3.4028235e+38,3.4028235e+38,3.4028235e+38,3.4028235e+38,3.4028235e+38,3.4028235e+38,3.4028235e+38,3.4028235e+38,3.4028235e+38,3.4028235e+38,3.4028235e+38,3.4028235e+38,3.4028235e+38,3.4028235e+38,3.4028235e+38,3.4028235e+38,3.4028235e+38,3.4028235e+38,3.4028235e+38,3.4028235e+38,3.4028235e+38,3.4028235e+38,3.4028235e+38,3.4028235e+38,3.4028235e+38,3.4028235e+38,3.4028235e+38,3.4028235e+38,3.4028235e+38,3.4028235e+38,3.4028235e+38,3.4028235e+38,3.4028235e+38,3.4028235e+38,3.4028235e+38,3.4028235e+38,3.4028235e+38,3.4028235e+38,3.4028235e+38,3.4028235e+38,3.4028235e+38,3.4028235e+38,3.4028235e+38,3.4028235e+38,3.4028235e+38,3.4028235e+38,3.4028235e+38,3.4028235e+38,3.4028235e+38,3.4028235e+38,3.4028235e+38,3.4028235e+38,3.4028235e+38,3.4028235e+38,3.4028235e+38,3.4028235e+38,3.4028235e+38,3.4028235e+38,3.4028235e+38,3.4028235e+38,3.4028235e+38,3.4028235e+38,3.4028235e+38,3.4028235e+38,3.4028235e+38,3.4028235e+38,3.4028235e+38,3.4028235e+38,3.4028235e+38,3.4028235e+38,3.4028235e+38,3.4028235e+38,3.4028235e+38,3.4028235e+38,3.4028235e+38,3.4028235e+38,3.4028235e+38,3.4028235e+38,3.4028235e+38,3.4028235e+38,3.4028235e+38,3.4028235e+38,3.4028235e+38,3.4028235e+38,3.4028235e+38,3.4028235e+38,3.4028235e+38,3.4028235e+38,3.4028235e+38,3.4028235e+38,3.4028235e+38,3.4028235e+38,3.4028235e+38,3.4028235e+38,3.4028235e+38,3.4028235e+38,3.4028235e+38,3.4028235e+38,3.4028235e+38,3.4028235e+38,3.4028235e+38,3.4028235e+38,3.4028235e+38,3.4028235e+38,3.4028235e+38,3.4028235e+38,3.4028235e+38,3.4028235e+38,3.4028235e+38,3.4028235e+38,3.4028235e+38,3.4028235e+38,3.4028235e+38,3.4028235e+38,3.4028235e+38,3.4028235e+38,3.4028235e+38,3.4028235e+38,3.4028235e+38,3.4028235e+38,3.4028235e+38,3.4028235e+38,3.4028235e+38,3.4028235e+38,3.4028235e+38,3.4028235e+38,3.4028235e+38,3.4028235e+38,3.4028235e+38,3.4028235e+38,3.4028235e+38,3.4028235e+38,3.4028235e+38,3.4028235e+38,3.4028235e+38,3.4028235e+38,3.4028235e+38,3.4028235e+38,3.4028235e+38,3.4028235e+38,3.4028235e+38,3.4028235e+38,3.4028235e+38,3.4028235e+38,3.4028235e+38,3.4028235e+38,3.4028235e+38,3.4028235e+38,3.4028235e+38,3.4028235e+38,3.4028235e+38,3.4028235e+38,3.4028235e+38,3.4028235e+38,3.4028235e+38,3.4028235e+38,3.4028235e+38,3.4028235e+38,3.4028235e+38,3.4028235e+38,3.4028235e+38,3.4028235e+38,3.4028235e+38,3.4028235e+38,3.4028235e+38,3.4028235e+38,3.4028235e+38,3.4028235e+38,3.4028235e+38,3.4028235e+38,3.4028235e+38,3.4028235e+38,3.4028235e+38,3.4028235e+38,3.4028235e+38,3.4028235e+38,3.4028235e+38,3.4028235e+38,3.4028235e+38,3.4028235e+38,3.4028235e+38,3.4028235e+38,3.4028235e+38,3.4028235e+38,3.4028235e+38,3.4028235e+38,3.4028235e+38,3.4028235e+38,3.4028235e+38,3.4028235e+38,3.4028235e+38,3.4028235e+38,3.4028235e+38,3.4028235e+38,3.4028235e+38,3.4028235e+38,3.4028235e+38,3.4028235e+38,3.4028235e+38,3.4028235e+38,3.4028235e+38,3.4028235e+38,3.4028235e+38,3.4028235e+38,3.4028235e+38,3.4028235e+38,3.4028235e+38,3.4028235e+38,3.4028235e+38,3.4028235e+38,3.4028235e+38,3.4028235e+38,3.4028235e+38,3.4028235e+38,3.4028235e+38,3.4028235e+38,3.4028235e+38,3.4028235e+38,3.4028235e+38,3.4028235e+38,3.4028235e+38,3.4028235e+38,3.4028235e+38,3.4028235e+38,3.4028235e+38,3.4028235e+38,3.4028235e+38,3.4028235e+38,3.4028235e+38,3.4028235e+38,3.4028235e+38,3.4028235e+38,3.4028235e+38,3.4028235e+38,3.4028235e+38,3.4028235e+38,3.4028235e+38,3.4028235e+38,3.4028235e+38,3.4028235e+38,3.4028235e+38,3.4028235e+38,3.4028235e+38,3.4028235e+38,3.4028235e+38,3.4028235e+38,3.4028235e+38,3.4028235e+38,3.4028235e+38,3.4028235e+38,3.4028235e+38,3.4028235e+38,3.4028235e+38,3.4028235e+38,3.4028235e+38,3.4028235e+38,3.4028235e+38,3.4028235e+38,3.4028235e+38,3.4028235e+38,3.4028235e+38,3.4028235e+38,3.4028235e+38,3.4028235e+38,3.4028235e+38,3.4028235e+38,3.4028235e+38,3.4028235e+38,3.4028235e+38,3.4028235e+38,3.4028235e+38,3.4028235e+38,3.4028235e+38,3.4028235e+38,3.4028235e+38,3.4028235e+38,3.4028235e+38,3.4028235e+38,3.4028235e+38,3.4028235e+38,3.4028235e+38,3.4028235e+38,3.4028235e+38,3.4028235e+38,3.4028235e+38,3.4028235e+38,3.4028235e+38,3.4028235e+38,3.4028235e+38,3.4028235e+38,3.4028235e+38,3.4028235e+38,3.4028235e+38,3.4028235e+38,3.4028235e+38,3.4028235e+38,3.4028235e+38,3.4028235e+38,3.4028235e+38,3.4028235e+38,3.4028235e+38,3.4028235e+38,3.4028235e+38,3.4028235e+38,3.4028235e+38,3.4028235e+38,3.4028235e+38,3.4028235e+38,3.4028235e+38,3.4028235e+38,3.4028235e+38,3.4028235e+38,3.4028235e+38,3.4028235e+38,3.4028235e+38,3.4028235e+38,3.4028235e+38,3.4028235e+38,3.4028235e+38,3.4028235e+38,3.4028235e+38,3.4028235e+38,3.4028235e+38,3.4028235e+38,3.4028235e+38,3.4028235e+38,3.4028235e+38,3.4028235e+38,3.4028235e+38,3.4028235e+38,3.4028235e+38,3.4028235e+38,3.4028235e+38,3.4028235e+38,3.4028235e+38,3.4028235e+38,3.4028235e+38,3.4028235e+38,3.4028235e+38,3.4028235e+38,3.4028235e+38,3.4028235e+38,3.4028235e+38,3.4028235e+38,3.4028235e+38,3.4028235e+38,3.4028235e+38,3.4028235e+38,3.4028235e+38,3.4028235e+38,3.4028235e+38,3.4028235e+38,3.4028235e+38,3.4028235e+38,3.4028235e+38,3.4028235e+38,3.4028235e+38,3.4028235e+38,3.4028235e+38,3.4028235e+38,3.4028235e+38,3.4028235e+38,3.4028235e+38,3.4028235e+38,3.4028235e+38,3.4028235e+38,3.4028235e+38,3.4028235e+38,3.4028235e+38,3.4028235e+38,3.4028235e+38,3.4028235e+38,3.4028235e+38,3.4028235e+38,3.4028235e+38,3.4028235e+38,3.4028235e+38,3.4028235e+38,3.4028235e+38,3.4028235e+38,3.4028235e+38,3.4028235e+38,3.4028235e+38,3.4028235e+38,3.4028235e+38,3.4028235e+38,3.4028235e+38,3.4028235e+38,3.4028235e+38,3.4028235e+38,3.4028235e+38,3.4028235e+38,3.4028235e+38,3.4028235e+38,3.4028235e+38,3.4028235e+38,3.4028235e+38,3.4028235e+38,3.4028235e+38,3.4028235e+38,3.4028235e+38,3.4028235e+38,3.4028235e+38,3.4028235e+38,3.4028235e+38,3.4028235e+38,3.4028235e+38,3.4028235e+38,3.4028235e+38,3.4028235e+38,3.4028235e+38,3.4028235e+38,3.4028235e+38,3.4028235e+38,3.4028235e+38,3.4028235e+38,3.4028235e+38,3.4028235e+38,3.4028235e+38,3.4028235e+38,3.4028235e+38,3.4028235e+38,3.4028235e+38,3.4028235e+38,3.4028235e+38,3.4028235e+38,3.4028235e+38,3.4028235e+38,3.4028235e+38,3.4028235e+38,3.4028235e+38,3.4028235e+38,3.4028235e+38,3.4028235e+38,3.4028235e+38,3.4028235e+38,3.4028235e+38,3.4028235e+38,3.4028235e+38,3.4028235e+38,3.4028235e+38,3.4028235e+38,3.4028235e+38,3.4028235e+38,3.4028235e+38,3.4028235e+38,3.4028235e+38,3.4028235e+38,3.4028235e+38,3.4028235e+38,3.4028235e+38,3.4028235e+38,3.4028235e+38,3.4028235e+38,3.4028235e+38,3.4028235e+38,3.4028235e+38,3.4028235e+38,3.4028235e+38,3.4028235e+38,3.4028235e+38,3.4028235e+38,3.4028235e+38,3.4028235e+38,3.4028235e+38,3.4028235e+38,3.4028235e+38,3.4028235e+38,3.4028235e+38,3.4028235e+38,3.4028235e+38,3.4028235e+38,3.4028235e+38,3.4028235e+38,3.4028235e+38,3.4028235e+38,3.4028235e+38,3.4028235e+38,3.4028235e+38,3.4028235e+38,3.4028235e+38,3.4028235e+38,3.4028235e+38,3.4028235e+38,3.4028235e+38,3.4028235e+38,3.4028235e+38,3.4028235e+38,3.4028235e+38,3.4028235e+38,3.4028235e+38,3.4028235e+38,3.4028235e+38,3.4028235e+38,3.4028235e+38,3.4028235e+38,3.4028235e+38,3.4028235e+38,3.4028235e+38,3.4028235e+38,3.4028235e+38,3.4028235e+38,3.4028235e+38,3.4028235e+38,3.4028235e+38,3.4028235e+38,3.4028235e+38,3.4028235e+38,3.4028235e+38,3.4028235e+38,3.4028235e+38,3.4028235e+38,3.4028235e+38,3.4028235e+38,3.4028235e+38,3.4028235e+38,3.4028235e+38,3.4028235e+38,3.4028235e+38,3.4028235e+38,3.4028235e+38,3.4028235e+38,3.4028235e+38,3.4028235e+38,3.4028235e+38,3.4028235e+38,3.4028235e+38,3.4028235e+38,3.4028235e+38,3.4028235e+38,3.4028235e+38,3.4028235e+38,3.4028235e+38,3.4028235e+38,3.4028235e+38,3.4028235e+38,3.4028235e+38,3.4028235e+38,3.4028235e+38,3.4028235e+38,3.4028235e+38,3.4028235e+38,3.4028235e+38,3.4028235e+38,3.4028235e+38,3.4028235e+38,3.4028235e+38,3.4028235e+38,3.4028235e+38,3.4028235e+38,3.4028235e+38,3.4028235e+38,3.4028235e+38,3.4028235e+38,3.4028235e+38,3.4028235e+38,3.4028235e+38,3.4028235e+38,3.4028235e+38,3.4028235e+38,3.4028235e+38,3.4028235e+38,3.4028235e+38,3.4028235e+38,3.4028235e+38,
0.0,0.0,0.0,0.0,0.0,0.0,0.0,0.0,0.0,0.0,0.0,0.0,0.0,0.0,0.0,0.0,0.0,0.0,0.0,0.0,0.0,0.0,0.0,0.0,0.0,0.0,0.0,0.0,0.0,0.0,0.0,0.0,0.0,0.0,0.0,0.0,0.0,0.0,0.0,0.0,0.0,0.0,0.0,0.0,0.0,0.0,0.0,0.0,0.0,0.0,0.0,0.0,0.0,0.0,0.0,0.0,0.0,0.0,0.0,0.0,0.0,0.0,0.0,0.0,0.0,0.0,0.0,0.0,0.0,0.0,0.0,0.0,0.0,0.0,0.0,0.0,0.0,0.0,0.0,0.0,0.0,0.0,0.0,0.0,0.0,0.0,0.0,0.0,0.0,0.0,0.0,0.0,0.0,0.0,0.0,0.0,0.0,0.0,0.0,0.0,0.0,0.0,0.0,0.0,0.0,0.0,0.0,0.0,0.0,0.0,0.0,0.0,0.0,0.0,0.0,0.0,0.0,0.0,0.0,0.0,0.0,0.0,0.0,0.0,0.0,0.0,0.0,0.0,0.0,0.0,0.0,0.0,0.0,0.0,0.0,0.0,0.0,0.0,0.0,0.0,0.0,0.0,0.0,0.0,0.0,0.0,0.0,0.0,0.0,0.0,0.0,0.0,0.0,0.0,0.0,0.0,0.0,0.0,0.0,0.0,0.0,0.0,0.0,0.0,0.0,0.0,0.0,0.0,0.0,0.0,0.0,0.0,0.0,0.0,0.0,0.0,0.0,0.0,0.0,0.0,0.0,0.0,0.0,0.0,0.0,0.0,0.0,0.0,0.0,0.0,0.0,0.0,0.0,0.0,0.0,0.0,0.0,0.0,0.0,0.0,0.0,0.0,0.0,0.0,0.0,0.0,0.0,0.0,0.0,0.0,0.0,0.0,0.0,0.0,0.0,0.0,0.0,0.0,0.0,0.0,0.0,0.0,0.0,0.0,0.0,0.0,0.0,0.0,0.0,0.0,0.0,0.0,0.0,0.0,0.0,0.0,0.0,0.0,0.0,0.0,0.0,0.0,0.0,0.0,0.0,0.0,0.0,0.0,0.0,0.0,0.0,0.0,0.0,0.0,0.0,0.0,0.0,0.0,0.0,0.0,0.0,0.0,0.0,0.0,0.0,0.0,0.0,0.0,0.0,0.0,0.0,0.0,0.0,0.0,0.0,0.0,0.0,0.0,0.0,0.0,0.0,0.0,0.0,0.0,0.0,0.0,0.0,0.0,0.0,0.0,0.0,0.0,0.0,0.0,0.0,0.0,0.0,0.0,0.0,0.0,0.0,0.0,0.0,0.0,0.0,0.0,0.0,0.0,0.0,0.0,0.0,0.0,0.0,0.0,0.0,0.0,0.0,0.0,0.0,0.0,0.0,0.0,0.0,0.0,0.0,0.0,0.0,0.0,0.0,0.0,0.0,0.0,0.0,0.0,0.0,0.0,0.0,0.0,0.0,0.0,0.0,0.0,0.0,0.0,0.0,0.0,0.0,0.0,0.0,0.0,0.0,0.0,0.0,0.0,0.0,0.0,0.0,0.0,0.0,0.0,0.0,0.0,0.0,0.0,0.0,0.0,0.0,0.0,0.0,0.0,0.0,0.0,0.0,0.0,0.0,0.0,0.0,0.0,0.0,0.0,0.0,0.0,0.0,0.0,0.0,0.0,0.0,0.0,0.0,0.0,0.0,0.0,0.0,0.0,0.0,0.0,0.0,0.0,0.0,0.0,0.0,0.0,0.0,0.0,0.0,0.0,0.0,0.0,0.0,0.0,0.0,0.0,0.0,0.0,0.0,0.0,0.0,0.0,0.0,0.0,0.0,0.0,0.0,0.0,0.0,0.0,0.0,0.0,0.0,0.0,0.0,0.0,0.0,0.0,0.0,0.0,0.0,0.0,0.0,0.0,0.0,0.0,0.0,0.0,0.0,0.0,0.0,0.0,0.0,0.0,0.0,0.0,0.0,0.0,0.0,0.0,0.0,0.0,0.0,0.0,0.0,0.0,0.0,0.0,0.0,0.0,0.0,0.0,0.0,0.0,0.0,0.0,0.0,0.0,0.0,0.0,0.0,0.0,0.0,0.0,0.0,0.0,0.0,0.0,0.0,0.0,0.0,0.0,0.0,0.0,0.0,0.0,0.0,0.0,0.0,0.0,0.0,0.0,0.0,0.0,0.0,0.0,0.0,0.0,0.0,0.0,0.0,0.0,0.0,0.0,0.0,0.0,0.0,0.0,0.0,0.0,0.0,0.0,0.0,0.0,0.0,0.0,0.0,0.0,0.0,0.0,0.0,0.0,0.0,0.0,0.0,0.0,0.0,0.0,0.0,0.0,0.0,0.0,0.0,0.0,0.0,0.0,0.0,0.0,0.0,0.0,0.0,0.0,0.0,0.0,0.0,0.0,0.0,0.0,0.0,0.0,0.0,0.0,0.0,0.0,0.0,0.0,0.0,0.0,0.0,0.0,0.0,0.0,0.0,0.0,0.0,0.0,0.0,0.0,0.0,0.0,0.0,0.0,0.0,0.0,0.0,0.0,0.0,0.0,0.0,0.0,0.0,0.0,0.0,0.0,0.0,0.0,0.0,0.0,0.0,0.0,0.0,0.0,0.0,0.0,0.0,0.0,0.0,0.0,0.0,0.0,0.0,0.0,0.0,0.0,0.0,0.0,0.0,0.0,0.0,0.0,0.0,0.0,0.0,0.0,0.0,0.0,0.0,0.0,0.0,0.0,0.0,0.0,0.0,0.0,0.0,0.0,0.0,0.0,0.0,0.0,0.0,0.0,0.0,0.0,0.0,0.0,0.0,0.0,0.0,0.0,0.0,0.0,0.0,0.0,0.0,0.0,0.0,0.0,0.0,0.0,0.0,0.0,0.0,0.0,0.0,0.0,0.0,0.0,0.0,0.0,0.0,0.0,0.0,0.0,0.0,0.0,0.0,0.0,0.0,0.0,0.0,0.0,0.0,0.0,0.0,0.0,0.0,0.0,0.0,0.0,0.0,0.0,0.0,0.0,0.0,0.0,0.0,0.0,0.0,0.0,0.0,0.0,0.0,0.0,0.0,0.0,0.0,0.0,0.0,0.0,0.0,0.0,0.0,0.0,0.0,0.0,0.0,0.0,0.0,0.0,0.0,0.0,0.0,0.0,0.0,0.0,0.0,0.0,0.0,0.0,0.0,0.0,0.0,0.0,0.0,0.0,0.0,0.0,0.0,0.0,0.0,0.0,0.0,0.0,0.0,0.0,0.0,0.0,0.0,0.0,0.0,0.0,0.0,0.0,0.0,0.0,0.0,0.0,0.0,0.0,0.0,0.0,0.0,0.0,0.0,0.0,0.0,0.0,0.0,0.0,0.0,0.0,0.0,0.0,0.0,0.0,0.0,0.0,0.0,0.0,0.0,0.0,0.0,0.0,0.0,0.0,0.0,0.0,0.0,
1.0,1.0,1.0,1.0,1.0,1.0,1.0,1.0,1.0,1.0,1.0,1.0,1.0,1.0,1.0,1.0,1.0,1.0,1.0,1.0,1.0,1.0,1.0,1.0,1.0,1.0,1.0,1.0,1.0,1.0,1.0,1.0,1.0,1.0,1.0,1.0,1.0,1.0,1.0,1.0,1.0,1.0,1.0,1.0,1.0,1.0,1.0,1.0,1.0,1.0,1.0,1.0,1.0,1.0,1.0,1.0,1.0,1.0,1.0,1.0,1.0,1.0,1.0,1.0,1.0,1.0,1.0,1.0,1.0,1.0,1.0,1.0,1.0,1.0,1.0,1.0,1.0,1.0,1.0,1.0,1.0,1.0,1.0,1.0,1.0,1.0,1.0,1.0,1.0,1.0,1.0,1.0,1.0,1.0,1.0,1.0,1.0,1.0,1.0,1.0,1.0,1.0,1.0,1.0,1.0,1.0,1.0,1.0,1.0,1.0,1.0,1.0,1.0,1.0,1.0,1.0,1.0,1.0,1.0,1.0,1.0,1.0,1.0,1.0,1.0,1.0,1.0,1.0,1.0,1.0,1.0,1.0,1.0,1.0,1.0,1.0,1.0,1.0,1.0,1.0,1.0,1.0,1.0,1.0,1.0,1.0,1.0,1.0,1.0,1.0,1.0,1.0,1.0,1.0,1.0,1.0,1.0,1.0,1.0,1.0,1.0,1.0,1.0,1.0,1.0,1.0,1.0,1.0,1.0,1.0,1.0,1.0,1.0,1.0,1.0,1.0,1.0,1.0,1.0,1.0,1.0,1.0,1.0,1.0,1.0,1.0,1.0,1.0,1.0,1.0,1.0,1.0,1.0,1.0,1.0,1.0,1.0,1.0,1.0,1.0,1.0,1.0,1.0,1.0,1.0,1.0,1.0,1.0,1.0,1.0,1.0,1.0,1.0,1.0,1.0,1.0,1.0,1.0,1.0,1.0,1.0,1.0,1.0,1.0,1.0,1.0,1.0,1.0,1.0,1.0,1.0,1.0,1.0,1.0,1.0,1.0,1.0,1.0,1.0,1.0,1.0,1.0,1.0,1.0,1.0,1.0,1.0,1.0,1.0,1.0,1.0,1.0,1.0,1.0,1.0,1.0,1.0,1.0,1.0,1.0,1.0,1.0,1.0,1.0,1.0,1.0,1.0,1.0,1.0,1.0,1.0,1.0,1.0,1.0,1.0,1.0,1.0,1.0,1.0,1.0,1.0,1.0,1.0,1.0,1.0,1.0,1.0,1.0,1.0,1.0,1.0,1.0,1.0,1.0,1.0,1.0,1.0,1.0,1.0,1.0,1.0,1.0,1.0,1.0,1.0,1.0,1.0,1.0,1.0,1.0,1.0,1.0,1.0,1.0,1.0,1.0,1.0,1.0,1.0,1.0,1.0,1.0,1.0,1.0,1.0,1.0,1.0,1.0,1.0,1.0,1.0,1.0,1.0,1.0,1.0,1.0,1.0,1.0,1.0,1.0,1.0,1.0,1.0,1.0,1.0,1.0,1.0,1.0,1.0,1.0,1.0,1.0,1.0,1.0,1.0,1.0,1.0,1.0,1.0,1.0,1.0,1.0,1.0,1.0,1.0,1.0,1.0,1.0,1.0,1.0,1.0,1.0,1.0,1.0,1.0,1.0,1.0,1.0,1.0,1.0,1.0,1.0,1.0,1.0,1.0,1.0,1.0,1.0,1.0,1.0,1.0,1.0,1.0,1.0,1.0,1.0,1.0,1.0,1.0,1.0,1.0,1.0,1.0,1.0,1.0,1.0,1.0,1.0,1.0,1.0,1.0,1.0,1.0,1.0,1.0,1.0,1.0,1.0,1.0,1.0,1.0,1.0,1.0,1.0,1.0,1.0,1.0,1.0,1.0,1.0,1.0,1.0,1.0,1.0,1.0,1.0,1.0,1.0,1.0,1.0,1.0,1.0,1.0,1.0,1.0,1.0,1.0,1.0,1.0,1.0,1.0,1.0,1.0,1.0,1.0,1.0,1.0,1.0,1.0,1.0,1.0,1.0,1.0,1.0,1.0,1.0,1.0,1.0,1.0,1.0,1.0,1.0,1.0,1.0,1.0,1.0,1.0,1.0,1.0,1.0,1.0,1.0,1.0,1.0,1.0,1.0,1.0,1.0,1.0,1.0,1.0,1.0,1.0,1.0,1.0,1.0,1.0,1.0,1.0,1.0,1.0,1.0,1.0,1.0,1.0,1.0,1.0,1.0,1.0,1.0,1.0,1.0,1.0,1.0,1.0,1.0,1.0,1.0,1.0,1.0,1.0,1.0,1.0,1.0,1.0,1.0,1.0,1.0,1.0,1.0,1.0,1.0,1.0,1.0,1.0,1.0,1.0,1.0,1.0,1.0,1.0,1.0,1.0,1.0,1.0,1.0,1.0,1.0,1.0,1.0,1.0,1.0,1.0,1.0,1.0,1.0,1.0,1.0,1.0,1.0,1.0,1.0,1.0,1.0,1.0,1.0,1.0,1.0,1.0,1.0,1.0,1.0,1.0,1.0,1.0,1.0,1.0,1.0,1.0,1.0,1.0,1.0,1.0,1.0,1.0,1.0,1.0,1.0,1.0,1.0,1.0,1.0,1.0,1.0,1.0,1.0,1.0,1.0,1.0,1.0,1.0,1.0,1.0,1.0,1.0,1.0,1.0,1.0,1.0,1.0,1.0,1.0,1.0,1.0,1.0,1.0,1.0,1.0,1.0,1.0,1.0,1.0,1.0,1.0,1.0,1.0,1.0,1.0,1.0,1.0,1.0,1.0,1.0,1.0,1.0,1.0,1.0,1.0,1.0,1.0,1.0,1.0,1.0,1.0,1.0,1.0,1.0,1.0,1.0,1.0,1.0,1.0,1.0,1.0,1.0,1.0,1.0,1.0,1.0,1.0,1.0,1.0,1.0,1.0,1.0,1.0,1.0,1.0,1.0,1.0,1.0,1.0,1.0,1.0,1.0,1.0,1.0,1.0,1.0,1.0,1.0,1.0,1.0,1.0,1.0,1.0,1.0,1.0,1.0,1.0,1.0,1.0,1.0,1.0,1.0,1.0,1.0,1.0,1.0,1.0,1.0,1.0,1.0,1.0,1.0,1.0,1.0,1.0,1.0,1.0,1.0,1.0,1.0,1.0,1.0,1.0,1.0,1.0,1.0,1.0,1.0,1.0,1.0,1.0,1.0,1.0,1.0,1.0,1.0,1.0,1.0,1.0,1.0,1.0,1.0,1.0,1.0,1.0,1.0,1.0,1.0,1.0,1.0,1.0,1.0,1.0,1.0,1.0,1.0,1.0,1.0,1.0,1.0,1.0,1.0,1.0,1.0,1.0,1.0,1.0,1.0,1.0,1.0,1.0,1.0,1.0,1.0,1.0,1.0,1.0,1.0,1.0,1.0,1.0,1.0,1.0,1.0,1.0,1.0,1.0,1.0,1.0,1.0,1.0,1.0,
-2.89872e-02,1.24150e-02,-6.17585e-03,-3.36666e-02,-2.20254e-02,2.37799e-02,9.26639e-05,2.79829e-02,-1.31104e-02,-3.03847e-02,1.94688e-02,3.10385e-02,1.30063e-02,5.14123e-02,4.26905e-02,1.73103e-02,8.09342e-03,3.53485e-02,1.50711e-02,2.40507e-02,2.27170e-02,2.75669e-02,1.51134e-02,-2.19090e-02,1.87468e-02,-3.27775e-02,-2.80006e-02,2.31416e-02,1.77145e-02,-1.18152e-02,-1.61441e-02,-3.54360e-02,-1.94067e-02,-1.49004e-02,2.76743e-02,1.77978e-02,5.28299e-02,-2.21621e-02,-3.66411e-02,5.06985e-02,1.46126e-01,-1.38977e-03,1.25974e-02,-2.62579e-02,6.32271e-02,2.25002e-02,4.99712e-02,3.82515e-02,-2.32459e-02,2.00409e-02,-1.68933e-02,9.66414e-03,-2.70387e-02,3.67363e-03,9.17124e-03,-7.44832e-03,1.65103e-02,-1.13573e-02,-3.24590e-02,-2.13201e-02,-2.28671e-02,3.15999e-02,5.41570e-02,8.54406e-02,2.19245e-02,7.33509e-02,1.54405e-01,3.24470e-01,-1.26627e-01,-2.23599e-01,-4.00504e-01,-3.49150e-01,-4.66629e-01,-2.81864e-01,-9.60568e-02,-1.92083e-01,-2.26495e-01,-5.88215e-02,3.30616e-03,5.46862e-02,5.16954e-02,4.02158e-02,-2.86838e-02,2.99062e-02,2.00331e-02,1.00034e-02,2.64762e-03,3.15762e-02,4.13107e-02,7.14774e-02,1.80403e-01,6.30357e-01,5.68698e-01,1.87135e-01,8.37560e-02,4.67833e-01,1.01021e-01,-1.46433e-01,-3.30500e-01,-3.87290e-01,-6.37421e-01,-3.55404e-01,-1.47929e-01,-8.17311e-02,-3.10466e-01,-2.24460e-01,-1.94815e-01,-1.83568e-03,-2.52898e-02,5.17552e-03,-1.73655e-02,-1.81364e-02,-4.97716e-04,3.51449e-03,8.62243e-02,2.52802e-01,1.63969e-01,-5.38472e-02,1.13078e-01,3.95662e-01,9.76136e-02,-1.16672e-01,-3.23467e-03,2.27349e-01,2.67078e-01,2.64473e-01,1.13011e-01,-1.04540e-01,-4.78211e-01,-6.20961e-01,-2.24203e-01,-2.85506e-01,-2.53748e-01,-3.65295e-01,-1.23147e-01,-3.95779e-03,-1.34991e-01,-1.81979e-01,-5.76860e-02,3.42826e-02,1.10201e-02,1.39377e-03,1.57829e-01,2.83542e-01,1.04229e-01,-4.55470e-02,4.98547e-02,1.89072e-01,8.26849e-02,1.49308e-01,-5.50827e-02,-4.61642e-02,6.58403e-03,1.78070e-01,1.90014e-01,1.20612e-01,-5.05654e-02,-1.83099e-01,-1.01721e-01,-3.09306e-02,-4.02005e-01,-4.02782e-01,3.22277e-02,1.32926e-01,-1.83408e-01,-1.95038e-01,-2.84118e-02,-1.79961e-02,-2.78907e-02,3.51316e-02,4.30666e-01,1.53710e-01,-2.49666e-01,-1.26313e-01,-2.03254e-01,-5.37174e-02,2.70775e-02,2.25248e-01,2.43927e-01,-2.18451e-04,1.81691e-01,2.22351e-01,1.98816e-01,9.28194e-02,1.14512e-02,-2.22460e-03,-2.54597e-01,-1.44557e-01,-2.91778e-01,-7.71466e-02,-5.94481e-02,-5.28734e-03,-3.36250e-01,-4.17805e-01,-1.25811e-01,-5.53314e-02,-1.38705e-02,5.28622e-02,4.54521e-01,3.25867e-01,-2.38932e-01,-3.37422e-01,-6.11014e-02,-2.42314e-01,-3.87254e-01,6.96732e-02,-3.02109e-02,-6.11847e-02,9.98173e-02,2.07918e-01,1.97822e-01,-8.55266e-02,-3.55040e-03,9.13894e-02,-1.59605e-01,-2.34642e-01,-2.22262e-02,1.74383e-02,-1.41929e-03,-1.97441e-01,-2.95919e-01,-4.62647e-01,-4.00454e-02,-1.77429e-02,-4.32417e-02,9.49653e-02,4.62664e-01,-6.01112e-02,-3.03407e-01,-2.59492e-01,-4.16587e-01,-2.91504e-01,-2.43523e-01,6.48910e-02,7.41117e-02,3.80334e-02,1.75079e-01,3.40237e-01,3.20017e-01,1.42373e-01,1.14362e-01,3.99525e-02,-2.70986e-03,-3.50279e-02,-9.47909e-02,-3.40977e-02,3.98164e-02,-1.04422e-01,-1.96152e-01,-5.86329e-01,-3.45377e-02,6.16358e-02,5.03490e-02,5.63962e-02,-7.52260e-02,3.10782e-02,-8.60926e-02,1.65774e-02,-4.07637e-02,8.87703e-02,-7.01447e-02,3.11374e-01,3.22384e-01,3.06125e-03,1.49588e-01,8.05070e-02,-3.09361e-01,-3.80844e-01,-1.77405e-01,1.09532e-01,7.04903e-02,-1.88559e-01,4.04285e-02,-1.26886e-02,1.56350e-01,1.36672e-01,-2.48372e-01,-2.87717e-01,-5.62627e-02,2.36755e-02,6.99243e-02,3.23484e-02,-4.21742e-02,1.80353e-01,8.84576e-02,-4.14742e-02,4.05200e-01,9.98238e-02,3.05525e-01,3.23643e-01,3.04756e-01,1.37635e-01,-2.13856e-01,-4.51638e-01,-9.54485e-01,-2.54375e-01,-2.00197e-03,1.35290e-01,-2.40957e-02,-1.14460e-02,8.07876e-02,7.43763e-02,1.25985e-01,9.03826e-02,-3.92589e-01,-1.48115e-01,1.12223e-01,-1.01457e-02,-6.54082e-02,1.36113e-02,9.15780e-02,4.75674e-01,7.59236e-02,4.09002e-01,4.54984e-01,1.76822e-01,7.54777e-02,2.32728e-01,2.09575e-01,2.58617e-01,-5.54188e-01,-1.10968e+00,-7.25317e-01,1.75833e-01,1.49400e-01,-8.80983e-02,-7.60722e-02,-1.16717e-01,-2.95195e-02,5.71649e-03,-4.80133e-02,-1.38038e-01,-5.46268e-01,-1.58722e-01,-2.56601e-01,2.16325e-02,-3.74527e-02,6.86266e-02,3.81939e-02,6.37322e-02,1.33879e-01,3.43986e-01,2.62467e-01,2.11249e-01,3.40582e-03,2.00580e-01,-2.13782e-02,-3.24080e-01,-1.02977e+00,-1.05511e+00,-1.27328e-01,3.20931e-01,1.54392e-01,5.74385e-02,7.80278e-02,-4.72274e-02,1.57813e-02,1.13556e-01,-1.78658e-01,-2.92246e-01,-3.26169e-01,-2.10642e-02,-1.01060e-01,4.02996e-02,2.56661e-03,6.14657e-02,3.74839e-01,1.39543e-01,-8.35071e-02,2.98499e-02,-3.41768e-02,-1.50338e-01,-4.82236e-02,-1.64686e-02,-3.74110e-01,-5.93649e-01,-6.56334e-01,-1.27583e-01,2.83595e-01,1.16534e-01,9.34398e-02,1.38872e-01,1.47044e-01,-1.25234e-01,-1.15001e-01,-9.89664e-04,-1.22316e-01,-2.68004e-01,-3.09403e-01,3.06080e-01,8.07330e-02,8.28810e-03,-4.91488e-02,2.79255e-01,4.46755e-01,1.24987e-01,-1.14933e-01,-4.69250e-01,-1.63177e-01,-2.17658e-01,-4.25375e-01,-5.60830e-01,-3.54935e-01,-5.66209e-01,-2.77890e-01,8.38332e-02,2.06952e-01,1.53157e-01,4.43372e-02,1.85611e-01,-6.62502e-02,-1.60681e-01,-1.83606e-01,1.73489e-02,-2.89227e-01,-3.89881e-01,-4.57090e-01,-8.92215e-02,1.67121e-01,4.94099e-02,7.08410e-03,1.41253e-01,1.84749e-01,-3.50642e-01,-2.51439e-02,-1.64751e-01,-2.87499e-01,-3.56484e-01,-3.54294e-01,-7.04382e-01,-3.45609e-01,-1.16440e-01,-2.42953e-01,-1.17887e-01,1.84447e-01,2.23723e-01,1.38483e-01,1.43872e-01,-3.27627e-03,-2.38051e-01,-5.20825e-02,1.88323e-01,-2.66253e-02,-3.45249e-01,-2.19606e-01,1.78063e-01,1.24150e-01,1.22988e-03,3.14916e-02,1.08289e-01,2.06453e-01,-3.42476e-01,1.88634e-01,2.35340e-01,-1.29594e-01,-4.46958e-01,-2.28667e-01,-3.03548e-01,-3.44149e-01,-1.48271e-01,-5.00436e-02,6.33229e-02,5.64332e-02,1.86044e-02,-5.81303e-02,1.54568e-02,1.50415e-02,-1.49091e-01,-2.41882e-01,-6.91319e-03,1.97721e-01,1.26913e-02,1.00377e-01,1.06407e-01,-2.66628e-01,2.49514e-02,2.63603e-02,9.53754e-03,1.40978e-01,1.11438e-01,3.43028e-01,3.57587e-01,-6.90531e-02,-1.48259e-01,-1.18635e-02,-9.93492e-02,-6.42150e-02,-2.76354e-02,5.24018e-02,1.97193e-01,2.72133e-01,5.76593e-02,-1.29200e-01,-1.43402e-01,-2.68148e-01,-1.19568e-01,-2.07549e-01,-3.64480e-01,-8.44695e-02,-1.78901e-01,-1.31435e-01,-1.24846e-02,1.08244e-01,1.34235e-02,-3.52357e-02,2.98494e-03,1.73946e-01,-5.36152e-02,3.63700e-01,2.42339e-01,-2.28800e-01,2.37207e-01,7.87209e-02,-6.15193e-02,-1.79835e-02,-8.64085e-02,-2.15853e-01,-7.71950e-02,-1.90377e-02,1.00481e-02,3.41875e-03,-8.79767e-02,-3.44560e-01,-8.17839e-02,-3.38729e-03,-3.16556e-01,-2.00274e-03,-8.53769e-02,-2.45903e-01,2.29598e-01,5.13265e-01,3.51618e-04,-1.42703e-02,1.20871e-01,3.52404e-01,-6.72458e-02,4.09494e-01,2.24292e-01,-1.78116e-01,2.47966e-01,1.09969e-01,9.90175e-03,-2.66046e-03,-1.07648e-01,-1.47857e-01,-1.91050e-01,-9.48244e-02,-1.56536e-01,-8.90940e-02,-1.12954e-01,-2.26919e-01,-1.45861e-02,7.92048e-02,-5.89372e-02,1.06996e-01,4.77539e-02,4.00852e-02,7.12950e-02,3.91009e-01,-5.25584e-02,-1.80876e-02,1.10970e-01,3.77552e-01,7.00103e-03,2.18039e-01,2.22976e-01,1.18724e-01,3.57525e-01,-2.80892e-02,-1.68873e-01,-9.14215e-03,-1.24811e-01,-1.74979e-01,-2.43563e-01,6.70667e-02,1.80867e-03,4.41089e-02,1.47793e-01,-6.32650e-02,6.01693e-03,1.11127e-01,-1.51907e-02,1.54054e-01,1.36444e-01,1.76291e-01,8.88225e-02,4.05587e-01,-3.47519e-02,-4.92200e-03,1.73203e-01,4.46614e-01,-2.88165e-01,8.39576e-02,9.59839e-02,3.98040e-02,1.01409e-01,-2.07322e-01,-2.01221e-01,3.58995e-02,2.02278e-02,-1.34266e-01,-2.12138e-01,1.54032e-01,-4.07211e-02,1.20921e-01,7.04426e-02,2.50582e-02,3.02552e-02,-2.47269e-01,1.57052e-02,8.20233e-02,6.93201e-02,1.63580e-01,3.30720e-02,-9.63435e-02,-4.43853e-02,-3.48729e-03,3.88780e-02,4.83030e-01,-3.43123e-01,-5.70055e-02,5.31838e-03,2.02352e-02,-1.88034e-03,-1.89847e-01,-3.87142e-02,1.83571e-01,1.36392e-01,-4.72978e-02,-2.39817e-03,8.82027e-02,2.80205e-02,6.69189e-02,1.24157e-01,4.76761e-02,1.32854e-01,2.01145e-02,6.32919e-02,1.16043e-01,3.86272e-02,3.02326e-01,-1.58774e-02,-3.30422e-01,-1.48397e-02,2.79768e-02,1.39722e-02,3.59502e-02,-5.88812e-01,-1.95262e-02,-4.82840e-02,1.55744e-01,1.17472e-01,-1.33521e-01,-7.82522e-03,-3.54493e-03,1.91783e-01,-8.52290e-02,2.84208e-02,8.85934e-02,2.33617e-01,-3.49260e-03,1.39400e-01,2.81536e-01,2.98930e-01,1.24279e-01,-1.61794e-02,-4.76317e-03,1.25279e-01,3.05825e-01,-8.46821e-02,-3.05109e-01,6.22182e-03,1.32502e-02,3.00714e-02,3.14769e-01,-1.75672e-01,5.16930e-01,4.23556e-01,2.00034e-01,4.19184e-02,-7.99994e-02,2.08823e-01,-2.27583e-01,5.49487e-02,4.60549e-02,3.36159e-03,-4.89050e-02,1.55710e-01,5.08006e-02,2.38713e-01,-1.58722e-02,5.47719e-02,1.69946e-01,1.27853e-01,2.89881e-01,3.98744e-01,5.11295e-01,5.61125e-01,1.77657e-01,8.04581e-03,-2.81390e-02,-2.87392e-02,8.95359e-02,3.46645e-01,-7.44302e-02,-3.82759e-02,-2.27284e-01,-1.66772e-01,-4.21368e-03,2.63450e-01,1.89755e-01,4.74419e-02,1.24859e-01,-1.86166e-01,-1.47708e-01,-1.00832e-01,1.56429e-01,2.24544e-01,2.98860e-01,-5.35671e-03,2.16453e-01,-3.92092e-02,4.61964e-02,-2.98484e-01,3.48976e-02,1.58607e-01,1.54063e-01,3.02733e-02,-9.22444e-03,-2.25603e-02,-1.94737e-02,2.75386e-02,-5.25435e-01,-3.66886e-01,-2.37164e-01,1.13233e-01,1.88434e-01,-7.20352e-02,-1.26901e-01,-1.48293e-01,-1.46350e-01,6.30663e-02,-1.43084e-01,-1.41664e-01,3.58836e-01,1.08524e-01,4.03062e-01,5.32237e-01,3.65104e-01,-2.64884e-01,-9.15557e-02,4.53344e-03,-5.61010e-02,4.09860e-01,-3.24103e-02,1.76959e-02,2.17633e-03,1.93740e-02,-1.21523e-02,-6.71499e-03,1.32601e-01,2.96974e-01,3.26098e-01,2.15234e-01,1.72179e-01,2.16845e-01,4.57606e-01,4.21206e-01,1.29702e-01,1.87633e-01,1.65202e-01,2.76070e-01,4.19397e-01,6.07719e-01,3.35023e-01,6.85839e-02,-4.53280e-01,-3.88537e-01,-2.35290e-01,-3.27149e-03,3.48430e-02,1.72982e-02,2.17583e-03,1.08244e-02,
2.71821e-02,-2.93913e-02,-7.05761e-03,2.71996e-02,-5.61657e-03,9.71740e-03,2.37775e-02,1.36407e-02,2.47629e-02,-2.61369e-02,3.57797e-03,2.47199e-02,3.37655e-02,-3.26097e-02,-2.18770e-02,-4.99745e-02,1.23312e-02,1.10638e-02,4.98296e-03,-1.16868e-02,6.41989e-03,-1.95054e-02,-1.34988e-02,-6.75062e-03,8.37057e-03,-2.12448e-02,1.18135e-02,-3.45909e-02,-9.22373e-03,3.36095e-02,1.60342e-02,-2.21861e-03,4.71131e-03,-1.20400e-02,-3.70142e-02,-5.17867e-02,-4.53230e-03,-1.96627e-02,2.96779e-02,1.54909e-01,1.66655e-01,1.51957e-01,1.45228e-01,-4.14797e-02,1.05714e-01,1.31219e-01,3.61786e-02,-1.91403e-02,3.84876e-02,1.09556e-01,-3.27207e-02,-1.17004e-02,-2.11550e-02,1.68662e-02,-1.95714e-02,3.21185e-02,-1.75260e-02,2.80219e-02,-3.76282e-03,5.50457e-02,1.00634e-01,-1.61716e-02,-2.09966e-02,-2.61780e-02,-4.41432e-02,-1.84024e-01,-2.73438e-01,-1.72953e-01,1.99448e-01,2.83255e-01,1.95841e-01,-1.44031e-01,-3.83959e-01,-3.00271e-01,-1.63106e-01,-6.17286e-02,-4.58272e-02,-1.17953e-01,-2.61694e-01,-2.54328e-01,-1.19057e-01,-4.15212e-02,3.92973e-04,-1.30600e-02,9.15038e-03,-3.46702e-02,-2.00130e-02,1.15818e-01,1.82712e-01,-2.02455e-01,-1.22909e-01,-1.35423e-01,-3.33712e-01,-1.99546e-01,-3.04883e-01,-2.33169e-01,-1.71981e-01,-1.01107e-01,1.40193e-01,5.10387e-02,-3.79641e-01,-3.89636e-01,-3.21505e-01,-2.30351e-01,-3.24346e-01,-1.60577e-01,-3.47353e-02,2.25479e-02,1.66532e-01,3.87137e-02,2.08491e-03,2.83079e-02,6.52458e-04,-8.09351e-03,-2.93899e-02,-1.41423e-02,-2.17316e-01,-3.73827e-02,5.30506e-02,2.57787e-02,-1.11885e-01,-2.15632e-01,-4.97168e-01,-5.53281e-01,-2.74246e-01,-1.68914e-01,-1.60020e-01,-3.60788e-01,-5.09619e-01,-2.73773e-01,-1.50820e-01,5.77631e-02,6.02285e-03,-2.88429e-01,-4.47151e-02,4.24116e-01,3.79565e-01,2.52913e-01,-3.36558e-02,1.49123e-01,-2.65702e-02,-2.99524e-02,-3.76028e-02,-9.89423e-02,-1.17085e-01,-2.45917e-01,-4.41347e-01,-3.78335e-01,1.61453e-01,1.24490e-01,1.36626e-01,1.34495e-01,5.20132e-02,5.80725e-02,-1.24976e-02,-2.73268e-01,-2.71229e-01,-1.24307e-01,-3.96864e-01,-4.58878e-01,-3.71324e-01,-2.39320e-01,-1.65670e-01,9.88441e-02,3.04289e-01,-7.60977e-02,2.24831e-01,1.99701e-01,-1.11123e-02,-2.50768e-02,-2.01178e-02,-2.86474e-01,-4.11126e-03,-2.87384e-01,-5.94576e-01,-5.98991e-01,8.97880e-02,3.41667e-01,2.85681e-01,2.06446e-01,1.47437e-01,3.14468e-02,-6.87848e-02,-1.86961e-01,-1.44361e-01,-1.27761e-01,-3.04514e-01,-3.77073e-01,-1.96868e-01,-1.38116e-01,-9.73542e-03,2.38915e-01,3.42663e-01,1.76097e-01,3.41464e-01,-6.96717e-02,-7.73133e-03,-1.11581e-01,-3.39879e-02,-3.58164e-01,-2.39926e-01,-2.70838e-01,-8.17448e-01,-7.70637e-01,-7.54905e-02,1.82769e-01,1.04710e-01,-8.84055e-03,4.50807e-02,7.47790e-02,-3.62481e-02,-4.22402e-02,-1.91217e-01,-9.48662e-02,-1.40134e-01,-2.51094e-01,-3.24758e-01,-1.77404e-01,-5.04626e-02,1.17866e-01,2.50889e-01,2.23697e-01,3.80396e-01,-8.30583e-02,-5.71520e-02,-1.45556e-01,-7.35179e-03,-2.18650e-01,-3.33437e-01,-4.44938e-01,-4.43086e-01,-1.94036e-01,3.76477e-02,2.69294e-02,-9.14087e-02,-8.61004e-02,-7.76586e-02,2.47981e-02,1.15847e-01,1.44335e-01,-2.25180e-02,-1.09806e-01,-9.60101e-02,-1.46440e-01,-1.90618e-01,-3.34403e-02,7.15420e-02,-1.35542e-01,2.43760e-01,4.51580e-01,2.58699e-01,-4.33643e-03,-5.75436e-02,-1.48650e-01,2.17564e-01,-2.90366e-01,-3.38455e-01,-3.45986e-01,4.20199e-02,-1.22591e-01,1.46088e-01,6.46119e-02,-1.94811e-01,-2.50990e-02,-7.40092e-02,-8.60750e-02,-6.51944e-02,1.18405e-01,9.20078e-02,-1.41400e-01,-8.14288e-02,-1.87285e-01,-5.09378e-02,-2.61746e-02,1.51245e-01,-7.03616e-02,4.85866e-02,1.02719e-01,1.55344e-01,-1.79309e-01,-4.78919e-02,-8.73278e-02,3.54445e-01,-1.88266e-01,-2.96812e-01,-1.47326e-01,-8.13301e-03,1.65756e-01,1.63600e-01,1.45524e-02,-2.59674e-01,-2.42629e-01,-1.74264e-01,-1.06582e-01,2.98781e-03,5.79071e-03,-3.63643e-02,-1.08157e-02,-3.18232e-02,-1.85065e-03,3.38338e-02,-4.85605e-02,-1.21855e-04,-2.26461e-01,-1.40791e-01,2.51490e-02,2.32160e-01,8.24564e-02,1.73815e-03,-1.89039e-01,-4.20082e-01,-4.37564e-01,-3.90215e-01,-1.48474e-02,1.67536e-01,2.39426e-01,3.55574e-01,1.65077e-01,-1.20508e-01,-1.48432e-01,1.48032e-02,-4.38958e-02,9.16259e-02,5.38773e-02,7.64032e-02,1.17509e-01,-8.31309e-02,7.07002e-02,2.01124e-02,2.07907e-02,-3.32821e-02,1.17957e-01,9.57673e-02,-7.73103e-02,4.24352e-01,7.42112e-02,8.76000e-03,-1.37103e-01,-5.75149e-01,-2.91372e-01,-1.88705e-01,1.48844e-02,2.41204e-01,7.64862e-02,8.73839e-02,7.71058e-02,-4.74891e-02,1.69897e-01,1.48617e-01,8.71980e-02,-1.87445e-01,-2.62573e-01,-1.05526e-01,5.23006e-02,3.63644e-03,5.83956e-02,2.65096e-02,5.40690e-02,3.39986e-01,4.07527e-01,7.75354e-02,-1.28636e-01,1.29057e-01,-2.76260e-01,3.44641e-02,-6.72218e-02,-5.32937e-01,-3.17042e-01,-9.94775e-02,1.62248e-02,-4.74823e-02,-3.03632e-02,-9.57444e-02,1.13252e-01,2.32294e-01,2.97647e-01,3.16652e-01,1.55399e-01,-3.90548e-02,-7.61613e-02,-1.91255e-01,7.65063e-03,8.40542e-02,7.52573e-02,1.58101e-02,1.72811e-01,2.82734e-01,1.45449e-01,-2.76370e-01,4.02772e-03,-1.31091e-01,2.99201e-02,4.32575e-02,-1.44644e-02,-4.08682e-01,-1.44378e-01,-3.25839e-02,1.02969e-01,-2.59741e-02,-1.23759e-01,-1.08954e-02,1.49968e-01,1.81517e-01,1.86890e-01,2.95036e-02,2.99846e-02,-8.35870e-02,-7.31723e-02,7.19288e-03,1.12922e-01,8.58789e-02,3.87158e-02,1.22250e-01,3.00442e-01,1.28386e-01,-2.19446e-01,-7.81229e-02,2.61578e-01,-1.74820e-02,-1.25872e-02,4.48075e-02,4.73179e-02,4.64126e-03,2.83026e-01,1.22430e-01,1.40432e-01,1.56249e-01,-3.74192e-03,5.29534e-02,4.55149e-02,-2.72094e-02,-2.63519e-03,-1.09994e-02,-2.45651e-01,-3.09699e-01,-2.15199e-01,3.08253e-02,-4.87823e-02,4.29991e-02,6.16045e-02,-6.14329e-02,-3.63243e-02,-1.84037e-01,-2.10395e-01,4.08256e-02,5.10796e-02,1.37603e-01,-1.49555e-01,-1.35583e-02,-2.78553e-02,1.03394e-01,2.18778e-01,1.42012e-01,1.45033e-01,9.40234e-02,-1.20537e-02,1.03825e-01,-7.59904e-02,-7.67718e-03,5.67700e-02,-3.86848e-02,-1.11114e-01,-3.64876e-01,-2.82108e-01,-4.67625e-02,-7.19036e-02,4.79392e-02,3.07175e-03,2.99983e-02,-1.61742e-01,-1.05906e-01,-6.05565e-02,2.11842e-01,-2.51625e-02,5.39551e-02,-1.16462e-01,2.17215e-03,-1.18611e-04,1.01181e-01,1.44744e-01,3.73115e-02,5.95069e-02,1.59281e-01,7.33759e-02,1.01612e-02,7.00848e-02,3.97656e-02,4.77650e-03,1.28668e-01,-6.08416e-02,-2.01101e-01,3.59747e-03,5.86241e-02,8.39413e-02,-1.36997e-03,-1.74384e-02,-2.15380e-02,-2.63656e-01,-1.29491e-01,3.52077e-02,1.79211e-01,-2.20444e-01,2.15205e-01,-2.49527e-02,-5.00378e-02,-1.69922e-02,5.68159e-02,8.02224e-02,9.38364e-02,-5.21381e-02,2.10174e-01,7.12327e-02,1.91611e-01,1.56715e-01,8.72289e-03,1.83839e-01,8.22513e-02,3.68341e-02,-2.02982e-02,-2.06907e-02,-9.98192e-02,-5.99921e-02,-1.39490e-01,-8.56240e-03,6.73737e-02,-1.42978e-01,-1.66371e-01,2.76822e-02,1.86319e-02,-1.39448e-01,-3.20964e-01,-3.84713e-01,-6.07438e-03,8.61975e-02,-5.62246e-02,7.20880e-02,-3.23403e-02,1.00855e-01,2.15056e-01,3.98209e-01,3.31762e-01,1.72230e-01,2.36092e-01,2.17900e-01,2.69038e-01,1.76357e-01,-5.68877e-02,-3.22890e-02,-2.63239e-01,-2.54833e-01,-9.89373e-02,3.05362e-02,2.14587e-01,-1.41383e-01,-1.41983e-01,1.17138e-01,2.63835e-01,-8.91133e-02,-2.25793e-01,-6.48483e-02,3.21132e-02,3.46435e-01,2.67494e-02,1.75000e-01,-1.53334e-01,-7.12052e-03,2.09890e-01,2.88281e-01,1.90997e-01,1.07929e-01,-8.70611e-02,-6.73544e-02,8.45433e-02,-1.75090e-01,-2.34970e-01,-1.89886e-01,-2.23121e-01,-1.95645e-01,1.80312e-02,1.71368e-01,2.02885e-01,-3.42269e-01,-4.47468e-01,-1.30637e-01,5.26414e-01,4.13230e-01,-2.52936e-01,8.34103e-03,-4.50003e-02,8.98958e-03,-2.85764e-01,1.14684e-01,-1.13067e-01,-1.72644e-01,-7.50678e-02,3.62078e-01,1.94711e-01,-2.31794e-02,-3.12364e-01,-3.39862e-01,-1.58580e-01,-2.91601e-01,-3.36856e-01,-2.01087e-01,-1.95154e-01,-2.73774e-01,-4.82615e-03,2.32671e-01,3.18578e-01,-3.76575e-01,-3.48227e-01,-9.09143e-04,5.15658e-01,2.06084e-01,-2.98738e-01,2.71854e-02,8.79609e-03,-4.50798e-02,-1.47696e-01,-1.02311e-01,-2.21727e-01,-1.54761e-01,-1.44447e-01,2.07285e-01,1.60080e-01,-1.21908e-01,-2.40304e-01,-2.51423e-01,-2.17411e-01,-6.68073e-02,-8.55830e-02,-2.86402e-02,-6.53026e-02,-1.78873e-01,-5.37756e-02,1.72196e-01,-1.84294e-02,-1.84016e-01,-3.25525e-01,2.14270e-01,6.48308e-01,2.36993e-01,8.78530e-02,3.50895e-02,2.10310e-02,2.82328e-02,-4.10308e-02,4.35719e-02,-2.39741e-01,-4.04333e-01,-2.69197e-01,-1.25200e-01,1.27538e-01,1.97581e-02,4.16724e-02,2.19194e-03,1.09071e-01,1.89458e-01,8.46823e-02,-3.06761e-02,-1.75451e-02,1.48195e-02,5.11999e-02,2.43652e-01,7.64145e-02,7.63262e-02,-6.09935e-02,3.12741e-01,5.71178e-01,2.83301e-01,2.06555e-01,-7.73448e-03,-9.77062e-03,-1.13956e-03,-5.29209e-02,-1.20545e-01,-2.30907e-01,-1.64694e-01,-1.64920e-01,-9.81019e-02,4.99126e-02,1.91135e-01,1.77170e-01,1.42975e-01,2.15966e-01,2.53667e-01,3.83666e-02,-1.10055e-01,-6.74277e-02,-1.09482e-01,2.63255e-02,2.56178e-01,3.62895e-01,1.28483e-01,2.88707e-01,1.68544e-01,4.60840e-02,-1.04368e-01,-7.20228e-02,1.72765e-02,-1.56494e-02,-2.68412e-02,1.44322e-01,-9.25585e-02,-1.45075e-01,6.01136e-02,1.02898e-01,4.83828e-02,1.53718e-01,2.51979e-01,6.31088e-02,-1.27301e-01,-1.04575e-01,-1.27920e-01,-2.99341e-01,-1.21381e-01,-2.19795e-02,1.18888e-01,2.61636e-01,2.48629e-01,3.34435e-01,5.20248e-01,5.75781e-01,4.36982e-01,1.03317e-02,-4.43449e-02,-7.83345e-02,-3.15379e-03,-3.45687e-02,-9.92907e-03,-3.50868e-02,7.58184e-04,1.86284e-01,2.44397e-01,3.49353e-01,8.49965e-02,6.14644e-03,2.72782e-02,-1.34090e-01,-2.25388e-01,7.28035e-02,-1.15183e-01,-1.64087e-01,7.59217e-02,4.08175e-02,1.69458e-01,4.98622e-02,-3.19306e-01,2.59367e-01,3.43716e-01,1.94521e-01,2.00101e-01,-6.41690e-02,-2.43961e-02,-1.12524e-02,-1.79846e-02,-2.80646e-03,2.32426e-02,-3.28398e-02,3.03524e-02,-4.94097e-02,-6.08840e-02,6.74646e-03,3.40607e-02,1.33579e-02,-9.46160e-02,-2.35583e-01,-2.41354e-01,-2.37803e-01,-2.94292e-01,-2.52915e-01,-1.68484e-01,-8.33720e-02,-2.58576e-01,-1.02711e-01,-7.42720e-02,-4.90296e-02,-5.32564e-02,-1.33530e-01,-1.70012e-01,-6.29378e-04,2.07077e-03,1.40804e-02,-3.49584e-02,
8.79290e-03,2.84957e-02,-3.15994e-02,2.62526e-02,-5.26901e-04,-2.31614e-02,9.61453e-03,-3.89446e-03,-2.97641e-02,3.06090e-02,-1.39749e-02,-3.24123e-02,1.84236e-02,-2.59025e-02,-1.26335e-02,5.03224e-03,-1.33398e-02,-3.52087e-02,2.00217e-02,8.32297e-03,-1.87827e-02,7.23329e-03,-2.57632e-02,-3.37247e-02,3.56071e-02,-2.90506e-02,2.71323e-02,2.62166e-02,2.97453e-02,-1.98804e-02,7.87413e-03,6.45353e-03,-4.41336e-03,1.97983e-03,-1.26024e-02,-3.94696e-02,2.88538e-03,-2.99991e-02,-3.98562e-02,-3.85521e-02,-1.90468e-02,-6.20349e-02,1.89472e-01,1.90498e-01,7.51665e-02,1.20858e-02,-1.57504e-02,-2.75561e-01,-3.04606e-01,-7.82315e-02,-3.30302e-02,-3.59951e-03,4.10390e-03,7.84268e-03,2.16669e-02,-5.17908e-03,2.68124e-02,-5.75063e-03,-2.87935e-02,1.79972e-02,2.76824e-02,-3.59006e-02,-1.01981e-02,-1.70343e-02,-2.21502e-01,-2.53501e-01,-2.39187e-01,-3.25828e-01,-6.50028e-02,1.11003e-01,2.39226e-01,4.26633e-02,-3.86699e-01,-6.26897e-01,-4.54548e-01,-2.17197e-01,-1.16848e-01,-2.29762e-01,-1.93203e-01,-1.72491e-01,-1.12886e-01,-6.42943e-02,1.37639e-02,-2.56870e-02,2.30398e-03,-2.00455e-02,3.95279e-01,3.16444e-01,6.09094e-03,-7.18922e-02,-9.27835e-02,-2.29328e-01,-4.54354e-01,-4.14956e-01,-2.65955e-01,-5.81927e-01,-2.75717e-01,-3.61031e-01,-2.70639e-01,-1.79265e-01,-8.31044e-02,-1.68612e-01,9.14795e-02,1.56164e-02,-1.39672e-01,1.40150e-02,-6.74837e-03,1.87808e-01,1.89270e-02,4.44629e-02,-5.41369e-02,2.37974e-03,2.07917e-02,3.41158e-02,3.83255e-01,2.81150e-01,-1.07108e-02,-2.22786e-01,-1.40009e-01,7.39994e-02,-1.41900e-01,-6.13831e-02,-7.60561e-02,1.35497e-01,1.06022e-01,3.88092e-02,1.49411e-01,-6.14478e-02,1.13996e-01,2.83123e-01,3.04793e-01,1.31663e-01,1.76573e-01,4.85922e-03,-4.45335e-02,-1.05382e-01,-1.26893e-01,1.86117e-01,1.57392e-01,-6.13824e-01,-1.86182e-02,-2.43450e-02,2.76074e-01,8.33589e-02,-2.55690e-01,-3.16725e-01,-1.02248e-01,-1.35420e-01,-3.47053e-01,-2.44898e-01,-1.84906e-01,1.82152e-01,-7.88646e-02,-3.19253e-01,-1.94382e-01,-8.25335e-02,-8.14558e-02,6.46362e-02,7.42031e-02,1.27788e-01,2.13908e-01,1.95796e-01,-1.29277e-01,-2.91980e-01,-2.37021e-01,4.75678e-03,-1.83118e-01,-5.58006e-01,-1.63451e-02,5.34196e-03,5.78084e-02,-6.26976e-01,-5.98930e-01,-4.95463e-01,-2.16590e-01,-6.17393e-02,-6.66120e-02,-1.79163e-01,8.58476e-02,2.51607e-01,1.98012e-01,1.36491e-01,6.38164e-03,2.75450e-02,-6.30272e-02,7.98186e-02,7.01345e-02,-6.86190e-02,-6.74975e-02,3.43616e-03,-3.28664e-02,1.17561e-01,-2.67118e-02,3.54163e-01,-8.47020e-02,-1.25714e-01,-3.91538e-02,-7.65529e-02,7.57825e-03,-6.28049e-01,-6.70541e-01,-3.96917e-01,-2.84731e-01,-4.35887e-01,-4.31200e-02,1.32187e-01,2.16568e-01,2.39098e-01,2.71453e-01,3.05913e-01,2.01405e-01,3.25549e-01,1.11955e-01,-3.07169e-02,7.30227e-02,-5.45633e-03,5.94166e-02,3.60828e-02,5.88257e-02,1.67669e-01,1.25762e-01,1.56518e-01,-2.07388e-01,-1.21409e-01,-4.64619e-04,-5.71478e-02,6.08609e-02,-2.27497e-02,-5.85696e-01,-3.96021e-01,1.96231e-01,-2.25043e-01,-2.99412e-02,1.21530e-01,2.99224e-01,2.92817e-01,2.92170e-01,3.58364e-01,1.51002e-01,1.18124e-01,6.13577e-03,-5.92587e-02,-1.77164e-01,5.01581e-02,-1.03172e-01,-6.93899e-02,1.52352e-01,1.78059e-01,1.76175e-01,1.19184e-01,3.32296e-01,1.33840e-01,-1.16005e-02,-4.66672e-02,6.32177e-02,1.18978e-01,-6.31977e-01,-5.00557e-01,-1.77214e-01,-2.58632e-01,1.27554e-01,2.62235e-01,2.37976e-01,1.90355e-02,-4.21866e-02,1.27598e-01,-4.97552e-02,-1.00941e-01,-7.37449e-02,-5.34072e-02,-3.48279e-01,5.60496e-02,-9.95983e-03,8.38958e-02,2.91968e-01,2.41676e-01,1.35393e-01,2.02571e-01,2.45647e-02,-1.91637e-01,3.24608e-02,4.14230e-02,1.20232e-01,2.51218e-02,-3.36972e-01,-4.07686e-01,-2.34511e-01,-2.01120e-01,2.50664e-01,2.30857e-01,2.66629e-02,-5.80539e-02,1.62354e-01,1.31673e-01,3.10474e-01,9.78939e-04,2.24769e-02,-6.70820e-02,-1.41559e-01,-1.93826e-01,1.00402e-01,1.01055e-01,1.89595e-01,2.43425e-01,1.53534e-01,5.61426e-02,1.55957e-01,-3.24057e-02,1.70641e-02,1.68978e-02,-1.09952e-01,-5.06254e-01,-6.19208e-02,-2.21878e-01,3.33596e-02,1.14671e-01,1.49011e-02,-7.67352e-02,-1.25070e-01,4.11872e-02,-8.32427e-04,2.40045e-01,3.42616e-01,1.60538e-01,2.21270e-01,8.08352e-02,-1.39980e-01,-2.90952e-02,1.82033e-01,1.00740e-01,-3.34557e-02,1.54901e-01,4.27868e-01,2.23948e-01,4.46875e-01,5.08733e-01,2.63978e-02,-1.29578e-02,-4.12552e-02,-3.33669e-01,-3.39425e-01,-1.96898e-01,1.95533e-01,8.34249e-02,-1.11236e-01,-6.03047e-03,-2.07972e-01,1.15453e-01,1.24755e-01,4.12647e-01,4.84511e-01,1.03822e-01,2.47819e-02,1.61108e-01,-5.96960e-02,1.26763e-01,1.73073e-01,1.96308e-02,-8.30230e-02,1.16417e-01,-7.32279e-02,-2.50845e-01,1.73333e-01,5.12003e-01,1.64615e-02,-1.70141e-02,-1.06336e-01,-3.65616e-01,-4.97857e-01,5.52657e-02,9.29495e-02,-3.21602e-02,-2.04621e-01,-1.19145e-01,-4.84667e-01,-9.88385e-02,1.28375e-01,2.29147e-01,1.13519e-01,8.41794e-02,9.13839e-02,-1.16220e-01,-1.69980e-01,3.73877e-03,-9.21890e-05,-3.94687e-01,-2.78347e-01,7.70104e-02,-2.36687e-01,-1.22131e-01,2.50722e-01,1.14587e-01,9.00469e-02,8.44909e-03,-9.62637e-02,-1.33539e-02,-1.30784e-01,2.63822e-01,2.71148e-01,1.00770e-01,-2.52316e-01,-1.78904e-01,-3.46851e-01,-1.78489e-01,-1.52658e-02,2.29423e-01,1.88697e-01,1.23784e-01,9.44639e-02,-1.45160e-01,-1.92122e-01,-4.42345e-01,-2.07756e-01,-2.84516e-01,-2.24271e-01,-1.62875e-01,-6.42760e-02,-2.82755e-01,-2.23371e-01,9.91640e-03,1.27128e-01,-2.31457e-02,-5.49582e-02,-4.38414e-01,-1.92827e-01,3.47081e-01,4.35871e-01,2.45983e-01,1.01930e-01,7.49146e-02,-1.18972e-02,2.96830e-02,9.65073e-02,2.43729e-01,-3.13116e-02,-1.64868e-01,4.09410e-02,-2.05841e-01,-1.66281e-01,-1.87813e-01,-2.47947e-01,-3.11987e-01,-2.50698e-01,4.22715e-02,3.07229e-01,-2.13973e-01,-2.61342e-01,7.25330e-02,-8.84806e-03,3.01519e-02,2.78729e-02,-4.86963e-01,-3.98066e-01,-4.56850e-02,3.20710e-01,1.62930e-01,1.04863e-01,2.67635e-01,3.94744e-01,2.84809e-01,3.24127e-03,5.33962e-02,-2.01463e-01,-2.77435e-01,-3.00789e-01,-4.40506e-01,-3.52326e-01,-1.76423e-01,-2.73537e-01,-2.29881e-01,-3.45406e-01,1.07674e-01,3.76879e-01,-2.68025e-01,-4.73252e-01,8.98317e-03,2.84266e-02,-3.35935e-02,-5.39716e-02,-4.67799e-01,-2.09267e-01,-2.36552e-01,1.30704e-01,1.98802e-01,1.62958e-01,1.11046e-01,2.03863e-01,7.08697e-02,2.36188e-02,-7.65148e-02,-1.31865e-01,-1.55886e-01,-2.19977e-01,-3.20469e-01,-3.43201e-01,-6.36118e-02,-1.72186e-01,-2.34195e-01,-2.88175e-01,1.37474e-01,3.63770e-01,-9.43288e-02,-3.61416e-01,-1.37055e-02,1.66914e-01,-1.39703e-02,-1.06968e-02,-5.45935e-01,-3.21740e-01,-1.53408e-01,8.61518e-02,2.24232e-01,1.67586e-01,1.31521e-01,1.35388e-01,-2.19118e-01,-2.71429e-01,-1.15788e-01,9.11550e-02,-1.82579e-01,-2.16666e-01,-1.48154e-01,-2.20946e-01,-3.85717e-02,3.90388e-02,-2.26756e-01,-2.54836e-01,7.03184e-03,1.09934e-01,-9.89350e-02,-2.38971e-01,-1.35478e-02,-9.64361e-03,-9.25217e-02,1.17206e-01,-4.02503e-01,-3.62367e-01,-1.19011e-01,1.42546e-01,6.39153e-02,1.79335e-01,-5.65451e-03,-1.01260e-01,-4.14399e-01,-1.55379e-01,4.39022e-02,5.78449e-02,-1.35657e-01,-2.86257e-01,-2.17321e-02,-2.33547e-01,6.37790e-02,4.82460e-02,4.79903e-02,-2.62935e-02,-2.32607e-01,-2.63279e-01,-1.09392e-01,-6.38269e-02,1.14725e-01,-2.57395e-02,1.14272e-03,-1.20562e-01,-2.18185e-01,6.42670e-02,2.03931e-01,1.64116e-01,6.57459e-02,1.58451e-01,-7.03731e-02,-1.97644e-01,-1.95594e-01,-3.11189e-02,4.20482e-02,-7.55073e-02,-3.36351e-02,-2.10972e-01,4.84950e-03,-4.44836e-02,1.74307e-01,2.54157e-01,-2.07202e-02,-1.41301e-01,-4.68282e-01,-5.81351e-01,-1.52128e-01,-2.46747e-01,1.27203e-02,1.57279e-02,2.70231e-02,-2.12361e-01,-5.14846e-02,-9.85227e-02,-2.66673e-01,1.39943e-01,2.04648e-01,-5.62944e-02,2.68230e-02,-1.37242e-01,-9.77301e-02,-1.91910e-01,-1.86814e-01,-2.10093e-01,-1.05485e-02,-1.64463e-01,5.18116e-02,9.47877e-02,7.14705e-02,3.87872e-01,1.55580e-02,-9.75376e-02,-4.40055e-01,-5.34132e-01,-2.77466e-01,-4.61268e-01,-1.82366e-02,1.91039e-02,1.73109e-02,-1.58469e-01,-5.07546e-02,-3.04761e-01,-6.08029e-02,6.89275e-02,8.35565e-02,5.89405e-02,1.39139e-01,-1.20869e-01,-2.03774e-01,-2.42189e-01,-1.55855e-01,9.70480e-02,-3.63587e-02,-9.92885e-02,3.03606e-02,-2.59384e-03,-7.94470e-02,3.47986e-01,-2.30489e-02,-5.50478e-02,-1.04938e-01,-3.04933e-01,-3.08181e-01,-3.40631e-02,-1.76730e-02,3.42254e-02,-3.12098e-02,9.54513e-02,9.09472e-02,-3.64936e-01,-2.58524e-01,-2.30314e-01,5.94935e-02,2.14513e-01,2.08600e-01,-9.75677e-02,-2.36915e-01,1.15976e-02,-8.85667e-02,-9.48081e-02,1.07885e-01,1.25465e-01,-1.18456e-01,-3.30258e-01,-1.25968e-01,7.77099e-02,-1.52021e-01,-3.06779e-02,-8.98482e-02,-4.87209e-01,-3.66529e-01,-2.04405e-01,3.47255e-02,1.16593e-02,-1.43111e-02,4.63739e-02,2.45763e-02,-2.73496e-01,-2.65470e-01,-2.95201e-01,-2.51144e-03,1.94353e-01,2.25107e-01,1.10776e-01,1.61001e-01,3.81444e-01,7.82622e-02,-6.86562e-02,1.73452e-01,1.14849e-01,-2.48017e-01,-7.57326e-02,-1.86700e-01,7.60961e-02,-3.21728e-01,-1.19451e-01,1.36604e-01,-2.38219e-01,-3.99730e-01,-2.04845e-01,-2.34723e-02,6.24166e-03,-1.15548e-02,5.45330e-03,-8.35030e-02,-5.73889e-01,-4.63014e-01,-1.32710e-01,1.24270e-01,4.46991e-01,3.05695e-01,-2.85248e-02,-1.12896e-01,9.78429e-02,1.73825e-01,1.11858e-01,3.11088e-01,4.04576e-01,6.53036e-01,4.28937e-01,4.27603e-01,9.27259e-02,-2.08848e-01,3.42655e-01,-7.16802e-02,-2.77509e-01,-2.29242e-01,-1.93627e-01,-2.79276e-02,-4.43124e-03,-9.83996e-03,-1.61495e-02,-1.45660e-02,-2.32678e-02,-1.50543e-01,-2.34402e-01,1.68054e-02,2.47770e-01,1.61811e-01,-1.50865e-01,1.53601e-02,2.89077e-01,3.62537e-02,2.41769e-01,5.74086e-01,3.93837e-01,4.09329e-01,3.85265e-02,-3.68454e-01,4.03752e-02,-2.45226e-01,-1.26235e-01,-2.63499e-01,-2.88862e-01,-1.24139e-02,-1.87286e-02,3.50693e-02,-2.25698e-02,-2.36269e-02,9.41979e-03,1.16473e-02,-4.87059e-02,-3.16822e-02,-7.74785e-02,-1.55526e-01,-1.32675e-01,2.45401e-02,-5.86397e-02,2.28977e-02,6.32325e-03,-1.82332e-01,5.45459e-02,3.58014e-01,3.80316e-01,3.85087e-02,2.37714e-01,4.59119e-02,-6.94555e-02,-4.50745e-01,-4.69260e-01,-1.17915e-01,1.45577e-02,2.35653e-02,2.32520e-02,5.33091e-03,
-1.08515e-02,-2.71723e-02,-7.24516e-03,-3.49419e-02,-8.73616e-03,-3.72071e-03,-1.01123e-02,7.04878e-03,1.10974e-03,1.46277e-02,-2.23789e-02,6.43117e-04,1.20645e-01,1.11225e-01,8.50252e-02,2.18423e-02,-2.30104e-02,6.02352e-03,3.42506e-02,-2.55780e-02,-2.42338e-02,-1.79823e-03,-1.82388e-02,8.40299e-03,9.25418e-03,2.36901e-02,3.21014e-02,2.58324e-02,1.61252e-03,1.62658e-02,1.94887e-02,7.02694e-03,5.33011e-02,3.61449e-02,1.05868e-01,1.19372e-01,1.05079e-01,1.15299e-01,2.14173e-01,2.69211e-01,3.01861e-01,3.05043e-01,2.01387e-01,2.35374e-01,1.10479e-01,2.29227e-01,4.39618e-01,1.46783e-01,2.35369e-01,2.76296e-01,2.02050e-01,9.38626e-02,3.24931e-02,1.85397e-02,2.82576e-02,-2.73514e-03,-3.15271e-02,3.52771e-03,1.15781e-01,-3.16744e-02,1.59882e-01,1.00942e-01,1.41229e-01,2.50080e-01,4.71711e-01,4.18405e-01,1.39449e-01,3.06746e-01,2.20780e-01,8.93188e-02,2.88786e-01,2.45924e-01,1.91761e-01,1.02983e-01,3.70364e-01,2.92330e-01,8.45869e-02,1.55614e-01,2.48033e-01,2.10266e-01,3.85682e-02,-4.45463e-03,4.29294e-04,3.47894e-03,1.14713e-02,1.62709e-02,-1.40494e-01,-7.44623e-02,9.65296e-02,8.69446e-02,3.91490e-01,3.03550e-01,3.28657e-01,3.35406e-01,4.42610e-01,4.20723e-01,2.18575e-01,2.07618e-01,1.74177e-01,-1.04358e-02,3.11162e-01,1.63138e-01,1.15728e-01,-2.24011e-02,2.91268e-01,7.26078e-01,7.44038e-01,6.01704e-01,2.69053e-01,-6.78700e-02,1.03004e-03,4.16835e-03,6.11272e-03,-3.50651e-02,-1.38569e-01,-1.27279e-01,8.26344e-02,-9.41836e-03,2.25059e-01,1.24712e-01,-1.28772e-01,-1.51345e-01,4.13716e-02,2.70368e-01,9.08723e-02,-7.27443e-02,2.00847e-01,3.09048e-02,7.22014e-02,-4.99272e-02,9.43283e-03,2.15644e-01,-5.95000e-02,-1.26533e-01,-3.68079e-02,4.07452e-01,5.41429e-01,4.58056e-01,-6.49865e-02,4.19816e-03,-2.40226e-02,3.06769e-02,-3.58306e-02,-2.00044e-02,-1.68430e-01,-2.07109e-01,-1.83258e-01,-1.39906e-02,-3.15088e-01,-2.88041e-01,-1.74454e-01,1.28516e-01,1.51393e-01,2.14380e-01,3.10390e-01,-4.82714e-03,-3.05844e-01,-6.20731e-01,-3.72437e-01,-2.17483e-01,-2.52611e-01,-3.44976e-01,-1.93710e-01,6.14227e-02,4.06868e-01,4.49288e-01,3.63945e-03,-3.17809e-02,-1.77159e-02,3.19132e-03,-1.54629e-02,-3.11355e-01,1.32260e-01,-1.85020e-01,-4.02132e-02,5.18331e-02,-2.32670e-01,-3.79084e-02,3.74606e-01,4.71196e-01,3.85122e-01,2.37143e-01,2.39399e-02,-1.85108e-01,-1.99009e-01,-5.03406e-01,-3.03298e-01,-4.90111e-01,-5.94357e-01,-5.53203e-01,-5.23863e-01,-4.97120e-01,-2.85098e-01,3.95725e-01,-9.45706e-02,1.17878e-01,8.30808e-03,9.90037e-03,-5.73026e-02,-4.75194e-01,-1.07224e-01,-3.49209e-01,-1.01689e-01,-1.14163e-01,1.37446e-01,5.70393e-02,1.67483e-01,1.69537e-01,-1.51040e-02,-3.53237e-03,-9.97763e-03,-8.94731e-02,-1.30375e-01,-4.54143e-01,-2.89360e-01,-3.13296e-01,-5.48361e-01,-2.04427e-01,-5.07919e-01,-7.45759e-01,-4.07464e-01,-3.22457e-02,-4.41823e-01,1.42250e-01,9.68921e-02,-5.12391e-02,1.98945e-02,-2.64072e-01,-2.89700e-01,-2.65888e-01,-6.85335e-02,-2.99578e-03,8.09001e-02,-2.08825e-02,2.68521e-02,9.02465e-02,-7.35301e-02,-1.81921e-02,4.58036e-02,5.86540e-02,4.85908e-02,-1.34069e-01,-2.38214e-01,-8.17848e-02,-1.40729e-01,-1.20577e-01,-2.38184e-01,-6.98351e-01,-5.89671e-01,-2.16789e-01,-2.54460e-01,6.27436e-02,-3.48084e-02,1.56558e-01,7.32670e-02,-2.28468e-01,-5.46543e-02,-6.53296e-02,-3.97609e-02,2.02051e-02,2.78214e-02,5.57067e-02,-1.76019e-01,-1.39644e-01,-1.56115e-01,-3.60800e-01,-1.25635e-01,1.83543e-02,-9.64086e-02,-1.28155e-02,-1.31052e-02,-1.53350e-01,-2.99892e-01,-3.87572e-01,-4.67688e-01,-4.03293e-01,-4.60145e-01,-6.24383e-01,-4.01692e-01,-9.31803e-02,-2.85212e-02,1.40702e-01,-2.20454e-01,-3.52180e-01,-3.63982e-02,1.13903e-01,2.65162e-01,3.00126e-02,-4.59895e-02,-3.86910e-02,-2.39815e-01,-3.58755e-01,-2.55043e-01,-1.93218e-01,-2.46090e-01,-2.93116e-01,-2.18917e-01,-6.18557e-02,2.41146e-01,1.49097e-02,-6.33711e-02,-4.65078e-02,-4.06839e-01,-1.45021e-01,-3.67289e-01,-8.68706e-01,-4.69237e-01,-1.88361e-01,-1.12325e-01,-2.44923e-01,-6.38247e-01,-1.92916e-01,1.43177e-01,2.19264e-01,2.83349e-01,-7.55176e-02,-1.99108e-02,-4.79450e-03,-1.17112e-01,-1.69212e-01,-9.91792e-03,1.93499e-02,-1.39084e-01,-7.80910e-02,-2.05317e-01,7.60194e-02,1.21872e-01,2.07766e-01,2.33304e-01,2.01158e-01,-3.00586e-01,-1.74110e-01,1.22271e-01,-3.49396e-01,-1.51047e-01,-2.09373e-01,-8.27225e-02,-1.65293e-01,-3.47706e-01,9.33391e-02,2.17597e-01,2.23980e-01,3.42622e-01,1.43828e-02,-6.34202e-02,-4.93118e-02,-1.72941e-01,-1.95151e-01,-1.90946e-01,-2.99318e-01,-2.57805e-01,-1.35647e-01,5.46361e-02,-1.01236e-03,1.58819e-02,3.63195e-01,2.65829e-01,1.65612e-01,-2.21262e-01,8.51419e-02,1.04185e-01,1.14038e-02,2.93006e-02,-1.67634e-01,2.84361e-02,-1.76650e-01,-2.33629e-01,1.95152e-02,-7.92394e-02,1.34628e-01,2.21712e-01,1.79614e-01,6.45442e-02,-8.76012e-02,-1.85500e-01,-1.34747e-01,-2.04107e-01,-2.28243e-02,-1.81621e-02,1.38164e-01,9.95767e-02,-1.63237e-01,4.52085e-02,3.04471e-01,2.81161e-01,2.20439e-01,6.58546e-02,2.45144e-01,1.17814e-01,-1.25700e-01,4.10347e-01,3.63738e-02,6.89639e-04,-1.36109e-01,-4.02466e-01,8.24099e-02,-3.95498e-02,-1.53621e-01,2.27132e-01,1.75688e-01,2.16823e-01,8.66437e-02,1.40714e-01,9.18817e-02,-1.78764e-01,-9.59668e-02,-1.26767e-01,1.63122e-01,5.70127e-02,-7.00084e-02,1.74589e-01,-5.38963e-02,9.72545e-02,9.00106e-02,3.76998e-01,1.23567e-01,-3.22209e-01,-3.23230e-01,1.39958e-01,8.21939e-02,4.66740e-03,-2.34835e-02,-5.48816e-01,1.05889e-01,-1.11894e-01,-1.31398e-01,8.57670e-02,1.55378e-02,1.52170e-01,6.47224e-02,1.00776e-01,9.17581e-02,-6.97334e-02,-6.17879e-02,5.51813e-02,1.27556e-01,1.48873e-01,-1.54445e-02,1.58825e-02,-2.89125e-02,-1.37672e-01,-5.76639e-02,1.53885e-01,1.39105e-01,-2.43728e-01,4.91157e-02,1.29865e-01,3.56991e-01,-1.45403e-02,9.19782e-04,-4.41618e-01,5.30709e-02,-1.45799e-02,-2.69034e-01,-1.90855e-01,-1.70060e-02,2.30774e-02,-7.86275e-04,1.17231e-01,1.34239e-01,1.23996e-01,2.40870e-01,3.12348e-01,1.11347e-01,-4.93090e-02,-1.14487e-01,6.22543e-02,-6.75342e-02,-1.34340e-01,-3.28583e-01,-8.23030e-03,1.77960e-01,-1.50157e-01,2.02262e-01,4.47133e-02,4.59627e-01,-2.62167e-02,-1.92865e-02,-7.20351e-02,8.88562e-02,-2.66752e-01,-3.25929e-01,-2.76804e-01,-8.15188e-02,2.15540e-01,2.93954e-02,1.06953e-01,9.78484e-02,2.54418e-01,3.53833e-01,2.34025e-01,-1.35589e-01,-2.23219e-01,-1.43426e-01,-1.47916e-02,-7.47131e-02,-5.38710e-02,-6.34329e-02,6.20696e-02,3.47369e-01,1.52621e-01,3.08171e-01,4.60511e-02,3.68753e-01,-7.26326e-02,-4.02351e-02,-8.26133e-02,7.84070e-03,-1.70993e-01,-4.00466e-01,-4.48034e-01,-4.18945e-01,-5.97689e-02,-3.04520e-02,2.40553e-01,2.15931e-01,4.06548e-01,3.09120e-01,-1.82758e-02,-3.79400e-01,-3.27316e-01,-7.03950e-02,-4.76201e-02,-1.74324e-01,-1.49068e-01,-7.16917e-02,-5.72838e-03,2.83872e-01,1.02716e-01,2.35561e-01,-9.53442e-02,-2.57205e-02,-7.60855e-02,-3.35299e-02,-3.55722e-03,-5.45762e-02,-8.18038e-02,-3.80365e-01,-2.41033e-01,-3.58936e-01,-2.66351e-01,3.72381e-02,1.88833e-01,1.95688e-01,2.68461e-01,2.36359e-01,-7.13714e-02,-2.93805e-01,-2.06360e-01,-4.58391e-02,-2.23515e-04,-9.74118e-02,3.31346e-04,-1.07285e-01,-3.77344e-02,2.34456e-01,-2.12596e-01,1.38785e-01,1.52137e-01,1.09316e-01,3.02140e-02,-3.11299e-02,2.89269e-02,8.34953e-02,-4.38043e-02,-2.87600e-01,-3.84393e-01,-2.48571e-01,-1.99043e-01,-2.03979e-02,3.17623e-02,-8.30733e-02,-7.91880e-02,2.50552e-01,1.17533e-01,-1.27628e-01,2.79949e-02,-5.02110e-02,-4.40849e-02,-2.50625e-01,-1.23569e-01,-1.74318e-01,-1.18465e-01,6.55461e-02,2.97297e-02,7.92506e-01,-7.04764e-02,1.78845e-02,3.18990e-02,3.84886e-02,1.53287e-02,2.42762e-02,-1.08053e-01,1.14794e-01,-9.55560e-02,2.38780e-02,2.57150e-03,1.93009e-02,-7.09361e-03,-8.73125e-02,-2.59428e-01,2.59108e-02,1.26885e-01,1.75030e-02,1.72538e-01,7.54310e-02,-7.44212e-02,-3.04303e-01,-2.45244e-01,2.16279e-03,-1.02488e-02,7.69896e-02,2.39630e-01,8.06188e-01,2.33014e-01,1.80858e-04,3.42567e-02,3.95495e-03,4.96709e-03,1.64914e-02,-1.43289e-01,-1.09905e-01,-2.45280e-01,3.22425e-01,1.99716e-01,-1.27867e-01,-2.12829e-01,-1.77004e-01,-6.86990e-02,-1.93159e-02,1.34502e-01,7.45119e-02,1.36572e-01,1.58683e-01,-3.04031e-02,-2.47514e-01,1.61140e-02,-2.58195e-02,1.84806e-01,2.54606e-01,2.55966e-01,4.02300e-01,5.64416e-01,-2.95682e-02,1.64384e-02,2.64242e-02,-3.01756e-02,-7.23921e-02,-4.63378e-02,-1.15839e-01,-3.90479e-01,6.97332e-03,2.34064e-01,2.89640e-02,-2.32007e-01,-2.07550e-01,-2.33871e-01,-1.24855e-01,9.82728e-02,1.00074e-01,-1.45745e-03,-3.74034e-03,-4.84160e-02,6.23811e-02,5.42481e-01,1.91516e-01,4.02538e-01,3.32032e-01,9.33010e-02,5.88925e-01,5.12588e-01,1.26862e-02,1.12190e-02,3.41212e-02,4.89420e-02,-1.79314e-01,-1.75162e-01,-3.01521e-01,-2.34426e-01,-1.40655e-01,8.59750e-02,1.01983e-01,2.21057e-01,9.33539e-02,9.39249e-02,8.97816e-02,7.88392e-02,-1.03236e-01,1.38756e-01,3.34283e-02,1.24432e-01,2.45638e-01,2.20899e-01,-3.29943e-02,9.83462e-02,2.48665e-01,1.55380e-01,-8.55997e-02,-1.50742e-01,1.97569e-02,2.06009e-02,3.20315e-02,5.85121e-02,-1.05622e-01,-1.82864e-01,-2.28814e-01,-2.38929e-01,3.84253e-03,2.40853e-01,3.79058e-01,4.45668e-01,2.36534e-01,2.35504e-01,3.32862e-01,1.06552e-03,4.12182e-02,-4.93435e-02,1.26619e-01,9.62458e-02,1.43700e-01,1.24476e-01,1.21454e-01,2.50017e-01,1.07198e-01,1.71959e-01,-1.59338e-01,-1.39538e-01,-2.63187e-02,-4.60938e-03,-1.22430e-03,-2.01274e-02,1.08293e-02,-3.93924e-02,1.83135e-03,-6.26059e-02,5.64523e-03,3.17819e-01,2.42721e-01,2.30254e-01,-1.14786e-01,2.83188e-01,1.90601e-01,8.95361e-02,1.12162e-01,1.16297e-01,2.64734e-01,3.82975e-02,7.76419e-02,5.73394e-01,6.08170e-01,2.95053e-01,2.47404e-01,-1.63252e-02,-1.63315e-02,-1.00690e-02,2.06913e-03,-2.07893e-02,-1.31976e-02,1.27746e-02,3.49275e-02,-4.29198e-02,-1.14931e-01,1.73261e-01,2.76754e-01,2.30661e-01,2.39591e-01,2.59289e-01,2.14341e-01,1.21725e-01,-8.12484e-02,-4.42698e-01,-5.81368e-01,-3.17951e-01,-4.70461e-02,2.18577e-01,4.89718e-01,3.34573e-01,-1.55022e-01,-3.09204e-02,-1.20450e-01,3.46601e-02,3.12563e-02,-1.89921e-02,7.88829e-04,
-2.06243e-02,6.26376e-03,3.86894e-04,2.59873e-02,3.20922e-02,1.37166e-03,-1.10899e-04,-3.82992e-03,-8.17937e-03,-1.83635e-02,-2.50597e-02,2.23844e-02,7.26306e-02,6.50089e-02,4.20509e-02,3.92544e-02,-1.81116e-02,1.90390e-02,-1.21495e-02,-3.34226e-02,-1.46647e-02,-1.92920e-02,3.83050e-03,-2.67096e-02,1.13948e-02,-2.42376e-02,-1.12825e-02,2.25320e-02,5.24665e-03,1.50786e-02,1.77953e-02,-1.45935e-02,-3.16904e-03,-4.44035e-02,-1.14169e-01,-4.50663e-02,-1.74700e-03,2.43244e-02,3.45602e-02,-9.63153e-03,7.86350e-02,-2.01461e-02,3.54724e-02,-2.25743e-01,-1.45049e-01,1.37685e-01,5.93075e-01,9.60097e-02,1.49945e-01,2.57509e-01,1.23119e-01,3.76822e-02,3.19772e-02,1.33873e-02,4.30919e-03,-1.38095e-02,-3.39317e-02,1.73627e-02,4.52488e-02,-3.50955e-01,-3.98548e-01,-3.31382e-02,-9.63042e-02,-6.25395e-02,-4.58385e-02,-9.90264e-02,-1.66326e-01,-1.85698e-01,-9.78030e-02,-6.23141e-02,-1.59064e-01,-8.78803e-02,-6.14648e-03,-1.33524e-02,-4.84156e-02,2.66357e-01,1.84692e-01,3.51493e-01,2.98029e-01,1.59495e-01,1.20799e-01,1.07657e-01,-1.55113e-03,1.54482e-02,3.41353e-02,2.39861e-02,2.18433e-02,-2.97726e-01,-3.49512e-01,-4.64447e-02,-7.53734e-02,-2.85109e-02,-4.58422e-01,2.58994e-02,6.75866e-03,-2.19353e-01,-3.57583e-01,-2.36629e-01,-8.08355e-02,-3.23835e-01,-1.26360e-01,-4.79697e-02,-3.63794e-01,-2.04550e-01,3.72862e-01,3.50200e-01,2.90636e-02,1.01045e-01,1.03998e-02,9.89981e-02,-4.77766e-03,-1.67617e-03,2.35830e-02,2.81421e-03,7.47768e-02,-1.41455e-01,-1.36265e-01,-7.53468e-02,-6.76891e-02,8.53386e-02,6.99133e-02,1.91289e-01,-5.78848e-02,-2.20666e-01,1.44713e-01,5.31343e-01,1.04815e-02,-3.39701e-01,-2.96660e-01,-5.16356e-01,-2.50088e-01,-3.78783e-02,7.84928e-02,3.27906e-01,6.93874e-02,5.59410e-02,3.45056e-01,3.38111e-01,-3.53436e-01,-1.37847e-01,2.83809e-02,2.45744e-02,1.92336e-01,-9.62613e-02,-3.51380e-01,-1.43265e-01,-1.64456e-01,-1.80182e-01,-3.31437e-01,4.10610e-02,6.28826e-02,1.74115e-01,2.11353e-01,1.41544e-01,7.66794e-03,4.69993e-02,-5.79787e-02,-3.66806e-01,-5.04514e-01,-4.21778e-01,-1.42400e-01,-2.82556e-02,-9.43319e-03,1.86205e-01,1.80839e-01,3.52958e-01,-1.92045e-01,-1.65368e-01,1.95560e-02,-4.19501e-02,-2.29550e-02,-1.00583e-01,-5.42031e-01,-2.16755e-01,-2.84007e-01,-3.87770e-01,-3.24836e-01,-8.95976e-02,-3.13647e-01,6.85858e-02,2.02735e-01,1.60380e-01,-2.74352e-03,-2.94628e-01,-2.72580e-01,-1.40985e-01,-2.71409e-01,-5.79579e-02,-1.49750e-02,1.62326e-01,1.11818e-01,8.53496e-02,7.12625e-02,-5.33871e-02,-5.39386e-02,-1.41541e-01,2.90809e-02,-9.08086e-02,1.00750e-02,-5.27254e-02,-5.18623e-01,-7.58432e-02,-5.58247e-02,-2.77939e-01,-2.43112e-01,-2.38921e-02,-1.41673e-01,-7.06700e-02,2.07223e-01,1.63209e-01,3.51970e-02,-3.00219e-01,-2.24338e-01,-1.68745e-01,-1.78714e-01,2.14822e-01,-5.31946e-03,-5.63453e-02,-9.08506e-02,6.23430e-02,2.93755e-01,1.75718e-01,-8.18320e-02,-2.63062e-01,-1.56317e-01,6.75444e-02,2.98821e-01,-2.57968e-01,-3.78275e-01,3.65946e-02,-3.37097e-02,-1.26082e-01,-4.28453e-01,-9.38793e-02,-4.35657e-02,1.67972e-02,2.13205e-01,2.94440e-01,1.62575e-01,-1.25441e-01,-3.42102e-01,-3.31403e-01,-8.54636e-02,5.69325e-02,-4.01019e-02,-5.34604e-04,1.16462e-02,1.44264e-01,2.84967e-01,3.11102e-01,5.02451e-02,-7.89768e-02,-5.91263e-03,-7.45843e-02,2.93522e-01,-4.14299e-01,-1.11945e-01,-9.19606e-02,-2.22238e-01,-7.73460e-02,-1.75150e-01,-2.44679e-01,-1.65535e-01,-1.02016e-01,1.78190e-01,2.63560e-01,8.38476e-02,-2.82537e-01,-4.11526e-01,-2.32692e-01,4.60239e-02,1.78866e-02,-6.45974e-03,1.93256e-01,-6.15153e-02,-6.41341e-02,-6.24132e-02,5.16776e-03,1.45820e-01,-1.84225e-01,-3.32053e-02,-2.86208e-02,7.90956e-02,-3.31795e-01,-1.04291e-01,-1.44504e-01,-3.14047e-01,-3.27039e-02,-1.19450e-01,-4.21575e-01,-2.51191e-01,7.12613e-02,3.28271e-01,3.04868e-01,-6.72230e-02,-2.39750e-01,-1.52599e-01,5.10237e-02,-4.14376e-02,2.95027e-02,-1.22131e-01,-3.84286e-02,-2.65788e-01,-1.48942e-01,-4.06390e-01,1.59665e-02,1.38981e-01,3.74490e-03,-2.48927e-02,-4.46002e-01,-2.32414e-01,-3.61035e-01,-5.00042e-01,-2.17675e-01,-4.82938e-01,-7.44956e-02,-1.13775e-01,-2.78346e-01,-1.10517e-01,2.56356e-01,3.63905e-01,-5.65464e-02,-1.87038e-01,-3.92167e-01,-2.41734e-01,-8.80673e-02,-6.50882e-02,1.97496e-02,-5.35647e-02,-2.08407e-01,-3.75093e-01,-3.89457e-01,-4.36798e-01,7.04796e-02,-1.94363e-02,-1.16065e-02,-2.82492e-02,-3.88307e-02,-2.71623e-01,-1.75796e-01,-4.59954e-01,-5.10903e-01,-3.74088e-01,-1.05544e-01,8.85281e-02,-2.21548e-01,1.24083e-01,2.82631e-01,4.57135e-01,1.87473e-01,-2.73026e-01,-9.54429e-02,-8.99385e-03,-1.39136e-01,-4.17867e-02,-3.79879e-02,1.02996e-01,-3.85925e-01,-1.48144e-01,-4.82390e-01,-3.40606e-01,5.58340e-02,-2.20375e-01,-5.68561e-02,-3.71727e-04,-1.16436e-01,-4.95048e-02,-2.36630e-01,-6.76768e-01,-3.00127e-01,4.27601e-02,1.62996e-01,3.57953e-02,-2.10523e-02,2.21434e-01,3.09345e-01,1.32214e-01,-7.89778e-02,-1.90076e-01,8.74353e-04,-4.90627e-02,7.78955e-02,-2.71813e-03,-7.73923e-03,2.32727e-02,-8.40317e-02,-7.27413e-02,-2.31349e-01,-2.62816e-01,-2.93776e-01,-2.83384e-01,-2.75294e-02,-5.86913e-02,-2.88192e-02,9.96909e-03,-6.86605e-02,-2.11538e-01,5.27422e-03,-9.67600e-03,1.84317e-01,1.82003e-01,-3.59010e-02,7.46971e-02,1.84058e-03,2.16699e-02,-1.23062e-02,9.96181e-02,3.51896e-02,1.55865e-02,2.19032e-02,-8.25419e-02,5.13120e-02,8.21401e-02,-7.03374e-02,-3.65861e-02,1.36982e-01,5.05365e-02,2.42004e-01,-2.03836e-01,-2.01376e-02,-5.16995e-02,-9.13551e-02,-1.00833e-02,-2.37846e-02,3.06362e-02,-2.56241e-02,-8.26571e-02,-3.81791e-02,9.98611e-02,1.86425e-01,1.81842e-01,1.19143e-01,1.10724e-01,5.24319e-02,2.37463e-01,2.25070e-01,1.64040e-01,1.74088e-01,-3.52781e-02,1.36468e-01,1.94753e-01,3.10608e-01,2.60696e-01,3.54907e-01,-1.62344e-01,-6.41215e-02,-6.49453e-03,-1.12030e-01,9.10149e-02,-9.17275e-02,1.59732e-01,-1.92993e-01,4.30544e-02,5.64139e-02,1.97149e-01,6.97992e-02,1.21855e-01,1.35401e-01,1.20854e-01,1.92379e-01,3.44989e-01,2.21677e-01,3.49509e-01,2.63878e-01,3.35095e-01,3.15478e-01,4.15816e-01,1.56580e-01,2.21185e-01,3.59103e-01,7.30413e-02,1.40359e-01,6.77498e-02,-1.18899e-01,-1.30108e-01,-4.88144e-01,2.91093e-02,-4.36390e-02,1.82342e-01,-1.39074e-01,4.32845e-01,1.48488e-01,3.66271e-01,4.23685e-02,2.69408e-02,1.55626e-02,1.30789e-01,1.50787e-01,1.68345e-01,1.59053e-01,1.70897e-01,2.27231e-01,2.04408e-01,8.32439e-02,2.62625e-01,2.85244e-01,1.98599e-01,5.42673e-01,1.06629e-01,1.56666e-01,5.10989e-02,-2.31857e-01,-1.14281e-01,-4.38739e-01,-6.93887e-03,-1.44728e-02,1.01383e-01,1.98723e-01,3.31794e-01,7.16151e-02,2.52434e-01,2.17866e-01,-2.25367e-01,-2.46338e-01,-3.77478e-01,-1.95587e-01,-2.40439e-01,-1.17621e-01,1.41799e-01,7.85415e-02,2.24538e-02,9.70848e-03,3.95065e-02,3.04936e-01,3.09786e-01,4.44554e-01,1.20292e-01,1.21343e-01,5.99824e-02,-4.31010e-02,2.86422e-01,2.89510e-01,-3.54770e-02,-4.18203e-01,1.97290e-02,5.41924e-01,4.78608e-01,1.44827e-01,-1.31954e-01,-1.07469e-02,-9.64897e-02,-2.15310e-01,-2.82915e-01,-1.16008e-02,-3.11852e-01,-1.57716e-01,2.18443e-01,1.60753e-01,-3.10456e-02,-2.59935e-01,-2.96047e-01,-1.34232e-01,-3.11431e-01,-1.90496e-01,-2.46726e-01,-3.02534e-03,-2.25476e-01,-7.55611e-02,1.65363e-01,2.86361e-01,-1.06643e-02,-4.00344e-02,1.36052e-01,6.60432e-02,3.63311e-01,3.79979e-02,-2.05875e-01,-2.45705e-01,-3.49845e-01,-3.16036e-01,-2.04428e-01,-1.15774e-01,-3.24824e-02,-9.83262e-02,1.53176e-01,-8.67943e-02,-9.48194e-02,-3.70413e-01,-3.98302e-01,-4.51999e-01,-5.37917e-01,-1.17638e-01,-1.86433e-01,-1.45402e-01,-2.41835e-01,-3.67024e-01,1.68255e-01,-1.71566e-02,3.26786e-02,9.29347e-03,-3.00668e-02,-3.25972e-02,3.10159e-01,2.46184e-02,-4.41594e-01,-3.90992e-01,-1.95677e-01,-1.07264e-01,-7.58029e-02,1.39953e-02,6.18213e-02,-5.37934e-02,-1.49764e-01,-2.05962e-01,-6.50809e-03,-3.13410e-01,-2.56108e-01,-3.45797e-01,1.15053e-02,-1.13728e-01,-1.11575e-01,-3.75457e-02,2.13033e-01,-1.30715e-01,-2.70573e-01,7.70312e-03,-2.78208e-02,2.71951e-02,-5.06627e-02,-3.29041e-01,-3.89823e-01,-3.95878e-01,-2.64808e-01,-2.18062e-01,9.77259e-02,-1.26503e-01,1.00846e-03,6.39888e-02,5.52849e-02,-7.40382e-02,-3.07096e-01,-3.73073e-02,1.32116e-01,-2.36724e-01,-2.19603e-01,1.98706e-01,2.09909e-01,2.39345e-02,-2.92538e-01,-1.14367e-01,6.01325e-02,-1.86869e-02,-3.46193e-01,2.14266e-02,-2.04937e-02,-6.31384e-06,-3.44952e-02,-2.68974e-01,-3.51267e-01,-2.34876e-01,3.29019e-01,9.25377e-02,-1.28831e-01,-3.45934e-02,1.64317e-01,1.84267e-02,1.67422e-02,-1.08650e-01,-2.56709e-02,-2.61705e-02,-4.21379e-03,-9.92559e-02,-2.70732e-01,1.86020e-01,-1.47040e-01,-5.73914e-03,-2.93217e-01,-1.61127e-01,3.29458e-02,-1.00850e-01,-2.10072e-01,1.30248e-02,-1.35583e-03,-2.42961e-02,-4.03452e-02,-7.09191e-02,-1.10151e-01,-2.51342e-02,2.36354e-01,9.03274e-02,1.44824e-01,2.05253e-01,1.33252e-01,1.10254e-01,-1.14330e-01,6.22710e-02,2.51219e-02,-1.30728e-01,5.55179e-02,-2.62369e-02,-2.55885e-01,-2.12343e-01,-3.77245e-01,2.04255e-03,-3.14845e-02,-3.00257e-02,-2.21776e-01,3.97415e-01,1.36776e-01,-3.10860e-04,1.29029e-02,1.65692e-02,4.41147e-02,-7.41188e-02,9.63214e-02,-6.72685e-03,1.84492e-01,-1.98290e-01,-9.19115e-02,-2.15358e-02,6.26532e-02,5.65974e-02,1.32586e-01,7.50806e-02,1.82173e-01,1.73787e-01,6.70783e-02,-3.61246e-01,3.23428e-02,-2.15947e-01,-5.81947e-01,5.75063e-04,-3.50876e-01,-3.22943e-03,-9.71541e-02,-3.33816e-02,-2.36565e-02,-6.51004e-03,-1.46862e-02,-1.25791e-02,-3.00679e-02,3.58185e-02,3.55842e-02,1.94143e-01,2.21970e-01,-2.44297e-01,-3.36445e-01,8.11407e-02,-9.25987e-02,-1.70873e-01,-2.96453e-01,-4.12018e-01,-4.33799e-01,4.50653e-02,6.15827e-02,-2.38885e-01,-3.32858e-02,-2.67690e-01,-1.74681e-01,1.01031e-02,-2.48927e-01,1.74057e-01,1.15024e-01,7.81930e-02,-1.07767e-02,-3.27508e-02,2.24687e-02,-3.30914e-02,2.84971e-02,2.39003e-02,1.66794e-02,-2.62792e-02,-1.85601e-01,-2.10070e-01,-2.23519e-01,-1.26036e-01,-5.74225e-01,-3.57997e-01,6.49677e-02,7.28494e-03,-4.39997e-01,-3.67889e-01,-7.32206e-02,-1.71294e-02,-1.05696e-01,-1.02404e-01,1.92826e-01,3.21675e-01,3.07621e-01,-5.87951e-03,-2.82948e-02,1.43865e-02,8.86015e-04,2.76595e-02,
-5.91504e-04,3.22958e-02,-8.28500e-04,9.41455e-04,-8.67128e-03,-2.80236e-02,-2.16962e-02,1.47844e-02,1.34603e-02,3.47505e-02,-1.15508e-02,1.59887e-02,-8.52082e-03,-9.61860e-03,5.13282e-02,4.80138e-02,6.66078e-03,-2.26937e-02,1.97580e-02,1.04551e-02,-2.40809e-02,-8.02032e-04,2.40471e-02,-2.58990e-02,-2.62400e-02,7.87718e-04,3.26935e-02,-2.53313e-02,3.04293e-02,2.61838e-02,4.96628e-03,2.33209e-02,-1.61976e-02,1.61008e-02,3.70094e-02,7.93619e-03,-2.06799e-02,2.60736e-02,1.10635e-02,3.93893e-02,3.42055e-01,3.81588e-01,-4.11251e-02,-5.16985e-02,2.56990e-01,2.85377e-01,1.90545e-01,7.47141e-03,-2.60353e-02,-7.55541e-03,-2.55024e-02,-6.97393e-03,2.42277e-02,-1.37357e-02,3.43650e-02,-2.33137e-02,-6.94728e-03,-1.82426e-02,-1.32562e-02,-2.71291e-02,8.78484e-03,2.68435e-02,1.69440e-02,1.81873e-02,9.83893e-02,1.19170e-01,8.58788e-02,2.12549e-01,1.52182e-01,1.70853e-01,1.87760e-02,-5.61127e-02,-1.74321e-01,-4.30627e-02,7.07986e-02,-1.04629e-01,-8.60182e-02,5.26466e-02,7.84275e-02,1.13008e-01,6.34233e-02,5.33834e-02,-2.94074e-02,-1.50394e-02,2.02689e-02,1.92944e-02,-8.32962e-02,-3.39779e-02,1.14338e-01,2.57889e-01,5.71499e-02,4.07965e-01,7.20870e-01,2.24273e-01,2.68355e-01,3.97539e-01,4.88982e-01,3.02556e-01,-1.72065e-01,-3.77020e-01,1.54871e-01,4.75957e-02,4.05265e-01,1.21796e-01,-1.98693e-01,-8.81938e-02,-8.05921e-02,-1.00589e-01,-1.83159e-03,3.97858e-02,8.40107e-03,-1.45614e-02,-5.44918e-03,-1.08457e-02,-1.24700e-02,2.94980e-01,-3.04439e-02,-9.05144e-02,-1.06551e-01,-2.50010e-02,5.02946e-02,8.39850e-02,1.07602e-01,2.93230e-01,3.33542e-01,-3.99754e-03,-6.12474e-02,-3.15548e-02,3.44006e-01,-1.75484e-01,-1.32748e-01,2.17713e-02,3.88635e-02,-9.47566e-03,1.74686e-02,1.07144e-01,1.60107e-01,1.75069e-01,2.26209e-02,7.90608e-02,2.88013e-02,-1.62794e-02,2.24291e-01,9.68103e-02,1.67299e-01,-2.89834e-01,4.66516e-02,1.51521e-01,-1.54952e-01,-3.90018e-02,-5.49857e-02,2.82353e-01,1.70800e-01,9.35993e-03,1.70708e-01,5.86215e-02,1.97956e-01,-1.25864e-01,-6.48854e-02,4.07827e-02,1.51038e-01,5.87269e-01,7.85874e-01,4.27049e-01,3.40876e-02,1.11134e-01,7.80035e-02,3.15167e-02,-3.48673e-02,-1.20977e-03,-2.51641e-02,-3.70311e-01,-4.01900e-01,-1.35623e-01,-8.19069e-02,2.70067e-01,-1.56408e-01,-1.87902e-01,2.55893e-01,3.22081e-01,-7.93907e-03,-1.77761e-01,-1.76659e-01,-6.94757e-02,-1.07876e-01,-8.13717e-03,2.07562e-01,9.12389e-02,-1.49634e-01,3.42587e-01,4.54393e-02,1.24345e-01,-1.68012e-02,2.03614e-01,1.10321e-01,5.87561e-02,-5.72681e-02,1.90591e-02,-1.84114e-02,-4.30243e-01,-1.34241e-01,-1.76297e-02,-2.52984e-02,1.60825e-01,3.50750e-01,-1.88979e-01,1.27383e-01,1.65655e-01,-4.49303e-02,-9.15819e-02,-4.61190e-02,-1.31995e-01,-1.88240e-01,-3.14466e-01,8.75520e-03,-1.43838e-02,-3.41916e-01,-1.18385e-01,1.30505e-03,-3.62673e-01,2.19077e-02,3.41364e-02,9.88963e-03,1.19117e-01,-5.66733e-02,-4.48033e-02,5.62674e-02,7.99127e-02,-2.31700e-02,-1.74191e-01,-7.13312e-02,8.23535e-02,8.16978e-02,-1.09436e-01,5.05363e-02,8.43523e-02,7.63205e-02,1.16577e-02,-4.78141e-03,-1.04805e-01,1.21928e-01,-2.06218e-01,7.86289e-02,1.18559e-01,-1.27989e-01,-1.98424e-01,1.02737e-02,-3.25492e-02,-1.29753e-02,5.24948e-02,1.11228e-01,1.33482e-01,-1.92783e-02,-2.66327e-01,3.67976e-01,1.86231e-01,-1.21656e-01,-1.85942e-01,-1.45407e-01,1.90674e-01,2.08501e-02,9.90425e-02,-1.95920e-01,-3.08578e-02,-5.30117e-02,-8.58603e-02,3.71425e-02,8.96220e-02,6.68533e-02,2.53345e-02,-2.35435e-02,5.01690e-02,6.03363e-02,-1.23443e-01,-3.18748e-02,3.46040e-01,2.46356e-01,2.39320e-01,-4.85286e-02,-3.52376e-02,1.19474e-02,-1.72829e-01,1.52694e-01,2.48428e-01,-1.81042e-01,-1.89193e-01,1.10296e-01,6.04417e-02,1.44927e-01,-2.09319e-01,-1.60685e-01,-1.00832e-02,-1.43897e-01,-4.31490e-02,-3.60190e-02,6.34988e-02,1.45941e-02,1.17226e-02,1.13304e-01,2.68692e-01,1.66353e-01,2.78553e-01,2.43465e-01,3.74687e-01,2.53020e-01,-8.74070e-03,2.34537e-01,-1.60656e-01,-1.13612e-01,-5.50973e-03,-3.66446e-01,3.55827e-01,1.65928e-01,-4.44700e-02,1.21332e-01,-4.99326e-02,-2.89145e-02,-2.74018e-01,-1.52929e-01,-1.57269e-01,-1.73981e-01,-2.24159e-01,-2.00404e-01,-2.45138e-01,-3.10482e-01,-1.19585e-01,4.51564e-02,3.14319e-01,2.63104e-01,2.09498e-01,1.03148e-01,-8.25894e-02,2.89164e-01,-1.40574e-01,2.48308e-01,-6.02478e-02,-8.70983e-02,-8.58725e-02,-3.92983e-01,2.30800e-01,1.15911e-02,2.73772e-02,1.71125e-01,-6.75600e-03,-8.70418e-02,-9.68684e-02,1.18356e-01,5.82513e-02,-1.65852e-01,-3.30798e-01,-2.33211e-01,-6.24160e-01,-2.82129e-01,-2.13470e-01,-1.69442e-01,9.36353e-02,-1.62977e-01,4.14034e-02,-1.62001e-01,-4.75323e-02,5.24624e-02,-2.10421e-01,1.66800e-01,-1.16418e-01,4.17747e-02,-1.59324e-01,-2.32918e-01,2.06105e-01,-2.35016e-01,-8.80929e-02,1.22765e-01,-9.87124e-02,-3.42884e-02,-5.28970e-02,-3.69401e-02,8.85860e-03,-4.96545e-02,-2.47263e-01,-2.37298e-01,-2.06445e-01,-2.51318e-01,-2.68873e-01,-1.60889e-01,-1.53031e-01,-4.72683e-01,-3.23936e-01,-6.75748e-01,-6.31653e-01,-4.26426e-01,-2.45901e-01,8.73895e-02,2.85031e-02,-1.18297e-02,-1.36050e-01,-2.73944e-01,1.64673e-02,-3.84330e-02,-3.15122e-01,6.90893e-02,7.67659e-02,-2.67559e-01,-2.97616e-01,-2.29947e-01,-4.18100e-03,1.68482e-01,3.30542e-01,1.90193e-01,1.38000e-01,-1.28133e-01,-1.10845e-01,-4.22652e-01,-9.44903e-01,-8.41575e-01,-9.98397e-01,-8.60199e-01,-5.79463e-01,-3.85469e-01,-3.05503e-01,4.88078e-02,1.75079e-02,1.29911e-02,1.18522e-01,-2.25310e-02,-4.62457e-01,-3.84444e-02,-1.56165e-01,5.72857e-02,1.66832e-01,-1.16487e-01,-1.09615e-01,-1.96932e-01,-1.36240e-01,2.16527e-01,3.59922e-01,3.45774e-01,9.29047e-02,8.38793e-02,-1.40518e-01,-3.38458e-01,-6.19426e-01,-7.26378e-01,-7.75807e-01,-7.98006e-01,-6.34395e-01,-2.76108e-01,-2.57251e-01,9.08558e-02,7.77948e-02,-6.21168e-03,1.64786e-01,2.18035e-01,-1.84882e-01,1.61169e-01,2.31821e-01,4.19859e-02,3.37229e-02,-4.32684e-02,2.07975e-02,-1.86843e-01,-2.30633e-01,1.10119e-01,2.77776e-01,2.26621e-01,4.91962e-02,1.41297e-02,-2.40746e-01,-1.54516e-01,-1.17736e-01,-2.20287e-01,-9.62941e-02,-3.02412e-01,-4.55757e-01,-2.49636e-01,-1.63770e-01,2.55940e-02,1.05501e-01,-4.15043e-03,3.49304e-02,1.94282e-01,3.16320e-01,2.86084e-01,2.78607e-01,-9.66372e-02,-7.38385e-04,1.15486e-01,-7.07322e-02,-2.82346e-01,-3.36758e-01,4.57038e-02,2.52736e-01,3.20597e-01,5.69483e-02,-7.45547e-02,-1.24345e-01,-8.87367e-02,7.33311e-02,6.62540e-02,1.36474e-01,1.78684e-01,-3.16179e-01,-4.12796e-02,-1.22450e-01,2.18706e-01,3.84426e-01,1.82161e-02,2.72031e-02,3.88880e-02,2.55621e-01,4.43791e-01,1.15086e-02,-2.72657e-01,-1.51178e-01,-2.19468e-01,-4.77020e-02,-1.21995e-01,5.93296e-02,3.17664e-01,3.39362e-01,8.21551e-02,-4.96735e-02,-6.51695e-03,-1.57478e-01,-3.22445e-02,1.15290e-01,2.67776e-01,2.18978e-01,-7.17796e-02,-7.23374e-01,-3.17396e-01,-6.90139e-02,2.92534e-01,2.87488e-01,-1.37348e-02,-5.98472e-02,7.94357e-02,2.82878e-01,3.57979e-01,1.48612e-01,5.98437e-02,-9.44340e-02,-3.04697e-01,-3.12468e-01,-1.52828e-01,-8.75036e-02,1.79123e-01,1.63613e-01,4.17838e-02,-6.70733e-02,1.38668e-01,1.03484e-01,2.86141e-01,1.81749e-01,3.39148e-01,1.50753e-01,1.25003e-01,-4.48324e-01,-3.61810e-01,1.01425e-01,4.27597e-01,-1.07313e-02,-2.43075e-02,1.83664e-02,2.67142e-01,3.74882e-01,2.68017e-01,-7.67986e-02,9.98830e-02,6.93789e-02,-8.62031e-02,-5.46495e-02,-2.37218e-01,-2.96434e-01,-4.24431e-01,-9.60969e-02,-9.87529e-02,-6.84689e-02,1.21311e-01,1.54533e-01,3.07895e-01,1.26590e-01,2.50770e-01,3.45449e-01,1.51825e-01,3.26413e-02,-1.52928e-01,-1.00477e-01,3.46886e-01,-2.48993e-02,-1.14178e-02,5.81954e-02,4.18228e-01,2.36699e-01,4.72457e-01,9.16781e-02,3.86795e-01,4.00611e-01,2.49653e-01,1.85640e-01,-2.93394e-01,-4.76827e-01,-6.04106e-01,-2.96118e-01,-1.38703e-01,1.20618e-01,1.02178e-02,1.54209e-01,1.85942e-01,4.89360e-02,2.49226e-01,2.90909e-01,1.86252e-01,6.11035e-02,1.72762e-01,2.04910e-01,2.33989e-01,4.24608e-03,-1.28499e-03,1.17079e-02,2.91936e-01,3.01650e-01,4.65923e-01,1.08124e-01,2.19625e-01,7.55243e-02,1.35001e-01,-2.52632e-01,-3.67964e-01,-1.49317e-01,-2.16920e-01,-2.41893e-01,-4.85193e-02,4.55179e-02,1.03597e-01,2.98278e-01,2.27504e-01,3.36289e-01,3.62205e-01,2.04207e-01,5.46320e-02,1.63439e-01,3.58703e-02,-8.80797e-02,7.06716e-02,1.30786e-02,2.13658e-02,2.69044e-02,2.37410e-03,5.04453e-01,4.00770e-01,3.95024e-01,2.15597e-01,-5.47540e-02,1.58663e-01,-7.88727e-02,-2.61394e-01,3.32473e-02,9.41508e-02,1.27343e-01,2.80101e-01,3.08306e-01,2.70906e-01,2.23755e-01,3.76092e-01,2.43327e-01,4.91461e-01,1.34168e-01,5.90977e-02,-4.23573e-03,6.43916e-02,-1.32079e-01,-1.45267e-01,2.76488e-02,-3.05169e-02,1.50944e-02,4.40177e-02,3.23675e-01,2.18111e-01,1.21561e-01,-5.78023e-02,2.41772e-01,3.63440e-01,3.76012e-01,5.62416e-03,8.47878e-02,2.04158e-01,3.62482e-01,3.60539e-01,7.35621e-02,7.49453e-02,1.53423e-01,3.48263e-01,1.17824e-01,4.90245e-02,6.27326e-02,2.10403e-01,-9.91498e-02,1.34927e-02,-9.46002e-03,8.15844e-02,1.61525e-02,-6.10794e-03,-2.82983e-02,-2.27295e-01,-4.08084e-01,-6.21835e-01,-1.98094e-01,4.06723e-02,2.68283e-01,2.21409e-01,2.29382e-01,4.59901e-01,4.80773e-02,1.34507e-01,1.58424e-01,-1.40703e-01,-4.20051e-02,-2.59844e-02,-2.31233e-02,-7.27911e-03,1.94237e-01,1.05110e-01,3.71872e-02,-2.00807e-01,2.44828e-01,4.52027e-01,-3.53527e-02,1.05794e-01,2.32294e-02,-1.17273e-02,2.06284e-02,5.97752e-03,-4.42851e-02,-9.44704e-02,-2.74110e-01,-3.17503e-01,7.53638e-02,1.43885e-01,-1.14510e-01,1.45781e-01,2.43603e-01,3.44414e-01,-3.65947e-02,-2.98481e-01,-7.94333e-02,2.17331e-01,4.13872e-01,1.56870e-01,1.40056e-01,1.58813e-01,-1.31357e-01,-1.04902e-01,-7.47662e-02,2.78077e-02,2.17096e-02,3.38248e-02,-1.66231e-02,1.01400e-03,-8.53784e-03,-6.83175e-03,-3.37275e-03,-2.51985e-02,-7.29459e-02,-8.06030e-02,-8.09327e-02,-8.57574e-02,-4.57569e-02,1.23825e-01,1.23089e-01,1.98507e-01,9.38359e-02,-2.56548e-01,-4.40479e-01,-3.80320e-01,-5.90999e-01,-5.58271e-01,-5.57103e-01,-4.92520e-01,-3.58615e-01,-1.31181e-01,4.22439e-04,-2.58063e-02,-7.22508e-03,-1.05736e-02,8.57597e-03,
1.11263e-02,-1.74874e-02,-9.66959e-03,-3.11611e-02,-1.80339e-02,-2.92988e-02,3.32289e-02,-1.57811e-02,7.43210e-04,-3.17701e-02,-1.77050e-02,-1.67570e-02,1.27767e-01,1.08437e-01,-7.19342e-02,-3.18997e-02,9.90795e-04,-1.67414e-02,-2.56949e-02,1.28778e-02,9.15612e-03,-8.46974e-04,-2.39529e-02,8.55733e-03,3.49455e-02,2.32948e-02,2.11375e-02,-1.29244e-03,2.30580e-02,-5.68174e-03,7.71629e-03,-2.07211e-02,1.82171e-02,2.77491e-02,-3.93802e-02,1.81487e-02,1.00758e-01,1.20365e-01,3.24508e-01,2.31161e-01,5.47824e-01,3.78964e-01,2.32584e-01,4.50871e-02,-1.78948e-01,-1.77169e-02,1.83582e-01,1.86927e-01,2.12261e-01,2.57371e-01,2.49356e-01,1.55681e-01,-1.00378e-03,-1.07234e-02,3.64705e-03,2.25302e-02,-2.31978e-02,-1.34155e-03,-7.30214e-03,-2.02011e-01,-1.23883e-01,1.27440e-01,2.13613e-01,1.98331e-01,3.47941e-01,5.08198e-01,6.46574e-01,8.43872e-01,4.76851e-01,3.58891e-01,1.79538e-01,1.21672e-01,-3.09489e-01,-5.74801e-01,-5.31401e-01,-1.41110e-01,2.80900e-01,4.92994e-01,5.75000e-01,3.00560e-01,1.26820e-01,5.06323e-02,2.59291e-02,-3.10363e-02,-3.03070e-02,-3.68118e-03,-2.91662e-02,-2.74782e-01,-1.91122e-01,3.34213e-01,2.13494e-01,3.07571e-01,2.60034e-01,1.85606e-01,-1.30413e-01,2.03678e-01,2.99282e-01,1.51973e-01,-9.31466e-02,-2.15565e-01,-3.80039e-01,-6.62859e-01,-3.75067e-01,2.50814e-01,9.57596e-02,-2.29839e-01,-1.78200e-02,2.77454e-01,6.12895e-01,5.93690e-01,4.23079e-01,-1.22814e-02,-1.52385e-02,-1.66805e-02,-3.38235e-02,-2.88298e-01,1.93921e-01,3.00646e-01,3.14065e-01,2.02773e-01,3.13569e-01,1.91115e-01,2.85737e-02,2.30806e-01,5.61683e-01,2.71855e-01,-3.43375e-01,-7.43956e-01,-7.38644e-01,-6.40522e-01,-4.66763e-01,-8.68377e-02,7.17305e-03,-1.23669e-01,2.98094e-01,4.77531e-01,2.89650e-01,-2.58552e-01,-1.09864e-01,6.75209e-01,-2.87679e-02,3.04051e-02,-1.43677e-01,-1.18832e-01,5.75659e-01,5.31233e-01,3.07145e-01,1.72168e-01,-4.07769e-02,6.37125e-02,1.91181e-01,5.37899e-02,1.87688e-01,-2.48178e-01,-3.61122e-01,-9.92721e-01,-5.37598e-01,9.92994e-02,4.22528e-01,4.70380e-01,3.30011e-01,2.65725e-01,2.18520e-01,8.55900e-02,3.49528e-01,2.37650e-01,4.15705e-01,7.28793e-01,1.44193e-02,-2.60586e-03,-1.71714e-02,-1.53094e-01,1.71592e-02,5.29698e-02,2.71663e-01,5.25935e-02,1.91298e-01,4.17769e-01,-1.58991e-01,7.66463e-02,-8.90334e-02,-3.26526e-01,-6.24992e-01,-7.44705e-01,-4.20880e-01,-1.28824e-01,1.83912e-01,1.92072e-01,1.71929e-01,4.80927e-02,-1.15719e-01,9.14706e-03,-1.55057e-01,1.64925e-01,3.00120e-01,3.88507e-01,-3.01544e-02,-2.70779e-01,-5.90251e-02,-2.41027e-01,1.39328e-01,3.65610e-01,-8.07710e-03,7.69165e-02,2.58110e-01,1.38639e-01,5.07295e-02,1.83395e-01,7.32661e-02,-3.61107e-01,-7.43577e-01,-7.28700e-01,-3.34792e-01,1.62730e-01,3.49129e-01,2.20658e-01,-2.58173e-02,3.45970e-02,-1.81517e-02,-8.31786e-02,-1.83205e-01,1.15790e-01,3.48767e-01,3.85367e-01,5.69231e-02,-1.28347e-01,1.65594e-01,-3.22612e-01,3.28055e-01,8.62747e-02,-2.87259e-01,-1.25943e-01,-2.20313e-01,2.71006e-02,1.62830e-01,1.84122e-01,-2.42815e-02,-5.60286e-01,-7.21506e-01,-7.08401e-01,4.04369e-02,3.06602e-01,3.32084e-01,1.37449e-02,3.74638e-02,-8.41263e-03,-2.35262e-01,-2.47792e-02,-3.67560e-01,1.70594e-01,-1.16651e-01,-1.23021e-01,5.77008e-03,-6.97356e-03,-5.44842e-02,-2.50333e-01,1.60370e-01,-9.73157e-02,-4.26568e-01,-4.06468e-01,-1.75977e-01,8.14859e-02,9.26344e-02,2.44062e-01,1.06402e-01,-5.90738e-01,-8.96236e-01,-3.53411e-01,3.63967e-01,2.04965e-01,5.45966e-02,-1.74834e-01,9.40011e-02,5.79510e-02,-9.99770e-02,-1.25308e-01,-2.73998e-01,-8.38583e-02,-1.59400e-01,-2.16495e-01,1.53391e-02,-1.07741e-02,7.37230e-02,-7.95690e-02,-1.98909e-01,9.56097e-03,-4.25749e-01,-1.49447e-01,-4.77759e-03,-4.62937e-02,4.50031e-02,9.72319e-02,5.04398e-03,-8.17026e-01,-7.02566e-01,5.18869e-03,1.41535e-01,2.24669e-01,1.98889e-02,4.18161e-02,-1.28895e-01,4.46917e-02,-1.76696e-01,-2.55085e-01,4.80089e-03,1.19182e-01,-1.88920e-01,-1.32830e-01,-3.30427e-02,5.07940e-01,-1.94470e-01,-1.04748e-01,-1.77065e-01,4.63137e-02,-6.15509e-02,1.03303e-02,-1.55328e-02,-2.39571e-01,-4.40574e-02,-1.07325e-01,-1.08147e-01,-5.57596e-01,-6.69886e-02,-1.82549e-02,2.54353e-01,1.34171e-01,1.16057e-01,1.37301e-01,-1.20809e-01,-1.76769e-02,-1.29224e-01,-1.23607e-01,6.12432e-02,1.24710e-01,5.89423e-02,-1.97865e-01,-3.31312e-02,4.74540e-02,-1.54603e-01,4.91066e-02,-1.89404e-01,7.84655e-02,9.67109e-02,5.36258e-02,-1.78584e-01,-1.92287e-01,6.92601e-02,-1.57239e-02,-5.27467e-02,7.56132e-02,-1.17582e-02,1.20447e-01,1.63704e-01,1.47761e-01,-5.17029e-03,2.44481e-02,6.06489e-02,1.02303e-02,1.15280e-01,5.16221e-03,3.62579e-01,1.96512e-02,-4.93560e-01,-2.89056e-01,8.26181e-03,5.69789e-02,1.70988e-01,9.46573e-02,1.57176e-01,1.63948e-01,7.44101e-02,1.64394e-02,2.97622e-02,5.42146e-02,1.79451e-01,2.49139e-02,1.21679e-02,8.43671e-02,-9.49362e-02,-8.02136e-02,-7.53391e-02,4.18283e-02,7.63461e-02,4.41560e-02,3.44433e-02,1.34368e-01,1.79985e-01,5.47731e-02,3.20636e-01,-1.90231e-01,-4.67782e-01,5.50794e-02,-2.45299e-02,4.95249e-02,1.24770e-01,1.09434e-01,4.37482e-02,4.15261e-01,2.22653e-02,1.18252e-02,2.50789e-02,1.08669e-01,2.30645e-01,2.17097e-01,1.07401e-01,-2.54093e-04,7.77249e-02,2.69466e-02,7.08729e-02,9.54723e-02,-1.25348e-01,1.93484e-01,9.21571e-02,2.02604e-01,3.74936e-02,1.21471e-01,1.26390e-01,-4.93754e-02,-5.66868e-02,-4.74890e-02,-3.63464e-02,6.93322e-02,1.10316e-01,1.06125e-01,6.88159e-02,7.97767e-02,-5.02117e-03,8.83098e-02,8.88562e-02,4.73280e-02,1.92452e-01,1.82725e-01,5.00759e-02,2.24267e-01,2.18851e-01,2.09520e-01,6.69877e-02,1.43325e-01,1.78802e-03,1.97502e-01,2.31782e-02,7.53123e-03,1.66513e-02,2.02189e-01,-4.85797e-02,2.28234e-01,1.91199e-01,4.56748e-02,-1.67341e-02,2.89161e-02,6.66736e-02,-7.92289e-02,-4.11793e-01,-3.13642e-02,1.34288e-01,8.41580e-02,7.69627e-02,1.34432e-01,4.18178e-02,-3.13063e-02,4.80506e-02,6.39295e-02,2.48724e-01,1.87449e-01,1.36665e-01,4.88525e-02,3.56999e-02,8.53839e-02,7.73155e-02,2.06949e-01,-1.12884e-01,-1.30085e-01,1.91918e-01,4.82974e-01,1.00350e-02,-1.63810e-01,-3.27858e-02,3.82729e-02,-2.15890e-01,-6.27873e-02,-3.20947e-01,-6.38885e-02,2.83571e-02,5.91211e-02,4.44993e-02,6.35374e-02,8.33712e-02,-4.62920e-02,-1.09819e-01,-1.27419e-01,1.74081e-01,1.04378e-01,7.89105e-03,3.91894e-03,6.45180e-02,5.81706e-02,3.80131e-02,2.38611e-01,-5.57562e-02,-8.78802e-02,-9.49484e-02,4.02147e-01,1.76677e-01,-2.50782e-01,-3.97415e-02,-2.87748e-02,-1.69520e-01,1.74705e-01,-1.16712e-01,-1.65890e-01,-8.16702e-03,1.32198e-01,8.16447e-02,1.30031e-01,2.22487e-02,-3.41663e-02,-1.12073e-02,4.35132e-02,1.81663e-01,1.04800e-01,-9.50843e-02,3.36266e-02,5.15354e-02,4.54963e-02,-1.51113e-01,7.16119e-02,-2.93253e-02,-3.33050e-02,9.77580e-02,4.19621e-01,8.06741e-02,-6.33212e-02,-3.17917e-02,1.05246e-01,-1.86785e-01,4.94400e-01,-4.03841e-02,-1.95015e-01,4.45063e-02,1.27679e-01,1.04257e-01,3.30751e-02,-2.72764e-02,3.20401e-02,-2.68079e-01,5.39866e-02,9.14586e-02,1.49038e-01,1.05077e-02,5.88251e-02,-1.35456e-01,-1.39589e-01,-1.75004e-01,-2.51046e-02,-1.38290e-01,-1.41932e-01,1.77539e-01,1.53118e-01,9.81402e-02,8.81827e-02,-2.54389e-02,5.64225e-02,-4.34203e-01,4.07945e-02,5.28226e-02,-1.96246e-01,1.00660e-01,2.84507e-01,-4.77934e-02,-4.90831e-02,-1.53730e-01,-1.78092e-01,-1.97120e-01,-5.46454e-02,8.59012e-03,4.61971e-02,1.37795e-01,-3.24904e-02,4.82582e-03,-1.15006e-01,-1.01756e-01,-2.75532e-02,8.25002e-03,-3.17778e-01,-5.39799e-02,-1.97872e-01,2.41762e-01,4.84160e-02,-2.58687e-02,1.97224e-02,-2.31897e-01,1.31241e-01,1.75265e-01,1.89122e-01,2.62758e-01,2.57080e-01,6.69933e-02,-1.27346e-01,-1.95768e-02,-1.64365e-01,-3.19562e-01,1.34519e-01,-5.59314e-02,2.43779e-02,-4.13781e-02,-5.43073e-02,-9.38789e-02,-9.83372e-02,9.54590e-02,-5.96968e-02,-2.34809e-02,-3.26262e-02,-6.59351e-02,-1.83060e-01,3.29711e-01,-8.60849e-03,-3.17937e-02,-3.33693e-02,-7.54786e-02,-1.81233e-01,4.82325e-02,3.99786e-01,1.25202e-01,-1.11151e-01,-9.90384e-02,6.92373e-02,1.18453e-01,-6.13112e-02,-1.49646e-01,1.06112e-01,-2.37985e-01,-8.82889e-02,-1.21420e-01,-1.03069e-01,-3.13868e-02,-5.61154e-02,-1.08259e-01,1.91159e-01,2.23586e-02,-1.52149e-01,-9.66677e-02,-1.10937e-01,1.02230e-01,-1.84731e-02,-1.21545e-02,-2.26385e-02,-2.44794e-01,-1.31948e-01,-1.69734e-01,1.74977e-02,6.98401e-02,-4.65557e-03,-4.68857e-02,-8.87638e-02,7.83415e-02,-1.88367e-01,4.87013e-02,1.10083e-01,-1.41714e-01,-8.45262e-02,-4.63628e-02,-8.95082e-02,3.71612e-02,-2.68563e-01,-3.16814e-01,2.80076e-01,6.41967e-03,-6.89798e-02,-1.80587e-01,-4.69015e-02,9.84421e-02,-1.13128e-02,1.72543e-02,-3.08754e-02,-1.19049e-01,-1.42645e-01,-4.02718e-01,-2.54655e-01,-2.29245e-01,-1.79796e-01,-1.11296e-01,4.98181e-02,-9.65540e-02,-1.63483e-01,-2.32390e-02,4.18413e-01,1.00981e-01,-2.68391e-01,1.84779e-01,1.46381e-01,2.57804e-01,-1.05846e-01,-1.81494e-01,8.69015e-04,4.34091e-02,-2.63342e-01,-4.79875e-01,2.62759e-01,2.46039e-01,-1.76983e-02,-3.20695e-02,-1.37105e-02,-5.93305e-03,-5.23285e-02,-5.43634e-01,-4.09777e-01,-3.93285e-01,-3.41878e-01,-2.92355e-01,-1.84344e-01,-2.05485e-01,-6.13979e-02,-6.57680e-02,3.26194e-03,-1.53182e-01,-1.56691e-01,-4.40140e-03,2.79207e-02,1.20617e-01,-1.58614e-01,-3.65192e-01,2.20124e-02,-2.69487e-01,7.47904e-02,-1.14047e-01,1.59502e-01,2.22991e-01,3.34703e-02,-4.19254e-03,7.60385e-03,3.06379e-02,-2.60872e-02,2.81792e-04,-5.67083e-02,-1.69394e-01,-3.05217e-01,-7.98759e-02,-1.45553e-02,-2.01732e-01,-3.00732e-01,-1.54553e-02,-1.87245e-01,-4.18833e-01,-4.66362e-01,-2.31161e-01,-1.46693e-01,-3.40697e-01,-4.73041e-01,-8.01809e-01,-3.04086e-01,-3.68160e-01,-3.34512e-01,-2.14051e-01,-2.61932e-02,8.58344e-03,2.92273e-02,1.04253e-02,-1.07011e-02,-3.38134e-02,-3.41019e-02,-2.99768e-02,2.69161e-02,-5.41918e-02,-1.58953e-01,-1.44682e-01,-7.80669e-02,-5.71775e-01,-5.49432e-01,-2.77717e-03,-1.79423e-01,-2.65190e-01,-3.17112e-01,-9.16130e-02,-3.07349e-02,-6.04654e-02,-1.82683e-01,-8.81903e-02,2.27740e-01,2.09056e-01,-4.64400e-02,-7.52572e-03,-2.94901e-02,-8.00088e-03,1.48833e-02,
