// Neural Network File Format by Kyle Julian, Stanford 2016
10,784,10,784,
784,100,100,100,100,100,100,100,100,100,10,
0,
-3.4028235e+38,-3.4028235e+38,-3.4028235e+38,-3.4028235e+38,-3.4028235e+38,-3.4028235e+38,-3.4028235e+38,-3.4028235e+38,-3.4028235e+38,-3.4028235e+38,-3.4028235e+38,-3.4028235e+38,-3.4028235e+38,-3.4028235e+38,-3.4028235e+38,-3.4028235e+38,-3.4028235e+38,-3.4028235e+38,-3.4028235e+38,-3.4028235e+38,-3.4028235e+38,-3.4028235e+38,-3.4028235e+38,-3.4028235e+38,-3.4028235e+38,-3.4028235e+38,-3.4028235e+38,-3.4028235e+38,-3.4028235e+38,-3.4028235e+38,-3.4028235e+38,-3.4028235e+38,-3.4028235e+38,-3.4028235e+38,-3.4028235e+38,-3.4028235e+38,-3.4028235e+38,-3.4028235e+38,-3.4028235e+38,-3.4028235e+38,-3.4028235e+38,-3.4028235e+38,-3.4028235e+38,-3.4028235e+38,-3.4028235e+38,-3.4028235e+38,-3.4028235e+38,-3.4028235e+38,-3.4028235e+38,-3.4028235e+38,-3.4028235e+38,-3.4028235e+38,-3.4028235e+38,-3.4028235e+38,-3.4028235e+38,-3.4028235e+38,-3.4028235e+38,-3.4028235e+38,-3.4028235e+38,-3.4028235e+38,-3.4028235e+38,-3.4028235e+38,-3.4028235e+38,-3.4028235e+38,-3.4028235e+38,-3.4028235e+38,-3.4028235e+38,-3.4028235e+38,-3.4028235e+38,-3.4028235e+38,-3.4028235e+38,-3.4028235e+38,-3.4028235e+38,-3.4028235e+38,-3.4028235e+38,-3.4028235e+38,-3.4028235e+38,-3.4028235e+38,-3.4028235e+38,-3.4028235e+38,-3.4028235e+38,-3.4028235e+38,-3.4028235e+38,-3.4028235e+38,-3.4028235e+38,-3.4028235e+38,-3.4028235e+38,-3.4028235e+38,-3.4028235e+38,-3.4028235e+38,-3.4028235e+38,-3.4028235e+38,-3.4028235e+38,-3.4028235e+38,-3.4028235e+38,-3.4028235e+38,-3.4028235e+38,-3.4028235e+38,-3.4028235e+38,-3.4028235e+38,-3.4028235e+38,-3.4028235e+38,-3.4028235e+38,-3.4028235e+38,-3.4028235e+38,-3.4028235e+38,-3.4028235e+38,-3.4028235e+38,-3.4028235e+38,-3.4028235e+38,-3.4028235e+38,-3.4028235e+38,-3.4028235e+38,-3.4028235e+38,-3.4028235e+38,-3.4028235e+38,-3.4028235e+38,-3.4028235e+38,-3.4028235e+38,-3.4028235e+38,-3.4028235e+38,-3.4028235e+38,-3.4028235e+38,-3.4028235e+38,-3.4028235e+38,-3.4028235e+38,-3.4028235e+38,-3.4028235e+38,-3.4028235e+38,-3.4028235e+38,-3.4028235e+38,-3.4028235e+38,-3.4028235e+38,-3.4028235e+38,-3.4028235e+38,-3.4028235e+38,-3.4028235e+38,-3.4028235e+38,-3.4028235e+38,-3.4028235e+38,-3.4028235e+38,-3.4028235e+38,-3.4028235e+38,-3.4028235e+38,-3.4028235e+38,-3.4028235e+38,-3.4028235e+38,-3.4028235e+38,-3.4028235e+38,-3.4028235e+38,-3.4028235e+38,-3.4028235e+38,-3.4028235e+38,-3.4028235e+38,-3.4028235e+38,-3.4028235e+38,-3.4028235e+38,-3.4028235e+38,-3.4028235e+38,-3.4028235e+38,-3.4028235e+38,-3.4028235e+38,-3.4028235e+38,-3.4028235e+38,-3.4028235e+38,-3.4028235e+38,-3.4028235e+38,-3.4028235e+38,-3.4028235e+38,-3.4028235e+38,-3.4028235e+38,-3.4028235e+38,-3.4028235e+38,-3.4028235e+38,-3.4028235e+38,-3.4028235e+38,-3.4028235e+38,-3.4028235e+38,-3.4028235e+38,-3.4028235e+38,-3.4028235e+38,-3.4028235e+38,-3.4028235e+38,-3.4028235e+38,-3.4028235e+38,-3.4028235e+38,-3.4028235e+38,-3.4028235e+38,-3.4028235e+38,-3.4028235e+38,-3.4028235e+38,-3.4028235e+38,-3.4028235e+38,-3.4028235e+38,-3.4028235e+38,-3.4028235e+38,-3.4028235e+38,-3.4028235e+38,-3.4028235e+38,-3.4028235e+38,-3.4028235e+38,-3.4028235e+38,-3.4028235e+38,-3.4028235e+38,-3.4028235e+38,-3.4028235e+38,-3.4028235e+38,-3.4028235e+38,-3.4028235e+38,-3.4028235e+38,-3.4028235e+38,-3.4028235e+38,-3.4028235e+38,-3.4028235e+38,-3.4028235e+38,-3.4028235e+38,-3.4028235e+38,-3.4028235e+38,-3.4028235e+38,-3.4028235e+38,-3.4028235e+38,-3.4028235e+38,-3.4028235e+38,-3.4028235e+38,-3.4028235e+38,-3.4028235e+38,-3.4028235e+38,-3.4028235e+38,-3.4028235e+38,-3.4028235e+38,-3.4028235e+38,-3.4028235e+38,-3.4028235e+38,-3.4028235e+38,-3.4028235e+38,-3.4028235e+38,-3.4028235e+38,-3.4028235e+38,-3.4028235e+38,-3.4028235e+38,-3.4028235e+38,-3.4028235e+38,-3.4028235e+38,-3.4028235e+38,-3.4028235e+38,-3.4028235e+38,-3.4028235e+38,-3.4028235e+38,-3.4028235e+38,-3.4028235e+38,-3.4028235e+38,-3.4028235e+38,-3.4028235e+38,-3.4028235e+38,-3.4028235e+38,-3.4028235e+38,-3.4028235e+38,-3.4028235e+38,-3.4028235e+38,-3.4028235e+38,-3.4028235e+38,-3.4028235e+38,-3.4028235e+38,-3.4028235e+38,-3.4028235e+38,-3.4028235e+38,-3.4028235e+38,-3.4028235e+38,-3.4028235e+38,-3.4028235e+38,-3.4028235e+38,-3.4028235e+38,-3.4028235e+38,-3.4028235e+38,-3.4028235e+38,-3.4028235e+38,-3.4028235e+38,-3.4028235e+38,-3.4028235e+38,-3.4028235e+38,-3.4028235e+38,-3.4028235e+38,-3.4028235e+38,-3.4028235e+38,-3.4028235e+38,-3.4028235e+38,-3.4028235e+38,-3.4028235e+38,-3.4028235e+38,-3.4028235e+38,-3.4028235e+38,-3.4028235e+38,-3.4028235e+38,-3.4028235e+38,-3.4028235e+38,-3.4028235e+38,-3.4028235e+38,-3.4028235e+38,-3.4028235e+38,-3.4028235e+38,-3.4028235e+38,-3.4028235e+38,-3.4028235e+38,-3.4028235e+38,-3.4028235e+38,-3.4028235e+38,-3.4028235e+38,-3.4028235e+38,-3.4028235e+38,-3.4028235e+38,-3.4028235e+38,-3.4028235e+38,-3.4028235e+38,-3.4028235e+38,-3.4028235e+38,-3.4028235e+38,-3.4028235e+38,-3.4028235e+38,-3.4028235e+38,-3.4028235e+38,-3.4028235e+38,-3.4028235e+38,-3.4028235e+38,-3.4028235e+38,-3.4028235e+38,-3.4028235e+38,-3.4028235e+38,-3.4028235e+38,-3.4028235e+38,-3.4028235e+38,-3.4028235e+38,-3.4028235e+38,-3.4028235e+38,-3.4028235e+38,-3.4028235e+38,-3.4028235e+38,-3.4028235e+38,-3.4028235e+38,-3.4028235e+38,-3.4028235e+38,-3.4028235e+38,-3.4028235e+38,-3.4028235e+38,-3.4028235e+38,-3.4028235e+38,-3.4028235e+38,-3.4028235e+38,-3.4028235e+38,-3.4028235e+38,-3.4028235e+38,-3.4028235e+38,-3.4028235e+38,-3.4028235e+38,-3.4028235e+38,-3.4028235e+38,-3.4028235e+38,-3.4028235e+38,-3.4028235e+38,-3.4028235e+38,-3.4028235e+38,-3.4028235e+38,-3.4028235e+38,-3.4028235e+38,-3.4028235e+38,-3.4028235e+38,-3.4028235e+38,-3.4028235e+38,-3.4028235e+38,-3.4028235e+38,-3.4028235e+38,-3.4028235e+38,-3.4028235e+38,-3.4028235e+38,-3.4028235e+38,-3.4028235e+38,-3.4028235e+38,-3.4028235e+38,-3.4028235e+38,-3.4028235e+38,-3.4028235e+38,-3.4028235e+38,-3.4028235e+38,-3.4028235e+38,-3.4028235e+38,-3.4028235e+38,-3.4028235e+38,-3.4028235e+38,-3.4028235e+38,-3.4028235e+38,-3.4028235e+38,-3.4028235e+38,-3.4028235e+38,-3.4028235e+38,-3.4028235e+38,-3.4028235e+38,-3.4028235e+38,-3.4028235e+38,-3.4028235e+38,-3.4028235e+38,-3.4028235e+38,-3.4028235e+38,-3.4028235e+38,-3.4028235e+38,-3.4028235e+38,-3.4028235e+38,-3.4028235e+38,-3.4028235e+38,-3.4028235e+38,-3.4028235e+38,-3.4028235e+38,-3.4028235e+38,-3.4028235e+38,-3.4028235e+38,-3.4028235e+38,-3.4028235e+38,-3.4028235e+38,-3.4028235e+38,-3.4028235e+38,-3.4028235e+38,-3.4028235e+38,-3.4028235e+38,-3.4028235e+38,-3.4028235e+38,-3.4028235e+38,-3.4028235e+38,-3.4028235e+38,-3.4028235e+38,-3.4028235e+38,-3.4028235e+38,-3.4028235e+38,-3.4028235e+38,-3.4028235e+38,-3.4028235e+38,-3.4028235e+38,-3.4028235e+38,-3.4028235e+38,-3.4028235e+38,-3.4028235e+38,-3.4028235e+38,-3.4028235e+38,-3.4028235e+38,-3.4028235e+38,-3.4028235e+38,-3.4028235e+38,-3.4028235e+38,-3.4028235e+38,-3.4028235e+38,-3.4028235e+38,-3.4028235e+38,-3.4028235e+38,-3.4028235e+38,-3.4028235e+38,-3.4028235e+38,-3.4028235e+38,-3.4028235e+38,-3.4028235e+38,-3.4028235e+38,-3.4028235e+38,-3.4028235e+38,-3.4028235e+38,-3.4028235e+38,-3.4028235e+38,-3.4028235e+38,-3.4028235e+38,-3.4028235e+38,-3.4028235e+38,-3.4028235e+38,-3.4028235e+38,-3.4028235e+38,-3.4028235e+38,-3.4028235e+38,-3.4028235e+38,-3.4028235e+38,-3.4028235e+38,-3.4028235e+38,-3.4028235e+38,-3.4028235e+38,-3.4028235e+38,-3.4028235e+38,-3.4028235e+38,-3.4028235e+38,-3.4028235e+38,-3.4028235e+38,-3.4028235e+38,-3.4028235e+38,-3.4028235e+38,-3.4028235e+38,-3.4028235e+38,-3.4028235e+38,-3.4028235e+38,-3.4028235e+38,-3.4028235e+38,-3.4028235e+38,-3.4028235e+38,-3.4028235e+38,-3.4028235e+38,-3.4028235e+38,-3.4028235e+38,-3.4028235e+38,-3.4028235e+38,-3.4028235e+38,-3.4028235e+38,-3.4028235e+38,-3.4028235e+38,-3.4028235e+38,-3.4028235e+38,-3.4028235e+38,-3.4028235e+38,-3.4028235e+38,-3.4028235e+38,-3.4028235e+38,-3.4028235e+38,-3.4028235e+38,-3.4028235e+38,-3.4028235e+38,-3.4028235e+38,-3.4028235e+38,-3.4028235e+38,-3.4028235e+38,-3.4028235e+38,-3.4028235e+38,-3.4028235e+38,-3.4028235e+38,-3.4028235e+38,-3.4028235e+38,-3.4028235e+38,-3.4028235e+38,-3.4028235e+38,-3.4028235e+38,-3.4028235e+38,-3.4028235e+38,-3.4028235e+38,-3.4028235e+38,-3.4028235e+38,-3.4028235e+38,-3.4028235e+38,-3.4028235e+38,-3.4028235e+38,-3.4028235e+38,-3.4028235e+38,-3.4028235e+38,-3.4028235e+38,-3.4028235e+38,-3.4028235e+38,-3.4028235e+38,-3.4028235e+38,-3.4028235e+38,-3.4028235e+38,-3.4028235e+38,-3.4028235e+38,-3.4028235e+38,-3.4028235e+38,-3.4028235e+38,-3.4028235e+38,-3.4028235e+38,-3.4028235e+38,-3.4028235e+38,-3.4028235e+38,-3.4028235e+38,-3.4028235e+38,-3.4028235e+38,-3.4028235e+38,-3.4028235e+38,-3.4028235e+38,-3.4028235e+38,-3.4028235e+38,-3.4028235e+38,-3.4028235e+38,-3.4028235e+38,-3.4028235e+38,-3.4028235e+38,-3.4028235e+38,-3.4028235e+38,-3.4028235e+38,-3.4028235e+38,-3.4028235e+38,-3.4028235e+38,-3.4028235e+38,-3.4028235e+38,-3.4028235e+38,-3.4028235e+38,-3.4028235e+38,-3.4028235e+38,-3.4028235e+38,-3.4028235e+38,-3.4028235e+38,-3.4028235e+38,-3.4028235e+38,-3.4028235e+38,-3.4028235e+38,-3.4028235e+38,-3.4028235e+38,-3.4028235e+38,-3.4028235e+38,-3.4028235e+38,-3.4028235e+38,-3.4028235e+38,-3.4028235e+38,-3.4028235e+38,-3.4028235e+38,-3.4028235e+38,-3.4028235e+38,-3.4028235e+38,-3.4028235e+38,-3.4028235e+38,-3.4028235e+38,-3.4028235e+38,-3.4028235e+38,-3.4028235e+38,-3.4028235e+38,-3.4028235e+38,-3.4028235e+38,-3.4028235e+38,-3.4028235e+38,-3.4028235e+38,-3.4028235e+38,-3.4028235e+38,-3.4028235e+38,-3.4028235e+38,-3.4028235e+38,-3.4028235e+38,-3.4028235e+38,-3.4028235e+38,-3.4028235e+38,-3.4028235e+38,-3.4028235e+38,-3.4028235e+38,-3.4028235e+38,-3.4028235e+38,-3.4028235e+38,-3.4028235e+38,-3.4028235e+38,-3.4028235e+38,-3.4028235e+38,-3.4028235e+38,-3.4028235e+38,-3.4028235e+38,-3.4028235e+38,-3.4028235e+38,-3.4028235e+38,-3.4028235e+38,-3.4028235e+38,-3.4028235e+38,-3.4028235e+38,-3.4028235e+38,-3.4028235e+38,-3.4028235e+38,-3.4028235e+38,-3.4028235e+38,-3.4028235e+38,-3.4028235e+38,-3.4028235e+38,-3.4028235e+38,-3.4028235e+38,-3.4028235e+38,-3.4028235e+38,-3.4028235e+38,-3.4028235e+38,-3.4028235e+38,-3.4028235e+38,-3.4028235e+38,-3.4028235e+38,-3.4028235e+38,-3.4028235e+38,-3.4028235e+38,-3.4028235e+38,-3.4028235e+38,-3.4028235e+38,-3.4028235e+38,-3.4028235e+38,-3.4028235e+38,-3.4028235e+38,-3.4028235e+38,-3.4028235e+38,-3.4028235e+38,-3.4028235e+38,-3.4028235e+38,-3.4028235e+38,-3.4028235e+38,-3.4028235e+38,-3.4028235e+38,-3.4028235e+38,-3.4028235e+38,-3.4028235e+38,-3.4028235e+38,-3.4028235e+38,-3.4028235e+38,-3.4028235e+38,-3.4028235e+38,-3.4028235e+38,-3.4028235e+38,-3.4028235e+38,-3.4028235e+38,-3.4028235e+38,-3.4028235e+38,-3.4028235e+38,-3.4028235e+38,-3.4028235e+38,-3.4028235e+38,-3.4028235e+38,-3.4028235e+38,-3.4028235e+38,-3.4028235e+38,-3.4028235e+38,-3.4028235e+38,-3.4028235e+38,-3.4028235e+38,-3.4028235e+38,-3.4028235e+38,-3.4028235e+38,-3.4028235e+38,-3.4028235e+38,-3.4028235e+38,-3.4028235e+38,-3.4028235e+38,-3.4028235e+38,-3.4028235e+38,-3.4028235e+38,-3.4028235e+38,-3.4028235e+38,-3.4028235e+38,-3.4028235e+38,-3.4028235e+38,-3.4028235e+38,-3.4028235e+38,-3.4028235e+38,-3.4028235e+38,-3.4028235e+38,-3.4028235e+38,-3.4028235e+38,-3.4028235e+38,-3.4028235e+38,-3.4028235e+38,-3.4028235e+38,-3.4028235e+38,-3.4028235e+38,-3.4028235e+38,-3.4028235e+38,-3.4028235e+38,-3.4028235e+38,-3.4028235e+38,-3.4028235e+38,-3.4028235e+38,-3.4028235e+38,-3.4028235e+38,-3.4028235e+38,-3.4028235e+38,-3.4028235e+38,-3.4028235e+38,-3.4028235e+38,-3.4028235e+38,-3.4028235e+38,-3.4028235e+38,-3.4028235e+38,-3.4028235e+38,-3.4028235e+38,-3.4028235e+38,-3.4028235e+38,-3.4028235e+38,-3.4028235e+38,-3.4028235e+38,-3.4028235e+38,-3.4028235e+38,-3.4028235e+38,-3.4028235e+38,-3.4028235e+38,-3.4028235e+38,-3.4028235e+38,-3.4028235e+38,-3.4028235e+38,-3.4028235e+38,-3.4028235e+38,-3.4028235e+38,-3.4028235e+38,-3.4028235e+38,-3.4028235e+38,-3.4028235e+38,-3.4028235e+38,-3.4028235e+38,-3.4028235e+38,-3.4028235e+38,-3.4028235e+38,-3.4028235e+38,-3.4028235e+38,
3.4028235e+38,3.4028235e+38,3.4028235e+38,3.4028235e+38,3.4028235e+38,3.4028235e+38,3.4028235e+38,3.4028235e+38,3.4028235e+38,3.4028235e+38,3.4028235e+38,3.4028235e+38,3.4028235e+38,3.4028235e+38,3.4028235e+38,3.4028235e+38,3.4028235e+38,3.4028235e+38,3.4028235e+38,3.4028235e+38,3.4028235e+38,3.4028235e+38,3.4028235e+38,3.4028235e+38,3.4028235e+38,3.4028235e+38,3.4028235e+38,3.4028235e+38,3.4028235e+38,3.4028235e+38,3.4028235e+38,3.4028235e+38,3.4028235e+38,3.4028235e+38,3.4028235e+38,3.4028235e+38,3.4028235e+38,3.4028235e+38,3.4028235e+38,3.4028235e+38,3.4028235e+38,3.4028235e+38,3.4028235e+38,3.4028235e+38,3.4028235e+38,3.4028235e+38,3.4028235e+38,3.4028235e+38,3.4028235e+38,3.4028235e+38,3.4028235e+38,3.4028235e+38,3.4028235e+38,3.4028235e+38,3.4028235e+38,3.4028235e+38,3.4028235e+38,3.4028235e+38,3.4028235e+38,3.4028235e+38,3.4028235e+38,3.4028235e+38,3.4028235e+38,3.4028235e+38,3.4028235e+38,3.4028235e+38,3.4028235e+38,3.4028235e+38,3.4028235e+38,3.4028235e+38,3.4028235e+38,3.4028235e+38,3.4028235e+38,3.4028235e+38,3.4028235e+38,3.4028235e+38,3.4028235e+38,3.4028235e+38,3.4028235e+38,3.4028235e+38,3.4028235e+38,3.4028235e+38,3.4028235e+38,3.4028235e+38,3.4028235e+38,3.4028235e+38,3.4028235e+38,3.4028235e+38,3.4028235e+38,3.4028235e+38,3.4028235e+38,3.4028235e+38,3.4028235e+38,3.4028235e+38,3.4028235e+38,3.4028235e+38,3.4028235e+38,3.4028235e+38,3.4028235e+38,3.4028235e+38,3.4028235e+38,3.4028235e+38,3.4028235e+38,3.4028235e+38,3.4028235e+38,3.4028235e+38,3.4028235e+38,3.4028235e+38,3.4028235e+38,3.4028235e+38,3.4028235e+38,3.4028235e+38,3.4028235e+38,3.4028235e+38,3.4028235e+38,3.4028235e+38,3.4028235e+38,3.4028235e+38,3.4028235e+38,3.4028235e+38,3.4028235e+38,3.4028235e+38,3.4028235e+38,3.4028235e+38,3.4028235e+38,3.4028235e+38,3.4028235e+38,3.4028235e+38,3.4028235e+38,3.4028235e+38,3.4028235e+38,3.4028235e+38,3.4028235e+38,3.4028235e+38,3.4028235e+38,3.4028235e+38,3.4028235e+38,3.4028235e+38,3.4028235e+38,3.4028235e+38,3.4028235e+38,3.4028235e+38,3.4028235e+38,3.4028235e+38,3.4028235e+38,3.4028235e+38,3.4028235e+38,3.4028235e+38,3.4028235e+38,3.4028235e+38,3.4028235e+38,3.4028235e+38,3.4028235e+38,3.4028235e+38,3.4028235e+38,3.4028235e+38,3.4028235e+38,3.4028235e+38,3.4028235e+38,3.4028235e+38,3.4028235e+38,3.4028235e+38,3.4028235e+38,3.4028235e+38,3.4028235e+38,3.4028235e+38,3.4028235e+38,3.4028235e+38,3.4028235e+38,3.4028235e+38,3.4028235e+38,3.4028235e+38,3.4028235e+38,3.4028235e+38,3.4028235e+38,3.4028235e+38,3.4028235e+38,3.4028235e+38,3.4028235e+38,3.4028235e+38,3.4028235e+38,3.4028235e+38,3.4028235e+38,3.4028235e+38,3.4028235e+38,3.4028235e+38,3.4028235e+38,3.4028235e+38,3.4028235e+38,3.4028235e+38,3.4028235e+38,3.4028235e+38,3.4028235e+38,3.4028235e+38,3.4028235e+38,3.4028235e+38,3.4028235e+38,3.4028235e+38,3.4028235e+38,3.4028235e+38,3.4028235e+38,3.4028235e+38,3.4028235e+38,3.4028235e+38,3.4028235e+38,3.4028235e+38,3.4028235e+38,3.4028235e+38,3.4028235e+38,3.4028235e+38,3.4028235e+38,3.4028235e+38,3.4028235e+38,3.4028235e+38,3.4028235e+38,3.4028235e+38,3.4028235e+38,3.4028235e+38,3.4028235e+38,3.4028235e+38,3.4028235e+38,3.4028235e+38,3.4028235e+38,3.4028235e+38,3.4028235e+38,3.4028235e+38,3.4028235e+38,3.4028235e+38,3.4028235e+38,3.4028235e+38,3.4028235e+38,3.4028235e+38,3.4028235e+38,3.4028235e+38,3.4028235e+38,3.4028235e+38,3.4028235e+38,3.4028235e+38,3.4028235e+38,3.4028235e+38,3.4028235e+38,3.4028235e+38,3.4028235e+38,3.4028235e+38,3.4028235e+38,3.4028235e+38,3.4028235e+38,3.4028235e+38,3.4028235e+38,3.4028235e+38,3.4028235e+38,3.4028235e+38,3.4028235e+38,3.4028235e+38,3.4028235e+38,3.4028235e+38,3.4028235e+38,3.4028235e+38,3.4028235e+38,3.4028235e+38,3.4028235e+38,3.4028235e+38,3.4028235e+38,3.4028235e+38,3.4028235e+38,3.4028235e+38,3.4028235e+38,3.4028235e+38,3.4028235e+38,3.4028235e+38,3.4028235e+38,3.4028235e+38,3.4028235e+38,3.4028235e+38,3.4028235e+38,3.4028235e+38,3.4028235e+38,3.4028235e+38,3.4028235e+38,3.4028235e+38,3.4028235e+38,3.4028235e+38,3.4028235e+38,3.4028235e+38,3.4028235e+38,3.4028235e+38,3.4028235e+38,3.4028235e+38,3.4028235e+38,3.4028235e+38,3.4028235e+38,3.4028235e+38,3.4028235e+38,3.4028235e+38,3.4028235e+38,3.4028235e+38,3.4028235e+38,3.4028235e+38,3.4028235e+38,3.4028235e+38,3.4028235e+38,3.4028235e+38,3.4028235e+38,3.4028235e+38,3.4028235e+38,3.4028235e+38,3.4028235e+38,3.4028235e+38,3.4028235e+38,3.4028235e+38,3.4028235e+38,3.4028235e+38,3.4028235e+38,3.4028235e+38,3.4028235e+38,3.4028235e+38,3.4028235e+38,3.4028235e+38,3.4028235e+38,3.4028235e+38,3.4028235e+38,3.4028235e+38,3.4028235e+38,3.4028235e+38,3.4028235e+38,3.4028235e+38,3.4028235e+38,3.4028235e+38,3.4028235e+38,3.4028235e+38,3.4028235e+38,3.4028235e+38,3.4028235e+38,3.4028235e+38,3.4028235e+38,3.4028235e+38,3.4028235e+38,3.4028235e+38,3.4028235e+38,3.4028235e+38,3.4028235e+38,3.4028235e+38,3.4028235e+38,3.4028235e+38,3.4028235e+38,3.4028235e+38,3.4028235e+38,3.4028235e+38,3.4028235e+38,3.4028235e+38,3.4028235e+38,3.4028235e+38,3.4028235e+38,3.4028235e+38,3.4028235e+38,3.4028235e+38,3.4028235e+38,3.4028235e+38,3.4028235e+38,3.4028235e+38,3.4028235e+38,3.4028235e+38,3.4028235e+38,3.4028235e+38,3.4028235e+38,3.4028235e+38,3.4028235e+38,3.4028235e+38,3.4028235e+38,3.4028235e+38,3.4028235e+38,3.4028235e+38,3.4028235e+38,3.4028235e+38,3.4028235e+38,3.4028235e+38,3.4028235e+38,3.4028235e+38,3.4028235e+38,3.4028235e+38,3.4028235e+38,3.4028235e+38,3.4028235e+38,3.4028235e+38,3.4028235e+38,3.4028235e+38,3.4028235e+38,3.4028235e+38,3.4028235e+38,3.4028235e+38,3.4028235e+38,3.4028235e+38,3.4028235e+38,3.4028235e+38,3.4028235e+38,3.4028235e+38,3.4028235e+38,3.4028235e+38,3.4028235e+38,3.4028235e+38,3.4028235e+38,3.4028235e+38,3.4028235e+38,3.4028235e+38,3.4028235e+38,3.4028235e+38,3.4028235e+38,3.4028235e+38,3.4028235e+38,3.4028235e+38,3.4028235e+38,3.4028235e+38,3.4028235e+38,3.4028235e+38,3.4028235e+38,3.4028235e+38,3.4028235e+38,3.4028235e+38,3.4028235e+38,3.4028235e+38,3.4028235e+38,3.4028235e+38,3.4028235e+38,3.4028235e+38,3.4028235e+38,3.4028235e+38,3.4028235e+38,3.4028235e+38,3.4028235e+38,3.4028235e+38,3.4028235e+38,3.4028235e+38,3.4028235e+38,3.4028235e+38,3.4028235e+38,3.4028235e+38,3.4028235e+38,3.4028235e+38,3.4028235e+38,3.4028235e+38,3.4028235e+38,3.4028235e+38,3.4028235e+38,3.4028235e+38,3.4028235e+38,3.4028235e+38,3.4028235e+38,3.4028235e+38,3.4028235e+38,3.4028235e+38,3.4028235e+38,3.4028235e+38,3.4028235e+38,3.4028235e+38,3.4028235e+38,3.4028235e+38,3.4028235e+38,3.4028235e+38,3.4028235e+38,3.4028235e+38,3.4028235e+38,3.4028235e+38,3.4028235e+38,3.4028235e+38,3.4028235e+38,3.4028235e+38,3.4028235e+38,3.4028235e+38,3.4028235e+38,3.4028235e+38,3.4028235e+38,3.4028235e+38,3.4028235e+38,3.4028235e+38,3.4028235e+38,3.4028235e+38,3.4028235e+38,3.4028235e+38,3.4028235e+38,3.4028235e+38,3.4028235e+38,3.4028235e+38,3.4028235e+38,3.4028235e+38,3.4028235e+38,3.4028235e+38,3.4028235e+38,3.4028235e+38,3.4028235e+38,3.4028235e+38,3.4028235e+38,3.4028235e+38,3.4028235e+38,3.4028235e+38,3.4028235e+38,3.4028235e+38,3.4028235e+38,3.4028235e+38,3.4028235e+38,3.4028235e+38,3.4028235e+38,3.4028235e+38,3.4028235e+38,3.4028235e+38,3.4028235e+38,3.4028235e+38,3.4028235e+38,3.4028235e+38,3.4028235e+38,3.4028235e+38,3.4028235e+38,3.4028235e+38,3.4028235e+38,3.4028235e+38,3.4028235e+38,3.4028235e+38,3.4028235e+38,3.4028235e+38,3.4028235e+38,3.4028235e+38,3.4028235e+38,3.4028235e+38,3.4028235e+38,3.4028235e+38,3.4028235e+38,3.4028235e+38,3.4028235e+38,3.4028235e+38,3.4028235e+38,3.4028235e+38,3.4028235e+38,3.4028235e+38,3.4028235e+38,3.4028235e+38,3.4028235e+38,3.4028235e+38,3.4028235e+38,3.4028235e+38,3.4028235e+38,3.4028235e+38,3.4028235e+38,3.4028235e+38,3.4028235e+38,3.4028235e+38,3.4028235e+38,3.4028235e+38,3.4028235e+38,3.4028235e+38,3.4028235e+38,3.4028235e+38,3.4028235e+38,3.4028235e+38,3.4028235e+38,3.4028235e+38,3.4028235e+38,3.4028235e+38,3.4028235e+38,3.4028235e+38,3.4028235e+38,3.4028235e+38,3.4028235e+38,3.4028235e+38,3.4028235e+38,3.4028235e+38,3.4028235e+38,3.4028235e+38,3.4028235e+38,3.4028235e+38,3.4028235e+38,3.4028235e+38,3.4028235e+38,3.4028235e+38,3.4028235e+38,3.4028235e+38,3.4028235e+38,3.4028235e+38,3.4028235e+38,3.4028235e+38,3.4028235e+38,3.4028235e+38,3.4028235e+38,3.4028235e+38,3.4028235e+38,3.4028235e+38,3.4028235e+38,3.4028235e+38,3.4028235e+38,3.4028235e+38,3.4028235e+38,3.4028235e+38,3.4028235e+38,3.4028235e+38,3.4028235e+38,3.4028235e+38,3.4028235e+38,3.4028235e+38,3.4028235e+38,3.4028235e+38,3.4028235e+38,3.4028235e+38,3.4028235e+38,3.4028235e+38,3.4028235e+38,3.4028235e+38,3.4028235e+38,3.4028235e+38,3.4028235e+38,3.4028235e+38,3.4028235e+38,3.4028235e+38,3.4028235e+38,3.4028235e+38,3.4028235e+38,3.4028235e+38,3.4028235e+38,3.4028235e+38,3.4028235e+38,3.4028235e+38,3.4028235e+38,3.4028235e+38,3.4028235e+38,3.4028235e+38,3.4028235e+38,3.4028235e+38,3.4028235e+38,3.4028235e+38,3.4028235e+38,3.4028235e+38,3.4028235e+38,3.4028235e+38,3.4028235e+38,3.4028235e+38,3.4028235e+38,3.4028235e+38,3.4028235e+38,3.4028235e+38,3.4028235e+38,3.4028235e+38,3.4028235e+38,3.4028235e+38,3.4028235e+38,3.4028235e+38,3.4028235e+38,3.4028235e+38,3.4028235e+38,3.4028235e+38,3.4028235e+38,3.4028235e+38,3.4028235e+38,3.4028235e+38,3.4028235e+38,3.4028235e+38,3.4028235e+38,3.4028235e+38,3.4028235e+38,3.4028235e+38,3.4028235e+38,3.4028235e+38,3.4028235e+38,3.4028235e+38,3.4028235e+38,3.4028235e+38,3.4028235e+38,3.4028235e+38,3.4028235e+38,3.4028235e+38,3.4028235e+38,3.4028235e+38,3.4028235e+38,3.4028235e+38,3.4028235e+38,3.4028235e+38,3.4028235e+38,3.4028235e+38,3.4028235e+38,3.4028235e+38,3.4028235e+38,3.4028235e+38,3.4028235e+38,3.4028235e+38,3.4028235e+38,3.4028235e+38,3.4028235e+38,3.4028235e+38,3.4028235e+38,3.4028235e+38,3.4028235e+38,3.4028235e+38,3.4028235e+38,3.4028235e+38,3.4028235e+38,3.4028235e+38,3.4028235e+38,3.4028235e+38,3.4028235e+38,3.4028235e+38,3.4028235e+38,3.4028235e+38,3.4028235e+38,3.4028235e+38,3.4028235e+38,3.4028235e+38,3.4028235e+38,3.4028235e+38,3.4028235e+38,3.4028235e+38,3.4028235e+38,3.4028235e+38,3.4028235e+38,3.4028235e+38,3.4028235e+38,3.4028235e+38,3.4028235e+38,3.4028235e+38,3.4028235e+38,3.4028235e+38,3.4028235e+38,3.4028235e+38,3.4028235e+38,3.4028235e+38,3.4028235e+38,3.4028235e+38,3.4028235e+38,3.4028235e+38,3.4028235e+38,3.4028235e+38,3.4028235e+38,3.4028235e+38,3.4028235e+38,3.4028235e+38,3.4028235e+38,3.4028235e+38,3.4028235e+38,3.4028235e+38,3.4028235e+38,3.4028235e+38,3.4028235e+38,3.4028235e+38,3.4028235e+38,3.4028235e+38,3.4028235e+38,3.4028235e+38,3.4028235e+38,3.4028235e+38,3.4028235e+38,3.4028235e+38,3.4028235e+38,3.4028235e+38,3.4028235e+38,3.4028235e+38,3.4028235e+38,3.4028235e+38,3.4028235e+38,3.4028235e+38,3.4028235e+38,3.4028235e+38,3.4028235e+38,3.4028235e+38,3.4028235e+38,3.4028235e+38,3.4028235e+38,3.4028235e+38,3.4028235e+38,3.4028235e+38,3.4028235e+38,3.4028235e+38,3.4028235e+38,3.4028235e+38,3.4028235e+38,3.4028235e+38,3.4028235e+38,3.4028235e+38,3.4028235e+38,3.4028235e+38,3.4028235e+38,3.4028235e+38,3.4028235e+38,3.4028235e+38,3.4028235e+38,3.4028235e+38,3.4028235e+38,3.4028235e+38,3.4028235e+38,3.4028235e+38,
0.0,0.0,0.0,0.0,0.0,0.0,0.0,0.0,0.0,0.0,0.0,0.0,0.0,0.0,0.0,0.0,0.0,0.0,0.0,0.0,0.0,0.0,0.0,0.0,0.0,0.0,0.0,0.0,0.0,0.0,0.0,0.0,0.0,0.0,0.0,0.0,0.0,0.0,0.0,0.0,0.0,0.0,0.0,0.0,0.0,0.0,0.0,0.0,0.0,0.0,0.0,0.0,0.0,0.0,0.0,0.0,0.0,0.0,0.0,0.0,0.0,0.0,0.0,0.0,0.0,0.0,0.0,0.0,0.0,0.0,0.0,0.0,0.0,0.0,0.0,0.0,0.0,0.0,0.0,0.0,0.0,0.0,0.0,0.0,0.0,0.0,0.0,0.0,0.0,0.0,0.0,0.0,0.0,0.0,0.0,0.0,0.0,0.0,0.0,0.0,0.0,0.0,0.0,0.0,0.0,0.0,0.0,0.0,0.0,0.0,0.0,0.0,0.0,0.0,0.0,0.0,0.0,0.0,0.0,0.0,0.0,0.0,0.0,0.0,0.0,0.0,0.0,0.0,0.0,0.0,0.0,0.0,0.0,0.0,0.0,0.0,0.0,0.0,0.0,0.0,0.0,0.0,0.0,0.0,0.0,0.0,0.0,0.0,0.0,0.0,0.0,0.0,0.0,0.0,0.0,0.0,0.0,0.0,0.0,0.0,0.0,0.0,0.0,0.0,0.0,0.0,0.0,0.0,0.0,0.0,0.0,0.0,0.0,0.0,0.0,0.0,0.0,0.0,0.0,0.0,0.0,0.0,0.0,0.0,0.0,0.0,0.0,0.0,0.0,0.0,0.0,0.0,0.0,0.0,0.0,0.0,0.0,0.0,0.0,0.0,0.0,0.0,0.0,0.0,0.0,0.0,0.0,0.0,0.0,0.0,0.0,0.0,0.0,0.0,0.0,0.0,0.0,0.0,0.0,0.0,0.0,0.0,0.0,0.0,0.0,0.0,0.0,0.0,0.0,0.0,0.0,0.0,0.0,0.0,0.0,0.0,0.0,0.0,0.0,0.0,0.0,0.0,0.0,0.0,0.0,0.0,0.0,0.0,0.0,0.0,0.0,0.0,0.0,0.0,0.0,0.0,0.0,0.0,0.0,0.0,0.0,0.0,0.0,0.0,0.0,0.0,0.0,0.0,0.0,0.0,0.0,0.0,0.0,0.0,0.0,0.0,0.0,0.0,0.0,0.0,0.0,0.0,0.0,0.0,0.0,0.0,0.0,0.0,0.0,0.0,0.0,0.0,0.0,0.0,0.0,0.0,0.0,0.0,0.0,0.0,0.0,0.0,0.0,0.0,0.0,0.0,0.0,0.0,0.0,0.0,0.0,0.0,0.0,0.0,0.0,0.0,0.0,0.0,0.0,0.0,0.0,0.0,0.0,0.0,0.0,0.0,0.0,0.0,0.0,0.0,0.0,0.0,0.0,0.0,0.0,0.0,0.0,0.0,0.0,0.0,0.0,0.0,0.0,0.0,0.0,0.0,0.0,0.0,0.0,0.0,0.0,0.0,0.0,0.0,0.0,0.0,0.0,0.0,0.0,0.0,0.0,0.0,0.0,0.0,0.0,0.0,0.0,0.0,0.0,0.0,0.0,0.0,0.0,0.0,0.0,0.0,0.0,0.0,0.0,0.0,0.0,0.0,0.0,0.0,0.0,0.0,0.0,0.0,0.0,0.0,0.0,0.0,0.0,0.0,0.0,0.0,0.0,0.0,0.0,0.0,0.0,0.0,0.0,0.0,0.0,0.0,0.0,0.0,0.0,0.0,0.0,0.0,0.0,0.0,0.0,0.0,0.0,0.0,0.0,0.0,0.0,0.0,0.0,0.0,0.0,0.0,0.0,0.0,0.0,0.0,0.0,0.0,0.0,0.0,0.0,0.0,0.0,0.0,0.0,0.0,0.0,0.0,0.0,0.0,0.0,0.0,0.0,0.0,0.0,0.0,0.0,0.0,0.0,0.0,0.0,0.0,0.0,0.0,0.0,0.0,0.0,0.0,0.0,0.0,0.0,0.0,0.0,0.0,0.0,0.0,0.0,0.0,0.0,0.0,0.0,0.0,0.0,0.0,0.0,0.0,0.0,0.0,0.0,0.0,0.0,0.0,0.0,0.0,0.0,0.0,0.0,0.0,0.0,0.0,0.0,0.0,0.0,0.0,0.0,0.0,0.0,0.0,0.0,0.0,0.0,0.0,0.0,0.0,0.0,0.0,0.0,0.0,0.0,0.0,0.0,0.0,0.0,0.0,0.0,0.0,0.0,0.0,0.0,0.0,0.0,0.0,0.0,0.0,0.0,0.0,0.0,0.0,0.0,0.0,0.0,0.0,0.0,0.0,0.0,0.0,0.0,0.0,0.0,0.0,0.0,0.0,0.0,0.0,0.0,0.0,0.0,0.0,0.0,0.0,0.0,0.0,0.0,0.0,0.0,0.0,0.0,0.0,0.0,0.0,0.0,0.0,0.0,0.0,0.0,0.0,0.0,0.0,0.0,0.0,0.0,0.0,0.0,0.0,0.0,0.0,0.0,0.0,0.0,0.0,0.0,0.0,0.0,0.0,0.0,0.0,0.0,0.0,0.0,0.0,0.0,0.0,0.0,0.0,0.0,0.0,0.0,0.0,0.0,0.0,0.0,0.0,0.0,0.0,0.0,0.0,0.0,0.0,0.0,0.0,0.0,0.0,0.0,0.0,0.0,0.0,0.0,0.0,0.0,0.0,0.0,0.0,0.0,0.0,0.0,0.0,0.0,0.0,0.0,0.0,0.0,0.0,0.0,0.0,0.0,0.0,0.0,0.0,0.0,0.0,0.0,0.0,0.0,0.0,0.0,0.0,0.0,0.0,0.0,0.0,0.0,0.0,0.0,0.0,0.0,0.0,0.0,0.0,0.0,0.0,0.0,0.0,0.0,0.0,0.0,0.0,0.0,0.0,0.0,0.0,0.0,0.0,0.0,0.0,0.0,0.0,0.0,0.0,0.0,0.0,0.0,0.0,0.0,0.0,0.0,0.0,0.0,0.0,0.0,0.0,0.0,0.0,0.0,0.0,0.0,0.0,0.0,0.0,0.0,0.0,0.0,0.0,0.0,0.0,0.0,0.0,0.0,0.0,0.0,0.0,0.0,0.0,0.0,0.0,0.0,0.0,0.0,0.0,0.0,0.0,0.0,0.0,0.0,0.0,0.0,0.0,0.0,0.0,0.0,0.0,0.0,0.0,0.0,0.0,0.0,0.0,0.0,0.0,0.0,0.0,0.0,0.0,0.0,0.0,0.0,0.0,0.0,0.0,0.0,0.0,0.0,0.0,0.0,0.0,0.0,0.0,0.0,0.0,0.0,0.0,0.0,0.0,0.0,0.0,0.0,0.0,0.0,0.0,0.0,0.0,0.0,0.0,0.0,0.0,0.0,0.0,0.0,0.0,0.0,0.0,0.0,
1.0,1.0,1.0,1.0,1.0,1.0,1.0,1.0,1.0,1.0,1.0,1.0,1.0,1.0,1.0,1.0,1.0,1.0,1.0,1.0,1.0,1.0,1.0,1.0,1.0,1.0,1.0,1.0,1.0,1.0,1.0,1.0,1.0,1.0,1.0,1.0,1.0,1.0,1.0,1.0,1.0,1.0,1.0,1.0,1.0,1.0,1.0,1.0,1.0,1.0,1.0,1.0,1.0,1.0,1.0,1.0,1.0,1.0,1.0,1.0,1.0,1.0,1.0,1.0,1.0,1.0,1.0,1.0,1.0,1.0,1.0,1.0,1.0,1.0,1.0,1.0,1.0,1.0,1.0,1.0,1.0,1.0,1.0,1.0,1.0,1.0,1.0,1.0,1.0,1.0,1.0,1.0,1.0,1.0,1.0,1.0,1.0,1.0,1.0,1.0,1.0,1.0,1.0,1.0,1.0,1.0,1.0,1.0,1.0,1.0,1.0,1.0,1.0,1.0,1.0,1.0,1.0,1.0,1.0,1.0,1.0,1.0,1.0,1.0,1.0,1.0,1.0,1.0,1.0,1.0,1.0,1.0,1.0,1.0,1.0,1.0,1.0,1.0,1.0,1.0,1.0,1.0,1.0,1.0,1.0,1.0,1.0,1.0,1.0,1.0,1.0,1.0,1.0,1.0,1.0,1.0,1.0,1.0,1.0,1.0,1.0,1.0,1.0,1.0,1.0,1.0,1.0,1.0,1.0,1.0,1.0,1.0,1.0,1.0,1.0,1.0,1.0,1.0,1.0,1.0,1.0,1.0,1.0,1.0,1.0,1.0,1.0,1.0,1.0,1.0,1.0,1.0,1.0,1.0,1.0,1.0,1.0,1.0,1.0,1.0,1.0,1.0,1.0,1.0,1.0,1.0,1.0,1.0,1.0,1.0,1.0,1.0,1.0,1.0,1.0,1.0,1.0,1.0,1.0,1.0,1.0,1.0,1.0,1.0,1.0,1.0,1.0,1.0,1.0,1.0,1.0,1.0,1.0,1.0,1.0,1.0,1.0,1.0,1.0,1.0,1.0,1.0,1.0,1.0,1.0,1.0,1.0,1.0,1.0,1.0,1.0,1.0,1.0,1.0,1.0,1.0,1.0,1.0,1.0,1.0,1.0,1.0,1.0,1.0,1.0,1.0,1.0,1.0,1.0,1.0,1.0,1.0,1.0,1.0,1.0,1.0,1.0,1.0,1.0,1.0,1.0,1.0,1.0,1.0,1.0,1.0,1.0,1.0,1.0,1.0,1.0,1.0,1.0,1.0,1.0,1.0,1.0,1.0,1.0,1.0,1.0,1.0,1.0,1.0,1.0,1.0,1.0,1.0,1.0,1.0,1.0,1.0,1.0,1.0,1.0,1.0,1.0,1.0,1.0,1.0,1.0,1.0,1.0,1.0,1.0,1.0,1.0,1.0,1.0,1.0,1.0,1.0,1.0,1.0,1.0,1.0,1.0,1.0,1.0,1.0,1.0,1.0,1.0,1.0,1.0,1.0,1.0,1.0,1.0,1.0,1.0,1.0,1.0,1.0,1.0,1.0,1.0,1.0,1.0,1.0,1.0,1.0,1.0,1.0,1.0,1.0,1.0,1.0,1.0,1.0,1.0,1.0,1.0,1.0,1.0,1.0,1.0,1.0,1.0,1.0,1.0,1.0,1.0,1.0,1.0,1.0,1.0,1.0,1.0,1.0,1.0,1.0,1.0,1.0,1.0,1.0,1.0,1.0,1.0,1.0,1.0,1.0,1.0,1.0,1.0,1.0,1.0,1.0,1.0,1.0,1.0,1.0,1.0,1.0,1.0,1.0,1.0,1.0,1.0,1.0,1.0,1.0,1.0,1.0,1.0,1.0,1.0,1.0,1.0,1.0,1.0,1.0,1.0,1.0,1.0,1.0,1.0,1.0,1.0,1.0,1.0,1.0,1.0,1.0,1.0,1.0,1.0,1.0,1.0,1.0,1.0,1.0,1.0,1.0,1.0,1.0,1.0,1.0,1.0,1.0,1.0,1.0,1.0,1.0,1.0,1.0,1.0,1.0,1.0,1.0,1.0,1.0,1.0,1.0,1.0,1.0,1.0,1.0,1.0,1.0,1.0,1.0,1.0,1.0,1.0,1.0,1.0,1.0,1.0,1.0,1.0,1.0,1.0,1.0,1.0,1.0,1.0,1.0,1.0,1.0,1.0,1.0,1.0,1.0,1.0,1.0,1.0,1.0,1.0,1.0,1.0,1.0,1.0,1.0,1.0,1.0,1.0,1.0,1.0,1.0,1.0,1.0,1.0,1.0,1.0,1.0,1.0,1.0,1.0,1.0,1.0,1.0,1.0,1.0,1.0,1.0,1.0,1.0,1.0,1.0,1.0,1.0,1.0,1.0,1.0,1.0,1.0,1.0,1.0,1.0,1.0,1.0,1.0,1.0,1.0,1.0,1.0,1.0,1.0,1.0,1.0,1.0,1.0,1.0,1.0,1.0,1.0,1.0,1.0,1.0,1.0,1.0,1.0,1.0,1.0,1.0,1.0,1.0,1.0,1.0,1.0,1.0,1.0,1.0,1.0,1.0,1.0,1.0,1.0,1.0,1.0,1.0,1.0,1.0,1.0,1.0,1.0,1.0,1.0,1.0,1.0,1.0,1.0,1.0,1.0,1.0,1.0,1.0,1.0,1.0,1.0,1.0,1.0,1.0,1.0,1.0,1.0,1.0,1.0,1.0,1.0,1.0,1.0,1.0,1.0,1.0,1.0,1.0,1.0,1.0,1.0,1.0,1.0,1.0,1.0,1.0,1.0,1.0,1.0,1.0,1.0,1.0,1.0,1.0,1.0,1.0,1.0,1.0,1.0,1.0,1.0,1.0,1.0,1.0,1.0,1.0,1.0,1.0,1.0,1.0,1.0,1.0,1.0,1.0,1.0,1.0,1.0,1.0,1.0,1.0,1.0,1.0,1.0,1.0,1.0,1.0,1.0,1.0,1.0,1.0,1.0,1.0,1.0,1.0,1.0,1.0,1.0,1.0,1.0,1.0,1.0,1.0,1.0,1.0,1.0,1.0,1.0,1.0,1.0,1.0,1.0,1.0,1.0,1.0,1.0,1.0,1.0,1.0,1.0,1.0,1.0,1.0,1.0,1.0,1.0,1.0,1.0,1.0,1.0,1.0,1.0,1.0,1.0,1.0,1.0,1.0,1.0,1.0,1.0,1.0,1.0,1.0,1.0,1.0,1.0,1.0,1.0,1.0,1.0,1.0,1.0,1.0,1.0,1.0,1.0,1.0,1.0,1.0,1.0,1.0,1.0,1.0,1.0,1.0,1.0,1.0,1.0,1.0,1.0,1.0,1.0,1.0,1.0,1.0,1.0,1.0,1.0,1.0,1.0,1.0,1.0,1.0,1.0,1.0,1.0,1.0,1.0,1.0,1.0,1.0,1.0,1.0,1.0,1.0,1.0,
-2.61876e-02,9.03597e-03,1.03711e-03,1.80205e-02,-3.08944e-03,2.63219e-02,-6.88836e-03,-2.26798e-02,-3.05593e-02,-1.53748e-03,-2.49870e-02,2.72082e-03,4.15599e-02,-1.32728e-02,4.30864e-02,-2.56065e-02,-7.40724e-03,1.78038e-02,2.33964e-02,2.46884e-03,-3.39931e-02,3.13310e-02,-1.78422e-02,-3.13687e-02,2.56220e-02,-2.99619e-02,-1.27318e-02,-2.63355e-02,-1.78096e-02,2.34537e-02,-3.31148e-02,1.36154e-02,7.69899e-02,5.18744e-02,1.57211e-01,1.83743e-01,1.00960e-01,1.26027e-01,2.88803e-01,4.63303e-01,4.99047e-01,2.64625e-01,-1.60358e-01,2.92446e-02,4.06252e-01,5.82033e-01,4.26741e-01,5.80848e-01,4.52278e-01,2.83879e-01,1.49547e-01,2.94913e-02,7.07301e-03,-6.94843e-03,1.14867e-02,-1.96133e-02,6.64089e-04,2.69295e-03,1.30217e-01,2.37308e-01,2.77137e-01,9.81563e-02,3.42952e-01,5.29432e-01,4.49620e-01,3.89239e-01,1.06826e-01,1.35713e-01,-1.52923e-01,-6.05406e-02,1.06729e-01,1.35011e-01,1.90545e-01,4.60668e-01,6.32512e-01,5.29286e-01,3.85450e-01,2.10389e-01,3.24053e-01,4.92211e-01,2.22022e-01,9.10276e-02,-3.29376e-02,3.41528e-02,1.14369e-02,-3.49298e-02,-3.53563e-01,3.01180e-02,3.11314e-01,6.18068e-01,5.69848e-01,3.03944e-01,1.67958e-01,5.24058e-01,3.82958e-01,3.76367e-01,2.39870e-02,-1.51659e-01,-6.49437e-02,-4.14279e-02,-1.10252e-01,-9.63514e-02,1.16523e-01,-7.68034e-02,-1.60580e-01,4.99000e-01,2.61136e-01,3.31446e-01,2.43959e-01,4.11400e-01,-7.51511e-03,3.33229e-02,6.04812e-03,3.03792e-02,-3.59178e-01,-3.54669e-01,-4.29002e-03,3.83747e-01,1.94168e-01,3.00705e-01,2.80479e-01,3.42540e-01,4.61914e-02,-3.06999e-01,-4.85830e-01,-5.54020e-01,-2.21887e-01,-6.63601e-02,1.82133e-01,3.47191e-01,1.19975e-01,4.99139e-02,-1.45132e-01,-2.67746e-01,1.68996e-02,1.98724e-01,2.27583e-01,2.76434e-01,2.84168e-02,1.85284e-02,-3.32200e-02,1.59542e-02,-1.69998e-01,3.94636e-02,-3.84396e-02,-3.01526e-01,1.32695e-02,3.38573e-01,4.48136e-01,-9.50074e-03,3.85449e-02,-2.93823e-01,-2.84508e-01,-2.54230e-01,2.96578e-01,1.90554e-01,1.18112e-01,2.62644e-01,2.05652e-01,1.30889e-01,-6.24736e-02,-1.97051e-01,3.56665e-02,2.86723e-01,3.27712e-01,1.90588e-01,-3.58422e-01,-6.46819e-02,2.49150e-03,2.43474e-02,1.14233e-01,1.06719e-03,2.95100e-01,2.68510e-01,6.22468e-01,5.41907e-01,3.59926e-01,4.47937e-02,-2.87976e-01,-4.01849e-01,-3.53687e-01,-1.60735e-01,2.48076e-01,2.60004e-01,-6.39318e-02,-9.70303e-02,-2.76303e-01,-4.87538e-01,-4.79167e-01,-2.69104e-01,7.30154e-02,2.78335e-01,1.46047e-01,-1.49206e-02,-1.07421e-02,6.67739e-02,-7.44502e-03,-6.35485e-02,3.08171e-01,-3.96693e-03,2.88012e-01,5.95706e-01,3.32265e-01,3.92901e-01,3.12328e-02,-3.48317e-01,-5.55715e-01,-2.55291e-01,-9.06199e-02,1.63743e-01,1.86035e-01,1.48277e-01,4.63338e-02,2.92668e-02,-3.83176e-01,-3.28798e-01,-1.31738e-02,-8.07170e-02,9.80717e-02,3.68217e-02,3.43732e-01,1.56401e-01,-4.47796e-02,1.61120e-01,8.52629e-01,-2.34630e-01,3.98840e-01,8.49245e-02,5.28555e-01,3.05757e-01,-3.35199e-02,1.75145e-01,-2.06976e-01,-4.24373e-01,-5.19896e-01,-6.12766e-01,-3.57396e-01,6.17828e-02,1.99970e-01,1.42123e-02,1.57892e-01,-4.17272e-02,-1.00463e-01,-7.65066e-03,5.84376e-02,-1.50560e-01,-7.99418e-02,8.14191e-02,6.24056e-02,3.44743e-01,-2.61434e-02,-1.32980e-01,-9.83500e-02,-1.10499e-01,2.78930e-01,-2.03030e-02,2.85162e-01,1.63414e-01,5.35037e-02,8.43223e-02,-7.56211e-02,-4.14037e-01,-4.80435e-01,-5.05646e-01,-2.82709e-01,-2.25534e-03,7.37801e-02,1.46990e-01,1.96477e-01,2.10906e-02,-4.89563e-02,1.19079e-01,1.71107e-01,-1.17343e-01,-3.65370e-01,7.31735e-02,3.10457e-01,1.34723e-01,-2.82106e-01,-3.87733e-01,-8.17970e-02,-1.52679e-01,1.99053e-02,-5.68457e-02,3.57439e-01,2.69235e-01,3.78630e-02,2.47487e-01,7.38260e-02,-2.89583e-01,-3.23770e-01,-3.96186e-01,-1.11499e-01,-7.07989e-02,-9.34409e-02,1.06964e-01,1.20862e-01,-3.21703e-02,-4.93145e-02,7.05381e-02,1.26739e-01,-1.53988e-01,-2.61158e-01,-1.58796e-02,2.88951e-01,1.15388e-01,-3.00972e-01,-2.03502e-01,-2.62305e-02,5.14605e-01,-4.24843e-01,-5.55123e-02,1.60205e-01,2.54904e-01,2.57038e-01,2.78892e-01,2.10064e-01,-8.75099e-02,-6.38524e-02,6.67405e-02,2.32476e-02,-2.91066e-01,-3.88988e-01,-9.48543e-02,-2.48473e-02,-8.02401e-02,-2.19710e-02,-1.18133e-01,-4.36345e-02,-1.68505e-01,-3.15002e-01,-5.74071e-02,-1.43987e-01,-5.79085e-02,-4.66604e-01,-2.45468e-01,-7.00985e-02,2.84678e-01,-1.55875e-01,-4.90676e-02,-1.73579e-02,1.71768e-01,2.99035e-01,3.16088e-01,1.21090e-01,1.14983e-01,1.88253e-01,1.08881e-03,-8.52006e-02,-2.49081e-01,-4.36013e-01,-1.97752e-01,-1.31453e-01,-2.41630e-01,-1.38976e-01,-1.39521e-01,-9.82844e-02,-2.18110e-01,-5.43494e-02,-1.33999e-01,3.16341e-02,-1.07722e-01,-6.57845e-01,-2.85946e-01,-2.22084e-02,4.03463e-01,-3.02584e-02,4.81141e-02,-5.20931e-02,-3.93143e-02,3.59416e-01,2.82548e-01,2.96586e-01,3.14881e-01,1.40135e-01,-4.49037e-02,-1.56864e-01,1.64848e-02,-3.36687e-01,-9.74159e-02,-3.21297e-01,-1.12677e-01,1.02995e-01,-6.93861e-02,-3.59278e-02,-5.45085e-02,1.97586e-01,-2.60009e-02,-2.14814e-01,7.90316e-02,-4.60647e-01,-4.86888e-02,1.85980e-02,5.35793e-02,-2.07170e-01,2.18996e-02,-5.14850e-02,2.16639e-01,3.46872e-01,3.52836e-01,3.36353e-01,3.14163e-01,-1.46147e-02,-4.88162e-02,-1.13918e-01,1.50957e-01,1.61772e-02,-3.70942e-02,2.45240e-02,1.45579e-01,-4.42544e-02,5.89494e-02,-1.04722e-01,5.77862e-02,1.75213e-01,-1.89453e-01,-1.73524e-01,4.11483e-01,1.10962e-01,2.26949e-02,3.27854e-02,9.96805e-02,2.22327e-01,2.40859e-01,-1.04997e-01,-1.37660e-01,5.37047e-02,2.24216e-01,2.74379e-01,1.25161e-01,3.28736e-02,-1.86077e-01,1.77630e-01,3.28199e-01,-1.27344e-02,-6.36365e-02,1.10137e-01,9.71679e-02,-2.49063e-02,4.10545e-02,-1.67780e-01,-2.46521e-01,-1.04127e-01,-1.68459e-01,-2.14703e-01,3.67582e-01,1.99718e-01,8.18382e-02,1.40322e-02,1.26045e-03,4.35792e-01,3.18347e-01,6.60257e-02,-1.36006e-01,-5.96362e-02,2.21717e-01,1.65359e-01,-1.01590e-01,-3.02335e-01,-1.78353e-01,3.09040e-02,-3.05138e-02,-1.02031e-01,3.17422e-01,2.76364e-01,1.92359e-01,-6.83384e-02,-1.51398e-02,-1.22055e-01,-2.30221e-01,-2.40951e-01,-1.43944e-01,-1.67929e-01,3.73670e-01,1.62086e-01,8.99174e-02,3.98148e-03,-1.54542e-02,6.89413e-01,1.75426e-02,8.30056e-02,-1.10488e-01,1.50213e-02,5.23724e-02,1.14370e-01,-1.51807e-01,-2.70202e-01,-8.06453e-02,-1.19135e-01,1.40144e-01,1.20598e-02,2.72874e-01,3.31343e-01,1.60572e-01,6.47942e-02,8.24783e-02,1.32263e-02,4.52685e-02,6.38372e-02,3.57165e-02,9.12565e-02,3.13322e-01,1.84578e-02,1.80939e-02,-4.90883e-01,-3.81353e-02,5.37674e-01,-1.23211e-02,-5.35016e-02,-1.48320e-01,-1.12611e-01,-2.58598e-02,-1.73901e-03,-1.47110e-01,-3.32229e-01,-2.42786e-01,3.88362e-02,1.46212e-01,2.17151e-01,1.76845e-01,1.75015e-01,1.31087e-01,2.16770e-01,7.45652e-02,-1.51816e-01,6.59750e-03,-6.60092e-02,2.40759e-01,3.35884e-02,8.04693e-02,-2.04928e-01,-1.55721e-01,-7.26474e-02,-2.45835e-01,9.45215e-02,-2.30152e-01,-1.28108e-01,-1.58017e-01,3.70284e-02,8.09377e-02,-3.61094e-02,-1.28408e-01,-2.05333e-01,1.24907e-02,1.13990e-01,1.46442e-01,2.39326e-01,1.70706e-01,2.61435e-01,1.72040e-01,2.97410e-01,-5.20254e-02,6.32239e-02,2.91731e-02,-2.44101e-02,3.43769e-01,-1.56867e-01,-2.03597e-01,1.25720e-01,-1.84680e-01,-2.41929e-02,-3.39097e-02,2.91910e-01,-4.60825e-01,-3.98401e-01,-1.57060e-01,1.03597e-01,-3.32069e-03,-1.50184e-01,-2.78129e-01,-2.08238e-01,2.28057e-01,2.32615e-01,1.55199e-01,8.10627e-02,2.40443e-01,1.64299e-01,1.16758e-01,3.97799e-01,1.60409e-01,6.41882e-02,2.67663e-01,9.91363e-02,2.35072e-01,-4.08623e-01,-5.52507e-01,1.45323e-01,-4.78327e-02,-3.28192e-02,2.63881e-02,2.87419e-01,-3.69746e-01,-4.68480e-01,-3.77213e-01,-1.67326e-01,-2.35109e-01,-4.87339e-02,4.22670e-03,-4.58481e-02,2.51763e-02,1.03451e-01,-2.32023e-02,4.18015e-02,2.25694e-01,1.03037e-01,2.40949e-01,1.94038e-01,4.28636e-02,-4.99828e-02,6.62038e-02,2.72483e-01,2.96209e-01,-4.06617e-01,5.23924e-02,5.58443e-01,3.61611e-03,-6.94702e-02,-4.35712e-02,-7.54256e-03,1.47025e-02,-6.16354e-02,-1.02654e-01,-3.34226e-01,-7.39862e-02,-2.66882e-01,-8.94549e-02,-1.33601e-01,-1.43725e-01,-5.50205e-02,1.15075e-02,2.22771e-02,9.43898e-02,-4.36291e-02,1.93486e-02,-1.73263e-01,1.55349e-02,-8.05131e-02,2.67346e-01,2.24330e-01,1.32002e-02,-2.69333e-01,2.15741e-01,4.13944e-01,7.69538e-03,3.36684e-02,2.33562e-02,1.72878e-02,-1.73905e-02,-2.90424e-01,-3.46576e-01,-9.94829e-02,-2.27410e-01,-5.60467e-01,-2.04007e-01,-5.82432e-02,-7.97750e-02,-5.51002e-02,-1.90835e-01,-1.27456e-02,-9.75866e-04,-3.25192e-01,-1.13678e-01,1.63980e-01,7.73585e-02,1.33395e-01,4.07040e-01,2.03977e-01,9.70871e-02,-1.99671e-01,5.16548e-01,-3.68735e-02,-1.47765e-03,1.79465e-02,-1.52058e-02,1.48971e-02,-6.62809e-02,-3.80560e-01,-4.89940e-01,-1.34016e-01,-1.23299e-01,-2.46278e-01,-2.76123e-01,-1.54041e-01,2.31476e-01,-1.27718e-02,-3.64757e-01,-1.90245e-01,-1.08994e-01,-4.64090e-01,-1.60339e-01,1.86466e-01,-3.60562e-02,2.14662e-01,7.69625e-02,-4.03955e-02,-1.83645e-01,2.32036e-02,2.61718e-03,7.04045e-02,-3.48032e-02,4.12117e-03,2.93766e-02,-3.75072e-02,5.35561e-03,-4.62061e-02,-2.86692e-01,-1.26748e-01,-1.33834e-01,-1.71588e-01,-4.69145e-01,-5.31408e-01,-8.85363e-02,-2.41068e-01,-6.24816e-01,-4.51078e-02,3.63467e-01,-1.00903e-01,-4.24071e-02,-1.92481e-01,-5.29470e-01,-2.74279e-01,-2.96388e-01,-3.66553e-01,1.36022e-01,-2.96340e-01,-1.46360e-01,7.25721e-02,1.95024e-02,1.85204e-02,5.80492e-03,-1.25677e-02,-1.68170e-02,1.47278e-02,-1.65403e-01,-2.37098e-01,-2.91499e-01,-3.82190e-01,-4.94582e-01,-6.20757e-01,-5.03029e-01,-4.30655e-01,-4.84629e-01,-8.84771e-02,3.50815e-01,1.24717e-02,-1.33558e-01,-1.02713e-01,-1.71124e-01,-6.60321e-01,-7.18905e-01,-4.42253e-01,-3.92960e-01,-4.35182e-02,-7.06291e-02,4.19693e-03,-6.79650e-03,-1.14321e-02,-1.68743e-02,-1.93939e-02,-9.30533e-03,-2.74755e-03,-3.48537e-02,-1.23637e-01,-1.08160e-01,-7.47420e-02,-5.63750e-02,-3.03960e-01,-3.03506e-01,-2.16202e-01,-3.36884e-01,-6.90980e-01,-4.30281e-01,-3.22765e-01,-5.67940e-01,-4.18153e-01,-2.98926e-01,-4.43255e-02,-2.66805e-01,-2.39242e-01,-3.08113e-01,-7.08810e-03,-2.12264e-02,1.78336e-02,1.32500e-02,
2.06212e-03,-2.52531e-02,-2.66877e-02,-2.65973e-02,-3.40376e-02,-1.06545e-02,2.09223e-02,1.11442e-02,-3.37235e-02,-2.39839e-02,3.53118e-03,-6.68122e-03,2.26693e-02,1.38570e-01,1.16399e-01,7.01965e-03,-3.02415e-02,6.72788e-03,-3.11020e-02,2.97282e-02,-1.24497e-02,-2.40753e-02,2.32899e-02,-7.32456e-03,-3.09918e-02,-9.19079e-03,-2.62178e-02,-3.14051e-02,2.50834e-03,-2.34937e-02,1.78044e-02,-2.24239e-02,6.06207e-03,-6.41224e-03,-1.31429e-02,-6.50006e-02,6.99648e-02,9.30676e-02,3.20877e-01,2.11271e-01,5.19357e-02,-1.72360e-01,-1.40625e-01,-4.42207e-03,2.07878e-02,-3.00309e-03,-1.65454e-01,-3.78639e-01,-2.02699e-01,-1.11677e-01,-8.22481e-02,-4.63925e-02,1.46419e-02,-2.60959e-02,9.65811e-03,-2.16040e-02,1.21375e-02,-3.53623e-02,6.08820e-02,-3.55211e-02,-7.33631e-02,6.92293e-02,3.40358e-03,7.82535e-02,3.65162e-01,2.36201e-01,2.71362e-01,1.23972e-02,5.36843e-03,2.50907e-02,3.86525e-02,1.23193e-01,-3.42875e-01,-2.59438e-01,-1.24011e-01,-5.29421e-02,-5.27048e-02,4.36633e-02,4.65963e-02,-5.82994e-02,-5.33141e-02,-8.82927e-02,-1.02645e-02,-1.92989e-02,-3.37466e-02,1.18789e-02,-4.61279e-02,-3.15890e-01,-6.48988e-01,1.20053e-01,1.82520e-01,2.50065e-01,-4.63929e-02,1.90279e-01,8.45650e-02,4.36880e-01,4.33912e-02,-1.44964e-01,-1.14541e-02,1.94689e-01,1.40126e-01,9.90014e-02,-4.76161e-02,-3.89274e-01,-3.63454e-01,3.32289e-02,1.56931e-01,9.62981e-03,-4.80151e-01,-1.85738e-01,3.90490e-02,-1.50261e-02,-2.10479e-02,2.12767e-03,1.88973e-02,-7.07313e-01,3.74639e-01,-2.89301e-02,5.68396e-02,1.76387e-01,-1.44293e-01,-7.24775e-02,-6.26566e-02,1.12713e-01,2.59488e-01,2.52788e-01,2.97775e-01,3.24317e-01,2.80116e-01,1.44622e-01,1.04549e-01,-8.41411e-02,2.80518e-02,-3.14180e-03,7.50134e-02,-1.15619e-01,-1.83117e-01,2.30604e-02,4.46444e-02,4.23980e-02,2.50717e-02,2.27678e-02,-4.15993e-02,-6.79445e-01,-7.00106e-02,1.88084e-01,5.98917e-02,-1.06219e-01,-1.96683e-01,-3.22749e-02,-8.13885e-02,-6.15451e-02,-1.64800e-02,1.55662e-01,1.66986e-01,7.86961e-02,1.11906e-01,3.19083e-01,2.31623e-01,1.10589e-01,1.65992e-01,3.20411e-02,6.67613e-02,-3.11180e-02,-5.69262e-02,2.25397e-01,-5.37679e-02,-2.60577e-02,-9.23529e-03,-2.15254e-02,-4.00673e-02,9.05820e-02,3.27910e-02,-4.64273e-02,-1.45445e-01,-4.95951e-02,-2.10287e-01,1.41634e-01,-5.64262e-02,-7.25531e-03,-8.05895e-02,-2.16371e-02,-1.12427e-01,2.43499e-02,-1.24147e-01,8.15282e-02,1.46971e-02,9.49422e-02,9.17447e-02,-1.57241e-01,-1.09342e-01,-1.67493e-01,-1.95172e-01,-1.58608e-03,4.94112e-02,2.45853e-02,2.41468e-02,-4.72045e-02,1.40067e-02,-1.58888e-01,-3.15114e-01,4.63910e-02,1.28513e-01,-1.66156e-01,-2.95580e-01,-4.36460e-02,-1.94700e-01,7.02485e-02,-4.94205e-02,-3.80253e-02,1.81478e-02,-4.15943e-02,-1.92168e-01,-2.58927e-01,-3.43769e-02,-3.71364e-02,1.22668e-02,1.50902e-01,1.95078e-01,-2.13380e-01,-3.76155e-01,-9.81796e-02,2.15448e-01,-3.09008e-02,1.79951e-01,1.99527e-02,-2.33363e-01,-3.64837e-01,-3.99709e-01,-2.99677e-01,-1.55365e-01,-2.66879e-01,-2.34458e-01,-2.67076e-01,-4.32407e-02,-1.01590e-01,-1.85794e-01,-1.54168e-01,-6.14756e-02,-2.03365e-01,-2.68445e-01,-2.04853e-01,-1.56012e-01,2.12984e-02,4.33561e-02,-4.00631e-02,5.56745e-02,1.16481e-01,1.01008e-01,-1.10232e-01,2.81682e-01,9.40530e-03,-3.36001e-02,-5.21491e-02,-2.25016e-01,-6.91007e-01,-2.26158e-01,-4.26725e-01,-3.24491e-01,-8.16573e-02,-2.69937e-01,-1.85203e-01,-6.55078e-02,-2.36820e-01,-2.07299e-01,8.31824e-03,-1.18152e-01,-3.09366e-01,-3.09532e-01,-1.97490e-01,1.34387e-01,2.07596e-02,1.00837e-01,-2.61907e-02,6.88770e-02,3.88233e-01,2.42500e-01,1.25076e-01,-1.90663e-01,1.17416e-01,7.23458e-03,-7.40319e-02,-3.73642e-01,-2.58060e-01,1.31798e-02,-4.44769e-01,-4.37557e-02,6.72355e-02,-2.14721e-01,-1.55688e-01,-2.02347e-01,-2.79712e-01,-3.78820e-01,-1.11787e-01,-2.81509e-01,-5.08172e-01,-4.81320e-01,-6.36957e-02,2.08950e-01,1.23171e-01,9.82288e-03,6.30197e-03,-5.67150e-02,-1.44251e-02,1.02687e-02,-2.54508e-01,-4.47409e-01,3.10492e-02,2.43645e-02,-8.25027e-02,-4.30785e-01,-2.45647e-01,1.04863e-02,-1.13664e-03,1.99794e-01,6.03445e-03,-2.39877e-01,-1.16301e-01,-1.08075e-01,-2.46839e-01,-3.21113e-01,6.00952e-02,-2.72299e-01,-7.13513e-01,-4.07518e-01,-1.03889e-01,2.45157e-02,1.40970e-01,1.04623e-01,8.32038e-02,1.31525e-01,6.63547e-02,2.53466e-01,3.64860e-01,-3.43775e-01,3.79230e-03,6.14923e-02,-2.31112e-01,-4.05292e-01,-1.24320e-01,-2.88065e-02,2.99647e-02,2.02703e-01,1.86009e-01,-1.40217e-01,-7.74409e-02,8.21332e-02,-4.83557e-02,2.15237e-02,-1.91415e-02,-4.54121e-01,-6.92192e-01,-4.58747e-01,-1.36481e-01,6.62097e-02,3.73354e-01,3.21166e-01,1.17440e-01,1.43241e-01,9.97599e-02,1.88606e-01,2.14340e-01,-1.63983e-01,-4.00989e-02,-1.47055e-02,-2.80935e-01,-4.42813e-02,5.02045e-02,-1.23615e-01,-2.89885e-02,9.21522e-02,9.01116e-02,-1.46212e-01,-2.05303e-01,-1.56189e-02,-3.42424e-02,1.55899e-01,-5.96243e-02,-4.46838e-01,-4.61126e-01,-1.57708e-01,2.62613e-01,2.85645e-01,2.65373e-01,2.33320e-01,-1.53807e-04,2.03182e-02,2.18489e-02,8.66047e-02,8.25431e-02,-1.02587e-01,-6.41838e-02,1.83202e-02,-1.92445e-01,-2.02189e-01,2.98648e-01,-9.34601e-02,4.64307e-03,1.94833e-01,-5.37347e-02,-3.13559e-02,-6.34556e-02,-3.23992e-01,-4.21035e-01,-1.75446e-01,-2.86583e-01,-4.83107e-01,-2.28267e-01,3.12596e-01,4.46952e-01,1.53615e-01,8.34736e-02,-1.58893e-01,-1.62512e-01,-9.81322e-02,3.34572e-02,-9.76217e-03,-7.59052e-02,-1.27327e-01,-7.22488e-02,-1.46483e-03,-2.84579e-01,-1.32939e-01,6.44026e-01,-3.99230e-02,1.77082e-01,2.08318e-01,8.61659e-02,1.93678e-01,1.58581e-01,-1.09416e-01,-9.57672e-02,-2.97340e-01,-7.14596e-01,-4.39589e-01,6.44471e-02,2.14510e-01,1.69422e-01,6.01973e-03,-1.45459e-02,-2.06909e-01,-3.28204e-02,8.56350e-02,-1.36068e-01,-3.24271e-01,-3.50379e-01,2.17259e-02,7.23471e-02,-3.83014e-03,-2.46052e-01,6.91497e-02,3.82286e-01,-2.80038e-02,3.45919e-01,1.17156e-01,1.93951e-01,3.08683e-01,9.58995e-02,-3.79276e-02,-3.96961e-02,-2.22970e-01,-2.12407e-01,-7.81795e-02,3.46969e-02,1.95961e-01,-2.27805e-02,-5.46728e-02,8.70799e-02,-1.47578e-02,-2.65540e-02,1.03521e-01,-1.39184e-01,-3.33618e-01,-2.02133e-01,1.19861e-01,1.44072e-01,3.31883e-02,-1.36733e-01,8.99507e-02,3.23442e-01,6.27859e-02,2.99630e-01,1.79937e-01,1.47717e-01,1.63344e-01,7.76201e-03,-8.13050e-02,-3.26696e-02,8.63331e-02,2.35207e-02,9.92754e-02,2.61895e-01,2.97603e-01,-2.88775e-02,-1.24904e-01,-2.84072e-02,7.03472e-02,-9.79573e-02,3.34003e-02,-1.53637e-01,-3.03794e-01,-1.03225e-01,1.98637e-02,-3.78909e-02,-7.57678e-02,-2.83903e-02,-7.59648e-02,1.79673e-01,5.08765e-02,2.63434e-01,2.24720e-01,3.57444e-01,2.55679e-01,5.75443e-02,3.99773e-02,1.76435e-01,1.84694e-01,3.15934e-01,3.26066e-01,2.05435e-01,5.57565e-02,-1.11577e-01,-1.30795e-01,-2.02708e-01,-2.13667e-01,-1.12301e-01,5.68451e-02,-6.19773e-02,-2.26168e-01,-1.86427e-01,-6.18199e-02,-2.85690e-02,-1.19366e-02,-4.31091e-02,-3.72248e-02,-3.05320e-01,7.81818e-02,1.21590e-01,6.88965e-02,1.99027e-01,2.87030e-01,2.32396e-01,1.57874e-01,2.36046e-01,1.37791e-01,1.35543e-01,1.81514e-01,1.03968e-01,-2.35125e-02,6.14202e-02,-5.99033e-02,2.23789e-02,-2.53919e-01,-3.63746e-02,6.46326e-02,-4.12694e-02,1.26874e-01,-1.86387e-01,2.16337e-01,-2.05725e-02,1.16167e-02,-2.80665e-02,7.75720e-02,-2.37411e-02,-7.58405e-02,7.84687e-02,1.87287e-02,4.33535e-02,1.17751e-01,6.00606e-03,3.20470e-02,1.23480e-01,5.35717e-02,1.74354e-02,-1.78404e-02,5.31739e-02,1.95123e-01,3.93526e-01,3.69584e-01,2.27108e-01,-7.71910e-02,5.34723e-02,-1.44721e-01,-3.68543e-02,3.94424e-01,1.69373e-01,2.48042e-01,-9.38668e-03,-3.31980e-02,1.47291e-02,5.12242e-02,8.22660e-02,1.81158e-01,1.71347e-01,1.40450e-01,1.08698e-01,1.79736e-01,-4.74511e-03,-1.16331e-02,-4.75622e-03,-5.18397e-02,-1.35014e-01,-2.22908e-01,-2.53482e-01,3.33083e-02,1.80882e-01,1.68032e-01,2.10040e-01,9.85329e-02,3.75822e-01,-6.67977e-02,-2.47595e-02,1.97325e-01,-8.19773e-02,-3.79741e-02,7.64094e-03,-3.94536e-02,1.52310e-02,2.82510e-01,4.99644e-01,3.00881e-01,9.92942e-02,3.29019e-02,1.84172e-01,1.14909e-01,4.15268e-02,2.05349e-02,7.62801e-02,-7.35012e-02,-5.77795e-02,-4.38019e-01,-3.99711e-01,1.12292e-01,1.69684e-01,3.03895e-01,2.38758e-01,2.70250e-01,3.28917e-01,2.13503e-01,1.62650e-01,-2.27729e-03,-2.76498e-01,-2.82736e-01,-2.03750e-02,1.23092e-02,1.70389e-02,1.88231e-02,6.72270e-01,1.22828e-01,-1.34938e-01,-3.37212e-01,-1.65155e-01,-1.55217e-01,-1.69627e-01,-2.10625e-01,-3.78553e-01,-2.64486e-01,-2.58979e-01,-4.18141e-01,-3.42178e-01,-8.13504e-02,-8.61172e-02,-1.26186e-01,-1.24951e-01,2.50823e-01,1.92737e-01,3.53034e-01,1.33227e-01,2.10227e-01,-4.44240e-01,-4.98955e-01,9.55806e-03,1.68408e-02,-2.41611e-02,-6.52945e-02,-1.89308e-03,-1.10272e-01,-4.35903e-01,-2.67428e-01,1.81329e-02,1.32089e-01,2.37936e-01,-3.16482e-01,-2.39558e-01,-1.12052e-01,-3.43450e-01,-3.21729e-01,-7.76158e-02,1.22247e-01,-5.15818e-02,-9.35495e-02,6.41146e-02,1.93777e-01,1.81268e-01,3.41999e-01,5.94970e-01,2.99984e-01,1.21344e-01,2.21308e-02,-2.88961e-02,-9.82308e-03,3.73085e-03,3.33958e-01,-2.63313e-01,-7.03958e-02,-1.09097e-01,4.86476e-02,-1.59615e-01,7.89473e-02,1.96294e-01,1.23062e-01,4.30522e-01,2.68541e-01,1.26058e-01,1.10550e-01,2.06327e-01,1.21389e-01,1.96085e-01,2.74906e-01,3.01894e-01,5.83172e-01,5.92705e-01,2.02939e-01,4.11968e-01,1.63915e-01,-1.51057e-02,1.31389e-02,4.50288e-04,2.63278e-02,1.32261e-03,-3.03044e-02,-9.66166e-03,5.33978e-03,-1.18688e-01,-1.02181e-01,-1.70044e-01,-2.77130e-02,-8.69987e-02,-9.64570e-02,2.70547e-01,3.44391e-01,6.77145e-03,-7.70043e-02,6.91455e-02,-2.79823e-01,4.42084e-03,2.61175e-01,2.20753e-01,4.02953e-01,2.00040e-01,2.32007e-01,1.33613e-01,2.11739e-01,-8.11257e-02,-2.33551e-02,2.64917e-02,3.44675e-02,-3.06067e-02,3.21113e-02,-1.96707e-02,-6.14918e-02,-4.45951e-02,-5.24876e-02,-6.32624e-02,-1.29405e-01,-9.14481e-02,-1.38353e-01,-8.36329e-02,-1.59394e-02,-1.16243e-01,-1.24381e-01,-2.11804e-01,-3.98388e-01,-4.04342e-01,-3.30926e-01,-4.28153e-01,1.65223e-01,5.03800e-02,8.74128e-02,-4.13189e-01,1.60831e-02,-2.78342e-03,8.41312e-03,-1.91579e-02,
2.46661e-02,3.41741e-02,3.27838e-02,-2.83299e-02,2.61859e-03,3.38621e-02,2.53911e-02,1.00834e-02,2.92318e-02,-1.31571e-02,-2.12650e-02,-1.96816e-02,1.67634e-02,-1.00224e-02,6.84692e-04,-1.99563e-02,2.94582e-02,-3.02492e-03,5.99505e-03,2.86930e-02,-3.12400e-02,5.93497e-03,3.38801e-02,1.44194e-02,2.03462e-02,1.69444e-02,1.83497e-02,-1.38833e-02,1.38232e-02,2.62679e-02,1.47556e-02,1.17556e-02,7.07811e-03,-3.29459e-02,-2.87969e-02,-4.13304e-02,-1.65748e-02,-3.94745e-02,-3.57418e-02,-7.66060e-02,-1.55881e-01,-1.63598e-01,-1.19657e-01,1.94183e-01,2.11608e-01,-1.42791e-01,-2.94799e-01,-3.39127e-01,-2.80824e-01,6.11786e-03,2.15267e-02,1.55660e-02,-1.01918e-02,-1.68436e-02,1.61177e-02,3.33919e-02,1.88187e-02,-2.86434e-02,-3.40440e-02,-1.50133e-02,3.45934e-02,-1.51269e-02,-7.82593e-03,-4.05357e-02,-6.86536e-02,-1.48776e-01,-1.89374e-01,-8.88643e-02,-6.71139e-02,3.63130e-01,2.55123e-01,1.16513e-01,6.02798e-02,-2.04143e-01,-5.73483e-02,-1.91776e-01,-2.04876e-01,-4.57926e-01,-3.30630e-01,-3.01940e-01,-1.30756e-01,-1.65253e-02,-1.05703e-02,-2.86012e-02,-1.67639e-02,2.86331e-02,-4.80708e-01,-1.69485e-01,-4.77587e-02,2.15236e-01,1.53459e-01,5.89687e-02,-1.01012e-01,-1.52063e-01,-4.89140e-01,-5.73428e-02,-5.26394e-02,1.19557e-01,1.42936e-02,-1.69075e-01,-3.23463e-02,7.44700e-02,1.18993e-01,-1.37334e-01,1.13091e-01,3.15858e-01,3.36444e-01,6.21844e-01,6.75775e-01,2.43532e-01,2.80379e-01,-1.88431e-02,2.45222e-02,3.20430e-02,-5.00298e-01,-2.54385e-01,-8.35765e-02,1.88252e-01,2.92978e-03,-8.18885e-02,-6.17042e-01,-5.81030e-01,-4.71778e-01,-2.49969e-01,-1.68431e-01,-2.77064e-01,-3.76211e-01,4.36809e-02,3.49134e-01,2.58227e-01,-2.90048e-02,5.55723e-02,1.82376e-01,3.12183e-01,1.66306e-01,4.53084e-01,4.47685e-01,5.09311e-01,1.41843e-01,2.11110e-02,7.31151e-03,1.64416e-03,-4.52530e-01,-1.55400e-01,-1.26046e-01,-3.20375e-01,1.06342e-02,-2.88784e-01,-3.75390e-01,-5.05105e-01,-1.05358e-01,4.03815e-02,5.85116e-02,1.45821e-01,2.60110e-01,2.10691e-01,8.02870e-02,4.34196e-01,3.62042e-01,9.88138e-02,1.47769e-01,-1.23703e-01,-1.54212e-01,3.00220e-02,2.53876e-01,4.62256e-01,1.74170e-01,-2.62473e-02,2.36404e-03,2.73015e-03,-1.41020e-01,-2.48449e-01,-9.41378e-02,-5.46159e-01,-2.44052e-01,-4.68787e-01,-5.28096e-01,-5.05093e-01,-4.15014e-01,-2.72532e-01,7.78820e-02,3.44545e-01,1.15984e-01,3.46431e-01,5.45679e-01,2.10708e-01,3.76813e-01,-3.68511e-02,2.66154e-01,2.36987e-01,-1.29817e-01,-3.21833e-02,-5.51171e-02,-5.25948e-02,3.30043e-01,4.76986e-01,6.57688e-03,2.24732e-02,-6.33942e-02,-1.11933e-01,-3.24896e-01,-5.00113e-01,-1.53053e-01,-3.00681e-01,-4.22641e-01,-6.79659e-01,-4.70194e-01,-2.96863e-01,1.77193e-02,2.29861e-01,1.31241e-01,3.48498e-01,3.14800e-01,3.09782e-02,1.76674e-01,-1.35816e-01,1.49552e-01,8.44560e-02,-7.93572e-02,-2.13692e-01,-3.31724e-01,-1.38549e-01,4.08336e-01,5.55364e-01,2.48759e-01,1.22394e-02,-2.51198e-02,-2.06752e-02,-2.24252e-02,-1.27372e-01,2.32303e-01,-1.86852e-01,-1.59069e-01,-3.06256e-01,-3.52769e-01,3.36988e-01,1.48532e-01,1.10428e-01,-4.22228e-02,1.04587e-01,-3.72594e-02,-1.52986e-01,1.20142e-01,6.32131e-02,-2.22536e-01,-2.09783e-02,-9.22088e-02,-1.40771e-01,-3.64494e-01,-3.17816e-01,5.78848e-01,4.49121e-01,1.67223e-02,3.60707e-02,-9.71651e-02,-1.50883e-01,9.81185e-02,-4.50552e-01,4.82947e-02,-1.97269e-01,-2.41953e-02,5.08682e-02,1.12469e-01,3.00822e-01,2.30311e-01,-1.43617e-02,-2.82939e-01,-4.33813e-01,-6.95107e-01,-8.58782e-02,-2.97557e-02,1.27570e-02,-2.13502e-02,7.37881e-03,-4.27855e-02,-9.13498e-02,-2.68726e-01,-4.88485e-01,5.16829e-02,-3.34194e-02,-3.60804e-02,1.38273e-02,-3.24675e-02,-2.24506e-02,-5.97922e-02,-6.71989e-01,8.08793e-03,2.57940e-02,2.75918e-01,-3.11091e-02,-1.95093e-02,1.52453e-01,1.12601e-01,-2.09203e-01,-2.93430e-01,-4.72880e-01,-4.29347e-01,-1.75756e-01,2.18645e-01,-2.31126e-02,1.16562e-01,-2.40315e-01,-2.22727e-01,1.31259e-01,-2.08722e-01,-1.25513e-01,2.91304e-01,-1.11535e-02,4.14228e-02,-1.86806e-01,3.42164e-02,8.19504e-02,-1.90994e-01,-2.09191e-01,2.76623e-02,2.93741e-01,1.52737e-01,-5.46209e-02,5.09559e-02,1.13831e-01,6.59914e-02,5.66292e-02,-6.31947e-02,-1.59999e-02,-7.03254e-02,1.73698e-01,4.15620e-01,5.03660e-02,-7.93030e-02,-9.36494e-02,-4.13759e-02,1.63191e-01,-1.09639e-01,1.01018e-01,5.94549e-01,-3.11575e-01,3.72124e-02,-5.11413e-02,3.21719e-01,-2.22211e-01,1.43153e-01,6.57063e-02,3.76351e-02,7.65373e-02,-2.22359e-01,-7.01971e-03,-1.76433e-02,-1.24849e-01,-2.29693e-01,6.43281e-02,1.38965e-01,7.97804e-02,-6.09197e-02,2.18959e-01,1.54951e-01,1.89458e-01,1.00741e-01,2.00266e-01,-1.45980e-01,1.19812e-01,-2.81746e-01,-1.69491e-01,-4.46744e-02,-3.45762e-01,1.40080e-02,-2.30480e-01,-4.06031e-02,-3.93641e-01,2.37766e-01,1.54366e-01,-1.67422e-02,-1.10714e-01,-1.44629e-01,1.03490e-01,3.38563e-02,-2.44890e-01,7.25332e-02,1.53310e-01,9.45732e-02,9.80601e-02,-8.45936e-02,-1.22912e-01,-2.29906e-01,2.28931e-01,2.10363e-01,-1.03302e-01,-2.87893e-01,-2.59698e-01,-4.06722e-01,-2.91540e-01,-1.75591e-01,5.16092e-02,1.71964e-01,-1.13785e-01,-1.87004e-01,-5.02321e-01,1.02612e-01,-3.88921e-02,-5.67441e-03,-2.80833e-01,-5.56594e-02,9.50347e-02,4.52285e-02,-4.23213e-01,-2.01239e-01,1.29323e-01,-6.82606e-02,1.28217e-01,-6.21409e-02,-1.27165e-01,-2.98841e-01,3.76877e-02,1.44513e-01,-2.25422e-01,-2.50600e-01,-4.57781e-01,-3.67780e-01,-3.45042e-01,-3.77607e-01,-3.47792e-02,1.20684e-01,-3.43363e-03,-2.18279e-01,-2.86269e-01,7.38405e-02,1.46837e-01,2.65440e-01,-3.45269e-02,2.05149e-01,1.01090e-01,-1.36076e-01,-5.01415e-01,-3.77310e-01,-5.78833e-02,1.07752e-01,2.68862e-01,-3.97571e-02,-1.63941e-01,-1.65014e-01,-5.59304e-02,-4.02752e-01,-5.68720e-01,-3.53074e-02,-2.78032e-03,8.42044e-02,-3.96408e-01,-4.37841e-01,-8.48232e-02,6.75274e-03,-4.77118e-03,-3.06330e-01,-2.56820e-01,1.64365e-01,-1.35512e-01,1.98146e-02,-4.33855e-02,7.31100e-02,1.55472e-01,1.81791e-01,-2.69000e-01,-8.71857e-02,4.60189e-02,9.71266e-02,1.34272e-01,3.02790e-02,-1.57766e-02,1.15860e-02,-2.98301e-01,-6.94189e-01,-6.38856e-01,1.47733e-01,2.17334e-01,-1.72905e-02,-1.42379e-01,-1.69546e-01,-8.52141e-02,2.40559e-02,2.52562e-02,-2.82651e-01,-1.60520e-01,-1.37219e-01,-1.43753e-01,-2.84163e-01,-1.32074e-01,-1.87470e-01,-3.20313e-02,3.12213e-02,-1.12086e-01,3.92779e-02,9.59195e-03,-2.15332e-01,1.11315e-01,2.25707e-02,4.06693e-01,1.61899e-01,-6.27132e-01,-1.15669e+00,-7.90802e-01,-1.75249e-01,-1.47291e-01,-8.05765e-02,-2.64148e-02,-2.00732e-01,-1.01302e-01,1.54211e-01,-1.67273e-01,-2.19709e-01,-4.95703e-01,1.46843e-02,1.08722e-01,-3.47507e-01,-8.16849e-02,4.66589e-01,1.48235e-01,1.83669e-01,2.86477e-01,2.16850e-01,-1.31738e-01,-3.33963e-01,-8.53837e-02,6.08875e-02,2.86662e-01,7.23065e-02,-5.14539e-01,-7.51908e-01,-3.83737e-01,-3.43969e-01,-3.22400e-01,-2.15082e-01,2.83001e-01,-1.16625e-01,-1.65500e-01,-3.75694e-01,-2.19625e-01,-2.05140e-01,-4.80304e-01,-7.93929e-02,-1.32040e-01,-4.12184e-01,-2.21435e-02,3.29682e-01,1.56448e-01,2.03900e-01,1.00740e-01,-2.83752e-03,-1.34566e-01,-1.42072e-01,-7.51637e-02,1.45050e-01,2.98877e-01,2.14566e-01,-2.58444e-01,-5.16364e-01,-2.40434e-01,-1.17124e-01,-2.23042e-01,-2.99440e-02,3.44215e-02,5.43062e-02,-1.52073e-01,2.73195e-02,-1.18333e-02,-1.66226e-01,2.18999e-01,-1.55780e-01,-1.70218e-01,-1.77220e-01,-3.57054e-01,2.41535e-01,6.29616e-02,8.90092e-02,-8.00165e-02,-4.46856e-01,-3.55959e-02,-7.02998e-02,-3.81678e-02,4.97896e-02,3.05247e-01,-4.75269e-02,-3.44720e-01,-7.88967e-01,-4.80498e-01,-6.26225e-02,-1.57162e-02,-6.40599e-02,6.65782e-02,3.41983e-02,-9.85388e-02,-1.57304e-01,-1.25177e-01,-2.25979e-02,2.64732e-01,-3.85216e-02,-2.87894e-01,-1.81921e-03,-3.30354e-01,-2.03644e-01,1.48191e-02,-1.39078e-01,-1.36871e-01,-2.25639e-01,-1.51093e-02,6.70893e-02,1.03594e-02,-4.16702e-03,2.31777e-01,-2.72101e-01,-7.09322e-01,-7.86785e-01,-6.06661e-01,-1.07849e-01,-1.32412e-01,-3.18444e-01,-2.26732e-02,3.66403e-01,2.20976e-04,-1.14492e-01,-5.59239e-02,-1.43860e-01,2.44303e-01,8.71406e-02,-1.22446e-01,-9.38862e-02,-1.76786e-01,-4.18769e-01,1.58996e-01,-1.34403e-01,2.11737e-02,1.62726e-01,1.73092e-01,5.96213e-02,-7.92187e-02,-1.15837e-01,7.13921e-02,-3.42210e-01,-8.22676e-01,-2.93019e-01,-5.02712e-01,2.57886e-01,2.14841e-01,3.39643e-01,3.74544e-02,3.08743e-01,6.14655e-03,-2.36000e-02,-4.50388e-03,-2.57801e-01,1.30687e-01,2.75176e-01,3.72063e-01,-8.28977e-02,1.67236e-01,1.34082e-02,8.35759e-02,-1.10074e-01,1.28457e-01,5.18600e-02,4.09845e-02,1.70307e-02,-3.62431e-02,-1.19013e-01,1.76995e-02,-2.37788e-01,-6.70530e-01,-2.45663e-01,-4.59088e-01,-4.33508e-01,2.39507e-01,1.42280e-01,2.12442e-02,-3.55209e-01,-1.73606e-02,-3.53298e-03,-2.46811e-02,-3.83548e-01,2.14880e-01,1.83781e-01,1.35223e-01,-2.25898e-02,-1.67481e-02,1.89292e-01,6.95615e-02,4.30473e-02,-9.97850e-02,5.17281e-02,1.43892e-01,-8.97100e-02,1.54687e-01,-2.94464e-02,-1.07143e-01,-2.69074e-01,-4.11376e-01,-4.62179e-01,-7.53793e-01,-5.63439e-01,-4.78171e-01,-3.72437e-01,-3.08833e-01,-5.56330e-02,-2.78621e-02,-4.53623e-03,3.25622e-02,4.39033e-01,-1.23567e-02,-1.03940e-01,1.65728e-01,6.01123e-02,3.55326e-02,3.04683e-01,2.79213e-01,3.20481e-01,-3.68991e-02,-1.30825e-01,1.30128e-01,1.26858e-01,-9.70402e-03,-3.07110e-02,-5.58420e-02,-1.88505e-01,-2.08197e-01,-1.70827e-01,-5.55656e-02,3.08256e-01,1.40291e-01,-2.69412e-01,-6.45952e-02,-9.52058e-04,2.72078e-02,1.87917e-02,9.08671e-03,-2.82763e-02,1.93788e-01,1.05375e-01,3.68217e-01,4.97411e-01,4.72955e-01,1.97961e-01,3.14139e-01,1.45741e-01,1.26502e-01,1.33380e-01,4.20334e-01,6.65765e-01,4.85224e-01,4.57091e-01,2.94157e-01,2.69090e-01,1.51837e-01,1.39237e-01,3.32052e-01,2.24469e-01,-1.23570e-02,-9.83050e-02,-1.46978e-03,-2.50246e-02,-2.05356e-02,1.97836e-02,1.47125e-02,-9.64041e-04,9.22367e-03,-2.55099e-02,-1.40708e-02,7.78557e-02,4.34881e-02,-2.35804e-02,-1.09562e-01,-2.04206e-01,-2.14840e-01,-1.13011e-01,8.60103e-02,3.48060e-01,1.89321e-02,6.71766e-02,-1.30646e-02,1.05200e-02,2.34767e-02,6.11836e-02,1.92962e-02,-4.53723e-03,-1.55661e-02,2.93235e-02,1.69828e-02,3.37082e-02,-1.80562e-02,
-1.00711e-02,-1.69983e-02,-1.66811e-02,-8.95023e-03,8.76211e-03,-2.95711e-02,2.44513e-02,-2.21651e-02,-1.57234e-02,1.89955e-02,-3.35226e-03,-4.82992e-03,3.04058e-01,2.95873e-01,1.85492e-01,1.13655e-01,3.51739e-03,1.25798e-02,-1.15659e-02,-3.48055e-02,2.41084e-02,2.13510e-02,1.11839e-02,-3.41380e-02,-1.23328e-02,2.47546e-02,-1.62831e-02,-9.03854e-03,2.07319e-02,3.35621e-02,9.97191e-03,6.82040e-03,1.20526e-02,4.23157e-02,1.66716e-01,1.56841e-01,1.39439e-01,1.41748e-01,3.16095e-01,2.29474e-01,3.45306e-01,-1.80778e-02,-2.16017e-01,1.99592e-01,5.45593e-01,6.82770e-01,4.78456e-01,6.04866e-01,5.99152e-01,5.02160e-01,3.07780e-01,1.88356e-01,-2.10072e-02,1.88503e-02,1.36709e-02,2.34941e-02,2.32374e-02,1.07699e-02,1.57263e-01,3.07361e-01,2.35549e-01,8.01362e-02,3.31958e-01,5.19702e-01,8.47514e-01,7.61039e-01,3.59887e-01,2.20791e-01,9.58257e-02,2.19653e-01,3.71549e-01,3.99369e-01,2.77591e-01,3.50870e-01,3.36343e-01,4.87809e-01,5.11172e-01,3.61468e-01,3.58316e-01,6.51113e-01,4.99663e-01,2.03129e-01,2.42609e-02,-2.57093e-02,2.89766e-02,3.92387e-03,1.45850e-03,2.49370e-01,2.89728e-01,7.80378e-01,6.97868e-01,3.69638e-01,3.98987e-02,6.59676e-01,3.65318e-01,7.52780e-01,5.40158e-01,1.97764e-01,6.18575e-02,2.56651e-02,-1.46852e-01,-3.45688e-01,-4.01338e-01,-6.58526e-02,8.21447e-03,9.02083e-02,-5.00970e-02,5.30460e-02,4.29198e-01,5.78225e-01,3.89042e-01,1.25696e-02,2.85703e-02,1.41577e-02,-2.20968e-02,4.75542e-02,4.78314e-01,5.72534e-01,4.79445e-01,1.94691e-02,1.69622e-01,2.19394e-01,3.82111e-01,2.17950e-01,2.74186e-01,6.42314e-02,-2.36284e-01,-3.74124e-01,-6.67185e-02,6.25885e-02,-5.40025e-03,1.10230e-01,7.69096e-02,-2.50191e-01,-1.09590e-01,1.30611e-01,1.54589e-01,-1.37057e-01,6.87194e-01,8.22560e-01,-2.82726e-02,-1.06810e-02,1.98923e-01,-3.76311e-02,1.30539e-01,2.46762e-01,2.15474e-01,1.37487e-03,2.64457e-01,1.69368e-01,4.43829e-01,1.28867e-01,-7.29682e-02,-4.27998e-01,-2.19921e-02,-2.52999e-01,9.05915e-02,2.15651e-01,7.38835e-02,2.67320e-02,6.52079e-03,-1.61561e-01,-1.15026e-01,1.68583e-01,1.44918e-01,1.54830e-01,5.01609e-01,8.42968e-01,-1.42576e-02,-1.03711e-02,8.40126e-02,-2.54250e-01,1.00786e-01,3.63917e-01,2.34686e-01,5.20707e-02,2.68920e-01,2.08069e-01,-1.14096e-01,-2.91259e-01,-6.92013e-01,-8.79442e-01,-5.37764e-01,2.65785e-02,3.81396e-01,-8.33000e-02,-2.78940e-01,-1.16054e-01,1.10328e-01,-3.60368e-02,8.74161e-02,-8.33569e-02,-7.67089e-02,-4.68572e-02,1.05063e-01,5.49015e-01,-2.99180e-03,-3.91122e-02,-4.34876e-01,-3.30472e-01,1.60321e-02,-5.64495e-02,-6.46228e-02,1.83362e-01,3.41279e-01,1.36435e-01,1.25529e-02,-1.59342e-01,-5.66435e-01,-8.35412e-01,-4.57765e-01,3.37930e-02,7.16074e-02,6.88725e-02,-2.11164e-01,-1.02059e-01,1.17425e-01,9.99609e-02,-2.60821e-02,-4.76592e-01,-8.12812e-02,1.77862e-01,2.94569e-02,5.15527e-01,8.38907e-01,2.70495e-01,-2.57652e-01,-1.56502e-01,6.91412e-02,-1.07329e-01,-1.13502e-01,-1.26029e-02,-6.08738e-02,-2.55960e-03,-3.18439e-02,-2.28414e-01,-5.71060e-01,-6.21052e-01,-2.69360e-01,-5.79843e-02,1.69918e-01,6.65676e-02,-6.93351e-02,-1.82407e-01,3.84675e-02,-6.60907e-02,-7.55334e-02,-3.83960e-01,-5.17931e-01,-4.47853e-01,-2.07671e-01,-9.54758e-02,-3.50339e-02,-2.58286e-01,1.45909e-01,5.09579e-01,6.09824e-02,-9.75353e-02,-2.58179e-01,-1.83226e-01,-1.73704e-02,-3.78977e-02,3.26076e-02,-1.47271e-01,-3.16549e-01,-6.37888e-01,-3.99311e-01,-6.30055e-03,2.91647e-01,1.52833e-01,-1.46382e-01,6.15389e-03,9.27915e-02,-8.76524e-02,-2.87247e-01,-5.98644e-01,-3.88814e-01,-5.03485e-01,5.02985e-02,-1.82715e-01,1.49129e-02,-1.73196e-01,2.33169e-01,1.28514e-01,-1.37463e-01,3.68923e-02,-1.65244e-01,-4.71769e-02,5.73275e-02,2.91945e-02,1.89151e-01,-6.17212e-02,-3.58286e-01,-8.28336e-01,-3.91764e-01,1.76778e-01,1.68222e-01,1.14902e-01,-2.82256e-01,-5.87028e-02,-1.37585e-01,-6.85314e-02,-3.18004e-01,-3.31439e-01,1.81163e-01,-5.39351e-02,-2.23561e-01,-4.34282e-01,2.21818e-03,4.96884e-01,-1.94097e-01,1.76972e-01,-2.52241e-01,-1.45919e-01,-4.04157e-03,3.44470e-02,4.19150e-01,2.55339e-01,1.06714e-01,-1.87805e-01,-4.99058e-01,-4.30401e-01,-2.62349e-01,-1.30897e-01,2.41634e-01,1.31723e-01,-1.11507e-01,-2.68131e-02,2.67137e-02,9.46236e-02,-1.28488e-01,1.13052e-01,2.91483e-01,3.41486e-01,-6.78675e-01,-7.99765e-01,-1.50216e-02,1.05219e-01,-2.48749e-01,2.34401e-01,-5.40611e-01,-2.26647e-01,1.93001e-01,1.62194e-01,2.19808e-01,1.23038e-01,2.92102e-01,2.06564e-01,-8.52036e-03,3.38235e-01,-9.78044e-02,1.71302e-02,1.70183e-01,9.82199e-02,-1.03920e-01,9.22407e-02,1.85510e-01,1.42090e-01,3.03344e-01,1.36356e-01,4.78843e-01,2.72652e-01,-1.85579e-01,-6.32781e-01,1.96951e-02,1.42290e-01,-2.02709e-01,-3.92248e-02,-1.73285e-01,9.92864e-02,3.70322e-01,-1.96224e-02,1.80591e-02,5.78004e-02,1.05821e-01,2.23757e-01,2.72243e-01,2.15472e-01,2.13484e-02,1.34611e-01,3.85342e-02,1.20368e-01,1.20548e-01,2.25773e-01,1.63101e-02,2.15140e-01,3.94796e-01,5.02242e-01,3.84871e-01,-3.44644e-02,1.67069e-01,1.99118e-01,-2.10924e-02,7.32660e-02,-2.34124e-01,-1.55117e-01,-2.32339e-01,4.06606e-01,2.86418e-01,-2.46773e-02,7.45009e-02,1.69185e-01,8.47904e-03,8.32972e-03,1.52612e-01,2.44842e-01,6.07337e-02,9.78974e-02,1.53213e-01,2.05975e-01,4.84980e-02,1.59208e-01,-1.32685e-01,1.44799e-01,2.99660e-01,3.85086e-01,5.04919e-01,3.72722e-01,5.51078e-02,3.58100e-02,-2.05183e-02,4.24613e-02,2.17666e-01,3.16360e-01,-2.32896e-01,3.52190e-02,2.31130e-02,5.92908e-03,-1.53690e-01,-3.57466e-02,-5.90827e-02,4.65518e-02,2.76357e-01,3.80550e-01,2.50431e-01,2.90953e-01,1.58929e-01,1.49050e-01,-6.57618e-02,1.59602e-01,1.48952e-01,9.41000e-02,8.73915e-02,2.15342e-01,1.85070e-01,2.58187e-01,-1.52346e-02,3.09105e-01,-2.89174e-02,-6.60177e-02,2.20722e-01,1.72838e-01,-3.74058e-01,-8.77343e-02,1.38415e-01,3.67263e-01,1.59214e-02,-4.21248e-02,-1.28192e-01,-4.84762e-02,1.29324e-01,8.21897e-02,1.29385e-01,3.75053e-01,1.90089e-01,3.41676e-01,1.92942e-01,2.26248e-01,3.06167e-01,4.16806e-01,1.28246e-02,2.55496e-02,-9.28731e-02,3.37837e-01,1.26673e-01,3.73493e-01,4.03536e-04,-2.69535e-02,3.73045e-01,-7.80976e-02,-3.41358e-01,-1.03417e-01,1.96675e-01,8.57157e-02,1.70446e-01,5.65508e-02,8.14052e-02,1.82688e-01,1.31506e-01,-1.02012e-02,4.96475e-02,1.61449e-01,2.19107e-01,8.35283e-02,1.84132e-01,4.39782e-02,2.52437e-01,3.02530e-01,-6.38713e-02,-1.97718e-01,-1.34015e-01,2.15215e-01,-1.22298e-01,3.49232e-01,-9.19280e-02,-1.23065e-01,3.06987e-01,-4.64289e-02,-1.35660e-01,1.65446e-01,1.60737e-01,4.90912e-02,1.14686e-01,1.21599e-01,7.96955e-02,1.23267e-01,-6.93710e-03,-2.20823e-02,9.47082e-02,1.61478e-01,6.83970e-02,2.31986e-02,1.52952e-01,-2.11784e-01,-1.20171e-01,-6.37357e-02,-1.17757e-01,-6.45493e-02,1.36451e-01,2.79765e-01,-3.81327e-01,2.75269e-01,-1.42709e-01,-1.14097e-01,6.50346e-02,-9.93255e-02,8.12717e-02,5.51223e-02,-7.27513e-02,-7.31872e-02,-7.95686e-02,-1.31988e-02,8.63464e-02,1.45891e-01,-6.08299e-02,-3.72525e-02,1.60926e-02,1.84911e-01,3.99311e-02,9.61148e-03,3.54847e-02,-2.62281e-01,-8.59217e-02,-5.86478e-02,-7.64557e-02,-2.00660e-01,3.22465e-02,2.00013e-01,5.06904e-01,-5.26869e-02,-2.28922e-02,-2.80368e-03,-5.07108e-02,-7.41507e-02,8.36356e-02,-1.55758e-01,-1.80251e-01,9.17967e-02,-1.47208e-01,4.32727e-02,1.96458e-01,2.06869e-01,-1.44493e-01,-1.74369e-01,-6.59807e-02,-1.22032e-01,7.76251e-03,-1.18679e-01,6.43698e-03,-2.73877e-01,-2.20582e-01,-3.37553e-01,-1.93592e-01,-1.76828e-01,-1.37371e-01,-3.95961e-01,5.12015e-01,-7.05621e-02,-3.13534e-02,1.05174e-03,-3.87461e-01,2.38486e-01,1.04595e-01,1.38309e-01,2.03064e-01,3.46972e-03,-9.34527e-02,-1.62546e-02,6.20132e-02,-2.31394e-02,-2.65801e-01,-9.04049e-02,-1.95747e-01,-3.55565e-01,-1.31320e-01,-1.28635e-01,-1.84850e-01,-2.04284e-01,-2.45817e-01,-3.08958e-01,-2.45637e-01,-1.27593e-01,-3.50167e-01,-1.77642e-01,3.45756e-01,-1.92186e-02,1.57928e-02,-1.81055e-02,-4.45374e-01,2.56168e-02,-1.19571e-01,2.68614e-02,1.12324e-02,-1.81699e-01,-4.80921e-01,-2.60827e-01,-1.63250e-02,-1.60867e-01,-2.08822e-01,-1.66966e-01,-4.94761e-01,-3.86929e-01,-2.68358e-01,-2.89742e-01,-2.92394e-01,2.11713e-02,-1.24322e-01,-6.86483e-02,-1.35847e-01,-4.70057e-01,-4.89474e-01,-1.21213e-01,-1.57516e-01,-3.46322e-02,1.49468e-02,-1.44271e-02,-2.58317e-01,5.28321e-02,-1.10274e-01,-1.28808e-01,-1.81026e-01,-3.84034e-01,-4.39551e-01,-4.93426e-01,-4.34455e-01,-5.65397e-01,-1.66261e-01,-3.21696e-01,-1.84401e-01,-2.31429e-01,-2.71392e-01,-3.04812e-01,-1.48837e-01,-1.78800e-01,-1.09329e-01,1.82368e-01,-1.90164e-01,-3.10377e-01,-4.99796e-01,-4.29030e-01,-4.52007e-01,8.02260e-03,-1.37339e-02,1.12602e-02,1.65728e-02,-1.76265e-01,-4.99674e-01,-5.40489e-01,-6.85355e-01,-5.27894e-01,-3.39305e-01,-2.34446e-01,-4.14783e-01,2.60012e-02,-9.23970e-02,-8.31575e-02,1.30565e-01,-1.01992e-01,-2.32198e-02,4.02316e-02,1.36364e-01,-8.77427e-02,-2.40818e-02,7.23765e-02,-4.54861e-02,-1.35994e-01,-3.57494e-01,2.26085e-01,-3.40523e-04,-1.39303e-02,1.46642e-02,4.94049e-03,-1.79825e-02,2.75157e-02,-3.17097e-01,-5.93009e-01,-5.34182e-01,-5.82761e-01,-2.14926e-01,-2.12025e-01,-1.24115e-01,-2.91365e-02,-2.07419e-01,-4.27564e-02,-1.01234e-01,-3.06797e-02,-2.29568e-01,5.77632e-02,-8.37163e-02,-5.50100e-01,-4.55336e-01,-3.23303e-01,-3.22184e-01,3.01086e-02,-3.83731e-01,-2.91103e-02,-2.93538e-03,1.57570e-02,1.43359e-02,2.47523e-02,1.81006e-02,2.69230e-03,-4.70735e-01,-5.87546e-01,-5.31525e-01,-4.18584e-01,-2.53696e-01,-5.63454e-01,-4.50843e-01,-2.63094e-01,-4.87087e-01,-3.08103e-01,-4.83106e-01,-6.41666e-01,-1.67828e-01,-1.60620e-01,-2.40238e-01,-4.25661e-01,-9.50740e-01,-6.00104e-01,-2.44633e-01,-3.77448e-01,-5.10545e-02,4.94910e-03,-3.17137e-02,9.47785e-03,3.55970e-02,-2.54459e-02,1.60433e-02,2.40207e-02,9.29466e-04,-1.73175e-02,-2.52615e-01,-2.36003e-01,-2.75812e-01,-2.52743e-01,-4.71652e-01,-3.72444e-01,-1.71189e-01,-4.70518e-01,-5.13629e-01,-1.98703e-01,-1.05201e-01,7.32552e-02,-5.10607e-02,-5.29168e-01,-5.98980e-03,-5.42572e-02,-5.30495e-03,4.54058e-02,-1.66528e-02,2.91733e-02,-2.46102e-03,-2.05074e-02,
4.24681e-03,1.05731e-02,-2.91878e-02,-2.66991e-02,2.40770e-02,-2.84293e-02,1.50946e-03,3.30636e-02,-2.24435e-02,-3.41468e-02,2.67863e-02,3.42178e-02,-2.21256e-02,1.16214e-02,2.80331e-02,-5.35376e-03,-1.62512e-02,3.38319e-02,-2.11761e-02,1.57384e-02,5.59174e-03,5.05264e-03,1.04470e-02,6.48460e-03,1.27286e-02,-2.85968e-02,2.03679e-03,-1.50584e-02,2.63339e-02,1.45456e-02,-1.97800e-02,1.67108e-02,1.65682e-02,-4.51338e-02,-4.51476e-03,-3.96130e-02,-3.49776e-02,-6.93284e-02,-1.04525e-02,-3.36379e-02,-2.14930e-02,-5.72395e-03,2.05425e-01,1.79836e-01,-2.88451e-02,-3.38524e-02,-3.02116e-02,-1.78272e-02,-5.73945e-02,1.01009e-02,-4.05920e-03,-7.10650e-03,1.90271e-04,-3.30408e-02,-7.66309e-03,2.85896e-02,-2.90304e-04,1.09359e-02,2.12298e-03,-2.85768e-02,-6.78608e-02,1.18024e-02,-1.07124e-03,-6.85277e-02,-4.32297e-02,-8.69949e-02,-2.61868e-02,-1.56992e-01,-4.62393e-02,-4.95868e-01,-3.07297e-01,-1.67225e-01,-6.01478e-01,-8.45143e-02,1.03779e-01,2.23671e-01,-4.52844e-03,-1.56544e-01,-1.73233e-01,-1.83910e-01,-8.23282e-02,-8.42475e-02,-1.86323e-02,-3.09547e-02,1.33074e-02,-2.21241e-02,3.12355e-01,2.31899e-01,-9.73439e-02,-3.49444e-01,-3.21007e-01,3.78648e-01,4.99427e-02,-7.52549e-02,-3.95576e-01,-9.06180e-02,-1.95248e-01,1.93163e-01,1.32519e-01,1.10520e-01,-1.55603e-01,-3.16325e-02,4.18471e-01,3.41046e-01,1.43871e-01,-1.68816e-01,-1.74558e-01,3.52351e-01,-1.02078e-01,-1.78975e-01,-2.72866e-01,-6.50916e-03,1.79786e-03,6.38628e-02,3.74332e-01,3.00553e-01,-2.67946e-01,-2.08528e-01,-5.85515e-01,3.58936e-02,-1.03915e-01,-3.87164e-01,-1.98830e-01,1.86012e-01,5.28505e-02,7.46143e-02,1.15863e-01,-1.59391e-02,-1.91739e-02,-4.55529e-02,-4.14760e-02,-8.04232e-02,-2.35104e-01,-1.29059e-01,1.81509e-02,-1.59843e-01,-6.47118e-01,-2.31364e-01,4.27833e-03,-3.02381e-01,3.08439e-02,3.47884e-02,2.67778e-01,2.80843e-01,3.75073e-01,5.37835e-01,4.68524e-01,1.03397e-01,1.41162e-03,-1.85845e-01,3.71780e-02,3.18736e-02,-4.35361e-02,1.57956e-02,6.87137e-02,2.82276e-03,8.52092e-03,-8.60742e-02,-2.02075e-01,-8.67098e-03,-1.12985e-01,-1.99646e-01,-8.64643e-02,-3.57138e-01,-4.40364e-01,6.38006e-02,4.10595e-02,-3.22027e-01,1.91346e-02,3.60461e-02,-6.46103e-02,-6.31018e-02,4.65519e-01,5.40590e-01,2.22218e-01,1.08628e-01,-1.62719e-01,-4.51013e-01,-2.15563e-01,1.42964e-01,1.21920e-01,-5.52662e-02,3.42876e-02,-1.19249e-01,-5.85409e-02,-1.10088e-01,4.91398e-02,1.30472e-01,5.16024e-02,-2.92829e-02,-6.79941e-03,-6.79320e-02,-1.25765e-01,-2.38297e-01,2.86761e-01,-6.86005e-01,-4.45154e-03,-6.51948e-02,-2.68244e-02,-1.92721e-02,9.15695e-02,9.92321e-02,1.15872e-01,-6.29413e-03,-2.87490e-01,-1.42005e-01,5.76553e-02,3.57512e-01,2.03201e-01,7.13388e-02,3.49826e-02,-2.04960e-01,-2.30048e-01,-7.88080e-02,2.49840e-01,3.19715e-01,1.14205e-01,4.83191e-02,4.35747e-02,1.60720e-01,-8.05479e-02,-4.65163e-01,1.99733e-01,-5.53842e-01,1.83917e-03,-5.10597e-01,8.08171e-02,-1.19086e-02,-2.85078e-01,-4.74503e-01,9.75489e-02,-1.48358e-01,-2.55824e-01,8.62424e-02,9.90694e-02,1.17977e-02,-1.00263e-01,1.18546e-01,-5.59054e-02,-1.00358e-01,-1.58453e-01,2.42855e-02,2.27538e-01,2.13333e-01,-1.68534e-02,9.68291e-02,-7.07622e-03,-7.26010e-02,-3.12633e-01,8.03342e-02,6.21477e-01,4.40108e-01,-6.84450e-03,-7.80857e-02,-2.06917e-02,-1.51796e-01,-3.75794e-01,-6.52267e-01,1.69501e-01,9.28502e-03,-2.21493e-02,1.34507e-01,-4.77635e-02,-5.39137e-02,-7.97007e-02,2.42443e-01,2.38171e-01,2.46171e-02,2.05193e-02,3.37459e-02,-4.41276e-02,1.12743e-01,2.26418e-01,2.03986e-01,1.66411e-01,-9.13176e-02,1.07593e-01,1.86246e-01,1.20233e-01,-1.18560e-01,-1.08011e-02,9.16070e-03,1.30799e-01,-2.38067e-01,-1.52953e-01,-4.44328e-01,-4.61648e-02,-2.38334e-01,5.04178e-02,2.56992e-01,1.13887e-01,1.35887e-02,3.97324e-02,-1.55186e-02,-1.10274e-02,-7.40650e-02,-5.19599e-02,-3.19626e-01,-1.95029e-01,2.65172e-02,2.36189e-01,1.47634e-01,3.99254e-01,3.19987e-01,4.38750e-01,2.26244e-01,1.08174e-01,1.12571e-01,-9.23738e-03,6.00550e-02,3.69154e-01,-4.31204e-01,-5.84998e-01,-1.58996e-01,5.08819e-02,-2.58810e-01,2.37719e-01,2.97005e-01,2.05879e-01,-2.31084e-01,-1.60411e-01,-1.02980e-01,-7.98739e-02,-1.77992e-01,-7.65376e-02,-2.64304e-01,-1.77512e-01,-1.06672e-01,1.19787e-02,2.17763e-01,2.95701e-01,4.29420e-01,5.19731e-01,1.65657e-01,7.65460e-01,4.77453e-01,-8.65704e-04,-2.26617e-02,3.87362e-01,2.53257e-01,-2.32863e-01,-6.10585e-02,8.06406e-02,-2.10462e-01,7.74300e-02,2.33799e-02,9.73933e-02,-9.03295e-02,-3.90034e-02,2.17663e-02,-1.18236e-01,-1.46217e-01,1.00221e-02,-4.07827e-02,-1.46016e-01,-2.96792e-01,-7.53501e-02,2.27024e-01,9.73374e-02,4.55925e-01,3.33930e-01,-6.72821e-02,2.24196e-01,9.90186e-02,5.97819e-02,-4.79255e-03,-2.46072e-01,2.72867e-02,-4.85738e-01,-6.13600e-01,-3.15879e-01,-4.39748e-01,7.10414e-03,1.48445e-01,2.03739e-01,1.56888e-01,7.79275e-02,-1.18350e-01,8.89037e-02,2.49367e-01,4.29323e-02,-1.35623e-01,-2.63806e-01,-9.51257e-02,1.03999e-01,1.85432e-01,2.35008e-01,1.67559e-01,1.61013e-02,1.04663e-01,-3.51943e-01,5.69992e-02,-3.22521e-02,1.55661e-01,2.38727e-01,-7.47690e-04,-4.75550e-01,-3.48836e-01,-5.46513e-01,-6.37181e-01,2.50814e-02,2.87267e-03,1.04225e-01,1.16552e-01,2.09886e-01,1.66966e-01,4.57760e-01,3.38915e-01,-8.78638e-02,-2.39480e-01,-1.15833e-01,2.37908e-02,1.09965e-01,1.14318e-01,1.02041e-01,-2.36135e-01,-4.68582e-01,-5.83029e-02,-1.80004e-01,-7.95969e-02,-7.87045e-02,1.29986e-01,4.41277e-01,5.21198e-02,-4.85146e-02,-1.98078e-01,-2.95202e-01,-5.43983e-01,-3.62509e-01,-2.12969e-01,2.20307e-01,2.14088e-01,3.44689e-01,5.13252e-01,3.94647e-01,1.62658e-01,-3.37871e-02,8.40790e-02,3.10421e-02,-1.53088e-01,-2.44886e-01,-1.27999e-01,-1.49555e-01,-6.69379e-01,-3.78004e-01,2.60044e-01,1.13293e-01,-3.26169e-01,4.10790e-03,1.94573e-01,3.44713e-01,1.73130e-02,-4.49242e-03,1.88441e-01,1.55272e-02,-5.65785e-01,-6.37474e-01,-3.23688e-01,2.11028e-02,1.02860e-01,3.58626e-01,4.31107e-01,2.96271e-01,7.07327e-02,5.79249e-02,-5.66423e-02,-2.29368e-01,-5.79077e-01,-5.23639e-01,-3.85698e-01,-3.46497e-01,-5.50922e-01,-4.90172e-01,-5.54542e-01,-2.63975e-01,-5.71355e-01,3.47236e-02,1.45463e-01,3.61454e-01,-1.10634e-01,-1.88375e-01,-6.22432e-02,-6.82044e-02,-4.68465e-01,-5.29918e-01,-2.44422e-01,-3.87821e-01,1.13095e-02,1.57691e-01,2.15423e-01,2.20447e-01,-1.32849e-02,-7.04450e-02,-3.63107e-01,-5.14585e-01,-7.18924e-01,-1.57026e-01,-3.90583e-02,-7.89913e-02,1.69287e-01,4.71997e-01,8.03577e-01,3.92306e-01,-6.18191e-01,3.34891e-02,1.76138e-01,1.96411e-01,-1.29607e-01,-2.80297e-01,-1.13937e-01,2.99203e-02,-2.07636e-01,-1.09191e-01,-1.84483e-01,-2.06077e-01,-4.18328e-02,-1.10845e-01,7.36989e-02,9.58730e-02,-2.94781e-02,-4.68467e-02,-2.62370e-01,-3.39024e-01,-5.47718e-01,-8.83875e-02,-2.92295e-01,-2.92416e-01,-8.81426e-02,3.15697e-01,7.85140e-01,5.75973e-01,-8.50728e-02,2.68244e-01,-4.13624e-01,5.32838e-02,-1.57038e-01,-2.80255e-01,-2.73953e-01,2.69585e-02,1.55672e-01,8.65920e-02,-2.10487e-02,-2.31028e-01,-2.89405e-01,-1.45557e-01,-2.15493e-01,-1.53240e-01,-3.01673e-02,-7.83834e-02,-1.54284e-01,-2.37604e-01,-5.25150e-01,-5.80480e-01,-7.11002e-01,-7.65853e-01,-6.36848e-01,-3.12257e-01,1.30140e-01,1.81513e-01,1.81044e-01,-1.29743e-02,8.30418e-02,1.19412e-01,-3.56941e-01,-1.35640e-01,-8.77088e-02,7.42242e-02,3.08434e-01,9.36859e-02,7.77730e-03,-6.31311e-02,8.38635e-03,-5.22672e-02,-2.74860e-01,-2.85327e-02,-1.62303e-02,-1.17070e-01,-7.56751e-03,-1.54430e-01,-2.36861e-01,-4.74662e-01,-4.92749e-01,-5.02611e-01,-7.30310e-01,-5.70895e-01,-2.23678e-01,1.45836e-01,9.77908e-02,9.75455e-02,6.31702e-02,4.41341e-02,3.35785e-01,5.54434e-02,-6.18640e-02,1.86601e-01,3.74270e-01,-1.86721e-03,4.80691e-02,7.37753e-02,-1.31575e-02,6.02451e-02,-4.06168e-02,-6.45202e-02,-6.07566e-03,7.67504e-03,-1.31629e-01,-1.13809e-01,-3.88404e-01,-4.76043e-01,-5.43562e-01,-5.93668e-01,-4.13389e-01,-3.56048e-01,2.24425e-01,9.68653e-02,-2.54544e-02,9.31531e-02,7.74860e-02,-2.61081e-01,2.87665e-01,1.45957e-01,1.68812e-01,2.41906e-01,6.85378e-02,-7.44066e-03,-3.03624e-02,-4.20795e-02,-2.02721e-02,-8.36209e-02,7.31095e-02,1.78206e-02,-2.12476e-02,-7.87460e-02,-8.99261e-03,5.34799e-02,5.81929e-02,-3.96888e-01,-6.54575e-01,-5.39221e-01,-5.21215e-02,4.19986e-01,2.77906e-01,7.27590e-02,-4.60518e-02,-2.17091e-02,-1.02234e-02,-1.07041e-01,-3.64085e-01,3.55745e-01,2.63414e-01,-1.13473e-01,1.75037e-02,5.02347e-02,-1.33672e-02,-9.43487e-02,1.60152e-02,2.38378e-01,2.21110e-01,8.09107e-02,-8.24646e-02,-1.58018e-01,6.00626e-02,1.19199e-02,-2.88510e-01,-3.73901e-01,-3.60573e-01,-1.62762e-01,-1.37692e-01,2.68555e-01,1.78844e-01,2.75187e-01,-8.20629e-03,2.54620e-02,-1.18147e-03,4.10447e-02,-6.24360e-02,1.37129e-01,1.49276e-01,-2.17337e-01,5.51513e-02,-3.35739e-02,-1.85149e-01,-6.09001e-02,1.64295e-01,1.79439e-01,4.30735e-02,-6.70209e-02,3.82736e-04,-4.36065e-01,-4.98284e-01,-1.73163e-01,-1.57989e-01,8.24274e-02,2.26546e-01,1.46421e-01,2.32498e-02,-1.95938e-01,-1.84465e-01,3.74073e-02,3.34368e-02,-2.91306e-02,-2.82571e-02,1.91969e-02,7.06457e-02,-2.12524e-01,-7.60415e-02,-2.11462e-01,-4.92521e-02,-1.24680e-01,-3.80643e-01,-3.58540e-01,-1.52660e-01,-3.44825e-02,-3.22391e-01,-1.20761e-01,-3.21718e-01,-1.58851e-01,2.55255e-01,1.20355e-01,-9.98647e-02,-1.76629e-02,1.44447e-01,1.04735e-01,1.28544e-01,-8.70376e-02,2.93902e-01,1.81435e-02,-1.51569e-02,-7.75973e-03,1.24455e-02,8.15358e-03,3.32233e-01,4.45437e-01,2.86096e-01,1.48509e-01,2.69196e-01,-6.60640e-03,9.96863e-02,2.82980e-01,3.29504e-01,1.18533e-01,2.09382e-02,2.83259e-01,-8.96631e-03,4.19031e-01,7.26066e-01,6.70656e-01,1.48315e-01,-1.15578e-01,3.68603e-01,3.41931e-01,2.50619e-01,1.05125e-01,-8.00127e-03,-1.27546e-02,-3.31895e-02,-8.16444e-03,-1.01229e-02,9.49149e-03,-1.25794e-02,-4.38599e-02,-5.11853e-02,1.42410e-02,8.52097e-02,1.34857e-01,2.44121e-01,8.15403e-02,4.79358e-01,4.58180e-01,1.86672e-01,4.09354e-01,1.53219e-01,1.17132e-01,5.03660e-01,5.19955e-01,2.66549e-01,-1.73783e-02,1.96507e-02,-2.15270e-04,6.54789e-03,3.37018e-02,-2.60027e-02,-3.03359e-03,1.09564e-02,
-4.59128e-03,3.27700e-02,-6.21849e-03,1.94200e-02,1.75569e-02,3.33217e-02,1.30102e-02,-2.19986e-03,1.47224e-02,2.88311e-02,2.26176e-02,-2.15666e-02,1.98252e-01,1.18355e-01,-1.09154e-02,-2.60796e-02,-4.29161e-03,-1.68231e-02,1.74594e-02,1.36006e-02,-1.92238e-03,1.37786e-02,-2.44737e-03,-3.56905e-02,1.04626e-02,-7.17513e-03,1.92103e-02,-3.09108e-02,-3.25789e-02,3.36961e-03,-3.86977e-03,-2.15853e-02,2.73550e-02,4.76616e-02,1.92820e-01,2.02597e-01,6.56904e-02,1.47430e-01,3.60811e-01,3.91789e-01,6.44708e-01,4.99061e-01,2.03799e-01,2.43131e-01,2.54634e-02,8.31484e-02,1.24623e-01,1.17405e-01,9.72850e-02,1.54353e-01,1.60451e-01,1.27701e-01,-5.11131e-03,2.74371e-02,6.34557e-03,-2.54674e-02,-9.28046e-03,2.47355e-02,2.96302e-02,-1.50435e-04,5.53674e-02,7.93416e-02,2.63732e-01,5.58958e-01,3.47376e-01,3.16371e-01,2.97640e-01,3.57049e-01,5.10632e-01,2.65953e-01,2.90351e-01,4.87400e-01,1.77381e-01,-2.74577e-01,-4.59141e-01,-2.09415e-01,3.11168e-01,1.20464e-01,1.13072e-01,1.11468e-01,4.08220e-03,2.09751e-02,-4.27523e-03,1.74347e-02,2.61473e-02,-2.09330e-02,-2.79279e-03,2.06437e-02,1.72711e-01,9.62400e-02,2.05399e-01,4.68920e-01,4.52273e-01,2.77125e-01,2.83290e-01,4.72117e-01,3.87635e-01,-1.19994e-01,-1.62042e-01,-1.79721e-01,-2.03840e-01,-3.36858e-01,-5.40927e-01,-4.85905e-01,-2.07385e-01,-2.04282e-01,-2.72655e-01,-3.21789e-01,3.30928e-02,-2.71346e-02,-2.61645e-02,1.11418e-02,-2.94314e-02,-8.40735e-03,-1.76149e-02,-5.61749e-02,5.21880e-01,1.73520e-01,6.38997e-02,-9.46388e-03,-1.59540e-01,-5.82020e-02,2.12177e-01,2.41400e-02,1.32161e-01,2.23009e-01,-1.93521e-01,-5.06456e-01,-3.23251e-01,-2.43402e-01,-1.37784e-01,-1.38339e-02,-1.96963e-01,-4.51190e-01,-3.67780e-01,-1.37815e-01,1.15491e-01,-2.64434e-02,4.52269e-02,-2.42434e-01,-1.12534e-02,3.39328e-02,1.56784e-03,4.89522e-01,3.60913e-01,1.70786e-01,1.71737e-01,-3.84597e-02,-1.96408e-01,3.21380e-02,1.13639e-01,8.58229e-02,1.85484e-01,-7.76585e-02,-5.72616e-01,-1.22104e+00,-5.91096e-01,2.87453e-01,3.02459e-01,3.93241e-01,4.31351e-01,-2.03879e-01,-2.03539e-01,6.99696e-02,1.76086e-01,6.89934e-02,-4.36840e-01,1.24690e-02,-1.04976e-02,2.69707e-02,1.19278e-02,-4.24091e-02,-1.85221e-01,1.66013e-02,2.19584e-01,-2.11370e-01,1.17507e-01,3.95907e-01,-2.07751e-01,9.52431e-02,1.49852e-01,-1.98505e-01,-6.55634e-01,-1.17090e+00,-7.86975e-01,5.81399e-02,2.14229e-01,1.48856e-01,-3.59321e-02,-1.46700e-01,-5.10421e-02,2.92263e-01,-5.63073e-02,-6.43820e-02,3.76465e-02,-2.84554e-02,2.68438e-02,-8.16911e-03,-6.21000e-02,-1.09454e-02,-4.22827e-02,1.38705e-01,-2.81982e-01,-3.92677e-01,1.50099e-01,6.42418e-02,2.44376e-01,3.41019e-01,2.10545e-01,-3.39567e-01,-9.89117e-01,-9.34679e-01,-7.13323e-01,5.25539e-02,1.95065e-01,5.43521e-03,-1.18276e-01,-6.64791e-02,2.58819e-01,1.89832e-02,-1.92804e-02,-2.02612e-01,3.36575e-01,-2.12782e-01,1.17216e-02,-1.44063e-02,2.85878e-01,1.53976e-01,1.06773e-01,-1.30391e-01,-3.67416e-01,-4.25045e-02,-9.75567e-02,3.29315e-01,1.81779e-01,2.04975e-01,7.69000e-02,-3.68789e-01,-5.80772e-01,-8.10930e-01,-2.61622e-01,2.16062e-01,4.47018e-02,-2.49722e-01,1.23996e-01,1.67950e-01,1.29243e-01,9.36718e-02,4.27197e-02,4.23748e-02,-5.03020e-01,-3.01403e-01,-2.22367e-02,-1.20363e-02,3.94490e-01,2.38645e-01,-1.40462e-01,-5.09160e-02,-2.90075e-01,-2.53585e-01,2.55748e-02,1.87784e-01,6.77646e-02,1.74928e-01,2.98292e-01,-2.35107e-01,-3.93462e-01,-4.35459e-01,2.21859e-01,1.21570e-01,-4.58955e-02,-1.09317e-01,3.16934e-01,1.93006e-01,4.47795e-02,-5.18602e-02,7.43429e-02,3.22769e-01,-5.50326e-01,-4.46532e-01,-5.52148e-03,-1.67076e-02,2.29813e-01,1.70500e-01,-1.78607e-01,1.20764e-01,-5.30678e-01,-1.51188e-01,-2.34919e-02,-3.15811e-02,1.97468e-02,2.39416e-01,2.95049e-01,-4.01288e-01,-7.35567e-01,-6.52095e-02,-6.04994e-02,9.64424e-02,-2.09101e-02,7.43880e-02,5.73462e-02,9.60844e-02,-1.24215e-01,-3.84070e-01,-5.32808e-02,2.70937e-01,-3.00428e-01,-9.19775e-02,5.57581e-03,1.98009e-01,-1.99086e-01,-1.42664e-01,-1.09718e-01,1.45962e-01,-1.66905e-01,-2.06870e-01,-7.25536e-02,7.97893e-02,1.53011e-01,1.07413e-01,-1.34855e-01,-5.15657e-01,-2.78011e-01,-2.28661e-01,-9.83142e-02,-5.31949e-03,5.31863e-02,2.65520e-02,3.93566e-02,1.68282e-02,-4.62161e-02,-3.97006e-01,-5.03931e-01,-1.23809e-01,-6.69600e-02,2.60538e-02,3.51252e-02,8.83285e-02,2.65161e-02,-3.52312e-02,1.49502e-03,-2.01520e-02,-6.06063e-02,-1.06718e-01,-1.11493e-01,-5.04269e-03,1.00507e-01,1.48002e-01,1.84885e-01,1.94983e-01,-1.84654e-02,4.50884e-03,-4.24392e-02,2.15557e-02,8.89587e-02,2.17323e-02,6.12865e-02,-2.16519e-02,1.67497e-01,-3.30133e-01,-2.30743e-01,-4.20881e-01,-7.68089e-01,-1.03653e-01,8.88810e-03,9.29503e-02,2.34413e-01,-3.18181e-03,1.54147e-01,1.40507e-01,4.28872e-02,4.27577e-02,1.11240e-01,-6.28905e-02,1.95754e-01,2.54192e-01,3.88929e-02,-8.13054e-02,-1.52162e-01,-3.97534e-02,-2.54687e-01,8.03253e-02,1.60767e-01,-1.00067e-02,-3.81547e-02,1.03668e-01,2.97366e-01,-1.31445e-01,-1.20588e-01,-7.67675e-01,-7.88700e-01,6.38417e-02,8.07286e-03,7.22818e-02,1.41068e-01,1.65476e-01,-4.83900e-02,3.72771e-01,-1.84786e-02,6.97124e-02,8.04648e-02,1.12226e-01,1.79920e-01,1.58430e-01,-6.35168e-02,-2.86170e-01,-7.76432e-02,-3.07491e-03,-6.08591e-02,2.27930e-01,1.19403e-01,3.26921e-01,7.94045e-02,3.05482e-01,3.26444e-01,-2.49580e-01,-2.30142e-01,-4.04050e-01,-2.50129e-01,-3.78874e-02,-3.51597e-02,9.34310e-02,3.51514e-01,4.82884e-01,8.98263e-02,1.06130e-02,-8.09895e-02,5.93535e-02,1.91225e-01,1.56860e-01,3.45675e-01,3.37112e-01,1.31754e-02,-1.89514e-02,2.15769e-02,-7.12652e-02,-9.80146e-02,8.44891e-02,5.06483e-02,2.78778e-01,1.15195e-01,1.87950e-02,1.52350e-01,-2.75374e-01,-6.14441e-01,-2.47478e-01,-3.37171e-01,-5.48222e-02,9.28474e-03,-6.15151e-03,3.90197e-01,4.67593e-01,-7.89348e-02,-1.87433e-01,3.11103e-02,-9.88266e-02,4.99500e-02,1.23141e-01,9.51868e-02,5.01230e-02,-3.28188e-02,5.41659e-03,1.95200e-01,3.03179e-02,-6.06155e-02,6.36141e-03,2.30110e-02,5.86161e-02,8.62816e-03,5.05309e-02,-1.70666e-01,-3.70000e-01,-4.25035e-01,-8.98116e-03,-4.85490e-01,-5.28163e-01,-3.03609e-02,-3.03156e-02,4.02657e-01,4.12074e-01,2.40927e-01,-9.79930e-02,4.93468e-02,-1.94207e-01,-3.16259e-01,-1.77794e-01,-6.87246e-02,-5.10571e-02,-7.93632e-02,1.07246e-01,2.09263e-01,-1.03635e-01,3.38139e-02,-1.39484e-01,6.38689e-02,-8.51123e-02,-9.68838e-02,2.29501e-02,-6.86879e-03,-2.03094e-01,-3.03024e-01,1.99839e-01,-1.02697e-01,-5.68762e-01,-5.11833e-02,-1.04035e-02,3.19581e-01,4.44647e-01,4.93193e-01,2.18560e-02,-1.49396e-01,-1.51133e-01,-1.19456e-01,-1.01274e-01,-1.41983e-01,-1.42193e-01,1.21890e-01,2.71804e-01,1.42802e-01,-8.62403e-02,-9.46894e-02,-1.17032e-01,-2.88145e-02,-2.02615e-01,-8.55146e-02,6.62997e-02,1.60131e-01,1.95899e-01,1.26583e-02,3.47565e-01,-5.35477e-02,-2.32899e-02,-3.01714e-02,-1.87983e-02,2.19644e-02,2.96986e-01,3.84307e-01,9.26279e-02,-3.15356e-02,-5.58567e-01,-2.94787e-01,-9.46595e-02,-1.91488e-01,1.91771e-02,-8.76288e-03,1.96396e-01,1.55841e-01,9.19387e-02,-7.83156e-02,-1.27091e-01,-1.79627e-02,-1.01303e-01,6.73198e-02,2.38430e-01,2.19475e-01,1.61126e-01,1.40664e-01,-2.02212e-02,-2.00990e-01,-3.67243e-02,-1.19082e-02,2.11291e-02,-2.55565e-01,-1.89771e-01,-1.27596e-01,1.50318e-01,-1.88802e-01,-5.56130e-01,-6.48394e-01,-4.51782e-01,-2.53148e-01,-1.27215e-01,5.05653e-02,1.77165e-01,7.22434e-02,1.64390e-01,5.60593e-02,-2.59580e-02,7.31361e-02,1.59082e-03,1.86855e-01,2.23474e-01,1.09852e-01,2.19900e-02,2.69590e-01,-5.36825e-01,-4.29137e-02,6.99713e-03,1.64063e-02,1.70767e-02,-2.18307e-01,-3.80103e-01,-2.10617e-01,-1.41345e-01,-1.02527e-01,-4.13443e-01,-3.32490e-01,-2.27979e-01,-8.64166e-02,-1.93703e-01,-3.10806e-01,6.57260e-02,1.11865e-01,-1.75073e-02,9.82222e-02,-2.21758e-02,-3.97601e-02,4.00248e-02,1.88852e-01,-8.99110e-02,-5.44127e-02,1.71977e-01,1.93642e-01,-3.31387e-01,-2.33888e-02,1.31162e-02,-1.52512e-02,3.17657e-03,-3.66011e-02,-2.61068e-01,-3.77064e-01,1.95456e-02,-5.99986e-02,-2.40945e-01,-4.12787e-01,-1.45762e-01,1.22538e-01,-5.55887e-02,-2.40809e-01,3.18188e-03,-1.29895e-01,6.59615e-02,1.10239e-02,-7.01189e-02,-8.71908e-03,-2.47223e-02,-1.07767e-01,-3.27656e-02,-1.40804e-01,1.99301e-02,1.15628e-01,-5.04938e-03,1.49761e-01,3.16017e-02,-9.46794e-03,-2.78499e-02,1.45830e-02,-8.49824e-02,-2.08798e-01,1.85157e-02,-8.65190e-03,-1.69458e-01,-2.96172e-01,-2.02782e-01,1.31713e-01,-2.07846e-01,-1.61110e-01,2.14006e-02,1.05208e-02,-2.87286e-02,-5.42173e-02,-4.06926e-02,2.94124e-03,-1.41008e-01,-4.34548e-01,2.57826e-02,-2.09689e-02,1.47549e-01,2.92100e-01,1.68697e-01,1.69188e-01,-7.57433e-03,-3.15138e-02,-6.09442e-03,-1.25754e-02,-9.59008e-03,-9.93607e-02,-7.64999e-02,1.05295e-01,-2.22809e-01,-3.16964e-01,-6.07612e-02,5.65036e-02,-5.22555e-03,-3.72433e-02,2.78631e-01,3.29508e-01,-4.57852e-02,2.12949e-01,2.07928e-01,7.49324e-02,-5.21093e-02,-1.10653e-01,-3.34415e-02,1.91337e-01,1.22283e-01,-2.40268e-01,3.19759e-01,1.92594e-02,-3.29008e-02,1.50932e-02,3.23497e-02,-2.69808e-02,2.81271e-03,-1.90963e-01,-2.44413e-01,-1.15248e-01,-4.06541e-01,-1.99652e-01,-1.02290e-01,-1.92088e-01,-1.33308e-01,-1.03227e-01,-4.03361e-02,1.24636e-02,1.03340e-01,2.43386e-01,-1.37162e-01,-3.63842e-02,-2.11623e-01,-2.79617e-01,-2.55726e-01,-2.12641e-01,1.46647e-02,-5.06059e-01,7.43694e-03,-4.17961e-02,-2.37053e-02,3.32450e-02,1.96878e-02,2.95047e-02,3.01555e-02,-1.16778e-02,-1.55345e-01,-9.99113e-02,-2.66214e-01,-4.09995e-01,-3.26114e-01,-2.21639e-01,-3.97677e-01,-4.15911e-01,-4.47334e-01,-4.97066e-01,-1.65827e-01,7.50715e-02,1.31064e-02,-4.85388e-01,-6.58379e-01,-5.56574e-01,-1.25331e-01,-1.55243e-01,-1.56575e-01,1.55054e-01,2.09729e-02,-1.15146e-02,-2.36635e-02,-4.13983e-03,-7.95097e-03,2.37820e-02,6.00556e-03,2.57749e-02,-1.48279e-02,-1.98623e-01,-2.58076e-01,-2.44319e-01,-1.07281e-01,-3.86475e-01,-4.17802e-01,-2.04833e-01,-2.44181e-01,-4.09072e-01,-2.47398e-01,-2.34331e-01,1.78618e-01,2.99889e-01,-2.70004e-02,-2.23013e-01,-1.00258e-01,9.59498e-02,8.06473e-03,1.00819e-02,2.36337e-02,-6.15939e-03,3.25502e-02,
-1.88478e-02,2.93565e-02,3.05421e-02,2.31597e-02,2.70709e-02,1.24228e-02,1.42119e-02,2.58012e-02,3.14787e-02,2.47757e-02,6.34059e-03,3.25742e-02,3.46946e-04,2.47046e-02,1.29514e-02,-1.47995e-02,1.15231e-02,-3.18826e-02,-1.65917e-02,2.00986e-02,1.99358e-02,-3.24348e-02,-1.13754e-02,-9.99191e-04,2.30914e-03,-1.52504e-03,-1.43490e-02,3.08046e-02,1.39408e-02,1.22309e-02,-3.30276e-02,-1.94899e-03,8.31998e-03,1.03388e-02,-7.79636e-03,9.47608e-03,-3.31763e-02,-2.73362e-02,-3.05139e-02,-1.22819e-03,3.31113e-02,-1.97091e-02,1.38587e-02,2.19804e-02,-2.95707e-02,-3.24340e-02,-1.01543e-02,2.01879e-02,-1.80039e-02,-2.65155e-02,-2.89785e-02,4.83879e-03,3.19602e-02,-2.22573e-02,-2.61875e-02,-8.96193e-03,-2.26045e-02,-1.40951e-02,-2.56649e-03,-2.58498e-02,3.99041e-03,-1.01571e-02,8.45239e-03,-2.50885e-02,-8.11651e-03,-1.85034e-02,2.03077e-02,-3.55345e-02,2.61471e-02,5.12878e-03,3.07650e-02,2.10882e-02,-3.27376e-02,-3.68887e-03,-5.00257e-03,1.21490e-02,1.85544e-02,8.35901e-03,3.06029e-02,-2.04250e-02,1.11130e-02,2.03982e-02,-4.66839e-03,-1.28752e-03,4.86138e-03,-1.45146e-02,8.34402e-03,-2.10814e-02,5.05971e-03,-3.42067e-02,2.01654e-03,2.68550e-02,3.45658e-02,-3.43372e-02,3.64275e-03,2.29019e-02,-3.21139e-02,1.04693e-02,-3.10304e-02,-2.10057e-02,3.42403e-02,-8.11782e-03,4.57559e-03,-8.72593e-03,-2.61624e-02,1.80055e-02,-2.40588e-02,-2.64792e-02,5.21645e-03,-3.39719e-02,1.69192e-02,1.60582e-02,1.96471e-02,2.88598e-02,-1.75994e-02,-1.27421e-02,3.32234e-02,-2.38764e-02,-2.78877e-02,2.17610e-02,-1.50192e-02,-1.79411e-02,-2.52304e-02,-3.69030e-02,1.99330e-02,1.84171e-02,4.78083e-03,2.29452e-02,-1.92147e-02,-1.76154e-03,-2.03257e-02,-8.42811e-04,5.78719e-03,-9.11741e-03,-2.54535e-02,-2.82020e-03,-1.56274e-02,2.74961e-02,-1.10321e-02,2.15993e-02,3.36715e-02,-2.38894e-02,-1.45743e-03,-2.41034e-02,2.90722e-02,-3.45129e-02,8.88931e-04,-7.45557e-03,-2.48490e-02,-1.06703e-03,2.20255e-02,7.22688e-03,-4.06217e-02,-5.67775e-03,-2.78001e-02,-9.64219e-03,-3.55807e-02,9.14175e-03,-3.62949e-02,1.39723e-03,-8.37132e-03,1.95926e-04,-1.76520e-02,1.74363e-02,2.54983e-02,1.19487e-02,9.21107e-03,2.86686e-02,-5.97018e-03,-1.79444e-02,1.87565e-02,5.18159e-03,-3.33350e-02,-2.77346e-02,-3.57981e-02,2.90089e-02,1.80346e-02,2.43192e-02,2.71730e-02,-3.60702e-02,1.48715e-03,-2.01856e-02,1.78545e-02,-1.67407e-02,-1.60010e-02,-3.86095e-02,5.42318e-03,1.03246e-02,2.88120e-02,4.68338e-03,4.55607e-03,-3.04832e-02,-1.28335e-02,3.27540e-02,-1.49634e-02,3.14205e-02,-1.20089e-02,1.66536e-02,8.37675e-03,-2.54653e-02,-3.04422e-02,2.80438e-02,-1.07131e-02,-2.20555e-02,2.24400e-02,2.54772e-02,-4.17238e-02,-1.87881e-02,-3.03170e-02,-2.57838e-02,-1.30960e-03,-2.48862e-02,-2.90643e-02,1.52285e-02,7.51183e-03,1.61552e-02,-3.98703e-02,-3.15943e-02,2.92076e-03,-3.17600e-02,2.28965e-03,-3.18460e-02,-9.70235e-03,3.03139e-02,7.34955e-04,7.35349e-03,6.81916e-03,1.96449e-02,-2.39587e-03,-4.05503e-02,-2.16977e-02,1.13295e-02,-1.43013e-02,-1.09006e-02,-3.38585e-02,-6.43687e-03,-3.67678e-02,1.61341e-02,2.17230e-02,-8.44888e-03,-2.23470e-02,-3.41913e-02,4.55036e-03,-3.69916e-03,6.31786e-03,-8.23435e-03,-3.18786e-02,-3.05700e-02,2.22076e-02,2.77134e-02,2.50627e-02,-2.11227e-02,3.55233e-02,-8.68856e-03,-1.53348e-02,-1.43021e-02,-7.63637e-03,2.02298e-02,1.94690e-02,2.25598e-02,8.61190e-03,-8.03176e-03,-4.71893e-03,1.13041e-02,5.69700e-04,-1.88911e-02,-5.16836e-03,1.37805e-03,4.58777e-03,8.46634e-03,-2.34044e-02,-3.75222e-02,-1.40326e-02,-2.92198e-02,-2.79507e-04,-7.53617e-03,-3.17062e-03,-3.45291e-02,-3.10600e-02,3.52430e-02,2.66255e-02,6.54185e-03,9.55023e-03,-1.12717e-02,5.02625e-03,-3.61711e-02,1.36196e-02,-3.34331e-02,-3.72574e-02,1.58625e-02,2.52555e-02,-3.85040e-03,-3.31712e-03,1.06031e-02,-1.56815e-02,1.51911e-03,-7.42018e-03,-7.37054e-03,-3.15352e-02,-3.32944e-02,9.93211e-03,-4.21103e-02,2.19489e-02,-2.39991e-02,2.08940e-02,-1.07352e-02,-8.59434e-03,-1.47160e-02,-1.81880e-02,3.09570e-02,-2.74779e-02,2.31410e-02,-1.41208e-02,-7.54014e-03,1.61674e-03,2.38276e-02,-1.71612e-02,2.39149e-03,8.86218e-03,1.87524e-02,4.14717e-03,-1.38521e-02,2.03511e-02,-3.46226e-02,-2.50811e-02,-3.48665e-02,3.34075e-03,-7.52318e-03,-2.65862e-02,1.07975e-02,1.20764e-02,-2.72570e-02,-5.21340e-03,-2.29878e-02,2.29651e-02,3.47791e-02,1.17853e-02,1.18877e-03,-6.27174e-03,-2.81474e-03,-1.01601e-02,2.27761e-02,-4.36627e-03,5.71711e-03,-6.28049e-03,-1.75305e-04,-1.05168e-02,1.34775e-02,-1.92005e-02,2.15791e-02,-2.82996e-02,-9.97743e-03,-3.23581e-02,1.76014e-02,-1.63287e-02,1.40926e-03,1.36802e-02,-2.53870e-02,-1.11533e-02,2.23759e-02,-7.99950e-03,1.84100e-02,-1.39103e-02,-4.04496e-03,2.89231e-02,-8.45096e-03,7.71332e-03,-1.41164e-02,2.08143e-02,-2.35213e-02,1.17371e-03,-1.31626e-02,-2.80051e-02,-1.38047e-03,-2.96571e-02,-1.61218e-02,-1.36914e-02,7.67238e-03,-3.93964e-02,-5.50846e-03,2.34811e-02,8.23254e-03,3.61799e-03,2.46808e-02,2.43015e-02,-2.30237e-02,-3.32159e-02,-2.43121e-02,-7.59866e-03,-1.36709e-02,-9.76261e-03,2.26752e-02,-1.50627e-02,-2.24869e-02,-3.32709e-02,-3.30875e-02,-3.75200e-02,9.83030e-03,2.33957e-02,6.03126e-03,-3.09563e-02,-4.61240e-04,2.33976e-02,1.93478e-02,6.62075e-03,-3.57563e-02,1.64946e-02,-3.94001e-02,-3.05744e-02,-2.72189e-02,4.05786e-03,1.26947e-02,-8.86995e-03,-1.73009e-03,-2.43581e-03,-5.01550e-03,2.31481e-02,8.46391e-03,1.31281e-02,-6.55023e-03,1.58345e-02,-2.74490e-02,-1.76936e-02,1.21481e-02,-1.06562e-02,2.78634e-02,1.12592e-02,7.97691e-03,1.41327e-02,-3.36165e-02,-2.83613e-02,2.39544e-02,-4.81007e-03,1.07783e-02,-2.07058e-02,-3.54259e-02,-2.30386e-02,-8.66840e-03,-2.81664e-02,-2.01090e-02,-1.94770e-02,-1.88641e-02,-1.00054e-02,-6.13861e-03,-2.56417e-03,2.76609e-02,1.24393e-02,3.36944e-02,-3.21605e-02,-1.61478e-02,-1.42876e-02,2.72178e-02,-9.39773e-03,1.83842e-02,1.40796e-03,-1.61983e-02,-1.97418e-02,-3.48897e-04,-3.62942e-02,1.43680e-02,2.82498e-02,1.11624e-02,-3.83021e-02,-2.77023e-02,-3.95844e-02,-9.30633e-03,-2.16733e-02,-1.60420e-03,-3.17189e-02,-7.79035e-03,2.23115e-02,2.03399e-02,-2.47571e-02,-1.09860e-02,3.11998e-02,-6.31260e-03,1.17122e-02,-3.04275e-02,-1.78051e-03,-1.33759e-02,3.36003e-02,2.52916e-02,1.58999e-02,7.78744e-03,1.04661e-02,2.85117e-03,-3.97718e-02,1.99997e-02,2.45686e-02,-1.81014e-02,-2.81007e-02,-1.55782e-02,2.87844e-02,-1.99946e-02,-2.18055e-02,-1.66828e-02,-8.66592e-04,-4.26582e-02,-3.56329e-02,-3.33607e-02,-1.63407e-02,9.46742e-03,-2.08887e-02,-3.41401e-03,-2.81282e-02,2.53857e-03,2.35320e-02,-5.67535e-03,-5.38213e-03,6.37856e-03,-3.29360e-02,-2.28567e-03,1.31447e-02,-3.34770e-02,3.83876e-03,2.18218e-02,-9.25478e-03,-2.91003e-02,-1.22253e-02,1.31994e-02,-6.86244e-03,1.07737e-02,-9.21121e-05,-3.83690e-02,-4.07138e-02,1.63833e-02,-1.70173e-02,-3.75122e-02,2.58271e-02,1.22769e-02,1.79961e-02,-1.04263e-02,1.24180e-02,-3.31918e-02,2.57392e-02,1.75514e-03,2.59513e-02,-1.39439e-02,-3.82299e-02,-1.53187e-02,2.31680e-02,1.90580e-02,-1.99481e-02,-1.36092e-02,-1.12417e-02,-5.75632e-03,-3.16392e-02,1.67820e-02,1.87926e-02,1.65690e-02,-5.60925e-03,-6.01653e-03,2.28808e-02,1.31128e-02,-1.92154e-02,-5.90208e-03,-3.59083e-02,2.83045e-02,-4.75586e-03,-3.29052e-02,-3.47420e-02,-7.20357e-03,2.00599e-02,-9.96259e-03,2.93950e-02,3.34626e-03,-1.40122e-02,2.78329e-02,2.64352e-02,-3.15693e-02,-8.43496e-03,-3.87879e-02,-7.45950e-03,-1.05424e-02,-2.92374e-02,2.74002e-02,-1.65733e-02,-1.32363e-02,-2.73403e-03,-3.44319e-02,-2.96158e-02,-1.03872e-02,-2.38609e-02,4.97249e-03,-3.57081e-03,5.18003e-04,2.76430e-02,3.26405e-02,1.15975e-02,3.38828e-02,-9.79241e-03,6.35925e-03,-1.08279e-02,-2.27643e-02,-3.90747e-04,1.78844e-02,-5.63138e-03,-1.73215e-02,-1.68223e-02,-1.24796e-02,3.48720e-03,-3.03663e-02,-4.06374e-02,-2.82475e-02,-3.16558e-02,-1.40471e-02,-3.79558e-02,-3.21297e-02,-4.16276e-03,-1.54476e-02,2.55294e-02,-1.11681e-02,2.83964e-02,-2.65405e-02,-3.02019e-02,1.29252e-02,-2.20947e-02,3.37103e-02,-1.11420e-02,1.25618e-03,1.57495e-02,2.37473e-02,1.60686e-02,-2.47327e-02,-2.17894e-02,-1.25498e-02,-3.74481e-03,2.34921e-02,2.76593e-02,-3.49910e-02,-1.78694e-02,-1.00983e-02,1.98130e-02,1.09011e-02,-1.84990e-02,-1.00040e-03,-3.29937e-02,-3.27821e-02,-1.54132e-02,-3.98440e-03,9.89514e-04,1.39789e-02,-5.27676e-03,-2.85389e-03,2.36643e-02,2.71289e-02,-3.09437e-02,2.81918e-03,3.47637e-02,-2.11524e-02,2.68809e-03,1.72590e-02,-3.44099e-02,-3.56449e-02,-7.95324e-03,-9.53644e-03,9.13458e-03,-1.10396e-03,-3.99457e-02,2.92337e-02,2.89652e-02,-2.16995e-02,3.08373e-03,1.22061e-02,-9.87573e-03,1.03989e-02,-3.10452e-02,6.18052e-03,3.18500e-02,3.33420e-02,6.04450e-03,-1.89213e-02,-2.28944e-02,-1.50423e-02,-1.82895e-02,-3.36627e-02,3.08620e-02,-5.20204e-04,1.34980e-02,-1.11208e-02,1.38156e-02,-2.64560e-02,-1.32743e-02,-3.47612e-02,-1.35334e-02,2.50525e-02,1.06107e-02,1.37295e-03,-3.80243e-02,6.49514e-03,3.47242e-02,-3.57395e-02,7.24919e-03,-3.78340e-02,1.78596e-02,1.83560e-03,1.78228e-02,4.37142e-03,1.80731e-02,1.29791e-02,-3.23000e-03,1.19688e-02,1.41166e-02,7.80629e-03,-1.43667e-02,-1.73005e-02,-2.71256e-02,2.42643e-02,3.30226e-02,-3.49185e-02,2.54237e-02,9.29574e-03,-4.43960e-03,-3.49431e-02,7.70174e-03,-3.04381e-02,1.43193e-02,6.19060e-03,6.74122e-03,2.68407e-02,-1.77288e-02,3.57097e-02,-1.48258e-02,-2.08866e-02,2.39235e-02,-3.83575e-03,-3.54222e-02,7.40944e-03,2.90823e-02,-3.03150e-02,5.93445e-03,-5.58969e-03,-2.04637e-02,2.16603e-02,1.21575e-02,1.10976e-02,-2.22929e-02,-3.43768e-02,-2.38295e-02,-8.58473e-04,1.65491e-02,-1.82883e-02,-6.60300e-03,3.15531e-02,-2.06675e-02,1.38026e-03,-2.74267e-02,2.44787e-02,3.02001e-02,-1.30847e-02,-1.14547e-02,3.15067e-02,-2.86171e-02,3.69791e-03,-2.09907e-02,-1.21643e-03,9.13190e-03,-7.62816e-04,-9.62332e-03,-7.59044e-03,2.08974e-02,3.42587e-02,8.11202e-03,6.32187e-03,2.95681e-02,-1.48667e-02,3.25053e-02,1.90858e-02,2.96657e-02,3.01989e-03,3.05698e-02,3.37635e-02,-3.29618e-02,1.79463e-02,-2.14302e-02,-2.29904e-02,-1.78081e-02,2.30272e-02,-3.00032e-02,3.29831e-02,-5.38424e-03,-1.21332e-02,-1.67190e-02,3.16062e-02,
