// Neural Network File Format by Kyle Julian, Stanford 2016
21,784,10,784,
784,80,80,80,80,80,80,80,80,80,80,80,80,80,80,80,80,80,80,80,80,10,
0,
-3.4028235e+38,-3.4028235e+38,-3.4028235e+38,-3.4028235e+38,-3.4028235e+38,-3.4028235e+38,-3.4028235e+38,-3.4028235e+38,-3.4028235e+38,-3.4028235e+38,-3.4028235e+38,-3.4028235e+38,-3.4028235e+38,-3.4028235e+38,-3.4028235e+38,-3.4028235e+38,-3.4028235e+38,-3.4028235e+38,-3.4028235e+38,-3.4028235e+38,-3.4028235e+38,-3.4028235e+38,-3.4028235e+38,-3.4028235e+38,-3.4028235e+38,-3.4028235e+38,-3.4028235e+38,-3.4028235e+38,-3.4028235e+38,-3.4028235e+38,-3.4028235e+38,-3.4028235e+38,-3.4028235e+38,-3.4028235e+38,-3.4028235e+38,-3.4028235e+38,-3.4028235e+38,-3.4028235e+38,-3.4028235e+38,-3.4028235e+38,-3.4028235e+38,-3.4028235e+38,-3.4028235e+38,-3.4028235e+38,-3.4028235e+38,-3.4028235e+38,-3.4028235e+38,-3.4028235e+38,-3.4028235e+38,-3.4028235e+38,-3.4028235e+38,-3.4028235e+38,-3.4028235e+38,-3.4028235e+38,-3.4028235e+38,-3.4028235e+38,-3.4028235e+38,-3.4028235e+38,-3.4028235e+38,-3.4028235e+38,-3.4028235e+38,-3.4028235e+38,-3.4028235e+38,-3.4028235e+38,-3.4028235e+38,-3.4028235e+38,-3.4028235e+38,-3.4028235e+38,-3.4028235e+38,-3.4028235e+38,-3.4028235e+38,-3.4028235e+38,-3.4028235e+38,-3.4028235e+38,-3.4028235e+38,-3.4028235e+38,-3.4028235e+38,-3.4028235e+38,-3.4028235e+38,-3.4028235e+38,-3.4028235e+38,-3.4028235e+38,-3.4028235e+38,-3.4028235e+38,-3.4028235e+38,-3.4028235e+38,-3.4028235e+38,-3.4028235e+38,-3.4028235e+38,-3.4028235e+38,-3.4028235e+38,-3.4028235e+38,-3.4028235e+38,-3.4028235e+38,-3.4028235e+38,-3.4028235e+38,-3.4028235e+38,-3.4028235e+38,-3.4028235e+38,-3.4028235e+38,-3.4028235e+38,-3.4028235e+38,-3.4028235e+38,-3.4028235e+38,-3.4028235e+38,-3.4028235e+38,-3.4028235e+38,-3.4028235e+38,-3.4028235e+38,-3.4028235e+38,-3.4028235e+38,-3.4028235e+38,-3.4028235e+38,-3.4028235e+38,-3.4028235e+38,-3.4028235e+38,-3.4028235e+38,-3.4028235e+38,-3.4028235e+38,-3.4028235e+38,-3.4028235e+38,-3.4028235e+38,-3.4028235e+38,-3.4028235e+38,-3.4028235e+38,-3.4028235e+38,-3.4028235e+38,-3.4028235e+38,-3.4028235e+38,-3.4028235e+38,-3.4028235e+38,-3.4028235e+38,-3.4028235e+38,-3.4028235e+38,-3.4028235e+38,-3.4028235e+38,-3.4028235e+38,-3.4028235e+38,-3.4028235e+38,-3.4028235e+38,-3.4028235e+38,-3.4028235e+38,-3.4028235e+38,-3.4028235e+38,-3.4028235e+38,-3.4028235e+38,-3.4028235e+38,-3.4028235e+38,-3.4028235e+38,-3.4028235e+38,-3.4028235e+38,-3.4028235e+38,-3.4028235e+38,-3.4028235e+38,-3.4028235e+38,-3.4028235e+38,-3.4028235e+38,-3.4028235e+38,-3.4028235e+38,-3.4028235e+38,-3.4028235e+38,-3.4028235e+38,-3.4028235e+38,-3.4028235e+38,-3.4028235e+38,-3.4028235e+38,-3.4028235e+38,-3.4028235e+38,-3.4028235e+38,-3.4028235e+38,-3.4028235e+38,-3.4028235e+38,-3.4028235e+38,-3.4028235e+38,-3.4028235e+38,-3.4028235e+38,-3.4028235e+38,-3.4028235e+38,-3.4028235e+38,-3.4028235e+38,-3.4028235e+38,-3.4028235e+38,-3.4028235e+38,-3.4028235e+38,-3.4028235e+38,-3.4028235e+38,-3.4028235e+38,-3.4028235e+38,-3.4028235e+38,-3.4028235e+38,-3.4028235e+38,-3.4028235e+38,-3.4028235e+38,-3.4028235e+38,-3.4028235e+38,-3.4028235e+38,-3.4028235e+38,-3.4028235e+38,-3.4028235e+38,-3.4028235e+38,-3.4028235e+38,-3.4028235e+38,-3.4028235e+38,-3.4028235e+38,-3.4028235e+38,-3.4028235e+38,-3.4028235e+38,-3.4028235e+38,-3.4028235e+38,-3.4028235e+38,-3.4028235e+38,-3.4028235e+38,-3.4028235e+38,-3.4028235e+38,-3.4028235e+38,-3.4028235e+38,-3.4028235e+38,-3.4028235e+38,-3.4028235e+38,-3.4028235e+38,-3.4028235e+38,-3.4028235e+38,-3.4028235e+38,-3.4028235e+38,-3.4028235e+38,-3.4028235e+38,-3.4028235e+38,-3.4028235e+38,-3.4028235e+38,-3.4028235e+38,-3.4028235e+38,-3.4028235e+38,-3.4028235e+38,-3.4028235e+38,-3.4028235e+38,-3.4028235e+38,-3.4028235e+38,-3.4028235e+38,-3.4028235e+38,-3.4028235e+38,-3.4028235e+38,-3.4028235e+38,-3.4028235e+38,-3.4028235e+38,-3.4028235e+38,-3.4028235e+38,-3.4028235e+38,-3.4028235e+38,-3.4028235e+38,-3.4028235e+38,-3.4028235e+38,-3.4028235e+38,-3.4028235e+38,-3.4028235e+38,-3.4028235e+38,-3.4028235e+38,-3.4028235e+38,-3.4028235e+38,-3.4028235e+38,-3.4028235e+38,-3.4028235e+38,-3.4028235e+38,-3.4028235e+38,-3.4028235e+38,-3.4028235e+38,-3.4028235e+38,-3.4028235e+38,-3.4028235e+38,-3.4028235e+38,-3.4028235e+38,-3.4028235e+38,-3.4028235e+38,-3.4028235e+38,-3.4028235e+38,-3.4028235e+38,-3.4028235e+38,-3.4028235e+38,-3.4028235e+38,-3.4028235e+38,-3.4028235e+38,-3.4028235e+38,-3.4028235e+38,-3.4028235e+38,-3.4028235e+38,-3.4028235e+38,-3.4028235e+38,-3.4028235e+38,-3.4028235e+38,-3.4028235e+38,-3.4028235e+38,-3.4028235e+38,-3.4028235e+38,-3.4028235e+38,-3.4028235e+38,-3.4028235e+38,-3.4028235e+38,-3.4028235e+38,-3.4028235e+38,-3.4028235e+38,-3.4028235e+38,-3.4028235e+38,-3.4028235e+38,-3.4028235e+38,-3.4028235e+38,-3.4028235e+38,-3.4028235e+38,-3.4028235e+38,-3.4028235e+38,-3.4028235e+38,-3.4028235e+38,-3.4028235e+38,-3.4028235e+38,-3.4028235e+38,-3.4028235e+38,-3.4028235e+38,-3.4028235e+38,-3.4028235e+38,-3.4028235e+38,-3.4028235e+38,-3.4028235e+38,-3.4028235e+38,-3.4028235e+38,-3.4028235e+38,-3.4028235e+38,-3.4028235e+38,-3.4028235e+38,-3.4028235e+38,-3.4028235e+38,-3.4028235e+38,-3.4028235e+38,-3.4028235e+38,-3.4028235e+38,-3.4028235e+38,-3.4028235e+38,-3.4028235e+38,-3.4028235e+38,-3.4028235e+38,-3.4028235e+38,-3.4028235e+38,-3.4028235e+38,-3.4028235e+38,-3.4028235e+38,-3.4028235e+38,-3.4028235e+38,-3.4028235e+38,-3.4028235e+38,-3.4028235e+38,-3.4028235e+38,-3.4028235e+38,-3.4028235e+38,-3.4028235e+38,-3.4028235e+38,-3.4028235e+38,-3.4028235e+38,-3.4028235e+38,-3.4028235e+38,-3.4028235e+38,-3.4028235e+38,-3.4028235e+38,-3.4028235e+38,-3.4028235e+38,-3.4028235e+38,-3.4028235e+38,-3.4028235e+38,-3.4028235e+38,-3.4028235e+38,-3.4028235e+38,-3.4028235e+38,-3.4028235e+38,-3.4028235e+38,-3.4028235e+38,-3.4028235e+38,-3.4028235e+38,-3.4028235e+38,-3.4028235e+38,-3.4028235e+38,-3.4028235e+38,-3.4028235e+38,-3.4028235e+38,-3.4028235e+38,-3.4028235e+38,-3.4028235e+38,-3.4028235e+38,-3.4028235e+38,-3.4028235e+38,-3.4028235e+38,-3.4028235e+38,-3.4028235e+38,-3.4028235e+38,-3.4028235e+38,-3.4028235e+38,-3.4028235e+38,-3.4028235e+38,-3.4028235e+38,-3.4028235e+38,-3.4028235e+38,-3.4028235e+38,-3.4028235e+38,-3.4028235e+38,-3.4028235e+38,-3.4028235e+38,-3.4028235e+38,-3.4028235e+38,-3.4028235e+38,-3.4028235e+38,-3.4028235e+38,-3.4028235e+38,-3.4028235e+38,-3.4028235e+38,-3.4028235e+38,-3.4028235e+38,-3.4028235e+38,-3.4028235e+38,-3.4028235e+38,-3.4028235e+38,-3.4028235e+38,-3.4028235e+38,-3.4028235e+38,-3.4028235e+38,-3.4028235e+38,-3.4028235e+38,-3.4028235e+38,-3.4028235e+38,-3.4028235e+38,-3.4028235e+38,-3.4028235e+38,-3.4028235e+38,-3.4028235e+38,-3.4028235e+38,-3.4028235e+38,-3.4028235e+38,-3.4028235e+38,-3.4028235e+38,-3.4028235e+38,-3.4028235e+38,-3.4028235e+38,-3.4028235e+38,-3.4028235e+38,-3.4028235e+38,-3.4028235e+38,-3.4028235e+38,-3.4028235e+38,-3.4028235e+38,-3.4028235e+38,-3.4028235e+38,-3.4028235e+38,-3.4028235e+38,-3.4028235e+38,-3.4028235e+38,-3.4028235e+38,-3.4028235e+38,-3.4028235e+38,-3.4028235e+38,-3.4028235e+38,-3.4028235e+38,-3.4028235e+38,-3.4028235e+38,-3.4028235e+38,-3.4028235e+38,-3.4028235e+38,-3.4028235e+38,-3.4028235e+38,-3.4028235e+38,-3.4028235e+38,-3.4028235e+38,-3.4028235e+38,-3.4028235e+38,-3.4028235e+38,-3.4028235e+38,-3.4028235e+38,-3.4028235e+38,-3.4028235e+38,-3.4028235e+38,-3.4028235e+38,-3.4028235e+38,-3.4028235e+38,-3.4028235e+38,-3.4028235e+38,-3.4028235e+38,-3.4028235e+38,-3.4028235e+38,-3.4028235e+38,-3.4028235e+38,-3.4028235e+38,-3.4028235e+38,-3.4028235e+38,-3.4028235e+38,-3.4028235e+38,-3.4028235e+38,-3.4028235e+38,-3.4028235e+38,-3.4028235e+38,-3.4028235e+38,-3.4028235e+38,-3.4028235e+38,-3.4028235e+38,-3.4028235e+38,-3.4028235e+38,-3.4028235e+38,-3.4028235e+38,-3.4028235e+38,-3.4028235e+38,-3.4028235e+38,-3.4028235e+38,-3.4028235e+38,-3.4028235e+38,-3.4028235e+38,-3.4028235e+38,-3.4028235e+38,-3.4028235e+38,-3.4028235e+38,-3.4028235e+38,-3.4028235e+38,-3.4028235e+38,-3.4028235e+38,-3.4028235e+38,-3.4028235e+38,-3.4028235e+38,-3.4028235e+38,-3.4028235e+38,-3.4028235e+38,-3.4028235e+38,-3.4028235e+38,-3.4028235e+38,-3.4028235e+38,-3.4028235e+38,-3.4028235e+38,-3.4028235e+38,-3.4028235e+38,-3.4028235e+38,-3.4028235e+38,-3.4028235e+38,-3.4028235e+38,-3.4028235e+38,-3.4028235e+38,-3.4028235e+38,-3.4028235e+38,-3.4028235e+38,-3.4028235e+38,-3.4028235e+38,-3.4028235e+38,-3.4028235e+38,-3.4028235e+38,-3.4028235e+38,-3.4028235e+38,-3.4028235e+38,-3.4028235e+38,-3.4028235e+38,-3.4028235e+38,-3.4028235e+38,-3.4028235e+38,-3.4028235e+38,-3.4028235e+38,-3.4028235e+38,-3.4028235e+38,-3.4028235e+38,-3.4028235e+38,-3.4028235e+38,-3.4028235e+38,-3.4028235e+38,-3.4028235e+38,-3.4028235e+38,-3.4028235e+38,-3.4028235e+38,-3.4028235e+38,-3.4028235e+38,-3.4028235e+38,-3.4028235e+38,-3.4028235e+38,-3.4028235e+38,-3.4028235e+38,-3.4028235e+38,-3.4028235e+38,-3.4028235e+38,-3.4028235e+38,-3.4028235e+38,-3.4028235e+38,-3.4028235e+38,-3.4028235e+38,-3.4028235e+38,-3.4028235e+38,-3.4028235e+38,-3.4028235e+38,-3.4028235e+38,-3.4028235e+38,-3.4028235e+38,-3.4028235e+38,-3.4028235e+38,-3.4028235e+38,-3.4028235e+38,-3.4028235e+38,-3.4028235e+38,-3.4028235e+38,-3.4028235e+38,-3.4028235e+38,-3.4028235e+38,-3.4028235e+38,-3.4028235e+38,-3.4028235e+38,-3.4028235e+38,-3.4028235e+38,-3.4028235e+38,-3.4028235e+38,-3.4028235e+38,-3.4028235e+38,-3.4028235e+38,-3.4028235e+38,-3.4028235e+38,-3.4028235e+38,-3.4028235e+38,-3.4028235e+38,-3.4028235e+38,-3.4028235e+38,-3.4028235e+38,-3.4028235e+38,-3.4028235e+38,-3.4028235e+38,-3.4028235e+38,-3.4028235e+38,-3.4028235e+38,-3.4028235e+38,-3.4028235e+38,-3.4028235e+38,-3.4028235e+38,-3.4028235e+38,-3.4028235e+38,-3.4028235e+38,-3.4028235e+38,-3.4028235e+38,-3.4028235e+38,-3.4028235e+38,-3.4028235e+38,-3.4028235e+38,-3.4028235e+38,-3.4028235e+38,-3.4028235e+38,-3.4028235e+38,-3.4028235e+38,-3.4028235e+38,-3.4028235e+38,-3.4028235e+38,-3.4028235e+38,-3.4028235e+38,-3.4028235e+38,-3.4028235e+38,-3.4028235e+38,-3.4028235e+38,-3.4028235e+38,-3.4028235e+38,-3.4028235e+38,-3.4028235e+38,-3.4028235e+38,-3.4028235e+38,-3.4028235e+38,-3.4028235e+38,-3.4028235e+38,-3.4028235e+38,-3.4028235e+38,-3.4028235e+38,-3.4028235e+38,-3.4028235e+38,-3.4028235e+38,-3.4028235e+38,-3.4028235e+38,-3.4028235e+38,-3.4028235e+38,-3.4028235e+38,-3.4028235e+38,-3.4028235e+38,-3.4028235e+38,-3.4028235e+38,-3.4028235e+38,-3.4028235e+38,-3.4028235e+38,-3.4028235e+38,-3.4028235e+38,-3.4028235e+38,-3.4028235e+38,-3.4028235e+38,-3.4028235e+38,-3.4028235e+38,-3.4028235e+38,-3.4028235e+38,-3.4028235e+38,-3.4028235e+38,-3.4028235e+38,-3.4028235e+38,-3.4028235e+38,-3.4028235e+38,-3.4028235e+38,-3.4028235e+38,-3.4028235e+38,-3.4028235e+38,-3.4028235e+38,-3.4028235e+38,-3.4028235e+38,-3.4028235e+38,-3.4028235e+38,-3.4028235e+38,-3.4028235e+38,-3.4028235e+38,-3.4028235e+38,-3.4028235e+38,-3.4028235e+38,-3.4028235e+38,-3.4028235e+38,-3.4028235e+38,-3.4028235e+38,-3.4028235e+38,-3.4028235e+38,-3.4028235e+38,-3.4028235e+38,-3.4028235e+38,-3.4028235e+38,-3.4028235e+38,-3.4028235e+38,-3.4028235e+38,-3.4028235e+38,-3.4028235e+38,-3.4028235e+38,-3.4028235e+38,-3.4028235e+38,-3.4028235e+38,-3.4028235e+38,-3.4028235e+38,-3.4028235e+38,-3.4028235e+38,-3.4028235e+38,-3.4028235e+38,-3.4028235e+38,-3.4028235e+38,-3.4028235e+38,-3.4028235e+38,-3.4028235e+38,-3.4028235e+38,-3.4028235e+38,-3.4028235e+38,-3.4028235e+38,-3.4028235e+38,-3.4028235e+38,-3.4028235e+38,-3.4028235e+38,-3.4028235e+38,-3.4028235e+38,-3.4028235e+38,-3.4028235e+38,-3.4028235e+38,-3.4028235e+38,-3.4028235e+38,-3.4028235e+38,-3.4028235e+38,-3.4028235e+38,-3.4028235e+38,-3.4028235e+38,-3.4028235e+38,-3.4028235e+38,-3.4028235e+38,-3.4028235e+38,-3.4028235e+38,-3.4028235e+38,-3.4028235e+38,-3.4028235e+38,-3.4028235e+38,-3.4028235e+38,-3.4028235e+38,-3.4028235e+38,-3.4028235e+38,-3.4028235e+38,-3.4028235e+38,-3.4028235e+38,-3.4028235e+38,-3.4028235e+38,-3.4028235e+38,-3.4028235e+38,-3.4028235e+38,-3.4028235e+38,-3.4028235e+38,-3.4028235e+38,-3.4028235e+38,-3.4028235e+38,-3.4028235e+38,-3.4028235e+38,-3.4028235e+38,-3.4028235e+38,
3.4028235e+38,3.4028235e+38,3.4028235e+38,3.4028235e+38,3.4028235e+38,3.4028235e+38,3.4028235e+38,3.4028235e+38,3.4028235e+38,3.4028235e+38,3.4028235e+38,3.4028235e+38,3.4028235e+38,3.4028235e+38,3.4028235e+38,3.4028235e+38,3.4028235e+38,3.4028235e+38,3.4028235e+38,3.4028235e+38,3.4028235e+38,3.4028235e+38,3.4028235e+38,3.4028235e+38,3.4028235e+38,3.4028235e+38,3.4028235e+38,3.4028235e+38,3.4028235e+38,3.4028235e+38,3.4028235e+38,3.4028235e+38,3.4028235e+38,3.4028235e+38,3.4028235e+38,3.4028235e+38,3.4028235e+38,3.4028235e+38,3.4028235e+38,3.4028235e+38,3.4028235e+38,3.4028235e+38,3.4028235e+38,3.4028235e+38,3.4028235e+38,3.4028235e+38,3.4028235e+38,3.4028235e+38,3.4028235e+38,3.4028235e+38,3.4028235e+38,3.4028235e+38,3.4028235e+38,3.4028235e+38,3.4028235e+38,3.4028235e+38,3.4028235e+38,3.4028235e+38,3.4028235e+38,3.4028235e+38,3.4028235e+38,3.4028235e+38,3.4028235e+38,3.4028235e+38,3.4028235e+38,3.4028235e+38,3.4028235e+38,3.4028235e+38,3.4028235e+38,3.4028235e+38,3.4028235e+38,3.4028235e+38,3.4028235e+38,3.4028235e+38,3.4028235e+38,3.4028235e+38,3.4028235e+38,3.4028235e+38,3.4028235e+38,3.4028235e+38,3.4028235e+38,3.4028235e+38,3.4028235e+38,3.4028235e+38,3.4028235e+38,3.4028235e+38,3.4028235e+38,3.4028235e+38,3.4028235e+38,3.4028235e+38,3.4028235e+38,3.4028235e+38,3.4028235e+38,3.4028235e+38,3.4028235e+38,3.4028235e+38,3.4028235e+38,3.4028235e+38,3.4028235e+38,3.4028235e+38,3.4028235e+38,3.4028235e+38,3.4028235e+38,3.4028235e+38,3.4028235e+38,3.4028235e+38,3.4028235e+38,3.4028235e+38,3.4028235e+38,3.4028235e+38,3.4028235e+38,3.4028235e+38,3.4028235e+38,3.4028235e+38,3.4028235e+38,3.4028235e+38,3.4028235e+38,3.4028235e+38,3.4028235e+38,3.4028235e+38,3.4028235e+38,3.4028235e+38,3.4028235e+38,3.4028235e+38,3.4028235e+38,3.4028235e+38,3.4028235e+38,3.4028235e+38,3.4028235e+38,3.4028235e+38,3.4028235e+38,3.4028235e+38,3.4028235e+38,3.4028235e+38,3.4028235e+38,3.4028235e+38,3.4028235e+38,3.4028235e+38,3.4028235e+38,3.4028235e+38,3.4028235e+38,3.4028235e+38,3.4028235e+38,3.4028235e+38,3.4028235e+38,3.4028235e+38,3.4028235e+38,3.4028235e+38,3.4028235e+38,3.4028235e+38,3.4028235e+38,3.4028235e+38,3.4028235e+38,3.4028235e+38,3.4028235e+38,3.4028235e+38,3.4028235e+38,3.4028235e+38,3.4028235e+38,3.4028235e+38,3.4028235e+38,3.4028235e+38,3.4028235e+38,3.4028235e+38,3.4028235e+38,3.4028235e+38,3.4028235e+38,3.4028235e+38,3.4028235e+38,3.4028235e+38,3.4028235e+38,3.4028235e+38,3.4028235e+38,3.4028235e+38,3.4028235e+38,3.4028235e+38,3.4028235e+38,3.4028235e+38,3.4028235e+38,3.4028235e+38,3.4028235e+38,3.4028235e+38,3.4028235e+38,3.4028235e+38,3.4028235e+38,3.4028235e+38,3.4028235e+38,3.4028235e+38,3.4028235e+38,3.4028235e+38,3.4028235e+38,3.4028235e+38,3.4028235e+38,3.4028235e+38,3.4028235e+38,3.4028235e+38,3.4028235e+38,3.4028235e+38,3.4028235e+38,3.4028235e+38,3.4028235e+38,3.4028235e+38,3.4028235e+38,3.4028235e+38,3.4028235e+38,3.4028235e+38,3.4028235e+38,3.4028235e+38,3.4028235e+38,3.4028235e+38,3.4028235e+38,3.4028235e+38,3.4028235e+38,3.4028235e+38,3.4028235e+38,3.4028235e+38,3.4028235e+38,3.4028235e+38,3.4028235e+38,3.4028235e+38,3.4028235e+38,3.4028235e+38,3.4028235e+38,3.4028235e+38,3.4028235e+38,3.4028235e+38,3.4028235e+38,3.4028235e+38,3.4028235e+38,3.4028235e+38,3.4028235e+38,3.4028235e+38,3.4028235e+38,3.4028235e+38,3.4028235e+38,3.4028235e+38,3.4028235e+38,3.4028235e+38,3.4028235e+38,3.4028235e+38,3.4028235e+38,3.4028235e+38,3.4028235e+38,3.4028235e+38,3.4028235e+38,3.4028235e+38,3.4028235e+38,3.4028235e+38,3.4028235e+38,3.4028235e+38,3.4028235e+38,3.4028235e+38,3.4028235e+38,3.4028235e+38,3.4028235e+38,3.4028235e+38,3.4028235e+38,3.4028235e+38,3.4028235e+38,3.4028235e+38,3.4028235e+38,3.4028235e+38,3.4028235e+38,3.4028235e+38,3.4028235e+38,3.4028235e+38,3.4028235e+38,3.4028235e+38,3.4028235e+38,3.4028235e+38,3.4028235e+38,3.4028235e+38,3.4028235e+38,3.4028235e+38,3.4028235e+38,3.4028235e+38,3.4028235e+38,3.4028235e+38,3.4028235e+38,3.4028235e+38,3.4028235e+38,3.4028235e+38,3.4028235e+38,3.4028235e+38,3.4028235e+38,3.4028235e+38,3.4028235e+38,3.4028235e+38,3.4028235e+38,3.4028235e+38,3.4028235e+38,3.4028235e+38,3.4028235e+38,3.4028235e+38,3.4028235e+38,3.4028235e+38,3.4028235e+38,3.4028235e+38,3.4028235e+38,3.4028235e+38,3.4028235e+38,3.4028235e+38,3.4028235e+38,3.4028235e+38,3.4028235e+38,3.4028235e+38,3.4028235e+38,3.4028235e+38,3.4028235e+38,3.4028235e+38,3.4028235e+38,3.4028235e+38,3.4028235e+38,3.4028235e+38,3.4028235e+38,3.4028235e+38,3.4028235e+38,3.4028235e+38,3.4028235e+38,3.4028235e+38,3.4028235e+38,3.4028235e+38,3.4028235e+38,3.4028235e+38,3.4028235e+38,3.4028235e+38,3.4028235e+38,3.4028235e+38,3.4028235e+38,3.4028235e+38,3.4028235e+38,3.4028235e+38,3.4028235e+38,3.4028235e+38,3.4028235e+38,3.4028235e+38,3.4028235e+38,3.4028235e+38,3.4028235e+38,3.4028235e+38,3.4028235e+38,3.4028235e+38,3.4028235e+38,3.4028235e+38,3.4028235e+38,3.4028235e+38,3.4028235e+38,3.4028235e+38,3.4028235e+38,3.4028235e+38,3.4028235e+38,3.4028235e+38,3.4028235e+38,3.4028235e+38,3.4028235e+38,3.4028235e+38,3.4028235e+38,3.4028235e+38,3.4028235e+38,3.4028235e+38,3.4028235e+38,3.4028235e+38,3.4028235e+38,3.4028235e+38,3.4028235e+38,3.4028235e+38,3.4028235e+38,3.4028235e+38,3.4028235e+38,3.4028235e+38,3.4028235e+38,3.4028235e+38,3.4028235e+38,3.4028235e+38,3.4028235e+38,3.4028235e+38,3.4028235e+38,3.4028235e+38,3.4028235e+38,3.4028235e+38,3.4028235e+38,3.4028235e+38,3.4028235e+38,3.4028235e+38,3.4028235e+38,3.4028235e+38,3.4028235e+38,3.4028235e+38,3.4028235e+38,3.4028235e+38,3.4028235e+38,3.4028235e+38,3.4028235e+38,3.4028235e+38,3.4028235e+38,3.4028235e+38,3.4028235e+38,3.4028235e+38,3.4028235e+38,3.4028235e+38,3.4028235e+38,3.4028235e+38,3.4028235e+38,3.4028235e+38,3.4028235e+38,3.4028235e+38,3.4028235e+38,3.4028235e+38,3.4028235e+38,3.4028235e+38,3.4028235e+38,3.4028235e+38,3.4028235e+38,3.4028235e+38,3.4028235e+38,3.4028235e+38,3.4028235e+38,3.4028235e+38,3.4028235e+38,3.4028235e+38,3.4028235e+38,3.4028235e+38,3.4028235e+38,3.4028235e+38,3.4028235e+38,3.4028235e+38,3.4028235e+38,3.4028235e+38,3.4028235e+38,3.4028235e+38,3.4028235e+38,3.4028235e+38,3.4028235e+38,3.4028235e+38,3.4028235e+38,3.4028235e+38,3.4028235e+38,3.4028235e+38,3.4028235e+38,3.4028235e+38,3.4028235e+38,3.4028235e+38,3.4028235e+38,3.4028235e+38,3.4028235e+38,3.4028235e+38,3.4028235e+38,3.4028235e+38,3.4028235e+38,3.4028235e+38,3.4028235e+38,3.4028235e+38,3.4028235e+38,3.4028235e+38,3.4028235e+38,3.4028235e+38,3.4028235e+38,3.4028235e+38,3.4028235e+38,3.4028235e+38,3.4028235e+38,3.4028235e+38,3.4028235e+38,3.4028235e+38,3.4028235e+38,3.4028235e+38,3.4028235e+38,3.4028235e+38,3.4028235e+38,3.4028235e+38,3.4028235e+38,3.4028235e+38,3.4028235e+38,3.4028235e+38,3.4028235e+38,3.4028235e+38,3.4028235e+38,3.4028235e+38,3.4028235e+38,3.4028235e+38,3.4028235e+38,3.4028235e+38,3.4028235e+38,3.4028235e+38,3.4028235e+38,3.4028235e+38,3.4028235e+38,3.4028235e+38,3.4028235e+38,3.4028235e+38,3.4028235e+38,3.4028235e+38,3.4028235e+38,3.4028235e+38,3.4028235e+38,3.4028235e+38,3.4028235e+38,3.4028235e+38,3.4028235e+38,3.4028235e+38,3.4028235e+38,3.4028235e+38,3.4028235e+38,3.4028235e+38,3.4028235e+38,3.4028235e+38,3.4028235e+38,3.4028235e+38,3.4028235e+38,3.4028235e+38,3.4028235e+38,3.4028235e+38,3.4028235e+38,3.4028235e+38,3.4028235e+38,3.4028235e+38,3.4028235e+38,3.4028235e+38,3.4028235e+38,3.4028235e+38,3.4028235e+38,3.4028235e+38,3.4028235e+38,3.4028235e+38,3.4028235e+38,3.4028235e+38,3.4028235e+38,3.4028235e+38,3.4028235e+38,3.4028235e+38,3.4028235e+38,3.4028235e+38,3.4028235e+38,3.4028235e+38,3.4028235e+38,3.4028235e+38,3.4028235e+38,3.4028235e+38,3.4028235e+38,3.4028235e+38,3.4028235e+38,3.4028235e+38,3.4028235e+38,3.4028235e+38,3.4028235e+38,3.4028235e+38,3.4028235e+38,3.4028235e+38,3.4028235e+38,3.4028235e+38,3.4028235e+38,3.4028235e+38,3.4028235e+38,3.4028235e+38,3.4028235e+38,3.4028235e+38,3.4028235e+38,3.4028235e+38,3.4028235e+38,3.4028235e+38,3.4028235e+38,3.4028235e+38,3.4028235e+38,3.4028235e+38,3.4028235e+38,3.4028235e+38,3.4028235e+38,3.4028235e+38,3.4028235e+38,3.4028235e+38,3.4028235e+38,3.4028235e+38,3.4028235e+38,3.4028235e+38,3.4028235e+38,3.4028235e+38,3.4028235e+38,3.4028235e+38,3.4028235e+38,3.4028235e+38,3.4028235e+38,3.4028235e+38,3.4028235e+38,3.4028235e+38,3.4028235e+38,3.4028235e+38,3.4028235e+38,3.4028235e+38,3.4028235e+38,3.4028235e+38,3.4028235e+38,3.4028235e+38,3.4028235e+38,3.4028235e+38,3.4028235e+38,3.4028235e+38,3.4028235e+38,3.4028235e+38,3.4028235e+38,3.4028235e+38,3.4028235e+38,3.4028235e+38,3.4028235e+38,3.4028235e+38,3.4028235e+38,3.4028235e+38,3.4028235e+38,3.4028235e+38,3.4028235e+38,3.4028235e+38,3.4028235e+38,3.4028235e+38,3.4028235e+38,3.4028235e+38,3.4028235e+38,3.4028235e+38,3.4028235e+38,3.4028235e+38,3.4028235e+38,3.4028235e+38,3.4028235e+38,3.4028235e+38,3.4028235e+38,3.4028235e+38,3.4028235e+38,3.4028235e+38,3.4028235e+38,3.4028235e+38,3.4028235e+38,3.4028235e+38,3.4028235e+38,3.4028235e+38,3.4028235e+38,3.4028235e+38,3.4028235e+38,3.4028235e+38,3.4028235e+38,3.4028235e+38,3.4028235e+38,3.4028235e+38,3.4028235e+38,3.4028235e+38,3.4028235e+38,3.4028235e+38,3.4028235e+38,3.4028235e+38,3.4028235e+38,3.4028235e+38,3.4028235e+38,3.4028235e+38,3.4028235e+38,3.4028235e+38,3.4028235e+38,3.4028235e+38,3.4028235e+38,3.4028235e+38,3.4028235e+38,3.4028235e+38,3.4028235e+38,3.4028235e+38,3.4028235e+38,3.4028235e+38,3.4028235e+38,3.4028235e+38,3.4028235e+38,3.4028235e+38,3.4028235e+38,3.4028235e+38,3.4028235e+38,3.4028235e+38,3.4028235e+38,3.4028235e+38,3.4028235e+38,3.4028235e+38,3.4028235e+38,3.4028235e+38,3.4028235e+38,3.4028235e+38,3.4028235e+38,3.4028235e+38,3.4028235e+38,3.4028235e+38,3.4028235e+38,3.4028235e+38,3.4028235e+38,3.4028235e+38,3.4028235e+38,3.4028235e+38,3.4028235e+38,3.4028235e+38,3.4028235e+38,3.4028235e+38,3.4028235e+38,3.4028235e+38,3.4028235e+38,3.4028235e+38,3.4028235e+38,3.4028235e+38,3.4028235e+38,3.4028235e+38,3.4028235e+38,3.4028235e+38,3.4028235e+38,3.4028235e+38,3.4028235e+38,3.4028235e+38,3.4028235e+38,3.4028235e+38,3.4028235e+38,3.4028235e+38,3.4028235e+38,3.4028235e+38,3.4028235e+38,3.4028235e+38,3.4028235e+38,3.4028235e+38,3.4028235e+38,3.4028235e+38,3.4028235e+38,3.4028235e+38,3.4028235e+38,3.4028235e+38,3.4028235e+38,3.4028235e+38,3.4028235e+38,3.4028235e+38,3.4028235e+38,3.4028235e+38,3.4028235e+38,3.4028235e+38,3.4028235e+38,3.4028235e+38,3.4028235e+38,3.4028235e+38,3.4028235e+38,3.4028235e+38,3.4028235e+38,3.4028235e+38,3.4028235e+38,3.4028235e+38,3.4028235e+38,3.4028235e+38,3.4028235e+38,3.4028235e+38,3.4028235e+38,3.4028235e+38,3.4028235e+38,3.4028235e+38,3.4028235e+38,3.4028235e+38,3.4028235e+38,3.4028235e+38,3.4028235e+38,3.4028235e+38,3.4028235e+38,3.4028235e+38,3.4028235e+38,3.4028235e+38,3.4028235e+38,3.4028235e+38,3.4028235e+38,3.4028235e+38,3.4028235e+38,3.4028235e+38,3.4028235e+38,3.4028235e+38,3.4028235e+38,3.4028235e+38,3.4028235e+38,3.4028235e+38,3.4028235e+38,3.4028235e+38,3.4028235e+38,3.4028235e+38,3.4028235e+38,3.4028235e+38,3.4028235e+38,3.4028235e+38,3.4028235e+38,3.4028235e+38,3.4028235e+38,3.4028235e+38,3.4028235e+38,3.4028235e+38,
0.0,0.0,0.0,0.0,0.0,0.0,0.0,0.0,0.0,0.0,0.0,0.0,0.0,0.0,0.0,0.0,0.0,0.0,0.0,0.0,0.0,0.0,0.0,0.0,0.0,0.0,0.0,0.0,0.0,0.0,0.0,0.0,0.0,0.0,0.0,0.0,0.0,0.0,0.0,0.0,0.0,0.0,0.0,0.0,0.0,0.0,0.0,0.0,0.0,0.0,0.0,0.0,0.0,0.0,0.0,0.0,0.0,0.0,0.0,0.0,0.0,0.0,0.0,0.0,0.0,0.0,0.0,0.0,0.0,0.0,0.0,0.0,0.0,0.0,0.0,0.0,0.0,0.0,0.0,0.0,0.0,0.0,0.0,0.0,0.0,0.0,0.0,0.0,0.0,0.0,0.0,0.0,0.0,0.0,0.0,0.0,0.0,0.0,0.0,0.0,0.0,0.0,0.0,0.0,0.0,0.0,0.0,0.0,0.0,0.0,0.0,0.0,0.0,0.0,0.0,0.0,0.0,0.0,0.0,0.0,0.0,0.0,0.0,0.0,0.0,0.0,0.0,0.0,0.0,0.0,0.0,0.0,0.0,0.0,0.0,0.0,0.0,0.0,0.0,0.0,0.0,0.0,0.0,0.0,0.0,0.0,0.0,0.0,0.0,0.0,0.0,0.0,0.0,0.0,0.0,0.0,0.0,0.0,0.0,0.0,0.0,0.0,0.0,0.0,0.0,0.0,0.0,0.0,0.0,0.0,0.0,0.0,0.0,0.0,0.0,0.0,0.0,0.0,0.0,0.0,0.0,0.0,0.0,0.0,0.0,0.0,0.0,0.0,0.0,0.0,0.0,0.0,0.0,0.0,0.0,0.0,0.0,0.0,0.0,0.0,0.0,0.0,0.0,0.0,0.0,0.0,0.0,0.0,0.0,0.0,0.0,0.0,0.0,0.0,0.0,0.0,0.0,0.0,0.0,0.0,0.0,0.0,0.0,0.0,0.0,0.0,0.0,0.0,0.0,0.0,0.0,0.0,0.0,0.0,0.0,0.0,0.0,0.0,0.0,0.0,0.0,0.0,0.0,0.0,0.0,0.0,0.0,0.0,0.0,0.0,0.0,0.0,0.0,0.0,0.0,0.0,0.0,0.0,0.0,0.0,0.0,0.0,0.0,0.0,0.0,0.0,0.0,0.0,0.0,0.0,0.0,0.0,0.0,0.0,0.0,0.0,0.0,0.0,0.0,0.0,0.0,0.0,0.0,0.0,0.0,0.0,0.0,0.0,0.0,0.0,0.0,0.0,0.0,0.0,0.0,0.0,0.0,0.0,0.0,0.0,0.0,0.0,0.0,0.0,0.0,0.0,0.0,0.0,0.0,0.0,0.0,0.0,0.0,0.0,0.0,0.0,0.0,0.0,0.0,0.0,0.0,0.0,0.0,0.0,0.0,0.0,0.0,0.0,0.0,0.0,0.0,0.0,0.0,0.0,0.0,0.0,0.0,0.0,0.0,0.0,0.0,0.0,0.0,0.0,0.0,0.0,0.0,0.0,0.0,0.0,0.0,0.0,0.0,0.0,0.0,0.0,0.0,0.0,0.0,0.0,0.0,0.0,0.0,0.0,0.0,0.0,0.0,0.0,0.0,0.0,0.0,0.0,0.0,0.0,0.0,0.0,0.0,0.0,0.0,0.0,0.0,0.0,0.0,0.0,0.0,0.0,0.0,0.0,0.0,0.0,0.0,0.0,0.0,0.0,0.0,0.0,0.0,0.0,0.0,0.0,0.0,0.0,0.0,0.0,0.0,0.0,0.0,0.0,0.0,0.0,0.0,0.0,0.0,0.0,0.0,0.0,0.0,0.0,0.0,0.0,0.0,0.0,0.0,0.0,0.0,0.0,0.0,0.0,0.0,0.0,0.0,0.0,0.0,0.0,0.0,0.0,0.0,0.0,0.0,0.0,0.0,0.0,0.0,0.0,0.0,0.0,0.0,0.0,0.0,0.0,0.0,0.0,0.0,0.0,0.0,0.0,0.0,0.0,0.0,0.0,0.0,0.0,0.0,0.0,0.0,0.0,0.0,0.0,0.0,0.0,0.0,0.0,0.0,0.0,0.0,0.0,0.0,0.0,0.0,0.0,0.0,0.0,0.0,0.0,0.0,0.0,0.0,0.0,0.0,0.0,0.0,0.0,0.0,0.0,0.0,0.0,0.0,0.0,0.0,0.0,0.0,0.0,0.0,0.0,0.0,0.0,0.0,0.0,0.0,0.0,0.0,0.0,0.0,0.0,0.0,0.0,0.0,0.0,0.0,0.0,0.0,0.0,0.0,0.0,0.0,0.0,0.0,0.0,0.0,0.0,0.0,0.0,0.0,0.0,0.0,0.0,0.0,0.0,0.0,0.0,0.0,0.0,0.0,0.0,0.0,0.0,0.0,0.0,0.0,0.0,0.0,0.0,0.0,0.0,0.0,0.0,0.0,0.0,0.0,0.0,0.0,0.0,0.0,0.0,0.0,0.0,0.0,0.0,0.0,0.0,0.0,0.0,0.0,0.0,0.0,0.0,0.0,0.0,0.0,0.0,0.0,0.0,0.0,0.0,0.0,0.0,0.0,0.0,0.0,0.0,0.0,0.0,0.0,0.0,0.0,0.0,0.0,0.0,0.0,0.0,0.0,0.0,0.0,0.0,0.0,0.0,0.0,0.0,0.0,0.0,0.0,0.0,0.0,0.0,0.0,0.0,0.0,0.0,0.0,0.0,0.0,0.0,0.0,0.0,0.0,0.0,0.0,0.0,0.0,0.0,0.0,0.0,0.0,0.0,0.0,0.0,0.0,0.0,0.0,0.0,0.0,0.0,0.0,0.0,0.0,0.0,0.0,0.0,0.0,0.0,0.0,0.0,0.0,0.0,0.0,0.0,0.0,0.0,0.0,0.0,0.0,0.0,0.0,0.0,0.0,0.0,0.0,0.0,0.0,0.0,0.0,0.0,0.0,0.0,0.0,0.0,0.0,0.0,0.0,0.0,0.0,0.0,0.0,0.0,0.0,0.0,0.0,0.0,0.0,0.0,0.0,0.0,0.0,0.0,0.0,0.0,0.0,0.0,0.0,0.0,0.0,0.0,0.0,0.0,0.0,0.0,0.0,0.0,0.0,0.0,0.0,0.0,0.0,0.0,0.0,0.0,0.0,0.0,0.0,0.0,0.0,0.0,0.0,0.0,0.0,0.0,0.0,0.0,0.0,0.0,0.0,0.0,0.0,0.0,0.0,0.0,0.0,0.0,0.0,0.0,0.0,0.0,0.0,0.0,0.0,0.0,0.0,0.0,0.0,0.0,0.0,0.0,0.0,0.0,0.0,0.0,0.0,0.0,0.0,0.0,0.0,0.0,0.0,0.0,0.0,0.0,0.0,0.0,0.0,0.0,0.0,0.0,0.0,0.0,0.0,0.0,0.0,0.0,0.0,0.0,0.0,0.0,0.0,0.0,0.0,
1.0,1.0,1.0,1.0,1.0,1.0,1.0,1.0,1.0,1.0,1.0,1.0,1.0,1.0,1.0,1.0,1.0,1.0,1.0,1.0,1.0,1.0,1.0,1.0,1.0,1.0,1.0,1.0,1.0,1.0,1.0,1.0,1.0,1.0,1.0,1.0,1.0,1.0,1.0,1.0,1.0,1.0,1.0,1.0,1.0,1.0,1.0,1.0,1.0,1.0,1.0,1.0,1.0,1.0,1.0,1.0,1.0,1.0,1.0,1.0,1.0,1.0,1.0,1.0,1.0,1.0,1.0,1.0,1.0,1.0,1.0,1.0,1.0,1.0,1.0,1.0,1.0,1.0,1.0,1.0,1.0,1.0,1.0,1.0,1.0,1.0,1.0,1.0,1.0,1.0,1.0,1.0,1.0,1.0,1.0,1.0,1.0,1.0,1.0,1.0,1.0,1.0,1.0,1.0,1.0,1.0,1.0,1.0,1.0,1.0,1.0,1.0,1.0,1.0,1.0,1.0,1.0,1.0,1.0,1.0,1.0,1.0,1.0,1.0,1.0,1.0,1.0,1.0,1.0,1.0,1.0,1.0,1.0,1.0,1.0,1.0,1.0,1.0,1.0,1.0,1.0,1.0,1.0,1.0,1.0,1.0,1.0,1.0,1.0,1.0,1.0,1.0,1.0,1.0,1.0,1.0,1.0,1.0,1.0,1.0,1.0,1.0,1.0,1.0,1.0,1.0,1.0,1.0,1.0,1.0,1.0,1.0,1.0,1.0,1.0,1.0,1.0,1.0,1.0,1.0,1.0,1.0,1.0,1.0,1.0,1.0,1.0,1.0,1.0,1.0,1.0,1.0,1.0,1.0,1.0,1.0,1.0,1.0,1.0,1.0,1.0,1.0,1.0,1.0,1.0,1.0,1.0,1.0,1.0,1.0,1.0,1.0,1.0,1.0,1.0,1.0,1.0,1.0,1.0,1.0,1.0,1.0,1.0,1.0,1.0,1.0,1.0,1.0,1.0,1.0,1.0,1.0,1.0,1.0,1.0,1.0,1.0,1.0,1.0,1.0,1.0,1.0,1.0,1.0,1.0,1.0,1.0,1.0,1.0,1.0,1.0,1.0,1.0,1.0,1.0,1.0,1.0,1.0,1.0,1.0,1.0,1.0,1.0,1.0,1.0,1.0,1.0,1.0,1.0,1.0,1.0,1.0,1.0,1.0,1.0,1.0,1.0,1.0,1.0,1.0,1.0,1.0,1.0,1.0,1.0,1.0,1.0,1.0,1.0,1.0,1.0,1.0,1.0,1.0,1.0,1.0,1.0,1.0,1.0,1.0,1.0,1.0,1.0,1.0,1.0,1.0,1.0,1.0,1.0,1.0,1.0,1.0,1.0,1.0,1.0,1.0,1.0,1.0,1.0,1.0,1.0,1.0,1.0,1.0,1.0,1.0,1.0,1.0,1.0,1.0,1.0,1.0,1.0,1.0,1.0,1.0,1.0,1.0,1.0,1.0,1.0,1.0,1.0,1.0,1.0,1.0,1.0,1.0,1.0,1.0,1.0,1.0,1.0,1.0,1.0,1.0,1.0,1.0,1.0,1.0,1.0,1.0,1.0,1.0,1.0,1.0,1.0,1.0,1.0,1.0,1.0,1.0,1.0,1.0,1.0,1.0,1.0,1.0,1.0,1.0,1.0,1.0,1.0,1.0,1.0,1.0,1.0,1.0,1.0,1.0,1.0,1.0,1.0,1.0,1.0,1.0,1.0,1.0,1.0,1.0,1.0,1.0,1.0,1.0,1.0,1.0,1.0,1.0,1.0,1.0,1.0,1.0,1.0,1.0,1.0,1.0,1.0,1.0,1.0,1.0,1.0,1.0,1.0,1.0,1.0,1.0,1.0,1.0,1.0,1.0,1.0,1.0,1.0,1.0,1.0,1.0,1.0,1.0,1.0,1.0,1.0,1.0,1.0,1.0,1.0,1.0,1.0,1.0,1.0,1.0,1.0,1.0,1.0,1.0,1.0,1.0,1.0,1.0,1.0,1.0,1.0,1.0,1.0,1.0,1.0,1.0,1.0,1.0,1.0,1.0,1.0,1.0,1.0,1.0,1.0,1.0,1.0,1.0,1.0,1.0,1.0,1.0,1.0,1.0,1.0,1.0,1.0,1.0,1.0,1.0,1.0,1.0,1.0,1.0,1.0,1.0,1.0,1.0,1.0,1.0,1.0,1.0,1.0,1.0,1.0,1.0,1.0,1.0,1.0,1.0,1.0,1.0,1.0,1.0,1.0,1.0,1.0,1.0,1.0,1.0,1.0,1.0,1.0,1.0,1.0,1.0,1.0,1.0,1.0,1.0,1.0,1.0,1.0,1.0,1.0,1.0,1.0,1.0,1.0,1.0,1.0,1.0,1.0,1.0,1.0,1.0,1.0,1.0,1.0,1.0,1.0,1.0,1.0,1.0,1.0,1.0,1.0,1.0,1.0,1.0,1.0,1.0,1.0,1.0,1.0,1.0,1.0,1.0,1.0,1.0,1.0,1.0,1.0,1.0,1.0,1.0,1.0,1.0,1.0,1.0,1.0,1.0,1.0,1.0,1.0,1.0,1.0,1.0,1.0,1.0,1.0,1.0,1.0,1.0,1.0,1.0,1.0,1.0,1.0,1.0,1.0,1.0,1.0,1.0,1.0,1.0,1.0,1.0,1.0,1.0,1.0,1.0,1.0,1.0,1.0,1.0,1.0,1.0,1.0,1.0,1.0,1.0,1.0,1.0,1.0,1.0,1.0,1.0,1.0,1.0,1.0,1.0,1.0,1.0,1.0,1.0,1.0,1.0,1.0,1.0,1.0,1.0,1.0,1.0,1.0,1.0,1.0,1.0,1.0,1.0,1.0,1.0,1.0,1.0,1.0,1.0,1.0,1.0,1.0,1.0,1.0,1.0,1.0,1.0,1.0,1.0,1.0,1.0,1.0,1.0,1.0,1.0,1.0,1.0,1.0,1.0,1.0,1.0,1.0,1.0,1.0,1.0,1.0,1.0,1.0,1.0,1.0,1.0,1.0,1.0,1.0,1.0,1.0,1.0,1.0,1.0,1.0,1.0,1.0,1.0,1.0,1.0,1.0,1.0,1.0,1.0,1.0,1.0,1.0,1.0,1.0,1.0,1.0,1.0,1.0,1.0,1.0,1.0,1.0,1.0,1.0,1.0,1.0,1.0,1.0,1.0,1.0,1.0,1.0,1.0,1.0,1.0,1.0,1.0,1.0,1.0,1.0,1.0,1.0,1.0,1.0,1.0,1.0,1.0,1.0,1.0,1.0,1.0,1.0,1.0,1.0,1.0,1.0,1.0,1.0,1.0,1.0,1.0,1.0,1.0,1.0,1.0,1.0,1.0,1.0,1.0,1.0,1.0,1.0,1.0,1.0,1.0,1.0,1.0,1.0,1.0,1.0,1.0,1.0,1.0,1.0,1.0,1.0,1.0,1.0,
-2.23134e-02,1.83672e-02,3.46309e-02,1.19739e-02,-1.92777e-02,2.86417e-02,-3.72925e-03,7.38017e-03,8.26244e-03,-3.53838e-02,2.10717e-02,-2.77667e-02,1.89171e-01,2.97555e-01,3.09577e-03,-4.36249e-03,-3.56111e-03,-3.09243e-02,2.36074e-02,-3.01143e-02,-1.43121e-02,8.53691e-03,-2.70258e-02,-1.28506e-02,9.60205e-04,1.42878e-02,-1.32956e-02,-3.27259e-02,-1.11223e-02,-2.92118e-02,-4.68930e-03,-1.96598e-02,-1.48049e-02,-6.53732e-02,9.68784e-02,1.48113e-01,3.83742e-01,2.83028e-01,4.51616e-01,6.71117e-01,1.09161e+00,1.46292e+00,7.03426e-01,-2.06527e-01,-6.02587e-01,-5.39948e-01,-3.72745e-01,6.25056e-01,9.15460e-01,7.31903e-01,5.41530e-01,3.72673e-01,-1.68548e-02,-3.43333e-02,1.86580e-03,1.35294e-03,-1.17599e-03,-2.88200e-02,9.96799e-03,3.41333e-02,3.21642e-01,1.19352e-01,2.83311e-01,5.93840e-01,6.14990e-01,1.05253e+00,8.50492e-01,8.80318e-01,1.10694e+00,1.32734e+00,7.74261e-01,1.33373e-02,-2.81267e-01,-4.74379e-01,-4.87598e-01,1.77114e+00,1.84361e+00,1.23934e+00,1.06638e+00,1.15509e+00,6.73035e-01,5.89050e-01,3.44854e-02,2.54132e-03,2.01080e-02,1.49528e-02,-8.11201e-03,1.86886e-01,2.07618e-01,3.89678e-01,3.76008e-01,2.55312e-01,4.63236e-01,5.82301e-01,4.39962e-01,4.85265e-01,1.94114e-01,-3.90683e-01,-1.06314e+00,-9.28177e-01,-7.86102e-01,-1.09627e+00,-1.20819e+00,-5.62533e-01,2.08452e-02,2.70766e-01,7.26148e-01,6.88681e-01,6.41975e-01,6.99615e-01,9.96969e-01,-3.21644e-02,5.54132e-04,-2.51672e-02,-9.21920e-03,-1.77092e-01,7.39729e-01,2.99476e-01,2.01043e-01,2.35664e-01,1.32356e-01,6.60808e-01,6.07812e-01,3.32942e-01,2.08068e-01,-3.92922e-01,-1.00332e+00,-8.78827e-01,-1.93801e-03,-3.07322e-01,-4.58364e-01,-1.78941e-02,1.47282e-02,1.55201e-01,3.75024e-01,6.82844e-01,2.94658e-01,-3.93393e-01,5.62129e-01,8.43052e-01,-1.02122e-02,3.01275e-02,1.74116e-02,2.78912e-01,2.08228e-01,2.49459e-01,3.81714e-02,2.86999e-01,1.62643e-01,5.72561e-01,6.55674e-01,3.71247e-02,-9.28468e-01,-1.51062e+00,-1.22084e+00,-7.46329e-01,-4.07223e-01,-2.12320e-01,2.54163e-02,2.16950e-01,1.36010e-01,-1.12814e-01,-1.18452e-01,4.03835e-02,4.28945e-01,-2.68953e-01,1.70837e-01,9.24009e-01,1.32948e-02,1.87245e-02,1.19360e-01,2.00338e-01,5.65792e-03,1.42821e-01,-9.28832e-02,-5.32259e-02,2.33282e-01,2.63441e-01,-1.66601e-01,-3.35631e-01,-7.35393e-01,-1.18790e+00,-1.22525e+00,-6.79322e-01,-1.54135e-01,-1.86505e-01,9.61855e-02,2.12389e-01,2.39837e-01,2.06134e-01,4.42854e-01,6.41602e-01,7.60256e-02,4.09291e-01,2.78948e-01,3.79047e-01,6.26344e-02,1.33123e-01,2.82728e-01,6.13103e-02,6.25496e-02,3.92931e-01,-1.51288e-01,1.28902e-01,3.74589e-01,1.46789e-01,2.71989e-01,-5.35272e-02,-6.05160e-01,-1.05716e+00,-7.83311e-01,-3.40535e-01,-9.11124e-02,1.79919e-02,1.72397e-01,3.55821e-01,1.61766e-01,2.18961e-01,7.44998e-02,2.87360e-01,-1.75932e-01,1.35193e-01,-4.50066e-02,3.44906e-01,7.60666e-02,4.39615e-02,6.84249e-02,2.53455e-01,3.67539e-01,2.32176e-01,-8.93230e-02,2.29722e-02,-1.32821e-02,2.80584e-01,3.37296e-01,-1.48969e-01,-7.78401e-01,-1.13699e+00,-7.34336e-01,-1.43143e-01,3.36250e-01,1.86587e-01,1.63156e-01,4.38415e-03,-2.59516e-02,-8.90900e-02,-2.15818e-01,-1.27809e-01,-2.76933e-01,-3.97478e-01,-7.02782e-01,-4.42945e-01,6.47325e-02,5.00511e-01,-7.81191e-01,1.41318e-01,4.66053e-02,2.62949e-02,-8.63278e-03,8.17300e-03,2.48843e-02,9.60860e-03,2.72065e-01,-1.48948e-02,-8.06667e-01,-1.81406e+00,-6.77888e-01,-6.46729e-02,3.17117e-01,-1.05830e-01,1.44241e-01,-1.23890e-01,2.28752e-01,7.33709e-02,-2.62745e-01,-1.95344e-01,1.72487e-01,-3.36241e-01,-1.14048e+00,-2.00154e-01,4.10007e-02,1.16176e-01,-7.56778e-02,-1.48099e-01,-2.17071e-01,3.23796e-01,-1.65153e-01,2.09322e-01,1.53041e-01,2.28613e-01,4.47406e-01,-2.35508e-01,-1.12306e+00,-7.79610e-01,-2.62890e-01,2.45919e-01,2.77066e-01,4.92078e-02,1.90519e-02,5.44608e-02,1.70617e-01,2.85627e-01,-2.17940e-01,-6.83923e-02,2.85125e-01,-2.38347e-01,-5.01780e-01,4.46429e-01,3.38821e-01,8.56473e-01,-4.06551e-01,5.26310e-01,1.15319e-01,3.17329e-01,-1.65367e-01,2.34954e-01,-8.01639e-03,1.92109e-01,2.14940e-01,-4.20238e-01,-4.81324e-01,2.33822e-01,3.16669e-01,5.57361e-01,1.49419e-01,-6.17425e-02,1.87841e-01,7.48545e-02,2.10433e-01,2.46316e-02,-8.43437e-02,1.09830e-01,1.78943e-02,3.12616e-02,-3.51493e-01,9.36610e-01,4.87535e-02,1.66850e-01,2.58189e-01,8.15941e-01,2.16284e-01,-2.49804e-01,-4.04126e-01,4.80327e-01,1.59089e-01,2.53349e-01,7.54363e-02,-7.08102e-02,2.38751e-02,2.58693e-01,2.71458e-01,3.10496e-01,-1.38467e-01,6.64605e-02,1.84131e-01,2.43512e-01,2.10621e-01,6.26652e-02,-1.23432e-01,1.78358e-01,6.39947e-01,2.36606e-01,4.35074e-01,9.14500e-01,4.25621e-03,2.41761e-01,2.94796e-01,3.35263e-01,3.00851e-01,2.39730e-01,-1.31649e-01,1.02943e-01,1.62496e-01,2.70932e-01,2.28797e-02,-5.64919e-02,-1.26645e-01,7.28200e-02,3.32537e-02,5.55174e-02,-1.71008e-01,3.12284e-01,2.94358e-01,1.51743e-01,2.56584e-01,-2.69399e-02,-1.19421e-01,2.14432e-02,-1.00460e-01,-2.65339e-02,-6.22987e-01,-3.22270e-01,2.94778e-02,-1.36383e-02,7.53360e-01,-6.94134e-02,9.53118e-02,4.23857e-01,-5.19693e-01,-3.80880e-01,-1.31772e-01,3.75919e-01,1.51991e-01,1.74059e-01,-1.08430e-01,4.18870e-02,2.92784e-01,3.04448e-01,1.72339e-01,3.16384e-01,1.00862e-01,3.03170e-01,9.14493e-02,3.09530e-01,4.37867e-02,-1.04253e-01,-4.42795e-01,-1.84141e-01,-9.33941e-01,-4.52851e-01,-1.67310e-03,7.58475e-02,6.15907e-01,-5.16424e-01,-2.36647e-01,-4.10513e-01,-5.82492e-01,-6.88428e-01,-1.49367e-02,1.92276e-01,1.48180e-01,2.20869e-01,-1.36806e-01,4.75820e-02,1.18337e-02,2.07970e-01,1.56990e-02,8.86083e-02,-1.34574e-01,4.17524e-02,3.10946e-01,1.30236e-01,7.62567e-02,-2.50308e-01,-6.52362e-01,-1.33804e-01,5.48138e-02,-8.42383e-02,3.15214e-02,6.45626e-02,2.77607e-01,-9.74863e-01,-4.40830e-01,-1.42369e-01,-4.14016e-02,-3.34818e-01,3.72231e-01,2.02691e-01,-3.14625e-03,5.35674e-02,-5.85840e-02,5.45966e-02,9.99622e-02,-6.07255e-02,-8.10268e-02,5.37573e-02,2.11343e-01,1.62620e-01,-7.92585e-03,4.13767e-01,1.72247e-01,-1.08554e-01,-2.24073e-01,3.91342e-01,-2.19507e-02,-8.11644e-01,-5.34463e-03,1.85007e-01,1.39815e-01,-8.69297e-01,-1.53339e-01,-2.83911e-01,4.71032e-03,1.51577e-01,5.17077e-02,1.82263e-01,9.23860e-02,-1.60712e-03,1.05719e-01,-5.23640e-02,-4.67592e-02,2.21945e-03,3.60127e-02,2.19928e-01,5.92555e-01,1.70713e-02,-1.92036e-01,3.25780e-01,2.82312e-01,-2.68296e-01,1.26433e-01,5.79584e-01,-1.17868e-01,-8.60109e-01,-7.21943e-02,1.27891e-01,2.26883e-01,-4.51022e-01,-2.00210e-01,-5.50293e-01,-1.47607e-01,-4.46904e-02,1.63574e-01,4.44307e-01,-9.93924e-02,-3.76889e-02,-1.96697e-02,1.88014e-01,-5.35205e-02,1.60392e-01,1.30794e-01,2.04435e-01,2.53143e-01,-3.25265e-01,-1.05032e-01,4.84239e-02,1.16369e-01,1.72808e-01,1.67703e-01,3.01501e-01,6.41614e-02,-6.17515e-02,1.17489e-01,5.85149e-01,-5.82334e-02,3.30795e-01,-2.85538e-01,-5.02539e-01,-3.34222e-02,9.48952e-02,1.35987e-01,1.34466e-01,-4.13994e-02,1.12247e-01,-1.42713e-01,-1.21087e-01,-1.26689e-01,1.22191e-01,1.86384e-01,-8.87417e-02,-7.90309e-02,-4.04811e-01,-1.12539e-01,-1.09767e-01,-6.99913e-02,1.41602e-01,5.24776e-01,3.58964e-01,-1.25045e-01,1.44533e-01,-1.23399e-02,7.03072e-01,-5.82118e-01,1.69782e-01,-8.73466e-02,-1.90880e-01,-7.66046e-02,3.02295e-01,1.33470e-01,-5.26070e-03,9.85554e-02,-3.13448e-01,-4.10634e-01,-2.31776e-01,-4.44607e-01,-2.81906e-01,-3.64018e-02,7.60666e-02,-9.39594e-02,-3.71482e-01,3.34748e-02,-3.95732e-01,3.80025e-02,1.14598e-01,3.28794e-01,1.39241e-01,-7.25988e-01,2.26504e-01,2.85312e-02,4.32890e-02,-4.93417e-01,8.55373e-02,-6.88250e-01,-4.81411e-02,2.01477e-01,2.18866e-01,3.55731e-02,2.81360e-02,1.14317e-01,-3.47576e-01,-4.81042e-01,-1.15934e-01,5.18044e-02,-7.06242e-03,-1.38849e-02,6.09691e-02,-1.67101e-01,-3.86298e-01,1.65114e-01,-8.80431e-02,-6.59564e-02,2.38946e-01,-1.23854e-01,7.71489e-02,-3.99969e-02,6.78480e-03,3.55506e-02,4.57443e-02,1.56983e-01,-5.20856e-01,-1.00996e+00,-2.35546e-01,2.29156e-01,1.76969e-01,5.32107e-02,1.63194e-01,-5.10291e-03,-3.95286e-01,-1.49328e-01,-2.66895e-02,-9.68209e-02,-1.43789e-02,7.30145e-02,-1.50250e-01,-4.31775e-01,-5.57389e-01,-3.96838e-02,3.15116e-01,9.74131e-02,-2.29051e-01,-4.19899e-02,-2.97834e-02,1.40899e+00,-2.70157e-02,3.04596e-02,-1.54124e-02,-2.03404e-01,-5.87289e-03,-7.87812e-01,1.90191e-01,2.68696e-01,3.20204e-01,1.86145e-01,2.07377e-01,2.93757e-01,4.61308e-01,-6.07035e-02,-7.27245e-01,4.29177e-02,2.06410e-01,-2.15738e-01,-3.31062e-01,-3.86685e-01,-4.07220e-01,-2.48050e-01,-1.55835e-01,-3.30354e-02,5.13425e-02,9.15360e-03,-7.14556e-01,1.45129e+00,5.90179e-03,2.25122e-02,5.42478e-03,-1.12387e-01,5.57490e-01,-7.75854e-01,-2.98231e-01,-4.04086e-01,-5.78040e-02,-1.35094e-01,7.15677e-02,-5.32460e-01,-7.58013e-03,7.05762e-04,-4.34824e-01,3.83552e-01,3.49030e-01,-3.16465e-01,2.44741e-01,-1.29590e-01,8.10856e-02,2.56486e-01,2.85443e-01,6.82719e-01,-5.25856e-02,-9.01599e-02,-2.69327e-01,-3.35983e-02,-2.45645e-02,1.09846e-02,-5.97564e-03,-2.68661e-01,8.37818e-02,-1.14979e+00,-1.01600e+00,-9.81953e-01,-9.22338e-01,-7.15997e-01,-4.88920e-01,-2.03435e-01,3.22366e-01,2.47759e-02,-1.81652e-01,5.62265e-01,2.17056e-01,9.67391e-02,1.84305e-01,4.52878e-01,1.06419e-01,-1.07376e-01,3.18701e-01,6.92173e-02,4.50221e-01,1.75988e-01,-6.02937e-01,1.95366e-02,-1.63896e-04,-7.31683e-03,-1.15025e-02,-1.91047e-02,2.03812e-02,3.81393e-01,-2.82490e-02,-7.58996e-01,-1.05714e+00,-9.76942e-01,-8.27158e-01,-9.03145e-02,4.11938e-01,-3.44855e-02,-2.30850e-01,-5.19775e-01,-7.38092e-01,1.96928e-01,5.84683e-02,-5.41235e-01,-2.60954e-01,-9.93760e-01,-5.85595e-01,-6.61350e-01,-2.28218e-01,-7.71030e-01,1.89048e-02,3.55787e-02,1.52026e-02,-9.73069e-03,5.57947e-03,9.97141e-03,-1.16536e-02,-1.92258e-02,1.05551e-02,-4.79084e-01,-5.20118e-01,-6.34924e-01,-9.62268e-02,1.43348e-01,-3.78636e-01,1.84762e-01,3.13677e-01,2.85034e-01,4.74872e-02,6.20554e-01,5.61105e-01,-1.01463e-01,4.50898e-01,7.00164e-01,5.50318e-01,5.37535e-01,3.38063e-01,1.76982e-02,3.36588e-02,-4.17761e-03,2.30525e-02,
-1.76967e-02,3.83795e-03,-2.26810e-02,-1.16364e-03,2.42718e-02,3.44168e-02,-2.34528e-02,3.01039e-02,-1.60060e-02,-5.88573e-03,5.78946e-03,-2.70900e-02,-9.88728e-03,-1.82627e-02,1.18539e-01,1.70901e-01,-2.01151e-02,2.68603e-02,-3.36440e-02,3.21509e-02,-3.23266e-02,-2.25177e-02,-1.77710e-02,1.52198e-02,2.30305e-02,3.20996e-02,-1.81637e-02,-3.53953e-03,-1.23334e-02,-3.49087e-02,-2.97529e-02,-1.68936e-02,-9.39102e-02,-1.27374e-01,-2.50248e-02,-8.77962e-02,-1.44105e-01,-2.38121e-01,-7.75762e-01,-8.33162e-01,-9.89621e-01,-7.36666e-01,-1.26955e-01,4.77848e-01,5.38390e-01,5.55527e-01,-8.86489e-01,-7.55061e-01,-7.41911e-01,-3.75081e-01,-3.42838e-01,-3.84888e-01,-9.90584e-03,1.89176e-03,3.20966e-02,-6.33897e-03,-2.07612e-02,-3.10509e-03,-1.62538e-01,8.72739e-02,-7.46844e-02,-1.85091e-01,-3.97324e-01,-6.11068e-01,-2.29493e-01,-3.74398e-01,6.42604e-02,-4.13185e-01,2.20567e-01,5.14681e-01,2.98688e-02,-3.03863e-01,-2.69344e-01,-9.08729e-02,-4.78860e-01,-8.68694e-01,-5.75557e-01,-9.29728e-01,-9.07554e-01,-9.41808e-01,-7.11109e-01,-2.21821e-01,-5.62682e-03,-7.14155e-03,3.36133e-02,1.47895e-02,6.15918e-01,5.79035e-02,2.11387e-01,-4.60288e-01,-3.02910e-01,-2.50378e-01,-2.22010e-02,1.43002e-01,-2.10892e-01,-1.88462e-01,1.89924e-01,3.84034e-01,-1.66036e-01,6.79357e-02,7.45308e-02,3.15516e-02,-1.51571e-01,-3.65289e-01,-5.12966e-01,-8.26928e-01,-1.07599e-01,3.06095e-01,-2.47725e-01,-5.35191e-02,-7.13083e-01,-2.55288e-02,-2.47822e-02,-1.96878e-03,6.88478e-01,2.74508e-01,3.66902e-03,-5.49977e-01,-8.13095e-01,-6.31363e-01,-5.80764e-02,1.41677e-01,-3.41229e-02,-1.66642e-01,9.64076e-02,2.81188e-01,3.06926e-01,2.01240e-01,3.09681e-01,4.16661e-01,-2.40033e-01,-2.10071e-01,-3.67378e-01,-2.90875e-01,-1.63460e-02,-2.11726e-01,-2.67642e-01,-2.63805e-01,7.17489e-02,-1.38552e+00,-1.80044e-02,2.70235e-02,-3.45453e-02,-3.31639e-01,-6.59740e-01,-3.94974e-01,-1.18433e-01,1.56454e-01,2.39888e-01,2.26009e-01,2.29095e-01,5.49021e-01,2.26199e-01,9.94273e-02,-3.96112e-02,-1.40883e-02,8.82725e-02,2.55803e-02,-3.64457e-01,-1.66794e-01,-1.24354e-01,-2.09551e-01,-9.12701e-02,-2.53592e-01,2.10478e-01,2.08978e-01,-3.10101e-01,-1.08220e+00,8.44872e-03,1.07201e-01,1.33656e-01,-8.66060e-01,-6.13609e-01,1.41376e-02,8.67859e-02,2.31984e-01,9.05636e-02,5.79583e-02,1.68163e-01,1.06652e-01,5.65442e-02,7.51743e-02,-8.77773e-02,-1.16242e-01,4.34597e-02,2.44128e-02,-1.10780e-01,-1.52673e-01,1.61822e-01,-2.10638e-02,1.13084e-01,3.84506e-01,1.04261e-01,-3.45460e-02,4.88165e-01,-4.32350e-01,1.70487e-03,8.79969e-03,4.28531e-02,-1.61990e-01,-1.48410e-01,-6.16685e-02,1.51809e-01,1.96420e-01,9.63917e-02,1.87063e-01,3.01261e-01,-2.33180e-02,-5.22070e-02,-9.05282e-02,-2.31195e-01,5.97273e-02,8.17904e-02,1.72312e-01,3.15809e-01,1.56730e-01,4.40110e-01,4.51242e-01,6.22407e-01,5.63634e-01,1.82902e-01,-3.72189e-01,4.20642e-01,-5.63476e-01,1.11946e+00,-5.07562e-02,1.40396e-01,6.62024e-02,8.92139e-02,2.73762e-01,4.84612e-01,4.16959e-01,2.63030e-01,3.21776e-01,2.61076e-01,1.60777e-01,1.81548e-01,1.40678e-01,-6.69772e-02,7.74626e-02,1.91796e-01,3.83244e-01,5.24791e-01,3.99930e-01,3.49482e-01,1.87955e-01,3.79454e-01,1.06987e-01,2.15528e-02,-3.46597e-02,5.87508e-01,1.34879e+00,5.76355e-02,1.14894e-01,4.54066e-01,-1.63347e-01,8.23550e-02,6.22072e-02,5.98377e-01,5.91350e-01,5.98727e-01,1.49298e-01,5.25947e-03,5.85701e-02,-5.75735e-02,1.06050e-01,4.89186e-02,1.88142e-01,3.96773e-01,3.38764e-01,1.22514e-01,4.46861e-01,3.02471e-01,1.98941e-01,9.01043e-02,1.79642e-01,-1.02003e-01,5.02178e-01,1.85575e-01,-9.48192e-01,4.66859e-02,3.64354e-01,1.01627e+00,-3.82313e-01,6.86241e-01,-9.28692e-02,5.17950e-01,3.25087e-01,1.81406e-01,1.63093e-02,1.20021e-01,-6.84156e-02,-5.89608e-03,-7.05920e-03,1.60866e-01,1.82993e-01,2.96651e-01,2.64205e-01,6.16295e-03,-4.87757e-02,2.33426e-01,3.47390e-02,-1.01873e-02,-1.50481e-01,-2.13424e-01,1.60459e-01,-2.20111e-01,-4.15701e-01,-1.45734e-02,3.39510e-01,2.53548e-01,-1.07163e-01,7.26276e-01,3.73278e-02,1.63924e-01,-4.89347e-02,-3.11474e-01,1.10642e-02,8.52799e-02,-1.43096e-01,-8.68023e-02,-8.58122e-03,2.27530e-02,1.67423e-01,1.77053e-01,4.01910e-02,-2.49522e-01,-1.50385e-01,1.20050e-02,-2.34931e-01,-3.94417e-01,-2.50899e-01,-1.59928e-01,4.98695e-01,9.73209e-01,-1.27169e-01,-1.63672e-01,1.54916e-01,2.85927e-01,-6.25433e-02,3.38351e-01,2.51733e-01,-1.88145e-01,-2.02841e-01,-4.32710e-01,-7.15542e-02,-2.59454e-01,-3.05907e-01,4.80798e-03,3.04153e-02,-1.07256e-01,-6.43513e-02,3.57604e-02,5.43588e-02,-3.17508e-01,4.63043e-02,-9.61225e-02,1.20875e-02,2.62634e-02,1.05366e-01,-6.73008e-02,-1.26367e-01,-3.08777e-01,-5.19571e-01,-1.65676e-02,-1.10460e-01,2.61449e-01,-1.45797e-01,-2.11384e-01,-5.19214e-03,-4.15509e-01,-1.96335e-01,1.37252e-01,3.02750e-01,-4.46679e-01,-1.48363e-01,-2.62652e-02,-1.36397e-03,9.52008e-02,2.01620e-01,1.02880e-01,-2.11376e-02,-1.79036e-01,-2.34588e-01,-2.44512e-01,-4.22628e-02,1.91951e-01,-3.16961e-01,-7.12804e-01,-4.75006e-02,-2.04224e-01,-3.86020e-01,-1.61115e-01,-2.12882e-01,2.12812e-01,-3.58572e-01,-2.14047e-01,-5.08059e-01,-3.13697e-01,-1.23415e-01,9.04374e-02,-1.89504e-02,-2.57251e-01,-9.66648e-02,-8.08417e-02,8.40615e-02,2.82495e-01,1.36235e-01,-1.03607e-01,2.12822e-02,-2.47134e-01,-1.99764e-01,-2.58283e-01,-2.87134e-01,4.07349e-02,-5.88591e-01,-7.81932e-01,1.12178e-01,2.90502e-01,-3.10111e-01,-1.53515e-01,2.51635e-01,-1.29718e-01,-8.94129e-01,-1.08135e-01,-3.98278e-01,-4.13461e-01,-1.39853e-01,7.50595e-02,1.72164e-01,-2.08138e-01,1.51477e-01,1.99213e-01,2.25496e-01,2.93895e-01,9.91017e-02,-9.19661e-02,-4.48369e-02,-1.59843e-01,-3.84109e-01,-1.28608e-01,-3.16604e-01,-9.14895e-02,-5.15512e-01,-3.92325e-01,6.69147e-02,-4.97007e-01,-1.38819e-01,-2.21342e-01,-2.05793e-02,-2.43712e-01,-5.16021e-01,-3.77821e-01,-2.84891e-01,-4.36485e-01,-3.39802e-01,-7.72809e-03,2.70525e-01,2.25588e-01,3.08417e-01,2.66110e-01,1.31655e-01,3.72394e-02,-1.88610e-02,-3.79902e-02,1.32496e-01,-1.62575e-01,-2.97705e-01,4.36914e-02,4.63688e-02,-3.34107e-01,-2.93987e-01,-2.98670e-01,-1.65949e-01,1.10857e-01,1.58150e+00,2.35958e-02,-3.56710e-02,-7.85525e-02,-6.70138e-01,-3.03017e-01,-7.08318e-02,-3.27936e-01,-3.03878e-01,-8.26253e-02,1.49716e-01,2.44125e-01,2.64200e-01,3.91002e-01,-1.06188e-01,4.84588e-02,-7.53508e-02,2.34035e-01,1.16949e-01,-5.11510e-02,5.21403e-02,2.76015e-01,6.41598e-02,-1.99151e-01,-1.49638e-01,1.73818e-01,-4.29994e-01,3.08750e-01,1.62514e+00,2.35461e-01,1.73399e-01,3.53824e-01,-7.07277e-01,-4.54693e-01,-1.02223e-01,-3.67778e-01,-9.96084e-02,1.32873e-01,2.37683e-01,1.48537e-01,1.03593e-01,2.54100e-01,8.62125e-02,-1.21542e-01,3.42417e-02,1.38202e-01,-1.47770e-01,-1.91585e-01,2.81332e-01,2.29124e-01,-2.03605e-01,-2.48188e-01,-4.03540e-01,-1.59797e-01,-4.98730e-01,2.04151e-01,1.97233e-01,1.67995e-02,-3.05820e-02,2.76448e-01,-2.16133e-01,-7.83753e-01,-3.14795e-01,4.85552e-02,2.06445e-01,3.12554e-01,2.57489e-01,2.83241e-01,-2.01755e-01,1.21666e-01,1.96755e-01,-1.90817e-01,1.26374e-01,1.56271e-01,1.83317e-01,-2.49827e-01,2.09002e-01,3.09966e-02,1.40376e-02,2.57468e-03,-3.08017e-01,-2.82816e-01,-3.68498e-02,-6.74053e-01,2.33957e-01,2.86503e-02,4.86315e-01,-2.52702e-01,9.95466e-02,-6.64052e-01,-1.67862e-01,-3.04931e-02,5.65423e-02,2.51995e-01,6.72179e-02,3.29177e-02,1.04858e-01,2.82502e-01,4.94628e-02,-2.45893e-01,1.87815e-01,1.10900e-02,1.09747e-01,-8.22404e-02,2.65114e-01,8.17159e-02,3.32552e-02,1.47811e-02,-1.14601e-01,-5.57069e-01,-1.59589e-01,-1.97929e-01,-6.94785e-02,4.51944e-02,4.86894e-01,-2.50611e-01,2.53037e-01,-2.42812e-01,-3.61698e-01,-7.41669e-02,-1.79250e-01,-2.01395e-01,3.64706e-02,1.04109e-01,2.02151e-01,3.47352e-01,1.58322e-01,-5.71858e-02,-2.25139e-02,-3.63099e-02,1.60343e-01,8.37386e-02,-2.11062e-03,-1.53305e-01,9.08166e-02,3.80966e-01,2.13252e-01,-4.68895e-01,-5.48874e-01,6.61827e-01,-6.43527e-02,3.54507e-02,3.16558e-01,-2.33778e-02,6.42724e-01,5.86617e-01,1.93980e-01,-1.14158e-01,-1.85776e-01,-3.38060e-01,-1.16925e-01,1.17614e-01,2.86297e-01,2.41326e-01,1.93781e-01,1.78613e-01,-2.05121e-01,-8.55265e-02,2.49115e-02,-1.15443e-02,-8.16506e-02,1.42672e-01,1.45758e-01,3.78071e-01,5.16992e-01,1.39655e-02,-7.64930e-02,-1.23995e-01,-8.42870e-02,-9.16530e-03,-3.32322e-02,4.24421e-01,2.27027e-01,9.12166e-01,2.39668e-01,-2.48886e-02,1.79378e-01,3.38946e-02,2.46345e-01,1.38442e-01,2.87158e-01,4.00797e-01,3.28274e-01,7.04460e-02,-2.88433e-02,2.31550e-01,4.64734e-02,1.05160e-01,-1.16780e-02,1.85648e-01,-2.22861e-01,2.49155e-01,3.70953e-01,7.60674e-02,-2.49881e-01,-5.81146e-01,-2.31398e-04,8.41464e-03,-1.54209e-02,4.11308e-01,2.08868e-01,-9.36131e-02,-8.65529e-02,-1.89756e-01,-2.95582e-01,1.37874e-02,-6.35573e-02,-2.76948e-01,4.31187e-02,2.86857e-01,7.47773e-02,9.52847e-02,1.48979e-01,3.18601e-02,-6.56209e-02,1.43570e-01,-2.47981e-01,-5.49635e-01,-8.19322e-01,-2.12168e-01,2.21349e-01,9.10929e-02,-6.58955e-01,-5.37160e-01,-1.85178e-02,-2.37873e-02,-2.98351e-02,-1.78811e-01,-1.99543e-01,-7.38279e-01,-4.90630e-01,1.60017e-01,-7.79817e-04,-2.60550e-01,6.52868e-03,-1.65391e-01,-1.52668e-01,-3.25162e-01,-1.88075e-01,2.22294e-01,2.55539e-01,-1.08055e-01,3.02134e-02,-1.30940e-01,1.85700e-01,-8.67389e-01,-1.45956e+00,-9.50098e-01,-3.18017e-01,4.79574e-01,-8.07794e-01,-5.77500e-01,-5.79801e-03,3.18688e-02,-1.55418e-02,3.14317e-02,-9.50031e-02,-3.34891e-01,-9.80038e-02,-1.77503e-01,1.56727e-01,5.73503e-01,-4.47519e-01,-4.67255e-01,-1.19619e-01,-6.04251e-01,8.12670e-02,5.12678e-02,4.59641e-02,-6.51973e-02,5.75281e-01,8.13113e-01,2.90671e-02,-9.27208e-02,-7.04113e-01,-3.71969e-01,5.24304e-01,2.90216e-01,-2.75877e-02,-2.76708e-02,3.92523e-03,-6.17736e-03,-1.83188e-02,-1.03559e-02,1.60439e-02,1.56619e-01,1.18456e-01,6.13759e-01,7.80214e-01,5.63309e-01,5.92169e-02,8.66154e-02,-3.86090e-03,-2.27298e-01,-3.75198e-02,3.86370e-01,3.67618e-01,3.49049e-01,1.01146e-01,2.93885e-01,-1.30923e-01,-3.54397e-01,-6.74552e-01,-3.44656e-01,-2.35513e-01,-3.50969e-02,1.57812e-02,2.01076e-02,2.96328e-02,
-2.37600e-02,1.43525e-02,-1.89488e-02,-1.79769e-02,-3.26830e-02,-1.51956e-03,2.41682e-02,3.10167e-02,1.39804e-02,-1.30272e-02,-1.59161e-02,-6.06083e-03,-2.95447e-02,2.72247e-02,2.10816e-02,6.10697e-03,-3.54736e-02,-1.94965e-03,-3.07060e-02,-2.17722e-02,-2.65958e-02,-2.96348e-02,1.38568e-04,-8.94384e-03,-1.82844e-02,1.29492e-02,-2.15945e-02,2.21551e-02,-3.54887e-02,2.71091e-02,-6.91598e-03,1.55149e-03,7.67296e-03,1.01970e-02,-1.53932e-02,1.76103e-03,1.57932e-02,-1.19866e-02,-2.33790e-02,2.85461e-02,-2.04296e-02,-2.28639e-02,-8.23689e-03,1.07628e-02,2.50068e-02,-1.14372e-02,-2.32125e-02,2.75986e-02,4.98741e-03,-2.38077e-02,-2.10465e-02,2.98502e-02,-2.72074e-02,1.92553e-02,-3.41397e-02,3.39213e-02,-3.86428e-03,1.19266e-02,-1.96438e-02,8.35157e-03,9.99695e-03,1.64601e-02,-3.07889e-02,-1.36796e-02,3.20463e-02,-1.41129e-02,-1.41697e-02,5.13483e-03,-3.32713e-02,-8.59529e-03,3.32727e-02,-4.28472e-04,6.27424e-03,4.40015e-02,5.15127e-02,-3.44034e-02,-3.41181e-02,2.07306e-02,-2.33977e-02,8.97710e-03,-2.47441e-02,1.14168e-02,3.81655e-03,-1.43376e-03,-2.48433e-02,-1.35433e-02,3.12150e-02,5.58611e-03,7.06352e-03,-1.96887e-02,-1.00195e-02,-1.26514e-03,-5.22717e-02,6.11478e-03,-4.81081e-02,-1.65358e-02,-3.40210e-02,9.06690e-04,-4.60146e-02,2.98912e-03,-2.21104e-03,-2.67589e-02,-2.00644e-02,1.02333e-02,-7.72231e-03,5.97349e-02,2.93975e-02,-4.31200e-03,-3.07080e-02,3.62658e-03,-1.27536e-02,-2.71691e-02,-1.99135e-02,-1.57527e-02,-1.50558e-02,2.01271e-02,-1.41553e-02,2.71738e-02,-3.89367e-02,1.22531e-03,-8.41392e-03,-1.03857e-02,-6.03297e-02,-1.76987e-02,-2.81191e-02,-2.46940e-02,-3.10177e-02,-6.08918e-02,-3.24109e-02,-1.33230e-02,9.95108e-03,4.81928e-03,-9.10375e-03,1.00435e-04,2.30529e-02,1.50000e-02,2.23857e-02,-2.21705e-02,1.67401e-02,-2.36528e-02,-6.12210e-03,1.01241e-02,-3.02117e-02,-1.60833e-02,-2.68293e-02,-4.44373e-02,-3.09080e-02,-1.92443e-02,4.38562e-03,-6.24248e-03,-3.20216e-02,-5.50366e-02,-5.14339e-02,-1.07237e-02,-3.32734e-02,-3.16325e-02,2.33778e-02,-1.17219e-02,-3.43957e-02,2.73998e-04,-9.59287e-03,-4.18586e-02,-3.24930e-02,-1.05561e-02,-3.67102e-02,6.75757e-03,1.78042e-02,1.44835e-02,7.55135e-03,-2.40763e-02,2.59895e-02,1.08832e-02,-8.29461e-03,-3.27633e-03,-4.25748e-02,-3.46105e-02,-2.50237e-02,-4.09595e-02,-2.54632e-02,-4.94706e-02,-3.14214e-03,-4.26363e-02,-3.00034e-02,-6.98409e-04,-6.63707e-03,-2.21276e-02,-4.69609e-03,-4.40773e-02,-2.29780e-03,-1.18320e-02,-5.62346e-02,-2.20565e-02,-4.47509e-02,1.25881e-02,1.64952e-02,3.50994e-02,1.17011e-02,1.81376e-02,1.93737e-02,2.21842e-03,7.70168e-03,-1.62085e-02,-5.60702e-03,-5.98232e-02,-2.13801e-02,-3.70735e-02,-5.21050e-02,-4.37578e-02,-3.43692e-02,-4.30130e-02,-2.92655e-02,-6.18745e-03,-1.73965e-02,-2.74482e-02,-5.84321e-02,-4.11992e-02,-1.04498e-02,-5.21805e-02,-2.05040e-02,-5.30232e-03,-8.74360e-03,4.00819e-03,-1.15217e-02,1.12645e-03,-7.07679e-03,-5.33213e-03,-3.42094e-02,-1.70332e-02,-1.52027e-02,-1.60184e-02,-5.51303e-03,-3.82475e-02,-1.43513e-02,-1.84734e-02,-5.43752e-02,3.29130e-03,5.41592e-03,2.49237e-04,-3.09889e-02,-7.55683e-02,-6.09072e-02,-4.18051e-02,-8.19077e-03,-6.72313e-02,-6.82138e-02,-1.28940e-02,-9.21837e-03,-3.59525e-02,1.66616e-02,1.71133e-02,1.15758e-03,-6.81331e-03,-2.92569e-02,4.28642e-03,-1.32265e-02,1.81393e-02,-1.82250e-02,-3.10369e-03,-1.86790e-02,1.50465e-03,-5.35073e-02,-1.56275e-02,-5.59993e-02,-3.84916e-03,-4.72293e-02,-1.10915e-02,2.20548e-02,-2.03615e-02,-7.30375e-02,-4.87475e-02,-6.27548e-02,-6.86909e-02,-6.94323e-02,-1.03598e-02,-4.33919e-02,-5.56600e-02,-3.69898e-02,-3.50487e-02,1.10474e-02,-2.03548e-02,3.29312e-02,-2.71687e-02,-3.13801e-02,-2.71587e-02,-2.31726e-02,-1.62533e-02,-6.88979e-02,-2.56397e-02,-5.60226e-02,-3.03623e-02,-4.21365e-02,-9.32272e-03,-3.02205e-02,-3.46056e-02,-4.81784e-02,-4.76111e-02,-6.13219e-02,-4.57101e-02,-2.63562e-02,-7.55239e-02,-6.12363e-02,-5.35808e-02,-5.55068e-03,-4.35321e-02,-2.42782e-02,-1.88876e-02,2.16856e-02,1.31118e-02,-2.72738e-02,-2.55304e-02,-1.69580e-02,-3.27720e-02,-1.51436e-02,-3.37255e-03,-6.78619e-02,-1.96623e-02,-3.04024e-02,-3.20792e-02,-1.43232e-02,-4.04129e-02,-1.47332e-02,-2.58187e-03,-1.35233e-02,-6.18053e-03,-9.82701e-03,-1.88689e-02,-5.47477e-02,-4.13477e-02,-1.54302e-03,-6.93670e-02,-2.54855e-02,-4.06428e-02,-9.07791e-03,-3.44626e-02,-8.86985e-03,2.68701e-02,1.28847e-02,-2.03590e-02,-2.63083e-02,-1.42701e-02,-7.66397e-04,-2.57605e-02,-2.87447e-02,-5.57470e-02,-3.50557e-02,6.29108e-03,1.67643e-02,1.72981e-03,-4.95743e-02,-1.67852e-02,-8.90229e-03,-4.68098e-02,-6.28745e-02,-5.80455e-02,-3.03563e-02,-1.40744e-02,-2.64713e-02,-5.45823e-02,-3.44389e-02,-2.37977e-02,-1.88554e-02,-6.47131e-03,-2.12396e-03,2.21400e-02,1.45180e-02,1.22666e-02,-3.18294e-02,-1.07215e-02,1.67783e-02,-4.31756e-02,-5.08392e-02,-1.79137e-02,-5.83098e-03,1.86526e-02,-3.88765e-02,-7.48078e-03,-5.95792e-02,-5.03733e-02,-1.19699e-03,-1.88093e-02,6.71673e-03,-2.33373e-02,-6.09352e-02,-9.46448e-03,-1.16520e-02,-7.54713e-03,3.11858e-02,-4.24698e-02,2.08832e-02,3.43457e-02,1.77212e-02,-2.90965e-02,-9.69044e-03,5.84259e-03,-2.01670e-02,2.33955e-02,3.17853e-02,-1.46507e-02,-2.33420e-02,-4.72805e-02,-3.17199e-02,-2.50370e-02,2.77430e-03,-3.87662e-03,-5.24361e-02,-1.57448e-02,-5.41105e-02,-2.79087e-02,1.04143e-02,9.64061e-03,-2.02457e-03,-1.28495e-02,-5.54483e-02,-2.99148e-02,6.08536e-02,-4.52766e-02,2.28409e-02,1.63060e-02,-3.48768e-02,-3.24648e-02,2.43763e-02,2.25715e-02,8.96810e-05,-3.36635e-02,-2.76015e-02,-6.25195e-03,-3.27224e-02,-4.13629e-02,-1.80569e-02,-5.45105e-02,-1.97945e-02,-3.30379e-02,-1.39829e-02,-4.00543e-02,-2.59393e-02,-9.55057e-03,-6.96013e-03,2.83600e-03,-4.07003e-02,-4.88517e-02,-1.15098e-02,4.72736e-03,-1.71810e-02,-1.63456e-02,-3.07381e-02,1.08145e-02,-2.12752e-02,1.23900e-03,1.35944e-02,-2.29790e-02,-2.27180e-02,4.10026e-03,-3.30199e-02,-2.42954e-02,1.77541e-02,9.40541e-03,2.00966e-03,-1.74463e-02,-4.57588e-02,-3.90509e-02,-5.90437e-02,-6.04992e-02,-4.05284e-02,-2.49896e-02,-3.30846e-02,2.92207e-03,-6.13079e-02,-3.64073e-02,-1.67788e-02,-1.23193e-02,-3.46880e-02,-4.31602e-02,-4.48422e-02,2.19034e-03,2.89276e-02,2.90585e-02,-2.36275e-03,-3.08368e-02,-2.97116e-02,7.51036e-03,-1.66846e-03,-6.62231e-02,-2.78673e-02,-2.86223e-02,-8.55883e-03,5.83156e-03,-1.65028e-02,-5.72255e-02,2.11121e-02,5.48810e-03,-2.83219e-02,1.91867e-02,5.21551e-02,-2.31280e-02,-6.84746e-02,-3.22229e-02,4.95168e-03,1.95662e-02,-2.25345e-02,-6.63958e-03,-5.82037e-02,-2.09527e-02,1.41757e-02,9.00331e-03,2.95888e-02,-1.00947e-02,1.90996e-02,9.73664e-03,-2.43676e-02,-1.98076e-02,-1.05804e-02,-1.50498e-02,-3.95589e-02,-8.54908e-03,-5.74142e-02,2.74857e-03,-4.55046e-02,-6.02784e-02,1.88077e-03,9.66437e-03,3.04999e-03,-5.68494e-02,-6.05094e-02,-1.97635e-03,-3.77009e-02,3.99238e-03,1.06727e-02,-2.21812e-02,-1.36017e-02,7.67776e-03,2.64171e-02,1.81861e-03,1.91228e-02,-2.92741e-02,-2.32566e-02,-8.67255e-03,-4.19656e-03,-5.08737e-02,-2.45112e-02,-5.26465e-02,-3.68150e-02,-1.52165e-02,5.85233e-03,2.27315e-03,8.85901e-03,-3.53504e-03,-5.56660e-03,2.03400e-02,3.09942e-02,-5.27459e-02,-1.88616e-02,-3.98645e-03,-2.31862e-03,7.70977e-03,3.11602e-03,-2.39930e-02,-2.87444e-02,1.20411e-02,-3.03724e-03,-2.14978e-02,1.00925e-02,-1.40861e-02,1.37574e-02,-1.40349e-02,1.32054e-04,5.68581e-02,1.49124e-02,2.96294e-03,-5.72137e-02,1.76468e-02,1.72669e-02,1.25090e-02,2.85586e-02,4.38550e-02,-9.49650e-04,5.16924e-02,-1.71497e-02,1.31041e-03,6.15007e-03,-2.83145e-02,-2.06827e-02,-3.15861e-02,-1.76037e-02,-4.47494e-02,-1.19589e-02,-2.80667e-02,1.25825e-03,3.06344e-02,9.48912e-03,-3.05081e-02,2.41222e-02,3.60069e-02,3.32844e-03,1.57194e-02,-1.74967e-04,-3.39032e-02,-5.79462e-02,-8.47022e-03,-5.96608e-03,-3.30664e-02,-3.35431e-02,-4.30494e-02,1.92047e-03,-5.66882e-02,-4.72913e-02,-1.12708e-02,-9.02287e-03,-1.00779e-02,-4.05436e-02,-4.98336e-02,-1.55940e-02,-4.78097e-02,-1.06856e-02,-3.15781e-02,-1.52601e-02,7.13778e-03,-2.68615e-02,-3.19605e-02,-2.04462e-02,3.00375e-02,-1.31893e-02,-1.46608e-02,-2.89636e-02,2.81722e-03,-1.25749e-02,-2.56694e-02,-3.90723e-02,1.81628e-03,2.71905e-03,-8.18421e-03,-1.56081e-03,-4.80961e-02,-5.07655e-03,-4.63875e-02,-1.26746e-02,-7.55391e-03,6.97888e-04,-6.64770e-02,1.44100e-02,-1.50598e-02,-3.76517e-02,-2.44216e-02,-9.23250e-03,-1.64299e-02,3.45202e-02,1.63721e-02,1.61640e-02,-1.59211e-02,-1.90535e-02,-2.55120e-03,-3.11720e-02,1.18705e-02,-1.81192e-03,-1.95723e-02,-5.65130e-02,6.88793e-03,-4.36680e-02,-3.27970e-02,-5.64883e-02,-1.68519e-02,-4.31605e-02,-3.77811e-02,-4.02184e-02,4.19306e-03,-5.39388e-02,-3.39950e-03,-1.59536e-02,-4.53338e-02,-1.39688e-02,2.98747e-02,2.45072e-03,2.55947e-02,3.41937e-02,-2.71334e-02,3.53406e-02,-3.07717e-02,4.93926e-03,9.39110e-03,-2.88721e-02,2.94565e-02,-5.99670e-02,-5.04865e-02,-8.73087e-03,-1.78671e-02,-1.88929e-02,-2.12040e-02,-1.88671e-02,-6.13064e-02,-3.36514e-03,8.42603e-03,-4.64994e-02,-1.09531e-02,-3.37934e-02,-5.56963e-02,1.31335e-02,-4.58111e-02,1.42512e-02,-8.26000e-03,3.45137e-02,-2.35030e-02,-6.10703e-03,-1.39465e-02,-3.55486e-02,3.16181e-02,3.08755e-03,-9.00069e-03,2.73337e-02,-3.43838e-02,-3.76903e-02,-1.13709e-02,3.59403e-03,1.88007e-02,-1.15964e-02,1.73669e-02,-6.78574e-03,-5.57213e-03,-7.17784e-03,7.94048e-03,2.84670e-02,2.85726e-02,1.36396e-02,-1.33073e-02,-2.59575e-02,-2.57450e-02,2.11527e-03,9.11795e-03,-5.08985e-04,1.17030e-02,2.91385e-03,1.01296e-02,-4.87058e-03,-2.14562e-02,-1.72116e-02,3.34661e-02,-2.20486e-02,-2.21268e-02,-2.35747e-03,-3.39528e-02,-9.03537e-03,1.88432e-02,-2.46798e-02,6.30555e-03,2.15000e-02,-7.74049e-03,-3.45009e-02,3.92518e-03,-3.43984e-02,3.60538e-03,-2.35287e-02,1.05588e-03,-3.86344e-02,3.16166e-02,-3.49825e-02,-2.38901e-02,-1.79221e-02,-2.28391e-02,-3.14252e-02,-1.59689e-02,-5.98452e-03,-5.71535e-03,-6.16432e-03,1.63210e-02,2.38703e-02,-2.09110e-02,-3.21191e-02,2.68219e-02,-4.48221e-03,-7.01070e-03,2.75404e-02,3.05366e-02,1.11925e-02,1.85932e-02,-8.95810e-03,-1.40977e-02,-2.90025e-02,-2.61000e-02,-1.13843e-02,1.82522e-02,-1.47751e-03,-2.90906e-02,1.01134e-02,3.35783e-02,8.13153e-03,3.33071e-02,
2.22373e-02,-1.10384e-02,8.66962e-04,-1.64841e-02,-6.07748e-03,2.45590e-02,-1.47108e-02,-1.47529e-02,1.53910e-03,-3.49523e-02,3.10577e-02,-1.98772e-02,1.63472e-02,3.52501e-02,1.80244e-02,-1.10708e-02,-2.26946e-02,2.03520e-02,-3.43144e-02,1.93318e-02,-9.08112e-03,-7.36642e-03,-7.94145e-03,-1.32549e-03,1.75824e-02,6.38602e-03,-3.08416e-02,1.33868e-02,-2.86025e-02,-7.70437e-03,-2.05490e-02,1.92942e-02,-3.48522e-02,3.98022e-03,2.31892e-03,-1.13878e-02,-1.93253e-02,-2.68482e-02,1.24218e-03,-2.05913e-02,-5.04880e-03,1.82536e-02,3.28120e-02,2.07962e-02,3.51878e-02,-2.37181e-02,-7.86287e-03,-1.65373e-02,-3.47932e-02,-3.24481e-02,3.49254e-02,-1.49008e-02,2.44112e-02,2.70681e-02,-1.97402e-03,1.35392e-02,1.39009e-02,7.48861e-03,-1.13191e-02,3.32802e-02,-1.16383e-03,-2.74922e-02,3.39626e-02,-2.35574e-02,1.82655e-02,2.25639e-02,-1.29164e-02,3.33230e-02,1.22525e-02,3.33557e-02,-5.15980e-03,-1.42053e-02,2.78584e-02,-4.79834e-03,-3.52750e-02,1.62646e-02,-3.52460e-03,3.08499e-02,3.21144e-02,-1.98423e-02,2.18269e-02,3.33640e-02,2.89219e-04,-7.14819e-03,-2.87914e-02,2.63575e-02,-3.38917e-02,-3.33269e-02,2.43151e-02,2.72979e-02,-3.21732e-02,-1.38409e-02,5.56578e-02,-1.04518e-02,-4.89674e-03,5.05924e-02,-1.19631e-03,3.50096e-03,-7.35075e-03,-6.01717e-02,-2.03713e-02,-5.44084e-02,-1.46437e-02,-9.24792e-03,-2.87450e-02,-2.00579e-02,-4.42290e-02,-5.52467e-02,-4.51980e-03,-1.32396e-02,-3.39027e-04,-3.14530e-02,1.55172e-02,-1.83082e-02,-1.69969e-02,3.76372e-03,1.87257e-02,2.93292e-02,2.67830e-02,-2.03806e-02,1.54433e-02,-8.93282e-03,2.43588e-03,-1.82815e-02,-4.81114e-02,-5.91227e-02,-3.72138e-02,-6.57444e-02,-1.26543e-02,-4.38665e-02,6.48189e-05,-1.69126e-02,-2.97856e-02,-1.94065e-02,-4.83374e-02,1.67947e-03,-7.20151e-03,-2.41043e-02,3.17135e-02,-1.81578e-02,2.26578e-02,3.44037e-02,-1.65830e-02,8.15705e-03,-2.37873e-02,-2.70528e-02,1.97863e-03,-9.76862e-03,5.17589e-03,-5.64061e-03,-5.48608e-02,-4.11672e-02,-2.29837e-02,-3.52434e-02,-3.54899e-02,1.05092e-02,-2.26461e-02,7.26823e-04,1.35624e-02,-1.72004e-02,-3.32463e-02,-4.22937e-02,1.86809e-02,2.76904e-02,-8.37043e-03,-4.28088e-03,-1.52195e-02,1.49525e-02,-3.11157e-02,5.97716e-04,1.67339e-03,2.54486e-02,-1.32158e-02,-2.93767e-02,-2.77091e-02,-2.29800e-02,-9.41793e-03,-5.96775e-02,-1.37053e-02,-5.13627e-02,-3.69430e-02,-1.67885e-02,-5.33898e-02,-6.58718e-03,-6.03513e-03,1.44003e-02,-1.44731e-02,1.06666e-02,-1.77524e-02,6.97270e-03,1.44962e-02,2.41230e-02,6.60800e-02,4.32802e-02,9.73953e-04,9.49910e-03,1.71377e-02,2.83667e-02,3.16844e-03,-2.12256e-02,3.18966e-02,-2.53676e-03,-6.87722e-03,-6.38344e-03,-1.64082e-02,-1.34801e-02,-5.42701e-02,-5.62967e-02,-6.73071e-02,-6.07455e-02,-2.50412e-02,-1.98853e-02,-2.60819e-02,-5.69667e-03,-1.42803e-02,9.43293e-03,-6.96871e-03,-1.59232e-02,-1.75345e-02,4.78914e-02,7.94470e-02,5.11766e-02,5.92954e-02,-3.14442e-02,-1.67467e-02,-9.16141e-03,-2.94087e-02,8.45895e-03,2.58644e-03,2.48749e-03,1.39597e-02,-3.55373e-02,-3.13385e-02,-1.44103e-02,-5.53283e-03,-6.62277e-02,-4.87645e-02,-1.41557e-02,-2.57909e-02,-5.92187e-03,-3.95875e-02,-7.14359e-04,-4.71236e-02,-6.66703e-03,-1.16525e-02,-2.39120e-02,1.83698e-02,5.72873e-02,3.92237e-02,3.91861e-02,-1.94724e-02,-6.66447e-03,3.78331e-03,2.69949e-02,2.57977e-02,4.34376e-03,2.86675e-02,-2.57033e-02,-3.24935e-02,-6.09866e-03,-5.98530e-02,-4.23698e-02,-5.33700e-02,-2.78685e-02,-6.26902e-02,4.01374e-03,-1.08288e-02,8.06451e-03,-3.78645e-02,-5.37344e-02,-2.32084e-02,-2.81725e-02,-1.17266e-02,-3.20872e-02,-1.65898e-03,1.40603e-02,1.35433e-02,5.24265e-02,9.27343e-03,3.26988e-03,3.33175e-02,1.15713e-02,-2.05561e-03,3.34369e-02,-2.16584e-02,-9.83037e-03,-5.01456e-02,-3.34608e-02,-7.02618e-02,-6.97002e-02,-4.25600e-02,5.14250e-03,-6.48909e-03,-6.02554e-03,-3.34099e-02,2.30645e-02,-2.87926e-02,7.95823e-04,-2.81837e-03,-5.24856e-02,-2.11813e-02,-5.34213e-02,3.54169e-03,2.75745e-02,3.39962e-02,-1.53246e-02,-1.48611e-03,2.92611e-02,2.99467e-02,2.36008e-02,2.02784e-02,2.49812e-02,-2.32306e-02,8.52524e-03,-4.46338e-02,-1.21167e-02,-2.47581e-02,-5.79542e-03,-2.24182e-02,-1.01053e-02,-2.20068e-02,-9.90245e-03,-3.71559e-02,-6.17966e-02,-6.17304e-02,-4.50748e-02,-1.80152e-02,-7.35264e-03,-3.63331e-02,-5.40188e-02,-1.51496e-02,-1.92696e-02,2.50999e-02,-3.15110e-03,-2.78740e-02,5.98685e-03,9.79399e-03,2.96228e-02,1.77868e-02,2.88368e-02,-2.85079e-02,-3.67386e-02,-1.63961e-02,-4.04088e-02,-1.28218e-02,7.37207e-03,1.20978e-02,-7.74253e-03,-3.37531e-02,-9.55107e-03,-4.13328e-02,-6.99403e-02,-5.92698e-02,-6.36550e-02,-4.97536e-02,-1.18655e-02,-3.91081e-02,-4.69095e-02,-2.51083e-02,2.20314e-02,3.56307e-02,3.11141e-02,-7.15571e-03,-1.32953e-02,-8.88344e-03,1.70876e-03,-2.05478e-02,-3.13009e-03,2.04253e-02,-5.11148e-02,2.83736e-03,1.04433e-02,-5.18732e-02,-5.12226e-02,-4.86661e-02,-2.80750e-02,2.84456e-02,-2.19082e-02,-2.15430e-02,-5.83710e-02,-2.15603e-02,-4.73936e-02,-7.90299e-02,-8.25147e-02,-1.61018e-02,-3.16129e-02,2.05402e-02,-1.86428e-02,3.86402e-02,1.28735e-02,-1.56482e-02,1.66774e-02,1.57889e-02,3.47493e-02,2.43273e-02,-1.54069e-02,-6.49096e-03,-9.75434e-03,-5.15047e-02,-1.27250e-02,-5.80001e-02,-3.32998e-02,-4.81979e-02,-4.39448e-02,7.56170e-03,-3.30816e-02,-1.60568e-02,-1.33131e-02,-2.34468e-02,-4.38990e-02,-4.66557e-02,-6.99711e-02,-9.48363e-03,-2.81831e-02,1.64877e-02,1.29385e-02,3.42011e-02,2.76607e-02,-1.53399e-02,1.83814e-03,-2.92958e-02,-3.03573e-02,2.36677e-03,1.88700e-02,-3.90858e-03,-5.60749e-02,-1.43505e-02,-3.85879e-02,8.72443e-03,-4.46461e-02,-4.87812e-02,2.95934e-03,-6.14689e-02,-1.72831e-02,-6.37653e-02,-4.51956e-02,-4.44154e-02,-4.18111e-02,-4.19293e-02,-2.30629e-02,3.84547e-03,-4.51865e-02,-4.24492e-02,1.11486e-02,1.93128e-02,2.36875e-02,9.03105e-03,6.03926e-03,3.33009e-02,3.45126e-02,2.11486e-02,2.69929e-02,5.49362e-03,1.14957e-03,-1.60849e-02,-6.01030e-03,9.36974e-03,-3.79243e-02,-6.01967e-02,-1.52548e-02,-7.18990e-02,-4.21021e-02,-3.00372e-02,-5.63008e-02,7.39284e-03,-1.64365e-02,1.55618e-03,-2.33896e-02,-1.88423e-02,-3.31928e-02,-5.71802e-02,-4.39701e-02,-1.98361e-02,1.89114e-02,-1.32250e-02,2.33447e-02,-3.30621e-03,3.28805e-02,1.24851e-02,2.24687e-02,9.37532e-03,4.58117e-03,4.30297e-02,1.96210e-02,-7.62950e-03,-3.46930e-02,-1.62758e-02,-9.33187e-02,-4.58361e-02,-6.42935e-02,-1.85522e-02,-2.79200e-02,-1.67570e-02,1.99569e-02,2.64760e-02,-3.97543e-02,-3.99043e-02,-5.81116e-02,-6.01067e-02,-5.94758e-03,1.80316e-03,1.99118e-02,-1.33334e-02,-3.01030e-02,3.36020e-02,2.34637e-02,3.05700e-02,-1.60518e-02,-1.99339e-02,-2.29672e-02,-9.76068e-03,1.97950e-02,1.41165e-02,-8.12530e-03,-6.24053e-02,-7.55725e-02,-7.46177e-03,-2.16608e-02,-3.90994e-02,1.70643e-02,8.11744e-03,1.10442e-03,-4.13193e-02,-6.46743e-02,-2.36684e-02,-4.99654e-02,-6.07009e-03,4.48828e-02,-1.21654e-02,-3.01022e-02,-3.03296e-02,2.49471e-02,1.46281e-02,-9.79893e-03,1.23536e-02,1.17696e-02,-5.98119e-02,1.29400e-02,-1.38197e-02,1.82739e-02,4.32037e-03,-2.64453e-02,-3.14961e-02,-4.91334e-02,-4.39217e-02,1.19156e-02,-2.46803e-02,1.10614e-02,2.70380e-02,-6.37611e-03,-4.21111e-02,7.35459e-03,-2.65590e-02,-1.78513e-02,-6.06381e-02,-1.38905e-03,-2.12897e-02,-1.52455e-02,2.69751e-02,4.46415e-03,1.75387e-02,2.79668e-02,-1.45176e-02,-2.67590e-02,-5.63821e-02,3.42283e-03,-1.04835e-03,4.03932e-02,3.12886e-02,1.42304e-02,2.95745e-02,2.92646e-02,-8.26285e-03,-9.86969e-03,4.63067e-02,-1.34411e-02,-2.89458e-02,-3.74966e-02,-4.13847e-02,-3.80466e-02,-4.60437e-02,-3.35483e-02,-5.45405e-02,-1.71834e-02,2.38068e-03,1.79123e-02,9.30294e-03,-3.53814e-02,3.34207e-03,-2.26186e-02,-3.26913e-02,6.58354e-03,-5.50371e-02,-6.73302e-03,2.19274e-02,5.83257e-03,-1.44732e-02,-1.73075e-03,-9.93372e-04,-3.30829e-02,-8.02730e-03,-3.64273e-02,-4.26941e-02,-3.58589e-02,-2.45709e-02,-4.82377e-02,-3.88459e-02,-1.79643e-02,9.64517e-03,-4.25343e-02,-6.05325e-02,-1.41619e-02,-6.23306e-03,-1.64403e-02,2.51557e-02,-2.51332e-02,1.17976e-02,-4.51675e-03,-1.33431e-02,1.18596e-02,8.44352e-03,-1.00316e-02,-4.17895e-02,-5.16608e-03,-1.23476e-02,1.27378e-02,-3.80746e-02,2.77711e-03,-1.61079e-02,6.04440e-02,-3.92321e-02,-5.58722e-02,-4.73865e-02,-9.75442e-03,-4.49710e-02,-2.79670e-02,-4.61384e-02,-4.74166e-02,-1.46670e-02,-1.62912e-03,6.43899e-03,-4.95597e-02,-2.94683e-02,2.73037e-03,-1.81801e-02,-9.86390e-03,-3.18947e-02,-2.15558e-02,-3.03350e-02,-9.47010e-03,-1.98955e-02,-3.58158e-02,-3.57574e-02,-8.89277e-04,-7.69029e-03,-3.39242e-02,2.19072e-02,6.35565e-02,-2.64580e-02,-6.58089e-02,-2.29486e-02,-3.56161e-02,1.85430e-03,2.01841e-02,-3.58292e-02,-1.78464e-02,-2.06567e-02,-3.28358e-02,-1.03217e-02,-4.09626e-02,-7.15731e-03,1.58644e-02,2.66532e-02,1.30782e-02,1.80688e-02,-3.48621e-02,2.97138e-02,4.38272e-03,-2.58097e-02,-2.31892e-04,-4.98550e-02,-6.33218e-02,-1.28619e-02,-6.02871e-02,1.37541e-02,-3.30980e-02,-5.72519e-02,1.19019e-02,-1.35450e-02,-3.36142e-02,1.03544e-02,-1.03892e-02,-1.12111e-02,-4.88066e-02,1.50818e-02,1.61936e-02,2.08959e-02,1.39056e-02,2.90292e-02,-1.86252e-02,-3.50016e-02,-1.93573e-02,2.17114e-02,-3.17513e-02,2.39611e-02,-9.46765e-04,1.71054e-02,2.15894e-02,-1.11427e-02,-8.32083e-04,-5.01370e-02,-4.16453e-02,-8.82106e-03,-5.91465e-02,6.68600e-04,-4.35086e-02,-1.19134e-02,2.01434e-02,1.33145e-02,4.87798e-04,-7.93313e-05,-3.21138e-02,-2.84201e-02,-2.45089e-02,-2.19253e-03,7.55349e-03,2.33303e-02,-5.15231e-04,2.63638e-02,-3.23790e-02,-6.10278e-03,2.45782e-02,2.36951e-02,-2.43189e-02,2.18067e-02,-4.40518e-02,3.89608e-02,4.59614e-02,8.72956e-03,3.95528e-03,1.82371e-03,-1.63751e-02,2.04114e-02,-1.97573e-03,-1.17568e-02,-1.21016e-02,1.98029e-02,3.66315e-02,-1.24412e-02,-7.82426e-03,2.34340e-02,-9.10497e-03,-3.25421e-02,3.72422e-03,-3.07422e-02,2.04740e-02,2.73290e-02,1.68465e-02,-1.90412e-03,4.56850e-03,1.62503e-02,-2.79972e-03,2.79531e-02,2.09189e-02,3.41116e-02,6.38745e-03,1.88603e-03,-3.91312e-03,1.21475e-02,-2.36319e-03,2.83213e-02,-6.51893e-05,-2.93023e-02,1.25538e-02,1.91930e-02,-2.03343e-02,2.58442e-02,1.08873e-02,-1.10725e-02,-1.48798e-02,3.57888e-03,6.34708e-03,6.64858e-03,-2.36036e-02,
-2.93072e-02,-3.74529e-03,-1.14330e-02,8.55496e-03,2.31217e-02,6.66831e-03,2.22276e-02,-1.85655e-02,2.37492e-02,-1.34001e-02,-7.21435e-03,2.20195e-02,-6.40894e-03,-1.26842e-02,-4.75590e-03,-3.40089e-02,-1.36801e-02,1.84931e-02,2.73873e-02,2.31227e-02,-1.54320e-03,-8.07546e-03,-2.41175e-02,-3.76357e-03,-1.37824e-02,7.28781e-03,2.61903e-03,1.15873e-02,-2.75689e-02,1.14517e-02,2.11635e-02,-3.55248e-02,-7.80083e-03,2.58538e-02,-8.91340e-02,-7.90519e-02,-1.38594e-01,-9.88038e-02,1.49348e-01,3.89568e-01,3.01230e-02,-8.34672e-02,-2.93673e-01,-3.12326e-01,-1.07752e-01,2.57328e-03,-2.66535e-02,-2.75611e-03,3.67841e-03,-6.03501e-02,1.31161e-02,1.70299e-02,-1.42481e-02,3.39832e-02,-2.19496e-02,-3.42621e-02,3.15838e-02,2.58543e-02,3.27649e-02,-3.02765e-02,-3.68868e-01,1.48203e-01,3.51074e-02,-6.01821e-01,-1.97462e-01,-4.04055e-01,-2.19074e-02,-1.87648e-01,-3.92048e-01,-2.57064e-01,-4.83595e-01,-8.55917e-01,-1.55167e+00,-1.27304e+00,-8.22145e-01,-7.93758e-01,-5.74720e-01,-2.88777e-01,-3.03435e-01,2.62502e-01,3.41067e-01,2.89443e-01,-3.43895e-02,-2.61254e-02,2.28381e-02,2.48803e-03,6.13946e-01,1.91691e-02,-4.53999e-01,-4.89851e-02,-1.08167e-01,1.31358e-01,1.70327e-01,-6.96807e-02,-2.66537e-02,5.31971e-01,6.59632e-01,4.47668e-01,-7.23731e-02,-1.26680e-01,-3.44392e-01,-1.30067e-01,6.68388e-03,8.63668e-02,-1.11866e-01,-7.38566e-01,-1.24589e-01,-4.23817e-02,8.94724e-02,2.55171e-01,-2.80903e-01,1.65607e-02,-3.24751e-02,-1.33415e-01,6.73034e-01,-2.73924e-01,-1.45898e-01,1.89652e-01,3.18796e-01,4.45923e-01,4.11411e-01,3.64455e-01,5.45735e-01,2.68299e-01,2.01416e-01,1.65860e-01,-2.19322e-01,-1.11154e-01,-1.38454e-01,-1.92289e-01,-1.75734e-01,1.88394e-01,-5.14340e-02,-8.21330e-01,-6.00049e-01,-5.55932e-01,-2.90683e-01,2.40163e-01,-5.80442e-01,-1.02924e+00,9.67484e-03,-5.71434e-04,8.65979e-01,-4.72368e-02,5.35269e-01,2.52555e-01,5.58497e-01,5.13579e-01,-1.02328e-01,-6.63663e-02,8.09213e-02,9.34523e-02,9.44147e-02,1.14501e-01,5.03767e-02,1.33977e-01,3.28259e-01,2.85350e-01,3.74990e-01,3.97799e-01,4.82414e-01,-1.56853e-01,-2.20772e-01,-1.91005e-01,4.58031e-02,7.52315e-01,1.97544e-01,-1.02698e+00,-7.74073e-04,3.11709e-01,-3.82312e-01,1.13483e-01,2.38005e-02,2.02570e-02,5.30179e-01,6.33915e-01,1.79157e-01,3.14939e-01,1.95715e-01,2.56495e-01,2.58641e-01,3.81960e-01,4.46748e-01,3.55900e-01,4.06425e-01,3.10746e-01,1.66519e-01,1.17916e-01,1.06443e-01,-2.83168e-01,-3.92807e-01,1.45853e-01,2.66242e-01,3.35847e-01,1.99068e-01,-6.71854e-02,-3.23267e-02,-2.37986e-01,-8.18855e-01,1.26795e-01,3.80325e-01,7.08569e-02,3.19636e-01,7.89952e-02,4.01054e-01,2.16161e-01,4.56518e-02,2.26865e-01,3.89194e-01,4.92449e-01,3.41494e-01,1.75619e-01,-4.45823e-02,-2.05642e-01,-4.01353e-01,-3.08716e-01,-2.23549e-01,-1.83047e-01,-2.18174e-01,-7.04875e-02,9.60710e-02,1.16394e-01,-5.73453e-02,-8.19562e-02,-8.52770e-02,-6.91528e-01,-8.75247e-01,3.12639e-01,5.65651e-01,5.73033e-02,1.96768e-02,1.65401e-01,5.14095e-01,2.28476e-01,3.03145e-01,6.53929e-02,2.11051e-01,2.00215e-01,-8.95756e-02,-2.63550e-01,-1.92762e-01,-2.00566e-02,-9.63967e-02,-1.15582e-02,-2.40965e-01,-5.41968e-01,-4.97505e-01,-4.77861e-01,-7.94492e-01,-1.53729e-01,-2.89218e-01,1.43494e-01,-1.55055e-01,-5.20147e-01,4.73765e-01,-9.21719e-02,2.42906e-01,3.80539e-01,1.06450e-01,3.41709e-01,3.86676e-01,2.47784e-01,1.21069e-01,-7.14479e-02,2.77135e-02,-1.37162e-01,-1.66770e-01,1.35261e-01,1.67906e-01,5.29795e-01,2.93587e-01,2.40874e-01,-3.85641e-01,-5.95911e-01,-6.87884e-01,-1.20149e-01,-1.20449e+00,-1.69867e-01,2.76969e-01,-1.40543e-01,-4.21661e-02,-9.57923e-01,4.40158e-01,2.90444e-01,9.15579e-03,2.28665e-01,3.23069e-01,-9.08974e-02,1.52381e-01,-3.11744e-01,-5.58601e-01,-6.08147e-01,-4.16497e-01,2.67569e-02,2.50422e-01,1.36150e-01,3.96952e-01,4.32483e-01,4.89725e-01,1.95956e-01,-7.36614e-02,-5.76049e-01,-6.64702e-01,-3.25867e-01,-9.06031e-01,-5.62079e-01,2.06925e-01,-3.67032e-01,-4.03272e-01,-4.63404e-01,1.15528e-01,2.17664e-01,1.42560e-01,-1.98904e-01,1.28653e-01,-3.08336e-01,-3.01453e-01,-3.17299e-01,-2.03928e-01,-4.87997e-01,-2.21278e-01,-2.58671e-02,-5.59232e-02,2.13485e-01,2.55091e-01,1.07832e-01,2.93348e-01,1.45183e-01,5.51286e-02,-2.50814e-01,-3.99083e-01,-9.88528e-01,-9.92120e-01,-4.67877e-01,1.75118e-01,-2.89440e-01,-3.97253e-01,-1.71620e-01,3.79251e-01,4.31919e-01,3.32818e-02,-1.76133e-01,-9.59551e-02,-2.32120e-01,-2.80055e-01,-9.84425e-02,-2.58723e-01,-1.00244e-01,-1.19496e-01,-1.86459e-01,4.17599e-02,-9.65919e-02,3.43651e-02,8.46606e-02,-1.41997e-01,-1.14949e-01,-3.68956e-01,-2.77583e-01,-2.90591e-01,-5.03586e-01,-2.42727e-01,-6.09990e-01,-2.45710e-02,-1.40786e-02,-3.53637e-03,-4.73387e-01,1.21137e-01,2.99434e-01,-3.73506e-01,-2.57876e-01,-1.08843e-01,-1.61687e-01,-2.14436e-01,-2.77344e-01,-2.67298e-01,-2.22708e-01,-1.58731e-01,-1.05150e-01,7.62323e-02,-4.73806e-03,1.13729e-01,9.53910e-02,-1.58229e-01,-1.47152e-01,2.46484e-02,-1.18984e-01,-1.52827e-01,9.46970e-04,1.49690e-01,-3.52636e-01,7.88749e-02,2.03369e-01,-6.13173e-01,-3.52153e-01,2.64709e-01,3.88855e-02,-6.24997e-01,-1.25366e+00,-1.49711e-01,4.99335e-01,2.41395e-02,-1.46577e-01,-2.44851e-01,-7.50417e-02,-1.17109e-01,-1.24424e-01,-7.41704e-02,5.57691e-02,5.14077e-02,-9.68534e-02,-1.47625e-01,-3.48196e-01,-1.27204e-01,-3.23136e-02,-8.46281e-02,-4.35767e-03,-2.84451e-01,4.42927e-01,6.16079e-01,1.85547e-01,-5.85322e-01,2.47011e-01,5.24748e-01,-5.62266e-01,-4.43705e-01,-1.09907e+00,-1.91672e-01,-5.89340e-03,-1.52694e-01,-6.34596e-02,-2.07040e-01,5.51313e-02,-1.91831e-01,5.93682e-02,1.01868e-01,-3.30104e-02,3.71182e-02,-2.59004e-01,-4.52593e-01,-4.51474e-01,-2.67297e-01,-2.07024e-01,-3.53480e-02,-1.52961e-01,2.19557e-01,1.97067e-01,1.23859e+00,9.14719e-01,-1.27579e-01,2.93355e-01,6.85996e-01,-3.45964e-01,-1.57731e-01,-3.06514e-01,-2.40844e-01,-4.66722e-01,-5.78703e-01,9.13184e-02,-1.30681e-01,-1.48799e-01,-8.99760e-02,-1.11955e-01,7.97095e-02,7.35679e-03,-1.24176e-01,-8.55278e-02,-2.47014e-01,-3.04535e-01,-3.49886e-01,-8.28567e-02,5.27861e-01,2.40041e-01,1.76217e-01,-4.91339e-03,1.20187e+00,8.66962e-01,-3.56773e-02,4.47195e-03,6.65878e-01,-7.51172e-02,-3.16524e-01,-1.75887e-01,-5.58960e-02,-3.78430e-01,-1.37598e-02,-9.89825e-02,-4.87699e-01,-5.33159e-01,-3.10786e-01,-6.42047e-02,2.87707e-01,3.99297e-02,-2.73258e-01,-6.91861e-02,-1.38481e-01,-2.88730e-01,-7.17219e-01,-3.19439e-01,-5.11131e-02,-1.56992e-01,-2.49306e-01,-2.71363e-01,-4.62647e-01,7.87152e-01,4.79678e-01,1.75867e-01,5.61203e-01,1.99528e-01,-4.44089e-01,-3.27126e-01,-1.25997e-01,-2.19421e-02,-2.19064e-01,-1.25950e-01,-1.41085e-01,-2.71244e-01,-2.70933e-01,-2.75669e-01,1.59397e-01,-1.76392e-01,3.01484e-02,-2.83234e-01,-2.50669e-01,-1.18120e-01,-3.91407e-01,-1.37293e-01,-8.26653e-02,-1.73740e-01,-3.70416e-01,-5.38373e-01,-3.13766e-01,2.98666e-01,-7.88770e-02,-5.03717e-02,1.69207e-01,3.27795e-01,-3.04282e-01,-4.32461e-01,-3.83015e-01,5.28832e-02,-1.97288e-01,-1.46720e-01,-8.15122e-03,-9.20518e-02,-1.44020e-01,5.02730e-02,4.22000e-02,-8.62028e-02,1.34219e-01,4.80490e-02,4.98952e-02,-2.87394e-02,-1.53006e-01,1.49005e-01,6.66456e-02,-1.93643e-01,-7.58199e-01,-6.05469e-01,5.95874e-01,2.01975e-01,1.62638e-02,-3.75783e-02,7.94894e-02,3.56233e-01,-3.23060e-01,-5.59795e-01,-2.10287e-01,-3.53440e-02,1.53087e-01,1.06164e-01,2.22869e-01,1.64766e-01,1.94435e-01,-6.05442e-02,4.71625e-02,1.40602e-01,2.37494e-01,2.09747e-01,1.21224e-01,1.49624e-01,1.86073e-01,3.91581e-01,6.85176e-02,-3.24178e-03,-4.06063e-01,-3.78582e-01,8.41650e-01,-1.23388e-01,-6.59278e-02,3.81583e-01,4.52710e-01,3.89966e-01,-2.15281e-01,-2.95369e-01,-1.86040e-01,8.51108e-02,1.80554e-01,6.62922e-02,2.88820e-01,2.41627e-01,5.72483e-03,-3.25920e-02,6.56065e-02,2.34410e-01,2.00739e-01,2.41454e-01,3.09045e-01,2.31631e-01,4.49283e-02,4.39189e-02,2.12740e-01,2.93187e-01,-3.87085e-02,1.90834e-01,1.56600e-01,-1.38055e-01,-3.16538e-02,1.25872e-01,3.11028e-01,3.66087e-01,2.72623e-01,1.57953e-01,1.84075e-01,5.01128e-01,6.73017e-01,3.92880e-01,3.42548e-01,1.70342e-01,1.77754e-02,-8.02681e-02,3.11758e-01,9.75789e-02,-1.20799e-01,8.39885e-03,4.48614e-01,1.23866e-01,5.08973e-01,3.74979e-01,5.47854e-01,8.91131e-01,3.69815e-01,5.79665e-01,-1.48512e-01,-1.67201e-01,1.87376e-03,1.86117e-02,8.04827e-01,7.92651e-01,3.10124e-02,9.29504e-02,1.29282e-01,8.66846e-01,7.58185e-01,5.84096e-01,1.06242e-01,3.58533e-01,-4.47283e-02,5.52915e-02,1.26427e-01,2.43076e-01,2.50166e-01,1.77073e-01,3.61276e-01,1.64788e-01,4.02674e-01,3.69190e-01,7.50745e-01,9.10789e-01,4.81031e-01,3.65824e-01,3.64356e-02,-8.28747e-04,-2.34523e-02,-6.44390e-03,-2.51643e-01,6.59957e-01,-4.18432e-02,-2.79248e-01,6.97002e-02,3.86545e-01,5.44336e-01,5.72871e-01,1.05703e-01,2.23934e-01,-8.17287e-02,-2.04212e-02,-1.80676e-02,1.68045e-01,1.55517e-01,-9.16499e-02,4.99279e-01,1.13694e-01,4.80741e-01,6.68236e-02,1.14403e-01,7.14675e-01,2.70641e-01,3.38372e-01,-3.41912e-01,-2.79110e-02,-1.19569e-02,1.36458e-02,-6.06426e-02,-1.15923e+00,4.96114e-02,3.10224e-01,-3.18356e-01,-1.59202e-01,-3.16341e-01,-1.02407e-01,1.92467e-02,-3.51980e-01,3.09387e-01,-1.14120e-01,-1.39890e-01,3.34334e-01,1.04670e-01,7.68968e-02,1.71164e-01,8.41369e-02,6.89207e-02,-4.83699e-01,-5.93034e-01,-6.81530e-01,-2.54763e-01,-1.78038e-01,-2.02194e-01,3.29261e-02,-3.13482e-02,9.43581e-03,2.47433e-02,7.29388e-02,2.90235e-01,7.52731e-01,4.75042e-01,-3.14539e-01,-5.00286e-01,-3.06102e-01,4.74388e-01,5.08282e-01,7.85166e-01,7.83169e-02,2.18474e-01,4.76550e-01,2.63204e-01,3.36652e-01,3.13451e-01,-4.89646e-01,9.42075e-02,3.10101e-01,2.86129e-01,3.33627e-01,3.06552e-02,7.55174e-03,-1.66903e-02,-7.50235e-04,-1.71639e-02,8.28236e-03,-3.22783e-02,-1.92432e-02,-1.18780e-01,-2.88739e-01,-2.84560e-01,-3.57632e-01,-5.14024e-01,-8.84444e-01,-4.45627e-01,-9.84108e-01,-7.74812e-01,-1.20510e-01,2.64196e-01,2.45169e-01,-1.04678e-01,-5.89985e-01,4.66400e-01,2.53948e-01,-5.49619e-01,3.74047e-01,1.11046e-01,3.77371e-02,1.67225e-02,-1.08395e-02,3.20330e-02,-1.55402e-02,
-2.01400e-02,2.49592e-02,-2.50304e-02,-5.48323e-03,1.07347e-02,3.51326e-03,1.62551e-02,6.57211e-03,-1.29931e-03,7.24334e-03,1.31151e-02,-8.59190e-03,-3.36235e-02,-6.39330e-02,-1.87333e-02,-4.39050e-02,-1.93164e-02,-1.44480e-02,2.93825e-02,2.83989e-02,-1.24122e-02,1.37848e-02,-1.91984e-02,-1.16320e-02,-1.77145e-03,-1.84172e-03,-1.60155e-03,3.48756e-02,1.12018e-02,-4.85761e-03,3.33861e-02,-1.81564e-02,-4.32472e-03,-3.73990e-02,8.12516e-03,1.94570e-02,-1.44498e-01,-1.30155e-01,-1.42857e-02,1.82653e-02,-2.22799e-02,-1.36475e-01,1.73024e-01,-4.32106e-02,-7.06893e-01,-9.92862e-01,-3.48575e-01,-2.52774e-01,-3.16611e-01,-1.79496e-01,-1.60854e-01,-1.83416e-01,2.09982e-02,1.88715e-03,3.35559e-02,2.75581e-02,7.57647e-03,3.76979e-03,1.69153e-02,-1.03808e-02,3.84265e-02,-3.96638e-02,-6.59679e-02,-1.29842e-01,-2.23097e-01,-1.50919e-01,-8.62608e-01,-9.23486e-01,-7.29577e-01,-1.64946e+00,-1.86379e+00,-1.75315e+00,-1.77985e+00,-3.16672e-02,6.39087e-01,-1.25553e-01,-1.65848e-01,-9.98404e-01,-1.22243e+00,-1.12492e+00,-7.87889e-01,-5.91568e-01,1.16225e-02,2.81234e-02,-1.68778e-02,3.15062e-02,7.73627e-01,7.06116e-01,4.45587e-01,-1.08048e+00,-8.26364e-01,-4.52496e-01,-8.51668e-01,-6.70914e-01,-1.33013e+00,-5.37378e-01,-1.07123e-01,2.89870e-01,2.76811e-01,-1.17385e-01,6.67542e-03,2.20475e-01,7.97475e-01,5.13547e-01,3.33346e-01,4.99663e-02,5.92685e-01,4.15289e-01,-3.11934e-01,-5.59721e-01,-1.24703e+00,-8.65944e-03,3.37890e-02,-1.86067e-02,6.84422e-01,6.55412e-01,-3.81439e-01,-2.77241e-01,3.97923e-02,-2.89616e-01,-6.73033e-01,-6.50401e-01,-5.42321e-01,-4.40763e-01,-1.58068e-01,2.54385e-01,8.69229e-02,2.82671e-01,1.66050e-01,-2.17730e-01,-2.73494e-01,-4.18000e-01,-4.52105e-01,1.92966e-01,6.78636e-01,2.71461e-01,-4.39316e-01,-4.06287e-01,5.42254e-01,1.92222e-01,2.99427e-02,1.98521e-02,7.64426e-01,6.06273e-01,-1.60011e-01,-2.34376e-01,-1.89886e-01,-2.99596e-01,-2.33404e-01,-6.74035e-02,-1.08692e-01,-6.20796e-01,-1.16525e-01,2.06942e-01,1.98790e-01,-1.65710e-01,-2.90257e-01,-3.30992e-02,7.95467e-02,5.56564e-02,-1.72685e-02,-1.29029e-01,6.74433e-02,-1.76764e-01,-3.21267e-01,5.33107e-01,3.91457e-01,-6.94751e-02,-2.91367e-02,1.75633e-02,-3.65251e-01,-8.22569e-01,-5.86661e-01,-3.19786e-01,3.93299e-01,3.65529e-02,-4.25279e-02,1.30043e-01,-4.91864e-01,-3.37934e-01,-3.17020e-02,-1.14275e-01,4.47076e-02,1.90259e-01,3.44282e-01,2.76964e-01,6.88481e-01,3.77805e-01,3.79572e-01,4.25446e-01,-1.22571e-01,-2.24638e-01,-1.29822e-01,3.87528e-01,5.32121e-01,-1.39391e-01,4.48962e-02,5.54511e-01,-4.62886e-01,4.16314e-01,8.05790e-01,9.13050e-02,3.02720e-01,1.57173e-01,-1.01819e-01,-6.65588e-01,-1.02249e+00,-5.02056e-01,-1.58847e-01,-1.48331e-01,1.92850e-01,4.91459e-01,4.95363e-01,2.70571e-01,5.34113e-01,4.73894e-01,5.81850e-01,3.19281e-01,-1.17070e-02,8.38223e-02,-3.22852e-01,3.52328e-02,1.25404e-01,-2.34804e-02,3.12907e-01,-7.67387e-01,-3.33714e-01,4.41227e-01,8.83531e-01,4.27690e-01,4.07069e-01,-2.06731e-01,1.22789e-01,5.71395e-02,-1.65924e-01,3.42359e-02,-1.17062e-01,-1.37483e-02,4.70976e-03,8.28110e-02,3.99000e-01,1.42633e-01,4.06087e-01,6.75210e-02,-1.21467e-01,2.83980e-02,5.56109e-02,-1.52135e-01,-2.71499e-01,6.31024e-02,5.71314e-01,9.97035e-01,1.31657e-01,1.24931e-01,2.19948e-01,2.04201e-01,8.42710e-01,3.22133e-01,-8.75044e-01,-1.23484e+00,-4.49668e-01,-2.06330e-01,3.26844e-01,6.99641e-02,5.50230e-02,2.62314e-01,-2.21761e-02,-7.00494e-02,-1.40730e-02,-1.98707e-01,-1.27388e-01,-8.76732e-02,1.48528e-01,-1.17615e-01,9.52021e-02,-1.37570e-01,-2.29822e-01,1.54837e-01,3.28131e-01,-3.34772e-01,1.11119e-01,-1.36718e-01,-6.61460e-01,2.49260e-01,7.75057e-01,-1.77314e-02,-5.56994e-01,-1.21277e+00,-1.48356e-01,-7.44985e-02,3.18662e-01,2.15532e-01,2.54650e-01,-1.70293e-01,3.82241e-02,-3.10285e-01,-9.03177e-02,-7.35126e-01,-2.22929e-01,-1.26469e-01,8.36665e-02,-6.50368e-02,2.94170e-01,3.52604e-01,2.32587e-02,6.96377e-01,-1.40645e-01,-5.65830e-02,2.11717e-03,-4.87492e-02,1.41236e-01,-2.72094e-01,6.14443e-01,7.76049e-02,-3.65806e-02,-7.88035e-01,-7.57535e-02,-1.14876e-01,8.67374e-03,1.42497e-02,-3.85737e-01,-7.06110e-01,-2.20634e-01,1.18913e-01,2.06981e-01,-1.19583e-01,-1.35230e-01,-2.19772e-01,-7.47008e-02,1.75739e-01,3.71568e-01,5.97176e-01,4.42991e-01,7.07502e-01,8.98896e-01,-5.01009e-01,-1.98395e-02,-1.92784e-02,7.50850e-01,1.63132e-01,8.96378e-01,3.14797e-01,1.19517e-01,-2.12613e-01,-4.13500e-01,5.21924e-02,-1.24148e-01,-3.36961e-01,-1.09412e+00,-6.65702e-01,2.54987e-01,6.82369e-01,2.71721e-01,8.67521e-02,2.40954e-01,9.88360e-02,8.03695e-02,2.93216e-01,-2.48428e-01,3.83963e-01,-1.16917e-01,-6.07022e-01,-1.20049e-01,-6.12933e-01,4.42912e-02,-4.43051e-01,1.49285e-02,1.16786e-01,6.57972e-01,3.06985e-01,8.52327e-02,-2.16167e-01,-2.01473e-01,-3.07035e-01,-1.91965e-01,-1.62832e-01,-2.80746e-01,-4.37440e-02,4.78607e-01,4.67910e-01,-1.93933e-02,1.00966e-02,-1.81456e-02,-8.94760e-02,-2.17313e-01,1.94438e-02,-1.73768e-01,-2.05526e-01,-7.88642e-01,1.04743e-01,1.44837e-01,2.20039e-01,-4.29911e-02,-5.46600e-01,-4.17851e-01,-7.51916e-02,7.01151e-01,2.38710e-01,-1.33511e-01,-2.78957e-01,-2.33319e-01,-1.65351e-01,-4.68076e-02,9.09847e-03,2.54988e-03,2.12148e-01,3.52849e-01,3.26661e-01,-2.18738e-02,-1.13427e-01,-8.32366e-02,-4.27368e-01,-2.30927e-01,7.84852e-02,-6.22245e-01,-5.44389e-01,-5.50630e-01,-6.33233e-02,2.70566e-01,8.04280e-02,-3.97664e-02,-4.63096e-03,-1.98746e-01,-7.72985e-01,2.81900e-01,2.85683e-01,6.83714e-02,5.59184e-02,2.95469e-01,4.20588e-03,4.72488e-02,1.24653e-01,2.57010e-01,3.17571e-01,2.52514e-01,1.17732e-01,7.94905e-02,2.69974e-02,2.21635e-01,-3.90227e-01,-1.37433e-01,-3.37844e-01,-2.41423e-02,-1.87746e-01,-3.84082e-01,-2.47682e-01,5.72774e-01,-5.90083e-02,4.29715e-03,-4.58263e-02,-2.77840e-01,-3.03709e-01,5.35763e-01,2.35130e-01,3.77321e-01,2.85178e-01,2.83443e-01,-8.40142e-02,2.15140e-02,1.92615e-01,2.07907e-01,3.44536e-01,1.22759e-01,3.33148e-02,-9.90278e-02,-1.94116e-02,-4.03336e-01,-6.94986e-01,-1.01887e+00,-4.29416e-01,-4.97539e-01,-3.67158e-01,1.88706e-01,-9.15771e-02,8.93173e-02,-1.97689e-01,1.48826e-02,3.05186e-01,-1.06450e-01,-1.72895e-01,1.85432e-01,-7.31325e-02,1.68871e-01,1.96820e-01,9.18993e-02,-2.50928e-01,-3.62505e-01,-1.97786e-02,5.50431e-02,6.65214e-02,1.91714e-01,1.29128e-01,-2.26863e-01,5.30667e-02,-2.75453e-01,-6.66004e-01,-1.13681e+00,-4.50114e-01,-8.82366e-01,-6.95179e-01,-2.19051e-01,1.08909e-01,-3.24686e-01,-2.80107e-01,1.11547e+00,2.86951e-01,3.55326e-01,-5.92346e-01,-1.96847e-01,2.40041e-02,-1.41292e-01,6.57067e-02,1.02481e-01,-4.34027e-01,-3.77481e-01,-1.28727e-01,-1.47422e-01,1.39597e-01,3.66234e-01,3.26680e-01,-4.53927e-03,1.41771e-01,-1.68152e-01,-1.17275e+00,-1.16648e+00,-3.69563e-01,-2.03852e-01,3.32832e-01,-2.47092e-01,3.07490e-02,-7.99177e-02,-9.77075e-02,1.29458e-01,2.41473e-01,3.17007e-01,-6.51023e-01,-2.49449e-01,1.33544e-01,2.39750e-01,3.45497e-01,3.14143e-02,-5.01364e-01,-1.72066e-01,-4.33834e-01,-2.08468e-01,-1.99751e-01,1.57356e-01,2.67355e-01,9.32210e-02,1.49493e-01,-3.28238e-01,-9.49405e-01,-1.44346e+00,-7.90601e-01,-5.15191e-01,4.94316e-02,-2.40247e-01,-2.72567e-01,1.51443e-01,-6.78678e-02,3.24747e-02,9.93513e-02,1.61905e-01,1.95307e-01,1.71260e-01,1.66308e-01,1.48376e-01,2.41711e-01,1.06820e-01,-9.64361e-02,-7.71961e-02,-1.99212e-01,-3.36277e-01,-2.39160e-01,1.01371e-02,2.57915e-01,-1.10290e-01,-9.17384e-03,-1.15104e+00,-3.56120e-01,-5.13898e-01,-4.12928e-01,-4.27034e-01,-3.45706e-01,3.69166e-02,-2.50447e-01,1.24639e-01,4.95851e-02,1.04331e-01,1.78483e-01,-3.00930e-02,2.65700e-01,-4.73521e-03,-4.45803e-01,1.51010e-01,5.00299e-01,5.55677e-02,6.96963e-02,4.47075e-02,-6.48049e-02,-1.33507e-01,-1.02924e-02,2.02100e-01,6.49922e-02,-4.45228e-01,-2.02790e-01,-8.45087e-01,-5.03218e-01,4.63818e-02,-3.12278e-01,-5.38062e-01,3.47257e-01,-2.60526e-01,-3.20062e-01,-4.17212e-01,6.04534e-03,1.02100e-01,7.76728e-02,-8.04988e-01,-1.12285e-01,-2.45040e-01,-3.59166e-01,4.34995e-01,4.44083e-01,2.84005e-02,9.34888e-02,2.44425e-02,-4.63322e-02,-1.47006e-01,3.22516e-02,1.82259e-01,-1.95873e-01,-6.52591e-01,-5.40253e-01,-9.65160e-01,-4.80840e-01,-2.76518e-02,-7.78498e-01,-6.25792e-01,4.15822e-01,1.04066e+00,-2.91341e-01,-4.43008e-01,-2.97647e-02,-6.57166e-03,2.22469e-02,3.17881e-02,-4.96968e-01,-1.12775e-01,-6.94861e-02,8.49284e-02,-4.31327e-02,2.02985e-01,1.27606e-01,6.10783e-02,2.43088e-03,-1.51947e-01,5.23170e-02,-1.37563e-01,-3.29157e-01,-4.31681e-01,-3.23860e-01,-5.54139e-01,-3.29569e-01,2.16473e-01,-6.12760e-01,3.22868e-01,-1.28296e-01,7.85332e-01,-4.06789e-01,-1.46629e-01,1.64139e-02,-4.24977e-04,2.87662e-02,2.38822e-01,-4.77414e-01,5.53094e-01,1.81204e-01,2.84897e-01,9.02229e-02,3.12428e-01,-1.45199e-01,-2.35429e-01,-2.90258e-01,2.66177e-01,1.97736e-01,-2.67241e-01,1.69744e-02,3.86686e-02,-2.49358e-01,-6.00588e-01,-2.15483e-01,-5.58575e-01,-1.24988e+00,-3.73054e-01,2.44899e-01,5.46552e-01,-6.07135e-01,-4.46455e-01,5.26888e-04,9.98420e-03,2.44606e-02,6.92365e-01,-9.57214e-01,2.07527e-01,3.90901e-01,-1.63513e-01,4.60775e-02,5.22507e-01,1.96326e-01,-1.40944e-01,-1.78698e-01,7.58508e-02,-1.52745e-01,1.59292e-01,3.13716e-02,4.01142e-01,4.06967e-01,2.72831e-01,2.22105e-02,-3.86171e-01,-8.20700e-01,-5.42681e-01,7.04039e-01,-7.11486e-01,-3.73591e-01,-4.13518e-01,2.38344e-02,1.71817e-02,-2.82399e-02,-1.34884e-03,8.86324e-01,1.16429e+00,9.44152e-01,8.51816e-01,9.69082e-01,6.54033e-01,1.60501e-01,-6.19828e-02,1.91863e-01,7.89065e-02,3.45280e-01,1.03816e+00,6.91425e-01,4.78932e-01,3.84626e-01,8.62998e-01,1.34869e+00,9.65319e-01,1.63511e+00,3.23670e-01,-2.10108e-01,-6.58356e-02,-4.07222e-01,1.69465e-02,-1.32148e-02,-1.62117e-02,3.12658e-02,2.83438e-02,-2.72800e-02,-5.94326e-01,-7.47021e-01,-9.56317e-01,-7.95916e-01,-2.68527e-01,8.05645e-01,9.60576e-01,1.17825e+00,1.43016e+00,1.16022e+00,1.43726e+00,9.68938e-01,1.08163e+00,1.32754e+00,1.23488e+00,8.84100e-01,1.67459e-01,5.04253e-02,8.17028e-02,-1.00096e-02,2.40031e-02,-1.03813e-02,1.32310e-02,-1.57707e-03,
3.15562e-02,-4.49378e-03,2.27397e-02,-1.39196e-02,2.45734e-02,4.65693e-03,1.19620e-02,2.88235e-02,2.18229e-02,-2.36531e-02,-2.40270e-02,-1.71471e-02,-2.72077e-02,-2.85585e-02,-2.18879e-02,-3.26740e-02,1.35982e-02,-6.62786e-03,3.62848e-03,-1.80580e-02,-4.05302e-03,1.11059e-02,9.36900e-04,9.20879e-03,3.10776e-02,2.45415e-02,-1.94245e-02,3.00154e-02,-1.98367e-02,1.13806e-02,-3.43002e-02,2.07831e-02,-1.66053e-02,-2.15345e-02,1.16246e-02,1.10334e-02,5.78971e-03,-1.72328e-02,2.11299e-03,-2.59162e-02,-3.31357e-02,-9.65948e-03,-1.69730e-02,-3.03419e-02,-2.14609e-02,-1.98387e-03,-3.51992e-02,1.51787e-02,-6.44894e-03,-2.20527e-02,1.16250e-02,-2.73784e-02,-3.38960e-02,-1.01101e-02,-2.05108e-02,-2.89950e-02,1.94899e-02,-1.99806e-02,-2.38219e-02,-2.67117e-03,-9.93742e-03,1.53266e-02,-1.12131e-02,7.26914e-03,-7.68075e-03,2.54474e-02,2.82426e-02,-2.92467e-02,5.89288e-03,-2.14441e-02,-2.88078e-02,-1.13797e-02,-2.64046e-02,-3.72056e-03,-2.59636e-02,1.06283e-02,9.81577e-03,-2.92243e-02,-2.42752e-02,7.05043e-03,-3.23123e-02,3.53189e-03,1.30558e-02,3.36864e-02,-2.17125e-02,4.64536e-03,-1.24366e-03,2.31190e-02,-3.58283e-03,-3.10147e-02,-5.85200e-03,1.68598e-02,-1.29506e-02,-2.62831e-02,3.12501e-03,1.34997e-02,2.99835e-02,6.58103e-03,-1.84170e-03,-2.41324e-02,2.23815e-03,-1.94363e-03,2.46022e-02,-2.10603e-02,-3.20714e-02,1.42407e-02,1.40474e-02,3.07217e-02,1.50487e-02,1.95488e-02,-6.51826e-03,2.51823e-03,1.01747e-02,3.46386e-02,3.18608e-02,1.68562e-02,-3.85523e-04,1.85416e-02,2.29875e-02,-5.17504e-04,1.85027e-02,-5.69513e-03,-3.24786e-02,2.26916e-02,-3.50641e-02,1.19215e-02,-5.22161e-03,1.59476e-03,2.22819e-02,-2.79984e-02,-1.79170e-02,1.08959e-02,-3.38274e-02,3.82243e-03,-1.51146e-02,2.36301e-02,-3.42581e-02,2.48153e-02,1.89895e-02,2.46261e-03,2.40343e-02,-9.83169e-03,3.17656e-02,-3.28437e-02,1.56928e-02,1.57545e-02,3.08470e-02,1.83523e-02,-9.22143e-03,-4.07578e-02,2.93321e-02,-2.98163e-02,-1.76523e-02,1.81583e-02,-6.71372e-03,-3.51514e-02,-3.24389e-02,-4.63943e-02,8.03245e-03,1.24293e-02,2.70679e-02,-1.10080e-02,-2.82854e-02,-1.72078e-02,3.38055e-02,1.52856e-02,-1.42271e-02,2.62037e-02,1.02035e-02,2.19537e-02,2.29197e-03,-3.39706e-02,-1.66307e-02,-1.77327e-02,2.95543e-02,-4.06458e-02,-1.56563e-02,-1.02408e-02,-1.00835e-02,-4.27025e-03,-3.62130e-02,1.25419e-02,-1.81384e-02,3.57918e-03,-5.00216e-02,-3.05514e-02,8.17721e-03,-3.61346e-02,-3.78760e-02,1.29623e-02,3.32045e-02,-2.88320e-02,1.78559e-02,-2.61374e-02,2.86703e-02,-2.56834e-02,-3.53911e-02,-1.34904e-02,2.44014e-02,9.03609e-04,-9.50725e-03,-3.32259e-02,8.18705e-03,1.69562e-02,-2.85953e-02,2.35452e-03,1.32771e-02,-4.36751e-02,-1.16664e-03,-3.95613e-02,-3.31987e-03,-3.34809e-02,-4.64380e-02,-5.55969e-02,-4.15249e-02,9.23208e-04,1.55747e-02,-3.74172e-03,-3.48143e-02,2.40387e-02,2.18490e-02,-4.20254e-03,1.92413e-02,-8.39448e-03,3.03367e-02,-1.13470e-02,2.02892e-02,1.95119e-02,-3.31411e-02,1.45455e-03,-5.89992e-03,-2.85603e-03,-3.52893e-02,-1.37569e-02,-1.12708e-02,9.36155e-03,-1.68350e-02,-2.50678e-02,-2.58455e-02,-2.92497e-02,1.04069e-02,-3.27216e-02,1.45558e-02,-4.23737e-02,-3.27216e-02,3.05555e-02,1.63822e-02,1.41282e-02,-2.89457e-02,-1.31661e-02,-1.44064e-02,-1.89520e-02,2.23551e-02,-2.89581e-02,9.86487e-03,7.80978e-03,-1.92698e-02,5.85679e-03,-1.64898e-02,-4.60127e-02,-2.72150e-02,-8.83599e-03,-2.48519e-02,-4.94856e-02,-3.36025e-02,-4.16961e-02,-3.81596e-02,4.08260e-04,-5.22914e-03,-1.18892e-02,-3.48747e-03,-2.79733e-02,1.56375e-02,-1.13641e-03,-3.60843e-03,3.01533e-02,-1.15545e-02,-2.23750e-04,2.77075e-03,2.55232e-02,1.24625e-02,1.85319e-02,-2.45852e-02,1.53481e-02,2.26070e-02,2.26654e-02,-1.86888e-02,-4.99057e-02,-9.14041e-03,-1.18607e-02,-7.16430e-03,-4.91551e-02,-3.86893e-02,-3.62748e-02,-3.07563e-02,-4.95176e-02,1.29831e-02,1.13449e-02,-7.40217e-03,2.60938e-03,3.29316e-02,2.87603e-02,2.07658e-02,1.85426e-02,-1.32158e-03,1.69625e-03,-2.24477e-03,-2.14881e-02,2.73050e-03,2.88482e-02,1.84117e-02,-1.00142e-03,1.35738e-02,-8.25049e-03,-4.94193e-02,-1.95847e-02,-3.99668e-02,-5.07286e-02,1.57025e-03,-1.98934e-02,1.97511e-02,-8.89350e-03,-6.02452e-03,-2.58414e-02,-4.28888e-02,-2.22724e-02,-1.06884e-02,-2.87074e-03,5.69263e-03,-2.73075e-02,-4.53237e-02,-1.94858e-02,3.42074e-03,-1.77213e-03,-9.58073e-03,2.40823e-02,-3.23214e-02,2.33080e-02,8.95515e-03,-3.39264e-02,-8.72504e-03,-2.24817e-02,-5.09705e-02,1.33860e-02,-4.24489e-02,-5.29952e-03,-2.24267e-02,-1.04766e-02,-2.71016e-02,4.80776e-04,-1.13863e-02,-3.26941e-02,-1.22064e-02,-1.70493e-02,-1.86322e-02,-6.11212e-02,-4.56480e-03,1.46161e-02,-2.93920e-02,-3.40752e-02,2.03512e-02,-2.90629e-02,-1.75099e-02,1.02282e-02,6.66839e-03,-3.20997e-02,-6.64855e-03,3.19274e-03,-2.17126e-02,3.55821e-02,1.32162e-02,-1.43302e-02,1.58274e-03,-5.23057e-02,-3.86342e-02,1.46141e-02,-1.78778e-02,-4.13664e-02,-1.82324e-02,-5.95567e-03,-1.25896e-02,-2.19844e-03,-2.49050e-02,-4.48806e-02,-5.95803e-04,5.49700e-03,1.71619e-02,1.27795e-02,-3.88289e-02,-4.33576e-02,4.02260e-03,2.05700e-02,-1.21187e-02,-1.38282e-02,7.48324e-03,-9.93419e-03,-8.33257e-03,-1.50295e-02,-2.37058e-02,-4.28785e-02,1.40847e-02,4.18661e-03,-1.03166e-02,-1.33268e-02,-2.98942e-02,7.54010e-03,-2.67277e-02,-2.43403e-02,-2.85675e-02,-5.04552e-02,-2.14909e-02,-2.58659e-02,-2.37883e-03,-1.96072e-02,-9.73506e-03,-3.40725e-02,4.69900e-05,5.30456e-03,-3.33457e-03,2.93515e-02,-1.70117e-02,-1.22937e-02,3.04067e-02,2.23053e-02,7.00843e-03,2.11792e-02,2.73804e-02,-2.44025e-02,-4.04530e-02,-2.18728e-02,-1.99109e-02,-4.09808e-02,-4.57053e-02,1.89809e-04,-5.22264e-03,-4.49080e-02,-3.50421e-02,-3.87457e-02,-3.35269e-02,-2.81641e-02,1.87032e-02,-2.48659e-02,-5.53285e-03,1.25868e-02,-2.71538e-02,-2.06246e-02,5.80266e-03,3.33723e-02,-3.29354e-02,-3.55586e-02,-2.34528e-02,1.35391e-02,1.72306e-02,2.12641e-02,4.05345e-03,-4.74066e-02,-2.84664e-03,-1.90900e-02,1.39399e-02,-1.83753e-02,1.20228e-02,-4.75880e-02,-3.65595e-02,-1.23771e-02,-2.23680e-02,5.06645e-03,-1.15242e-02,8.97656e-03,-3.07829e-02,-4.07071e-02,1.40205e-02,-6.26992e-03,-7.03203e-03,1.10593e-02,-2.14685e-02,-3.44952e-02,-2.25888e-02,-2.69934e-02,6.59746e-03,-8.00988e-03,2.65365e-02,-2.52982e-02,-9.13862e-03,-2.90740e-02,-3.21310e-02,-3.95213e-02,-4.32498e-02,7.63567e-03,1.50753e-03,-5.87689e-03,-2.07405e-02,3.63837e-02,-2.38322e-02,-3.59557e-02,1.48023e-03,-5.08220e-02,1.14189e-02,1.71560e-02,1.80109e-02,-2.35101e-02,1.81482e-02,1.50853e-02,-2.40546e-02,-1.17954e-02,1.66738e-02,-2.28572e-02,-1.16709e-03,4.31049e-05,2.72862e-02,1.31990e-02,-3.10368e-02,-1.75690e-02,6.79402e-03,4.96949e-03,-1.21742e-02,6.45818e-03,-5.34229e-02,-1.08560e-02,-2.62017e-03,-3.33364e-02,-1.71103e-02,9.86015e-05,-5.07741e-03,-1.43012e-02,-4.17985e-02,2.25409e-03,-2.04201e-02,-4.08302e-02,3.09468e-02,-3.21632e-02,1.93642e-02,1.30822e-02,3.03094e-02,-3.87336e-03,-1.64646e-02,-1.39124e-02,-1.44060e-02,-2.92729e-02,-3.12339e-02,2.14296e-03,-1.72841e-02,-8.49538e-03,1.85802e-02,-2.06441e-02,-2.00727e-02,9.17157e-03,1.80977e-02,-1.46965e-02,9.53293e-03,-6.03912e-02,-6.44322e-03,-1.89274e-02,-4.38982e-02,3.57989e-02,6.88039e-03,1.62147e-02,-1.03573e-02,1.42861e-02,-1.81633e-02,2.30611e-02,-3.26513e-02,8.19931e-04,-2.89952e-02,-1.45581e-02,8.18139e-04,1.68891e-02,2.47151e-02,-1.14729e-03,4.18710e-03,-2.47265e-02,1.11877e-02,-1.86761e-02,1.30029e-02,-3.31300e-02,6.49472e-03,-3.22453e-02,-1.92614e-02,2.17373e-03,-9.21146e-03,-1.32745e-02,-3.97451e-02,-4.35663e-03,2.90051e-02,2.59562e-02,1.64140e-02,-1.77875e-02,-1.68457e-02,2.38469e-02,-7.44995e-03,-2.84546e-02,-7.31512e-03,-2.14314e-02,2.29056e-02,3.23212e-02,1.16414e-02,-3.63003e-03,-1.54751e-02,8.33766e-03,1.89394e-02,-4.53096e-02,3.74199e-03,3.80461e-03,-2.42463e-02,-2.23358e-02,1.43053e-02,5.12996e-03,-2.14103e-02,2.90919e-02,-2.19242e-02,2.87948e-02,2.07769e-02,1.82396e-02,-7.60839e-03,-2.09630e-02,2.12975e-02,-2.49675e-02,-2.82759e-03,2.79639e-03,3.31425e-02,1.25977e-02,-1.18788e-02,-2.32178e-03,1.13713e-03,6.01663e-05,-3.45059e-02,-3.03153e-02,-3.75990e-03,-5.90513e-03,-4.29100e-02,-9.33560e-03,-3.09951e-04,-4.30876e-02,9.06224e-03,1.40658e-02,-3.44019e-02,-1.38830e-02,-3.05738e-02,2.00702e-02,1.52652e-02,4.12189e-03,3.55459e-02,-2.55781e-02,1.92766e-02,5.68412e-03,-8.79701e-04,1.48217e-02,2.01512e-02,4.66449e-03,2.18914e-02,5.89501e-03,-4.06149e-03,7.42640e-03,-6.04985e-03,2.67772e-02,-1.85863e-02,-8.04389e-03,-3.49060e-02,1.22678e-02,-3.16787e-02,-1.85028e-03,-2.25717e-03,-1.20165e-02,1.02061e-02,1.31711e-02,3.01602e-02,2.84379e-02,-8.82489e-03,1.18942e-02,-2.17012e-02,-3.15431e-02,2.25842e-02,1.12957e-02,3.17291e-02,1.44108e-03,2.28122e-02,-6.00229e-03,-3.31161e-02,-8.56717e-03,-2.27544e-02,2.33612e-02,1.33515e-02,1.32458e-02,-1.19462e-02,1.00488e-02,5.91200e-03,-4.33483e-03,-3.89486e-02,-3.10771e-02,-2.60579e-03,-2.96727e-02,-2.86950e-03,-2.32629e-02,1.10221e-02,-3.28661e-02,3.24103e-02,3.26063e-02,2.58321e-02,-2.93170e-02,-2.66255e-02,4.64983e-03,3.41022e-02,1.49591e-03,-3.06785e-02,-2.42440e-02,-1.14839e-02,1.54195e-02,2.63943e-02,6.51117e-03,9.83031e-03,1.32010e-03,-5.38163e-03,2.32474e-02,1.31781e-02,-3.10488e-02,9.48557e-03,-3.22828e-02,2.22017e-02,-1.13040e-02,1.35921e-02,1.05335e-02,-1.45231e-02,-3.45256e-02,-1.49113e-02,-1.94302e-02,-1.88946e-02,-2.50676e-02,-2.89856e-02,1.49714e-02,7.65301e-03,-2.58284e-02,-1.54616e-02,-1.46382e-03,2.66638e-02,-3.50841e-02,-2.27775e-02,1.29331e-02,1.15967e-02,-2.75838e-02,-1.16993e-02,-5.49001e-03,-7.15884e-03,2.44740e-02,-1.73432e-02,1.50351e-02,-3.39099e-02,2.91510e-02,-2.94710e-02,-8.49373e-03,2.33983e-02,-1.54865e-02,-4.48500e-03,2.55751e-03,-8.06163e-03,-2.98257e-02,3.07968e-03,-2.36474e-02,-2.87692e-02,1.88453e-02,-3.03214e-02,-1.07502e-02,1.40507e-02,-6.98485e-03,1.56129e-02,1.03949e-02,1.19820e-02,-4.86738e-03,2.48583e-02,-1.62710e-02,-3.03443e-02,-2.06752e-02,3.11268e-02,4.98742e-03,-6.88598e-03,3.29345e-02,-2.17837e-02,-3.04297e-03,2.08269e-02,2.93918e-02,-1.16453e-02,-2.69155e-02,5.54481e-04,3.44775e-02,-1.19164e-02,5.16698e-03,
