// Neural Network File Format by Kyle Julian, Stanford 2016
11,784,10,784,
784,80,80,80,80,80,80,80,80,80,80,10,
0,
-3.4028235e+38,-3.4028235e+38,-3.4028235e+38,-3.4028235e+38,-3.4028235e+38,-3.4028235e+38,-3.4028235e+38,-3.4028235e+38,-3.4028235e+38,-3.4028235e+38,-3.4028235e+38,-3.4028235e+38,-3.4028235e+38,-3.4028235e+38,-3.4028235e+38,-3.4028235e+38,-3.4028235e+38,-3.4028235e+38,-3.4028235e+38,-3.4028235e+38,-3.4028235e+38,-3.4028235e+38,-3.4028235e+38,-3.4028235e+38,-3.4028235e+38,-3.4028235e+38,-3.4028235e+38,-3.4028235e+38,-3.4028235e+38,-3.4028235e+38,-3.4028235e+38,-3.4028235e+38,-3.4028235e+38,-3.4028235e+38,-3.4028235e+38,-3.4028235e+38,-3.4028235e+38,-3.4028235e+38,-3.4028235e+38,-3.4028235e+38,-3.4028235e+38,-3.4028235e+38,-3.4028235e+38,-3.4028235e+38,-3.4028235e+38,-3.4028235e+38,-3.4028235e+38,-3.4028235e+38,-3.4028235e+38,-3.4028235e+38,-3.4028235e+38,-3.4028235e+38,-3.4028235e+38,-3.4028235e+38,-3.4028235e+38,-3.4028235e+38,-3.4028235e+38,-3.4028235e+38,-3.4028235e+38,-3.4028235e+38,-3.4028235e+38,-3.4028235e+38,-3.4028235e+38,-3.4028235e+38,-3.4028235e+38,-3.4028235e+38,-3.4028235e+38,-3.4028235e+38,-3.4028235e+38,-3.4028235e+38,-3.4028235e+38,-3.4028235e+38,-3.4028235e+38,-3.4028235e+38,-3.4028235e+38,-3.4028235e+38,-3.4028235e+38,-3.4028235e+38,-3.4028235e+38,-3.4028235e+38,-3.4028235e+38,-3.4028235e+38,-3.4028235e+38,-3.4028235e+38,-3.4028235e+38,-3.4028235e+38,-3.4028235e+38,-3.4028235e+38,-3.4028235e+38,-3.4028235e+38,-3.4028235e+38,-3.4028235e+38,-3.4028235e+38,-3.4028235e+38,-3.4028235e+38,-3.4028235e+38,-3.4028235e+38,-3.4028235e+38,-3.4028235e+38,-3.4028235e+38,-3.4028235e+38,-3.4028235e+38,-3.4028235e+38,-3.4028235e+38,-3.4028235e+38,-3.4028235e+38,-3.4028235e+38,-3.4028235e+38,-3.4028235e+38,-3.4028235e+38,-3.4028235e+38,-3.4028235e+38,-3.4028235e+38,-3.4028235e+38,-3.4028235e+38,-3.4028235e+38,-3.4028235e+38,-3.4028235e+38,-3.4028235e+38,-3.4028235e+38,-3.4028235e+38,-3.4028235e+38,-3.4028235e+38,-3.4028235e+38,-3.4028235e+38,-3.4028235e+38,-3.4028235e+38,-3.4028235e+38,-3.4028235e+38,-3.4028235e+38,-3.4028235e+38,-3.4028235e+38,-3.4028235e+38,-3.4028235e+38,-3.4028235e+38,-3.4028235e+38,-3.4028235e+38,-3.4028235e+38,-3.4028235e+38,-3.4028235e+38,-3.4028235e+38,-3.4028235e+38,-3.4028235e+38,-3.4028235e+38,-3.4028235e+38,-3.4028235e+38,-3.4028235e+38,-3.4028235e+38,-3.4028235e+38,-3.4028235e+38,-3.4028235e+38,-3.4028235e+38,-3.4028235e+38,-3.4028235e+38,-3.4028235e+38,-3.4028235e+38,-3.4028235e+38,-3.4028235e+38,-3.4028235e+38,-3.4028235e+38,-3.4028235e+38,-3.4028235e+38,-3.4028235e+38,-3.4028235e+38,-3.4028235e+38,-3.4028235e+38,-3.4028235e+38,-3.4028235e+38,-3.4028235e+38,-3.4028235e+38,-3.4028235e+38,-3.4028235e+38,-3.4028235e+38,-3.4028235e+38,-3.4028235e+38,-3.4028235e+38,-3.4028235e+38,-3.4028235e+38,-3.4028235e+38,-3.4028235e+38,-3.4028235e+38,-3.4028235e+38,-3.4028235e+38,-3.4028235e+38,-3.4028235e+38,-3.4028235e+38,-3.4028235e+38,-3.4028235e+38,-3.4028235e+38,-3.4028235e+38,-3.4028235e+38,-3.4028235e+38,-3.4028235e+38,-3.4028235e+38,-3.4028235e+38,-3.4028235e+38,-3.4028235e+38,-3.4028235e+38,-3.4028235e+38,-3.4028235e+38,-3.4028235e+38,-3.4028235e+38,-3.4028235e+38,-3.4028235e+38,-3.4028235e+38,-3.4028235e+38,-3.4028235e+38,-3.4028235e+38,-3.4028235e+38,-3.4028235e+38,-3.4028235e+38,-3.4028235e+38,-3.4028235e+38,-3.4028235e+38,-3.4028235e+38,-3.4028235e+38,-3.4028235e+38,-3.4028235e+38,-3.4028235e+38,-3.4028235e+38,-3.4028235e+38,-3.4028235e+38,-3.4028235e+38,-3.4028235e+38,-3.4028235e+38,-3.4028235e+38,-3.4028235e+38,-3.4028235e+38,-3.4028235e+38,-3.4028235e+38,-3.4028235e+38,-3.4028235e+38,-3.4028235e+38,-3.4028235e+38,-3.4028235e+38,-3.4028235e+38,-3.4028235e+38,-3.4028235e+38,-3.4028235e+38,-3.4028235e+38,-3.4028235e+38,-3.4028235e+38,-3.4028235e+38,-3.4028235e+38,-3.4028235e+38,-3.4028235e+38,-3.4028235e+38,-3.4028235e+38,-3.4028235e+38,-3.4028235e+38,-3.4028235e+38,-3.4028235e+38,-3.4028235e+38,-3.4028235e+38,-3.4028235e+38,-3.4028235e+38,-3.4028235e+38,-3.4028235e+38,-3.4028235e+38,-3.4028235e+38,-3.4028235e+38,-3.4028235e+38,-3.4028235e+38,-3.4028235e+38,-3.4028235e+38,-3.4028235e+38,-3.4028235e+38,-3.4028235e+38,-3.4028235e+38,-3.4028235e+38,-3.4028235e+38,-3.4028235e+38,-3.4028235e+38,-3.4028235e+38,-3.4028235e+38,-3.4028235e+38,-3.4028235e+38,-3.4028235e+38,-3.4028235e+38,-3.4028235e+38,-3.4028235e+38,-3.4028235e+38,-3.4028235e+38,-3.4028235e+38,-3.4028235e+38,-3.4028235e+38,-3.4028235e+38,-3.4028235e+38,-3.4028235e+38,-3.4028235e+38,-3.4028235e+38,-3.4028235e+38,-3.4028235e+38,-3.4028235e+38,-3.4028235e+38,-3.4028235e+38,-3.4028235e+38,-3.4028235e+38,-3.4028235e+38,-3.4028235e+38,-3.4028235e+38,-3.4028235e+38,-3.4028235e+38,-3.4028235e+38,-3.4028235e+38,-3.4028235e+38,-3.4028235e+38,-3.4028235e+38,-3.4028235e+38,-3.4028235e+38,-3.4028235e+38,-3.4028235e+38,-3.4028235e+38,-3.4028235e+38,-3.4028235e+38,-3.4028235e+38,-3.4028235e+38,-3.4028235e+38,-3.4028235e+38,-3.4028235e+38,-3.4028235e+38,-3.4028235e+38,-3.4028235e+38,-3.4028235e+38,-3.4028235e+38,-3.4028235e+38,-3.4028235e+38,-3.4028235e+38,-3.4028235e+38,-3.4028235e+38,-3.4028235e+38,-3.4028235e+38,-3.4028235e+38,-3.4028235e+38,-3.4028235e+38,-3.4028235e+38,-3.4028235e+38,-3.4028235e+38,-3.4028235e+38,-3.4028235e+38,-3.4028235e+38,-3.4028235e+38,-3.4028235e+38,-3.4028235e+38,-3.4028235e+38,-3.4028235e+38,-3.4028235e+38,-3.4028235e+38,-3.4028235e+38,-3.4028235e+38,-3.4028235e+38,-3.4028235e+38,-3.4028235e+38,-3.4028235e+38,-3.4028235e+38,-3.4028235e+38,-3.4028235e+38,-3.4028235e+38,-3.4028235e+38,-3.4028235e+38,-3.4028235e+38,-3.4028235e+38,-3.4028235e+38,-3.4028235e+38,-3.4028235e+38,-3.4028235e+38,-3.4028235e+38,-3.4028235e+38,-3.4028235e+38,-3.4028235e+38,-3.4028235e+38,-3.4028235e+38,-3.4028235e+38,-3.4028235e+38,-3.4028235e+38,-3.4028235e+38,-3.4028235e+38,-3.4028235e+38,-3.4028235e+38,-3.4028235e+38,-3.4028235e+38,-3.4028235e+38,-3.4028235e+38,-3.4028235e+38,-3.4028235e+38,-3.4028235e+38,-3.4028235e+38,-3.4028235e+38,-3.4028235e+38,-3.4028235e+38,-3.4028235e+38,-3.4028235e+38,-3.4028235e+38,-3.4028235e+38,-3.4028235e+38,-3.4028235e+38,-3.4028235e+38,-3.4028235e+38,-3.4028235e+38,-3.4028235e+38,-3.4028235e+38,-3.4028235e+38,-3.4028235e+38,-3.4028235e+38,-3.4028235e+38,-3.4028235e+38,-3.4028235e+38,-3.4028235e+38,-3.4028235e+38,-3.4028235e+38,-3.4028235e+38,-3.4028235e+38,-3.4028235e+38,-3.4028235e+38,-3.4028235e+38,-3.4028235e+38,-3.4028235e+38,-3.4028235e+38,-3.4028235e+38,-3.4028235e+38,-3.4028235e+38,-3.4028235e+38,-3.4028235e+38,-3.4028235e+38,-3.4028235e+38,-3.4028235e+38,-3.4028235e+38,-3.4028235e+38,-3.4028235e+38,-3.4028235e+38,-3.4028235e+38,-3.4028235e+38,-3.4028235e+38,-3.4028235e+38,-3.4028235e+38,-3.4028235e+38,-3.4028235e+38,-3.4028235e+38,-3.4028235e+38,-3.4028235e+38,-3.4028235e+38,-3.4028235e+38,-3.4028235e+38,-3.4028235e+38,-3.4028235e+38,-3.4028235e+38,-3.4028235e+38,-3.4028235e+38,-3.4028235e+38,-3.4028235e+38,-3.4028235e+38,-3.4028235e+38,-3.4028235e+38,-3.4028235e+38,-3.4028235e+38,-3.4028235e+38,-3.4028235e+38,-3.4028235e+38,-3.4028235e+38,-3.4028235e+38,-3.4028235e+38,-3.4028235e+38,-3.4028235e+38,-3.4028235e+38,-3.4028235e+38,-3.4028235e+38,-3.4028235e+38,-3.4028235e+38,-3.4028235e+38,-3.4028235e+38,-3.4028235e+38,-3.4028235e+38,-3.4028235e+38,-3.4028235e+38,-3.4028235e+38,-3.4028235e+38,-3.4028235e+38,-3.4028235e+38,-3.4028235e+38,-3.4028235e+38,-3.4028235e+38,-3.4028235e+38,-3.4028235e+38,-3.4028235e+38,-3.4028235e+38,-3.4028235e+38,-3.4028235e+38,-3.4028235e+38,-3.4028235e+38,-3.4028235e+38,-3.4028235e+38,-3.4028235e+38,-3.4028235e+38,-3.4028235e+38,-3.4028235e+38,-3.4028235e+38,-3.4028235e+38,-3.4028235e+38,-3.4028235e+38,-3.4028235e+38,-3.4028235e+38,-3.4028235e+38,-3.4028235e+38,-3.4028235e+38,-3.4028235e+38,-3.4028235e+38,-3.4028235e+38,-3.4028235e+38,-3.4028235e+38,-3.4028235e+38,-3.4028235e+38,-3.4028235e+38,-3.4028235e+38,-3.4028235e+38,-3.4028235e+38,-3.4028235e+38,-3.4028235e+38,-3.4028235e+38,-3.4028235e+38,-3.4028235e+38,-3.4028235e+38,-3.4028235e+38,-3.4028235e+38,-3.4028235e+38,-3.4028235e+38,-3.4028235e+38,-3.4028235e+38,-3.4028235e+38,-3.4028235e+38,-3.4028235e+38,-3.4028235e+38,-3.4028235e+38,-3.4028235e+38,-3.4028235e+38,-3.4028235e+38,-3.4028235e+38,-3.4028235e+38,-3.4028235e+38,-3.4028235e+38,-3.4028235e+38,-3.4028235e+38,-3.4028235e+38,-3.4028235e+38,-3.4028235e+38,-3.4028235e+38,-3.4028235e+38,-3.4028235e+38,-3.4028235e+38,-3.4028235e+38,-3.4028235e+38,-3.4028235e+38,-3.4028235e+38,-3.4028235e+38,-3.4028235e+38,-3.4028235e+38,-3.4028235e+38,-3.4028235e+38,-3.4028235e+38,-3.4028235e+38,-3.4028235e+38,-3.4028235e+38,-3.4028235e+38,-3.4028235e+38,-3.4028235e+38,-3.4028235e+38,-3.4028235e+38,-3.4028235e+38,-3.4028235e+38,-3.4028235e+38,-3.4028235e+38,-3.4028235e+38,-3.4028235e+38,-3.4028235e+38,-3.4028235e+38,-3.4028235e+38,-3.4028235e+38,-3.4028235e+38,-3.4028235e+38,-3.4028235e+38,-3.4028235e+38,-3.4028235e+38,-3.4028235e+38,-3.4028235e+38,-3.4028235e+38,-3.4028235e+38,-3.4028235e+38,-3.4028235e+38,-3.4028235e+38,-3.4028235e+38,-3.4028235e+38,-3.4028235e+38,-3.4028235e+38,-3.4028235e+38,-3.4028235e+38,-3.4028235e+38,-3.4028235e+38,-3.4028235e+38,-3.4028235e+38,-3.4028235e+38,-3.4028235e+38,-3.4028235e+38,-3.4028235e+38,-3.4028235e+38,-3.4028235e+38,-3.4028235e+38,-3.4028235e+38,-3.4028235e+38,-3.4028235e+38,-3.4028235e+38,-3.4028235e+38,-3.4028235e+38,-3.4028235e+38,-3.4028235e+38,-3.4028235e+38,-3.4028235e+38,-3.4028235e+38,-3.4028235e+38,-3.4028235e+38,-3.4028235e+38,-3.4028235e+38,-3.4028235e+38,-3.4028235e+38,-3.4028235e+38,-3.4028235e+38,-3.4028235e+38,-3.4028235e+38,-3.4028235e+38,-3.4028235e+38,-3.4028235e+38,-3.4028235e+38,-3.4028235e+38,-3.4028235e+38,-3.4028235e+38,-3.4028235e+38,-3.4028235e+38,-3.4028235e+38,-3.4028235e+38,-3.4028235e+38,-3.4028235e+38,-3.4028235e+38,-3.4028235e+38,-3.4028235e+38,-3.4028235e+38,-3.4028235e+38,-3.4028235e+38,-3.4028235e+38,-3.4028235e+38,-3.4028235e+38,-3.4028235e+38,-3.4028235e+38,-3.4028235e+38,-3.4028235e+38,-3.4028235e+38,-3.4028235e+38,-3.4028235e+38,-3.4028235e+38,-3.4028235e+38,-3.4028235e+38,-3.4028235e+38,-3.4028235e+38,-3.4028235e+38,-3.4028235e+38,-3.4028235e+38,-3.4028235e+38,-3.4028235e+38,-3.4028235e+38,-3.4028235e+38,-3.4028235e+38,-3.4028235e+38,-3.4028235e+38,-3.4028235e+38,-3.4028235e+38,-3.4028235e+38,-3.4028235e+38,-3.4028235e+38,-3.4028235e+38,-3.4028235e+38,-3.4028235e+38,-3.4028235e+38,-3.4028235e+38,-3.4028235e+38,-3.4028235e+38,-3.4028235e+38,-3.4028235e+38,-3.4028235e+38,-3.4028235e+38,-3.4028235e+38,-3.4028235e+38,-3.4028235e+38,-3.4028235e+38,-3.4028235e+38,-3.4028235e+38,-3.4028235e+38,-3.4028235e+38,-3.4028235e+38,-3.4028235e+38,-3.4028235e+38,-3.4028235e+38,-3.4028235e+38,-3.4028235e+38,-3.4028235e+38,-3.4028235e+38,-3.4028235e+38,-3.4028235e+38,-3.4028235e+38,-3.4028235e+38,-3.4028235e+38,-3.4028235e+38,-3.4028235e+38,-3.4028235e+38,-3.4028235e+38,-3.4028235e+38,-3.4028235e+38,-3.4028235e+38,-3.4028235e+38,-3.4028235e+38,-3.4028235e+38,-3.4028235e+38,-3.4028235e+38,-3.4028235e+38,-3.4028235e+38,-3.4028235e+38,-3.4028235e+38,-3.4028235e+38,-3.4028235e+38,-3.4028235e+38,-3.4028235e+38,-3.4028235e+38,-3.4028235e+38,-3.4028235e+38,-3.4028235e+38,-3.4028235e+38,-3.4028235e+38,-3.4028235e+38,-3.4028235e+38,-3.4028235e+38,-3.4028235e+38,-3.4028235e+38,-3.4028235e+38,-3.4028235e+38,-3.4028235e+38,-3.4028235e+38,-3.4028235e+38,-3.4028235e+38,-3.4028235e+38,-3.4028235e+38,-3.4028235e+38,-3.4028235e+38,-3.4028235e+38,-3.4028235e+38,-3.4028235e+38,-3.4028235e+38,-3.4028235e+38,-3.4028235e+38,-3.4028235e+38,-3.4028235e+38,-3.4028235e+38,-3.4028235e+38,-3.4028235e+38,-3.4028235e+38,-3.4028235e+38,-3.4028235e+38,-3.4028235e+38,-3.4028235e+38,-3.4028235e+38,-3.4028235e+38,-3.4028235e+38,-3.4028235e+38,-3.4028235e+38,-3.4028235e+38,-3.4028235e+38,-3.4028235e+38,-3.4028235e+38,-3.4028235e+38,-3.4028235e+38,-3.4028235e+38,-3.4028235e+38,-3.4028235e+38,-3.4028235e+38,-3.4028235e+38,-3.4028235e+38,-3.4028235e+38,-3.4028235e+38,-3.4028235e+38,
3.4028235e+38,3.4028235e+38,3.4028235e+38,3.4028235e+38,3.4028235e+38,3.4028235e+38,3.4028235e+38,3.4028235e+38,3.4028235e+38,3.4028235e+38,3.4028235e+38,3.4028235e+38,3.4028235e+38,3.4028235e+38,3.4028235e+38,3.4028235e+38,3.4028235e+38,3.4028235e+38,3.4028235e+38,3.4028235e+38,3.4028235e+38,3.4028235e+38,3.4028235e+38,3.4028235e+38,3.4028235e+38,3.4028235e+38,3.4028235e+38,3.4028235e+38,3.4028235e+38,3.4028235e+38,3.4028235e+38,3.4028235e+38,3.4028235e+38,3.4028235e+38,3.4028235e+38,3.4028235e+38,3.4028235e+38,3.4028235e+38,3.4028235e+38,3.4028235e+38,3.4028235e+38,3.4028235e+38,3.4028235e+38,3.4028235e+38,3.4028235e+38,3.4028235e+38,3.4028235e+38,3.4028235e+38,3.4028235e+38,3.4028235e+38,3.4028235e+38,3.4028235e+38,3.4028235e+38,3.4028235e+38,3.4028235e+38,3.4028235e+38,3.4028235e+38,3.4028235e+38,3.4028235e+38,3.4028235e+38,3.4028235e+38,3.4028235e+38,3.4028235e+38,3.4028235e+38,3.4028235e+38,3.4028235e+38,3.4028235e+38,3.4028235e+38,3.4028235e+38,3.4028235e+38,3.4028235e+38,3.4028235e+38,3.4028235e+38,3.4028235e+38,3.4028235e+38,3.4028235e+38,3.4028235e+38,3.4028235e+38,3.4028235e+38,3.4028235e+38,3.4028235e+38,3.4028235e+38,3.4028235e+38,3.4028235e+38,3.4028235e+38,3.4028235e+38,3.4028235e+38,3.4028235e+38,3.4028235e+38,3.4028235e+38,3.4028235e+38,3.4028235e+38,3.4028235e+38,3.4028235e+38,3.4028235e+38,3.4028235e+38,3.4028235e+38,3.4028235e+38,3.4028235e+38,3.4028235e+38,3.4028235e+38,3.4028235e+38,3.4028235e+38,3.4028235e+38,3.4028235e+38,3.4028235e+38,3.4028235e+38,3.4028235e+38,3.4028235e+38,3.4028235e+38,3.4028235e+38,3.4028235e+38,3.4028235e+38,3.4028235e+38,3.4028235e+38,3.4028235e+38,3.4028235e+38,3.4028235e+38,3.4028235e+38,3.4028235e+38,3.4028235e+38,3.4028235e+38,3.4028235e+38,3.4028235e+38,3.4028235e+38,3.4028235e+38,3.4028235e+38,3.4028235e+38,3.4028235e+38,3.4028235e+38,3.4028235e+38,3.4028235e+38,3.4028235e+38,3.4028235e+38,3.4028235e+38,3.4028235e+38,3.4028235e+38,3.4028235e+38,3.4028235e+38,3.4028235e+38,3.4028235e+38,3.4028235e+38,3.4028235e+38,3.4028235e+38,3.4028235e+38,3.4028235e+38,3.4028235e+38,3.4028235e+38,3.4028235e+38,3.4028235e+38,3.4028235e+38,3.4028235e+38,3.4028235e+38,3.4028235e+38,3.4028235e+38,3.4028235e+38,3.4028235e+38,3.4028235e+38,3.4028235e+38,3.4028235e+38,3.4028235e+38,3.4028235e+38,3.4028235e+38,3.4028235e+38,3.4028235e+38,3.4028235e+38,3.4028235e+38,3.4028235e+38,3.4028235e+38,3.4028235e+38,3.4028235e+38,3.4028235e+38,3.4028235e+38,3.4028235e+38,3.4028235e+38,3.4028235e+38,3.4028235e+38,3.4028235e+38,3.4028235e+38,3.4028235e+38,3.4028235e+38,3.4028235e+38,3.4028235e+38,3.4028235e+38,3.4028235e+38,3.4028235e+38,3.4028235e+38,3.4028235e+38,3.4028235e+38,3.4028235e+38,3.4028235e+38,3.4028235e+38,3.4028235e+38,3.4028235e+38,3.4028235e+38,3.4028235e+38,3.4028235e+38,3.4028235e+38,3.4028235e+38,3.4028235e+38,3.4028235e+38,3.4028235e+38,3.4028235e+38,3.4028235e+38,3.4028235e+38,3.4028235e+38,3.4028235e+38,3.4028235e+38,3.4028235e+38,3.4028235e+38,3.4028235e+38,3.4028235e+38,3.4028235e+38,3.4028235e+38,3.4028235e+38,3.4028235e+38,3.4028235e+38,3.4028235e+38,3.4028235e+38,3.4028235e+38,3.4028235e+38,3.4028235e+38,3.4028235e+38,3.4028235e+38,3.4028235e+38,3.4028235e+38,3.4028235e+38,3.4028235e+38,3.4028235e+38,3.4028235e+38,3.4028235e+38,3.4028235e+38,3.4028235e+38,3.4028235e+38,3.4028235e+38,3.4028235e+38,3.4028235e+38,3.4028235e+38,3.4028235e+38,3.4028235e+38,3.4028235e+38,3.4028235e+38,3.4028235e+38,3.4028235e+38,3.4028235e+38,3.4028235e+38,3.4028235e+38,3.4028235e+38,3.4028235e+38,3.4028235e+38,3.4028235e+38,3.4028235e+38,3.4028235e+38,3.4028235e+38,3.4028235e+38,3.4028235e+38,3.4028235e+38,3.4028235e+38,3.4028235e+38,3.4028235e+38,3.4028235e+38,3.4028235e+38,3.4028235e+38,3.4028235e+38,3.4028235e+38,3.4028235e+38,3.4028235e+38,3.4028235e+38,3.4028235e+38,3.4028235e+38,3.4028235e+38,3.4028235e+38,3.4028235e+38,3.4028235e+38,3.4028235e+38,3.4028235e+38,3.4028235e+38,3.4028235e+38,3.4028235e+38,3.4028235e+38,3.4028235e+38,3.4028235e+38,3.4028235e+38,3.4028235e+38,3.4028235e+38,3.4028235e+38,3.4028235e+38,3.4028235e+38,3.4028235e+38,3.4028235e+38,3.4028235e+38,3.4028235e+38,3.4028235e+38,3.4028235e+38,3.4028235e+38,3.4028235e+38,3.4028235e+38,3.4028235e+38,3.4028235e+38,3.4028235e+38,3.4028235e+38,3.4028235e+38,3.4028235e+38,3.4028235e+38,3.4028235e+38,3.4028235e+38,3.4028235e+38,3.4028235e+38,3.4028235e+38,3.4028235e+38,3.4028235e+38,3.4028235e+38,3.4028235e+38,3.4028235e+38,3.4028235e+38,3.4028235e+38,3.4028235e+38,3.4028235e+38,3.4028235e+38,3.4028235e+38,3.4028235e+38,3.4028235e+38,3.4028235e+38,3.4028235e+38,3.4028235e+38,3.4028235e+38,3.4028235e+38,3.4028235e+38,3.4028235e+38,3.4028235e+38,3.4028235e+38,3.4028235e+38,3.4028235e+38,3.4028235e+38,3.4028235e+38,3.4028235e+38,3.4028235e+38,3.4028235e+38,3.4028235e+38,3.4028235e+38,3.4028235e+38,3.4028235e+38,3.4028235e+38,3.4028235e+38,3.4028235e+38,3.4028235e+38,3.4028235e+38,3.4028235e+38,3.4028235e+38,3.4028235e+38,3.4028235e+38,3.4028235e+38,3.4028235e+38,3.4028235e+38,3.4028235e+38,3.4028235e+38,3.4028235e+38,3.4028235e+38,3.4028235e+38,3.4028235e+38,3.4028235e+38,3.4028235e+38,3.4028235e+38,3.4028235e+38,3.4028235e+38,3.4028235e+38,3.4028235e+38,3.4028235e+38,3.4028235e+38,3.4028235e+38,3.4028235e+38,3.4028235e+38,3.4028235e+38,3.4028235e+38,3.4028235e+38,3.4028235e+38,3.4028235e+38,3.4028235e+38,3.4028235e+38,3.4028235e+38,3.4028235e+38,3.4028235e+38,3.4028235e+38,3.4028235e+38,3.4028235e+38,3.4028235e+38,3.4028235e+38,3.4028235e+38,3.4028235e+38,3.4028235e+38,3.4028235e+38,3.4028235e+38,3.4028235e+38,3.4028235e+38,3.4028235e+38,3.4028235e+38,3.4028235e+38,3.4028235e+38,3.4028235e+38,3.4028235e+38,3.4028235e+38,3.4028235e+38,3.4028235e+38,3.4028235e+38,3.4028235e+38,3.4028235e+38,3.4028235e+38,3.4028235e+38,3.4028235e+38,3.4028235e+38,3.4028235e+38,3.4028235e+38,3.4028235e+38,3.4028235e+38,3.4028235e+38,3.4028235e+38,3.4028235e+38,3.4028235e+38,3.4028235e+38,3.4028235e+38,3.4028235e+38,3.4028235e+38,3.4028235e+38,3.4028235e+38,3.4028235e+38,3.4028235e+38,3.4028235e+38,3.4028235e+38,3.4028235e+38,3.4028235e+38,3.4028235e+38,3.4028235e+38,3.4028235e+38,3.4028235e+38,3.4028235e+38,3.4028235e+38,3.4028235e+38,3.4028235e+38,3.4028235e+38,3.4028235e+38,3.4028235e+38,3.4028235e+38,3.4028235e+38,3.4028235e+38,3.4028235e+38,3.4028235e+38,3.4028235e+38,3.4028235e+38,3.4028235e+38,3.4028235e+38,3.4028235e+38,3.4028235e+38,3.4028235e+38,3.4028235e+38,3.4028235e+38,3.4028235e+38,3.4028235e+38,3.4028235e+38,3.4028235e+38,3.4028235e+38,3.4028235e+38,3.4028235e+38,3.4028235e+38,3.4028235e+38,3.4028235e+38,3.4028235e+38,3.4028235e+38,3.4028235e+38,3.4028235e+38,3.4028235e+38,3.4028235e+38,3.4028235e+38,3.4028235e+38,3.4028235e+38,3.4028235e+38,3.4028235e+38,3.4028235e+38,3.4028235e+38,3.4028235e+38,3.4028235e+38,3.4028235e+38,3.4028235e+38,3.4028235e+38,3.4028235e+38,3.4028235e+38,3.4028235e+38,3.4028235e+38,3.4028235e+38,3.4028235e+38,3.4028235e+38,3.4028235e+38,3.4028235e+38,3.4028235e+38,3.4028235e+38,3.4028235e+38,3.4028235e+38,3.4028235e+38,3.4028235e+38,3.4028235e+38,3.4028235e+38,3.4028235e+38,3.4028235e+38,3.4028235e+38,3.4028235e+38,3.4028235e+38,3.4028235e+38,3.4028235e+38,3.4028235e+38,3.4028235e+38,3.4028235e+38,3.4028235e+38,3.4028235e+38,3.4028235e+38,3.4028235e+38,3.4028235e+38,3.4028235e+38,3.4028235e+38,3.4028235e+38,3.4028235e+38,3.4028235e+38,3.4028235e+38,3.4028235e+38,3.4028235e+38,3.4028235e+38,3.4028235e+38,3.4028235e+38,3.4028235e+38,3.4028235e+38,3.4028235e+38,3.4028235e+38,3.4028235e+38,3.4028235e+38,3.4028235e+38,3.4028235e+38,3.4028235e+38,3.4028235e+38,3.4028235e+38,3.4028235e+38,3.4028235e+38,3.4028235e+38,3.4028235e+38,3.4028235e+38,3.4028235e+38,3.4028235e+38,3.4028235e+38,3.4028235e+38,3.4028235e+38,3.4028235e+38,3.4028235e+38,3.4028235e+38,3.4028235e+38,3.4028235e+38,3.4028235e+38,3.4028235e+38,3.4028235e+38,3.4028235e+38,3.4028235e+38,3.4028235e+38,3.4028235e+38,3.4028235e+38,3.4028235e+38,3.4028235e+38,3.4028235e+38,3.4028235e+38,3.4028235e+38,3.4028235e+38,3.4028235e+38,3.4028235e+38,3.4028235e+38,3.4028235e+38,3.4028235e+38,3.4028235e+38,3.4028235e+38,3.4028235e+38,3.4028235e+38,3.4028235e+38,3.4028235e+38,3.4028235e+38,3.4028235e+38,3.4028235e+38,3.4028235e+38,3.4028235e+38,3.4028235e+38,3.4028235e+38,3.4028235e+38,3.4028235e+38,3.4028235e+38,3.4028235e+38,3.4028235e+38,3.4028235e+38,3.4028235e+38,3.4028235e+38,3.4028235e+38,3.4028235e+38,3.4028235e+38,3.4028235e+38,3.4028235e+38,3.4028235e+38,3.4028235e+38,3.4028235e+38,3.4028235e+38,3.4028235e+38,3.4028235e+38,3.4028235e+38,3.4028235e+38,3.4028235e+38,3.4028235e+38,3.4028235e+38,3.4028235e+38,3.4028235e+38,3.4028235e+38,3.4028235e+38,3.4028235e+38,3.4028235e+38,3.4028235e+38,3.4028235e+38,3.4028235e+38,3.4028235e+38,3.4028235e+38,3.4028235e+38,3.4028235e+38,3.4028235e+38,3.4028235e+38,3.4028235e+38,3.4028235e+38,3.4028235e+38,3.4028235e+38,3.4028235e+38,3.4028235e+38,3.4028235e+38,3.4028235e+38,3.4028235e+38,3.4028235e+38,3.4028235e+38,3.4028235e+38,3.4028235e+38,3.4028235e+38,3.4028235e+38,3.4028235e+38,3.4028235e+38,3.4028235e+38,3.4028235e+38,3.4028235e+38,3.4028235e+38,3.4028235e+38,3.4028235e+38,3.4028235e+38,3.4028235e+38,3.4028235e+38,3.4028235e+38,3.4028235e+38,3.4028235e+38,3.4028235e+38,3.4028235e+38,3.4028235e+38,3.4028235e+38,3.4028235e+38,3.4028235e+38,3.4028235e+38,3.4028235e+38,3.4028235e+38,3.4028235e+38,3.4028235e+38,3.4028235e+38,3.4028235e+38,3.4028235e+38,3.4028235e+38,3.4028235e+38,3.4028235e+38,3.4028235e+38,3.4028235e+38,3.4028235e+38,3.4028235e+38,3.4028235e+38,3.4028235e+38,3.4028235e+38,3.4028235e+38,3.4028235e+38,3.4028235e+38,3.4028235e+38,3.4028235e+38,3.4028235e+38,3.4028235e+38,3.4028235e+38,3.4028235e+38,3.4028235e+38,3.4028235e+38,3.4028235e+38,3.4028235e+38,3.4028235e+38,3.4028235e+38,3.4028235e+38,3.4028235e+38,3.4028235e+38,3.4028235e+38,3.4028235e+38,3.4028235e+38,3.4028235e+38,3.4028235e+38,3.4028235e+38,3.4028235e+38,3.4028235e+38,3.4028235e+38,3.4028235e+38,3.4028235e+38,3.4028235e+38,3.4028235e+38,3.4028235e+38,3.4028235e+38,3.4028235e+38,3.4028235e+38,3.4028235e+38,3.4028235e+38,3.4028235e+38,3.4028235e+38,3.4028235e+38,3.4028235e+38,3.4028235e+38,3.4028235e+38,3.4028235e+38,3.4028235e+38,3.4028235e+38,3.4028235e+38,3.4028235e+38,3.4028235e+38,3.4028235e+38,3.4028235e+38,3.4028235e+38,3.4028235e+38,3.4028235e+38,3.4028235e+38,3.4028235e+38,3.4028235e+38,3.4028235e+38,3.4028235e+38,3.4028235e+38,3.4028235e+38,3.4028235e+38,3.4028235e+38,3.4028235e+38,3.4028235e+38,3.4028235e+38,3.4028235e+38,3.4028235e+38,3.4028235e+38,3.4028235e+38,3.4028235e+38,3.4028235e+38,3.4028235e+38,3.4028235e+38,3.4028235e+38,3.4028235e+38,3.4028235e+38,3.4028235e+38,3.4028235e+38,3.4028235e+38,3.4028235e+38,3.4028235e+38,3.4028235e+38,3.4028235e+38,3.4028235e+38,3.4028235e+38,3.4028235e+38,3.4028235e+38,3.4028235e+38,3.4028235e+38,3.4028235e+38,3.4028235e+38,3.4028235e+38,3.4028235e+38,3.4028235e+38,3.4028235e+38,3.4028235e+38,3.4028235e+38,3.4028235e+38,3.4028235e+38,3.4028235e+38,3.4028235e+38,3.4028235e+38,3.4028235e+38,3.4028235e+38,3.4028235e+38,3.4028235e+38,3.4028235e+38,
0.0,0.0,0.0,0.0,0.0,0.0,0.0,0.0,0.0,0.0,0.0,0.0,0.0,0.0,0.0,0.0,0.0,0.0,0.0,0.0,0.0,0.0,0.0,0.0,0.0,0.0,0.0,0.0,0.0,0.0,0.0,0.0,0.0,0.0,0.0,0.0,0.0,0.0,0.0,0.0,0.0,0.0,0.0,0.0,0.0,0.0,0.0,0.0,0.0,0.0,0.0,0.0,0.0,0.0,0.0,0.0,0.0,0.0,0.0,0.0,0.0,0.0,0.0,0.0,0.0,0.0,0.0,0.0,0.0,0.0,0.0,0.0,0.0,0.0,0.0,0.0,0.0,0.0,0.0,0.0,0.0,0.0,0.0,0.0,0.0,0.0,0.0,0.0,0.0,0.0,0.0,0.0,0.0,0.0,0.0,0.0,0.0,0.0,0.0,0.0,0.0,0.0,0.0,0.0,0.0,0.0,0.0,0.0,0.0,0.0,0.0,0.0,0.0,0.0,0.0,0.0,0.0,0.0,0.0,0.0,0.0,0.0,0.0,0.0,0.0,0.0,0.0,0.0,0.0,0.0,0.0,0.0,0.0,0.0,0.0,0.0,0.0,0.0,0.0,0.0,0.0,0.0,0.0,0.0,0.0,0.0,0.0,0.0,0.0,0.0,0.0,0.0,0.0,0.0,0.0,0.0,0.0,0.0,0.0,0.0,0.0,0.0,0.0,0.0,0.0,0.0,0.0,0.0,0.0,0.0,0.0,0.0,0.0,0.0,0.0,0.0,0.0,0.0,0.0,0.0,0.0,0.0,0.0,0.0,0.0,0.0,0.0,0.0,0.0,0.0,0.0,0.0,0.0,0.0,0.0,0.0,0.0,0.0,0.0,0.0,0.0,0.0,0.0,0.0,0.0,0.0,0.0,0.0,0.0,0.0,0.0,0.0,0.0,0.0,0.0,0.0,0.0,0.0,0.0,0.0,0.0,0.0,0.0,0.0,0.0,0.0,0.0,0.0,0.0,0.0,0.0,0.0,0.0,0.0,0.0,0.0,0.0,0.0,0.0,0.0,0.0,0.0,0.0,0.0,0.0,0.0,0.0,0.0,0.0,0.0,0.0,0.0,0.0,0.0,0.0,0.0,0.0,0.0,0.0,0.0,0.0,0.0,0.0,0.0,0.0,0.0,0.0,0.0,0.0,0.0,0.0,0.0,0.0,0.0,0.0,0.0,0.0,0.0,0.0,0.0,0.0,0.0,0.0,0.0,0.0,0.0,0.0,0.0,0.0,0.0,0.0,0.0,0.0,0.0,0.0,0.0,0.0,0.0,0.0,0.0,0.0,0.0,0.0,0.0,0.0,0.0,0.0,0.0,0.0,0.0,0.0,0.0,0.0,0.0,0.0,0.0,0.0,0.0,0.0,0.0,0.0,0.0,0.0,0.0,0.0,0.0,0.0,0.0,0.0,0.0,0.0,0.0,0.0,0.0,0.0,0.0,0.0,0.0,0.0,0.0,0.0,0.0,0.0,0.0,0.0,0.0,0.0,0.0,0.0,0.0,0.0,0.0,0.0,0.0,0.0,0.0,0.0,0.0,0.0,0.0,0.0,0.0,0.0,0.0,0.0,0.0,0.0,0.0,0.0,0.0,0.0,0.0,0.0,0.0,0.0,0.0,0.0,0.0,0.0,0.0,0.0,0.0,0.0,0.0,0.0,0.0,0.0,0.0,0.0,0.0,0.0,0.0,0.0,0.0,0.0,0.0,0.0,0.0,0.0,0.0,0.0,0.0,0.0,0.0,0.0,0.0,0.0,0.0,0.0,0.0,0.0,0.0,0.0,0.0,0.0,0.0,0.0,0.0,0.0,0.0,0.0,0.0,0.0,0.0,0.0,0.0,0.0,0.0,0.0,0.0,0.0,0.0,0.0,0.0,0.0,0.0,0.0,0.0,0.0,0.0,0.0,0.0,0.0,0.0,0.0,0.0,0.0,0.0,0.0,0.0,0.0,0.0,0.0,0.0,0.0,0.0,0.0,0.0,0.0,0.0,0.0,0.0,0.0,0.0,0.0,0.0,0.0,0.0,0.0,0.0,0.0,0.0,0.0,0.0,0.0,0.0,0.0,0.0,0.0,0.0,0.0,0.0,0.0,0.0,0.0,0.0,0.0,0.0,0.0,0.0,0.0,0.0,0.0,0.0,0.0,0.0,0.0,0.0,0.0,0.0,0.0,0.0,0.0,0.0,0.0,0.0,0.0,0.0,0.0,0.0,0.0,0.0,0.0,0.0,0.0,0.0,0.0,0.0,0.0,0.0,0.0,0.0,0.0,0.0,0.0,0.0,0.0,0.0,0.0,0.0,0.0,0.0,0.0,0.0,0.0,0.0,0.0,0.0,0.0,0.0,0.0,0.0,0.0,0.0,0.0,0.0,0.0,0.0,0.0,0.0,0.0,0.0,0.0,0.0,0.0,0.0,0.0,0.0,0.0,0.0,0.0,0.0,0.0,0.0,0.0,0.0,0.0,0.0,0.0,0.0,0.0,0.0,0.0,0.0,0.0,0.0,0.0,0.0,0.0,0.0,0.0,0.0,0.0,0.0,0.0,0.0,0.0,0.0,0.0,0.0,0.0,0.0,0.0,0.0,0.0,0.0,0.0,0.0,0.0,0.0,0.0,0.0,0.0,0.0,0.0,0.0,0.0,0.0,0.0,0.0,0.0,0.0,0.0,0.0,0.0,0.0,0.0,0.0,0.0,0.0,0.0,0.0,0.0,0.0,0.0,0.0,0.0,0.0,0.0,0.0,0.0,0.0,0.0,0.0,0.0,0.0,0.0,0.0,0.0,0.0,0.0,0.0,0.0,0.0,0.0,0.0,0.0,0.0,0.0,0.0,0.0,0.0,0.0,0.0,0.0,0.0,0.0,0.0,0.0,0.0,0.0,0.0,0.0,0.0,0.0,0.0,0.0,0.0,0.0,0.0,0.0,0.0,0.0,0.0,0.0,0.0,0.0,0.0,0.0,0.0,0.0,0.0,0.0,0.0,0.0,0.0,0.0,0.0,0.0,0.0,0.0,0.0,0.0,0.0,0.0,0.0,0.0,0.0,0.0,0.0,0.0,0.0,0.0,0.0,0.0,0.0,0.0,0.0,0.0,0.0,0.0,0.0,0.0,0.0,0.0,0.0,0.0,0.0,0.0,0.0,0.0,0.0,0.0,0.0,0.0,0.0,0.0,0.0,0.0,0.0,0.0,0.0,0.0,0.0,0.0,0.0,0.0,0.0,0.0,0.0,0.0,0.0,0.0,0.0,0.0,0.0,0.0,0.0,0.0,0.0,0.0,0.0,0.0,0.0,0.0,0.0,0.0,0.0,0.0,0.0,0.0,0.0,0.0,0.0,0.0,0.0,0.0,0.0,0.0,0.0,0.0,0.0,0.0,0.0,0.0,0.0,0.0,0.0,0.0,0.0,0.0,0.0,0.0,0.0,0.0,
1.0,1.0,1.0,1.0,1.0,1.0,1.0,1.0,1.0,1.0,1.0,1.0,1.0,1.0,1.0,1.0,1.0,1.0,1.0,1.0,1.0,1.0,1.0,1.0,1.0,1.0,1.0,1.0,1.0,1.0,1.0,1.0,1.0,1.0,1.0,1.0,1.0,1.0,1.0,1.0,1.0,1.0,1.0,1.0,1.0,1.0,1.0,1.0,1.0,1.0,1.0,1.0,1.0,1.0,1.0,1.0,1.0,1.0,1.0,1.0,1.0,1.0,1.0,1.0,1.0,1.0,1.0,1.0,1.0,1.0,1.0,1.0,1.0,1.0,1.0,1.0,1.0,1.0,1.0,1.0,1.0,1.0,1.0,1.0,1.0,1.0,1.0,1.0,1.0,1.0,1.0,1.0,1.0,1.0,1.0,1.0,1.0,1.0,1.0,1.0,1.0,1.0,1.0,1.0,1.0,1.0,1.0,1.0,1.0,1.0,1.0,1.0,1.0,1.0,1.0,1.0,1.0,1.0,1.0,1.0,1.0,1.0,1.0,1.0,1.0,1.0,1.0,1.0,1.0,1.0,1.0,1.0,1.0,1.0,1.0,1.0,1.0,1.0,1.0,1.0,1.0,1.0,1.0,1.0,1.0,1.0,1.0,1.0,1.0,1.0,1.0,1.0,1.0,1.0,1.0,1.0,1.0,1.0,1.0,1.0,1.0,1.0,1.0,1.0,1.0,1.0,1.0,1.0,1.0,1.0,1.0,1.0,1.0,1.0,1.0,1.0,1.0,1.0,1.0,1.0,1.0,1.0,1.0,1.0,1.0,1.0,1.0,1.0,1.0,1.0,1.0,1.0,1.0,1.0,1.0,1.0,1.0,1.0,1.0,1.0,1.0,1.0,1.0,1.0,1.0,1.0,1.0,1.0,1.0,1.0,1.0,1.0,1.0,1.0,1.0,1.0,1.0,1.0,1.0,1.0,1.0,1.0,1.0,1.0,1.0,1.0,1.0,1.0,1.0,1.0,1.0,1.0,1.0,1.0,1.0,1.0,1.0,1.0,1.0,1.0,1.0,1.0,1.0,1.0,1.0,1.0,1.0,1.0,1.0,1.0,1.0,1.0,1.0,1.0,1.0,1.0,1.0,1.0,1.0,1.0,1.0,1.0,1.0,1.0,1.0,1.0,1.0,1.0,1.0,1.0,1.0,1.0,1.0,1.0,1.0,1.0,1.0,1.0,1.0,1.0,1.0,1.0,1.0,1.0,1.0,1.0,1.0,1.0,1.0,1.0,1.0,1.0,1.0,1.0,1.0,1.0,1.0,1.0,1.0,1.0,1.0,1.0,1.0,1.0,1.0,1.0,1.0,1.0,1.0,1.0,1.0,1.0,1.0,1.0,1.0,1.0,1.0,1.0,1.0,1.0,1.0,1.0,1.0,1.0,1.0,1.0,1.0,1.0,1.0,1.0,1.0,1.0,1.0,1.0,1.0,1.0,1.0,1.0,1.0,1.0,1.0,1.0,1.0,1.0,1.0,1.0,1.0,1.0,1.0,1.0,1.0,1.0,1.0,1.0,1.0,1.0,1.0,1.0,1.0,1.0,1.0,1.0,1.0,1.0,1.0,1.0,1.0,1.0,1.0,1.0,1.0,1.0,1.0,1.0,1.0,1.0,1.0,1.0,1.0,1.0,1.0,1.0,1.0,1.0,1.0,1.0,1.0,1.0,1.0,1.0,1.0,1.0,1.0,1.0,1.0,1.0,1.0,1.0,1.0,1.0,1.0,1.0,1.0,1.0,1.0,1.0,1.0,1.0,1.0,1.0,1.0,1.0,1.0,1.0,1.0,1.0,1.0,1.0,1.0,1.0,1.0,1.0,1.0,1.0,1.0,1.0,1.0,1.0,1.0,1.0,1.0,1.0,1.0,1.0,1.0,1.0,1.0,1.0,1.0,1.0,1.0,1.0,1.0,1.0,1.0,1.0,1.0,1.0,1.0,1.0,1.0,1.0,1.0,1.0,1.0,1.0,1.0,1.0,1.0,1.0,1.0,1.0,1.0,1.0,1.0,1.0,1.0,1.0,1.0,1.0,1.0,1.0,1.0,1.0,1.0,1.0,1.0,1.0,1.0,1.0,1.0,1.0,1.0,1.0,1.0,1.0,1.0,1.0,1.0,1.0,1.0,1.0,1.0,1.0,1.0,1.0,1.0,1.0,1.0,1.0,1.0,1.0,1.0,1.0,1.0,1.0,1.0,1.0,1.0,1.0,1.0,1.0,1.0,1.0,1.0,1.0,1.0,1.0,1.0,1.0,1.0,1.0,1.0,1.0,1.0,1.0,1.0,1.0,1.0,1.0,1.0,1.0,1.0,1.0,1.0,1.0,1.0,1.0,1.0,1.0,1.0,1.0,1.0,1.0,1.0,1.0,1.0,1.0,1.0,1.0,1.0,1.0,1.0,1.0,1.0,1.0,1.0,1.0,1.0,1.0,1.0,1.0,1.0,1.0,1.0,1.0,1.0,1.0,1.0,1.0,1.0,1.0,1.0,1.0,1.0,1.0,1.0,1.0,1.0,1.0,1.0,1.0,1.0,1.0,1.0,1.0,1.0,1.0,1.0,1.0,1.0,1.0,1.0,1.0,1.0,1.0,1.0,1.0,1.0,1.0,1.0,1.0,1.0,1.0,1.0,1.0,1.0,1.0,1.0,1.0,1.0,1.0,1.0,1.0,1.0,1.0,1.0,1.0,1.0,1.0,1.0,1.0,1.0,1.0,1.0,1.0,1.0,1.0,1.0,1.0,1.0,1.0,1.0,1.0,1.0,1.0,1.0,1.0,1.0,1.0,1.0,1.0,1.0,1.0,1.0,1.0,1.0,1.0,1.0,1.0,1.0,1.0,1.0,1.0,1.0,1.0,1.0,1.0,1.0,1.0,1.0,1.0,1.0,1.0,1.0,1.0,1.0,1.0,1.0,1.0,1.0,1.0,1.0,1.0,1.0,1.0,1.0,1.0,1.0,1.0,1.0,1.0,1.0,1.0,1.0,1.0,1.0,1.0,1.0,1.0,1.0,1.0,1.0,1.0,1.0,1.0,1.0,1.0,1.0,1.0,1.0,1.0,1.0,1.0,1.0,1.0,1.0,1.0,1.0,1.0,1.0,1.0,1.0,1.0,1.0,1.0,1.0,1.0,1.0,1.0,1.0,1.0,1.0,1.0,1.0,1.0,1.0,1.0,1.0,1.0,1.0,1.0,1.0,1.0,1.0,1.0,1.0,1.0,1.0,1.0,1.0,1.0,1.0,1.0,1.0,1.0,1.0,1.0,1.0,1.0,1.0,1.0,1.0,1.0,1.0,1.0,1.0,1.0,1.0,1.0,1.0,1.0,1.0,1.0,1.0,1.0,1.0,1.0,1.0,1.0,1.0,1.0,1.0,1.0,1.0,1.0,1.0,1.0,1.0,1.0,1.0,1.0,1.0,1.0,1.0,
-7.79325e-03,3.47239e-02,3.06835e-02,5.08391e-03,3.32158e-02,3.48273e-02,4.69264e-03,-1.36865e-02,1.77891e-02,-1.33186e-02,-2.35936e-03,-2.65491e-02,2.33986e-02,4.77716e-03,-5.78634e-02,-2.24978e-03,-1.05527e-03,7.91567e-04,2.67186e-02,2.07170e-02,-2.91873e-02,3.06085e-02,3.78987e-03,-1.19345e-02,2.18641e-02,1.24334e-02,2.87556e-02,-1.97297e-02,2.54811e-02,3.45237e-02,-2.11554e-04,-4.51634e-03,-2.43378e-02,1.77714e-02,1.75476e-02,6.10874e-03,7.64001e-02,7.60525e-02,1.32008e-01,-3.08160e-02,2.85089e-02,-2.17567e-01,-6.15149e-02,-4.09969e-01,-5.71520e-01,-5.83736e-01,-6.09202e-02,-1.44887e-02,2.05478e-02,2.54204e-03,-1.53647e-02,-1.35086e-02,-1.73302e-02,4.21050e-03,-2.78243e-02,1.68640e-03,9.68570e-03,-1.30715e-02,1.53431e-02,9.58027e-03,6.65466e-02,-1.30535e-02,-1.59418e-02,-1.27117e-01,5.17171e-02,1.96703e-01,3.40752e-01,-2.10729e-01,-2.46342e-01,-3.66889e-01,-6.17146e-01,-8.54162e-01,-7.65191e-01,-4.80058e-01,-3.05498e-01,-1.25301e-01,-1.83838e-01,-4.57611e-01,-1.58021e-01,-3.22248e-01,-1.09407e-01,6.20415e-03,2.35650e-02,2.07877e-02,3.74770e-03,-2.21309e-02,1.10810e-02,1.98477e-01,2.37505e-01,-4.55863e-02,1.94381e-01,2.64188e-01,-4.09976e-01,-3.21660e-01,-2.15001e-02,-2.76199e-02,-2.75630e-01,-1.82517e-01,-2.63070e-01,-3.65382e-01,-3.15136e-01,-4.19670e-02,-9.25691e-02,2.29911e-01,1.50951e-01,-1.15863e-02,-2.90186e-01,-3.55629e-01,-1.15718e-01,-1.08882e-01,2.61472e-03,-3.14880e-03,-2.29610e-02,5.40166e-03,-2.89546e-01,2.96930e-01,4.32494e-02,-1.35371e-01,-3.94029e-02,3.34819e-01,1.78358e-02,-2.29701e-02,5.83049e-02,1.36723e-02,2.48461e-02,-1.38152e-01,-7.32375e-01,-1.92701e-01,-1.06317e-01,-1.09485e-01,5.20638e-02,4.48001e-01,6.47546e-02,-1.01551e-01,-3.66835e-01,-5.00053e-01,-2.41372e-01,7.97828e-02,2.02375e-01,3.51504e-02,2.02602e-02,9.80245e-03,-3.41044e-01,3.76759e-01,-1.29519e-02,-1.75923e-01,-4.96980e-01,-6.47150e-01,-3.70872e-01,5.84326e-03,2.14363e-01,2.16445e-02,7.35395e-02,-5.55684e-01,-4.62478e-01,-3.44785e-01,6.45584e-03,3.34319e-01,2.46887e-01,8.78905e-02,-1.43661e-03,-2.21378e-01,-3.47555e-01,-4.98941e-01,-2.32961e-01,-2.58762e-01,6.78774e-02,4.31882e-01,5.33445e-04,-2.05837e-02,-4.19726e-01,2.25673e-01,1.29043e-01,-8.91363e-02,3.73569e-02,-8.85696e-02,4.53967e-02,3.03557e-01,-1.18403e-01,-1.93912e-01,-1.14706e-01,-4.54741e-01,-7.69954e-01,-2.91077e-01,1.25927e-01,3.08587e-01,2.15787e-01,7.70353e-02,9.99029e-03,-1.61881e-01,-7.00737e-02,2.13146e-01,2.59623e-01,-8.06800e-02,1.11508e-01,1.45841e-01,-1.63021e-02,-6.70574e-02,-5.01396e-01,1.07005e-01,5.99904e-02,2.88370e-01,6.95586e-02,-1.58660e-01,3.47700e-02,7.23786e-02,-8.25779e-02,2.00090e-02,-2.77160e-02,-4.76883e-01,-7.44613e-01,-2.22099e-01,1.11715e-01,4.49507e-01,3.13298e-01,2.21185e-01,1.22437e-01,-5.56869e-02,-1.09815e-01,6.62285e-02,1.00973e-01,-8.02972e-02,-9.01320e-03,-2.83824e-01,2.92599e-01,-4.68245e-01,-6.38158e-02,2.05847e-01,3.32223e-01,2.53892e-01,-1.72187e-01,-6.96025e-02,-5.01618e-02,1.73432e-01,1.43006e-01,7.43713e-02,-1.09474e-01,-4.69160e-01,-4.96355e-01,-1.70281e-01,2.80284e-01,4.18775e-01,1.15719e-01,-6.47603e-03,1.04945e-01,1.34473e-01,-1.73187e-01,8.58147e-02,5.43774e-02,3.19568e-02,-1.34344e-01,-2.67881e-01,7.83588e-02,3.87584e-02,-1.91905e-01,-5.73973e-02,1.91692e-01,-7.47479e-04,-1.01478e-01,-7.94553e-02,2.03855e-01,2.32484e-01,2.70421e-01,1.04444e-01,-5.91955e-02,-5.78855e-01,-5.95465e-01,-6.34136e-02,3.96684e-01,2.28847e-01,8.22734e-02,1.35604e-03,3.53089e-02,3.68225e-02,-6.07861e-02,-5.90916e-02,-5.53565e-02,3.73370e-01,-1.32774e-01,4.06334e-01,1.37191e-01,7.52868e-02,-1.70092e-01,8.60856e-02,3.23262e-01,1.38246e-01,-2.82945e-01,-6.12534e-02,1.24870e-01,2.90177e-01,2.26246e-01,1.64305e-01,-9.78829e-02,-6.86073e-01,-5.54342e-01,9.57162e-02,2.48050e-01,2.64726e-01,8.80739e-02,-1.77868e-02,-2.34494e-01,-1.87538e-02,-3.36171e-01,-6.09921e-01,-1.00209e-01,1.63077e-01,2.82516e-01,8.65220e-02,8.77619e-02,3.71703e-01,-2.57709e-01,3.72967e-01,5.23284e-02,2.16593e-01,-1.36354e-01,-8.15751e-02,1.49641e-01,1.20053e-01,4.76158e-02,4.08549e-03,-2.66388e-01,-6.88325e-01,-3.42456e-01,-2.58086e-01,2.82025e-01,9.14916e-02,-7.37486e-02,-2.94723e-01,-3.79272e-01,-2.60863e-01,-7.89956e-01,-8.51335e-01,-6.45036e-01,-2.19851e-01,2.26402e-01,8.11065e-02,3.15095e-02,4.93405e-01,-6.93831e-03,5.27675e-01,-1.18218e-01,9.10472e-03,2.72217e-02,1.13492e-01,-9.54326e-02,-1.09011e-01,1.82051e-01,-2.00060e-02,1.99763e-04,-8.70309e-02,-2.57236e-01,5.57843e-04,2.65024e-01,-5.39658e-02,1.99752e-02,-2.77890e-01,-1.48070e-01,-3.07306e-01,-2.24393e-01,-3.10570e-01,1.11761e-01,3.55129e-01,2.40476e-01,-1.01013e-02,1.17917e-02,3.79421e-01,7.84871e-02,1.99732e-01,-7.46088e-02,1.26524e-01,2.03433e-01,1.21770e-01,-5.96922e-02,1.17270e-02,5.68887e-02,1.75508e-02,-1.04175e-01,-3.24966e-01,-2.41027e-01,2.40188e-02,9.62959e-02,6.38254e-02,2.55990e-01,-1.91923e-01,-6.50221e-02,-1.87924e-01,3.24190e-01,9.63490e-02,-1.35827e-02,2.53347e-01,-4.17657e-01,-2.66485e-02,-5.48011e-03,2.82637e-01,-2.74759e-01,1.60163e-02,1.65611e-01,4.89009e-01,1.99311e-01,1.13330e-01,7.98340e-02,1.86090e-01,1.99551e-01,-2.11382e-02,-1.35314e-01,-8.52884e-02,-1.35078e-01,-2.16797e-03,6.81869e-02,1.47133e-01,-1.57313e-02,1.39388e-01,-1.28795e-01,3.88047e-02,9.70184e-03,1.79675e-01,1.83670e-01,-9.74509e-02,3.03706e-03,-3.91394e-02,1.87360e-03,1.27347e-01,7.39155e-01,5.07521e-01,3.02172e-01,7.69860e-02,2.61586e-02,1.51956e-01,8.55860e-02,1.09008e-01,1.12906e-01,1.15609e-01,1.26413e-01,1.01439e-01,1.50692e-01,8.43778e-02,5.39886e-02,5.01650e-02,-1.46209e-01,2.83260e-02,8.83990e-02,-4.85433e-02,-4.43238e-02,1.16550e-01,1.21987e-01,-8.79477e-02,2.83496e-01,-1.53674e-01,-3.26181e-03,-4.57878e-02,2.93575e-01,4.28426e-01,2.46835e-01,-1.73186e-01,2.17148e-01,1.48676e-01,-1.63549e-02,3.33371e-03,-8.49939e-03,3.79237e-02,9.70619e-02,-7.35450e-02,5.83630e-02,2.06264e-01,1.45718e-01,-2.40049e-03,1.27526e-01,3.93261e-02,1.91626e-01,2.24458e-01,-2.89771e-01,-8.94542e-03,1.97836e-01,2.30989e-01,-9.05617e-02,-1.41168e-03,2.20358e-02,-4.22045e-02,5.80158e-01,7.07404e-02,4.05522e-01,5.12956e-02,2.54556e-01,1.66065e-01,-3.33521e-02,6.62087e-02,3.71214e-02,1.36929e-02,-2.46860e-01,-2.35856e-01,1.32280e-01,2.24874e-01,1.87690e-01,-8.10306e-02,6.65175e-02,-7.52948e-02,1.55137e-01,9.72447e-02,-2.34135e-01,8.38778e-02,2.94751e-01,3.01717e-01,6.63857e-02,1.46617e-02,-1.83828e-01,2.14346e-02,5.98776e-01,1.18656e-01,-4.49773e-02,1.93736e-01,6.98078e-02,8.57999e-03,-1.57270e-01,1.92166e-02,-3.43434e-01,-2.97847e-01,-3.97415e-01,2.93056e-02,2.52004e-01,3.76597e-02,-6.19901e-02,-9.63600e-02,-7.05809e-02,-2.57466e-01,-3.93524e-02,4.18539e-02,-2.70924e-01,1.86341e-01,3.49199e-01,8.94896e-02,-3.34180e-01,-5.41170e-02,1.89574e-02,-4.37856e-02,-1.73004e-02,1.18198e-01,-1.51214e-01,1.52344e-01,-2.44912e-02,-3.84023e-02,4.68697e-02,1.80700e-01,1.31338e-01,-1.24385e-01,-4.52306e-01,7.83410e-02,1.42169e-01,1.74528e-01,-7.75175e-02,-2.10678e-01,-1.76401e-02,-2.24727e-01,-1.99565e-01,8.05684e-02,-3.55852e-01,-1.24599e-01,2.03872e-01,4.31378e-01,-1.75212e-01,1.20102e-02,-8.66307e-04,-4.10002e-02,7.61713e-03,-1.62229e-01,-1.72872e-01,7.96218e-02,1.35209e-01,-7.64549e-02,1.96765e-02,7.19902e-03,5.28088e-02,-4.16685e-02,1.17074e-02,1.98802e-01,7.94957e-02,1.18192e-01,7.01063e-02,-9.08393e-02,9.60712e-02,-1.58832e-01,5.10786e-03,3.47022e-02,-2.02982e-01,-2.57001e-01,-1.35636e-01,5.88934e-02,-1.86572e-01,2.49139e-02,-3.65240e-02,4.08895e-02,-1.66130e-01,-1.16621e-01,-1.85140e-01,-7.90340e-02,8.50637e-02,-4.24109e-02,1.27225e-01,-5.62389e-02,-1.22972e-01,7.06048e-02,-1.19943e-01,1.35131e-01,2.38907e-01,-9.69586e-02,1.68684e-01,-5.55379e-02,-8.43134e-02,-1.26234e-01,1.58421e-01,3.43852e-01,1.56681e-01,-1.94336e-01,3.55612e-02,1.02354e-01,3.69749e-02,5.29815e-03,1.99591e-03,-2.55551e-02,-2.95647e-01,-2.08278e-02,-8.42805e-02,-3.84306e-02,8.44033e-02,-7.30261e-02,-6.60053e-02,-2.91901e-01,-3.02844e-01,1.51049e-02,-2.18952e-01,1.49041e-01,2.38615e-01,6.03278e-02,1.69617e-01,-3.56107e-02,-9.15045e-02,-5.18763e-02,4.69044e-02,4.17995e-01,1.82634e-01,-3.89699e-01,-2.15561e-01,1.46753e-02,7.22387e-02,-8.11822e-03,-3.45632e-02,-2.81083e-02,-3.42603e-01,1.87474e-01,-2.49142e-02,1.24664e-01,1.46056e-01,1.81579e-01,-5.19533e-02,-5.23060e-02,-5.39475e-02,-2.42570e-01,-2.44844e-02,1.57614e-01,2.26460e-01,1.35052e-01,1.14846e-01,4.36861e-02,7.62254e-02,-1.02430e-01,-1.50105e-01,3.35657e-01,-1.82839e-01,-4.15427e-01,-4.19792e-01,4.75301e-02,1.80932e-01,3.17254e-02,-3.34619e-03,-8.52526e-03,-2.58926e-01,-7.01959e-02,-2.75742e-01,-1.81750e-01,-1.60298e-01,-1.55015e-01,-2.17646e-01,-1.93912e-01,-3.70146e-01,-2.94510e-01,-1.75977e-01,2.35861e-01,3.63131e-01,1.13170e-01,2.06818e-01,2.77010e-01,2.52499e-01,3.54378e-02,4.79041e-03,-3.52765e-02,-3.53507e-01,-5.28480e-01,-3.79334e-01,-4.22006e-02,-8.30540e-02,-2.53862e-02,-8.57379e-03,-3.91288e-03,-2.13752e-02,-2.04166e-02,-2.67937e-01,1.78286e-01,3.46895e-02,9.16189e-02,-1.36642e-02,-2.90384e-01,-2.84208e-01,-8.16090e-02,-1.92302e-01,-2.15107e-01,-1.38906e-01,-2.30202e-01,-1.24092e-01,-1.55578e-01,1.03832e-01,-1.46031e-01,-3.12750e-01,-1.49950e-01,-4.56204e-01,-4.61729e-01,-2.46713e-02,-8.27561e-02,-6.10847e-02,-1.93375e-02,1.57465e-02,3.09353e-02,-2.17991e-02,2.07390e-03,3.03548e-01,2.73205e-01,8.29566e-02,-6.22330e-02,-1.43778e-01,-3.54309e-01,-2.36309e-01,-3.75387e-01,-2.64988e-01,-4.72195e-01,-7.37263e-01,-6.42992e-01,-2.97614e-01,-1.94345e-02,-1.42359e-01,-3.22898e-01,-4.41908e-01,-4.46751e-01,-2.59269e-01,-2.92303e-01,-1.53535e-01,2.06506e-02,4.37648e-03,-2.28913e-02,1.08978e-03,-1.34721e-02,-1.83453e-02,6.45999e-03,3.36438e-02,-3.14490e-02,-8.98188e-02,-4.78733e-02,-9.45243e-02,3.04598e-01,-4.66582e-02,-5.19810e-02,1.83285e-01,-2.30093e-02,-7.50723e-01,-3.53299e-01,-2.03259e-01,-2.33476e-01,-4.85812e-01,-4.49012e-01,-3.80883e-01,-1.93504e-01,-5.27203e-02,5.32798e-02,2.13526e-02,-2.63050e-02,-3.13808e-03,1.31256e-02,
-3.20728e-02,6.91658e-03,-3.42350e-02,-2.54401e-02,-1.35222e-02,2.68968e-02,2.84024e-02,-2.56301e-02,-1.80024e-02,2.81884e-02,5.40884e-03,-2.03632e-02,-4.35136e-02,1.59205e-02,7.66390e-02,8.33473e-03,-2.78429e-02,-2.60089e-02,9.06830e-03,-1.21116e-02,2.09339e-02,2.22219e-02,-4.60984e-03,3.02014e-02,-3.32966e-02,-3.34199e-02,-1.62569e-02,-4.41167e-03,-2.34557e-02,-1.81422e-02,-1.64292e-03,2.53889e-02,6.18035e-03,-3.11376e-02,1.00767e-01,1.08747e-01,1.26197e-02,-2.28441e-02,1.25886e-01,2.05447e-01,2.03445e-01,2.27161e-01,4.84625e-02,2.72481e-02,2.18987e-01,1.34848e-01,1.72004e-01,3.66866e-01,2.55881e-01,-2.51223e-02,6.27271e-02,7.25601e-02,-6.11843e-03,1.71055e-02,4.06292e-03,-1.64471e-02,1.92302e-03,-1.45250e-02,8.57127e-02,1.67323e-02,8.56572e-03,3.13911e-02,1.54605e-01,4.30043e-02,7.09919e-02,3.60381e-02,-1.31400e-02,1.63766e-01,-2.81663e-01,-3.67934e-01,-1.33180e-01,1.21107e-01,2.42467e-01,3.48715e-01,1.35083e-01,-4.78602e-02,-1.32562e-02,8.32165e-02,-3.87783e-02,-4.54349e-03,3.61712e-02,-2.08475e-03,-1.51774e-02,3.20595e-02,-2.97577e-02,-9.51707e-03,-1.33226e-01,-1.20435e-02,7.61963e-02,1.77968e-01,8.50125e-02,-2.65733e-01,-6.41934e-02,-4.65023e-01,-5.46868e-01,-9.06072e-02,7.44838e-02,3.68645e-01,1.52040e-01,6.00957e-02,-2.10137e-01,-7.38871e-02,1.33170e-01,5.42671e-02,-2.14386e-01,-1.51281e-01,-3.22999e-02,-2.38704e-01,-2.53974e-01,3.21060e-02,-4.57581e-03,-2.73504e-02,3.07971e-02,3.12126e-03,-1.10400e-01,-1.70559e-01,1.23374e-01,-8.05170e-03,-5.35101e-02,-3.45253e-01,-4.72315e-02,-3.39661e-01,-3.23293e-01,-3.32050e-01,-2.09821e-01,-2.49203e-01,-1.13297e-01,-1.74280e-01,-1.46688e-01,-1.71435e-01,-1.03075e-01,-5.26914e-02,-1.37586e-01,-2.99022e-01,-4.86060e-01,-5.79899e-01,-4.65476e-01,-2.85204e-01,4.95015e-03,7.30506e-03,2.16788e-02,1.65915e-02,-9.68979e-02,-2.76832e-01,-2.75821e-02,-1.80936e-01,-9.13716e-02,-1.14601e-01,-2.77670e-01,-3.50469e-01,-3.93582e-01,-4.62454e-01,-2.20657e-01,-8.75106e-02,-5.08219e-02,4.01520e-02,1.28001e-02,-4.31508e-02,-1.69467e-01,-3.85334e-01,-2.71763e-01,-1.97217e-01,-2.01304e-01,-3.73785e-01,-5.02115e-01,-2.58069e-01,7.56286e-02,3.51317e-02,1.29358e-02,8.46848e-02,3.95459e-01,1.32849e-01,4.24224e-02,-2.15585e-01,-1.63167e-01,-1.86665e-01,-4.48160e-02,6.20550e-02,-8.96253e-02,-5.15967e-02,2.16452e-01,3.13447e-01,3.80954e-01,3.43054e-01,5.49355e-02,1.90122e-01,-1.10630e-01,-6.31158e-01,-3.16788e-01,-3.48763e-01,-3.64837e-01,-7.13568e-01,-7.47858e-01,-2.73665e-01,-2.96315e-03,3.01238e-02,-2.06789e-02,-3.79772e-01,3.31335e-01,2.60625e-01,7.64877e-02,-3.03498e-01,-2.24041e-01,-4.50051e-01,4.20092e-02,2.03616e-01,2.49101e-01,3.90638e-01,2.11512e-01,4.41689e-01,3.96445e-01,3.11070e-01,2.80923e-01,-1.43205e-01,-1.85861e-01,-3.41939e-01,-2.09692e-01,-3.57714e-01,-4.68654e-01,-9.91788e-01,-7.98568e-01,-3.08205e-01,1.61853e-01,1.29237e-01,2.20970e-02,-2.18419e-02,2.20813e-01,3.13374e-01,2.92525e-03,-1.06990e-01,-1.06297e-01,-7.08086e-02,1.02064e-01,3.35321e-01,5.61155e-01,3.39793e-01,3.43134e-01,2.69744e-01,1.65537e-01,5.04067e-02,-5.20580e-02,-1.11574e-01,-6.77365e-02,7.74646e-02,-1.33197e-01,-2.57387e-01,-1.85350e-01,-6.42439e-01,-9.96748e-01,-4.80541e-01,4.39535e-01,3.05815e-01,3.44124e-02,-8.78314e-02,1.66035e-01,3.73962e-01,1.03669e-01,-1.01149e-01,1.86202e-01,3.10496e-01,2.68440e-01,3.93154e-01,2.62227e-01,1.11783e-01,-5.89846e-02,8.30235e-03,-3.26499e-02,-1.63335e-01,-3.40954e-01,-7.19089e-02,-6.56491e-02,-1.85326e-01,-3.48780e-01,-3.38679e-01,-1.51250e-01,-2.87204e-01,-3.61342e-01,-2.52018e-01,5.04426e-01,1.86957e-03,2.58398e-02,-4.65069e-02,1.28189e-01,4.00929e-01,1.62819e-01,5.76854e-02,3.15515e-01,1.28057e-01,3.00582e-01,5.17106e-02,2.93800e-02,-1.83407e-01,-1.84764e-01,-2.72802e-01,-5.82229e-01,-3.65541e-01,-2.46587e-01,-1.60291e-01,-1.45057e-01,-1.84718e-01,-4.08262e-01,-1.68210e-01,-2.20458e-01,1.32221e-01,-2.25012e-01,-2.73684e-01,2.34257e-01,4.67641e-02,1.46243e-02,-8.35267e-02,2.55792e-02,6.46731e-01,4.12318e-01,1.34297e-01,1.62240e-01,-9.77682e-02,-7.24617e-02,1.59317e-02,-1.71921e-01,-1.73650e-02,3.41601e-02,-1.80926e-01,-5.21043e-01,-7.40505e-03,-1.18714e-01,-1.47110e-01,-1.05236e-01,-8.01792e-02,-2.14856e-01,-2.45144e-01,-2.71746e-02,9.25660e-03,2.54310e-01,-2.71310e-02,1.32816e-01,-2.38635e-01,-3.42564e-02,-1.91495e-01,-1.41304e-01,5.33790e-01,4.36033e-01,2.72921e-01,7.96026e-02,-1.93770e-01,-2.33155e-01,-7.49858e-02,-2.43488e-01,7.97258e-02,-1.18337e-01,-4.48649e-01,-1.01294e-01,1.33538e-01,1.42558e-02,-6.51676e-02,-7.86247e-02,-1.42724e-01,-3.45529e-01,-1.22169e-01,-8.51824e-02,1.18091e-01,5.09257e-01,3.17008e-01,-2.00148e-02,-6.04782e-03,1.74466e-02,-1.67573e-01,8.15520e-02,7.19637e-01,2.40924e-01,4.96793e-02,1.11631e-01,-2.78990e-02,-2.36069e-01,-6.88303e-03,-9.18057e-02,2.32796e-02,-1.87418e-01,-2.73616e-01,-5.33031e-02,9.50846e-03,-3.87375e-02,-9.04894e-02,9.98523e-02,1.18186e-01,-1.87159e-01,-1.64801e-01,-6.87706e-02,1.90264e-01,2.35886e-01,2.55781e-01,-3.54622e-02,2.13353e-01,-8.97661e-02,-1.65217e-01,1.06244e-01,6.27585e-01,1.09107e-01,-9.59536e-02,1.41534e-01,-8.87832e-03,-1.60903e-01,4.78373e-03,1.02760e-02,7.05654e-02,-1.81928e-01,-2.58415e-02,-1.01064e-01,-1.53766e-01,-1.22735e-01,-1.78169e-01,3.72123e-01,6.00610e-02,-1.69616e-01,-1.77769e-02,-5.56905e-02,-1.69056e-01,-2.20791e-01,3.99007e-01,-5.13794e-02,1.76964e-01,-5.08857e-02,3.71629e-02,-9.55303e-02,2.98342e-01,-9.29447e-02,6.90845e-02,2.26931e-01,-6.05228e-02,3.44782e-02,5.50601e-02,-7.01964e-02,-8.57635e-02,-3.61177e-02,1.25006e-01,8.02937e-02,2.69429e-03,-5.79313e-02,-3.84133e-02,2.22970e-01,-4.83506e-02,-1.90148e-02,1.09742e-01,-1.95982e-01,-2.74409e-01,8.20565e-02,4.67362e-01,-1.83189e-02,2.47222e-01,1.29593e-03,-5.17231e-02,1.38121e-01,2.25279e-01,-3.97811e-02,5.59781e-02,-3.44019e-02,-3.71255e-02,-1.50661e-01,-1.82937e-01,5.00409e-03,-2.74837e-02,-5.18768e-02,9.28380e-02,9.59746e-02,-1.54408e-01,-5.32998e-02,1.08198e-02,-8.42703e-02,-1.09801e-01,-4.08434e-02,1.19924e-01,-2.14153e-01,2.30995e-02,3.77790e-01,4.07150e-01,3.48756e-01,2.80600e-01,3.45216e-02,1.85680e-02,3.47989e-02,2.77507e-01,8.33693e-02,-6.58236e-02,-4.89080e-02,-4.20167e-04,-1.76396e-01,-3.04201e-01,-6.50127e-02,-1.70632e-02,2.54042e-01,3.17453e-02,-4.77734e-02,3.56292e-02,-4.75348e-03,-3.02395e-02,-2.11275e-01,-2.89663e-01,-3.14659e-02,-1.56946e-03,-5.36368e-02,-5.51880e-02,2.40808e-03,4.65823e-02,3.07247e-01,6.40013e-01,-3.80485e-02,-1.91462e-02,-2.36785e-01,-2.54211e-02,5.69108e-02,-6.93680e-02,-1.57421e-01,-1.33569e-01,-8.59781e-02,-1.68151e-01,8.04341e-02,2.37983e-02,2.85725e-01,-5.62006e-02,-1.35109e-01,1.29446e-01,5.34837e-02,-4.17372e-02,-7.26455e-02,-6.91279e-02,6.31609e-02,5.66234e-02,-2.92801e-02,-2.28759e-01,-3.86534e-01,3.58923e-01,7.62987e-01,1.16399e-01,-7.22769e-02,-2.20284e-02,9.70151e-02,-6.04898e-02,9.75085e-02,-2.11224e-01,-3.51584e-01,-1.61977e-01,-8.33487e-02,-2.91814e-02,-6.31761e-02,1.92846e-01,4.43034e-01,8.04003e-02,8.66073e-02,1.20363e-02,1.41847e-02,6.32855e-02,-4.74829e-03,2.57107e-01,1.97927e-01,1.58721e-01,2.10487e-01,1.27850e-01,-1.01371e-01,5.41826e-01,5.54080e-01,-4.15560e-01,3.33728e-02,-9.14658e-02,1.92755e-01,4.18293e-02,3.08210e-01,1.55942e-01,-1.64281e-01,-2.33704e-01,-1.28454e-02,-9.97517e-02,9.79521e-02,2.12266e-01,3.04415e-01,1.58969e-02,1.56460e-01,2.62834e-01,7.83912e-02,1.05768e-01,5.80917e-02,1.75585e-01,2.98439e-01,2.80418e-01,2.86346e-01,2.24037e-01,3.15473e-01,7.97875e-01,5.06311e-01,-8.74554e-03,-3.35875e-02,-1.23143e-02,9.86610e-03,-9.40020e-02,4.38389e-01,1.27236e-01,-2.88152e-02,-8.44407e-02,5.74910e-03,-8.20516e-02,1.67268e-01,1.26553e-02,2.96661e-01,2.36698e-01,2.98831e-01,3.22112e-01,9.52136e-02,9.64603e-02,7.94471e-02,1.40359e-01,3.02552e-01,1.79090e-01,3.37922e-02,1.14387e-01,3.85102e-01,2.17419e-01,-2.62589e-01,-3.21964e-02,-4.19559e-02,1.24881e-02,1.67820e-01,8.36321e-02,5.44234e-01,3.07499e-01,8.62311e-02,1.10563e-02,7.03585e-02,-1.71464e-01,-3.73521e-01,-1.54566e-01,1.92860e-01,9.04249e-02,2.09528e-01,1.48970e-01,-1.07683e-01,5.32719e-02,-7.19235e-02,-7.97124e-03,2.44132e-01,3.87777e-02,-9.27236e-03,3.46235e-01,3.74565e-01,-1.41491e-01,-3.23761e-01,1.41775e-03,3.47421e-02,1.20854e-02,-1.64488e-01,2.96792e-02,3.36171e-01,2.36995e-01,-1.00666e-01,-7.78459e-02,-1.37448e-01,-2.65600e-01,-4.21227e-01,-3.16110e-01,-3.68378e-01,-1.13418e-01,6.98348e-02,-1.31307e-01,-8.31920e-03,-5.49999e-02,-1.06758e-01,-1.37226e-01,3.44472e-01,-7.10746e-02,1.38820e-01,2.33901e-01,1.22827e-01,-2.53709e-01,-1.30769e-01,2.03192e-02,1.82381e-02,-1.90510e-02,-6.72674e-02,-3.02442e-02,1.48793e-01,3.21106e-02,-1.79545e-01,-1.50171e-01,-2.46715e-01,-2.70203e-01,-5.17183e-01,-3.02565e-01,-1.33249e-02,2.37247e-02,-1.36501e-02,1.20482e-01,-7.38343e-02,5.17848e-02,6.81155e-02,-8.73468e-02,2.56442e-01,1.21523e-01,-7.13444e-02,-1.11990e-01,1.13850e-01,3.62265e-02,-1.41630e-01,1.95448e-02,1.01693e-02,3.13079e-02,-3.46534e-02,-1.87318e-01,-5.72209e-03,-2.25083e-01,-2.86465e-01,9.58349e-03,2.57071e-01,-1.31956e-02,6.82946e-03,-1.79361e-01,9.70205e-02,1.23612e-01,-1.09640e-01,-7.12700e-02,-1.50657e-01,1.92770e-01,4.35103e-01,4.13834e-01,2.63429e-01,3.03757e-01,1.47783e-01,-2.22116e-01,4.03559e-02,-2.99788e-02,-1.24338e-01,2.05816e-02,-2.84566e-02,2.31280e-02,2.17981e-02,-4.25484e-03,2.25476e-01,4.70085e-01,3.33315e-01,1.55897e-01,4.39823e-02,-3.86307e-01,-6.59764e-02,3.35478e-01,9.12766e-03,2.63241e-01,2.12603e-01,2.59461e-01,3.20869e-01,2.10175e-01,4.63148e-01,5.57856e-01,3.63350e-01,2.28321e-01,4.64593e-01,8.18485e-01,3.19962e-01,-1.41412e-03,-4.80878e-04,-2.32105e-02,-8.38539e-03,2.72141e-02,2.43777e-02,6.82242e-03,-2.18707e-02,-3.94683e-02,-4.11049e-03,3.83271e-02,-2.69484e-03,3.18247e-01,2.93850e-01,3.06398e-01,-9.16091e-03,8.78635e-02,2.59816e-01,4.22312e-01,2.15337e-01,1.32824e-01,2.04001e-01,1.88864e-01,3.62730e-01,3.31596e-01,2.66511e-01,-5.95037e-03,3.28868e-02,2.92132e-02,-2.70829e-03,-2.01817e-02,
8.91607e-03,2.75556e-02,3.73000e-03,-2.25068e-03,5.00424e-03,-3.09769e-02,2.54971e-02,3.27409e-02,3.15830e-02,-1.48876e-02,6.91456e-04,5.80614e-03,-2.45697e-02,-2.62411e-02,-1.81711e-02,-1.52325e-02,2.31863e-02,2.00175e-02,-9.43912e-03,2.92314e-03,-1.27004e-02,1.92538e-02,-7.73536e-03,-5.88883e-03,1.69988e-02,3.35780e-02,-1.69672e-02,1.18614e-02,3.03067e-03,-9.60579e-03,1.42062e-02,2.86220e-02,-3.26899e-02,-6.64958e-02,-1.25193e-01,-1.21466e-01,-9.66186e-02,-1.29932e-01,-7.17052e-02,-5.96275e-02,-9.99804e-02,-1.81269e-01,-2.86163e-01,-2.24177e-01,-2.08000e-01,-5.55320e-03,-5.79602e-02,-1.59599e-01,-1.72661e-01,-1.97150e-02,-6.03904e-02,-4.05527e-02,2.14855e-02,7.91640e-03,2.40687e-02,2.75775e-02,9.63363e-03,2.64704e-02,-3.41311e-02,-8.01938e-02,-6.78285e-02,-7.10358e-02,-2.71266e-03,-8.94801e-02,-5.15315e-02,-1.72783e-01,2.58052e-01,7.48947e-02,-5.51725e-01,-6.49008e-01,-8.21004e-01,-6.64065e-01,-3.59112e-01,-2.48719e-01,-2.76749e-01,-3.22529e-01,-1.31034e-01,-1.17497e-01,-8.67466e-02,-3.41964e-02,6.64862e-04,-4.79274e-03,-3.98789e-03,-1.80111e-02,-1.96127e-02,2.08355e-02,-2.60475e-02,-1.48837e-01,-1.42177e-01,-5.17650e-02,4.06697e-02,6.43879e-02,8.39623e-02,1.25974e-01,1.59043e-01,5.00208e-01,2.44219e-01,-4.91145e-01,-5.59503e-01,-3.70979e-01,-2.76259e-01,-4.30253e-01,-4.98872e-01,-1.65182e-01,-6.28784e-02,-1.37833e-01,-2.27640e-01,1.44340e-02,-9.53458e-02,6.46534e-03,1.15831e-02,-2.36679e-02,1.94903e-02,-7.41961e-03,-3.69776e-02,-2.61402e-02,5.60605e-02,1.98759e-01,1.36663e-01,4.11381e-01,8.03973e-02,1.46765e-01,1.69098e-01,2.70126e-02,-2.19506e-01,-2.25999e-02,1.97671e-01,2.78149e-01,1.88247e-01,9.83662e-02,-1.17816e-03,-2.18943e-01,-2.24390e-01,-9.59971e-02,-3.19563e-01,-3.57751e-01,-2.11831e-01,5.10678e-02,9.86308e-02,7.29105e-02,1.39215e-02,2.77136e-02,-4.32938e-02,-1.50584e-01,5.34312e-02,3.43894e-01,5.41378e-01,4.73336e-01,2.56851e-01,3.53518e-01,1.66161e-01,2.19257e-02,1.77564e-02,3.42786e-01,2.04535e-01,7.22016e-02,1.20313e-01,2.09488e-02,-9.79152e-02,1.74866e-02,-3.01089e-01,-2.97339e-01,-3.29822e-01,-1.11257e-01,-9.04310e-02,1.34433e-01,2.14932e-01,7.65731e-03,-1.36405e-03,2.66328e-02,3.31008e-01,-1.08691e-01,-1.65943e-01,4.40604e-01,3.71503e-01,1.34405e-01,1.87877e-01,3.30751e-01,1.03815e-01,-2.00841e-01,6.62994e-02,7.83990e-02,-7.50786e-02,-1.30449e-01,-6.36273e-02,1.55505e-02,-2.66733e-02,1.38463e-02,-1.39303e-01,1.82519e-01,-1.84827e-01,-2.62954e-01,5.06870e-02,-5.32626e-03,-6.44606e-02,2.52895e-02,3.51247e-02,1.01033e-01,5.70005e-01,1.14539e-02,-7.84926e-02,-1.13300e-01,-8.01221e-02,-7.43340e-03,-3.39433e-02,-4.18239e-02,-1.59583e-01,-3.38438e-01,-7.21602e-02,-2.83642e-02,-1.40086e-01,-1.31947e-01,-7.41547e-02,5.34315e-02,-1.35198e-01,-8.77680e-02,-4.88227e-02,1.37824e-01,1.83416e-01,-1.96038e-01,-1.47276e-01,-4.70763e-01,-1.81498e-01,-3.57928e-02,1.08095e-01,2.09874e-01,4.26323e-01,-1.15297e-01,-2.44155e-01,-4.35332e-01,-2.59222e-01,-1.60123e-01,1.17794e-01,5.91860e-02,-6.73566e-02,3.83444e-02,6.03714e-02,2.07036e-02,1.23899e-01,2.47542e-01,1.36502e-01,-7.49268e-02,-1.57627e-01,-9.20910e-02,4.13450e-02,9.92205e-02,1.08914e-01,2.85333e-01,-7.79897e-02,-4.05829e-01,-2.21322e-01,7.03045e-02,1.45356e-01,-3.28534e-01,2.20881e-01,1.44423e-01,-1.68464e-01,-9.72459e-04,6.42270e-02,5.78426e-04,2.04789e-01,9.32868e-02,2.46445e-01,1.89501e-01,2.00601e-01,2.75015e-01,2.47002e-01,2.60137e-01,1.62330e-01,8.84813e-02,-8.78863e-02,-1.89141e-01,2.61934e-02,-2.28547e-02,1.43291e-01,1.86500e-01,-2.58348e-01,-2.43778e-01,-1.75950e-01,1.86041e-02,1.45324e-01,-1.87229e-01,1.57649e-01,3.37747e-01,1.77583e-01,2.81089e-01,1.78313e-01,2.88222e-01,2.32780e-01,3.37599e-01,2.59769e-01,1.56093e-01,1.13796e-02,2.81661e-01,3.33935e-02,4.01505e-02,-5.87894e-02,-1.76925e-03,5.62379e-03,-1.54291e-02,1.15340e-01,5.84206e-05,-1.88748e-01,-1.98736e-01,-3.15705e-01,-2.22272e-01,-2.03813e-01,1.58555e-02,7.97371e-02,3.72383e-02,2.81871e-02,2.47339e-01,1.29010e-01,2.41154e-01,2.38922e-01,4.68531e-01,2.45680e-01,3.09879e-01,2.40388e-01,4.06362e-01,3.79800e-01,2.42381e-01,-4.82310e-02,-5.18094e-02,-3.07811e-01,-9.02795e-02,-9.49137e-02,-4.49396e-02,1.07084e-01,-4.48182e-04,-2.26324e-01,-1.84269e-01,-3.39318e-01,-1.57472e-01,1.95823e-01,6.97176e-03,2.67252e-02,-4.36200e-02,1.96427e-01,-3.90412e-01,1.47775e-01,3.61502e-01,3.35236e-01,3.06738e-01,1.75416e-01,4.73558e-02,2.71171e-02,-1.62262e-03,-9.33182e-02,-5.85061e-01,-3.96366e-01,-3.40653e-02,-7.44660e-02,-1.35549e-02,5.39437e-02,-5.52574e-02,-1.64710e-01,-4.88713e-02,-8.50495e-02,-3.64999e-01,-5.05570e-01,-2.52243e-01,1.91438e-01,2.28511e-02,-3.59435e-02,1.40970e-02,4.68126e-01,-2.01710e-01,-3.77933e-02,3.61401e-01,1.42027e-01,1.92941e-01,4.64665e-02,-1.03320e-01,-3.91863e-01,-4.10217e-01,-6.26941e-01,-4.63607e-01,-1.75449e-01,-1.01291e-01,8.11064e-02,2.25906e-01,-1.07535e-01,-1.25434e-01,-7.60889e-02,-1.07779e-01,2.47209e-02,-3.00087e-01,-5.14864e-01,-3.12577e-01,3.50008e-01,2.26707e-01,-1.45836e-01,4.72580e-02,1.32894e-01,-1.74105e-01,-4.27677e-01,-1.92906e-01,-7.29767e-02,-1.35071e-01,-2.42384e-01,-4.73396e-01,-5.87609e-01,-9.70288e-01,-5.06811e-01,-2.62871e-01,-1.87815e-01,6.18343e-02,-4.65592e-02,1.27908e-01,-8.89673e-02,7.77843e-02,-2.38536e-02,1.85430e-01,2.53573e-01,2.78609e-01,-4.40698e-02,-5.47818e-03,6.84079e-02,1.25846e-02,-7.65017e-02,-1.13168e-01,-2.26213e-01,-1.62531e-01,-3.35227e-01,-5.68080e-01,-5.33526e-01,-6.01552e-01,-7.48382e-01,-9.62905e-01,-6.82985e-01,-4.01212e-01,-2.25901e-01,-5.27703e-02,-3.19663e-03,8.62410e-02,1.82871e-02,1.12877e-01,-1.76755e-01,3.85799e-02,1.72017e-01,2.10942e-01,1.38349e-01,3.57378e-01,6.46361e-02,1.17144e-01,1.69251e-02,7.74465e-02,-1.64897e-02,2.55560e-03,-1.08750e-01,-2.64821e-01,-6.51619e-01,-7.22962e-01,-7.88240e-01,-8.31351e-01,-6.75959e-01,-3.59608e-01,-2.16125e-01,-1.22627e-01,2.02190e-01,-2.46760e-02,-9.25337e-02,4.47146e-02,1.15947e-01,9.91288e-02,-1.04973e-01,1.99688e-01,2.01537e-01,1.28239e-01,-4.12358e-02,1.86161e-01,5.29620e-02,1.25917e-01,3.90695e-01,8.22085e-03,-2.49746e-02,-5.49606e-02,4.25204e-02,-2.52985e-01,-5.49167e-01,-4.13865e-01,-5.32884e-01,-4.57891e-01,-6.31172e-02,-4.65219e-02,-1.10352e-02,1.47390e-01,1.21121e-01,4.62489e-04,-1.93466e-01,9.24483e-02,2.26169e-02,9.11045e-02,-6.06314e-03,2.03865e-01,2.18484e-01,1.54372e-01,-2.29095e-02,1.71047e-02,3.45140e-01,1.88168e-01,5.68650e-01,5.44505e-02,1.49790e-01,-6.70734e-02,-4.60019e-02,-2.65456e-01,-2.45111e-01,-2.31464e-01,-2.01379e-01,1.25941e-01,5.18404e-02,-9.00758e-02,7.43762e-02,1.50526e-02,-2.04538e-01,-5.78130e-02,-7.56689e-02,9.90638e-02,3.32884e-02,2.12551e-02,-1.21825e-01,6.39836e-02,-6.74716e-02,-1.16111e-01,1.44301e-01,-2.33963e-02,4.81037e-02,-1.28727e-01,3.07205e-01,-2.06510e-02,-1.01951e-01,4.45080e-02,1.01968e-01,-1.03808e-01,-2.70846e-02,-1.49781e-01,-9.48384e-02,-4.26786e-02,-9.64739e-04,-1.83225e-01,4.98766e-02,-1.97417e-02,-2.53448e-02,5.76636e-02,1.34263e-01,1.68676e-01,-1.61967e-02,-6.76840e-02,-1.06942e-01,-3.06552e-03,-1.48923e-01,-2.45500e-01,2.15229e-01,2.34940e-01,2.92122e-01,-1.27811e-01,4.40157e-01,-4.31425e-02,3.49344e-02,1.61855e-02,2.07685e-01,-1.89890e-01,-2.88711e-01,3.85621e-03,1.39671e-02,-3.45181e-02,1.91819e-01,1.44072e-01,1.28312e-01,8.88969e-02,-1.22463e-01,-1.57672e-01,-8.04266e-02,1.11821e-01,-2.13627e-01,-2.53502e-01,-2.50022e-01,-1.83978e-01,-4.10167e-02,-2.07399e-01,-1.23632e-02,2.96121e-01,3.21522e-01,1.00441e-01,3.96776e-01,-6.13721e-02,-6.47806e-02,-1.10203e-02,3.53280e-01,-5.48792e-01,-8.14444e-02,9.11714e-02,-3.83396e-02,-2.55694e-01,-3.36062e-02,5.07324e-02,1.51214e-01,-1.17426e-02,-7.57882e-02,-1.22964e-01,-5.85661e-02,5.25072e-03,-1.85222e-01,-1.33925e-01,-7.07171e-03,-1.12739e-01,-3.47362e-01,-4.88089e-01,-4.78315e-02,1.72952e-01,-2.05236e-02,1.63019e-01,1.26680e-01,-2.18034e-02,-6.72278e-02,-4.30444e-02,3.56527e-01,-6.21975e-01,-3.72964e-02,1.19718e-02,2.72229e-02,8.41464e-02,1.02247e-01,2.14583e-01,2.29043e-01,2.94563e-02,8.43920e-02,2.02230e-02,-1.23222e-01,-6.76969e-02,-2.37263e-01,-1.29092e-01,5.89644e-02,-7.24290e-02,-2.88978e-01,-3.82720e-01,-2.33856e-02,4.22204e-01,1.64490e-01,1.67978e-01,-2.31504e-01,-3.49386e-02,-2.70036e-02,9.77110e-03,-2.30595e-01,-7.68329e-01,-1.01251e-01,-7.74312e-02,1.93094e-01,1.70178e-01,-7.08819e-02,9.05867e-02,2.73801e-02,3.46964e-01,2.18689e-01,8.10857e-02,4.37057e-02,2.84803e-02,4.82099e-02,-6.27868e-02,1.53289e-01,1.35442e-01,-1.91475e-01,-6.10312e-02,-1.20545e-01,4.49417e-01,2.80231e-01,1.65340e-01,-2.00372e-01,4.27902e-04,-2.25226e-02,-1.04349e-02,4.58195e-01,1.19823e-01,4.74927e-01,2.84476e-01,3.51860e-01,9.82164e-02,-1.59668e-01,-4.32338e-01,-3.99516e-01,-1.48681e-01,-1.44431e-01,-3.49082e-01,-1.72407e-01,1.29660e-01,2.09127e-01,1.70487e-01,-1.05319e-01,1.27359e-01,3.34538e-01,3.04827e-01,-9.79648e-02,3.86871e-01,1.64908e-01,2.19523e-01,1.17288e-02,1.50394e-02,-7.94120e-03,2.30304e-02,6.82612e-02,7.31685e-01,1.67419e-01,3.90194e-03,1.25667e-01,8.26477e-02,-1.41108e-01,-4.56686e-01,-1.91151e-01,-8.04522e-02,7.01750e-02,-2.12138e-01,2.85402e-02,2.33489e-01,-1.24245e-01,-7.70765e-02,2.32820e-01,4.58506e-01,4.36396e-01,4.38520e-01,1.85431e-01,1.34435e-01,-1.02249e-01,1.23899e-02,-1.99890e-02,-2.01746e-02,1.02387e-02,-3.34065e-02,5.88310e-03,-3.48909e-01,-1.93042e-01,-1.90199e-01,2.32081e-02,3.01976e-01,-1.67704e-02,-1.92809e-01,-1.51235e-01,-2.06405e-01,-3.08798e-01,3.60899e-01,5.91628e-01,2.25302e-01,-2.22216e-01,-2.12043e-01,2.50875e-01,2.77952e-01,1.00047e-01,-7.31454e-02,-5.25354e-01,1.90142e-02,-4.17570e-02,2.00825e-01,-2.60753e-02,3.22544e-02,3.48225e-02,8.03520e-03,4.93710e-03,3.30200e-03,1.89512e-01,1.91836e-01,6.75514e-02,9.02617e-02,1.95652e-02,5.68544e-02,2.13954e-01,-3.95026e-02,-6.51855e-03,3.25757e-01,1.89652e-02,-1.17341e-01,-5.91138e-02,-1.17708e-01,-2.56899e-01,1.03869e-01,-7.95644e-02,-1.60540e-01,-2.58688e-01,7.10964e-02,2.38219e-02,3.52924e-02,-1.95455e-02,-2.22865e-02,
1.98491e-02,-4.25099e-03,-5.48344e-03,-2.33599e-02,2.84567e-02,1.71671e-02,-4.90486e-03,2.84506e-02,-2.00730e-02,5.41184e-03,2.30326e-02,-2.54553e-02,3.06413e-01,3.09460e-01,1.71199e-02,-1.41543e-02,3.30701e-02,2.55726e-02,-1.74389e-02,-1.09388e-02,-2.99054e-02,2.28080e-02,3.56790e-02,2.46912e-02,1.17528e-02,2.95366e-03,1.33389e-03,2.19533e-02,-1.37990e-02,-8.19956e-03,2.06708e-02,-2.83647e-02,1.65187e-02,4.79544e-02,-1.40501e-02,-5.19407e-02,1.33228e-01,1.12490e-01,1.07533e-01,1.01084e-01,1.01622e-01,2.50442e-01,3.78197e-01,-3.15623e-01,-6.50083e-02,6.80583e-02,4.63522e-02,7.20122e-02,3.68703e-02,5.62836e-02,7.85488e-03,1.23308e-02,2.91720e-02,1.97583e-02,-3.37735e-02,9.89980e-03,3.46841e-02,-1.55213e-02,6.58116e-02,-2.47428e-01,-2.21100e-01,4.17271e-02,-3.98337e-02,2.05724e-01,-3.18556e-02,-3.13024e-03,-3.76333e-02,-3.89461e-03,2.00218e-01,-1.86317e-02,5.80523e-02,-1.69052e-01,-1.52226e-01,-2.16380e-01,7.79232e-02,2.56127e-01,9.93769e-02,5.37323e-03,-5.65503e-02,-8.53346e-02,-6.48057e-02,-9.23166e-02,-2.23576e-03,2.77223e-03,3.50924e-02,2.78126e-02,1.34424e-02,-2.34690e-01,-1.89962e-01,1.00632e-01,-6.02063e-02,7.81223e-02,-5.92890e-03,-2.21044e-01,-1.94352e-01,-2.64172e-01,-2.10352e-01,-3.34274e-01,-7.04357e-02,3.58377e-01,1.20479e-01,1.56615e-02,-1.59811e-01,-2.68828e-01,-1.82345e-01,2.51567e-01,-1.10002e-03,4.53755e-02,4.92010e-02,-8.06749e-02,1.45252e-02,-1.65712e-02,2.62204e-02,4.00339e-03,7.69315e-04,1.47621e-01,4.66877e-01,2.64545e-01,3.25539e-01,4.13637e-01,3.36349e-01,8.22407e-02,3.27429e-01,2.46183e-01,5.08882e-01,2.27481e-01,-3.96216e-02,-2.15388e-01,-4.27156e-02,-2.76665e-01,-3.57644e-01,-2.69906e-01,-1.65469e-02,-1.53106e-01,1.31325e-01,2.89091e-01,1.79321e-01,1.62790e-01,-1.67319e-02,2.01496e-02,1.17736e-02,1.34325e-02,5.53032e-02,2.83904e-01,2.84932e-01,6.65922e-01,3.33006e-01,1.77737e-01,2.39602e-01,1.91463e-01,4.16382e-01,1.38603e-01,5.74513e-03,9.74225e-03,8.24759e-02,-5.83847e-02,-8.45278e-02,-3.13507e-01,-4.29307e-01,1.35027e-01,5.75543e-01,1.55272e-01,1.26974e-01,-6.62600e-02,2.59326e-02,1.25843e-01,4.65953e-02,2.64366e-01,-2.87010e-02,2.54390e-02,2.16292e-01,2.43529e-01,1.06508e-01,3.79931e-01,4.58470e-02,-2.14124e-01,-1.09345e-01,1.47929e-01,7.03996e-02,-8.98485e-04,-8.27988e-02,-7.25644e-03,9.74470e-02,-2.75369e-01,-6.28340e-01,-4.33893e-01,-4.22662e-01,-2.24778e-02,-2.94511e-02,8.41138e-02,2.76320e-01,3.73135e-01,3.30551e-01,-9.77444e-02,1.09086e-01,4.61407e-01,6.06767e-03,6.21893e-02,3.71005e-01,1.31545e-01,-1.04167e-01,1.39676e-01,3.71999e-02,-5.55330e-02,-6.47963e-02,-8.54943e-03,2.07343e-01,3.03024e-01,1.70277e-01,2.03469e-01,-2.78569e-02,-3.22151e-01,-6.48383e-01,-4.10844e-01,1.51543e-02,-7.95613e-02,-1.45711e-01,-7.14468e-02,5.61199e-03,2.46222e-01,2.63315e-01,2.16888e-01,4.49880e-01,3.47794e-01,5.20230e-03,1.16992e-01,5.49305e-01,-1.76691e-01,-3.79675e-02,-2.89230e-01,-5.45700e-01,-1.01013e-01,2.09372e-02,7.91316e-02,1.17587e-01,1.57865e-01,2.93112e-01,2.43864e-01,3.69444e-02,-3.28652e-01,-4.80785e-01,-3.93556e-02,1.20923e-01,2.77792e-02,2.54325e-02,1.70568e-02,1.75298e-01,7.20310e-02,1.57469e-01,3.75427e-01,4.33064e-02,-2.03734e-01,1.21693e-01,1.07955e-01,-2.28539e-05,1.83165e-02,-2.04695e-01,-2.04990e-01,-2.06379e-01,-2.25562e-02,-4.15873e-02,1.66070e-02,-1.44948e-01,5.59349e-03,1.44363e-01,1.67382e-01,1.40646e-01,-5.71976e-01,-3.72313e-01,-3.30613e-02,2.65665e-01,1.11467e-01,1.88042e-01,1.40767e-01,8.42885e-02,5.77828e-02,3.57473e-01,4.33607e-01,3.28143e-02,-6.60015e-02,1.17786e-01,-1.63605e-02,1.58145e-01,2.43335e-01,-8.96065e-02,-2.47293e-02,-3.20595e-01,-3.83179e-02,-8.23228e-02,-9.18802e-02,-8.58362e-02,2.21478e-01,2.20104e-01,3.88054e-01,-1.17647e-01,-5.74569e-01,-3.94890e-01,1.34029e-01,2.03064e-01,2.20936e-01,2.26822e-01,2.62557e-01,1.25411e-01,2.22744e-02,1.88121e-01,6.19615e-01,5.10192e-01,-3.11102e-01,4.32779e-02,3.14886e-01,4.06103e-01,-2.16940e-01,4.79094e-02,-1.23079e-01,-1.66365e-01,-2.94924e-01,-1.73770e-01,-1.67123e-01,1.66949e-01,2.71335e-01,3.48807e-01,3.19825e-01,-5.31458e-01,-9.66897e-01,-5.51186e-01,-4.09685e-02,3.98198e-02,-9.07126e-03,-4.05812e-02,1.48252e-01,3.07934e-02,1.40599e-01,4.69433e-01,6.05867e-01,6.07457e-01,-1.45938e-01,-4.30136e-03,3.50413e-01,2.53132e-01,-1.43920e-01,-1.87957e-01,-1.38744e-01,-1.35091e-01,6.25775e-02,-1.35712e-02,6.22901e-02,2.21487e-01,3.76772e-01,5.46009e-01,3.39363e-01,-4.70269e-01,-5.20138e-01,-2.86666e-01,-1.21567e-01,-1.98682e-01,-1.02054e-01,-4.56149e-02,-1.99915e-01,-4.40134e-02,1.53990e-03,1.51751e-01,2.68771e-01,5.84505e-01,4.41594e-02,-1.18487e-02,3.28907e-01,2.28814e-02,-1.94050e-01,-4.95592e-02,3.89935e-01,-5.29178e-02,1.80562e-01,1.68304e-01,2.13907e-01,2.74865e-01,4.39517e-01,4.47209e-01,-1.39020e-02,-2.72817e-01,-3.17708e-01,-1.25512e-01,-1.11059e-02,-1.03932e-01,-2.17341e-01,-2.39490e-01,-4.06564e-01,-2.59356e-01,-3.27689e-01,-2.57459e-02,7.99711e-02,2.42456e-01,3.50735e-02,1.40209e-01,3.25730e-01,1.03902e-01,2.51717e-01,2.06230e-01,7.39120e-01,-2.21180e-01,1.47788e-01,1.10189e-01,2.64736e-01,1.84771e-01,2.69015e-01,1.94309e-02,-2.62928e-01,-2.53155e-01,-2.36225e-01,8.66017e-02,5.57183e-02,-2.13121e-01,5.63749e-02,-2.15032e-01,-1.82087e-01,-1.48364e-01,-2.37381e-01,-1.99608e-02,-5.85056e-01,-5.30334e-01,-4.92386e-03,1.46392e-01,1.85400e-01,7.21126e-01,4.14502e-01,3.53591e-01,4.33594e-01,-2.48162e-01,1.45216e-01,3.05659e-01,2.66230e-01,2.47607e-01,2.57789e-01,-9.11851e-02,-1.79402e-01,-6.98676e-02,-1.22452e-01,-1.14548e-01,-8.15681e-02,-1.58944e-01,2.89129e-02,-3.75690e-02,-3.81165e-03,6.40563e-03,-2.74936e-02,-6.97053e-01,-7.85709e-01,-2.84193e-01,1.24920e-01,2.22349e-02,-2.11752e-02,3.85974e-01,5.22795e-01,4.89669e-02,-1.33049e-01,-2.78591e-01,-9.51060e-02,1.32549e-01,5.98987e-02,4.90113e-02,7.06682e-02,2.14787e-02,7.79528e-02,-1.09032e-01,-1.84820e-01,-1.87812e-01,-1.44488e-01,6.95343e-02,-1.15906e-01,-1.82232e-01,-2.11599e-01,7.80349e-02,4.78446e-02,-5.68445e-01,-7.85265e-01,-5.36929e-01,1.61109e-01,1.79041e-02,-6.91625e-03,-2.42999e-01,1.65399e-02,-1.08014e-01,-7.69944e-02,-9.63912e-02,-9.21164e-02,-2.62998e-02,-1.25796e-01,-8.40968e-02,3.64118e-02,4.97376e-02,-4.43008e-02,-7.97105e-02,-1.69627e-01,-9.93844e-02,-3.75799e-02,2.32461e-01,1.19957e-01,-1.85104e-01,-8.98385e-02,5.34994e-02,3.52352e-01,4.42782e-02,1.04279e-02,-2.68332e-01,-3.95207e-01,-1.57029e-01,1.14133e-02,-1.42744e-01,4.08083e-02,-5.34492e-02,-2.63920e-01,-1.44404e-01,-2.73031e-01,-3.35020e-01,-3.38373e-01,-3.92300e-01,-2.34572e-01,-1.12746e-02,-1.02480e-01,1.12151e-01,-1.81126e-01,7.05338e-02,2.94005e-02,1.26166e-01,1.18974e-01,2.94103e-01,1.16409e-01,3.78703e-01,6.70101e-01,1.41415e-01,3.35349e-01,-3.95492e-01,-5.55910e-01,2.58149e-02,8.53337e-02,-8.51414e-02,7.39992e-02,1.40077e-01,-8.39330e-02,-2.53553e-01,-2.22742e-01,-4.41552e-01,-3.47100e-01,-3.37288e-01,-9.04128e-02,-2.03755e-01,-3.48128e-02,9.54595e-02,1.66557e-02,-2.27785e-02,-1.46843e-01,3.72985e-02,4.66473e-02,1.98195e-01,8.60361e-02,2.89985e-01,3.85221e-01,-2.63004e-03,-1.44240e-01,-2.68332e-01,-3.83357e-01,2.49676e-03,6.08369e-02,-1.20241e-01,-2.35666e-02,-2.38196e-02,-1.06144e-01,-1.67807e-01,1.02352e-01,1.90281e-02,-2.52741e-01,-3.55243e-01,-2.91446e-01,-6.88197e-02,-5.85990e-02,9.10997e-03,-4.87876e-02,-2.78467e-02,-4.01968e-02,3.36040e-02,1.29624e-01,2.19611e-01,5.41246e-02,1.37183e-01,3.49106e-01,-6.96891e-02,-1.57291e-01,-7.19854e-02,2.13254e-02,-2.17991e-02,7.49899e-02,6.03527e-02,1.05974e-02,-1.69130e-01,-1.89542e-01,2.35624e-02,6.34459e-02,9.98437e-02,-9.91370e-02,-1.46416e-01,-8.18366e-02,-1.29017e-02,5.36515e-02,-6.05086e-02,1.71897e-02,2.73041e-02,-4.22212e-05,-4.03142e-02,1.71765e-01,3.62882e-01,-2.22857e-02,-6.18407e-02,4.67523e-01,2.97318e-01,-5.83970e-02,-6.73000e-02,-1.66780e-02,-3.09531e-02,5.13505e-02,5.58262e-02,4.45213e-01,-5.67360e-02,-4.40392e-01,3.25470e-04,-1.75184e-01,-1.88592e-01,-6.68976e-02,-1.01451e-01,1.27774e-01,1.04726e-01,9.14440e-02,1.29774e-02,-5.91182e-02,-1.43232e-03,-7.16243e-02,-1.60581e-01,-1.11417e-02,3.45912e-04,1.34805e-02,1.50427e-01,4.66551e-01,8.60829e-02,-2.31630e-01,-1.60435e-02,4.18381e-02,-1.87029e-02,-3.16993e-02,2.43101e-01,6.90638e-01,4.96960e-01,1.79796e-01,2.93642e-02,-9.59926e-02,-4.52882e-02,1.08655e-01,4.01755e-01,5.14034e-02,2.54682e-01,1.15211e-01,1.96213e-01,1.51998e-01,5.17261e-02,-8.36298e-02,-2.06000e-01,3.73816e-02,-2.81920e-01,-8.62605e-02,2.01645e-01,1.07059e-02,-1.17496e-01,-2.91945e-01,-7.21204e-02,-8.31063e-04,1.71474e-02,2.01722e-02,4.67018e-02,2.39863e-02,-6.01009e-02,2.44335e-01,-6.77912e-02,-1.94901e-01,-3.88844e-01,7.57079e-02,3.02105e-01,3.12091e-01,8.56299e-02,1.59088e-01,-4.88381e-03,1.06594e-01,2.06012e-02,1.28109e-01,2.46789e-02,9.96842e-02,-7.59180e-02,-8.76983e-04,1.83906e-01,-9.06830e-02,4.23269e-02,3.12735e-01,1.28673e-01,1.55602e-02,-2.69793e-02,2.94208e-02,-3.52972e-02,-8.18347e-03,-7.27264e-02,-1.52763e-01,-2.60796e-01,-4.46980e-01,-2.47645e-01,7.76984e-02,7.60060e-02,1.78028e-01,1.67172e-01,5.88705e-02,-2.17290e-01,1.44372e-02,6.80990e-02,3.90015e-03,9.04613e-02,9.81108e-02,-1.61318e-02,-2.10542e-01,-1.01460e-01,-7.67984e-03,9.38985e-03,2.75709e-02,-1.14511e-02,-1.49190e-02,1.29016e-02,9.77269e-03,-2.80263e-02,8.92432e-03,2.22767e-02,-4.78699e-01,-3.21849e-01,-3.69485e-01,-3.27445e-01,-1.88921e-01,-3.08843e-01,-2.38517e-02,7.38531e-02,-1.54554e-01,-4.86135e-01,1.85605e-01,1.75049e-01,-4.20873e-01,-4.45401e-01,4.18536e-02,-1.73438e-01,-3.16775e-01,-3.34707e-03,1.18892e-01,-3.83349e-03,3.38880e-02,-1.90482e-02,1.60407e-02,9.69565e-03,-1.70570e-02,-6.20252e-03,-1.57662e-02,-3.59433e-02,-2.69636e-02,-3.87640e-01,-3.80891e-01,-4.58031e-01,-4.65469e-01,-5.49415e-01,-2.91042e-01,-8.66543e-02,-6.45213e-02,-4.20746e-01,-3.87182e-01,-6.89720e-02,1.27905e-01,-5.45722e-01,-3.89391e-01,1.43128e-01,1.42911e-01,1.41001e-01,-2.50044e-02,1.05980e-02,-2.90407e-03,-4.11114e-03,1.15207e-02,
-2.71176e-03,-1.27312e-02,-1.34932e-02,1.80347e-02,-1.82649e-02,2.90624e-02,3.92791e-03,1.33092e-02,1.95634e-02,-1.76925e-02,2.69594e-03,1.83554e-02,2.78177e-02,2.85486e-02,7.53023e-03,2.74645e-02,3.28308e-02,1.77080e-02,-1.25101e-02,2.40452e-03,-1.22810e-02,-3.30930e-02,1.62375e-03,1.60317e-02,2.26660e-02,2.54140e-02,-1.68883e-02,9.29747e-04,-9.59812e-03,1.36434e-02,-4.94787e-03,-3.54196e-02,1.70992e-02,2.21440e-02,2.99421e-02,2.79678e-02,1.17249e-02,-3.57056e-02,2.86656e-03,-1.40809e-02,2.30541e-02,-1.96794e-02,-2.25405e-02,1.77559e-02,-2.09013e-02,-4.17428e-03,2.92357e-02,-2.71569e-02,2.90992e-02,-1.11651e-02,-3.46454e-03,-1.85344e-02,-2.09851e-02,-6.43260e-03,-1.36937e-02,-2.30770e-02,2.98054e-02,-1.97047e-02,-2.95862e-02,2.66108e-02,-2.42096e-02,1.59390e-02,9.96159e-03,-2.15824e-02,-3.09048e-02,-1.17479e-02,8.60181e-03,-3.68534e-02,1.98069e-02,1.63975e-02,-1.15727e-02,-2.52079e-02,2.93720e-02,1.74740e-02,-3.04122e-02,3.57918e-03,1.72990e-02,-3.71441e-02,-3.71472e-02,-2.14938e-02,-8.18833e-03,3.03619e-02,2.10152e-02,3.48414e-02,-2.88209e-02,2.95676e-02,-3.38192e-02,-7.42735e-03,2.80644e-02,1.00696e-02,-1.47945e-03,1.53762e-02,-2.19885e-02,-1.45564e-02,4.96535e-03,-1.70663e-02,1.93661e-02,-7.90015e-03,-2.92519e-02,3.25844e-03,-7.73963e-03,-2.87192e-02,-3.89359e-02,-2.25306e-02,-3.00098e-02,1.25607e-02,-1.36176e-02,-1.48137e-02,3.08050e-02,2.74772e-02,-3.11662e-03,-1.47526e-02,2.66985e-03,2.94234e-02,1.49718e-02,-6.64524e-03,1.26933e-02,-3.67730e-02,2.82914e-02,-2.00445e-02,1.09906e-02,-2.74413e-04,-4.05189e-02,8.02091e-03,-1.35122e-02,5.09711e-03,-1.53833e-02,-3.04841e-02,-1.12256e-02,2.63341e-02,-7.23683e-03,3.13176e-03,2.52078e-02,5.19401e-03,1.81315e-02,-1.07467e-02,1.81661e-02,1.12443e-02,1.69770e-02,6.91479e-03,2.10211e-02,-8.96452e-03,4.92133e-03,-3.63541e-02,-6.61837e-03,-3.35814e-02,-5.68379e-03,-3.55255e-02,2.93012e-02,-3.03239e-03,3.09390e-02,-3.43724e-02,1.08377e-02,2.54689e-02,-2.95036e-02,-2.99591e-02,-3.72299e-02,6.73407e-03,-2.70798e-02,2.38386e-02,-4.50218e-03,2.30448e-02,1.78247e-03,2.11340e-02,5.77277e-03,3.25855e-02,2.54931e-03,-2.16086e-03,-1.39679e-02,2.83199e-02,3.26489e-02,1.31713e-02,-2.40816e-02,2.88968e-02,-2.65197e-02,2.66843e-02,2.38569e-02,-2.13231e-02,-2.96924e-02,-3.60298e-02,-3.56106e-02,-2.25448e-02,1.76172e-02,1.28605e-02,-3.78018e-02,-3.87748e-02,8.00114e-03,-1.25087e-02,-1.13609e-02,-1.63476e-02,-1.70513e-02,-7.19069e-03,-1.03010e-02,-9.70326e-03,-1.61893e-02,2.02773e-02,-6.05077e-03,2.63823e-02,-1.52054e-03,-1.50581e-02,-3.69136e-02,-1.65918e-02,2.30355e-03,2.00668e-02,-8.85076e-03,-3.13634e-02,1.44524e-03,1.36499e-02,-8.34210e-03,4.22970e-03,9.35720e-03,-3.15486e-02,2.26993e-03,7.65059e-03,1.99288e-02,-5.13044e-05,1.01642e-02,1.61199e-02,-2.50964e-02,-2.83838e-02,8.37821e-03,2.05312e-02,-5.18516e-03,-2.71133e-02,3.13245e-02,-2.98682e-02,8.99149e-03,1.11447e-02,1.24367e-02,1.97861e-04,7.61026e-03,8.59436e-03,1.41735e-02,1.77512e-04,9.95397e-03,-1.61882e-02,-2.37690e-02,-2.80551e-03,8.32304e-03,-2.38434e-02,-1.00040e-03,6.58946e-03,-7.85678e-03,-3.15366e-02,-5.19485e-02,3.41093e-03,1.47699e-02,1.30794e-02,-4.55950e-03,-2.35380e-02,-2.98821e-02,3.58085e-03,2.24669e-02,-1.61390e-03,-1.83815e-02,-2.91728e-02,1.48094e-02,-1.85317e-02,-3.43707e-02,2.11330e-02,-1.52598e-02,-4.65611e-02,-4.01871e-02,-2.68752e-02,-3.61881e-02,1.23436e-02,1.33046e-02,-4.58409e-02,-3.61861e-02,-4.39046e-02,-7.15542e-03,-4.09659e-03,-7.66544e-03,1.77247e-02,-3.77432e-02,-3.08404e-02,1.51625e-02,-3.54299e-03,-3.39433e-02,-3.44157e-02,7.61879e-03,1.54560e-02,-1.36304e-02,-1.84871e-02,-3.66560e-04,-1.47958e-02,-3.26322e-02,-3.78705e-03,1.10880e-02,-3.37350e-02,-4.06551e-02,-2.83017e-02,-1.71060e-02,-2.83646e-02,-2.14580e-02,9.34561e-03,4.77240e-03,-5.10281e-02,-8.19574e-03,-2.12200e-02,-4.10187e-03,-1.26280e-02,-3.20720e-02,3.19419e-02,1.54543e-02,-2.88918e-02,-2.28629e-02,3.20260e-02,-2.85666e-02,-1.38896e-02,5.70912e-03,-5.27909e-03,1.95118e-02,1.84450e-02,-1.54570e-02,-2.63372e-02,2.03786e-02,-3.65691e-02,-2.16348e-02,-3.64722e-02,-4.49284e-02,-5.51864e-03,-1.12198e-02,-2.10764e-02,-2.26715e-02,-2.20557e-02,-5.13825e-03,-4.70682e-03,-1.65768e-02,1.46190e-02,-7.77291e-03,3.30140e-02,-2.64477e-02,1.81708e-02,-2.93449e-02,1.74421e-02,1.97408e-02,1.15474e-02,-2.86682e-02,-2.66060e-02,6.70481e-03,-4.95405e-03,-1.01156e-03,1.28103e-02,-4.28440e-02,-3.43553e-02,3.84402e-03,-2.07812e-02,-9.68777e-03,-3.32051e-02,2.18935e-02,2.54697e-02,-2.33991e-02,-3.70225e-03,1.46998e-02,-2.11908e-02,-4.39929e-03,1.04473e-02,-2.93236e-02,-1.71549e-02,2.34678e-02,2.72032e-02,2.86161e-02,-1.72752e-02,-2.21227e-02,-2.00396e-02,2.89451e-02,-6.74960e-03,-2.93138e-02,3.34860e-03,2.51346e-02,-4.30142e-02,1.05193e-02,-1.87402e-02,3.90254e-03,-4.49456e-02,-4.21136e-02,2.11972e-02,-1.17854e-02,-3.61291e-02,1.90705e-02,-4.79138e-02,-1.86515e-02,-5.20343e-02,-4.94126e-02,-3.51102e-02,2.11508e-02,6.01033e-03,-1.24848e-02,3.41948e-03,1.01456e-02,3.28496e-02,-2.94657e-02,-1.81386e-02,-3.08366e-03,-2.27016e-03,7.92263e-03,-5.96707e-03,-3.78631e-02,-2.56958e-02,-3.09812e-02,7.91746e-03,-1.44948e-02,-3.35046e-03,2.45865e-02,6.19767e-03,-9.26060e-03,1.56636e-02,-3.25884e-02,-3.21528e-02,1.04923e-02,-3.77154e-02,-2.61850e-02,1.93844e-02,1.06591e-02,-4.59298e-03,1.08378e-02,-1.18074e-02,3.12071e-02,2.66452e-02,2.72451e-02,1.09281e-02,-3.34496e-02,-3.28191e-02,3.54853e-03,-1.78685e-02,2.40724e-02,4.90610e-03,1.46852e-02,5.83577e-03,-1.30555e-02,1.64154e-02,-3.83985e-02,-3.33465e-02,-2.17516e-02,4.69142e-05,-3.08025e-02,-2.57509e-02,-3.95493e-03,-1.82962e-02,1.36064e-02,-6.46567e-03,2.83474e-02,1.48683e-02,-2.13659e-02,3.61436e-03,-9.89540e-03,9.75847e-04,-2.69550e-02,-1.00190e-02,7.39052e-03,2.40669e-02,2.37367e-02,-1.43877e-03,8.20591e-03,2.09207e-02,-5.83197e-03,-3.61643e-03,-7.43802e-03,2.02470e-02,1.93803e-02,-3.48477e-02,-9.68108e-04,-3.21814e-02,-2.36127e-03,-2.14691e-02,3.10555e-03,-1.11523e-02,-5.13521e-03,-3.03864e-02,2.42858e-02,1.79814e-02,-1.92756e-02,1.58961e-03,1.25351e-02,-7.91952e-03,3.04920e-02,2.01550e-02,2.62037e-03,-6.61397e-03,-7.46238e-03,-6.81600e-03,-2.52179e-02,-2.11539e-02,-1.84559e-02,-8.92878e-03,-3.80795e-02,-7.76327e-03,7.15919e-03,7.47964e-03,-3.64215e-02,-3.27323e-02,1.08820e-02,1.35640e-02,-5.79816e-03,-4.48336e-02,-1.74533e-02,3.43248e-03,-1.98366e-02,1.43549e-02,1.58159e-02,-8.48647e-04,-1.16088e-02,-2.72531e-02,-3.28588e-02,-8.21067e-04,1.50814e-02,-1.17575e-02,-2.64780e-02,2.62728e-02,1.39565e-02,-1.59853e-02,1.83099e-02,-1.72052e-02,3.94122e-03,-7.01876e-03,1.34071e-02,-3.71005e-02,-2.72957e-02,4.17744e-03,1.48287e-02,1.64429e-02,3.58266e-03,-7.76168e-03,1.40073e-02,-1.99266e-02,9.62019e-03,-3.28989e-02,4.50203e-03,-1.25489e-02,6.08667e-03,1.22517e-03,1.10926e-02,1.66665e-02,2.39338e-02,2.06644e-02,1.02010e-02,-1.01747e-02,-1.72419e-02,2.59262e-03,-4.91930e-03,-3.02004e-02,-9.80014e-03,-9.86323e-04,-3.84988e-02,-2.03948e-03,-2.71923e-03,-4.80269e-02,-2.11212e-02,-4.83340e-02,2.40420e-02,-2.68784e-02,-2.83549e-02,-1.25736e-02,-1.49490e-02,1.69362e-02,-3.13235e-02,3.17008e-02,-2.04118e-02,1.18186e-02,-2.14201e-02,-3.45427e-02,9.54575e-03,-1.58516e-02,-1.93269e-02,-1.36494e-02,-3.56028e-02,7.72593e-03,-3.17706e-02,4.67376e-04,-1.68992e-02,2.44237e-03,5.55164e-04,-9.59758e-04,1.57223e-02,-1.16165e-02,-5.13608e-02,-4.26539e-02,-2.15610e-03,2.64020e-02,-1.34006e-02,-4.27530e-02,1.05551e-02,8.06339e-03,1.38803e-02,3.96614e-03,-1.68313e-03,-1.17708e-02,-4.93322e-03,-1.18018e-02,-3.70507e-02,-2.33682e-02,-2.04625e-02,1.94092e-02,-2.74815e-02,-2.59745e-02,-4.27336e-03,2.77490e-02,-2.42299e-02,1.49470e-02,-2.21765e-02,-1.46134e-02,-2.59597e-02,-1.59620e-02,-3.88175e-02,-1.97605e-02,-3.98398e-02,1.37202e-02,-3.45813e-02,-3.48224e-02,-4.10817e-02,-3.75503e-02,8.70936e-03,-3.31471e-03,3.67494e-03,-2.83220e-02,-2.41348e-02,-2.09189e-02,7.25833e-03,2.30522e-02,-2.65213e-02,9.91859e-03,-3.29509e-02,-2.42196e-03,-3.25154e-02,-2.70340e-02,-8.30221e-03,-1.98813e-02,-4.15972e-02,-3.89731e-03,-4.07248e-02,1.53360e-02,-1.65769e-02,-3.24152e-02,1.13454e-02,6.81825e-04,-6.36966e-04,1.63974e-02,-1.79546e-02,-2.81311e-02,-2.67587e-02,-2.20699e-02,2.11208e-02,-2.64833e-02,-1.53055e-02,-3.11691e-02,-1.26672e-02,4.12974e-03,6.05812e-03,-1.39419e-02,-2.34252e-02,-9.59718e-03,-3.97901e-02,6.44698e-03,6.65246e-03,-3.69927e-02,7.97775e-03,1.77006e-02,1.27466e-02,-1.38789e-02,-1.55790e-02,-1.23258e-02,-1.00754e-02,-2.45899e-02,2.53798e-02,9.22253e-03,1.25090e-02,-3.29877e-02,3.13241e-02,-1.25714e-02,-1.50462e-03,-1.93666e-03,3.44748e-02,-1.58279e-03,3.00144e-02,-1.73186e-02,-5.55822e-03,-1.18864e-02,1.46761e-02,-1.20737e-02,-4.39506e-02,-1.91930e-02,-4.83707e-03,2.61284e-02,-3.36589e-02,1.07659e-02,-3.44558e-03,1.03031e-02,7.97920e-03,-2.39325e-02,2.83442e-02,1.57341e-02,2.89635e-02,-2.95835e-02,2.07708e-02,-9.34847e-03,2.63252e-02,-6.19084e-03,-1.49185e-02,-7.54979e-03,-2.88768e-02,-1.81678e-02,-2.73908e-02,-2.81157e-03,-3.60829e-02,-3.36122e-02,-1.31349e-02,-1.59478e-02,1.87162e-02,1.62472e-02,1.81579e-02,1.57338e-02,-2.77561e-02,7.96113e-03,-4.22091e-02,-1.94728e-02,-3.50115e-02,4.47062e-03,2.02437e-02,1.73942e-02,3.06209e-02,2.02989e-02,-1.63266e-02,-1.85714e-02,1.72311e-02,2.27870e-02,-3.40774e-02,-3.14058e-02,1.56064e-03,9.79002e-03,2.29051e-02,1.46129e-02,-7.27443e-03,-3.67833e-02,1.37302e-02,-3.18082e-02,-3.30538e-02,6.13334e-04,-3.28360e-02,4.26441e-03,-1.39505e-02,5.86611e-03,-4.99157e-03,-7.65517e-03,-4.09473e-02,-4.27639e-03,1.83417e-02,1.95429e-02,-1.62751e-02,-7.51855e-03,-3.53344e-02,2.63409e-02,9.52908e-05,-1.76534e-02,-6.57471e-03,1.29195e-02,2.99291e-02,-2.78043e-04,-3.52215e-02,-1.81455e-02,-2.23879e-02,3.01017e-02,2.25337e-02,3.14715e-02,-2.08535e-02,-4.30005e-03,1.40775e-02,1.99979e-02,-2.70930e-02,-6.88740e-03,2.73808e-02,3.10952e-02,2.36358e-03,-1.53906e-02,2.37866e-03,3.22674e-02,-3.00496e-03,-2.74018e-02,2.14145e-02,3.05223e-02,-9.02241e-03,-6.76095e-03,-9.39508e-03,-2.64558e-02,
3.50678e-02,-1.99001e-02,-1.33140e-03,4.57425e-03,-8.40682e-03,-3.26386e-02,3.36936e-02,2.26874e-02,-7.85041e-03,2.50277e-02,2.91819e-02,2.98741e-03,-1.00713e-01,-1.02454e-01,1.38476e-02,3.54766e-02,1.24348e-02,2.22952e-02,-2.98131e-02,-9.95047e-03,3.47353e-02,-1.03210e-02,2.49951e-02,-3.40782e-02,3.27150e-02,-1.37510e-02,1.90040e-02,-3.12788e-02,-3.48061e-03,-6.97356e-03,-1.12852e-02,3.09072e-02,3.14327e-02,3.81170e-02,-4.96954e-02,-8.74771e-02,-6.13818e-03,-7.29876e-02,-1.09579e-01,1.62006e-02,-9.29484e-02,-1.52966e-01,-6.26648e-02,-3.78295e-01,-4.45267e-01,-3.82961e-01,2.32260e-02,-6.93200e-02,-5.32237e-02,-9.36985e-02,-2.31228e-01,-1.47244e-01,-2.58626e-02,1.89439e-02,2.78045e-02,2.05724e-02,2.27397e-02,2.35279e-02,2.13016e-02,-7.20536e-02,-4.62364e-02,-3.48152e-02,-4.42955e-02,-9.60895e-02,-3.15324e-02,-1.74900e-01,4.32295e-02,2.92770e-01,1.31396e-01,-5.17946e-01,-5.48150e-01,-2.10241e-01,-3.95810e-01,-4.84115e-01,-5.09392e-01,-8.86725e-02,-1.32154e-01,-1.57751e-01,-1.79096e-01,-1.92251e-01,-5.89471e-02,-5.26701e-02,8.32792e-04,2.07750e-02,6.86832e-03,-1.82137e-02,9.38273e-03,-4.88623e-02,-2.73149e-02,-1.61297e-02,-1.15654e-01,-1.60460e-01,-6.08425e-01,-5.16766e-01,-1.99267e-01,2.71900e-01,-2.84174e-01,-6.06121e-01,-6.43254e-01,-8.92477e-01,-6.12174e-01,2.10280e-01,4.47164e-01,2.44142e-01,-4.19522e-02,1.76726e-01,1.06521e-01,7.60992e-02,-2.59104e-01,-2.44862e-01,-2.97774e-01,-3.52434e-02,8.58033e-03,1.03254e-03,1.33679e-02,2.83470e-01,2.29956e-01,3.78637e-01,1.68134e-01,3.38760e-01,-3.07359e-01,-4.57343e-01,-1.57300e-01,-2.56826e-01,-5.09682e-01,-5.52063e-01,-1.09341e+00,-9.86541e-01,-5.50769e-01,-2.20432e-01,1.16447e-01,6.85709e-03,3.83303e-02,1.88654e-01,1.71888e-01,3.36187e-01,1.33005e-01,-1.27084e-01,1.95513e-02,-6.18037e-02,-3.10083e-02,1.51908e-02,-7.93338e-02,3.03708e-01,-3.06588e-01,-2.18100e-01,-1.83424e-03,-2.28446e-01,1.47433e-01,1.64594e-01,1.52859e-01,2.88869e-01,2.31984e-01,4.94265e-02,-1.65711e-01,-1.89269e-01,-3.58964e-01,-2.73757e-01,-2.72439e-01,-4.19991e-01,-2.31670e-01,4.45664e-02,2.91591e-02,1.49533e-01,1.80527e-01,2.59653e-01,-2.36965e-01,-4.51920e-02,1.53974e-02,-1.64254e-01,-2.96006e-03,2.51721e-01,2.44250e-01,-1.04368e-01,-5.82240e-02,-9.58125e-02,8.09516e-02,3.95888e-03,-1.55124e-02,5.76355e-02,1.07762e-01,8.65330e-02,4.77067e-03,-5.98190e-02,5.51575e-02,2.12581e-01,-7.94383e-03,-6.83375e-02,-2.62512e-01,-5.73835e-03,2.23529e-01,-4.35742e-03,2.76979e-02,-6.26448e-01,2.48124e-02,3.07954e-02,1.26564e-03,1.06216e-01,-5.94396e-02,4.16249e-01,-2.70641e-01,-3.49132e-01,-2.97303e-02,-2.16834e-01,-1.11420e-01,4.00699e-02,-6.27665e-03,-2.11971e-02,1.48570e-01,2.13576e-01,-2.23245e-02,-1.52777e-01,-3.10111e-02,6.99338e-02,-1.97549e-02,4.85220e-02,-6.63247e-02,-1.57520e-01,7.72088e-02,2.06070e-01,-1.07738e-01,-1.96005e-01,4.17810e-01,1.30427e-01,-1.14514e-01,2.18344e-01,1.79423e-01,1.84958e-01,-1.02215e-01,-1.04031e-01,3.63557e-02,8.65947e-02,1.25614e-01,1.17536e-02,1.06093e-01,1.96571e-02,-2.93473e-02,-2.58922e-02,-1.02411e-01,-6.43879e-02,-1.99230e-01,-9.43958e-02,4.61164e-02,6.08334e-02,-2.05715e-01,-1.67285e-01,-1.54282e-01,-1.21786e-01,-7.81950e-02,4.11751e-02,2.40334e-01,-7.33326e-02,1.64703e-01,4.38633e-01,4.45574e-02,1.10619e-01,-7.16655e-02,1.56971e-02,6.33802e-03,1.72078e-01,1.01346e-01,1.42156e-02,1.11583e-01,-2.64654e-02,-2.30465e-02,-8.20304e-02,-8.60104e-02,-6.66490e-02,-2.27131e-01,-2.11752e-02,2.92626e-02,-1.45720e-01,-1.04271e-01,-4.60561e-02,-3.22425e-02,2.19189e-03,-3.66278e-01,-1.69315e-01,4.92279e-02,3.17469e-01,1.55785e-01,3.40788e-01,2.48357e-01,3.08218e-02,-9.22846e-02,2.01404e-01,-2.06964e-01,-5.42677e-02,1.16651e-01,-5.42787e-02,8.30075e-02,1.16969e-01,9.20609e-02,-3.96687e-02,-1.75659e-01,-1.15626e-01,-8.00046e-02,-4.79258e-02,-1.68882e-02,-1.21820e-01,-7.37613e-02,-1.45064e-01,-6.86227e-02,-1.15392e-01,-4.55918e-01,-1.01889e-01,-1.60656e-01,-6.48747e-02,3.51822e-02,3.37414e-02,2.59905e-01,1.96878e-01,-1.90252e-01,8.67960e-02,-2.20932e-01,-1.20907e-02,1.15244e-01,1.25522e-02,1.83870e-01,1.58284e-01,1.41601e-01,-2.75916e-01,-2.44617e-01,-9.92377e-03,2.44901e-01,1.79489e-01,6.34262e-02,5.80600e-03,-4.50701e-03,1.69635e-02,-1.00442e-01,-4.29329e-01,-3.09018e-01,-2.99937e-01,-2.52512e-01,-2.43591e-01,6.13517e-02,3.38589e-01,4.66063e-01,3.52893e-01,-1.45742e-01,-2.57079e-02,-7.66827e-02,-1.21037e-02,1.23729e-01,4.51084e-02,2.59272e-01,2.63368e-01,3.44911e-03,-7.09989e-02,-6.00325e-02,5.00989e-01,2.99120e-01,9.18686e-02,1.53258e-01,-1.75604e-03,2.30759e-01,4.90796e-02,-2.46085e-01,-2.15207e-01,1.04269e-01,2.57712e-02,-1.73431e-01,-1.69440e-01,-7.79550e-02,3.37191e-01,3.02114e-01,1.85256e-01,-1.12514e-01,1.01350e-01,-7.93459e-02,2.52533e-01,7.51007e-02,1.70563e-01,2.70598e-01,8.57365e-02,1.09194e-01,5.91771e-03,8.81008e-02,3.83436e-01,3.89092e-01,1.04145e-01,1.09501e-01,2.03402e-01,2.37738e-01,1.48902e-01,-6.23550e-02,-3.15467e-01,-2.73234e-02,2.11958e-01,-2.58215e-01,-1.08117e-01,1.95504e-02,3.18312e-01,-1.25926e-01,-3.14248e-02,1.05447e-01,-6.92517e-02,-4.72946e-01,2.20429e-01,2.62811e-01,1.48746e-01,1.94099e-01,7.47324e-02,2.65405e-03,-1.03803e-02,7.50128e-02,2.01695e-01,3.84830e-01,2.68398e-01,2.86614e-01,2.79484e-01,2.75065e-01,2.01101e-01,-5.30316e-04,-2.76776e-01,-3.88027e-01,6.02911e-02,-2.62506e-01,-3.35789e-02,4.04267e-03,2.04508e-01,-1.67994e-01,4.38490e-01,6.56871e-01,-2.67055e-01,-3.81421e-01,-9.80125e-02,1.95738e-01,2.11155e-01,2.59271e-01,2.78167e-01,1.39358e-01,-1.85735e-02,1.39589e-01,2.05621e-01,2.53291e-01,4.18064e-01,1.14620e-01,1.06428e-01,8.01722e-02,8.58732e-04,-1.12002e-01,-7.77301e-02,-2.90379e-01,-1.70882e-01,-1.77218e-01,-6.64601e-03,2.42879e-02,-2.01648e-03,-5.77167e-01,2.18538e-01,5.24909e-01,-8.44273e-03,-4.95681e-02,-7.15742e-02,1.60703e-01,9.19393e-02,2.05094e-01,1.16982e-01,-2.74769e-02,-6.37807e-02,8.98669e-02,2.02880e-01,4.93315e-01,1.31669e-01,-1.21969e-01,-8.32797e-02,4.60089e-02,-1.36582e-01,-2.10373e-01,1.71066e-01,5.66429e-02,-1.38679e-01,-1.58032e-01,9.92051e-02,2.60084e-02,2.57968e-02,-2.85856e-01,1.48152e-01,4.20536e-01,-1.72807e-01,-2.96342e-01,-4.04003e-01,-2.72498e-01,-1.57782e-01,1.08047e-01,-1.91486e-01,-3.35237e-01,-9.41845e-02,2.86034e-03,2.33667e-01,1.85969e-01,-1.86880e-01,-2.38596e-01,-3.72152e-01,-4.43065e-02,-8.53414e-02,-2.75369e-01,-5.51767e-02,-1.38620e-01,2.77176e-01,-2.80976e-02,-1.03619e-04,7.22947e-02,1.81778e-02,1.88352e-01,1.89461e-01,2.46277e-01,-1.91770e-01,-1.74955e-01,-4.89481e-01,-5.55471e-01,-7.58251e-01,-6.86746e-01,-3.75370e-01,-3.18927e-01,-7.36740e-02,-1.21489e-01,2.54157e-02,-1.28822e-01,-1.85074e-01,-2.55406e-01,-5.45283e-01,-3.84085e-01,3.76837e-02,-4.24773e-01,-6.06664e-01,-4.32526e-01,1.43930e-01,5.18785e-01,1.55051e-01,-2.72207e-02,-1.98876e-01,-9.21761e-02,1.66559e-01,3.36486e-01,-2.46463e-01,-1.40681e-01,-4.80116e-01,-7.48872e-01,-6.06424e-01,-5.87821e-01,-2.53928e-01,-8.04387e-02,-1.47806e-01,-3.08487e-02,-1.38008e-01,-1.17746e-01,-2.75625e-01,-3.45951e-01,-2.85571e-01,-3.87338e-01,2.09045e-02,-2.01740e-01,-5.45153e-01,-4.23597e-01,-6.22153e-03,-1.84844e-02,-1.62446e-02,-9.13811e-03,2.19775e-02,-2.04838e-01,-5.68452e-01,-3.27305e-01,-1.41237e-01,-2.32735e-01,-3.61132e-01,-2.59538e-01,-2.01029e-01,-3.90135e-01,-1.16668e-01,-3.16384e-02,1.47061e-02,-1.33566e-01,-3.12358e-01,-1.50308e-01,-1.88680e-01,-1.28165e-01,-2.03011e-01,-4.01032e-01,-8.46861e-02,-7.52725e-02,-4.04442e-01,-2.41514e-01,-9.19587e-02,-9.05724e-02,-3.18650e-02,-3.63271e-02,-5.54809e-03,-2.16850e-01,-4.22344e-01,-9.52105e-02,5.14062e-03,-2.88005e-01,-3.76528e-01,-3.18746e-02,1.39350e-02,-2.18183e-02,3.06514e-02,-7.68672e-04,-2.30237e-01,-4.00455e-01,-4.75793e-01,-1.85950e-01,-2.11296e-01,3.12217e-03,-5.35118e-02,-2.96527e-01,-2.02015e-01,-2.05601e-01,-1.79194e-01,-4.53504e-02,-7.80470e-02,-2.41253e-01,-1.30327e-03,-2.67948e-03,1.19693e-02,-2.73696e-01,-1.93606e-01,7.09968e-02,-1.74429e-01,-7.78075e-02,-2.13090e-01,9.70504e-02,5.29810e-02,2.01418e-01,1.91765e-02,-1.13045e-01,-8.48220e-02,-2.52819e-01,-2.79866e-01,-1.38236e-01,-1.07058e-01,1.02941e-01,-1.52876e-01,-3.38870e-01,-2.31330e-01,-1.02268e-01,-1.79241e-01,-1.18008e-01,-2.03286e-01,-1.46112e-01,-2.53749e-02,-2.80664e-02,-1.96406e-02,-2.89481e-01,-2.52226e-01,-6.77881e-02,-1.09811e-01,-3.38768e-01,-1.43340e-01,1.21717e-01,2.49587e-02,2.53623e-01,1.70459e-02,-1.31541e-01,-1.47886e-01,-1.74039e-01,-2.79657e-01,-2.06310e-01,-6.19948e-02,6.64727e-02,-2.43562e-02,-1.52422e-01,-2.60233e-02,1.21311e-01,1.69544e-01,1.46271e-01,2.03687e-01,-6.41625e-02,1.78582e-02,-5.78457e-03,-1.93225e-02,-6.51376e-02,-2.45845e-01,6.02857e-02,2.33221e-01,-9.80720e-02,-1.16372e-01,2.18866e-01,1.25920e-01,1.66957e-01,-9.20761e-02,-3.17029e-01,-1.84346e-01,-2.77681e-01,-2.76639e-01,-1.54553e-01,-2.31392e-01,5.64699e-03,4.11755e-02,1.37531e-01,1.51995e-01,9.77852e-02,3.31632e-02,2.52174e-03,3.05901e-01,2.83795e-03,1.53569e-02,-5.15098e-03,-1.89054e-02,4.49260e-02,-3.69705e-02,-4.71822e-01,-3.00717e-01,-1.62268e-01,-1.58175e-01,1.36455e-01,-6.75073e-02,-1.09101e-01,-1.24864e-01,7.51003e-03,1.53233e-01,-2.65104e-01,-6.43728e-01,-3.42876e-01,1.81273e-01,1.39412e-01,-7.39587e-02,6.59122e-02,-5.66708e-03,-3.78048e-02,-2.11526e-03,-2.81727e-01,2.92538e-01,-4.37609e-02,-8.42255e-03,-3.31658e-02,-3.29648e-02,-2.96572e-02,4.71027e-01,-2.52260e-01,-1.32937e-01,3.34357e-02,3.16450e-01,-1.04885e-01,1.91517e-01,3.24326e-02,-7.29781e-02,1.10689e-01,3.75644e-02,-1.29573e-01,-1.99709e-01,1.26060e-01,1.96007e-01,1.13102e-01,-1.05481e-01,-2.11118e-01,-1.79465e-01,-2.29454e-01,4.26101e-01,3.43665e-02,3.01761e-01,-2.67792e-02,-1.98162e-02,-8.83828e-03,-3.00085e-02,1.67138e-02,-3.10918e-02,2.19748e-01,4.34542e-01,-5.08427e-02,1.21310e-02,1.46678e-02,3.38179e-01,4.09731e-01,2.96916e-01,3.98668e-01,5.19701e-01,2.87563e-01,2.03163e-01,3.21188e-01,3.11960e-01,3.62751e-01,1.99628e-01,6.09963e-02,2.06488e-01,1.00158e-01,2.95536e-02,-1.56270e-02,-1.86078e-02,2.94581e-03,-1.59517e-02,
-8.37393e-03,-3.09321e-02,-1.09282e-02,3.36169e-02,3.36286e-02,3.13948e-02,-1.24079e-03,2.20200e-02,-1.50114e-02,-9.53162e-03,8.07618e-03,-8.26489e-03,7.08330e-02,5.22655e-02,6.62889e-02,5.66522e-02,3.54607e-02,6.46152e-03,3.16735e-02,1.51414e-02,-6.26183e-03,1.97072e-02,-3.29125e-02,2.93338e-03,3.55721e-02,-2.70930e-03,1.33427e-02,3.48923e-02,1.88201e-03,-1.77072e-03,2.81135e-02,1.80931e-02,8.02206e-03,7.85894e-04,-1.77941e-02,-1.94028e-02,1.42314e-02,1.14677e-02,7.98368e-02,1.29316e-01,9.57001e-02,1.03022e-01,1.62410e-01,2.15301e-02,9.20281e-02,-4.12540e-03,4.72349e-02,1.21360e-01,3.66352e-02,3.79413e-02,1.66664e-02,2.59912e-02,4.10028e-03,2.71721e-02,-3.41626e-02,1.44374e-02,-2.66630e-03,-6.19863e-04,-9.97273e-03,7.46992e-03,3.45226e-02,-1.73111e-02,1.97188e-02,2.09660e-02,2.33178e-01,4.16788e-01,5.65485e-01,4.77239e-01,3.03840e-01,1.29594e-01,8.82151e-02,2.67057e-01,3.70149e-01,2.47800e-01,1.69617e-01,6.00911e-02,7.10842e-02,1.70656e-01,2.01016e-02,8.96074e-02,7.00740e-02,1.21924e-01,3.05692e-02,-3.41918e-02,-1.83174e-02,3.56922e-02,6.51048e-02,5.58832e-02,4.88724e-03,-2.03094e-01,-4.27842e-02,-1.18923e-01,3.02254e-01,3.14372e-01,4.29461e-01,2.90544e-01,1.18692e-01,-1.16018e-01,-1.95875e-01,-1.81380e-01,5.95855e-02,3.67313e-01,2.24583e-01,2.82286e-01,2.01605e-01,-8.25101e-02,-2.98370e-01,-6.00920e-01,7.03294e-02,1.19680e-01,1.72687e-02,4.02130e-03,-2.00961e-02,-1.63012e-02,5.59426e-02,2.05775e-03,-2.91251e-01,-1.71495e-01,-8.79756e-03,-6.75893e-03,6.85669e-02,-4.54350e-02,1.62877e-01,3.30015e-01,1.33944e-01,-2.06402e-01,-3.15791e-01,-4.36163e-01,-1.16629e-01,2.30644e-01,-4.62293e-02,-1.63366e-01,-2.13456e-01,-6.94465e-02,-3.52962e-01,-4.57717e-01,-9.84527e-02,-1.85843e-01,1.18988e-01,2.98600e-02,1.08342e-02,8.86734e-03,8.10188e-02,8.68181e-02,5.06671e-02,1.20560e-01,2.81510e-01,3.15234e-01,-8.47320e-02,-2.77931e-01,-1.08329e-01,-2.87521e-02,1.53302e-01,-1.44962e-02,5.70318e-02,2.45386e-01,-1.75148e-04,6.28028e-02,-7.38594e-02,-2.06691e-01,-9.43017e-02,-2.32363e-02,-1.90576e-01,-9.80383e-02,-2.47910e-01,-3.62151e-01,6.65105e-01,1.32879e-01,-4.24481e-03,9.77964e-02,2.56606e-01,-2.89753e-02,5.54147e-02,2.57207e-01,5.23367e-01,2.51428e-01,-2.51000e-02,-2.29968e-01,-5.30039e-02,-1.36355e-01,2.85948e-02,1.50939e-01,7.84014e-02,2.02010e-01,7.28091e-03,-3.94374e-01,-2.98785e-01,-1.58887e-01,-9.47150e-02,8.66996e-02,1.14625e-01,1.90548e-01,-1.07482e-01,-1.86677e-01,2.59376e-01,7.73835e-02,5.59219e-03,8.19685e-03,3.09459e-01,3.78418e-02,1.84290e-01,3.99120e-01,3.26574e-01,2.25415e-01,-1.52441e-01,-2.64187e-01,6.87922e-03,2.32098e-01,8.24387e-04,-4.81457e-02,-3.01380e-02,-9.80395e-02,1.78905e-01,-1.61757e-02,-2.93170e-01,-2.92656e-01,3.51179e-03,2.64978e-01,2.58868e-01,-3.42674e-02,-1.40804e-01,1.19794e-02,-9.07958e-02,3.88678e-01,2.73719e-02,-1.26853e-01,4.33421e-01,5.86036e-01,2.70190e-01,-1.33648e-01,-8.46955e-02,-7.09475e-02,-9.12480e-03,-9.20458e-02,1.39761e-02,-5.56288e-02,-2.02963e-01,-1.18895e-01,5.38263e-02,1.92530e-01,1.24447e-01,1.53403e-02,-2.91434e-01,8.35602e-02,1.22738e-01,2.53048e-01,3.81342e-01,3.56289e-01,3.47646e-01,5.20423e-01,6.12680e-01,3.43168e-01,-2.94999e-02,-1.06824e-01,4.57967e-01,5.02092e-01,1.05849e-01,-1.04025e-01,4.01228e-03,2.35614e-01,1.17673e-01,1.65533e-02,-2.62225e-01,-2.12062e-01,-1.63170e-01,9.72373e-02,8.31353e-02,1.85171e-01,9.27174e-02,1.18488e-01,-1.01589e-01,1.67598e-01,1.61405e-01,1.03084e-03,-4.09400e-02,-9.95702e-03,3.41912e-01,1.81331e-01,1.24256e+00,5.04234e-01,-7.62307e-02,-6.90212e-02,2.03472e-01,4.27526e-01,-1.23457e-01,-1.42550e-01,9.99436e-02,-3.09756e-02,9.12372e-02,-2.39505e-01,-2.00679e-01,-2.32743e-01,2.27767e-02,1.45052e-01,1.16406e-01,4.84218e-02,-1.15688e-01,-2.30147e-01,-3.20310e-01,-1.44392e-01,-1.31971e-01,-1.40002e-01,2.82375e-02,-1.36915e-01,-1.29485e-01,2.14061e-01,9.05487e-01,6.08468e-02,-5.54238e-02,2.71590e-03,-6.59270e-03,4.08268e-02,-2.98386e-02,-4.61480e-01,-3.33564e-01,-3.11644e-01,-4.82066e-02,-4.13129e-01,-2.93912e-01,-5.12516e-02,7.73216e-02,-3.26573e-02,-1.26907e-01,-1.23900e-01,-2.37387e-01,-2.01647e-01,-2.89318e-01,-3.30606e-01,-2.81004e-01,-2.44024e-01,-7.43171e-02,-7.33212e-01,-4.68365e-01,4.83993e-01,8.52617e-01,-9.27437e-02,-6.90159e-02,5.16859e-02,2.90678e-01,1.81782e-02,-3.34285e-01,-5.38128e-01,-3.11766e-01,-3.42096e-01,-5.13666e-02,-3.35995e-01,1.32888e-01,1.11853e-01,5.22181e-02,-1.78914e-02,-1.42027e-01,-2.49712e-01,-1.06407e-01,1.71508e-02,-2.63382e-01,-1.91128e-01,-2.26217e-01,-4.97629e-01,-5.01023e-01,-6.29381e-01,-3.43189e-01,5.68669e-01,6.34649e-01,-3.61775e-02,1.55585e-02,2.14138e-02,3.99593e-02,-2.47952e-01,-2.09114e-01,-1.33757e-01,-6.07886e-02,-1.48022e-01,1.84694e-02,3.35988e-02,2.09873e-01,1.72961e-01,1.29722e-01,-1.38076e-01,-1.58569e-01,-6.39481e-02,-4.87715e-03,-3.09591e-02,-3.60040e-02,2.60922e-01,-6.58260e-02,-3.41044e-01,-1.75216e-01,9.48136e-02,3.20987e-01,4.14406e-01,6.86860e-01,3.49077e-01,4.37905e-02,8.18558e-02,2.13719e-02,-2.82885e-01,2.89820e-01,6.71935e-02,-1.51048e-02,-2.68333e-02,1.64982e-01,1.83507e-01,2.51332e-01,1.95137e-01,1.52728e-01,1.37271e-01,-3.41307e-02,-2.04797e-02,-2.03805e-02,-1.60139e-01,-1.94083e-01,2.05933e-02,-3.08901e-01,-2.95183e-01,3.10209e-02,2.57762e-01,5.92921e-01,3.45942e-01,7.25283e-01,2.69406e-01,3.71445e-02,6.99125e-02,-1.56277e-01,-1.48657e-01,4.76766e-01,4.25835e-01,2.01585e-01,2.34379e-01,1.69928e-01,2.37651e-01,1.34624e-01,8.83758e-02,3.75650e-01,1.60384e-01,5.96770e-03,-2.32943e-02,-3.03289e-02,-1.04273e-01,-5.20618e-02,-3.51967e-01,-4.80444e-01,-2.44831e-01,-1.28499e-01,7.59832e-02,5.42012e-01,3.51066e-01,7.33694e-01,6.43790e-01,1.61888e-02,7.08898e-02,-7.59040e-02,1.42951e-01,5.27028e-01,5.44236e-01,3.48904e-01,2.31393e-01,7.96681e-02,2.84497e-01,7.95067e-02,-1.13600e-01,4.77618e-02,4.69342e-02,-3.78698e-02,1.08872e-01,1.35270e-01,-1.97048e-02,-1.41315e-02,-1.12271e-01,-4.67089e-02,1.48128e-01,2.00556e-01,7.47097e-02,2.39834e-01,4.20070e-01,7.05031e-01,3.06710e-01,-3.39896e-02,5.69883e-02,-3.43814e-02,2.93660e-01,6.18850e-01,5.98064e-01,2.41160e-01,7.92138e-03,7.17276e-03,1.96471e-01,1.93376e-01,-6.60274e-03,-2.60995e-01,-2.57805e-01,-1.31004e-01,1.36867e-01,3.52217e-01,5.82044e-03,-8.96935e-02,-6.67332e-02,6.13763e-02,1.32418e-01,2.44143e-01,2.92526e-02,-7.95882e-02,1.42470e-01,3.10126e-01,9.57835e-01,2.07097e-03,3.23217e-02,2.66631e-02,3.19312e-01,2.97877e-01,2.45012e-01,-2.60054e-01,-3.29017e-01,3.00320e-02,1.18194e-01,3.51553e-02,5.26182e-02,-1.27423e-01,-1.68624e-01,-1.08574e-01,1.43392e-01,1.68033e-01,-3.31790e-02,3.04681e-02,4.77208e-02,-1.84568e-02,2.76566e-02,1.03122e-01,8.93250e-02,1.66488e-01,2.85482e-01,2.55260e-01,9.29004e-01,6.18386e-03,-1.69079e-01,3.81065e-01,2.53391e-02,-3.75141e-02,-6.89155e-02,-2.68690e-01,-2.71690e-01,-9.72281e-02,4.88940e-02,2.53164e-02,-1.59632e-01,-2.27631e-01,-1.96395e-02,-1.10172e-01,1.17578e-01,8.04475e-02,-9.73047e-02,2.37929e-01,8.41058e-02,-4.08571e-02,1.42282e-02,1.59454e-01,1.15892e-01,3.77705e-01,4.36385e-01,4.14546e-01,7.48927e-02,-6.19764e-03,-1.58845e-01,5.08135e-02,4.93674e-02,1.12172e-01,1.09366e-01,-4.36991e-03,-2.52949e-01,-1.42515e-01,-2.39075e-02,-4.07498e-02,-8.02252e-02,-1.96364e-01,-2.48896e-02,-3.06223e-01,-1.70220e-01,-2.69967e-01,-1.36161e-01,2.72120e-01,1.77584e-01,1.27261e-01,3.62547e-02,-2.42168e-03,1.03418e-01,2.62352e-01,3.97374e-01,4.40054e-01,9.32654e-03,-4.38069e-02,9.22067e-02,-3.31194e-02,1.83371e-01,2.64236e-01,1.15068e-01,1.27535e-01,-2.15046e-01,-2.16034e-01,-2.21061e-01,-9.52697e-02,-2.50007e-01,-1.71782e-01,-2.99557e-01,-5.29223e-01,-4.47592e-01,-3.49040e-01,-1.08397e-01,3.18916e-01,2.60277e-01,9.99737e-03,-7.42827e-02,-9.87873e-02,8.85761e-02,3.73397e-01,5.06729e-01,4.22698e-01,2.14136e-02,-2.75989e-02,9.94762e-02,2.10100e-01,4.63210e-01,2.27659e-01,2.37243e-01,1.09242e-01,-2.76828e-01,-3.26943e-01,-3.41287e-01,-4.78367e-01,-5.02827e-01,-6.81486e-01,-7.07865e-01,-4.83187e-01,-2.03642e-01,-1.39357e-01,8.67992e-02,3.05568e-01,1.72943e-01,1.09995e-01,4.79156e-02,5.57778e-02,1.19163e-01,4.72626e-01,4.39335e-01,1.93230e-01,-2.78450e-02,2.49859e-02,-7.03262e-04,-2.64348e-02,4.42071e-01,7.08031e-02,1.02652e-01,-8.46029e-02,-2.71273e-01,-1.30612e-01,-2.41725e-01,-3.79212e-01,-3.67428e-01,-4.33240e-01,-3.93763e-01,9.94582e-02,2.32195e-01,1.46792e-01,3.55890e-02,1.14125e-01,-9.19970e-02,-2.02019e-03,1.21465e-01,4.87336e-02,2.69543e-02,3.04410e-01,2.79361e-01,2.80719e-01,1.50295e-02,2.94327e-02,1.20161e-02,7.32317e-02,1.21986e-01,-3.11180e-01,-2.88299e-01,-3.82602e-01,-4.89813e-01,-3.17482e-01,-3.03552e-01,-1.57080e-01,1.92445e-02,-2.99244e-02,6.39179e-02,3.30825e-01,4.07745e-01,1.13674e-01,8.38782e-02,2.28954e-02,2.63145e-02,7.88568e-02,2.19716e-01,2.99353e-01,1.29572e-01,2.86056e-01,-2.90172e-02,9.29321e-02,-5.93782e-03,-2.98794e-02,1.14941e-02,8.21172e-02,-8.61793e-02,-1.93383e-01,-3.21604e-01,-4.53690e-01,2.19760e-01,3.62510e-01,1.39216e-01,-2.46262e-02,7.26817e-02,2.99715e-01,2.75968e-01,2.45948e-01,3.48201e-01,4.19486e-02,-1.87898e-01,-3.28761e-01,-2.62881e-01,2.00919e-01,1.01578e-01,3.16101e-01,5.13887e-01,3.86335e-01,-8.50652e-02,1.35329e-01,1.24749e-02,-1.11882e-02,2.73662e-02,2.37589e-02,-4.92327e-03,-1.39002e-01,-1.66824e-01,-1.77107e-01,-1.71313e-01,-3.57494e-01,-2.65920e-01,-1.16680e-01,1.25512e-01,-1.17998e-01,-1.78174e-02,-2.53100e-01,6.11067e-02,2.26186e-01,3.37296e-01,6.33961e-02,-4.75477e-02,2.88390e-02,-1.47173e-01,-1.76299e-01,-1.91827e-01,-3.03349e-01,-2.89348e-02,-1.73887e-02,5.32759e-03,-9.61500e-03,-1.71244e-02,1.64561e-02,-3.13030e-02,4.78922e-03,6.13414e-04,-1.07493e-01,-1.22480e-01,-1.52084e-01,-1.26089e-01,-7.65153e-02,-2.38916e-01,-3.38760e-01,-3.32070e-01,-1.05995e+00,-4.19230e-01,-2.55348e-01,-4.12437e-01,-4.92704e-01,-4.54408e-01,-2.30695e-01,-3.95115e-01,-3.73070e-01,-7.38614e-02,-1.02586e-02,-3.50800e-02,-1.80968e-02,2.66001e-02,
