// Neural Network File Format by Kyle Julian, Stanford 2016
6,784,10,784,
784,100,100,100,100,100,10,
0,
-3.4028235e+38,-3.4028235e+38,-3.4028235e+38,-3.4028235e+38,-3.4028235e+38,-3.4028235e+38,-3.4028235e+38,-3.4028235e+38,-3.4028235e+38,-3.4028235e+38,-3.4028235e+38,-3.4028235e+38,-3.4028235e+38,-3.4028235e+38,-3.4028235e+38,-3.4028235e+38,-3.4028235e+38,-3.4028235e+38,-3.4028235e+38,-3.4028235e+38,-3.4028235e+38,-3.4028235e+38,-3.4028235e+38,-3.4028235e+38,-3.4028235e+38,-3.4028235e+38,-3.4028235e+38,-3.4028235e+38,-3.4028235e+38,-3.4028235e+38,-3.4028235e+38,-3.4028235e+38,-3.4028235e+38,-3.4028235e+38,-3.4028235e+38,-3.4028235e+38,-3.4028235e+38,-3.4028235e+38,-3.4028235e+38,-3.4028235e+38,-3.4028235e+38,-3.4028235e+38,-3.4028235e+38,-3.4028235e+38,-3.4028235e+38,-3.4028235e+38,-3.4028235e+38,-3.4028235e+38,-3.4028235e+38,-3.4028235e+38,-3.4028235e+38,-3.4028235e+38,-3.4028235e+38,-3.4028235e+38,-3.4028235e+38,-3.4028235e+38,-3.4028235e+38,-3.4028235e+38,-3.4028235e+38,-3.4028235e+38,-3.4028235e+38,-3.4028235e+38,-3.4028235e+38,-3.4028235e+38,-3.4028235e+38,-3.4028235e+38,-3.4028235e+38,-3.4028235e+38,-3.4028235e+38,-3.4028235e+38,-3.4028235e+38,-3.4028235e+38,-3.4028235e+38,-3.4028235e+38,-3.4028235e+38,-3.4028235e+38,-3.4028235e+38,-3.4028235e+38,-3.4028235e+38,-3.4028235e+38,-3.4028235e+38,-3.4028235e+38,-3.4028235e+38,-3.4028235e+38,-3.4028235e+38,-3.4028235e+38,-3.4028235e+38,-3.4028235e+38,-3.4028235e+38,-3.4028235e+38,-3.4028235e+38,-3.4028235e+38,-3.4028235e+38,-3.4028235e+38,-3.4028235e+38,-3.4028235e+38,-3.4028235e+38,-3.4028235e+38,-3.4028235e+38,-3.4028235e+38,-3.4028235e+38,-3.4028235e+38,-3.4028235e+38,-3.4028235e+38,-3.4028235e+38,-3.4028235e+38,-3.4028235e+38,-3.4028235e+38,-3.4028235e+38,-3.4028235e+38,-3.4028235e+38,-3.4028235e+38,-3.4028235e+38,-3.4028235e+38,-3.4028235e+38,-3.4028235e+38,-3.4028235e+38,-3.4028235e+38,-3.4028235e+38,-3.4028235e+38,-3.4028235e+38,-3.4028235e+38,-3.4028235e+38,-3.4028235e+38,-3.4028235e+38,-3.4028235e+38,-3.4028235e+38,-3.4028235e+38,-3.4028235e+38,-3.4028235e+38,-3.4028235e+38,-3.4028235e+38,-3.4028235e+38,-3.4028235e+38,-3.4028235e+38,-3.4028235e+38,-3.4028235e+38,-3.4028235e+38,-3.4028235e+38,-3.4028235e+38,-3.4028235e+38,-3.4028235e+38,-3.4028235e+38,-3.4028235e+38,-3.4028235e+38,-3.4028235e+38,-3.4028235e+38,-3.4028235e+38,-3.4028235e+38,-3.4028235e+38,-3.4028235e+38,-3.4028235e+38,-3.4028235e+38,-3.4028235e+38,-3.4028235e+38,-3.4028235e+38,-3.4028235e+38,-3.4028235e+38,-3.4028235e+38,-3.4028235e+38,-3.4028235e+38,-3.4028235e+38,-3.4028235e+38,-3.4028235e+38,-3.4028235e+38,-3.4028235e+38,-3.4028235e+38,-3.4028235e+38,-3.4028235e+38,-3.4028235e+38,-3.4028235e+38,-3.4028235e+38,-3.4028235e+38,-3.4028235e+38,-3.4028235e+38,-3.4028235e+38,-3.4028235e+38,-3.4028235e+38,-3.4028235e+38,-3.4028235e+38,-3.4028235e+38,-3.4028235e+38,-3.4028235e+38,-3.4028235e+38,-3.4028235e+38,-3.4028235e+38,-3.4028235e+38,-3.4028235e+38,-3.4028235e+38,-3.4028235e+38,-3.4028235e+38,-3.4028235e+38,-3.4028235e+38,-3.4028235e+38,-3.4028235e+38,-3.4028235e+38,-3.4028235e+38,-3.4028235e+38,-3.4028235e+38,-3.4028235e+38,-3.4028235e+38,-3.4028235e+38,-3.4028235e+38,-3.4028235e+38,-3.4028235e+38,-3.4028235e+38,-3.4028235e+38,-3.4028235e+38,-3.4028235e+38,-3.4028235e+38,-3.4028235e+38,-3.4028235e+38,-3.4028235e+38,-3.4028235e+38,-3.4028235e+38,-3.4028235e+38,-3.4028235e+38,-3.4028235e+38,-3.4028235e+38,-3.4028235e+38,-3.4028235e+38,-3.4028235e+38,-3.4028235e+38,-3.4028235e+38,-3.4028235e+38,-3.4028235e+38,-3.4028235e+38,-3.4028235e+38,-3.4028235e+38,-3.4028235e+38,-3.4028235e+38,-3.4028235e+38,-3.4028235e+38,-3.4028235e+38,-3.4028235e+38,-3.4028235e+38,-3.4028235e+38,-3.4028235e+38,-3.4028235e+38,-3.4028235e+38,-3.4028235e+38,-3.4028235e+38,-3.4028235e+38,-3.4028235e+38,-3.4028235e+38,-3.4028235e+38,-3.4028235e+38,-3.4028235e+38,-3.4028235e+38,-3.4028235e+38,-3.4028235e+38,-3.4028235e+38,-3.4028235e+38,-3.4028235e+38,-3.4028235e+38,-3.4028235e+38,-3.4028235e+38,-3.4028235e+38,-3.4028235e+38,-3.4028235e+38,-3.4028235e+38,-3.4028235e+38,-3.4028235e+38,-3.4028235e+38,-3.4028235e+38,-3.4028235e+38,-3.4028235e+38,-3.4028235e+38,-3.4028235e+38,-3.4028235e+38,-3.4028235e+38,-3.4028235e+38,-3.4028235e+38,-3.4028235e+38,-3.4028235e+38,-3.4028235e+38,-3.4028235e+38,-3.4028235e+38,-3.4028235e+38,-3.4028235e+38,-3.4028235e+38,-3.4028235e+38,-3.4028235e+38,-3.4028235e+38,-3.4028235e+38,-3.4028235e+38,-3.4028235e+38,-3.4028235e+38,-3.4028235e+38,-3.4028235e+38,-3.4028235e+38,-3.4028235e+38,-3.4028235e+38,-3.4028235e+38,-3.4028235e+38,-3.4028235e+38,-3.4028235e+38,-3.4028235e+38,-3.4028235e+38,-3.4028235e+38,-3.4028235e+38,-3.4028235e+38,-3.4028235e+38,-3.4028235e+38,-3.4028235e+38,-3.4028235e+38,-3.4028235e+38,-3.4028235e+38,-3.4028235e+38,-3.4028235e+38,-3.4028235e+38,-3.4028235e+38,-3.4028235e+38,-3.4028235e+38,-3.4028235e+38,-3.4028235e+38,-3.4028235e+38,-3.4028235e+38,-3.4028235e+38,-3.4028235e+38,-3.4028235e+38,-3.4028235e+38,-3.4028235e+38,-3.4028235e+38,-3.4028235e+38,-3.4028235e+38,-3.4028235e+38,-3.4028235e+38,-3.4028235e+38,-3.4028235e+38,-3.4028235e+38,-3.4028235e+38,-3.4028235e+38,-3.4028235e+38,-3.4028235e+38,-3.4028235e+38,-3.4028235e+38,-3.4028235e+38,-3.4028235e+38,-3.4028235e+38,-3.4028235e+38,-3.4028235e+38,-3.4028235e+38,-3.4028235e+38,-3.4028235e+38,-3.4028235e+38,-3.4028235e+38,-3.4028235e+38,-3.4028235e+38,-3.4028235e+38,-3.4028235e+38,-3.4028235e+38,-3.4028235e+38,-3.4028235e+38,-3.4028235e+38,-3.4028235e+38,-3.4028235e+38,-3.4028235e+38,-3.4028235e+38,-3.4028235e+38,-3.4028235e+38,-3.4028235e+38,-3.4028235e+38,-3.4028235e+38,-3.4028235e+38,-3.4028235e+38,-3.4028235e+38,-3.4028235e+38,-3.4028235e+38,-3.4028235e+38,-3.4028235e+38,-3.4028235e+38,-3.4028235e+38,-3.4028235e+38,-3.4028235e+38,-3.4028235e+38,-3.4028235e+38,-3.4028235e+38,-3.4028235e+38,-3.4028235e+38,-3.4028235e+38,-3.4028235e+38,-3.4028235e+38,-3.4028235e+38,-3.4028235e+38,-3.4028235e+38,-3.4028235e+38,-3.4028235e+38,-3.4028235e+38,-3.4028235e+38,-3.4028235e+38,-3.4028235e+38,-3.4028235e+38,-3.4028235e+38,-3.4028235e+38,-3.4028235e+38,-3.4028235e+38,-3.4028235e+38,-3.4028235e+38,-3.4028235e+38,-3.4028235e+38,-3.4028235e+38,-3.4028235e+38,-3.4028235e+38,-3.4028235e+38,-3.4028235e+38,-3.4028235e+38,-3.4028235e+38,-3.4028235e+38,-3.4028235e+38,-3.4028235e+38,-3.4028235e+38,-3.4028235e+38,-3.4028235e+38,-3.4028235e+38,-3.4028235e+38,-3.4028235e+38,-3.4028235e+38,-3.4028235e+38,-3.4028235e+38,-3.4028235e+38,-3.4028235e+38,-3.4028235e+38,-3.4028235e+38,-3.4028235e+38,-3.4028235e+38,-3.4028235e+38,-3.4028235e+38,-3.4028235e+38,-3.4028235e+38,-3.4028235e+38,-3.4028235e+38,-3.4028235e+38,-3.4028235e+38,-3.4028235e+38,-3.4028235e+38,-3.4028235e+38,-3.4028235e+38,-3.4028235e+38,-3.4028235e+38,-3.4028235e+38,-3.4028235e+38,-3.4028235e+38,-3.4028235e+38,-3.4028235e+38,-3.4028235e+38,-3.4028235e+38,-3.4028235e+38,-3.4028235e+38,-3.4028235e+38,-3.4028235e+38,-3.4028235e+38,-3.4028235e+38,-3.4028235e+38,-3.4028235e+38,-3.4028235e+38,-3.4028235e+38,-3.4028235e+38,-3.4028235e+38,-3.4028235e+38,-3.4028235e+38,-3.4028235e+38,-3.4028235e+38,-3.4028235e+38,-3.4028235e+38,-3.4028235e+38,-3.4028235e+38,-3.4028235e+38,-3.4028235e+38,-3.4028235e+38,-3.4028235e+38,-3.4028235e+38,-3.4028235e+38,-3.4028235e+38,-3.4028235e+38,-3.4028235e+38,-3.4028235e+38,-3.4028235e+38,-3.4028235e+38,-3.4028235e+38,-3.4028235e+38,-3.4028235e+38,-3.4028235e+38,-3.4028235e+38,-3.4028235e+38,-3.4028235e+38,-3.4028235e+38,-3.4028235e+38,-3.4028235e+38,-3.4028235e+38,-3.4028235e+38,-3.4028235e+38,-3.4028235e+38,-3.4028235e+38,-3.4028235e+38,-3.4028235e+38,-3.4028235e+38,-3.4028235e+38,-3.4028235e+38,-3.4028235e+38,-3.4028235e+38,-3.4028235e+38,-3.4028235e+38,-3.4028235e+38,-3.4028235e+38,-3.4028235e+38,-3.4028235e+38,-3.4028235e+38,-3.4028235e+38,-3.4028235e+38,-3.4028235e+38,-3.4028235e+38,-3.4028235e+38,-3.4028235e+38,-3.4028235e+38,-3.4028235e+38,-3.4028235e+38,-3.4028235e+38,-3.4028235e+38,-3.4028235e+38,-3.4028235e+38,-3.4028235e+38,-3.4028235e+38,-3.4028235e+38,-3.4028235e+38,-3.4028235e+38,-3.4028235e+38,-3.4028235e+38,-3.4028235e+38,-3.4028235e+38,-3.4028235e+38,-3.4028235e+38,-3.4028235e+38,-3.4028235e+38,-3.4028235e+38,-3.4028235e+38,-3.4028235e+38,-3.4028235e+38,-3.4028235e+38,-3.4028235e+38,-3.4028235e+38,-3.4028235e+38,-3.4028235e+38,-3.4028235e+38,-3.4028235e+38,-3.4028235e+38,-3.4028235e+38,-3.4028235e+38,-3.4028235e+38,-3.4028235e+38,-3.4028235e+38,-3.4028235e+38,-3.4028235e+38,-3.4028235e+38,-3.4028235e+38,-3.4028235e+38,-3.4028235e+38,-3.4028235e+38,-3.4028235e+38,-3.4028235e+38,-3.4028235e+38,-3.4028235e+38,-3.4028235e+38,-3.4028235e+38,-3.4028235e+38,-3.4028235e+38,-3.4028235e+38,-3.4028235e+38,-3.4028235e+38,-3.4028235e+38,-3.4028235e+38,-3.4028235e+38,-3.4028235e+38,-3.4028235e+38,-3.4028235e+38,-3.4028235e+38,-3.4028235e+38,-3.4028235e+38,-3.4028235e+38,-3.4028235e+38,-3.4028235e+38,-3.4028235e+38,-3.4028235e+38,-3.4028235e+38,-3.4028235e+38,-3.4028235e+38,-3.4028235e+38,-3.4028235e+38,-3.4028235e+38,-3.4028235e+38,-3.4028235e+38,-3.4028235e+38,-3.4028235e+38,-3.4028235e+38,-3.4028235e+38,-3.4028235e+38,-3.4028235e+38,-3.4028235e+38,-3.4028235e+38,-3.4028235e+38,-3.4028235e+38,-3.4028235e+38,-3.4028235e+38,-3.4028235e+38,-3.4028235e+38,-3.4028235e+38,-3.4028235e+38,-3.4028235e+38,-3.4028235e+38,-3.4028235e+38,-3.4028235e+38,-3.4028235e+38,-3.4028235e+38,-3.4028235e+38,-3.4028235e+38,-3.4028235e+38,-3.4028235e+38,-3.4028235e+38,-3.4028235e+38,-3.4028235e+38,-3.4028235e+38,-3.4028235e+38,-3.4028235e+38,-3.4028235e+38,-3.4028235e+38,-3.4028235e+38,-3.4028235e+38,-3.4028235e+38,-3.4028235e+38,-3.4028235e+38,-3.4028235e+38,-3.4028235e+38,-3.4028235e+38,-3.4028235e+38,-3.4028235e+38,-3.4028235e+38,-3.4028235e+38,-3.4028235e+38,-3.4028235e+38,-3.4028235e+38,-3.4028235e+38,-3.4028235e+38,-3.4028235e+38,-3.4028235e+38,-3.4028235e+38,-3.4028235e+38,-3.4028235e+38,-3.4028235e+38,-3.4028235e+38,-3.4028235e+38,-3.4028235e+38,-3.4028235e+38,-3.4028235e+38,-3.4028235e+38,-3.4028235e+38,-3.4028235e+38,-3.4028235e+38,-3.4028235e+38,-3.4028235e+38,-3.4028235e+38,-3.4028235e+38,-3.4028235e+38,-3.4028235e+38,-3.4028235e+38,-3.4028235e+38,-3.4028235e+38,-3.4028235e+38,-3.4028235e+38,-3.4028235e+38,-3.4028235e+38,-3.4028235e+38,-3.4028235e+38,-3.4028235e+38,-3.4028235e+38,-3.4028235e+38,-3.4028235e+38,-3.4028235e+38,-3.4028235e+38,-3.4028235e+38,-3.4028235e+38,-3.4028235e+38,-3.4028235e+38,-3.4028235e+38,-3.4028235e+38,-3.4028235e+38,-3.4028235e+38,-3.4028235e+38,-3.4028235e+38,-3.4028235e+38,-3.4028235e+38,-3.4028235e+38,-3.4028235e+38,-3.4028235e+38,-3.4028235e+38,-3.4028235e+38,-3.4028235e+38,-3.4028235e+38,-3.4028235e+38,-3.4028235e+38,-3.4028235e+38,-3.4028235e+38,-3.4028235e+38,-3.4028235e+38,-3.4028235e+38,-3.4028235e+38,-3.4028235e+38,-3.4028235e+38,-3.4028235e+38,-3.4028235e+38,-3.4028235e+38,-3.4028235e+38,-3.4028235e+38,-3.4028235e+38,-3.4028235e+38,-3.4028235e+38,-3.4028235e+38,-3.4028235e+38,-3.4028235e+38,-3.4028235e+38,-3.4028235e+38,-3.4028235e+38,-3.4028235e+38,-3.4028235e+38,-3.4028235e+38,-3.4028235e+38,-3.4028235e+38,-3.4028235e+38,-3.4028235e+38,-3.4028235e+38,-3.4028235e+38,-3.4028235e+38,-3.4028235e+38,-3.4028235e+38,-3.4028235e+38,-3.4028235e+38,-3.4028235e+38,-3.4028235e+38,-3.4028235e+38,-3.4028235e+38,-3.4028235e+38,-3.4028235e+38,-3.4028235e+38,-3.4028235e+38,-3.4028235e+38,-3.4028235e+38,-3.4028235e+38,-3.4028235e+38,-3.4028235e+38,-3.4028235e+38,-3.4028235e+38,-3.4028235e+38,-3.4028235e+38,-3.4028235e+38,-3.4028235e+38,-3.4028235e+38,-3.4028235e+38,-3.4028235e+38,-3.4028235e+38,-3.4028235e+38,-3.4028235e+38,-3.4028235e+38,-3.4028235e+38,-3.4028235e+38,-3.4028235e+38,-3.4028235e+38,-3.4028235e+38,-3.4028235e+38,-3.4028235e+38,-3.4028235e+38,-3.4028235e+38,-3.4028235e+38,-3.4028235e+38,-3.4028235e+38,-3.4028235e+38,-3.4028235e+38,-3.4028235e+38,-3.4028235e+38,-3.4028235e+38,-3.4028235e+38,-3.4028235e+38,-3.4028235e+38,-3.4028235e+38,-3.4028235e+38,-3.4028235e+38,
3.4028235e+38,3.4028235e+38,3.4028235e+38,3.4028235e+38,3.4028235e+38,3.4028235e+38,3.4028235e+38,3.4028235e+38,3.4028235e+38,3.4028235e+38,3.4028235e+38,3.4028235e+38,3.4028235e+38,3.4028235e+38,3.4028235e+38,3.4028235e+38,3.4028235e+38,3.4028235e+38,3.4028235e+38,3.4028235e+38,3.4028235e+38,3.4028235e+38,3.4028235e+38,3.4028235e+38,3.4028235e+38,3.4028235e+38,3.4028235e+38,3.4028235e+38,3.4028235e+38,3.4028235e+38,3.4028235e+38,3.4028235e+38,3.4028235e+38,3.4028235e+38,3.4028235e+38,3.4028235e+38,3.4028235e+38,3.4028235e+38,3.4028235e+38,3.4028235e+38,3.4028235e+38,3.4028235e+38,3.4028235e+38,3.4028235e+38,3.4028235e+38,3.4028235e+38,3.4028235e+38,3.4028235e+38,3.4028235e+38,3.4028235e+38,3.4028235e+38,3.4028235e+38,3.4028235e+38,3.4028235e+38,3.4028235e+38,3.4028235e+38,3.4028235e+38,3.4028235e+38,3.4028235e+38,3.4028235e+38,3.4028235e+38,3.4028235e+38,3.4028235e+38,3.4028235e+38,3.4028235e+38,3.4028235e+38,3.4028235e+38,3.4028235e+38,3.4028235e+38,3.4028235e+38,3.4028235e+38,3.4028235e+38,3.4028235e+38,3.4028235e+38,3.4028235e+38,3.4028235e+38,3.4028235e+38,3.4028235e+38,3.4028235e+38,3.4028235e+38,3.4028235e+38,3.4028235e+38,3.4028235e+38,3.4028235e+38,3.4028235e+38,3.4028235e+38,3.4028235e+38,3.4028235e+38,3.4028235e+38,3.4028235e+38,3.4028235e+38,3.4028235e+38,3.4028235e+38,3.4028235e+38,3.4028235e+38,3.4028235e+38,3.4028235e+38,3.4028235e+38,3.4028235e+38,3.4028235e+38,3.4028235e+38,3.4028235e+38,3.4028235e+38,3.4028235e+38,3.4028235e+38,3.4028235e+38,3.4028235e+38,3.4028235e+38,3.4028235e+38,3.4028235e+38,3.4028235e+38,3.4028235e+38,3.4028235e+38,3.4028235e+38,3.4028235e+38,3.4028235e+38,3.4028235e+38,3.4028235e+38,3.4028235e+38,3.4028235e+38,3.4028235e+38,3.4028235e+38,3.4028235e+38,3.4028235e+38,3.4028235e+38,3.4028235e+38,3.4028235e+38,3.4028235e+38,3.4028235e+38,3.4028235e+38,3.4028235e+38,3.4028235e+38,3.4028235e+38,3.4028235e+38,3.4028235e+38,3.4028235e+38,3.4028235e+38,3.4028235e+38,3.4028235e+38,3.4028235e+38,3.4028235e+38,3.4028235e+38,3.4028235e+38,3.4028235e+38,3.4028235e+38,3.4028235e+38,3.4028235e+38,3.4028235e+38,3.4028235e+38,3.4028235e+38,3.4028235e+38,3.4028235e+38,3.4028235e+38,3.4028235e+38,3.4028235e+38,3.4028235e+38,3.4028235e+38,3.4028235e+38,3.4028235e+38,3.4028235e+38,3.4028235e+38,3.4028235e+38,3.4028235e+38,3.4028235e+38,3.4028235e+38,3.4028235e+38,3.4028235e+38,3.4028235e+38,3.4028235e+38,3.4028235e+38,3.4028235e+38,3.4028235e+38,3.4028235e+38,3.4028235e+38,3.4028235e+38,3.4028235e+38,3.4028235e+38,3.4028235e+38,3.4028235e+38,3.4028235e+38,3.4028235e+38,3.4028235e+38,3.4028235e+38,3.4028235e+38,3.4028235e+38,3.4028235e+38,3.4028235e+38,3.4028235e+38,3.4028235e+38,3.4028235e+38,3.4028235e+38,3.4028235e+38,3.4028235e+38,3.4028235e+38,3.4028235e+38,3.4028235e+38,3.4028235e+38,3.4028235e+38,3.4028235e+38,3.4028235e+38,3.4028235e+38,3.4028235e+38,3.4028235e+38,3.4028235e+38,3.4028235e+38,3.4028235e+38,3.4028235e+38,3.4028235e+38,3.4028235e+38,3.4028235e+38,3.4028235e+38,3.4028235e+38,3.4028235e+38,3.4028235e+38,3.4028235e+38,3.4028235e+38,3.4028235e+38,3.4028235e+38,3.4028235e+38,3.4028235e+38,3.4028235e+38,3.4028235e+38,3.4028235e+38,3.4028235e+38,3.4028235e+38,3.4028235e+38,3.4028235e+38,3.4028235e+38,3.4028235e+38,3.4028235e+38,3.4028235e+38,3.4028235e+38,3.4028235e+38,3.4028235e+38,3.4028235e+38,3.4028235e+38,3.4028235e+38,3.4028235e+38,3.4028235e+38,3.4028235e+38,3.4028235e+38,3.4028235e+38,3.4028235e+38,3.4028235e+38,3.4028235e+38,3.4028235e+38,3.4028235e+38,3.4028235e+38,3.4028235e+38,3.4028235e+38,3.4028235e+38,3.4028235e+38,3.4028235e+38,3.4028235e+38,3.4028235e+38,3.4028235e+38,3.4028235e+38,3.4028235e+38,3.4028235e+38,3.4028235e+38,3.4028235e+38,3.4028235e+38,3.4028235e+38,3.4028235e+38,3.4028235e+38,3.4028235e+38,3.4028235e+38,3.4028235e+38,3.4028235e+38,3.4028235e+38,3.4028235e+38,3.4028235e+38,3.4028235e+38,3.4028235e+38,3.4028235e+38,3.4028235e+38,3.4028235e+38,3.4028235e+38,3.4028235e+38,3.4028235e+38,3.4028235e+38,3.4028235e+38,3.4028235e+38,3.4028235e+38,3.4028235e+38,3.4028235e+38,3.4028235e+38,3.4028235e+38,3.4028235e+38,3.4028235e+38,3.4028235e+38,3.4028235e+38,3.4028235e+38,3.4028235e+38,3.4028235e+38,3.4028235e+38,3.4028235e+38,3.4028235e+38,3.4028235e+38,3.4028235e+38,3.4028235e+38,3.4028235e+38,3.4028235e+38,3.4028235e+38,3.4028235e+38,3.4028235e+38,3.4028235e+38,3.4028235e+38,3.4028235e+38,3.4028235e+38,3.4028235e+38,3.4028235e+38,3.4028235e+38,3.4028235e+38,3.4028235e+38,3.4028235e+38,3.4028235e+38,3.4028235e+38,3.4028235e+38,3.4028235e+38,3.4028235e+38,3.4028235e+38,3.4028235e+38,3.4028235e+38,3.4028235e+38,3.4028235e+38,3.4028235e+38,3.4028235e+38,3.4028235e+38,3.4028235e+38,3.4028235e+38,3.4028235e+38,3.4028235e+38,3.4028235e+38,3.4028235e+38,3.4028235e+38,3.4028235e+38,3.4028235e+38,3.4028235e+38,3.4028235e+38,3.4028235e+38,3.4028235e+38,3.4028235e+38,3.4028235e+38,3.4028235e+38,3.4028235e+38,3.4028235e+38,3.4028235e+38,3.4028235e+38,3.4028235e+38,3.4028235e+38,3.4028235e+38,3.4028235e+38,3.4028235e+38,3.4028235e+38,3.4028235e+38,3.4028235e+38,3.4028235e+38,3.4028235e+38,3.4028235e+38,3.4028235e+38,3.4028235e+38,3.4028235e+38,3.4028235e+38,3.4028235e+38,3.4028235e+38,3.4028235e+38,3.4028235e+38,3.4028235e+38,3.4028235e+38,3.4028235e+38,3.4028235e+38,3.4028235e+38,3.4028235e+38,3.4028235e+38,3.4028235e+38,3.4028235e+38,3.4028235e+38,3.4028235e+38,3.4028235e+38,3.4028235e+38,3.4028235e+38,3.4028235e+38,3.4028235e+38,3.4028235e+38,3.4028235e+38,3.4028235e+38,3.4028235e+38,3.4028235e+38,3.4028235e+38,3.4028235e+38,3.4028235e+38,3.4028235e+38,3.4028235e+38,3.4028235e+38,3.4028235e+38,3.4028235e+38,3.4028235e+38,3.4028235e+38,3.4028235e+38,3.4028235e+38,3.4028235e+38,3.4028235e+38,3.4028235e+38,3.4028235e+38,3.4028235e+38,3.4028235e+38,3.4028235e+38,3.4028235e+38,3.4028235e+38,3.4028235e+38,3.4028235e+38,3.4028235e+38,3.4028235e+38,3.4028235e+38,3.4028235e+38,3.4028235e+38,3.4028235e+38,3.4028235e+38,3.4028235e+38,3.4028235e+38,3.4028235e+38,3.4028235e+38,3.4028235e+38,3.4028235e+38,3.4028235e+38,3.4028235e+38,3.4028235e+38,3.4028235e+38,3.4028235e+38,3.4028235e+38,3.4028235e+38,3.4028235e+38,3.4028235e+38,3.4028235e+38,3.4028235e+38,3.4028235e+38,3.4028235e+38,3.4028235e+38,3.4028235e+38,3.4028235e+38,3.4028235e+38,3.4028235e+38,3.4028235e+38,3.4028235e+38,3.4028235e+38,3.4028235e+38,3.4028235e+38,3.4028235e+38,3.4028235e+38,3.4028235e+38,3.4028235e+38,3.4028235e+38,3.4028235e+38,3.4028235e+38,3.4028235e+38,3.4028235e+38,3.4028235e+38,3.4028235e+38,3.4028235e+38,3.4028235e+38,3.4028235e+38,3.4028235e+38,3.4028235e+38,3.4028235e+38,3.4028235e+38,3.4028235e+38,3.4028235e+38,3.4028235e+38,3.4028235e+38,3.4028235e+38,3.4028235e+38,3.4028235e+38,3.4028235e+38,3.4028235e+38,3.4028235e+38,3.4028235e+38,3.4028235e+38,3.4028235e+38,3.4028235e+38,3.4028235e+38,3.4028235e+38,3.4028235e+38,3.4028235e+38,3.4028235e+38,3.4028235e+38,3.4028235e+38,3.4028235e+38,3.4028235e+38,3.4028235e+38,3.4028235e+38,3.4028235e+38,3.4028235e+38,3.4028235e+38,3.4028235e+38,3.4028235e+38,3.4028235e+38,3.4028235e+38,3.4028235e+38,3.4028235e+38,3.4028235e+38,3.4028235e+38,3.4028235e+38,3.4028235e+38,3.4028235e+38,3.4028235e+38,3.4028235e+38,3.4028235e+38,3.4028235e+38,3.4028235e+38,3.4028235e+38,3.4028235e+38,3.4028235e+38,3.4028235e+38,3.4028235e+38,3.4028235e+38,3.4028235e+38,3.4028235e+38,3.4028235e+38,3.4028235e+38,3.4028235e+38,3.4028235e+38,3.4028235e+38,3.4028235e+38,3.4028235e+38,3.4028235e+38,3.4028235e+38,3.4028235e+38,3.4028235e+38,3.4028235e+38,3.4028235e+38,3.4028235e+38,3.4028235e+38,3.4028235e+38,3.4028235e+38,3.4028235e+38,3.4028235e+38,3.4028235e+38,3.4028235e+38,3.4028235e+38,3.4028235e+38,3.4028235e+38,3.4028235e+38,3.4028235e+38,3.4028235e+38,3.4028235e+38,3.4028235e+38,3.4028235e+38,3.4028235e+38,3.4028235e+38,3.4028235e+38,3.4028235e+38,3.4028235e+38,3.4028235e+38,3.4028235e+38,3.4028235e+38,3.4028235e+38,3.4028235e+38,3.4028235e+38,3.4028235e+38,3.4028235e+38,3.4028235e+38,3.4028235e+38,3.4028235e+38,3.4028235e+38,3.4028235e+38,3.4028235e+38,3.4028235e+38,3.4028235e+38,3.4028235e+38,3.4028235e+38,3.4028235e+38,3.4028235e+38,3.4028235e+38,3.4028235e+38,3.4028235e+38,3.4028235e+38,3.4028235e+38,3.4028235e+38,3.4028235e+38,3.4028235e+38,3.4028235e+38,3.4028235e+38,3.4028235e+38,3.4028235e+38,3.4028235e+38,3.4028235e+38,3.4028235e+38,3.4028235e+38,3.4028235e+38,3.4028235e+38,3.4028235e+38,3.4028235e+38,3.4028235e+38,3.4028235e+38,3.4028235e+38,3.4028235e+38,3.4028235e+38,3.4028235e+38,3.4028235e+38,3.4028235e+38,3.4028235e+38,3.4028235e+38,3.4028235e+38,3.4028235e+38,3.4028235e+38,3.4028235e+38,3.4028235e+38,3.4028235e+38,3.4028235e+38,3.4028235e+38,3.4028235e+38,3.4028235e+38,3.4028235e+38,3.4028235e+38,3.4028235e+38,3.4028235e+38,3.4028235e+38,3.4028235e+38,3.4028235e+38,3.4028235e+38,3.4028235e+38,3.4028235e+38,3.4028235e+38,3.4028235e+38,3.4028235e+38,3.4028235e+38,3.4028235e+38,3.4028235e+38,3.4028235e+38,3.4028235e+38,3.4028235e+38,3.4028235e+38,3.4028235e+38,3.4028235e+38,3.4028235e+38,3.4028235e+38,3.4028235e+38,3.4028235e+38,3.4028235e+38,3.4028235e+38,3.4028235e+38,3.4028235e+38,3.4028235e+38,3.4028235e+38,3.4028235e+38,3.4028235e+38,3.4028235e+38,3.4028235e+38,3.4028235e+38,3.4028235e+38,3.4028235e+38,3.4028235e+38,3.4028235e+38,3.4028235e+38,3.4028235e+38,3.4028235e+38,3.4028235e+38,3.4028235e+38,3.4028235e+38,3.4028235e+38,3.4028235e+38,3.4028235e+38,3.4028235e+38,3.4028235e+38,3.4028235e+38,3.4028235e+38,3.4028235e+38,3.4028235e+38,3.4028235e+38,3.4028235e+38,3.4028235e+38,3.4028235e+38,3.4028235e+38,3.4028235e+38,3.4028235e+38,3.4028235e+38,3.4028235e+38,3.4028235e+38,3.4028235e+38,3.4028235e+38,3.4028235e+38,3.4028235e+38,3.4028235e+38,3.4028235e+38,3.4028235e+38,3.4028235e+38,3.4028235e+38,3.4028235e+38,3.4028235e+38,3.4028235e+38,3.4028235e+38,3.4028235e+38,3.4028235e+38,3.4028235e+38,3.4028235e+38,3.4028235e+38,3.4028235e+38,3.4028235e+38,3.4028235e+38,3.4028235e+38,3.4028235e+38,3.4028235e+38,3.4028235e+38,3.4028235e+38,3.4028235e+38,3.4028235e+38,3.4028235e+38,3.4028235e+38,3.4028235e+38,3.4028235e+38,3.4028235e+38,3.4028235e+38,3.4028235e+38,3.4028235e+38,3.4028235e+38,3.4028235e+38,3.4028235e+38,3.4028235e+38,3.4028235e+38,3.4028235e+38,3.4028235e+38,3.4028235e+38,3.4028235e+38,3.4028235e+38,3.4028235e+38,3.4028235e+38,3.4028235e+38,3.4028235e+38,3.4028235e+38,3.4028235e+38,3.4028235e+38,3.4028235e+38,3.4028235e+38,3.4028235e+38,3.4028235e+38,3.4028235e+38,3.4028235e+38,3.4028235e+38,3.4028235e+38,3.4028235e+38,3.4028235e+38,3.4028235e+38,3.4028235e+38,3.4028235e+38,3.4028235e+38,3.4028235e+38,3.4028235e+38,3.4028235e+38,3.4028235e+38,3.4028235e+38,3.4028235e+38,3.4028235e+38,3.4028235e+38,3.4028235e+38,3.4028235e+38,3.4028235e+38,3.4028235e+38,3.4028235e+38,3.4028235e+38,3.4028235e+38,3.4028235e+38,3.4028235e+38,3.4028235e+38,3.4028235e+38,3.4028235e+38,3.4028235e+38,3.4028235e+38,3.4028235e+38,3.4028235e+38,3.4028235e+38,3.4028235e+38,3.4028235e+38,3.4028235e+38,3.4028235e+38,3.4028235e+38,3.4028235e+38,3.4028235e+38,3.4028235e+38,3.4028235e+38,3.4028235e+38,3.4028235e+38,3.4028235e+38,3.4028235e+38,
0.0,0.0,0.0,0.0,0.0,0.0,0.0,0.0,0.0,0.0,0.0,0.0,0.0,0.0,0.0,0.0,0.0,0.0,0.0,0.0,0.0,0.0,0.0,0.0,0.0,0.0,0.0,0.0,0.0,0.0,0.0,0.0,0.0,0.0,0.0,0.0,0.0,0.0,0.0,0.0,0.0,0.0,0.0,0.0,0.0,0.0,0.0,0.0,0.0,0.0,0.0,0.0,0.0,0.0,0.0,0.0,0.0,0.0,0.0,0.0,0.0,0.0,0.0,0.0,0.0,0.0,0.0,0.0,0.0,0.0,0.0,0.0,0.0,0.0,0.0,0.0,0.0,0.0,0.0,0.0,0.0,0.0,0.0,0.0,0.0,0.0,0.0,0.0,0.0,0.0,0.0,0.0,0.0,0.0,0.0,0.0,0.0,0.0,0.0,0.0,0.0,0.0,0.0,0.0,0.0,0.0,0.0,0.0,0.0,0.0,0.0,0.0,0.0,0.0,0.0,0.0,0.0,0.0,0.0,0.0,0.0,0.0,0.0,0.0,0.0,0.0,0.0,0.0,0.0,0.0,0.0,0.0,0.0,0.0,0.0,0.0,0.0,0.0,0.0,0.0,0.0,0.0,0.0,0.0,0.0,0.0,0.0,0.0,0.0,0.0,0.0,0.0,0.0,0.0,0.0,0.0,0.0,0.0,0.0,0.0,0.0,0.0,0.0,0.0,0.0,0.0,0.0,0.0,0.0,0.0,0.0,0.0,0.0,0.0,0.0,0.0,0.0,0.0,0.0,0.0,0.0,0.0,0.0,0.0,0.0,0.0,0.0,0.0,0.0,0.0,0.0,0.0,0.0,0.0,0.0,0.0,0.0,0.0,0.0,0.0,0.0,0.0,0.0,0.0,0.0,0.0,0.0,0.0,0.0,0.0,0.0,0.0,0.0,0.0,0.0,0.0,0.0,0.0,0.0,0.0,0.0,0.0,0.0,0.0,0.0,0.0,0.0,0.0,0.0,0.0,0.0,0.0,0.0,0.0,0.0,0.0,0.0,0.0,0.0,0.0,0.0,0.0,0.0,0.0,0.0,0.0,0.0,0.0,0.0,0.0,0.0,0.0,0.0,0.0,0.0,0.0,0.0,0.0,0.0,0.0,0.0,0.0,0.0,0.0,0.0,0.0,0.0,0.0,0.0,0.0,0.0,0.0,0.0,0.0,0.0,0.0,0.0,0.0,0.0,0.0,0.0,0.0,0.0,0.0,0.0,0.0,0.0,0.0,0.0,0.0,0.0,0.0,0.0,0.0,0.0,0.0,0.0,0.0,0.0,0.0,0.0,0.0,0.0,0.0,0.0,0.0,0.0,0.0,0.0,0.0,0.0,0.0,0.0,0.0,0.0,0.0,0.0,0.0,0.0,0.0,0.0,0.0,0.0,0.0,0.0,0.0,0.0,0.0,0.0,0.0,0.0,0.0,0.0,0.0,0.0,0.0,0.0,0.0,0.0,0.0,0.0,0.0,0.0,0.0,0.0,0.0,0.0,0.0,0.0,0.0,0.0,0.0,0.0,0.0,0.0,0.0,0.0,0.0,0.0,0.0,0.0,0.0,0.0,0.0,0.0,0.0,0.0,0.0,0.0,0.0,0.0,0.0,0.0,0.0,0.0,0.0,0.0,0.0,0.0,0.0,0.0,0.0,0.0,0.0,0.0,0.0,0.0,0.0,0.0,0.0,0.0,0.0,0.0,0.0,0.0,0.0,0.0,0.0,0.0,0.0,0.0,0.0,0.0,0.0,0.0,0.0,0.0,0.0,0.0,0.0,0.0,0.0,0.0,0.0,0.0,0.0,0.0,0.0,0.0,0.0,0.0,0.0,0.0,0.0,0.0,0.0,0.0,0.0,0.0,0.0,0.0,0.0,0.0,0.0,0.0,0.0,0.0,0.0,0.0,0.0,0.0,0.0,0.0,0.0,0.0,0.0,0.0,0.0,0.0,0.0,0.0,0.0,0.0,0.0,0.0,0.0,0.0,0.0,0.0,0.0,0.0,0.0,0.0,0.0,0.0,0.0,0.0,0.0,0.0,0.0,0.0,0.0,0.0,0.0,0.0,0.0,0.0,0.0,0.0,0.0,0.0,0.0,0.0,0.0,0.0,0.0,0.0,0.0,0.0,0.0,0.0,0.0,0.0,0.0,0.0,0.0,0.0,0.0,0.0,0.0,0.0,0.0,0.0,0.0,0.0,0.0,0.0,0.0,0.0,0.0,0.0,0.0,0.0,0.0,0.0,0.0,0.0,0.0,0.0,0.0,0.0,0.0,0.0,0.0,0.0,0.0,0.0,0.0,0.0,0.0,0.0,0.0,0.0,0.0,0.0,0.0,0.0,0.0,0.0,0.0,0.0,0.0,0.0,0.0,0.0,0.0,0.0,0.0,0.0,0.0,0.0,0.0,0.0,0.0,0.0,0.0,0.0,0.0,0.0,0.0,0.0,0.0,0.0,0.0,0.0,0.0,0.0,0.0,0.0,0.0,0.0,0.0,0.0,0.0,0.0,0.0,0.0,0.0,0.0,0.0,0.0,0.0,0.0,0.0,0.0,0.0,0.0,0.0,0.0,0.0,0.0,0.0,0.0,0.0,0.0,0.0,0.0,0.0,0.0,0.0,0.0,0.0,0.0,0.0,0.0,0.0,0.0,0.0,0.0,0.0,0.0,0.0,0.0,0.0,0.0,0.0,0.0,0.0,0.0,0.0,0.0,0.0,0.0,0.0,0.0,0.0,0.0,0.0,0.0,0.0,0.0,0.0,0.0,0.0,0.0,0.0,0.0,0.0,0.0,0.0,0.0,0.0,0.0,0.0,0.0,0.0,0.0,0.0,0.0,0.0,0.0,0.0,0.0,0.0,0.0,0.0,0.0,0.0,0.0,0.0,0.0,0.0,0.0,0.0,0.0,0.0,0.0,0.0,0.0,0.0,0.0,0.0,0.0,0.0,0.0,0.0,0.0,0.0,0.0,0.0,0.0,0.0,0.0,0.0,0.0,0.0,0.0,0.0,0.0,0.0,0.0,0.0,0.0,0.0,0.0,0.0,0.0,0.0,0.0,0.0,0.0,0.0,0.0,0.0,0.0,0.0,0.0,0.0,0.0,0.0,0.0,0.0,0.0,0.0,0.0,0.0,0.0,0.0,0.0,0.0,0.0,0.0,0.0,0.0,0.0,0.0,0.0,0.0,0.0,0.0,0.0,0.0,0.0,0.0,0.0,0.0,0.0,0.0,0.0,0.0,0.0,0.0,0.0,0.0,0.0,0.0,0.0,0.0,0.0,0.0,0.0,0.0,0.0,0.0,0.0,0.0,0.0,0.0,0.0,0.0,0.0,0.0,0.0,0.0,0.0,0.0,0.0,0.0,0.0,0.0,0.0,0.0,0.0,0.0,0.0,0.0,0.0,0.0,0.0,0.0,0.0,0.0,0.0,0.0,0.0,
1.0,1.0,1.0,1.0,1.0,1.0,1.0,1.0,1.0,1.0,1.0,1.0,1.0,1.0,1.0,1.0,1.0,1.0,1.0,1.0,1.0,1.0,1.0,1.0,1.0,1.0,1.0,1.0,1.0,1.0,1.0,1.0,1.0,1.0,1.0,1.0,1.0,1.0,1.0,1.0,1.0,1.0,1.0,1.0,1.0,1.0,1.0,1.0,1.0,1.0,1.0,1.0,1.0,1.0,1.0,1.0,1.0,1.0,1.0,1.0,1.0,1.0,1.0,1.0,1.0,1.0,1.0,1.0,1.0,1.0,1.0,1.0,1.0,1.0,1.0,1.0,1.0,1.0,1.0,1.0,1.0,1.0,1.0,1.0,1.0,1.0,1.0,1.0,1.0,1.0,1.0,1.0,1.0,1.0,1.0,1.0,1.0,1.0,1.0,1.0,1.0,1.0,1.0,1.0,1.0,1.0,1.0,1.0,1.0,1.0,1.0,1.0,1.0,1.0,1.0,1.0,1.0,1.0,1.0,1.0,1.0,1.0,1.0,1.0,1.0,1.0,1.0,1.0,1.0,1.0,1.0,1.0,1.0,1.0,1.0,1.0,1.0,1.0,1.0,1.0,1.0,1.0,1.0,1.0,1.0,1.0,1.0,1.0,1.0,1.0,1.0,1.0,1.0,1.0,1.0,1.0,1.0,1.0,1.0,1.0,1.0,1.0,1.0,1.0,1.0,1.0,1.0,1.0,1.0,1.0,1.0,1.0,1.0,1.0,1.0,1.0,1.0,1.0,1.0,1.0,1.0,1.0,1.0,1.0,1.0,1.0,1.0,1.0,1.0,1.0,1.0,1.0,1.0,1.0,1.0,1.0,1.0,1.0,1.0,1.0,1.0,1.0,1.0,1.0,1.0,1.0,1.0,1.0,1.0,1.0,1.0,1.0,1.0,1.0,1.0,1.0,1.0,1.0,1.0,1.0,1.0,1.0,1.0,1.0,1.0,1.0,1.0,1.0,1.0,1.0,1.0,1.0,1.0,1.0,1.0,1.0,1.0,1.0,1.0,1.0,1.0,1.0,1.0,1.0,1.0,1.0,1.0,1.0,1.0,1.0,1.0,1.0,1.0,1.0,1.0,1.0,1.0,1.0,1.0,1.0,1.0,1.0,1.0,1.0,1.0,1.0,1.0,1.0,1.0,1.0,1.0,1.0,1.0,1.0,1.0,1.0,1.0,1.0,1.0,1.0,1.0,1.0,1.0,1.0,1.0,1.0,1.0,1.0,1.0,1.0,1.0,1.0,1.0,1.0,1.0,1.0,1.0,1.0,1.0,1.0,1.0,1.0,1.0,1.0,1.0,1.0,1.0,1.0,1.0,1.0,1.0,1.0,1.0,1.0,1.0,1.0,1.0,1.0,1.0,1.0,1.0,1.0,1.0,1.0,1.0,1.0,1.0,1.0,1.0,1.0,1.0,1.0,1.0,1.0,1.0,1.0,1.0,1.0,1.0,1.0,1.0,1.0,1.0,1.0,1.0,1.0,1.0,1.0,1.0,1.0,1.0,1.0,1.0,1.0,1.0,1.0,1.0,1.0,1.0,1.0,1.0,1.0,1.0,1.0,1.0,1.0,1.0,1.0,1.0,1.0,1.0,1.0,1.0,1.0,1.0,1.0,1.0,1.0,1.0,1.0,1.0,1.0,1.0,1.0,1.0,1.0,1.0,1.0,1.0,1.0,1.0,1.0,1.0,1.0,1.0,1.0,1.0,1.0,1.0,1.0,1.0,1.0,1.0,1.0,1.0,1.0,1.0,1.0,1.0,1.0,1.0,1.0,1.0,1.0,1.0,1.0,1.0,1.0,1.0,1.0,1.0,1.0,1.0,1.0,1.0,1.0,1.0,1.0,1.0,1.0,1.0,1.0,1.0,1.0,1.0,1.0,1.0,1.0,1.0,1.0,1.0,1.0,1.0,1.0,1.0,1.0,1.0,1.0,1.0,1.0,1.0,1.0,1.0,1.0,1.0,1.0,1.0,1.0,1.0,1.0,1.0,1.0,1.0,1.0,1.0,1.0,1.0,1.0,1.0,1.0,1.0,1.0,1.0,1.0,1.0,1.0,1.0,1.0,1.0,1.0,1.0,1.0,1.0,1.0,1.0,1.0,1.0,1.0,1.0,1.0,1.0,1.0,1.0,1.0,1.0,1.0,1.0,1.0,1.0,1.0,1.0,1.0,1.0,1.0,1.0,1.0,1.0,1.0,1.0,1.0,1.0,1.0,1.0,1.0,1.0,1.0,1.0,1.0,1.0,1.0,1.0,1.0,1.0,1.0,1.0,1.0,1.0,1.0,1.0,1.0,1.0,1.0,1.0,1.0,1.0,1.0,1.0,1.0,1.0,1.0,1.0,1.0,1.0,1.0,1.0,1.0,1.0,1.0,1.0,1.0,1.0,1.0,1.0,1.0,1.0,1.0,1.0,1.0,1.0,1.0,1.0,1.0,1.0,1.0,1.0,1.0,1.0,1.0,1.0,1.0,1.0,1.0,1.0,1.0,1.0,1.0,1.0,1.0,1.0,1.0,1.0,1.0,1.0,1.0,1.0,1.0,1.0,1.0,1.0,1.0,1.0,1.0,1.0,1.0,1.0,1.0,1.0,1.0,1.0,1.0,1.0,1.0,1.0,1.0,1.0,1.0,1.0,1.0,1.0,1.0,1.0,1.0,1.0,1.0,1.0,1.0,1.0,1.0,1.0,1.0,1.0,1.0,1.0,1.0,1.0,1.0,1.0,1.0,1.0,1.0,1.0,1.0,1.0,1.0,1.0,1.0,1.0,1.0,1.0,1.0,1.0,1.0,1.0,1.0,1.0,1.0,1.0,1.0,1.0,1.0,1.0,1.0,1.0,1.0,1.0,1.0,1.0,1.0,1.0,1.0,1.0,1.0,1.0,1.0,1.0,1.0,1.0,1.0,1.0,1.0,1.0,1.0,1.0,1.0,1.0,1.0,1.0,1.0,1.0,1.0,1.0,1.0,1.0,1.0,1.0,1.0,1.0,1.0,1.0,1.0,1.0,1.0,1.0,1.0,1.0,1.0,1.0,1.0,1.0,1.0,1.0,1.0,1.0,1.0,1.0,1.0,1.0,1.0,1.0,1.0,1.0,1.0,1.0,1.0,1.0,1.0,1.0,1.0,1.0,1.0,1.0,1.0,1.0,1.0,1.0,1.0,1.0,1.0,1.0,1.0,1.0,1.0,1.0,1.0,1.0,1.0,1.0,1.0,1.0,1.0,1.0,1.0,1.0,1.0,1.0,1.0,1.0,1.0,1.0,1.0,1.0,1.0,1.0,1.0,1.0,1.0,1.0,1.0,1.0,1.0,1.0,1.0,1.0,1.0,1.0,1.0,1.0,1.0,1.0,1.0,1.0,1.0,1.0,1.0,1.0,1.0,1.0,1.0,1.0,1.0,1.0,1.0,1.0,1.0,1.0,
-1.67352e-02,1.67546e-02,1.84986e-03,-5.16393e-03,2.20553e-02,2.07794e-02,2.10670e-02,-2.80669e-02,-7.69965e-03,1.69958e-02,-9.64462e-03,-1.30243e-02,-6.00593e-02,-3.05627e-02,1.65810e-02,2.84616e-02,-8.38964e-03,-1.36289e-02,-2.18280e-02,2.02965e-02,-2.60074e-02,2.53198e-02,3.53153e-02,1.38573e-02,-2.25504e-03,2.55004e-02,3.30254e-02,9.88273e-03,-3.02519e-03,1.63064e-02,-3.13957e-02,1.55346e-02,3.27364e-02,-1.29391e-02,2.11554e-02,-2.94775e-02,3.80071e-02,-4.63550e-02,-2.03906e-01,-5.75692e-02,-2.14734e-02,-1.23358e-01,-2.99935e-01,6.13380e-01,5.55307e-01,6.21458e-01,-2.62066e-01,1.68240e-01,9.07938e-02,1.23702e-01,2.42948e-02,6.95178e-02,2.74764e-02,1.93186e-03,2.66902e-02,-1.68021e-03,-1.11586e-02,-1.70073e-02,5.20500e-02,5.85887e-01,5.38525e-01,-1.07743e-01,-2.09915e-01,-2.82914e-01,-4.49075e-01,-4.95828e-01,-4.97855e-01,-3.95030e-01,-1.21525e-01,1.34825e-01,-1.59248e-01,-2.58009e-01,3.47374e-02,-2.25091e-02,7.46985e-02,5.84593e-02,1.87589e-01,1.28150e-02,1.40799e-02,1.75321e-01,-1.33088e-02,-8.47592e-02,2.52938e-02,1.56313e-02,1.62660e-02,3.36629e-02,6.83954e-02,5.48650e-01,4.19630e-01,-4.67846e-02,-2.37188e-01,-6.75804e-02,1.05959e-01,6.73174e-02,-9.16440e-02,-8.32164e-02,2.60514e-01,7.40991e-02,-1.20071e-02,4.77177e-01,2.55320e-01,1.27649e-02,3.56094e-01,3.91823e-01,3.88914e-01,-4.76294e-02,-2.70329e-01,-1.30332e-01,4.09487e-01,-2.09257e-01,-2.03523e-02,3.31027e-02,3.49664e-02,6.89536e-03,9.66652e-02,1.97093e-01,5.45166e-01,5.72570e-02,-1.21821e-01,-2.03487e-01,-3.84004e-01,7.67766e-02,1.34520e-01,-8.19123e-03,-1.25705e-02,8.39058e-02,1.78509e-01,1.29334e-01,-3.16294e-02,-1.02019e-01,-7.20963e-03,9.67978e-02,2.27909e-01,1.73044e-01,3.85641e-02,1.11190e-01,4.37076e-01,2.77777e-01,-1.33211e-01,-1.75015e-02,2.37087e-02,-3.28929e-02,-5.78557e-02,-9.35755e-02,-1.37562e-01,-4.92834e-02,1.82395e-01,9.82601e-02,-1.81496e-02,4.76338e-02,-3.13775e-01,-1.18809e-01,-6.57463e-02,1.41147e-01,-6.01181e-02,-4.26787e-03,-9.96639e-02,-1.05335e-01,-2.48761e-02,-2.12144e-01,-1.12436e-01,-2.39136e-02,-3.23662e-01,-6.33442e-01,-4.72818e-01,-4.57105e-01,2.22267e-01,1.05777e-01,-1.57359e-02,-2.76407e-02,3.42647e-01,-2.55434e-02,3.41792e-01,2.66268e-01,6.67380e-02,-1.31606e-01,-2.26311e-01,-3.52674e-01,-4.86235e-01,3.31344e-03,-5.45495e-02,6.33030e-02,6.60615e-02,-3.53483e-01,-9.81502e-02,-3.18394e-01,-6.97418e-02,-4.16114e-02,-4.13129e-01,-1.69444e-01,-2.04324e-01,-5.34319e-01,-2.74800e-01,-1.72405e-01,2.85693e-01,5.77710e-01,2.60706e-02,2.41013e-01,5.54966e-01,2.18249e-01,5.69209e-02,-2.15295e-01,-1.74912e-01,-7.00156e-03,-2.59165e-01,-1.41202e-01,-2.19362e-01,-3.96938e-01,-4.79908e-01,-4.16869e-01,-2.80000e-01,-6.03078e-01,-2.34802e-01,-5.13965e-01,-5.66011e-01,-4.72784e-01,-5.95502e-01,-5.36786e-01,-4.96962e-01,-4.00921e-01,-1.36506e-01,1.26806e-01,2.50823e-01,7.20954e-01,8.20039e-02,1.68686e-01,-6.40206e-02,1.01145e-01,1.24864e-01,-1.62146e-01,-1.69105e-01,-2.97910e-01,-9.41109e-02,-2.10818e-01,-2.72590e-01,-4.49649e-01,-4.70428e-01,-5.78147e-01,-5.24859e-01,-3.73604e-01,-4.41849e-01,-3.73770e-01,-3.72455e-01,-2.46212e-01,-4.24624e-01,-9.90513e-02,-2.49106e-01,-1.21306e-01,1.75929e-01,3.71122e-02,-4.84531e-02,3.74025e-01,7.38408e-02,3.25518e-01,1.57344e-01,4.36048e-02,6.07612e-01,-4.23080e-02,-8.97488e-02,1.49532e-01,6.27620e-03,-1.07700e-01,-1.25364e-01,-1.04922e-02,2.79262e-01,3.23686e-01,2.81364e-01,-8.53449e-03,1.01941e-01,6.34543e-02,-1.93425e-02,-1.60093e-01,-1.24336e-01,4.44867e-02,4.72160e-02,4.21036e-02,2.83399e-01,1.23094e-01,4.68646e-01,4.62899e-01,9.43695e-02,3.68497e-01,2.14302e-01,3.47450e-01,6.62899e-01,2.19366e-01,1.52219e-01,-2.10831e-01,-2.15313e-01,2.85938e-01,1.92858e-01,3.73370e-01,4.45865e-01,7.27218e-01,4.43210e-01,2.55003e-01,5.32261e-01,3.76410e-01,3.14470e-01,5.24077e-01,4.79016e-01,2.62578e-01,3.10318e-01,2.60758e-01,4.42693e-01,6.37818e-01,4.49300e-01,2.23123e-01,1.52958e-01,6.06156e-01,6.80510e-01,7.46158e-01,7.13676e-01,3.03396e-01,1.38103e-01,-4.20973e-02,1.23886e-02,1.37564e-01,2.51982e-01,5.02849e-01,4.13864e-01,3.70804e-01,3.20329e-01,5.20194e-01,4.08474e-01,3.16588e-01,4.30556e-01,5.02916e-01,4.06041e-01,2.07533e-01,-9.30270e-02,1.77645e-01,3.53853e-01,1.31041e-01,1.20526e-01,8.25267e-01,8.04336e-02,2.61118e-01,5.70593e-01,4.83771e-01,2.79950e-01,2.58694e-01,-3.39661e-03,1.94430e-01,2.30829e-01,1.83137e-01,7.04167e-02,5.46580e-02,-7.66984e-03,1.21995e-01,4.25332e-01,3.01473e-01,2.20883e-01,1.62085e-01,9.35641e-02,8.87361e-02,1.18963e-01,-3.99332e-02,2.34357e-01,-1.74340e-01,-1.86436e-01,1.67436e-01,9.06958e-01,8.15663e-01,-5.30538e-03,2.29371e-02,5.88922e-01,6.06878e-02,1.54387e-01,1.81632e-01,1.01779e-01,1.68087e-01,2.23558e-02,-6.88830e-02,-1.30218e-01,-1.02685e-01,-3.84515e-01,-1.84581e-01,-3.98273e-03,-2.12375e-01,9.07395e-02,-3.54426e-02,-1.97315e-01,-7.84620e-02,8.24406e-02,1.90129e-01,3.05194e-01,-1.06207e-01,1.56519e-02,4.22201e-01,3.08159e-01,-3.12757e-01,2.52993e-02,3.39783e-03,3.77868e-01,-2.40429e-01,-7.86501e-02,-9.71690e-02,-2.08856e-01,-4.20469e-01,-3.10182e-01,-1.78581e-01,-1.71619e-01,-1.33687e-01,-1.54526e-01,-3.26921e-01,-2.62388e-01,-1.79656e-01,-5.41907e-02,2.20727e-02,-4.11563e-02,9.74199e-02,1.19851e-01,2.16958e-01,2.85991e-01,3.24792e-01,1.69572e-01,-6.06213e-01,-4.95733e-01,-6.69844e-02,5.21247e-02,-1.09318e-03,-5.85837e-02,-3.15280e-01,-3.73155e-01,-8.64538e-02,4.18980e-02,-2.94235e-01,-4.44902e-01,-2.45717e-01,-1.34908e-01,-1.43516e-01,-3.01792e-01,-3.01362e-01,-2.54804e-01,-1.60564e-01,-2.67169e-01,-3.94078e-02,-1.51972e-01,2.10655e-01,1.50229e-01,2.01307e-01,6.92860e-02,1.41017e-01,4.00435e-03,-5.48251e-01,-2.06031e-02,-1.96496e-01,1.23637e-01,5.35341e-02,-3.05520e-01,-9.85074e-03,-3.17914e-02,-4.51195e-02,-2.52603e-01,-3.58126e-02,-9.53383e-02,-1.36256e-01,-3.21804e-03,-1.67911e-01,-2.72887e-01,-2.28097e-01,-2.22389e-01,-2.30879e-01,-3.48696e-01,-1.95939e-01,-7.37722e-02,2.37769e-01,1.76456e-01,2.00456e-01,1.59294e-01,-4.24064e-03,-3.70543e-01,-4.23239e-01,1.12944e-01,2.26231e-01,3.29809e-02,7.17869e-02,1.40085e-04,3.44679e-01,4.09042e-02,8.24326e-02,2.76497e-02,6.51969e-03,-5.57942e-02,-1.21174e-01,-2.17316e-01,1.00457e-01,1.19886e-01,1.18878e-01,-8.51807e-02,-2.09034e-01,-2.02491e-01,-3.64229e-02,1.56456e-01,1.48616e-01,-5.81092e-02,-5.34645e-02,-1.30757e-01,-1.94850e-01,-2.37974e-01,-1.51158e-01,-3.03542e-01,3.24196e-01,1.98939e-01,3.53600e-02,-7.28130e-02,1.87656e-01,1.00116e-01,2.87689e-01,1.18389e-01,1.23692e-02,9.50768e-02,-1.05244e-01,-1.25540e-01,1.28751e-01,9.52975e-02,-1.64283e-02,-1.93835e-01,1.09439e-01,-4.61130e-02,4.05559e-02,8.19789e-02,1.30172e-01,-3.34507e-01,-2.14107e-01,-1.36193e-01,-2.31085e-02,-1.07651e-01,3.67971e-01,-1.48904e-01,-2.86644e-02,2.71449e-03,4.23043e-01,-3.03138e-01,-2.65444e-02,-5.14500e-03,7.59849e-02,-2.50336e-03,8.58656e-02,1.39303e-01,4.25941e-02,-4.01061e-02,8.60723e-02,1.39455e-01,1.04083e-01,-6.97102e-02,1.92452e-01,2.43355e-02,2.64738e-01,9.82227e-02,1.26820e-01,-3.49503e-01,-4.71635e-01,-3.59758e-01,-3.95549e-02,5.18231e-01,5.03930e-01,-1.09351e-01,1.13706e-02,1.66475e-02,-3.55624e-01,-2.66298e-01,-3.18854e-03,-2.86956e-01,-1.69151e-01,-3.76479e-02,1.05430e-01,1.87566e-01,1.52666e-01,-1.00082e-01,-2.69872e-02,-3.52111e-02,1.67417e-02,6.64714e-02,8.37586e-02,-1.55384e-01,3.41231e-02,4.48254e-02,8.73709e-02,-4.32078e-01,-4.46360e-01,3.50758e-02,2.59964e-01,3.61285e-01,-2.75286e-01,-1.72829e-02,-4.90535e-02,3.01412e-02,-5.33714e-02,-1.07508e-01,-6.17369e-01,-4.25881e-01,-3.79909e-01,-2.04839e-01,2.36726e-02,9.80020e-02,7.23046e-02,-5.23016e-02,3.84148e-02,-4.40271e-02,-4.37150e-02,-1.07505e-01,-7.32358e-02,-2.01613e-01,8.74159e-02,2.33113e-01,3.69098e-02,-2.37926e-01,-1.13525e-01,6.75205e-02,-1.56787e-01,-1.44387e-01,-3.54365e-01,5.34247e-01,1.70494e-02,5.79606e-03,-2.60582e-02,1.24792e-01,-5.19392e-01,-2.65115e-01,-3.25602e-01,-4.57104e-01,-3.16998e-01,7.02289e-02,2.63981e-01,1.52796e-02,-1.85551e-01,-2.39031e-01,-1.45480e-01,3.09625e-02,1.46791e-01,3.00445e-02,6.11549e-03,2.88353e-02,-7.60940e-02,2.95904e-03,-1.44379e-02,1.48339e-01,-3.41035e-01,-2.53217e-01,-1.03728e-01,4.48073e-01,5.02274e-02,-2.35933e-02,-4.14772e-03,1.00074e-01,1.39865e-01,-4.35223e-02,-3.08426e-02,-3.29808e-01,-3.51912e-01,-1.26876e-01,-7.69650e-02,-6.22546e-02,-8.75844e-02,-1.34333e-01,-2.40611e-01,-2.06018e-02,5.28245e-03,-5.08549e-02,5.69941e-02,1.74989e-01,7.81505e-02,-5.82399e-02,-6.65468e-02,-8.86661e-02,-3.84583e-01,5.35629e-01,5.09193e-01,1.33677e-02,-8.30360e-03,-1.53002e-02,-2.52454e-02,-2.83985e-02,2.55501e-01,1.61905e-01,3.17971e-01,-1.50557e-01,-2.48413e-01,-1.38462e-01,-2.84757e-01,-3.92303e-02,7.25468e-02,-8.57763e-02,-2.91166e-01,-2.60955e-01,-2.44892e-02,1.63154e-01,5.04973e-01,9.87285e-02,2.12363e-01,-9.84670e-02,-5.38690e-02,-4.50637e-01,-6.38647e-01,-1.31950e-01,-6.86769e-02,5.73127e-03,3.43720e-02,-2.60496e-02,-1.26894e-04,1.55908e-02,9.63937e-02,1.79564e-01,1.40266e-01,1.12993e-01,-9.63213e-03,-3.66038e-01,-6.16015e-01,-1.10797e-01,4.21846e-01,1.66763e-01,3.14919e-01,6.19369e-01,3.15653e-01,3.50320e-01,3.22626e-01,2.10730e-01,4.01067e-01,2.59043e-01,-2.04166e-01,-3.33804e-01,-7.16315e-01,1.33932e-01,9.92759e-03,-1.05728e-02,-6.60892e-03,2.20251e-02,7.81832e-03,2.50994e-02,-1.12094e-03,-1.54744e-01,3.92119e-02,1.14388e-01,8.38909e-02,-3.35462e-01,6.07908e-02,-1.76413e-01,2.01176e-01,3.81607e-01,9.39848e-01,4.77457e-01,3.26733e-01,-5.82498e-02,2.38517e-01,2.05475e-01,2.25111e-01,3.07870e-01,1.70512e-01,4.13890e-01,2.77723e-01,-4.97231e-02,1.82178e-01,2.24578e-02,1.64356e-02,2.68103e-02,7.70770e-03,-9.49850e-03,2.35443e-02,2.15867e-01,3.76279e-01,4.63855e-01,4.14386e-01,2.60452e-01,3.09498e-02,6.15973e-01,5.66695e-01,2.73194e-01,1.70228e-01,3.32101e-01,-7.87089e-02,5.55910e-02,5.37353e-01,2.06128e-01,2.90353e-02,3.16449e-02,3.86147e-01,4.39706e-01,3.36801e-01,-2.54309e-02,2.38803e-02,-3.18238e-02,-2.36748e-03,
2.73108e-02,-3.27813e-02,3.36666e-03,1.59542e-02,-1.04414e-02,-2.57953e-02,1.31519e-03,3.16800e-02,-1.55393e-02,8.56877e-03,-2.95025e-02,-2.12212e-02,9.08454e-02,7.38470e-02,7.57648e-02,4.91681e-02,3.36843e-04,-1.13427e-02,-1.04028e-02,-1.65843e-02,-1.09816e-02,2.51790e-02,1.21314e-02,-2.94927e-02,1.82985e-02,3.18682e-02,6.14520e-03,2.28868e-02,1.99243e-03,-5.58738e-03,3.06412e-02,2.72608e-02,2.43461e-02,3.32328e-02,3.93636e-02,7.09380e-03,7.92773e-02,3.65776e-02,5.62639e-02,-3.03016e-02,-2.10155e-03,3.48749e-02,4.28702e-01,3.56001e-01,8.82961e-02,-1.95427e-01,6.92745e-02,4.56618e-02,1.39797e-02,-3.13349e-02,2.84275e-02,1.26338e-02,6.93804e-03,-3.59324e-03,3.53331e-02,-3.16834e-02,1.37064e-02,-3.17238e-02,-1.03685e-03,-4.55008e-02,-2.35603e-02,4.30621e-02,2.80325e-02,7.45713e-02,2.82670e-02,-2.83926e-01,5.91503e-01,7.90637e-01,4.40241e-01,-4.24945e-02,6.26808e-02,-3.51364e-01,-3.18849e-01,-6.70831e-01,-7.48073e-01,-6.30921e-01,-8.46527e-03,-1.23649e-02,5.69095e-02,1.57866e-01,1.47482e-01,1.04192e-01,-2.00566e-02,2.10603e-02,-1.92614e-02,9.86426e-03,5.98349e-01,4.92546e-01,3.70993e-01,3.55289e-01,1.28375e-01,7.46202e-01,8.21695e-01,3.25292e-01,6.15220e-02,-8.82666e-02,-2.30391e-01,-5.04786e-01,-3.25138e-01,-9.60813e-02,3.63489e-01,4.18836e-01,3.52160e-01,7.56505e-02,1.46735e-01,6.11246e-02,1.72001e-01,-1.73533e-02,-2.11713e-01,1.15980e-01,7.28185e-02,-1.14807e-03,3.14548e-02,9.86735e-04,6.21849e-01,6.06445e-01,-3.60766e-02,-1.87801e-01,-1.27733e-01,1.61361e-01,1.55163e-01,-1.21979e-02,-9.78426e-02,-3.74872e-01,-5.81734e-01,-7.28747e-01,-5.19054e-01,-5.09704e-02,4.30524e-02,1.74123e-01,1.39401e-01,-5.42013e-02,-2.04136e-01,-2.47114e-01,-6.89115e-02,-1.21155e-01,-1.20091e-01,2.60711e-02,8.38006e-02,-1.14632e-01,-2.74050e-02,-2.31245e-02,5.23384e-01,6.64908e-02,-3.71456e-01,2.31694e-01,-1.32413e-01,1.72757e-01,-2.04158e-01,-1.93960e-01,-3.71819e-01,-6.04069e-01,-4.75718e-01,-3.83445e-01,-7.97719e-02,1.48003e-01,2.22148e-01,-2.05636e-01,-4.95472e-01,-2.41726e-01,-3.49081e-01,-2.87665e-01,-2.54673e-01,-7.55055e-02,-1.14152e-01,-4.63267e-01,1.02652e-02,-8.26723e-02,-2.23591e-02,1.12191e-01,-4.91526e-01,6.58072e-02,-5.48334e-03,-2.55150e-01,-8.42329e-03,-2.23966e-01,7.13530e-02,2.35939e-01,1.72794e-01,-2.05483e-01,-3.18854e-01,-2.83768e-01,-1.09519e-01,-1.59494e-02,2.22193e-02,1.39036e-01,-3.99356e-02,2.87436e-01,-1.19274e-01,-3.88729e-01,-9.06799e-02,3.99086e-02,-3.29836e-01,-6.28452e-01,4.28817e-02,8.92221e-02,2.63347e-02,2.51063e-01,-2.64673e-01,-2.55023e-01,-8.85796e-02,-4.01847e-01,1.33758e-01,2.65829e-01,1.42609e-01,9.15004e-02,4.52703e-02,-2.06726e-01,-1.37805e-02,-1.71498e-01,3.48732e-02,1.34442e-02,1.34580e-01,3.81691e-01,1.20142e-01,3.73619e-01,-4.77395e-02,-3.24316e-01,1.85813e-03,9.23048e-02,-2.02315e-01,-4.54175e-01,1.03111e-01,6.98893e-02,-1.76371e-02,2.53442e-01,3.27637e-01,-3.66768e-01,4.47114e-02,4.05440e-01,-2.23276e-01,5.45740e-02,-1.08979e-01,1.74691e-01,2.71281e-01,2.08702e-01,2.49892e-01,5.70382e-02,2.06165e-01,7.32733e-02,1.76723e-01,2.69373e-01,8.04705e-02,1.12794e-01,-1.50822e-01,-1.76580e-01,7.98401e-02,1.13002e-01,-4.94867e-01,-4.43410e-01,-1.82408e-01,-5.07293e-02,7.56159e-02,9.76677e-02,1.13702e-01,-1.47086e-01,3.72035e-01,2.45900e-01,3.35733e-01,1.22123e-01,7.22262e-02,2.02800e-01,9.57008e-02,1.29949e-01,3.12605e-01,9.53094e-02,9.40214e-03,9.68621e-02,2.29755e-01,2.87961e-02,3.27707e-02,-1.08143e-01,-9.03174e-02,-1.70727e-01,1.36744e-01,8.97404e-02,-5.05218e-01,-3.59244e-01,-1.68933e-01,1.95764e-01,1.23153e-01,9.68607e-02,1.29350e-01,-7.29972e-02,3.58764e-01,1.50052e-01,4.98440e-01,1.98493e-01,4.37066e-01,2.13973e-01,-8.49948e-02,-2.24176e-01,-3.34586e-01,-4.33770e-01,-9.99426e-02,2.33066e-01,1.27921e-01,1.60833e-01,1.25135e-01,6.86084e-02,-5.96284e-02,-1.65184e-01,-7.54488e-02,-2.37914e-01,-8.56691e-01,-4.37706e-01,-2.21829e-01,2.95574e-01,4.09036e-02,1.25311e-01,3.39353e-01,9.05067e-02,4.83310e-01,1.52767e-01,1.89904e-01,-5.47664e-02,-2.65024e-01,2.75053e-02,-1.72197e-01,-6.12405e-01,-7.43807e-01,-3.83848e-01,1.88685e-01,9.12430e-02,2.34214e-02,-1.06496e-03,-8.85922e-02,6.03128e-02,-1.94574e-01,-4.72214e-01,-2.21714e-01,-2.94383e-01,-6.36143e-01,-5.58259e-01,-2.56884e-01,5.60657e-02,6.93990e-02,1.26088e-01,-1.95773e-01,-7.56465e-02,2.32110e-01,9.71868e-02,-9.20741e-03,-5.36335e-01,-8.44249e-01,-7.30068e-01,-4.28248e-01,-5.42271e-01,-3.61187e-01,-5.06457e-03,2.33978e-01,2.31830e-01,1.80010e-01,-5.32112e-03,-6.36260e-02,-5.59644e-02,-5.21223e-01,-4.99602e-01,-5.78191e-01,-6.90232e-01,-6.71889e-01,2.05784e-01,-2.56829e-01,1.11280e-01,1.39619e-01,4.54913e-02,-2.87275e-02,-2.29940e-01,-3.70930e-01,-6.60213e-01,-6.77968e-01,-1.15488e+00,-6.55777e-01,-6.44855e-01,-3.81270e-01,-2.03696e-01,-2.09111e-01,-6.66545e-02,3.01850e-01,1.09653e-01,2.39051e-01,-6.69788e-04,-8.30189e-02,-3.08356e-01,-4.00193e-01,1.38834e-01,-3.33608e-01,-2.69638e-01,-2.41540e-01,1.61735e-01,1.01404e-01,2.70577e-01,-1.71450e-02,1.03497e-01,3.83098e-01,-3.53791e-01,-5.79557e-01,-1.03771e+00,-1.02301e+00,-6.29664e-01,-1.69715e-02,4.91223e-02,2.44645e-01,2.52246e-01,-1.95310e-02,5.57366e-02,3.44948e-01,4.05115e-01,1.75603e-01,1.05659e-01,6.91929e-02,1.81679e-01,1.64458e-01,4.26974e-01,9.69744e-02,2.79876e-01,2.37294e-01,-1.79654e-01,3.27878e-01,1.07813e-01,-3.34344e-02,8.21524e-02,8.58576e-01,-3.40223e-01,-7.77760e-01,-7.56963e-01,-4.48174e-01,-1.30420e-01,3.81927e-01,2.24065e-02,2.63893e-02,2.83547e-01,-1.33865e-01,1.44387e-01,2.10241e-01,2.50806e-01,-9.81434e-02,2.30067e-01,2.53832e-01,4.01309e-01,3.15959e-01,2.15373e-01,3.64111e-01,1.79837e-01,-1.42028e-01,-3.24601e-01,1.90589e-02,1.57165e-01,1.09003e-02,9.30632e-02,8.72372e-01,-6.35295e-02,-2.96509e-01,-1.74977e-01,-3.69213e-03,1.75330e-01,2.46013e-01,1.47548e-01,-2.40054e-02,7.66661e-02,2.12777e-01,2.62009e-01,3.70505e-02,-1.16699e-01,-3.90095e-02,3.16845e-01,4.73931e-01,5.21018e-01,-2.25010e-03,3.69072e-01,-7.30538e-02,-2.57530e-01,-3.84878e-02,-3.31559e-01,-4.90322e-02,-2.50991e-01,-1.16925e-02,8.36244e-02,5.93515e-01,-2.93027e-01,-6.99622e-02,-1.93483e-02,-2.62946e-01,-2.36022e-02,3.46125e-02,-1.68379e-01,-1.54892e-01,-4.49698e-02,-6.64377e-02,-6.39408e-02,-6.84061e-02,-4.64893e-02,2.90674e-02,-6.59482e-02,3.73341e-02,3.34964e-01,-2.00865e-02,1.44706e-01,-1.40691e-01,-1.64568e-01,-9.17578e-02,1.08894e-02,-1.61370e-01,-4.25566e-01,-2.30399e-03,6.82689e-03,7.51560e-01,2.72394e-01,3.36496e-01,9.21654e-02,-2.50030e-01,-1.47049e-01,-2.93072e-01,-3.45173e-01,-1.17803e-01,-4.10803e-01,-3.70870e-01,-1.47725e-01,-1.58083e-01,-1.88034e-01,7.47121e-02,-1.92644e-02,-1.60097e-01,1.52967e-01,1.33261e-01,-6.90109e-02,-2.17768e-01,-2.33237e-01,-3.64671e-01,-7.39822e-02,3.24797e-01,3.28239e-01,4.10742e-02,-2.98805e-01,1.88100e-01,3.67995e-01,-3.00420e-02,-2.10350e-01,-5.42323e-02,4.47048e-02,-1.00394e-01,3.72517e-03,-1.41082e-01,-1.78979e-01,-3.46765e-01,-4.70083e-02,-2.36904e-02,-8.98984e-02,-6.05348e-02,-2.16384e-01,-2.12491e-01,-3.91997e-02,7.57002e-02,3.53549e-02,-5.17746e-01,-4.41545e-01,-5.88958e-01,-1.31999e-01,7.64491e-02,4.00313e-01,-1.36178e-02,-5.64732e-01,5.27242e-02,1.85498e-01,-1.98459e-01,-3.19177e-01,6.64046e-02,2.07180e-01,-7.50574e-02,6.95001e-02,7.90770e-02,-6.53172e-02,-4.10036e-02,1.11084e-01,4.39691e-02,1.07354e-01,-8.92683e-02,-1.20869e-01,-1.12610e-01,1.39781e-01,1.47605e-01,1.98292e-01,-5.44655e-01,-7.00908e-01,-5.10124e-01,-5.80858e-01,4.55717e-02,6.30440e-02,3.94904e-02,8.38261e-02,2.33383e-01,8.28596e-03,-3.08386e-01,-1.09747e-02,5.69878e-02,2.85445e-01,2.07553e-01,4.26217e-03,2.10680e-01,4.87125e-02,2.22669e-01,2.66435e-01,8.82647e-02,-4.70915e-03,-1.08927e-01,-1.79867e-01,-9.88968e-02,2.98867e-01,4.55012e-02,2.46429e-01,-7.71333e-01,-8.84096e-01,-5.57870e-01,-3.25994e-01,-1.13403e-02,1.27276e-02,5.01832e-02,8.88516e-02,3.18361e-01,-3.05056e-02,-8.87028e-03,4.29082e-01,2.33813e-02,-1.12695e-01,-6.18507e-02,-1.28217e-02,1.84526e-01,6.29256e-02,-2.10692e-01,1.06617e-01,2.62036e-02,1.24565e-01,4.20830e-02,-1.12218e-01,1.18535e-01,3.90033e-01,-1.23879e-02,2.22315e-01,-6.71844e-01,-8.38471e-01,-4.49060e-01,-2.50569e-01,5.41200e-05,-5.08187e-03,5.39769e-03,-1.49121e-03,2.99593e-01,6.89834e-03,3.42904e-01,4.96618e-01,3.64167e-01,1.81453e-01,-7.46870e-02,8.48454e-02,4.43618e-02,-4.78451e-02,-2.20603e-01,1.33151e-01,-4.28507e-02,3.72586e-02,-8.88199e-02,-1.22916e-01,-9.86074e-02,-1.99976e-02,-1.74655e-01,-1.61046e-01,-9.04109e-01,-5.32128e-01,6.86768e-01,8.62178e-01,2.09943e-01,-2.33060e-02,-2.64194e-02,2.15611e-02,2.25986e-01,4.67945e-01,4.31798e-01,2.74219e-01,2.39476e-01,-6.58859e-02,-2.23455e-01,1.40926e-01,-2.00423e-01,-1.70801e-01,-1.04448e-01,-8.52261e-02,-1.01720e-01,-1.88942e-01,-1.37662e-01,3.47594e-01,-2.24128e-01,-4.97698e-01,-3.44851e-01,-2.60407e-01,-9.99868e-01,-4.86202e-01,-2.24525e-01,-8.53836e-02,-5.05045e-02,-1.78728e-03,-1.80158e-02,-2.86386e-02,6.66345e-03,2.75340e-01,5.21655e-01,4.21916e-01,4.33228e-02,1.12472e-01,6.15712e-02,7.58992e-02,8.54887e-03,-3.29010e-02,2.00615e-01,-3.27337e-01,-3.45095e-01,-1.84009e-01,1.05671e-01,-2.15513e-01,-2.76415e-01,-3.26328e-01,-2.34737e-01,-4.08567e-01,-4.42880e-01,-2.42829e-01,-1.42435e-01,-5.09053e-02,-4.85099e-02,1.25848e-02,1.78749e-02,-3.40103e-02,-2.87083e-02,-2.49435e-02,-5.11802e-01,-7.12888e-01,-5.34740e-01,2.75239e-02,1.52937e-01,-1.49389e-01,-1.03440e-01,-1.25634e-01,1.64233e-01,2.15693e-01,3.99541e-01,4.51751e-01,-1.62850e-01,-4.01222e-01,-4.89539e-01,-3.70652e-01,-3.96837e-01,-5.74760e-01,-6.20869e-01,-4.28375e-02,-2.15612e-02,1.25855e-01,-1.30593e-02,3.28159e-02,1.73242e-03,2.03758e-02,-1.75264e-02,1.76223e-02,4.34942e-02,6.85883e-02,1.16337e-01,2.29780e-02,7.65486e-02,4.06580e-01,5.75461e-01,4.65331e-01,4.49786e-01,2.96341e-01,2.89197e-01,3.47195e-01,3.10045e-02,3.39094e-01,1.80832e-01,-7.27962e-01,-2.67826e-01,-4.50145e-01,-6.21994e-01,-9.68250e-03,2.81956e-02,-1.91338e-02,9.70737e-03,2.12551e-02,
-1.47303e-02,2.77667e-02,-2.53260e-02,6.19424e-03,2.22527e-02,-7.87377e-03,-8.58486e-03,-8.23067e-03,1.67793e-02,2.19228e-02,2.44502e-03,-9.72242e-03,1.16026e-02,-3.43365e-02,7.37708e-03,-3.79687e-02,1.99368e-02,-9.57038e-03,-1.13651e-02,-3.03505e-02,4.19438e-03,-2.86047e-02,3.08186e-02,-1.30911e-02,1.13946e-02,1.01270e-02,8.16709e-03,1.41637e-02,3.25121e-02,2.63532e-02,2.06566e-02,-1.93766e-02,3.37014e-02,3.89061e-03,3.16734e-02,4.02442e-02,1.00918e-01,4.52268e-02,5.49328e-02,1.46284e-01,1.51346e-01,3.19156e-02,-5.28634e-02,7.16047e-02,2.34807e-01,1.89252e-01,3.18078e-01,1.11562e-01,4.39442e-02,1.59799e-03,-1.40170e-02,3.34081e-02,2.60883e-02,2.45067e-02,1.68376e-02,-7.58048e-03,4.85087e-03,-2.97950e-03,1.14137e-01,3.34313e-02,8.50247e-03,2.61654e-02,2.54057e-02,3.99457e-02,-2.03581e-01,2.60354e-01,1.62827e-01,2.31649e-01,1.86814e-01,2.29972e-01,-9.36969e-02,-2.88389e-01,3.58556e-02,2.58988e-02,2.95910e-01,4.87790e-01,3.77272e-01,2.14610e-01,2.29769e-01,1.71290e-01,-2.09658e-02,-2.40679e-02,1.80979e-02,-2.82607e-04,-3.08496e-02,-3.43116e-02,-8.80732e-02,-7.95325e-02,-6.85580e-02,-2.73280e-03,2.58473e-01,8.15344e-02,-1.27536e-01,2.38368e-01,-4.10551e-02,-3.43689e-01,-2.75339e-01,2.08391e-01,1.55780e-01,-1.48743e-01,-2.18269e-01,-1.47953e-01,1.87270e-01,3.13077e-03,-4.94455e-01,-1.49931e-01,-8.64343e-03,2.08590e-01,1.37772e-01,-4.61719e-01,-5.29782e-01,9.55063e-03,-1.99347e-02,-7.63080e-05,-1.10389e-01,-3.57846e-01,2.41615e-01,-1.07112e-02,2.11369e-01,6.56274e-02,-5.81554e-02,1.39787e-01,-1.06571e-01,-5.66960e-01,-7.14424e-01,-4.74428e-01,-2.89648e-01,-1.22298e-01,-9.35581e-02,3.69342e-02,2.08325e-01,1.30352e-01,-2.29294e-02,-3.65331e-01,-3.24406e-01,-2.42421e-01,-1.25591e-01,-2.79137e-01,-1.71077e-01,3.65877e-01,2.75865e-02,2.34186e-02,2.49258e-01,1.80377e-01,2.65352e-01,-9.00881e-02,1.10592e-01,1.06639e-01,6.52167e-02,6.32027e-02,1.23796e-01,-4.74131e-02,-3.74682e-01,-4.09490e-01,-4.99824e-01,-7.64393e-03,-5.39638e-02,1.26113e-01,-5.66938e-02,1.59362e-01,9.44053e-02,2.95008e-01,7.00375e-02,1.07693e-02,-2.74353e-01,-3.05148e-01,1.86706e-01,1.43150e-01,1.42181e-03,2.34809e-02,4.75953e-02,3.55857e-01,-1.61412e-01,-5.02427e-02,1.40705e-01,1.10011e-01,2.47560e-01,-1.13560e-01,-5.63155e-01,-4.54887e-01,-2.56996e-01,-1.08496e-01,9.12244e-02,4.19219e-02,1.62899e-01,8.28348e-02,-2.11868e-02,-9.96873e-02,-3.32307e-02,-1.62622e-01,-2.78979e-01,-1.33213e-01,-1.31852e-01,-1.14922e-01,5.38245e-02,1.50633e-01,9.01471e-03,-1.90927e-01,-3.76298e-01,-3.95457e-02,-1.46672e-01,-3.56231e-02,-1.94425e-01,-2.00470e-01,-1.93555e-01,-3.21514e-01,-3.92615e-01,-8.45290e-02,-1.42678e-01,-2.52713e-02,2.23050e-01,2.01976e-01,-9.53921e-03,-8.48141e-02,3.00270e-01,-2.68892e-02,-1.31294e-01,-6.15756e-02,-9.43289e-02,-2.21960e-01,-1.45269e-01,-2.68669e-02,-2.83252e-01,5.85699e-01,6.02358e-02,-1.80923e-01,-5.60600e-01,-1.11954e-01,9.80794e-02,1.86958e-02,2.47411e-01,-6.13382e-02,-1.94738e-01,-2.48584e-01,-3.14050e-01,-2.38793e-01,5.85631e-02,1.60809e-01,2.56837e-01,-1.11046e-01,-1.90607e-01,4.33791e-02,1.03415e-01,2.82187e-02,-8.47837e-02,-1.11226e-01,-1.90096e-02,2.13260e-01,-2.15679e-01,-1.04411e-01,-4.21155e-02,1.33587e-01,-1.13950e-01,-2.12488e-01,7.59364e-02,-4.28879e-02,-1.21804e-01,2.05031e-01,-9.29980e-02,-6.91267e-02,-4.74327e-02,-4.58859e-02,2.67222e-02,-1.75203e-01,-4.97474e-02,1.99026e-01,1.76961e-01,-3.99839e-02,-8.16747e-02,-1.53138e-01,6.77888e-02,9.71304e-02,-1.44046e-01,-1.77365e-01,-3.50018e-03,3.24369e-01,-2.61054e-02,-1.51644e-01,-2.92185e-01,-5.98013e-01,-8.20192e-02,-8.58749e-02,2.63212e-01,2.97330e-01,-1.19055e-01,3.92519e-02,-3.40471e-01,-4.17970e-02,-1.77941e-01,-6.56321e-02,-1.21586e-02,-1.86929e-01,5.53331e-03,1.30599e-01,2.40737e-01,-9.36800e-02,-1.64863e-01,-1.39344e-01,1.21168e-01,-1.68091e-02,4.13772e-03,1.03860e-02,3.01653e-02,2.56598e-01,2.72223e-01,-3.19396e-01,-3.49524e-01,-4.14216e-01,-1.04637e-01,-5.72419e-03,-5.50179e-01,-3.86812e-03,-2.25996e-01,-2.70981e-01,-2.75154e-01,-2.44052e-01,-4.73201e-01,9.18101e-03,-5.32508e-02,-1.51178e-01,-2.14400e-01,2.29728e-02,2.93711e-02,1.10464e-01,-1.09833e-01,-9.30931e-02,2.70631e-01,8.79241e-02,5.64529e-02,1.26533e-01,-1.51430e-01,-9.71128e-02,2.72070e-01,1.74586e-02,1.01728e-02,-2.58216e-02,-7.73631e-02,4.14641e-02,-7.70711e-02,-1.72270e-01,-3.19912e-01,-2.64757e-01,-6.99669e-03,-1.50941e-01,1.79903e-02,4.27304e-01,-5.92331e-02,5.27103e-02,-2.10648e-01,-3.51405e-01,-8.63507e-02,-2.30055e-01,-1.10087e-01,-9.77811e-03,4.58725e-02,7.65739e-02,1.45257e-01,1.28712e-01,4.10433e-02,-2.47322e-01,1.51456e-01,-1.66164e-01,-5.87555e-01,-3.24572e-01,1.46207e-01,9.85154e-02,-9.05747e-02,-2.35948e-02,-1.85828e-01,-2.22875e-01,-4.41554e-02,-1.57505e-01,-9.25509e-02,2.52679e-01,6.45157e-02,-1.86225e-02,-3.10902e-01,-4.60825e-01,-5.59772e-02,-2.38507e-01,-2.71279e-01,-1.49728e-01,-7.46514e-02,4.99127e-03,2.28575e-02,-1.86182e-01,9.27969e-02,1.06845e-01,-3.94780e-02,-4.25916e-01,-5.75915e-01,7.66880e-03,7.00085e-02,-8.27888e-02,-1.04082e-01,-3.31417e-01,-1.73293e-01,4.75494e-03,3.74578e-02,-1.12040e-02,-1.73471e-01,-1.98888e-01,-1.06778e-01,-1.10718e-01,-1.67496e-01,-6.77956e-02,3.37556e-02,-2.38446e-01,-2.76321e-01,-3.09382e-01,-2.03355e-01,-1.91502e-01,-9.07679e-02,5.40484e-03,1.71677e-01,1.06143e-01,1.89530e-01,-5.10487e-01,-1.10888e-01,1.43536e-01,6.42309e-02,-5.27725e-02,-2.79941e-01,-2.65872e-01,-1.48452e-01,3.27692e-02,-2.10121e-01,3.09250e-01,-8.41364e-02,-1.39543e-01,-1.71091e-01,-7.57077e-02,3.04416e-01,5.41277e-02,5.28619e-02,-4.78556e-01,-1.96263e-01,-5.58404e-01,-3.76538e-01,-3.94070e-01,-1.42899e-01,-8.55452e-02,-8.17705e-02,2.34738e-01,2.67808e-01,-6.29225e-01,1.04617e-02,7.25063e-02,-2.28571e-02,2.87417e-03,-1.83774e-01,-1.22968e-01,-8.82150e-02,2.53134e-03,-3.99137e-01,5.14439e-02,3.44900e-03,-1.82714e-02,6.58103e-02,2.27309e-01,2.63318e-01,5.62195e-02,-3.06704e-02,-4.39729e-01,-1.97537e-01,-3.79225e-01,-3.00329e-01,-2.61009e-01,-1.72559e-01,-1.77274e-01,1.67253e-01,3.45156e-01,4.31419e-01,-2.58396e-01,2.66873e-01,8.25474e-02,-2.79165e-02,3.61480e-03,-3.33453e-01,-6.32847e-02,-2.82755e-02,8.43489e-03,-7.74760e-02,-2.57606e-01,-2.93850e-01,-1.20551e-01,1.17150e-01,8.50436e-02,1.34221e-01,-4.02521e-02,-8.02724e-02,-3.39931e-01,-1.59846e-01,-3.56217e-01,-7.64587e-02,1.01731e-02,-1.03292e-01,1.62362e-03,1.49274e-01,1.16273e-01,2.42235e-01,-2.56107e-01,-9.79125e-02,1.01442e-01,-9.13436e-02,1.44674e-02,-3.97097e-01,-2.59367e-01,-1.65700e-01,1.20991e-02,-1.12707e-01,-2.13234e-01,-1.35330e-01,1.62831e-01,2.24506e-01,1.49145e-03,-6.67742e-02,-8.07808e-02,-9.18112e-02,-5.88911e-02,-1.89821e-02,-3.28654e-01,-3.28911e-02,5.79762e-02,-5.76307e-02,-1.78986e-01,-1.54310e-01,-2.59656e-01,1.77710e-02,-2.03824e-01,-4.92447e-01,2.37902e-01,2.84784e-02,1.11816e-01,2.90955e-01,-3.63721e-01,-2.24078e-01,-5.29625e-02,-2.04617e-01,-1.73406e-01,4.00996e-02,7.99118e-02,1.68478e-01,2.29535e-01,7.54003e-02,1.00823e-01,8.46986e-02,1.03275e-01,2.01605e-01,9.58327e-03,1.60599e-01,2.51940e-01,2.22739e-01,-8.55770e-02,2.07974e-02,-7.21884e-02,-6.50169e-02,-6.93162e-02,7.86645e-02,1.64483e-01,-1.91844e-02,5.11769e-02,5.12343e-01,2.57525e-01,4.05541e-01,-7.24631e-02,-2.11277e-01,-2.82091e-01,-3.48953e-02,1.50924e-01,1.70668e-01,3.92626e-01,6.42511e-01,4.77742e-01,2.94033e-01,2.53855e-01,2.41970e-01,3.78229e-01,2.88812e-01,2.57224e-01,6.64444e-02,2.00006e-01,5.96452e-02,-1.63591e-01,-2.54776e-01,-7.87704e-02,1.03502e-01,8.10876e-02,-6.44491e-02,7.82747e-02,3.60435e-01,5.23537e-01,2.51850e-01,1.17600e-01,8.31932e-02,-6.56507e-03,3.43986e-02,2.81986e-02,1.87310e-02,1.52899e-01,5.22899e-01,4.61164e-01,4.56993e-01,3.59266e-01,1.62960e-01,4.75500e-02,1.15930e-01,1.53526e-01,5.58801e-03,-3.72287e-01,-2.06899e-01,-1.82844e-01,2.25719e-01,3.40311e-01,4.68810e-01,3.42058e-02,-5.37425e-02,-2.24308e-02,2.20410e-01,5.68241e-01,2.94660e-01,3.29252e-01,2.46149e-01,2.41481e-01,-8.70648e-02,-7.53208e-02,-7.75544e-02,2.64021e-01,6.02187e-01,4.45262e-01,3.09861e-01,1.37505e-01,1.87158e-01,1.48629e-01,2.59431e-01,-3.04442e-02,-8.24879e-02,-4.35112e-01,2.11703e-02,7.55879e-03,9.44090e-02,-1.11996e-01,1.77316e-01,4.42276e-02,2.80507e-02,-2.19895e-02,-6.25577e-02,5.60753e-01,2.95507e-01,2.02428e-01,3.46272e-01,1.49984e-01,3.94950e-02,3.39236e-02,1.34362e-01,1.42326e-01,3.18588e-01,1.70951e-01,7.15597e-02,4.28204e-01,4.40657e-01,4.37685e-01,8.97275e-02,-2.30174e-01,-2.21041e-01,-1.81263e-01,2.45919e-01,1.00344e-01,-5.42865e-01,-4.64816e-01,1.73617e-01,-1.49133e-02,1.50245e-02,-1.21438e-02,-1.79181e-01,9.50269e-02,1.74631e-01,6.46629e-02,1.44787e-01,1.23343e-01,1.37884e-01,3.13203e-01,1.13301e-01,-8.54125e-02,2.67834e-02,5.64721e-02,4.16477e-01,3.07357e-01,1.49299e-01,2.96801e-01,3.41502e-01,-1.72700e-01,1.88346e-01,3.88918e-01,2.28884e-03,-3.82394e-01,-2.53296e-01,1.23855e-01,1.17801e-02,-2.59943e-02,2.67769e-02,-2.03156e-02,-8.27575e-02,-2.14953e-01,-6.04964e-01,-7.85934e-01,-1.37689e-01,-3.36985e-01,-2.89391e-01,-3.96742e-01,-5.90656e-01,-6.96234e-01,-4.88621e-01,2.13515e-01,2.21478e-01,-3.71284e-01,-5.23186e-01,6.55645e-02,2.10116e-01,2.54819e-01,1.51883e-01,8.67168e-02,-4.74562e-01,-3.56577e-01,-2.05423e-01,3.16706e-03,1.13017e-02,2.92152e-02,-2.66027e-02,3.56944e-02,1.78837e-02,-3.21942e-02,-1.64341e-01,-7.42873e-01,-6.29188e-01,-2.82783e-01,-2.77341e-01,-7.14395e-01,1.29184e-01,9.71347e-02,9.18609e-04,1.25058e-01,-2.37404e-01,-5.85832e-01,-6.82877e-01,-3.74481e-01,-2.46261e-01,1.36037e-02,-2.37755e-01,-1.29614e-01,-6.78983e-02,-5.14468e-02,2.17118e-04,-5.50159e-02,-1.95176e-02,-2.84961e-02,2.69186e-02,2.63665e-02,1.16343e-02,-1.65645e-02,1.68667e-03,-5.11054e-02,-6.54302e-02,-6.62052e-02,-8.26141e-02,-1.76832e-01,-3.04495e-01,-2.83094e-01,-3.81216e-02,-2.52984e-01,-4.07078e-01,-1.68914e-01,-1.42197e-01,-3.04778e-01,-3.10992e-01,-1.13746e-01,-3.80120e-02,-1.69558e-02,-5.53501e-02,-5.11023e-02,-4.78387e-03,3.26123e-02,-1.68546e-02,-1.87697e-02,
-2.07255e-02,2.38512e-02,-1.59070e-02,1.54871e-02,7.34648e-03,6.71906e-04,5.50632e-03,-2.64248e-02,-1.22198e-02,-3.07077e-02,2.19844e-02,3.21260e-02,6.66517e-03,-1.54326e-02,2.35671e-02,1.33286e-02,3.80485e-03,-1.04486e-02,2.92907e-02,2.71340e-02,2.00012e-03,-2.62359e-02,1.54288e-02,2.31999e-02,1.04193e-02,1.79846e-02,-2.22597e-02,-2.05276e-02,-5.93874e-03,-1.00731e-02,-3.26007e-02,2.05034e-02,2.00900e-02,3.59784e-02,7.61962e-03,2.36185e-02,3.09625e-03,-1.23869e-02,3.59664e-02,4.49445e-02,1.47071e-01,2.26735e-01,8.51184e-02,-3.29221e-02,-2.22406e-02,5.36125e-04,-4.30034e-03,5.77829e-02,-1.61476e-02,7.94813e-03,2.79983e-02,5.35327e-03,-1.99051e-02,1.63129e-02,-3.09851e-03,2.41138e-02,-2.75012e-03,2.87430e-02,5.16232e-03,-1.86809e-02,3.01172e-02,-5.13105e-03,1.45162e-02,5.11518e-02,1.32380e-01,2.52855e-01,2.52795e-01,1.94181e-01,1.79453e-01,-1.61601e-02,-1.67107e-01,-3.75501e-01,-2.61853e-01,-1.82114e-01,-5.93349e-02,-1.91814e-02,2.26326e-01,1.56648e-01,5.50835e-02,1.08795e-01,5.99845e-02,3.83714e-02,3.16103e-02,5.99582e-03,2.11898e-02,2.17335e-02,-2.11942e-02,1.32615e-01,3.10219e-01,3.42868e-01,-1.49153e-01,-1.44326e-01,4.75665e-02,8.50032e-02,1.38288e-01,1.01016e-01,3.78441e-01,2.79390e-01,9.82921e-03,1.00107e-02,-1.18222e-01,2.02030e-01,5.10247e-01,2.97386e-01,6.25306e-03,-2.00194e-02,1.28716e-01,-1.56939e-01,-2.21098e-01,-3.89219e-02,1.43020e-01,-3.33709e-02,2.66772e-02,3.76442e-02,7.43567e-02,7.65710e-02,4.25754e-01,2.15428e-01,2.55475e-02,9.16376e-02,1.21098e-01,1.16522e-01,2.71572e-01,4.67860e-01,5.68746e-01,5.06649e-01,2.55857e-01,2.24603e-01,1.75675e-01,2.41991e-01,8.29249e-02,-1.78630e-01,-3.17919e-01,9.69674e-02,2.49443e-01,3.76830e-01,2.23923e-01,7.49346e-02,3.54450e-01,6.14305e-03,-2.66816e-02,-5.51167e-03,1.23245e-01,1.10314e-01,-2.25690e-01,-5.06291e-01,-3.93379e-01,-1.03257e-01,-1.49044e-01,-1.17006e-01,2.17058e-01,4.95014e-01,3.29134e-01,2.36212e-01,1.84232e-01,1.30444e-01,1.63516e-01,-1.82478e-02,-1.13024e-01,-6.82513e-02,-1.88197e-02,2.08461e-01,3.43928e-01,2.27538e-01,3.32431e-01,6.27277e-01,3.94641e-01,1.41283e-01,2.03295e-03,1.04388e-01,1.83962e-01,-1.46189e-01,-5.07937e-01,-2.32367e-01,-1.32586e-01,1.85940e-01,1.70429e-01,3.31453e-02,2.36041e-01,1.17459e-01,1.89580e-01,8.01095e-02,3.12956e-02,8.44503e-03,3.52383e-02,6.45254e-02,1.55636e-01,-2.78103e-02,-1.30038e-02,2.07675e-02,-9.53062e-02,-1.50100e-01,2.66629e-01,3.44745e-01,3.60198e-01,2.40046e-01,-7.10551e-03,1.00291e-01,-1.33161e-01,2.71582e-02,1.11517e-01,3.55208e-01,8.69283e-02,3.18759e-01,1.65409e-01,8.35119e-02,2.36747e-01,2.05472e-01,-4.11056e-03,-2.25705e-02,9.10005e-02,-5.20488e-02,4.18345e-02,-3.95506e-02,1.82149e-01,1.52189e-01,-7.31427e-02,-8.93958e-03,-1.19162e-01,-2.44954e-01,-3.14333e-01,2.86259e-01,2.60878e-01,2.27131e-01,-3.16604e-03,-5.76594e-03,-1.87938e-01,1.42383e-01,4.41202e-01,1.75260e-01,-1.58269e-01,3.78861e-02,5.39757e-02,3.19430e-02,2.45185e-01,-1.11576e-01,-1.59455e-01,-1.45488e-01,-4.56882e-03,-2.09686e-01,-5.81314e-02,-3.66254e-02,7.08132e-02,3.13295e-01,5.02375e-02,-1.98433e-02,-1.27448e-01,-4.78556e-02,-2.16166e-01,3.11251e-01,2.37725e-01,5.07099e-02,1.45205e-02,-5.22609e-02,3.30771e-01,-2.89455e-01,3.51213e-01,9.42050e-02,-6.97639e-02,1.70914e-01,-2.15558e-02,2.54446e-02,1.92148e-01,2.43833e-02,-2.63533e-01,-2.80273e-01,-4.15613e-01,-3.78626e-01,9.68708e-02,-9.40679e-02,1.18481e-01,3.71472e-01,-5.20284e-02,-6.47238e-02,6.40870e-02,-5.05950e-02,3.34815e-02,2.59297e-01,5.70218e-02,9.49630e-02,-5.10292e-03,-5.21820e-02,2.77519e-01,-1.50471e-01,3.09297e-01,2.07158e-02,1.13122e-01,-6.29449e-02,-1.03647e-01,-3.01384e-01,9.20082e-02,-8.16036e-02,-1.70401e-01,-2.55992e-01,-5.80622e-01,-3.04527e-01,2.84469e-01,-7.32582e-02,-2.44050e-02,4.82394e-02,-1.12328e-01,2.48416e-02,6.47579e-02,6.60407e-02,-1.11596e-01,-8.30085e-02,1.18464e-01,4.31744e-02,-2.32353e-02,-2.90845e-02,-5.47881e-01,1.63638e-01,4.77300e-01,-2.77281e-02,3.26180e-02,-3.46723e-01,-3.69935e-01,-3.90368e-01,6.92776e-02,6.41402e-02,2.59201e-01,-1.20728e-01,-3.08762e-01,-1.09352e-02,4.69628e-02,-1.19395e-01,-1.48617e-01,-1.53444e-01,-2.47206e-01,4.07863e-02,-3.03483e-02,-2.57962e-01,-3.09618e-02,-2.55499e-01,-8.92026e-02,-5.77746e-02,-3.14949e-02,1.19059e-03,4.26577e-02,1.05458e-01,1.27640e-02,-9.75664e-02,5.69780e-03,-1.51085e-01,-3.51619e-01,-2.62119e-01,-6.49560e-02,1.69984e-01,1.58398e-01,-3.30209e-01,-5.14467e-01,-3.67928e-01,-2.93564e-02,-8.38936e-03,-5.52385e-01,-2.43431e-01,-1.52449e-01,-3.06923e-02,-3.34126e-01,-3.37013e-01,-3.92275e-01,-2.25893e-01,-2.28986e-02,-1.31149e-01,9.25215e-02,-5.51737e-03,1.41776e-02,1.36494e-01,-1.99132e-01,4.19528e-03,9.54455e-02,1.30796e-01,-1.90622e-01,-5.12977e-02,2.34160e-02,-4.12043e-02,-1.61793e-01,-3.28484e-01,-4.27327e-01,-2.63555e-01,-1.18098e-02,-2.57079e-01,-4.50006e-01,5.42322e-03,2.34852e-02,-5.84563e-02,-7.42905e-02,-2.22715e-01,-5.54242e-01,-1.58451e-01,-2.87483e-02,-7.04832e-02,3.20068e-02,1.35805e-02,-5.50149e-02,-3.78584e-02,-2.53376e-01,1.66569e-01,2.41374e-01,2.48420e-01,2.73436e-02,-6.62232e-03,-1.20745e-02,-2.72901e-01,-4.03907e-02,-1.05095e-01,-6.13440e-02,-1.90130e-01,-1.43124e-01,-3.26614e-01,-3.64808e-01,-2.63668e-01,1.48193e-01,7.00871e-02,-8.24999e-02,-3.06009e-01,-5.04389e-01,-3.60017e-01,2.70937e-01,9.24610e-02,2.26285e-02,1.70722e-02,3.17523e-02,-2.06929e-01,-5.22734e-01,1.71541e-01,2.20280e-01,-1.72706e-02,1.19525e-02,1.03307e-01,2.33613e-02,-3.67788e-01,-1.54844e-01,3.10462e-02,1.25882e-01,-2.28118e-01,-2.96952e-02,-3.17124e-01,-1.97014e-01,-1.80971e-01,1.31684e-01,2.36382e-01,-6.50840e-02,-2.94539e-01,-1.90545e-01,-2.29166e-01,2.70278e-01,1.03366e-01,-1.79323e-02,6.87765e-03,6.64871e-02,-3.35166e-01,-1.25196e-01,1.74249e-01,2.39769e-01,-1.09180e-01,-2.84863e-01,-1.43997e-01,-2.42920e-01,-6.36472e-01,-2.78915e-01,-2.79505e-03,1.33055e-01,-1.20266e-01,-3.46148e-02,-2.36899e-01,-1.75202e-01,-9.38371e-02,1.95788e-01,1.91928e-01,9.60171e-02,-1.54333e-01,6.61822e-02,-1.39530e-01,3.19969e-01,1.85112e-01,-6.92107e-03,1.27956e-02,2.10687e-02,2.64136e-01,1.95559e-01,-9.29073e-02,1.98072e-01,-7.51083e-02,-2.31020e-02,8.32062e-06,4.12855e-03,-4.24333e-01,-3.68308e-01,-2.00083e-01,-4.13890e-02,2.17934e-02,-4.33851e-02,-2.33302e-01,-2.71212e-01,-1.04539e-01,5.35590e-02,2.79607e-02,-1.26828e-02,-5.22847e-02,-1.66230e-01,-1.44162e-01,2.61030e-01,2.01899e-01,-3.22629e-03,4.31139e-03,2.53724e-02,-3.49629e-02,2.50487e-02,-3.81479e-01,-1.92941e-01,-9.30079e-02,1.31768e-02,-2.37480e-02,3.10872e-02,-2.50200e-01,-1.36179e-01,-7.73918e-02,2.37930e-01,1.43095e-02,6.46421e-02,-2.43205e-01,-4.73454e-02,-1.29778e-01,-9.74906e-02,-2.01140e-01,-9.79151e-02,-2.26734e-01,-4.04293e-01,-2.92930e-01,1.73795e-01,2.38441e-01,-5.73875e-03,1.06353e-01,-1.02938e-01,-4.13586e-01,-1.07556e-01,-3.52255e-01,-2.08623e-01,-2.70725e-02,-1.18985e-01,-2.94239e-01,-1.48292e-01,-1.55224e-01,-7.11152e-02,3.58291e-01,1.63595e-01,-1.41754e-01,1.81054e-01,7.68540e-02,2.52198e-02,-4.77269e-02,6.74013e-02,-6.65373e-02,7.41411e-02,-1.76916e-01,-2.46534e-01,-3.80713e-01,2.18198e-01,1.35228e-02,1.05743e-04,1.30397e-01,5.63756e-02,1.34439e-01,-1.16910e-01,-1.14918e-02,-2.93648e-01,-2.49732e-01,-2.75851e-01,-1.32817e-01,1.29251e-01,1.07461e-01,1.27059e-01,3.09998e-01,1.63348e-01,6.83375e-02,2.68349e-01,1.13031e-01,-1.56353e-02,-5.95391e-02,1.63226e-01,2.78804e-01,1.71147e-01,2.22859e-01,2.33430e-02,-3.08196e-01,2.49572e-01,2.22697e-02,-2.50861e-02,9.19780e-02,9.23053e-02,5.74502e-01,-6.81378e-02,-1.45616e-01,-3.60677e-01,-3.72938e-01,-7.35980e-03,1.82587e-01,3.16163e-01,3.03683e-01,3.72072e-04,1.06370e-01,1.73714e-01,1.40928e-01,2.55988e-01,2.15433e-01,4.22662e-03,-9.77180e-02,9.46949e-02,1.94816e-01,3.62740e-01,5.54900e-01,3.44577e-01,2.22889e-01,4.91498e-01,-2.30339e-03,-7.32989e-04,6.07448e-02,5.74110e-02,9.42904e-01,2.15093e-01,9.50635e-02,-1.58530e-02,2.80118e-02,1.18751e-01,2.90977e-01,1.85898e-01,4.14197e-01,3.01044e-01,2.33893e-01,2.69587e-01,1.26267e-01,9.22395e-02,1.77302e-01,2.07500e-02,-1.19092e-01,4.57336e-01,4.47897e-01,1.87257e-01,2.61362e-01,4.10005e-01,5.74426e-01,3.34102e-01,1.29210e-02,1.56358e-02,1.84166e-02,5.73587e-02,8.86819e-01,4.36028e-01,4.09342e-01,-1.44307e-01,3.16253e-02,2.12395e-01,3.08780e-01,1.67910e-01,2.77390e-01,5.07408e-01,4.50130e-01,3.28178e-01,2.61462e-01,2.97220e-01,2.32834e-01,2.35154e-02,2.68335e-01,7.15285e-01,2.19241e-01,2.69338e-01,2.42117e-01,6.26440e-02,4.55858e-01,3.32887e-01,-2.73117e-02,2.75943e-02,3.07611e-02,-5.88214e-01,-9.64592e-02,-1.32342e-02,-1.75495e-01,-4.52484e-01,-3.16346e-01,-7.73272e-02,5.04584e-02,-1.00693e-01,-3.94221e-02,2.21109e-01,1.90176e-01,3.27962e-01,3.93385e-02,-2.73687e-02,2.45011e-01,5.56087e-01,2.54452e-01,1.12903e-01,5.78059e-02,7.24784e-02,-5.19429e-03,5.17065e-01,5.09538e-01,-9.77177e-03,2.87708e-02,-2.27024e-02,1.16946e-03,-1.82412e-02,-3.66145e-02,-1.23314e-01,-1.74640e-01,1.42672e-01,-9.46430e-03,-3.38612e-01,-5.12409e-01,-2.46319e-01,-4.86868e-01,-5.03182e-01,-5.45133e-01,-1.91450e-01,2.53951e-01,1.10698e-02,6.38903e-01,3.35858e-01,3.14700e-01,3.19685e-01,1.69643e-01,7.17719e-02,-5.27048e-01,2.47671e-01,-5.93306e-02,6.97393e-04,-8.99885e-03,3.38284e-02,1.57306e-02,-1.09666e-02,1.17103e-02,-5.42170e-02,-1.50762e-01,-2.31018e-01,-4.62643e-01,-3.28008e-01,-3.24536e-01,-4.46011e-01,-6.76490e-01,-2.76625e-01,-2.71600e-01,-1.60222e-01,-1.93622e-02,1.31798e-01,-3.56727e-01,-1.61268e-02,2.33746e-01,1.00102e-01,-2.91939e-01,-5.18663e-02,-2.27954e-01,4.39110e-02,3.20812e-02,-2.05587e-02,-4.14331e-03,-1.69471e-02,-1.39993e-02,-8.78067e-03,3.51918e-02,-1.68535e-02,1.76865e-02,-3.92907e-02,-3.21103e-02,1.55098e-02,-7.63631e-02,-1.63579e-02,-2.84422e-02,-2.80392e-02,-1.68918e-02,-7.29265e-02,-9.20467e-02,-5.96070e-02,-6.91681e-02,-8.13797e-02,-3.76411e-01,-3.84344e-01,-4.42659e-01,-3.30712e-01,-2.24176e-01,1.72316e-03,2.85093e-03,3.29619e-02,-3.91511e-03,
-3.40734e-02,2.33120e-02,-9.55288e-03,3.42920e-02,3.98768e-03,-1.16000e-02,-2.50683e-02,-9.50516e-03,2.42842e-02,-8.02883e-04,1.72597e-03,-2.91696e-02,5.82112e-03,3.17913e-02,-3.08761e-02,1.05687e-02,1.67804e-02,-6.44022e-03,-2.63232e-02,-3.29597e-02,2.56391e-02,-2.92978e-03,2.97371e-02,-7.76351e-04,1.06401e-02,-3.44522e-02,3.24609e-03,-2.97861e-02,-1.98681e-02,-1.03777e-02,3.39837e-02,1.12213e-02,8.75572e-03,-2.09295e-02,-5.07042e-02,-8.00239e-03,1.53280e-02,-2.39740e-02,-7.26491e-03,-1.54396e-01,-6.72912e-02,-6.82428e-02,3.68815e-02,-7.01404e-02,-8.44077e-02,-3.22409e-02,1.04146e-01,3.31955e-02,2.72333e-02,7.61380e-02,-4.47962e-02,-2.54928e-02,1.16006e-03,1.40573e-02,-3.50123e-02,4.58670e-03,-3.51241e-02,-2.40668e-02,-4.81539e-03,-5.01968e-01,-4.40568e-01,7.24328e-02,-1.77932e-02,-2.67791e-01,-9.99051e-02,-1.67003e-01,-3.02795e-01,-2.06030e-01,-3.00441e-01,-4.64256e-01,-4.88933e-01,-3.37885e-01,-2.46392e-01,-4.65358e-02,1.04618e-01,5.57925e-02,9.90652e-04,5.99460e-02,8.00891e-02,1.73630e-02,3.16592e-02,8.91346e-03,-1.88122e-02,1.10815e-02,-1.73136e-02,1.22586e-03,-1.24143e-02,-5.14004e-01,-4.18456e-01,3.30929e-02,2.23075e-02,-1.86661e-01,-3.16257e-01,-3.51316e-01,-2.91435e-01,-7.98050e-02,-5.83861e-02,1.96934e-01,4.75856e-02,4.24133e-02,4.31971e-02,-6.34274e-02,-2.68355e-01,-1.15207e-01,-1.24868e-01,-8.65648e-02,-1.10276e-02,8.86222e-03,1.77045e-02,-1.19413e-01,-6.66177e-02,-3.50677e-02,-2.92073e-02,2.02555e-02,-3.31042e-02,-4.31837e-02,-7.53736e-02,-5.08140e-02,-3.83805e-02,-3.34725e-01,-6.22286e-01,-3.68877e-01,-1.09720e-01,-1.07159e-01,-2.42996e-01,-1.48115e-01,-1.56726e-01,-2.49123e-01,-5.79249e-01,-5.00040e-01,-5.68727e-01,-2.27452e-02,4.63010e-02,-2.95227e-01,-2.76733e-02,4.21547e-01,4.31806e-01,1.70530e-01,-1.89305e-01,-9.58699e-02,-2.34971e-02,-2.95757e-02,1.27136e-03,-7.79949e-02,-2.34015e-01,-2.86043e-01,-4.20115e-01,-6.00122e-01,-1.25976e-01,-1.60832e-02,5.46466e-01,2.29766e-01,1.42899e-01,-4.65803e-02,-2.86685e-01,-7.16561e-02,-1.30684e-01,-3.47613e-01,-5.40650e-01,-4.13903e-01,-3.35107e-01,-4.39470e-01,-1.43424e-02,2.95990e-01,3.14126e-01,1.56721e-01,-1.04955e-01,4.45300e-02,-2.89802e-03,-1.19921e-01,-5.62028e-03,-4.94122e-01,-1.40306e-01,1.27570e-01,-2.46133e-01,-9.33391e-01,-1.27946e-02,4.70495e-01,1.60323e-01,-3.01919e-02,-7.24927e-02,1.38004e-02,1.21933e-01,5.35979e-03,9.52758e-03,-1.07726e-01,-5.06723e-01,-6.25296e-01,-3.43541e-01,-3.02596e-02,2.54974e-01,4.08328e-01,3.48030e-01,-7.84356e-02,7.09862e-02,1.02374e-01,5.36447e-03,-1.09168e-01,9.12421e-03,-4.55152e-01,-3.11341e-02,2.06427e-02,-4.85027e-01,-9.38109e-01,3.74931e-03,1.95664e-01,1.67099e-01,-6.31186e-02,-9.63374e-02,-8.35044e-02,-1.08108e-01,-2.12024e-01,-4.37052e-01,-6.73644e-02,-3.86460e-01,-3.37431e-01,-2.22411e-01,9.49598e-03,3.63279e-01,1.79212e-01,1.79965e-01,-7.92202e-02,4.74164e-01,2.70358e-01,-8.36515e-02,-7.32837e-02,1.04613e-03,-4.70978e-01,-9.33961e-02,-1.55113e-01,-2.78998e-01,-5.31971e-01,-1.34833e-02,1.22842e-01,2.06481e-02,-4.15877e-02,-2.74474e-01,-1.32925e-01,1.24034e-02,-9.96723e-02,-3.41613e-01,-2.47272e-01,-2.62326e-01,-2.51168e-01,6.64236e-04,1.52905e-01,1.85759e-01,-1.00348e-01,2.74307e-01,5.77718e-01,3.00280e-01,7.18606e-02,-2.99247e-02,2.26769e-02,-3.30872e-03,-5.01208e-01,-3.34356e-01,-2.99412e-02,-4.06872e-01,-2.30560e-01,7.01297e-02,2.36656e-01,1.00508e-02,-5.63254e-02,-3.28063e-01,-2.23254e-01,6.58785e-02,-1.48747e-01,-1.43337e-01,8.84082e-02,8.97560e-02,5.44805e-02,1.49874e-01,1.85262e-01,1.68292e-01,5.76665e-02,2.76848e-01,2.74403e-01,-1.84473e-01,-1.29210e-01,-2.42026e-02,1.86912e-02,-5.05622e-01,-5.90913e-01,9.74052e-02,-8.98672e-02,-6.82906e-01,-2.85179e-02,3.34388e-01,2.69571e-01,6.32616e-02,-1.82485e-01,-1.18182e-02,2.64711e-03,1.95240e-01,2.64776e-01,-7.78110e-02,2.50728e-02,2.26448e-01,2.35570e-01,2.80263e-02,-1.50480e-01,-1.06853e-01,-1.85543e-02,-7.65097e-02,-2.78872e-01,-2.07699e-01,2.30813e-02,-3.69028e-02,-3.12412e-01,-1.25257e-01,-6.47275e-01,-3.53624e-01,-2.84392e-01,-3.14709e-01,2.87923e-02,3.81313e-01,4.41587e-01,1.26293e-01,-9.95468e-02,2.25342e-01,9.29013e-03,5.66648e-02,-1.82485e-01,-2.15941e-01,-1.04275e-01,7.94200e-02,1.11573e-01,-2.67119e-01,-1.03162e-01,-2.77634e-02,-4.09492e-02,3.36057e-02,-1.17472e-01,-1.26156e-01,-3.57847e-01,1.69998e-02,-2.96011e-02,-2.96542e-01,-2.89186e-01,-3.43791e-01,-2.24081e-01,-1.66067e-01,-3.39944e-02,2.79958e-01,3.38535e-01,2.27870e-01,8.94024e-03,2.88813e-02,-1.60484e-02,-2.86237e-01,-1.47239e-01,-2.72353e-01,5.90247e-02,8.66461e-02,1.13020e-01,-2.14354e-02,3.60905e-02,2.95829e-01,1.44863e-01,-2.06141e-01,-9.66552e-04,-4.25855e-01,-4.87248e-01,-2.44111e-03,-2.39064e-02,-2.25320e-01,-2.62062e-01,-9.20280e-02,-1.58383e-01,-3.49770e-01,1.58946e-01,1.73159e-01,3.73974e-01,4.28231e-01,3.44759e-01,2.33902e-01,1.22408e-01,-4.18118e-04,2.49231e-01,-6.22111e-03,1.87995e-01,2.17944e-01,2.32316e-01,1.29931e-01,2.16335e-01,1.54619e-01,-1.33569e-01,-1.59708e-01,-5.82340e-02,-5.10876e-01,-1.02637e-01,-5.50550e-03,-6.64564e-03,-6.25363e-02,-1.05577e-01,2.33274e-01,4.12313e-01,-4.03647e-01,6.91493e-02,1.00244e-01,1.56388e-01,3.62090e-01,4.75922e-01,1.38424e-01,1.54664e-01,1.24238e-01,7.64930e-02,2.46424e-01,3.81825e-01,3.02339e-01,2.59467e-01,1.32490e-01,2.29387e-01,-1.12666e-01,4.63407e-02,1.26445e-01,6.33182e-02,-4.94280e-01,-6.70787e-02,5.23714e-02,4.92485e-02,-1.00632e-01,4.85153e-01,4.95215e-01,3.14099e-01,-3.62557e-02,2.93624e-02,-8.79085e-02,-1.35594e-01,9.17475e-02,3.86878e-02,-1.68047e-01,-2.11589e-02,1.87565e-01,8.38483e-02,8.86161e-02,2.49919e-01,2.61508e-01,2.87886e-03,-2.39662e-01,-8.03835e-02,-8.39598e-02,1.05317e-01,-7.84352e-02,-2.27377e-02,-3.00596e-01,2.24361e-02,9.58995e-02,-4.12383e-02,-5.34681e-01,5.44923e-01,2.16103e-01,-4.47408e-02,-7.07774e-02,-7.21913e-02,-1.58558e-01,-4.22223e-01,-5.41545e-01,-3.21348e-01,3.91041e-02,7.15870e-02,3.40620e-02,-6.74968e-02,1.48447e-02,-1.25536e-01,-5.82985e-02,-2.13795e-01,-4.43425e-01,-1.76587e-01,-4.61281e-02,-2.45670e-01,-5.14254e-01,-3.46635e-01,-5.40690e-02,6.32280e-02,2.21199e-02,-3.30761e-04,-6.20342e-01,3.88839e-01,3.13087e-01,-1.18772e-01,-6.12831e-02,1.85969e-02,-6.27239e-02,-4.31706e-01,-4.49482e-01,-2.98107e-01,4.49044e-03,2.93588e-02,-2.58624e-02,9.65817e-03,-6.08305e-02,-2.07989e-01,7.37844e-02,-1.12260e-01,-6.65916e-02,-3.08665e-01,-2.48318e-01,-3.53041e-01,2.55459e-04,3.87366e-01,2.28889e-01,-1.32138e-02,-7.26942e-02,-1.24482e-02,-5.23471e-01,-1.02622e-01,3.73438e-01,-1.44335e-01,-1.51457e-01,-5.29034e-02,1.00538e-01,-3.10854e-01,-4.46036e-01,-1.24585e-01,-1.15795e-01,-1.50762e-01,-3.31916e-02,9.51593e-02,-4.97586e-02,-7.91116e-02,-4.05594e-02,-1.11665e-01,-3.16815e-01,-1.69066e-01,-3.05338e-01,-1.88173e-01,-3.66838e-02,1.12664e-01,3.05719e-01,6.45006e-02,-1.48493e-02,-4.05578e-01,-1.11314e-01,-9.24471e-02,1.04192e-01,-1.41839e-01,-2.38276e-01,-2.68664e-01,-5.58314e-02,-1.63580e-01,-1.71680e-01,-6.36078e-02,-1.64841e-01,-1.94476e-01,-1.41582e-01,1.25396e-01,-1.08806e-01,-1.60644e-02,1.30750e-01,-1.52832e-01,-4.17895e-01,-2.50107e-01,-3.83069e-01,-2.14357e-01,9.08380e-02,2.77275e-01,-5.58770e-03,-1.10234e-02,-3.07922e-02,-3.01940e-02,-8.78959e-02,-7.00047e-01,-2.84139e-01,-4.11330e-01,-3.83873e-01,-9.26355e-02,-1.82191e-01,-3.67826e-02,-1.36386e-01,9.47004e-02,5.86865e-02,-3.96243e-01,-2.02874e-01,-1.19909e-01,-6.83845e-02,1.89909e-02,2.01998e-01,-1.37737e-02,-2.81326e-01,-4.84668e-01,-3.90656e-02,-2.20976e-01,-6.43433e-02,-1.57246e-01,-1.37456e-02,4.45395e-02,2.53754e-02,-1.43778e-02,-6.35169e-02,-7.58087e-01,-5.55900e-01,-2.25483e-01,-3.69279e-01,-8.99458e-03,2.15688e-01,1.72362e-01,8.40930e-02,6.94188e-02,1.56494e-01,-8.71041e-02,-2.78443e-01,-2.70078e-02,-1.44388e-01,5.92988e-02,1.20148e-01,7.69670e-02,-2.35849e-01,-3.14316e-01,-1.49138e-02,-1.49903e-01,-1.92719e-01,-5.49801e-02,-3.13827e-01,1.49532e-02,-1.84853e-02,1.02105e-02,-8.19941e-02,-4.81808e-01,-5.20476e-01,-1.10823e-01,-5.44553e-02,3.99846e-01,4.52658e-01,2.77865e-01,8.42745e-02,-3.12341e-02,-1.40913e-01,-2.91071e-01,-1.36404e-01,3.92659e-02,-1.19951e-03,-6.11296e-02,1.69379e-01,3.38940e-01,-3.08744e-01,-3.04470e-01,-4.28106e-02,3.58554e-02,-2.48264e-01,-1.97840e-01,-2.92968e-01,-3.73180e-02,1.70345e-02,1.56626e-02,-5.96733e-02,-2.57107e-01,-3.83788e-01,-4.23704e-01,-1.82209e-01,3.10309e-01,3.39049e-01,3.11000e-01,1.56403e-01,-1.30265e-01,-2.13956e-01,-4.58186e-01,-4.71550e-02,-1.41937e-01,-2.55032e-02,7.63134e-02,3.96519e-01,3.91213e-01,-4.56539e-01,-1.07053e-01,1.73151e-01,1.11306e-01,-4.87732e-01,-2.18427e-01,-1.47910e-02,2.06310e-03,2.19690e-02,1.91444e-02,2.69729e-01,9.33280e-02,-1.51596e-01,-1.32616e-01,-2.26081e-01,-6.80396e-02,-1.31459e-01,1.61535e-01,2.47365e-01,-4.43283e-02,-9.57220e-02,-1.56872e-01,5.93415e-02,1.24158e-01,2.97182e-01,9.14887e-02,1.13868e-01,1.65948e-01,1.61894e-01,1.86314e-01,1.44793e-01,2.47463e-01,-3.06119e-01,-8.70543e-02,1.09938e-02,1.87181e-02,1.47407e-02,-2.22829e-02,-8.70993e-03,1.62566e-02,-1.45235e-01,-4.21165e-01,-2.81998e-01,-1.25036e-01,-2.26827e-01,-3.16241e-01,-3.88019e-01,-8.45731e-02,-1.94633e-01,-2.17394e-01,8.31334e-02,7.19976e-02,1.41243e-03,8.48084e-02,-2.13164e-01,-4.53874e-01,-1.38458e-01,4.91036e-01,2.02932e-01,6.01512e-01,1.36620e-02,4.05123e-02,-2.29514e-02,-4.53067e-03,-7.11203e-03,-7.16691e-04,3.24858e-02,-6.43823e-02,-6.79375e-03,-2.96208e-01,-1.51955e-01,-1.68656e-02,-1.39486e-01,-4.53809e-01,-4.82692e-01,-1.85504e-01,-3.13194e-01,-7.94255e-01,-2.16512e-01,1.29970e-01,-6.84841e-02,1.11178e-01,1.33867e-01,1.15034e-01,-3.36861e-02,-1.27194e-01,-2.09942e-01,3.73540e-02,9.47406e-02,1.04708e-02,2.46944e-02,1.62912e-02,1.65702e-02,8.09078e-03,-5.57613e-03,-2.20476e-02,5.08345e-02,1.08442e-01,4.22145e-02,-2.45439e-01,-2.35623e-01,-2.02519e-01,-2.48275e-01,-2.72529e-01,-4.96850e-01,-4.29690e-01,-3.95091e-01,2.35776e-01,1.32583e-01,-5.08949e-02,3.00761e-01,-9.93621e-02,-2.70204e-01,-1.22666e-01,-1.55546e-01,-5.79140e-02,-4.40812e-03,1.56102e-03,-1.89490e-02,1.14053e-02,
-1.18890e-02,-6.08922e-03,2.38919e-02,-3.00513e-03,3.45001e-02,2.62618e-04,-1.20532e-02,2.27150e-02,-3.02616e-02,-1.49476e-02,-2.28773e-02,-7.55369e-03,1.31296e-01,1.37836e-01,6.95298e-02,4.60827e-02,1.43586e-02,-1.04577e-02,-2.37948e-02,-1.26603e-02,-2.92355e-02,2.95597e-02,1.06977e-02,-1.35582e-02,-2.77523e-02,3.50309e-02,1.64453e-02,-1.29287e-02,8.73835e-03,-3.30812e-02,-3.18878e-02,7.61558e-03,-7.28026e-03,-3.69463e-02,2.07704e-02,6.51805e-02,2.03994e-02,1.71516e-02,1.20495e-01,1.77777e-01,2.52044e-01,3.97297e-01,6.43720e-02,-2.60807e-01,-1.32162e-01,-1.08235e-01,1.68837e-01,1.50915e-01,1.52601e-01,3.10181e-02,6.58863e-02,2.88515e-02,1.94663e-02,-1.38506e-02,-1.08708e-02,1.56175e-02,-1.84589e-02,8.08143e-03,7.37977e-02,-3.60329e-03,8.43937e-02,1.06612e-01,5.74008e-02,1.99260e-01,3.66794e-01,2.64235e-01,4.45192e-01,6.39134e-01,-2.27543e-01,-8.38717e-01,-3.15062e-01,-1.25044e-01,-2.22628e-01,-2.35367e-01,-3.42622e-02,1.42057e-01,1.52597e-01,1.47570e-01,1.68631e-01,1.41466e-01,3.07816e-02,-2.48128e-02,-6.99548e-03,8.30460e-03,-3.08958e-02,3.18118e-02,1.93410e-01,2.64244e-01,4.98643e-02,8.37745e-02,2.48457e-01,6.31710e-02,2.21850e-01,1.71768e-01,9.88653e-02,1.62413e-01,-1.59105e-01,-1.27429e-01,-5.28554e-01,-4.42218e-01,-4.21985e-01,-9.01875e-01,-1.23578e+00,-1.00853e+00,-7.71276e-01,-6.45078e-01,-2.89663e-01,-4.01275e-01,1.99799e-01,1.14834e-01,8.93616e-02,1.95419e-02,-1.90624e-02,-7.20780e-03,2.83422e-01,-2.85559e-01,-2.37644e-01,7.48948e-02,-1.45362e-01,-2.33310e-01,1.67023e-01,1.59943e-01,1.63285e-01,-4.85190e-02,-4.57565e-02,1.37437e-01,-4.49961e-02,-2.35699e-01,-9.70981e-02,-1.99469e-01,-8.26063e-01,-5.97464e-01,-5.64473e-01,-4.37307e-01,-5.51247e-01,-3.95328e-01,2.03061e-01,3.35503e-01,4.62889e-01,2.60412e-01,-2.25919e-02,2.65017e-02,2.60705e-01,-2.04709e-02,1.49560e-01,-3.61261e-02,-1.44928e-02,-8.19446e-02,6.44054e-02,3.98502e-02,6.83263e-03,8.96329e-02,3.32193e-01,3.07712e-01,8.61554e-02,1.74937e-01,3.79268e-02,-1.08303e-01,-2.23679e-01,-4.87723e-01,-3.75324e-01,-2.06214e-01,-6.70170e-02,3.15083e-01,3.76821e-01,4.67052e-01,8.16936e-02,1.06342e-01,2.72393e-04,-2.17135e-02,2.80173e-01,-2.46647e-01,-2.77338e-01,-4.93329e-01,-3.28997e-01,1.63089e-01,2.15650e-02,-2.32041e-03,-1.74485e-02,2.17622e-01,1.06255e-01,1.30145e-01,-1.19676e-02,1.08984e-01,3.99797e-02,1.33305e-01,-2.19316e-01,-3.48039e-01,-2.21068e-01,8.69604e-02,-2.01459e-01,6.73013e-02,-1.89162e-01,1.85008e-01,-7.82476e-02,3.85797e-02,-2.30471e-02,1.29092e-01,9.92290e-02,-1.90860e-02,-2.53198e-01,-2.89351e-01,-2.38470e-01,-2.42818e-01,6.26322e-02,-6.79834e-02,-7.54207e-02,2.65095e-02,8.28489e-02,1.69505e-01,-2.38298e-02,6.05910e-02,1.30588e-01,1.00986e-01,1.08132e-01,-2.43049e-01,-2.79031e-01,1.69602e-01,5.94679e-02,5.24629e-02,1.16553e-01,2.12246e-01,1.57423e-01,-5.89741e-03,-2.36288e-01,2.13328e-01,-1.39878e-01,-1.00942e-01,-2.29307e-01,1.88720e-01,3.13476e-02,6.99501e-02,2.18118e-01,7.17486e-02,-3.20603e-02,-7.16337e-02,-1.37374e-01,-1.41974e-02,1.04332e-01,3.01241e-01,1.30313e-01,2.28396e-01,-6.59068e-02,-2.35304e-01,-2.06175e-01,-1.13855e-02,-7.55035e-02,-2.36624e-02,-8.11437e-02,4.69611e-02,3.94310e-01,-1.88961e-01,7.10851e-02,3.87852e-02,-7.78234e-02,1.52948e-01,-4.67588e-01,2.89681e-01,1.03649e-01,-6.19150e-02,-1.32227e-02,-2.25137e-01,-2.43535e-01,-1.89091e-01,-1.91049e-01,-1.90961e-01,1.07632e-02,2.12371e-01,1.98505e-01,3.35209e-01,-4.81470e-02,-2.30413e-02,-3.24112e-02,1.89234e-02,-8.39032e-02,9.27400e-02,9.95338e-02,7.95365e-02,2.04330e-01,1.18827e-01,9.65595e-02,-5.30519e-02,-4.07157e-02,1.40740e-01,-3.10752e-01,2.65882e-01,4.32713e-01,5.67910e-02,-1.57958e-01,-3.04339e-01,-1.56675e-01,-1.59034e-01,-1.98958e-01,-1.50385e-01,-3.59209e-02,2.21706e-02,1.35268e-01,1.22748e-01,-8.75548e-02,-1.87448e-01,-1.17926e-01,3.23223e-02,-4.07642e-02,-1.84716e-02,-1.40871e-02,2.75173e-02,-9.06058e-02,5.16132e-01,-1.85713e-02,-2.76457e-01,1.74095e-01,4.50323e-01,4.35143e-02,2.40385e-01,2.76732e-01,2.24103e-01,3.82324e-02,-3.27260e-02,-9.79399e-02,2.23212e-01,1.58637e-01,6.61070e-02,2.29136e-02,-7.24766e-02,-3.63155e-01,-1.34001e-01,-2.07329e-01,1.84277e-02,4.82213e-01,3.38867e-01,2.61168e-01,-6.43123e-02,-1.35831e-01,-2.12715e-01,-1.21796e-01,3.76556e-01,-2.80256e-02,-2.27092e-01,2.40746e-01,2.40076e-01,1.43973e-01,3.02700e-01,1.07353e-01,2.86048e-02,-2.69626e-01,-1.03731e-01,-1.61983e-01,-8.85586e-02,1.74629e-02,-5.04562e-02,-1.41949e-01,-1.40658e-01,-1.69304e-01,1.16212e-01,-2.00523e-02,3.95363e-01,6.21512e-01,4.91857e-01,-2.90721e-02,-1.44638e-01,-3.52068e-02,-5.35130e-01,-7.34761e-01,1.74989e-01,-1.40429e-01,-1.43698e-01,-4.62737e-02,4.36781e-01,1.20681e-01,2.91868e-01,6.42709e-02,-3.11795e-02,-2.67661e-01,-6.15376e-02,-1.22576e-01,-1.74939e-01,-2.80476e-01,-3.70955e-02,-6.73306e-02,1.46687e-02,2.35701e-01,2.90480e-01,2.37494e-01,5.10703e-01,4.47488e-01,3.29358e-01,2.65465e-01,2.55363e-01,-4.00572e-01,-3.67225e-01,-4.88511e-01,2.72041e-01,-4.77334e-02,-9.17641e-02,-3.41887e-01,6.71468e-01,-1.63784e-02,-7.63573e-02,6.38622e-02,1.39858e-02,-4.08104e-01,-3.70576e-01,-1.28114e-01,-7.93710e-02,5.54333e-02,3.42560e-02,-1.55026e-01,-1.36339e-02,1.02438e-01,7.48487e-02,2.83479e-01,4.04861e-01,6.41846e-02,-2.96446e-02,2.35575e-02,1.27520e-02,-5.10867e-01,-5.33108e-01,1.19254e-01,1.90774e-01,-6.35520e-02,-5.07651e-02,-5.09042e-01,1.44328e-01,-1.15839e-01,-1.11229e-01,-1.42420e-01,-1.19127e-01,-1.96811e-01,-1.75782e-01,-5.09141e-02,2.40192e-01,1.88229e-01,1.13941e-01,-1.82159e-02,1.47700e-01,3.90148e-01,2.77326e-01,8.56467e-02,1.01956e-01,1.67129e-01,-7.94908e-02,-1.77373e-01,-3.40269e-01,-1.02083e-01,1.97816e-02,8.63978e-02,-3.57481e-02,-1.31873e-02,-1.74539e-02,-1.73849e-01,1.53745e-02,3.44650e-01,-1.53518e-01,-3.64341e-01,-3.72130e-01,-1.26173e-01,-3.01059e-01,2.86601e-02,3.67926e-01,3.94985e-01,2.34938e-01,1.35206e-01,9.94756e-02,2.37623e-01,2.08089e-01,1.93200e-01,8.91525e-02,1.31510e-01,-1.77345e-01,-3.40374e-01,4.87308e-02,3.62713e-02,-4.54255e-02,-1.30512e-01,-7.00563e-02,-1.59915e-02,-6.21791e-03,2.88168e-01,3.26383e-01,2.78766e-02,-1.34793e-01,-4.40627e-01,-3.79067e-01,-1.74856e-01,-1.96684e-01,1.71428e-01,1.95102e-01,3.50624e-01,3.09569e-01,7.12383e-02,-8.28022e-02,2.93349e-02,-4.47223e-02,1.26841e-01,2.80813e-02,-4.92555e-02,-1.53036e-01,-7.76297e-02,-2.01306e-01,2.48031e-01,4.77394e-01,-3.63019e-01,2.11169e-01,2.21239e-01,8.08328e-03,1.29292e-01,5.06651e-01,-3.23199e-02,-2.55912e-01,-2.54615e-01,-3.68784e-01,-5.74670e-01,-2.44448e-01,7.20294e-02,2.47056e-01,4.62528e-01,3.47892e-01,2.26663e-02,-1.70666e-03,-2.04186e-01,-6.57647e-02,7.89500e-02,-8.20132e-02,-7.78191e-02,-3.02834e-01,-5.69060e-03,-1.99525e-01,-3.93702e-02,3.51173e-01,-1.53565e-01,-3.17000e-01,-2.84878e-02,-4.29668e-02,-3.09906e-01,-3.31256e-01,-2.14255e-01,-1.95090e-01,-4.99046e-01,-2.69204e-01,-2.97314e-01,-1.86270e-01,7.68760e-02,2.29169e-01,3.62209e-01,2.95696e-01,1.42884e-02,-6.00906e-02,-1.36175e-01,2.82096e-02,-8.12922e-02,2.51395e-02,-8.61693e-02,-3.76731e-01,-1.52601e-01,-1.58087e-01,-1.31894e-01,-3.61722e-02,3.67714e-01,-4.92556e-01,1.50639e-02,-3.29780e-01,-2.39623e-01,-3.22140e-01,-9.36355e-01,-5.94033e-01,-6.58564e-01,1.02548e-01,7.73430e-02,-7.95492e-02,-3.45627e-02,2.12388e-01,5.50722e-01,2.14858e-01,7.06227e-02,1.32086e-01,-5.12439e-02,-1.26846e-01,-1.27254e-01,-1.22472e-01,5.01271e-02,-1.23801e-02,-2.04327e-02,-3.45745e-01,-3.51203e-02,9.02798e-02,4.81451e-01,-4.63848e-02,-6.29736e-02,-3.03200e-02,-2.27601e-01,-3.79474e-01,-5.81756e-01,-4.83889e-01,-4.53394e-01,-1.13735e-01,-1.49907e-01,-1.02793e-02,4.48036e-03,1.81244e-02,3.21692e-01,7.84542e-02,3.88572e-02,7.96613e-03,-2.29882e-02,-2.28897e-01,-7.02630e-02,-3.28591e-03,-1.97348e-01,-5.33336e-02,3.85438e-02,1.42573e-01,1.15110e-01,-1.09865e-01,5.79901e-01,-1.56841e-03,-6.96642e-03,-5.94560e-02,-3.30525e-01,-7.62328e-01,-6.44681e-01,-8.26164e-01,-5.84511e-01,8.88536e-03,-1.07439e-01,-1.37578e-02,-8.49574e-02,-1.78915e-01,2.66163e-02,5.63304e-02,4.16170e-02,-3.46565e-03,-1.28263e-01,-1.94091e-01,6.96128e-02,-9.12191e-02,1.76894e-01,1.37785e-01,2.68892e-01,2.86819e-01,3.99912e-01,-1.91373e-01,-3.15790e-01,1.39257e-02,-2.69284e-02,9.62856e-03,-1.30501e-01,-8.95656e-01,-6.81554e-01,-3.74720e-01,4.28957e-03,-2.84604e-01,-1.47332e-01,6.68044e-02,1.11580e-01,2.54183e-01,1.51846e-01,1.92794e-01,4.81053e-02,-2.11489e-01,-9.39430e-02,1.35802e-01,1.00226e-01,5.01625e-02,3.41512e-01,1.70022e-01,6.59616e-01,4.69911e-01,3.37808e-01,-2.86711e-02,-5.68064e-01,8.90379e-03,2.03346e-02,2.75896e-02,1.39557e-01,-4.66630e-01,-4.28118e-01,-3.63716e-01,1.93384e-01,-6.04012e-01,-5.57833e-01,-5.41647e-01,-1.90698e-01,2.37290e-01,8.33929e-02,1.20971e-01,6.37022e-02,6.16931e-02,4.14086e-02,-2.75916e-01,3.13987e-03,3.55966e-01,2.85747e-01,1.47913e-01,3.77816e-01,2.87398e-01,3.56443e-01,5.06926e-01,-3.57464e-02,2.39102e-02,2.24599e-02,-1.48375e-02,-7.50849e-02,8.39286e-02,-1.92677e-01,-3.54641e-01,-1.09822e-02,-5.34129e-01,-5.09750e-01,-3.02822e-01,-1.08773e-01,-1.94734e-01,-1.72620e-01,-1.64460e-01,1.20229e-01,7.27621e-02,-4.07761e-01,-2.88944e-01,-6.75010e-02,-8.22360e-02,-1.55916e-01,-3.01194e-01,-4.45815e-01,-1.55563e-01,-1.39043e-01,-6.66841e-02,-8.57208e-03,1.88931e-03,-1.91109e-02,-2.94910e-02,-2.47314e-02,2.47127e-01,-6.60301e-01,-8.35399e-01,-6.42691e-01,-1.84512e-02,5.09847e-01,2.76457e-01,4.21949e-01,-1.34904e-01,-2.38094e-01,-4.27050e-01,-5.45425e-02,-5.30919e-01,8.68473e-02,1.30312e-01,3.92710e-01,2.56015e-01,3.63456e-01,4.23200e-01,-1.08111e-01,3.56672e-01,3.26014e-01,4.81390e-02,2.11057e-02,1.77002e-02,-6.43365e-03,-6.27271e-04,-1.10161e-02,-1.20067e-02,3.93720e-03,7.85505e-02,1.95419e-01,2.54186e-01,1.21710e-01,3.05697e-01,5.92944e-01,4.36161e-01,-1.31890e-01,-1.16954e-02,9.31053e-02,-2.08741e-01,7.36622e-02,-4.44506e-01,-2.82495e-02,3.00085e-01,8.21375e-02,-1.88593e-01,1.06345e-02,-1.78335e-02,-3.19776e-02,-1.61576e-02,2.49748e-02,-1.61815e-02,
-1.30436e-03,-1.97935e-02,-2.07518e-02,-3.18353e-02,-3.31139e-02,-1.55277e-02,2.20111e-04,-2.50771e-03,3.17502e-02,1.15532e-02,-2.19099e-02,-2.35391e-02,-1.96742e-02,1.65783e-03,-8.96110e-03,2.29286e-04,-1.37784e-02,4.36715e-03,-9.50302e-04,6.19526e-03,-2.77281e-02,8.68710e-03,2.14182e-02,-8.08532e-03,-3.32197e-02,7.24445e-03,-2.11540e-02,-2.77053e-03,-1.23742e-02,1.43346e-02,-1.59067e-02,-3.52235e-02,-1.88174e-02,-1.06683e-02,5.92107e-03,4.41395e-02,1.09560e-02,5.82535e-02,-2.62175e-02,-1.64505e-02,-4.38567e-02,-1.79949e-01,-2.40373e-01,1.22617e-01,3.40480e-01,4.12095e-01,4.74152e-01,5.08508e-01,6.17283e-01,4.35759e-01,2.62346e-01,1.38892e-01,-8.49602e-03,1.39999e-02,4.80273e-04,1.69587e-03,-1.75617e-02,1.04165e-02,1.44819e-01,3.30536e-02,1.99309e-01,1.73166e-01,2.89829e-02,1.02265e-01,1.01332e-01,-2.21078e-01,-3.06400e-01,-1.74788e-01,-4.87727e-01,-4.03157e-01,-1.02992e-01,-1.82603e-02,1.47566e-01,6.53751e-02,3.66146e-01,8.16131e-01,6.20662e-01,6.72777e-01,5.25838e-01,2.69392e-01,-1.39474e-02,-5.85548e-02,2.20237e-03,8.13112e-03,-2.25739e-02,3.13636e-02,-4.95406e-01,-3.82367e-01,-9.46960e-02,4.15100e-01,3.12431e-01,1.48663e-01,-1.29691e-02,1.35893e-01,-3.51731e-02,-1.72567e-01,-4.22297e-01,-2.20128e-01,1.68303e-01,4.11231e-02,4.42777e-02,2.66262e-01,2.02629e-01,2.08280e-01,-6.90961e-02,2.89638e-01,1.44285e-01,3.38500e-01,-8.35150e-02,-6.37258e-01,-2.50006e-01,1.77533e-02,7.77498e-03,2.61868e-02,-5.72403e-01,-6.81995e-01,-3.33432e-01,3.29169e-01,1.21616e-01,-3.42949e-02,-4.79516e-01,1.10827e-01,1.28762e-01,-4.26479e-01,-4.76408e-01,-3.95684e-01,-2.91335e-01,-2.39099e-01,1.37928e-01,2.26833e-01,1.73990e-01,3.32329e-01,5.12683e-02,1.14627e-01,5.38369e-03,-2.91761e-01,-2.47841e-01,-5.42446e-01,-4.06130e-01,6.57908e-01,-2.42070e-02,2.77013e-02,-4.06308e-01,-1.48039e-01,2.80286e-01,1.93652e-01,6.79506e-02,-2.57024e-01,-1.44837e-01,2.72140e-01,1.75178e-01,-1.36676e-01,-4.45849e-01,-3.29571e-02,2.79010e-01,1.27794e-01,-3.05281e-02,1.29991e-01,3.56390e-01,3.34515e-01,1.31991e-01,9.35642e-02,-1.41320e-01,2.21436e-01,-2.68769e-02,-3.83472e-01,2.84295e-01,3.55857e-01,-2.18704e-02,-9.24500e-02,-1.37000e-02,5.78898e-01,2.38897e-01,1.04281e-01,-4.00292e-01,-2.57303e-01,-1.06647e-01,-1.04962e-01,-8.14068e-02,-4.52641e-01,-2.37799e-01,1.89341e-01,3.20736e-01,3.60076e-01,6.10026e-03,9.98190e-02,6.02393e-02,2.97994e-02,-1.32642e-03,2.89561e-02,-1.73581e-01,-1.50205e-01,-7.81052e-02,2.77054e-02,9.15545e-02,4.27257e-01,-1.46123e-02,-1.87840e-01,-1.48143e-01,2.63131e-01,-2.86660e-01,-1.71661e-01,-4.61054e-01,-1.61602e-01,-8.52309e-02,-9.36541e-02,-3.47898e-01,-4.07584e-01,-2.53950e-01,9.69711e-02,2.79093e-01,9.96007e-02,-2.96055e-01,-1.23027e-01,5.33032e-02,-2.51132e-01,-8.29643e-02,-7.56520e-02,-1.70639e-02,-1.79786e-01,-2.56862e-01,-2.79740e-01,9.72719e-02,8.11929e-01,-9.57232e-03,-8.16978e-02,-1.23695e-01,-2.22085e-01,-4.20565e-01,2.54815e-02,1.33014e-01,-1.12269e-01,5.64297e-03,-1.86737e-01,-5.18623e-01,-1.33206e-01,1.11666e-01,3.39873e-01,2.18082e-01,-1.20173e-01,-2.22617e-01,-2.61027e-01,-3.33574e-01,-2.42845e-01,5.71898e-02,-2.95933e-02,-2.48784e-01,-1.05033e-01,-1.45061e-01,-3.09987e-02,-4.70279e-02,-3.08559e-01,-5.04037e-02,-1.79453e-02,-1.45807e-01,-1.47558e-01,-1.67921e-01,1.54875e-02,5.71640e-02,5.15228e-02,-2.72753e-01,-2.41886e-01,-3.64621e-01,-3.35222e-02,1.15788e-01,2.88007e-01,2.32663e-01,-5.93703e-02,-2.20762e-01,-4.45377e-01,-2.51352e-01,-2.99544e-02,-2.75361e-02,8.23976e-02,-3.33186e-01,-1.40447e-01,-2.51381e-01,-5.03217e-01,-5.89870e-01,-4.87488e-01,-8.01871e-03,-1.95058e-02,2.65256e-01,4.55659e-02,-6.50341e-02,-6.01407e-02,3.91338e-02,8.39655e-02,-3.49698e-01,-1.58773e-01,-4.50359e-01,1.67529e-02,-3.42313e-03,3.13701e-01,3.09179e-01,3.17340e-02,-2.75803e-01,-1.65438e-02,1.96825e-01,3.28817e-02,1.55218e-01,1.43992e-01,-2.11495e-01,-7.33200e-02,-2.60953e-01,-3.11813e-01,-6.57532e-01,-5.38328e-01,1.05246e-02,2.87694e-02,2.67944e-01,2.49676e-01,-3.03039e-01,-3.48652e-02,1.43937e-01,3.17257e-01,-3.07951e-02,1.37280e-01,-2.76644e-01,-1.49193e-01,8.73248e-02,2.97193e-01,2.25975e-01,-2.92592e-01,-4.56701e-01,-2.69456e-01,-4.91790e-02,4.98973e-02,4.00425e-01,2.83111e-01,-2.72204e-01,-1.81340e-01,-2.23863e-01,-8.66610e-01,-6.73465e-01,-3.69728e-01,3.47173e-03,2.64461e-01,2.63275e-01,1.00225e-01,-1.07444e-01,-1.34379e-01,4.31265e-02,-7.96831e-02,4.97751e-02,7.77093e-03,-1.63623e-01,-4.17169e-02,1.66460e-01,3.44488e-01,8.54694e-02,-2.11326e-01,-6.03477e-02,-1.72765e-01,-3.57296e-01,-2.36628e-01,2.36182e-01,-1.11628e-01,6.80420e-03,3.03685e-01,-1.96060e-01,-5.87538e-01,1.59832e-01,-2.30050e-01,3.14367e-02,4.04347e-01,3.50626e-02,-1.25745e-01,1.38319e-02,4.44290e-02,3.15708e-01,-2.47555e-01,-3.70089e-01,-1.15028e-01,-2.92250e-02,9.70525e-02,3.07793e-01,2.85905e-01,-8.74811e-02,-1.89160e-01,1.05877e-02,-1.52087e-01,-1.66579e-01,-2.39348e-01,-2.48743e-01,-2.52775e-01,-1.13517e-01,6.76171e-02,-6.16633e-02,-4.22825e-01,-1.97127e-01,-1.03153e-01,2.37094e-02,5.30490e-02,4.54917e-02,-1.33805e-01,1.88899e-01,1.70492e-02,-1.05129e-01,-2.03591e-01,-3.03364e-01,-1.23550e-01,1.39587e-01,4.88607e-01,4.01569e-01,4.08455e-02,-4.57630e-01,-2.43666e-01,-1.39160e-01,-3.38081e-01,-1.87098e-01,-1.77580e-01,-1.12207e-01,-3.19592e-02,-4.49344e-02,-1.58483e-01,-2.74916e-01,-5.80518e-01,-5.51039e-01,7.69671e-02,8.23024e-02,1.03942e-02,-4.24971e-02,-1.20922e-01,-5.57650e-04,-4.12733e-01,-3.94828e-01,2.49505e-01,-2.84746e-01,-7.21107e-02,1.01542e-01,2.53809e-01,6.02842e-01,-3.38288e-01,-4.85883e-01,-8.72235e-02,1.82567e-02,-1.66518e-01,-1.60415e-01,-6.47100e-02,3.09303e-02,6.38127e-02,-3.09880e-01,-1.16120e-01,-3.44272e-01,-6.13582e-01,-6.00393e-01,-2.50260e-01,-3.35677e-02,-8.77778e-02,-3.97985e-02,-5.50999e-02,1.95011e-02,-5.29022e-01,-7.54734e-01,-4.17336e-02,3.31022e-02,2.16172e-01,2.62780e-01,5.52908e-01,3.57915e-01,-4.57308e-01,-4.20573e-01,7.48652e-02,1.41239e-01,8.10188e-02,-9.01228e-02,-6.85140e-03,6.59934e-02,-1.55042e-01,-1.69452e-01,-2.86576e-01,-4.15718e-01,-4.28902e-01,-3.46588e-01,-2.15839e-01,7.10257e-03,-1.01759e-01,-8.32195e-02,4.75437e-02,-5.64945e-02,-6.21262e-01,-7.22177e-01,-1.13902e-01,6.48082e-02,2.92894e-01,7.18009e-01,3.86733e-01,1.57451e-01,-5.59946e-01,-3.35741e-01,8.79525e-02,1.46874e-01,2.49618e-01,-5.88161e-03,1.00983e-01,1.07701e-01,-6.23611e-02,1.89403e-01,6.70301e-03,-2.09026e-01,-6.54696e-01,-4.77604e-01,-8.33856e-02,-1.86241e-01,-5.52312e-02,-1.84332e-01,-3.45564e-01,-2.71471e-01,-4.79238e-01,-5.67297e-01,5.65685e-02,6.64004e-02,4.05145e-01,3.49085e-01,1.48595e-01,6.41495e-02,-6.16440e-01,-3.03644e-01,2.53647e-01,2.76076e-01,2.41626e-02,-2.08601e-01,-1.72909e-02,-4.86555e-02,1.46301e-01,2.08348e-02,1.14055e-02,-2.15838e-01,-3.04101e-01,-5.75100e-01,5.26533e-02,-2.78059e-02,5.68673e-01,3.82784e-01,-3.66897e-01,1.95529e-01,-1.57492e-02,-3.54355e-01,-3.63661e-02,1.48543e-01,2.76164e-01,3.16870e-01,5.72728e-02,-2.57416e-01,-3.78012e-01,-2.61930e-01,8.73786e-02,3.64746e-01,-2.24011e-01,-2.06626e-01,3.22900e-02,7.37629e-02,1.27680e-01,1.02503e-02,2.68146e-01,6.36279e-02,-5.56514e-02,-4.69828e-01,5.92413e-02,2.26536e-02,5.89943e-01,2.96407e-01,-5.54001e-01,2.32700e-01,1.42175e-01,8.18221e-02,6.91850e-02,2.30274e-01,2.72667e-01,2.28515e-01,9.77832e-02,-9.91995e-03,-1.59179e-01,-1.47404e-01,-1.40607e-01,-2.74897e-01,-1.94375e-01,1.44653e-02,9.92474e-03,4.40110e-03,8.06851e-03,-1.59942e-02,2.43463e-01,6.11730e-02,-1.19225e-01,-4.60413e-01,1.32488e-02,-3.84427e-02,-9.71052e-02,4.32443e-02,-9.01989e-02,1.53639e-01,6.54693e-02,1.25866e-01,5.08632e-02,1.23823e-01,2.32392e-01,1.28460e-01,1.30152e-01,1.11767e-01,1.29217e-01,-1.18681e-01,-2.05733e-01,-8.27556e-02,5.22914e-02,5.61577e-02,-1.74317e-03,9.11652e-02,3.22989e-02,1.23828e-01,4.19966e-01,4.81035e-01,1.05098e-01,1.95565e-01,2.08664e-02,1.59558e-02,-7.53275e-02,2.68216e-01,3.31835e-01,-5.75774e-02,-2.54982e-01,-7.08754e-02,-5.93225e-02,-1.97280e-01,-4.33748e-02,1.37878e-01,1.28911e-01,3.67821e-01,1.77638e-01,-9.16056e-02,1.65941e-01,3.89783e-01,3.73400e-02,-1.14191e-01,1.48502e-01,1.16657e-01,2.74773e-01,-3.16676e-02,3.06980e-01,5.20263e-01,-7.44356e-02,-1.47621e-01,6.37874e-02,3.36768e-02,2.46829e-03,5.46423e-02,4.09007e-01,-6.19267e-02,1.67987e-02,1.02779e-01,-9.87999e-02,2.16876e-02,1.49468e-01,-3.76070e-02,-2.72129e-02,4.00952e-02,6.73264e-02,-4.18778e-03,9.98851e-02,-2.08043e-01,-2.29255e-01,2.17772e-02,4.15575e-01,3.29751e-01,5.80360e-02,8.04011e-02,2.49924e-01,6.38275e-01,-5.36590e-02,-2.17376e-01,-2.44110e-02,3.32512e-02,1.10715e-02,1.12314e-02,1.18878e-02,1.04930e-01,4.65446e-01,4.56957e-01,4.66573e-02,-1.76143e-01,-2.62503e-02,-1.25478e-02,1.18674e-01,1.86916e-01,1.65028e-01,1.01945e-01,-9.75585e-02,3.10636e-01,1.81090e-02,4.53506e-01,6.86056e-01,6.92629e-01,3.98599e-01,3.00629e-01,4.09602e-01,6.49174e-01,1.17771e-01,1.18118e-01,3.16249e-02,-2.31998e-03,1.17875e-02,-1.71596e-02,-1.86347e-01,-5.98165e-01,-1.85364e-01,-4.53955e-04,2.21984e-02,-7.49743e-03,2.60976e-01,4.92655e-01,9.26152e-01,3.80769e-01,-2.00738e-01,-6.00507e-01,-7.21901e-01,-5.43839e-01,-4.91879e-01,-3.16945e-01,-8.94752e-02,-4.59022e-01,-1.73843e-01,4.39024e-01,7.81506e-01,7.35827e-01,9.61926e-02,1.64985e-01,3.00261e-02,-1.20105e-02,-1.52646e-02,-1.19963e-02,-5.03242e-02,-4.24640e-02,-4.77035e-02,6.62123e-03,3.40516e-01,5.67511e-01,3.03615e-01,4.64106e-01,4.06858e-01,-4.41463e-01,1.49488e-01,2.85296e-02,-2.15937e-01,2.00532e-01,-1.16139e-01,4.34863e-01,4.89154e-01,-6.74767e-01,-8.13033e-01,1.04649e-01,-1.10711e-01,-1.55409e-01,1.07319e-02,-9.02076e-03,1.67487e-02,2.92701e-02,2.46684e-02,-2.72191e-02,-7.57337e-03,-4.73707e-03,-4.63809e-03,-2.07894e-02,-1.53378e-03,-1.58325e-02,2.79598e-03,-1.72985e-01,-1.98877e-01,-9.46316e-02,-9.06297e-02,-4.39758e-02,-9.64173e-02,-1.23254e-01,-6.56156e-02,-5.03398e-02,1.26149e-02,5.80793e-03,3.66488e-03,5.64337e-02,3.47863e-02,2.74804e-02,-1.23231e-02,-9.13387e-03,-2.22384e-02,
