// Neural Network File Format by Kyle Julian, Stanford 2016
6,784,10,784,
784,80,80,80,80,80,10,
0,
-3.4028235e+38,-3.4028235e+38,-3.4028235e+38,-3.4028235e+38,-3.4028235e+38,-3.4028235e+38,-3.4028235e+38,-3.4028235e+38,-3.4028235e+38,-3.4028235e+38,-3.4028235e+38,-3.4028235e+38,-3.4028235e+38,-3.4028235e+38,-3.4028235e+38,-3.4028235e+38,-3.4028235e+38,-3.4028235e+38,-3.4028235e+38,-3.4028235e+38,-3.4028235e+38,-3.4028235e+38,-3.4028235e+38,-3.4028235e+38,-3.4028235e+38,-3.4028235e+38,-3.4028235e+38,-3.4028235e+38,-3.4028235e+38,-3.4028235e+38,-3.4028235e+38,-3.4028235e+38,-3.4028235e+38,-3.4028235e+38,-3.4028235e+38,-3.4028235e+38,-3.4028235e+38,-3.4028235e+38,-3.4028235e+38,-3.4028235e+38,-3.4028235e+38,-3.4028235e+38,-3.4028235e+38,-3.4028235e+38,-3.4028235e+38,-3.4028235e+38,-3.4028235e+38,-3.4028235e+38,-3.4028235e+38,-3.4028235e+38,-3.4028235e+38,-3.4028235e+38,-3.4028235e+38,-3.4028235e+38,-3.4028235e+38,-3.4028235e+38,-3.4028235e+38,-3.4028235e+38,-3.4028235e+38,-3.4028235e+38,-3.4028235e+38,-3.4028235e+38,-3.4028235e+38,-3.4028235e+38,-3.4028235e+38,-3.4028235e+38,-3.4028235e+38,-3.4028235e+38,-3.4028235e+38,-3.4028235e+38,-3.4028235e+38,-3.4028235e+38,-3.4028235e+38,-3.4028235e+38,-3.4028235e+38,-3.4028235e+38,-3.4028235e+38,-3.4028235e+38,-3.4028235e+38,-3.4028235e+38,-3.4028235e+38,-3.4028235e+38,-3.4028235e+38,-3.4028235e+38,-3.4028235e+38,-3.4028235e+38,-3.4028235e+38,-3.4028235e+38,-3.4028235e+38,-3.4028235e+38,-3.4028235e+38,-3.4028235e+38,-3.4028235e+38,-3.4028235e+38,-3.4028235e+38,-3.4028235e+38,-3.4028235e+38,-3.4028235e+38,-3.4028235e+38,-3.4028235e+38,-3.4028235e+38,-3.4028235e+38,-3.4028235e+38,-3.4028235e+38,-3.4028235e+38,-3.4028235e+38,-3.4028235e+38,-3.4028235e+38,-3.4028235e+38,-3.4028235e+38,-3.4028235e+38,-3.4028235e+38,-3.4028235e+38,-3.4028235e+38,-3.4028235e+38,-3.4028235e+38,-3.4028235e+38,-3.4028235e+38,-3.4028235e+38,-3.4028235e+38,-3.4028235e+38,-3.4028235e+38,-3.4028235e+38,-3.4028235e+38,-3.4028235e+38,-3.4028235e+38,-3.4028235e+38,-3.4028235e+38,-3.4028235e+38,-3.4028235e+38,-3.4028235e+38,-3.4028235e+38,-3.4028235e+38,-3.4028235e+38,-3.4028235e+38,-3.4028235e+38,-3.4028235e+38,-3.4028235e+38,-3.4028235e+38,-3.4028235e+38,-3.4028235e+38,-3.4028235e+38,-3.4028235e+38,-3.4028235e+38,-3.4028235e+38,-3.4028235e+38,-3.4028235e+38,-3.4028235e+38,-3.4028235e+38,-3.4028235e+38,-3.4028235e+38,-3.4028235e+38,-3.4028235e+38,-3.4028235e+38,-3.4028235e+38,-3.4028235e+38,-3.4028235e+38,-3.4028235e+38,-3.4028235e+38,-3.4028235e+38,-3.4028235e+38,-3.4028235e+38,-3.4028235e+38,-3.4028235e+38,-3.4028235e+38,-3.4028235e+38,-3.4028235e+38,-3.4028235e+38,-3.4028235e+38,-3.4028235e+38,-3.4028235e+38,-3.4028235e+38,-3.4028235e+38,-3.4028235e+38,-3.4028235e+38,-3.4028235e+38,-3.4028235e+38,-3.4028235e+38,-3.4028235e+38,-3.4028235e+38,-3.4028235e+38,-3.4028235e+38,-3.4028235e+38,-3.4028235e+38,-3.4028235e+38,-3.4028235e+38,-3.4028235e+38,-3.4028235e+38,-3.4028235e+38,-3.4028235e+38,-3.4028235e+38,-3.4028235e+38,-3.4028235e+38,-3.4028235e+38,-3.4028235e+38,-3.4028235e+38,-3.4028235e+38,-3.4028235e+38,-3.4028235e+38,-3.4028235e+38,-3.4028235e+38,-3.4028235e+38,-3.4028235e+38,-3.4028235e+38,-3.4028235e+38,-3.4028235e+38,-3.4028235e+38,-3.4028235e+38,-3.4028235e+38,-3.4028235e+38,-3.4028235e+38,-3.4028235e+38,-3.4028235e+38,-3.4028235e+38,-3.4028235e+38,-3.4028235e+38,-3.4028235e+38,-3.4028235e+38,-3.4028235e+38,-3.4028235e+38,-3.4028235e+38,-3.4028235e+38,-3.4028235e+38,-3.4028235e+38,-3.4028235e+38,-3.4028235e+38,-3.4028235e+38,-3.4028235e+38,-3.4028235e+38,-3.4028235e+38,-3.4028235e+38,-3.4028235e+38,-3.4028235e+38,-3.4028235e+38,-3.4028235e+38,-3.4028235e+38,-3.4028235e+38,-3.4028235e+38,-3.4028235e+38,-3.4028235e+38,-3.4028235e+38,-3.4028235e+38,-3.4028235e+38,-3.4028235e+38,-3.4028235e+38,-3.4028235e+38,-3.4028235e+38,-3.4028235e+38,-3.4028235e+38,-3.4028235e+38,-3.4028235e+38,-3.4028235e+38,-3.4028235e+38,-3.4028235e+38,-3.4028235e+38,-3.4028235e+38,-3.4028235e+38,-3.4028235e+38,-3.4028235e+38,-3.4028235e+38,-3.4028235e+38,-3.4028235e+38,-3.4028235e+38,-3.4028235e+38,-3.4028235e+38,-3.4028235e+38,-3.4028235e+38,-3.4028235e+38,-3.4028235e+38,-3.4028235e+38,-3.4028235e+38,-3.4028235e+38,-3.4028235e+38,-3.4028235e+38,-3.4028235e+38,-3.4028235e+38,-3.4028235e+38,-3.4028235e+38,-3.4028235e+38,-3.4028235e+38,-3.4028235e+38,-3.4028235e+38,-3.4028235e+38,-3.4028235e+38,-3.4028235e+38,-3.4028235e+38,-3.4028235e+38,-3.4028235e+38,-3.4028235e+38,-3.4028235e+38,-3.4028235e+38,-3.4028235e+38,-3.4028235e+38,-3.4028235e+38,-3.4028235e+38,-3.4028235e+38,-3.4028235e+38,-3.4028235e+38,-3.4028235e+38,-3.4028235e+38,-3.4028235e+38,-3.4028235e+38,-3.4028235e+38,-3.4028235e+38,-3.4028235e+38,-3.4028235e+38,-3.4028235e+38,-3.4028235e+38,-3.4028235e+38,-3.4028235e+38,-3.4028235e+38,-3.4028235e+38,-3.4028235e+38,-3.4028235e+38,-3.4028235e+38,-3.4028235e+38,-3.4028235e+38,-3.4028235e+38,-3.4028235e+38,-3.4028235e+38,-3.4028235e+38,-3.4028235e+38,-3.4028235e+38,-3.4028235e+38,-3.4028235e+38,-3.4028235e+38,-3.4028235e+38,-3.4028235e+38,-3.4028235e+38,-3.4028235e+38,-3.4028235e+38,-3.4028235e+38,-3.4028235e+38,-3.4028235e+38,-3.4028235e+38,-3.4028235e+38,-3.4028235e+38,-3.4028235e+38,-3.4028235e+38,-3.4028235e+38,-3.4028235e+38,-3.4028235e+38,-3.4028235e+38,-3.4028235e+38,-3.4028235e+38,-3.4028235e+38,-3.4028235e+38,-3.4028235e+38,-3.4028235e+38,-3.4028235e+38,-3.4028235e+38,-3.4028235e+38,-3.4028235e+38,-3.4028235e+38,-3.4028235e+38,-3.4028235e+38,-3.4028235e+38,-3.4028235e+38,-3.4028235e+38,-3.4028235e+38,-3.4028235e+38,-3.4028235e+38,-3.4028235e+38,-3.4028235e+38,-3.4028235e+38,-3.4028235e+38,-3.4028235e+38,-3.4028235e+38,-3.4028235e+38,-3.4028235e+38,-3.4028235e+38,-3.4028235e+38,-3.4028235e+38,-3.4028235e+38,-3.4028235e+38,-3.4028235e+38,-3.4028235e+38,-3.4028235e+38,-3.4028235e+38,-3.4028235e+38,-3.4028235e+38,-3.4028235e+38,-3.4028235e+38,-3.4028235e+38,-3.4028235e+38,-3.4028235e+38,-3.4028235e+38,-3.4028235e+38,-3.4028235e+38,-3.4028235e+38,-3.4028235e+38,-3.4028235e+38,-3.4028235e+38,-3.4028235e+38,-3.4028235e+38,-3.4028235e+38,-3.4028235e+38,-3.4028235e+38,-3.4028235e+38,-3.4028235e+38,-3.4028235e+38,-3.4028235e+38,-3.4028235e+38,-3.4028235e+38,-3.4028235e+38,-3.4028235e+38,-3.4028235e+38,-3.4028235e+38,-3.4028235e+38,-3.4028235e+38,-3.4028235e+38,-3.4028235e+38,-3.4028235e+38,-3.4028235e+38,-3.4028235e+38,-3.4028235e+38,-3.4028235e+38,-3.4028235e+38,-3.4028235e+38,-3.4028235e+38,-3.4028235e+38,-3.4028235e+38,-3.4028235e+38,-3.4028235e+38,-3.4028235e+38,-3.4028235e+38,-3.4028235e+38,-3.4028235e+38,-3.4028235e+38,-3.4028235e+38,-3.4028235e+38,-3.4028235e+38,-3.4028235e+38,-3.4028235e+38,-3.4028235e+38,-3.4028235e+38,-3.4028235e+38,-3.4028235e+38,-3.4028235e+38,-3.4028235e+38,-3.4028235e+38,-3.4028235e+38,-3.4028235e+38,-3.4028235e+38,-3.4028235e+38,-3.4028235e+38,-3.4028235e+38,-3.4028235e+38,-3.4028235e+38,-3.4028235e+38,-3.4028235e+38,-3.4028235e+38,-3.4028235e+38,-3.4028235e+38,-3.4028235e+38,-3.4028235e+38,-3.4028235e+38,-3.4028235e+38,-3.4028235e+38,-3.4028235e+38,-3.4028235e+38,-3.4028235e+38,-3.4028235e+38,-3.4028235e+38,-3.4028235e+38,-3.4028235e+38,-3.4028235e+38,-3.4028235e+38,-3.4028235e+38,-3.4028235e+38,-3.4028235e+38,-3.4028235e+38,-3.4028235e+38,-3.4028235e+38,-3.4028235e+38,-3.4028235e+38,-3.4028235e+38,-3.4028235e+38,-3.4028235e+38,-3.4028235e+38,-3.4028235e+38,-3.4028235e+38,-3.4028235e+38,-3.4028235e+38,-3.4028235e+38,-3.4028235e+38,-3.4028235e+38,-3.4028235e+38,-3.4028235e+38,-3.4028235e+38,-3.4028235e+38,-3.4028235e+38,-3.4028235e+38,-3.4028235e+38,-3.4028235e+38,-3.4028235e+38,-3.4028235e+38,-3.4028235e+38,-3.4028235e+38,-3.4028235e+38,-3.4028235e+38,-3.4028235e+38,-3.4028235e+38,-3.4028235e+38,-3.4028235e+38,-3.4028235e+38,-3.4028235e+38,-3.4028235e+38,-3.4028235e+38,-3.4028235e+38,-3.4028235e+38,-3.4028235e+38,-3.4028235e+38,-3.4028235e+38,-3.4028235e+38,-3.4028235e+38,-3.4028235e+38,-3.4028235e+38,-3.4028235e+38,-3.4028235e+38,-3.4028235e+38,-3.4028235e+38,-3.4028235e+38,-3.4028235e+38,-3.4028235e+38,-3.4028235e+38,-3.4028235e+38,-3.4028235e+38,-3.4028235e+38,-3.4028235e+38,-3.4028235e+38,-3.4028235e+38,-3.4028235e+38,-3.4028235e+38,-3.4028235e+38,-3.4028235e+38,-3.4028235e+38,-3.4028235e+38,-3.4028235e+38,-3.4028235e+38,-3.4028235e+38,-3.4028235e+38,-3.4028235e+38,-3.4028235e+38,-3.4028235e+38,-3.4028235e+38,-3.4028235e+38,-3.4028235e+38,-3.4028235e+38,-3.4028235e+38,-3.4028235e+38,-3.4028235e+38,-3.4028235e+38,-3.4028235e+38,-3.4028235e+38,-3.4028235e+38,-3.4028235e+38,-3.4028235e+38,-3.4028235e+38,-3.4028235e+38,-3.4028235e+38,-3.4028235e+38,-3.4028235e+38,-3.4028235e+38,-3.4028235e+38,-3.4028235e+38,-3.4028235e+38,-3.4028235e+38,-3.4028235e+38,-3.4028235e+38,-3.4028235e+38,-3.4028235e+38,-3.4028235e+38,-3.4028235e+38,-3.4028235e+38,-3.4028235e+38,-3.4028235e+38,-3.4028235e+38,-3.4028235e+38,-3.4028235e+38,-3.4028235e+38,-3.4028235e+38,-3.4028235e+38,-3.4028235e+38,-3.4028235e+38,-3.4028235e+38,-3.4028235e+38,-3.4028235e+38,-3.4028235e+38,-3.4028235e+38,-3.4028235e+38,-3.4028235e+38,-3.4028235e+38,-3.4028235e+38,-3.4028235e+38,-3.4028235e+38,-3.4028235e+38,-3.4028235e+38,-3.4028235e+38,-3.4028235e+38,-3.4028235e+38,-3.4028235e+38,-3.4028235e+38,-3.4028235e+38,-3.4028235e+38,-3.4028235e+38,-3.4028235e+38,-3.4028235e+38,-3.4028235e+38,-3.4028235e+38,-3.4028235e+38,-3.4028235e+38,-3.4028235e+38,-3.4028235e+38,-3.4028235e+38,-3.4028235e+38,-3.4028235e+38,-3.4028235e+38,-3.4028235e+38,-3.4028235e+38,-3.4028235e+38,-3.4028235e+38,-3.4028235e+38,-3.4028235e+38,-3.4028235e+38,-3.4028235e+38,-3.4028235e+38,-3.4028235e+38,-3.4028235e+38,-3.4028235e+38,-3.4028235e+38,-3.4028235e+38,-3.4028235e+38,-3.4028235e+38,-3.4028235e+38,-3.4028235e+38,-3.4028235e+38,-3.4028235e+38,-3.4028235e+38,-3.4028235e+38,-3.4028235e+38,-3.4028235e+38,-3.4028235e+38,-3.4028235e+38,-3.4028235e+38,-3.4028235e+38,-3.4028235e+38,-3.4028235e+38,-3.4028235e+38,-3.4028235e+38,-3.4028235e+38,-3.4028235e+38,-3.4028235e+38,-3.4028235e+38,-3.4028235e+38,-3.4028235e+38,-3.4028235e+38,-3.4028235e+38,-3.4028235e+38,-3.4028235e+38,-3.4028235e+38,-3.4028235e+38,-3.4028235e+38,-3.4028235e+38,-3.4028235e+38,-3.4028235e+38,-3.4028235e+38,-3.4028235e+38,-3.4028235e+38,-3.4028235e+38,-3.4028235e+38,-3.4028235e+38,-3.4028235e+38,-3.4028235e+38,-3.4028235e+38,-3.4028235e+38,-3.4028235e+38,-3.4028235e+38,-3.4028235e+38,-3.4028235e+38,-3.4028235e+38,-3.4028235e+38,-3.4028235e+38,-3.4028235e+38,-3.4028235e+38,-3.4028235e+38,-3.4028235e+38,-3.4028235e+38,-3.4028235e+38,-3.4028235e+38,-3.4028235e+38,-3.4028235e+38,-3.4028235e+38,-3.4028235e+38,-3.4028235e+38,-3.4028235e+38,-3.4028235e+38,-3.4028235e+38,-3.4028235e+38,-3.4028235e+38,-3.4028235e+38,-3.4028235e+38,-3.4028235e+38,-3.4028235e+38,-3.4028235e+38,-3.4028235e+38,-3.4028235e+38,-3.4028235e+38,-3.4028235e+38,-3.4028235e+38,-3.4028235e+38,-3.4028235e+38,-3.4028235e+38,-3.4028235e+38,-3.4028235e+38,-3.4028235e+38,-3.4028235e+38,-3.4028235e+38,-3.4028235e+38,-3.4028235e+38,-3.4028235e+38,-3.4028235e+38,-3.4028235e+38,-3.4028235e+38,-3.4028235e+38,-3.4028235e+38,-3.4028235e+38,-3.4028235e+38,-3.4028235e+38,-3.4028235e+38,-3.4028235e+38,-3.4028235e+38,-3.4028235e+38,-3.4028235e+38,-3.4028235e+38,-3.4028235e+38,-3.4028235e+38,-3.4028235e+38,-3.4028235e+38,-3.4028235e+38,-3.4028235e+38,-3.4028235e+38,-3.4028235e+38,-3.4028235e+38,-3.4028235e+38,-3.4028235e+38,-3.4028235e+38,-3.4028235e+38,-3.4028235e+38,-3.4028235e+38,-3.4028235e+38,-3.4028235e+38,-3.4028235e+38,-3.4028235e+38,-3.4028235e+38,-3.4028235e+38,-3.4028235e+38,-3.4028235e+38,-3.4028235e+38,-3.4028235e+38,-3.4028235e+38,-3.4028235e+38,-3.4028235e+38,-3.4028235e+38,-3.4028235e+38,-3.4028235e+38,-3.4028235e+38,-3.4028235e+38,-3.4028235e+38,-3.4028235e+38,-3.4028235e+38,-3.4028235e+38,-3.4028235e+38,-3.4028235e+38,-3.4028235e+38,-3.4028235e+38,-3.4028235e+38,-3.4028235e+38,-3.4028235e+38,-3.4028235e+38,-3.4028235e+38,-3.4028235e+38,-3.4028235e+38,-3.4028235e+38,
3.4028235e+38,3.4028235e+38,3.4028235e+38,3.4028235e+38,3.4028235e+38,3.4028235e+38,3.4028235e+38,3.4028235e+38,3.4028235e+38,3.4028235e+38,3.4028235e+38,3.4028235e+38,3.4028235e+38,3.4028235e+38,3.4028235e+38,3.4028235e+38,3.4028235e+38,3.4028235e+38,3.4028235e+38,3.4028235e+38,3.4028235e+38,3.4028235e+38,3.4028235e+38,3.4028235e+38,3.4028235e+38,3.4028235e+38,3.4028235e+38,3.4028235e+38,3.4028235e+38,3.4028235e+38,3.4028235e+38,3.4028235e+38,3.4028235e+38,3.4028235e+38,3.4028235e+38,3.4028235e+38,3.4028235e+38,3.4028235e+38,3.4028235e+38,3.4028235e+38,3.4028235e+38,3.4028235e+38,3.4028235e+38,3.4028235e+38,3.4028235e+38,3.4028235e+38,3.4028235e+38,3.4028235e+38,3.4028235e+38,3.4028235e+38,3.4028235e+38,3.4028235e+38,3.4028235e+38,3.4028235e+38,3.4028235e+38,3.4028235e+38,3.4028235e+38,3.4028235e+38,3.4028235e+38,3.4028235e+38,3.4028235e+38,3.4028235e+38,3.4028235e+38,3.4028235e+38,3.4028235e+38,3.4028235e+38,3.4028235e+38,3.4028235e+38,3.4028235e+38,3.4028235e+38,3.4028235e+38,3.4028235e+38,3.4028235e+38,3.4028235e+38,3.4028235e+38,3.4028235e+38,3.4028235e+38,3.4028235e+38,3.4028235e+38,3.4028235e+38,3.4028235e+38,3.4028235e+38,3.4028235e+38,3.4028235e+38,3.4028235e+38,3.4028235e+38,3.4028235e+38,3.4028235e+38,3.4028235e+38,3.4028235e+38,3.4028235e+38,3.4028235e+38,3.4028235e+38,3.4028235e+38,3.4028235e+38,3.4028235e+38,3.4028235e+38,3.4028235e+38,3.4028235e+38,3.4028235e+38,3.4028235e+38,3.4028235e+38,3.4028235e+38,3.4028235e+38,3.4028235e+38,3.4028235e+38,3.4028235e+38,3.4028235e+38,3.4028235e+38,3.4028235e+38,3.4028235e+38,3.4028235e+38,3.4028235e+38,3.4028235e+38,3.4028235e+38,3.4028235e+38,3.4028235e+38,3.4028235e+38,3.4028235e+38,3.4028235e+38,3.4028235e+38,3.4028235e+38,3.4028235e+38,3.4028235e+38,3.4028235e+38,3.4028235e+38,3.4028235e+38,3.4028235e+38,3.4028235e+38,3.4028235e+38,3.4028235e+38,3.4028235e+38,3.4028235e+38,3.4028235e+38,3.4028235e+38,3.4028235e+38,3.4028235e+38,3.4028235e+38,3.4028235e+38,3.4028235e+38,3.4028235e+38,3.4028235e+38,3.4028235e+38,3.4028235e+38,3.4028235e+38,3.4028235e+38,3.4028235e+38,3.4028235e+38,3.4028235e+38,3.4028235e+38,3.4028235e+38,3.4028235e+38,3.4028235e+38,3.4028235e+38,3.4028235e+38,3.4028235e+38,3.4028235e+38,3.4028235e+38,3.4028235e+38,3.4028235e+38,3.4028235e+38,3.4028235e+38,3.4028235e+38,3.4028235e+38,3.4028235e+38,3.4028235e+38,3.4028235e+38,3.4028235e+38,3.4028235e+38,3.4028235e+38,3.4028235e+38,3.4028235e+38,3.4028235e+38,3.4028235e+38,3.4028235e+38,3.4028235e+38,3.4028235e+38,3.4028235e+38,3.4028235e+38,3.4028235e+38,3.4028235e+38,3.4028235e+38,3.4028235e+38,3.4028235e+38,3.4028235e+38,3.4028235e+38,3.4028235e+38,3.4028235e+38,3.4028235e+38,3.4028235e+38,3.4028235e+38,3.4028235e+38,3.4028235e+38,3.4028235e+38,3.4028235e+38,3.4028235e+38,3.4028235e+38,3.4028235e+38,3.4028235e+38,3.4028235e+38,3.4028235e+38,3.4028235e+38,3.4028235e+38,3.4028235e+38,3.4028235e+38,3.4028235e+38,3.4028235e+38,3.4028235e+38,3.4028235e+38,3.4028235e+38,3.4028235e+38,3.4028235e+38,3.4028235e+38,3.4028235e+38,3.4028235e+38,3.4028235e+38,3.4028235e+38,3.4028235e+38,3.4028235e+38,3.4028235e+38,3.4028235e+38,3.4028235e+38,3.4028235e+38,3.4028235e+38,3.4028235e+38,3.4028235e+38,3.4028235e+38,3.4028235e+38,3.4028235e+38,3.4028235e+38,3.4028235e+38,3.4028235e+38,3.4028235e+38,3.4028235e+38,3.4028235e+38,3.4028235e+38,3.4028235e+38,3.4028235e+38,3.4028235e+38,3.4028235e+38,3.4028235e+38,3.4028235e+38,3.4028235e+38,3.4028235e+38,3.4028235e+38,3.4028235e+38,3.4028235e+38,3.4028235e+38,3.4028235e+38,3.4028235e+38,3.4028235e+38,3.4028235e+38,3.4028235e+38,3.4028235e+38,3.4028235e+38,3.4028235e+38,3.4028235e+38,3.4028235e+38,3.4028235e+38,3.4028235e+38,3.4028235e+38,3.4028235e+38,3.4028235e+38,3.4028235e+38,3.4028235e+38,3.4028235e+38,3.4028235e+38,3.4028235e+38,3.4028235e+38,3.4028235e+38,3.4028235e+38,3.4028235e+38,3.4028235e+38,3.4028235e+38,3.4028235e+38,3.4028235e+38,3.4028235e+38,3.4028235e+38,3.4028235e+38,3.4028235e+38,3.4028235e+38,3.4028235e+38,3.4028235e+38,3.4028235e+38,3.4028235e+38,3.4028235e+38,3.4028235e+38,3.4028235e+38,3.4028235e+38,3.4028235e+38,3.4028235e+38,3.4028235e+38,3.4028235e+38,3.4028235e+38,3.4028235e+38,3.4028235e+38,3.4028235e+38,3.4028235e+38,3.4028235e+38,3.4028235e+38,3.4028235e+38,3.4028235e+38,3.4028235e+38,3.4028235e+38,3.4028235e+38,3.4028235e+38,3.4028235e+38,3.4028235e+38,3.4028235e+38,3.4028235e+38,3.4028235e+38,3.4028235e+38,3.4028235e+38,3.4028235e+38,3.4028235e+38,3.4028235e+38,3.4028235e+38,3.4028235e+38,3.4028235e+38,3.4028235e+38,3.4028235e+38,3.4028235e+38,3.4028235e+38,3.4028235e+38,3.4028235e+38,3.4028235e+38,3.4028235e+38,3.4028235e+38,3.4028235e+38,3.4028235e+38,3.4028235e+38,3.4028235e+38,3.4028235e+38,3.4028235e+38,3.4028235e+38,3.4028235e+38,3.4028235e+38,3.4028235e+38,3.4028235e+38,3.4028235e+38,3.4028235e+38,3.4028235e+38,3.4028235e+38,3.4028235e+38,3.4028235e+38,3.4028235e+38,3.4028235e+38,3.4028235e+38,3.4028235e+38,3.4028235e+38,3.4028235e+38,3.4028235e+38,3.4028235e+38,3.4028235e+38,3.4028235e+38,3.4028235e+38,3.4028235e+38,3.4028235e+38,3.4028235e+38,3.4028235e+38,3.4028235e+38,3.4028235e+38,3.4028235e+38,3.4028235e+38,3.4028235e+38,3.4028235e+38,3.4028235e+38,3.4028235e+38,3.4028235e+38,3.4028235e+38,3.4028235e+38,3.4028235e+38,3.4028235e+38,3.4028235e+38,3.4028235e+38,3.4028235e+38,3.4028235e+38,3.4028235e+38,3.4028235e+38,3.4028235e+38,3.4028235e+38,3.4028235e+38,3.4028235e+38,3.4028235e+38,3.4028235e+38,3.4028235e+38,3.4028235e+38,3.4028235e+38,3.4028235e+38,3.4028235e+38,3.4028235e+38,3.4028235e+38,3.4028235e+38,3.4028235e+38,3.4028235e+38,3.4028235e+38,3.4028235e+38,3.4028235e+38,3.4028235e+38,3.4028235e+38,3.4028235e+38,3.4028235e+38,3.4028235e+38,3.4028235e+38,3.4028235e+38,3.4028235e+38,3.4028235e+38,3.4028235e+38,3.4028235e+38,3.4028235e+38,3.4028235e+38,3.4028235e+38,3.4028235e+38,3.4028235e+38,3.4028235e+38,3.4028235e+38,3.4028235e+38,3.4028235e+38,3.4028235e+38,3.4028235e+38,3.4028235e+38,3.4028235e+38,3.4028235e+38,3.4028235e+38,3.4028235e+38,3.4028235e+38,3.4028235e+38,3.4028235e+38,3.4028235e+38,3.4028235e+38,3.4028235e+38,3.4028235e+38,3.4028235e+38,3.4028235e+38,3.4028235e+38,3.4028235e+38,3.4028235e+38,3.4028235e+38,3.4028235e+38,3.4028235e+38,3.4028235e+38,3.4028235e+38,3.4028235e+38,3.4028235e+38,3.4028235e+38,3.4028235e+38,3.4028235e+38,3.4028235e+38,3.4028235e+38,3.4028235e+38,3.4028235e+38,3.4028235e+38,3.4028235e+38,3.4028235e+38,3.4028235e+38,3.4028235e+38,3.4028235e+38,3.4028235e+38,3.4028235e+38,3.4028235e+38,3.4028235e+38,3.4028235e+38,3.4028235e+38,3.4028235e+38,3.4028235e+38,3.4028235e+38,3.4028235e+38,3.4028235e+38,3.4028235e+38,3.4028235e+38,3.4028235e+38,3.4028235e+38,3.4028235e+38,3.4028235e+38,3.4028235e+38,3.4028235e+38,3.4028235e+38,3.4028235e+38,3.4028235e+38,3.4028235e+38,3.4028235e+38,3.4028235e+38,3.4028235e+38,3.4028235e+38,3.4028235e+38,3.4028235e+38,3.4028235e+38,3.4028235e+38,3.4028235e+38,3.4028235e+38,3.4028235e+38,3.4028235e+38,3.4028235e+38,3.4028235e+38,3.4028235e+38,3.4028235e+38,3.4028235e+38,3.4028235e+38,3.4028235e+38,3.4028235e+38,3.4028235e+38,3.4028235e+38,3.4028235e+38,3.4028235e+38,3.4028235e+38,3.4028235e+38,3.4028235e+38,3.4028235e+38,3.4028235e+38,3.4028235e+38,3.4028235e+38,3.4028235e+38,3.4028235e+38,3.4028235e+38,3.4028235e+38,3.4028235e+38,3.4028235e+38,3.4028235e+38,3.4028235e+38,3.4028235e+38,3.4028235e+38,3.4028235e+38,3.4028235e+38,3.4028235e+38,3.4028235e+38,3.4028235e+38,3.4028235e+38,3.4028235e+38,3.4028235e+38,3.4028235e+38,3.4028235e+38,3.4028235e+38,3.4028235e+38,3.4028235e+38,3.4028235e+38,3.4028235e+38,3.4028235e+38,3.4028235e+38,3.4028235e+38,3.4028235e+38,3.4028235e+38,3.4028235e+38,3.4028235e+38,3.4028235e+38,3.4028235e+38,3.4028235e+38,3.4028235e+38,3.4028235e+38,3.4028235e+38,3.4028235e+38,3.4028235e+38,3.4028235e+38,3.4028235e+38,3.4028235e+38,3.4028235e+38,3.4028235e+38,3.4028235e+38,3.4028235e+38,3.4028235e+38,3.4028235e+38,3.4028235e+38,3.4028235e+38,3.4028235e+38,3.4028235e+38,3.4028235e+38,3.4028235e+38,3.4028235e+38,3.4028235e+38,3.4028235e+38,3.4028235e+38,3.4028235e+38,3.4028235e+38,3.4028235e+38,3.4028235e+38,3.4028235e+38,3.4028235e+38,3.4028235e+38,3.4028235e+38,3.4028235e+38,3.4028235e+38,3.4028235e+38,3.4028235e+38,3.4028235e+38,3.4028235e+38,3.4028235e+38,3.4028235e+38,3.4028235e+38,3.4028235e+38,3.4028235e+38,3.4028235e+38,3.4028235e+38,3.4028235e+38,3.4028235e+38,3.4028235e+38,3.4028235e+38,3.4028235e+38,3.4028235e+38,3.4028235e+38,3.4028235e+38,3.4028235e+38,3.4028235e+38,3.4028235e+38,3.4028235e+38,3.4028235e+38,3.4028235e+38,3.4028235e+38,3.4028235e+38,3.4028235e+38,3.4028235e+38,3.4028235e+38,3.4028235e+38,3.4028235e+38,3.4028235e+38,3.4028235e+38,3.4028235e+38,3.4028235e+38,3.4028235e+38,3.4028235e+38,3.4028235e+38,3.4028235e+38,3.4028235e+38,3.4028235e+38,3.4028235e+38,3.4028235e+38,3.4028235e+38,3.4028235e+38,3.4028235e+38,3.4028235e+38,3.4028235e+38,3.4028235e+38,3.4028235e+38,3.4028235e+38,3.4028235e+38,3.4028235e+38,3.4028235e+38,3.4028235e+38,3.4028235e+38,3.4028235e+38,3.4028235e+38,3.4028235e+38,3.4028235e+38,3.4028235e+38,3.4028235e+38,3.4028235e+38,3.4028235e+38,3.4028235e+38,3.4028235e+38,3.4028235e+38,3.4028235e+38,3.4028235e+38,3.4028235e+38,3.4028235e+38,3.4028235e+38,3.4028235e+38,3.4028235e+38,3.4028235e+38,3.4028235e+38,3.4028235e+38,3.4028235e+38,3.4028235e+38,3.4028235e+38,3.4028235e+38,3.4028235e+38,3.4028235e+38,3.4028235e+38,3.4028235e+38,3.4028235e+38,3.4028235e+38,3.4028235e+38,3.4028235e+38,3.4028235e+38,3.4028235e+38,3.4028235e+38,3.4028235e+38,3.4028235e+38,3.4028235e+38,3.4028235e+38,3.4028235e+38,3.4028235e+38,3.4028235e+38,3.4028235e+38,3.4028235e+38,3.4028235e+38,3.4028235e+38,3.4028235e+38,3.4028235e+38,3.4028235e+38,3.4028235e+38,3.4028235e+38,3.4028235e+38,3.4028235e+38,3.4028235e+38,3.4028235e+38,3.4028235e+38,3.4028235e+38,3.4028235e+38,3.4028235e+38,3.4028235e+38,3.4028235e+38,3.4028235e+38,3.4028235e+38,3.4028235e+38,3.4028235e+38,3.4028235e+38,3.4028235e+38,3.4028235e+38,3.4028235e+38,3.4028235e+38,3.4028235e+38,3.4028235e+38,3.4028235e+38,3.4028235e+38,3.4028235e+38,3.4028235e+38,3.4028235e+38,3.4028235e+38,3.4028235e+38,3.4028235e+38,3.4028235e+38,3.4028235e+38,3.4028235e+38,3.4028235e+38,3.4028235e+38,3.4028235e+38,3.4028235e+38,3.4028235e+38,3.4028235e+38,3.4028235e+38,3.4028235e+38,3.4028235e+38,3.4028235e+38,3.4028235e+38,3.4028235e+38,3.4028235e+38,3.4028235e+38,3.4028235e+38,3.4028235e+38,3.4028235e+38,3.4028235e+38,3.4028235e+38,3.4028235e+38,3.4028235e+38,3.4028235e+38,3.4028235e+38,3.4028235e+38,3.4028235e+38,3.4028235e+38,3.4028235e+38,3.4028235e+38,3.4028235e+38,3.4028235e+38,3.4028235e+38,3.4028235e+38,3.4028235e+38,3.4028235e+38,3.4028235e+38,3.4028235e+38,3.4028235e+38,3.4028235e+38,3.4028235e+38,3.4028235e+38,3.4028235e+38,3.4028235e+38,3.4028235e+38,3.4028235e+38,3.4028235e+38,3.4028235e+38,3.4028235e+38,3.4028235e+38,3.4028235e+38,3.4028235e+38,3.4028235e+38,3.4028235e+38,3.4028235e+38,3.4028235e+38,3.4028235e+38,3.4028235e+38,3.4028235e+38,3.4028235e+38,3.4028235e+38,3.4028235e+38,3.4028235e+38,3.4028235e+38,3.4028235e+38,
0.0,0.0,0.0,0.0,0.0,0.0,0.0,0.0,0.0,0.0,0.0,0.0,0.0,0.0,0.0,0.0,0.0,0.0,0.0,0.0,0.0,0.0,0.0,0.0,0.0,0.0,0.0,0.0,0.0,0.0,0.0,0.0,0.0,0.0,0.0,0.0,0.0,0.0,0.0,0.0,0.0,0.0,0.0,0.0,0.0,0.0,0.0,0.0,0.0,0.0,0.0,0.0,0.0,0.0,0.0,0.0,0.0,0.0,0.0,0.0,0.0,0.0,0.0,0.0,0.0,0.0,0.0,0.0,0.0,0.0,0.0,0.0,0.0,0.0,0.0,0.0,0.0,0.0,0.0,0.0,0.0,0.0,0.0,0.0,0.0,0.0,0.0,0.0,0.0,0.0,0.0,0.0,0.0,0.0,0.0,0.0,0.0,0.0,0.0,0.0,0.0,0.0,0.0,0.0,0.0,0.0,0.0,0.0,0.0,0.0,0.0,0.0,0.0,0.0,0.0,0.0,0.0,0.0,0.0,0.0,0.0,0.0,0.0,0.0,0.0,0.0,0.0,0.0,0.0,0.0,0.0,0.0,0.0,0.0,0.0,0.0,0.0,0.0,0.0,0.0,0.0,0.0,0.0,0.0,0.0,0.0,0.0,0.0,0.0,0.0,0.0,0.0,0.0,0.0,0.0,0.0,0.0,0.0,0.0,0.0,0.0,0.0,0.0,0.0,0.0,0.0,0.0,0.0,0.0,0.0,0.0,0.0,0.0,0.0,0.0,0.0,0.0,0.0,0.0,0.0,0.0,0.0,0.0,0.0,0.0,0.0,0.0,0.0,0.0,0.0,0.0,0.0,0.0,0.0,0.0,0.0,0.0,0.0,0.0,0.0,0.0,0.0,0.0,0.0,0.0,0.0,0.0,0.0,0.0,0.0,0.0,0.0,0.0,0.0,0.0,0.0,0.0,0.0,0.0,0.0,0.0,0.0,0.0,0.0,0.0,0.0,0.0,0.0,0.0,0.0,0.0,0.0,0.0,0.0,0.0,0.0,0.0,0.0,0.0,0.0,0.0,0.0,0.0,0.0,0.0,0.0,0.0,0.0,0.0,0.0,0.0,0.0,0.0,0.0,0.0,0.0,0.0,0.0,0.0,0.0,0.0,0.0,0.0,0.0,0.0,0.0,0.0,0.0,0.0,0.0,0.0,0.0,0.0,0.0,0.0,0.0,0.0,0.0,0.0,0.0,0.0,0.0,0.0,0.0,0.0,0.0,0.0,0.0,0.0,0.0,0.0,0.0,0.0,0.0,0.0,0.0,0.0,0.0,0.0,0.0,0.0,0.0,0.0,0.0,0.0,0.0,0.0,0.0,0.0,0.0,0.0,0.0,0.0,0.0,0.0,0.0,0.0,0.0,0.0,0.0,0.0,0.0,0.0,0.0,0.0,0.0,0.0,0.0,0.0,0.0,0.0,0.0,0.0,0.0,0.0,0.0,0.0,0.0,0.0,0.0,0.0,0.0,0.0,0.0,0.0,0.0,0.0,0.0,0.0,0.0,0.0,0.0,0.0,0.0,0.0,0.0,0.0,0.0,0.0,0.0,0.0,0.0,0.0,0.0,0.0,0.0,0.0,0.0,0.0,0.0,0.0,0.0,0.0,0.0,0.0,0.0,0.0,0.0,0.0,0.0,0.0,0.0,0.0,0.0,0.0,0.0,0.0,0.0,0.0,0.0,0.0,0.0,0.0,0.0,0.0,0.0,0.0,0.0,0.0,0.0,0.0,0.0,0.0,0.0,0.0,0.0,0.0,0.0,0.0,0.0,0.0,0.0,0.0,0.0,0.0,0.0,0.0,0.0,0.0,0.0,0.0,0.0,0.0,0.0,0.0,0.0,0.0,0.0,0.0,0.0,0.0,0.0,0.0,0.0,0.0,0.0,0.0,0.0,0.0,0.0,0.0,0.0,0.0,0.0,0.0,0.0,0.0,0.0,0.0,0.0,0.0,0.0,0.0,0.0,0.0,0.0,0.0,0.0,0.0,0.0,0.0,0.0,0.0,0.0,0.0,0.0,0.0,0.0,0.0,0.0,0.0,0.0,0.0,0.0,0.0,0.0,0.0,0.0,0.0,0.0,0.0,0.0,0.0,0.0,0.0,0.0,0.0,0.0,0.0,0.0,0.0,0.0,0.0,0.0,0.0,0.0,0.0,0.0,0.0,0.0,0.0,0.0,0.0,0.0,0.0,0.0,0.0,0.0,0.0,0.0,0.0,0.0,0.0,0.0,0.0,0.0,0.0,0.0,0.0,0.0,0.0,0.0,0.0,0.0,0.0,0.0,0.0,0.0,0.0,0.0,0.0,0.0,0.0,0.0,0.0,0.0,0.0,0.0,0.0,0.0,0.0,0.0,0.0,0.0,0.0,0.0,0.0,0.0,0.0,0.0,0.0,0.0,0.0,0.0,0.0,0.0,0.0,0.0,0.0,0.0,0.0,0.0,0.0,0.0,0.0,0.0,0.0,0.0,0.0,0.0,0.0,0.0,0.0,0.0,0.0,0.0,0.0,0.0,0.0,0.0,0.0,0.0,0.0,0.0,0.0,0.0,0.0,0.0,0.0,0.0,0.0,0.0,0.0,0.0,0.0,0.0,0.0,0.0,0.0,0.0,0.0,0.0,0.0,0.0,0.0,0.0,0.0,0.0,0.0,0.0,0.0,0.0,0.0,0.0,0.0,0.0,0.0,0.0,0.0,0.0,0.0,0.0,0.0,0.0,0.0,0.0,0.0,0.0,0.0,0.0,0.0,0.0,0.0,0.0,0.0,0.0,0.0,0.0,0.0,0.0,0.0,0.0,0.0,0.0,0.0,0.0,0.0,0.0,0.0,0.0,0.0,0.0,0.0,0.0,0.0,0.0,0.0,0.0,0.0,0.0,0.0,0.0,0.0,0.0,0.0,0.0,0.0,0.0,0.0,0.0,0.0,0.0,0.0,0.0,0.0,0.0,0.0,0.0,0.0,0.0,0.0,0.0,0.0,0.0,0.0,0.0,0.0,0.0,0.0,0.0,0.0,0.0,0.0,0.0,0.0,0.0,0.0,0.0,0.0,0.0,0.0,0.0,0.0,0.0,0.0,0.0,0.0,0.0,0.0,0.0,0.0,0.0,0.0,0.0,0.0,0.0,0.0,0.0,0.0,0.0,0.0,0.0,0.0,0.0,0.0,0.0,0.0,0.0,0.0,0.0,0.0,0.0,0.0,0.0,0.0,0.0,0.0,0.0,0.0,0.0,0.0,0.0,0.0,0.0,0.0,0.0,0.0,0.0,0.0,0.0,0.0,0.0,0.0,0.0,0.0,0.0,0.0,0.0,0.0,0.0,0.0,0.0,0.0,0.0,0.0,0.0,0.0,0.0,0.0,0.0,0.0,0.0,0.0,0.0,0.0,0.0,0.0,0.0,0.0,0.0,0.0,0.0,0.0,0.0,0.0,
1.0,1.0,1.0,1.0,1.0,1.0,1.0,1.0,1.0,1.0,1.0,1.0,1.0,1.0,1.0,1.0,1.0,1.0,1.0,1.0,1.0,1.0,1.0,1.0,1.0,1.0,1.0,1.0,1.0,1.0,1.0,1.0,1.0,1.0,1.0,1.0,1.0,1.0,1.0,1.0,1.0,1.0,1.0,1.0,1.0,1.0,1.0,1.0,1.0,1.0,1.0,1.0,1.0,1.0,1.0,1.0,1.0,1.0,1.0,1.0,1.0,1.0,1.0,1.0,1.0,1.0,1.0,1.0,1.0,1.0,1.0,1.0,1.0,1.0,1.0,1.0,1.0,1.0,1.0,1.0,1.0,1.0,1.0,1.0,1.0,1.0,1.0,1.0,1.0,1.0,1.0,1.0,1.0,1.0,1.0,1.0,1.0,1.0,1.0,1.0,1.0,1.0,1.0,1.0,1.0,1.0,1.0,1.0,1.0,1.0,1.0,1.0,1.0,1.0,1.0,1.0,1.0,1.0,1.0,1.0,1.0,1.0,1.0,1.0,1.0,1.0,1.0,1.0,1.0,1.0,1.0,1.0,1.0,1.0,1.0,1.0,1.0,1.0,1.0,1.0,1.0,1.0,1.0,1.0,1.0,1.0,1.0,1.0,1.0,1.0,1.0,1.0,1.0,1.0,1.0,1.0,1.0,1.0,1.0,1.0,1.0,1.0,1.0,1.0,1.0,1.0,1.0,1.0,1.0,1.0,1.0,1.0,1.0,1.0,1.0,1.0,1.0,1.0,1.0,1.0,1.0,1.0,1.0,1.0,1.0,1.0,1.0,1.0,1.0,1.0,1.0,1.0,1.0,1.0,1.0,1.0,1.0,1.0,1.0,1.0,1.0,1.0,1.0,1.0,1.0,1.0,1.0,1.0,1.0,1.0,1.0,1.0,1.0,1.0,1.0,1.0,1.0,1.0,1.0,1.0,1.0,1.0,1.0,1.0,1.0,1.0,1.0,1.0,1.0,1.0,1.0,1.0,1.0,1.0,1.0,1.0,1.0,1.0,1.0,1.0,1.0,1.0,1.0,1.0,1.0,1.0,1.0,1.0,1.0,1.0,1.0,1.0,1.0,1.0,1.0,1.0,1.0,1.0,1.0,1.0,1.0,1.0,1.0,1.0,1.0,1.0,1.0,1.0,1.0,1.0,1.0,1.0,1.0,1.0,1.0,1.0,1.0,1.0,1.0,1.0,1.0,1.0,1.0,1.0,1.0,1.0,1.0,1.0,1.0,1.0,1.0,1.0,1.0,1.0,1.0,1.0,1.0,1.0,1.0,1.0,1.0,1.0,1.0,1.0,1.0,1.0,1.0,1.0,1.0,1.0,1.0,1.0,1.0,1.0,1.0,1.0,1.0,1.0,1.0,1.0,1.0,1.0,1.0,1.0,1.0,1.0,1.0,1.0,1.0,1.0,1.0,1.0,1.0,1.0,1.0,1.0,1.0,1.0,1.0,1.0,1.0,1.0,1.0,1.0,1.0,1.0,1.0,1.0,1.0,1.0,1.0,1.0,1.0,1.0,1.0,1.0,1.0,1.0,1.0,1.0,1.0,1.0,1.0,1.0,1.0,1.0,1.0,1.0,1.0,1.0,1.0,1.0,1.0,1.0,1.0,1.0,1.0,1.0,1.0,1.0,1.0,1.0,1.0,1.0,1.0,1.0,1.0,1.0,1.0,1.0,1.0,1.0,1.0,1.0,1.0,1.0,1.0,1.0,1.0,1.0,1.0,1.0,1.0,1.0,1.0,1.0,1.0,1.0,1.0,1.0,1.0,1.0,1.0,1.0,1.0,1.0,1.0,1.0,1.0,1.0,1.0,1.0,1.0,1.0,1.0,1.0,1.0,1.0,1.0,1.0,1.0,1.0,1.0,1.0,1.0,1.0,1.0,1.0,1.0,1.0,1.0,1.0,1.0,1.0,1.0,1.0,1.0,1.0,1.0,1.0,1.0,1.0,1.0,1.0,1.0,1.0,1.0,1.0,1.0,1.0,1.0,1.0,1.0,1.0,1.0,1.0,1.0,1.0,1.0,1.0,1.0,1.0,1.0,1.0,1.0,1.0,1.0,1.0,1.0,1.0,1.0,1.0,1.0,1.0,1.0,1.0,1.0,1.0,1.0,1.0,1.0,1.0,1.0,1.0,1.0,1.0,1.0,1.0,1.0,1.0,1.0,1.0,1.0,1.0,1.0,1.0,1.0,1.0,1.0,1.0,1.0,1.0,1.0,1.0,1.0,1.0,1.0,1.0,1.0,1.0,1.0,1.0,1.0,1.0,1.0,1.0,1.0,1.0,1.0,1.0,1.0,1.0,1.0,1.0,1.0,1.0,1.0,1.0,1.0,1.0,1.0,1.0,1.0,1.0,1.0,1.0,1.0,1.0,1.0,1.0,1.0,1.0,1.0,1.0,1.0,1.0,1.0,1.0,1.0,1.0,1.0,1.0,1.0,1.0,1.0,1.0,1.0,1.0,1.0,1.0,1.0,1.0,1.0,1.0,1.0,1.0,1.0,1.0,1.0,1.0,1.0,1.0,1.0,1.0,1.0,1.0,1.0,1.0,1.0,1.0,1.0,1.0,1.0,1.0,1.0,1.0,1.0,1.0,1.0,1.0,1.0,1.0,1.0,1.0,1.0,1.0,1.0,1.0,1.0,1.0,1.0,1.0,1.0,1.0,1.0,1.0,1.0,1.0,1.0,1.0,1.0,1.0,1.0,1.0,1.0,1.0,1.0,1.0,1.0,1.0,1.0,1.0,1.0,1.0,1.0,1.0,1.0,1.0,1.0,1.0,1.0,1.0,1.0,1.0,1.0,1.0,1.0,1.0,1.0,1.0,1.0,1.0,1.0,1.0,1.0,1.0,1.0,1.0,1.0,1.0,1.0,1.0,1.0,1.0,1.0,1.0,1.0,1.0,1.0,1.0,1.0,1.0,1.0,1.0,1.0,1.0,1.0,1.0,1.0,1.0,1.0,1.0,1.0,1.0,1.0,1.0,1.0,1.0,1.0,1.0,1.0,1.0,1.0,1.0,1.0,1.0,1.0,1.0,1.0,1.0,1.0,1.0,1.0,1.0,1.0,1.0,1.0,1.0,1.0,1.0,1.0,1.0,1.0,1.0,1.0,1.0,1.0,1.0,1.0,1.0,1.0,1.0,1.0,1.0,1.0,1.0,1.0,1.0,1.0,1.0,1.0,1.0,1.0,1.0,1.0,1.0,1.0,1.0,1.0,1.0,1.0,1.0,1.0,1.0,1.0,1.0,1.0,1.0,1.0,1.0,1.0,1.0,1.0,1.0,1.0,1.0,1.0,1.0,1.0,1.0,1.0,1.0,1.0,1.0,1.0,1.0,1.0,1.0,1.0,1.0,1.0,1.0,1.0,1.0,1.0,1.0,1.0,1.0,1.0,1.0,1.0,1.0,1.0,1.0,1.0,
1.66509e-02,-2.75162e-02,2.30501e-02,-3.58385e-03,-3.07481e-02,-1.44617e-02,2.27656e-02,-1.68481e-02,-7.05072e-03,3.37366e-02,1.39110e-02,-3.44060e-02,3.37494e-02,8.31187e-02,-4.51699e-02,-8.85451e-03,-2.27141e-02,1.27518e-02,1.33260e-02,-4.01092e-04,2.23973e-02,3.35034e-02,1.31620e-02,2.40942e-02,-2.13589e-02,-1.87951e-03,2.25737e-02,1.11376e-03,1.59961e-02,-3.25989e-02,-3.54277e-02,1.24982e-03,5.28516e-02,4.62298e-03,5.70618e-02,1.19873e-01,1.37916e-01,1.02934e-01,8.70150e-03,1.92520e-02,2.20824e-01,-3.36889e-01,-5.34123e-01,2.14426e-02,6.95982e-02,2.84803e-01,4.57946e-01,1.01668e-01,8.86572e-02,6.58845e-02,2.44636e-02,-2.03243e-02,3.41220e-02,-3.42621e-02,2.94895e-02,2.17016e-02,-3.06708e-02,-2.43906e-02,4.47409e-02,2.93436e-02,5.36189e-02,2.55217e-02,5.90139e-02,8.76854e-02,7.59662e-02,1.91595e-01,4.12619e-01,6.54911e-01,5.13025e-01,4.83974e-01,1.60407e-01,1.56030e-01,5.24256e-01,6.29164e-01,5.49746e-01,5.18991e-01,3.36269e-01,3.38824e-01,5.50517e-01,4.49787e-01,1.05041e-01,1.22653e-01,1.54698e-02,-3.54319e-02,6.13930e-03,1.06163e-02,-1.30793e-01,2.47277e-01,2.70864e-01,6.32976e-01,3.67134e-01,3.22022e-01,5.32042e-01,-1.54150e-01,1.45496e-02,-1.54069e-01,9.41973e-02,7.99926e-02,2.01598e-01,6.34615e-01,5.84949e-01,1.59563e-01,1.21888e-01,4.10746e-01,4.43737e-01,1.07252e-01,8.46431e-02,9.00291e-01,-8.92566e-02,-3.17677e-01,-2.73253e-01,-1.25340e-02,1.63639e-02,-1.58198e-02,-1.88350e-01,8.00316e-02,1.64159e-01,3.74477e-01,-5.72188e-02,1.43396e-01,5.44779e-01,2.86463e-01,2.56468e-01,1.27849e-01,9.44450e-02,5.32782e-02,-4.91377e-02,1.27634e-01,2.26370e-01,2.44476e-01,1.51652e-01,2.62167e-01,4.45664e-01,-8.85943e-02,-1.61242e-01,-1.29822e-01,-2.88214e-01,-5.49607e-01,2.94077e-01,7.08400e-01,2.22206e-02,2.35407e-02,9.72837e-02,1.59042e-02,-1.19830e-01,3.72397e-01,-4.57254e-02,3.76894e-01,8.88633e-02,5.85605e-02,2.70899e-01,4.40195e-02,-1.22917e-02,2.31176e-01,4.21746e-02,1.77369e-01,1.77043e-01,3.70588e-01,6.70358e-02,2.32219e-01,5.24294e-01,2.19296e-01,2.33127e-01,3.32820e-02,-1.82401e-01,-1.49641e-01,6.23539e-01,6.87675e-01,-1.31789e-02,1.17683e-02,-2.98227e-01,-1.40976e-01,-1.59709e-01,-1.83362e-01,-2.97491e-01,1.75704e-01,2.07158e-01,-2.04499e-02,5.55713e-02,-2.12316e-01,-1.18477e-01,1.75527e-02,8.63547e-02,2.85586e-02,5.80489e-02,9.45941e-02,-2.86577e-02,-1.74405e-01,-4.88049e-02,-2.57267e-01,-8.51920e-02,1.32783e-01,1.64025e-01,3.98785e-02,2.54841e-01,3.48624e-01,-1.74459e-02,-3.27316e-02,-2.01288e-01,-6.79620e-02,-4.55363e-01,3.31349e-02,-2.12463e-01,-3.11868e-02,-1.53373e-01,-4.06519e-01,4.92512e-02,-3.64456e-02,-2.56283e-01,-1.00439e-01,2.25594e-02,1.36965e-01,1.20114e-01,2.70803e-02,2.36739e-02,-1.68728e-03,1.00404e-02,-3.78695e-02,6.24721e-02,1.68012e-02,7.35524e-02,-2.75926e-01,-1.16349e-02,3.07341e-01,-2.39865e-02,-1.96278e-01,1.42482e-01,-1.51403e-01,-3.60310e-01,-1.64741e-02,1.46166e-01,7.62403e-03,-2.14576e-01,-1.38552e-01,8.34901e-02,-6.95467e-02,7.76404e-02,6.46046e-02,-2.86627e-02,-1.41292e-02,8.89823e-02,1.69250e-01,-7.87423e-02,-2.36882e-01,4.12887e-02,1.10469e-01,2.03541e-01,1.22934e-01,-3.39568e-02,-2.48625e-02,1.40586e-01,7.74839e-02,-3.70516e-02,-1.13069e-01,-1.35268e-01,-4.08743e-01,-5.34181e-01,-8.49552e-02,1.08854e-01,3.41417e-02,4.36991e-02,-3.14863e-02,8.37164e-03,-1.31010e-01,1.12474e-02,1.49335e-01,8.53411e-03,-7.14264e-03,-3.80343e-02,-2.54641e-02,-1.11383e-01,-1.86102e-01,-1.83064e-01,1.19685e-02,-1.71532e-01,2.97787e-01,-1.19406e-02,2.45117e-01,-5.23033e-02,-7.90635e-01,-6.93870e-02,-9.44844e-02,-8.64734e-02,-2.96690e-01,-5.85630e-01,-3.07322e-01,8.19412e-02,4.86369e-02,1.01416e-02,1.98616e-01,1.45689e-01,-1.97984e-01,1.94494e-01,2.13231e-02,1.44015e-01,-1.00346e-01,-1.22102e-01,1.02892e-01,1.79186e-01,-3.28615e-01,-3.51491e-02,-1.65401e-01,-1.13853e-01,1.14291e-01,1.55540e-01,-3.09896e-01,-1.43067e-01,-5.94119e-01,-3.86329e-02,-1.08541e-01,-3.48752e-01,-2.94602e-01,-1.00813e-01,-1.40574e-01,-1.06902e-01,1.30625e-01,1.15687e-01,1.22067e-01,1.52543e-01,1.21525e-03,-1.35495e-01,1.54820e-01,8.33911e-02,-1.98277e-01,-2.64460e-01,3.20694e-02,1.54897e-01,-2.24268e-01,-1.53857e-01,-1.56593e-02,-1.46351e-01,-1.03052e-01,3.25353e-01,-4.57772e-01,7.25188e-01,2.10539e-03,-3.23992e-02,-7.71087e-02,-1.95707e-01,2.27143e-01,-2.34765e-01,-4.16668e-02,1.03156e-02,1.85290e-02,1.95745e-01,2.55206e-01,-6.57712e-02,-9.71284e-02,6.23784e-02,1.19494e-01,4.79237e-02,-3.17355e-01,-1.68903e-01,-5.69190e-02,-4.96883e-02,-1.78073e-01,-1.16462e-01,8.02519e-02,3.44414e-01,3.84980e-01,2.70283e-01,-4.40980e-01,-2.67852e-01,-3.97693e-01,3.51369e-02,-1.29254e-01,-3.16444e-01,4.08233e-02,-1.03586e-01,9.03258e-02,-9.70616e-03,-2.88488e-01,-1.72524e-01,2.28317e-01,-1.70071e-02,1.75791e-02,4.81102e-02,-9.89312e-03,4.95036e-02,-1.42264e-01,-9.22344e-02,-1.08192e-01,2.99264e-03,7.59247e-03,7.80605e-02,8.67937e-02,3.34041e-01,1.60110e-01,2.72803e-01,-2.44861e-01,-1.07031e-02,2.51623e-01,2.58226e-02,-2.21237e-02,-1.55868e-01,-5.28513e-01,2.44223e-02,-3.62462e-02,-2.29186e-01,-2.18679e-01,-1.12913e-01,7.64953e-02,-1.35320e-01,9.08673e-02,2.17222e-01,3.52818e-02,-3.83350e-02,-1.42451e-01,-1.64241e-01,-1.44997e-01,-5.16241e-02,-1.56489e-01,-1.14179e-01,3.42075e-01,3.53711e-01,-5.69995e-02,-1.11142e-01,-3.27995e-01,-2.49472e-01,-1.10600e-01,2.41012e-02,7.38861e-02,-1.53384e-01,-5.11324e-01,1.25376e-01,2.09048e-01,-3.02610e-01,-1.94017e-01,-2.37118e-01,-9.92635e-02,-1.56883e-01,1.94449e-01,2.02576e-01,-2.11733e-02,-1.42114e-01,-1.77345e-01,-5.44529e-02,-2.40019e-01,-4.72648e-02,-2.60608e-01,-6.58904e-02,1.93960e-01,4.65619e-01,2.44660e-01,1.32714e-03,-3.80015e-01,-3.80995e-01,-3.30460e-01,-6.44106e-02,1.47942e-02,-9.98802e-02,1.95569e-02,-1.74791e-03,9.36720e-02,-4.37682e-01,-4.07051e-01,-3.38250e-01,-2.51390e-01,1.06793e-02,2.47906e-01,1.79412e-01,1.36768e-01,-1.83505e-01,-1.82280e-01,-2.67179e-01,-2.98628e-01,-2.30685e-01,-2.23822e-01,-9.93873e-03,1.49890e-01,4.82054e-01,1.41269e-01,7.12620e-02,-3.74858e-01,-6.46828e-01,-3.33478e-01,-1.62283e-02,8.88879e-03,-3.36762e-01,-1.83401e-01,2.09679e-01,-1.00675e-01,-1.13979e-01,-1.13880e-01,-1.94510e-01,-9.74639e-02,6.08945e-02,1.27941e-01,2.09602e-01,7.76721e-02,-2.75479e-01,-4.89337e-01,-5.26304e-01,-1.66949e-01,-5.53868e-02,2.36479e-01,4.75925e-02,-5.18901e-02,-1.46967e-02,-8.77889e-02,-7.91223e-02,-6.23275e-01,-9.04396e-01,-3.10620e-01,4.73191e-02,-3.09435e-02,-3.23426e-01,1.32596e-01,-6.92973e-02,5.63865e-02,1.06268e-01,2.08923e-01,1.38339e-01,1.52440e-01,1.06527e-01,-7.32565e-05,1.76152e-02,-3.18213e-01,-5.23700e-01,-2.91758e-01,-2.95542e-01,1.77320e-01,2.19619e-01,2.42047e-01,2.20344e-02,-1.60454e-01,-2.82328e-01,-2.20355e-02,-2.22261e-01,-7.37556e-01,-8.72127e-01,6.83301e-03,1.15891e-02,-2.79505e-01,-2.01887e-01,4.46554e-02,-3.08522e-01,1.52820e-03,-1.01364e-02,9.27081e-02,1.41139e-01,7.10923e-03,-9.64765e-02,4.37837e-03,1.19423e-02,-1.17326e-01,-2.47312e-01,-1.66584e-01,1.02734e-01,6.21359e-01,1.91363e-01,1.45817e-01,-6.45399e-02,-1.60586e-01,7.52636e-02,-1.67646e-01,-8.31821e-02,-3.98943e-01,-1.66605e-01,-1.09574e-01,-2.14059e-02,-6.03795e-02,-3.37716e-01,-2.01158e-01,-2.27580e-01,-5.61324e-02,-1.50630e-01,-1.09435e-02,2.94713e-01,3.94402e-01,6.99895e-02,1.60391e-01,1.34733e-01,2.78360e-01,4.99136e-03,1.27455e-01,3.36060e-01,3.91054e-01,2.11272e-01,5.73224e-02,-2.04729e-01,-4.57771e-02,3.39237e-02,-6.58713e-01,-2.99482e-01,-1.95249e-01,2.43773e-02,1.57234e-02,-2.44613e-02,-1.30976e-02,-4.29832e-01,-2.85843e-01,-2.55583e-01,-4.48221e-01,-1.69756e-01,5.98675e-02,3.38650e-01,1.69633e-01,1.05416e-01,1.86671e-01,1.59174e-01,1.87172e-01,3.24241e-01,3.68816e-01,2.03701e-01,-1.77241e-01,-1.85972e-01,-2.06231e-02,-2.66802e-01,-3.79930e-01,-2.77692e-01,-6.93407e-01,-4.04322e-01,-5.22986e-01,3.71968e-02,2.81046e-02,-6.59957e-02,-1.59583e-02,-4.28082e-01,1.31496e-01,-2.88766e-01,-4.07807e-02,-3.27703e-01,-1.31168e-01,-1.68722e-01,1.72709e-01,2.90388e-01,4.08283e-01,5.45235e-01,4.86923e-01,4.45946e-01,5.32847e-01,1.69977e-01,-1.50607e-01,-6.01806e-02,-1.49095e-01,-2.89591e-01,-3.41112e-01,-5.53162e-01,-4.02033e-01,-4.86279e-01,-2.17476e-01,5.02908e-02,-3.74298e-02,-3.68616e-03,-2.07652e-02,2.19056e-01,1.15378e-01,-1.43349e-01,-5.01843e-02,-9.19758e-02,8.83787e-03,2.52911e-01,3.81810e-01,2.73109e-01,4.45141e-01,4.77864e-01,4.93056e-01,4.78834e-01,5.08791e-01,5.41917e-02,2.26389e-01,2.60716e-01,1.49713e-01,-1.80207e-01,-4.76137e-01,-5.73339e-01,-1.71847e-01,1.94069e-01,3.04109e-01,-2.84446e-01,1.41435e-02,7.50345e-03,1.78857e-02,-5.89600e-03,-4.89121e-02,-1.94832e-01,-8.48239e-02,4.02022e-01,1.18366e-01,8.38775e-02,2.61271e-01,2.52168e-01,1.57273e-01,3.64428e-01,3.35512e-01,6.35715e-01,2.45366e-01,-1.99344e-01,-1.11724e-01,2.76725e-01,-1.34439e-01,-4.16557e-01,-6.31442e-01,-7.35221e-01,-1.70463e-01,-1.28023e-01,-1.09821e-01,-1.69096e-02,9.14832e-03,-1.97939e-02,1.21536e-02,-2.38731e-02,-2.96134e-01,-3.11878e-02,-6.86365e-02,2.79790e-01,3.92299e-02,-2.25932e-01,-1.01823e-01,1.31503e-01,-7.03279e-02,6.62333e-03,3.89568e-01,1.09300e-01,-3.55003e-01,-5.07668e-01,3.39417e-02,4.12907e-01,5.10305e-01,3.59581e-02,-4.47733e-01,-2.83685e-01,-4.54280e-01,-5.05858e-01,-3.03524e-02,-4.67392e-02,3.29950e-02,2.54735e-02,9.67358e-03,2.28158e-02,-6.98648e-01,1.63357e-01,1.65416e-01,1.68043e-02,-6.03241e-02,-2.17694e-01,-1.90355e-01,-6.87891e-02,7.32550e-02,-7.59618e-02,-3.86551e-01,-5.00180e-01,-5.69954e-01,-1.79295e-01,2.99498e-02,3.82124e-02,-7.28709e-01,-4.15752e-01,-3.76070e-01,-3.73644e-01,7.77117e-02,-4.09280e-03,-1.43213e-01,8.69930e-03,1.02744e-02,1.57831e-02,-6.48165e-03,2.46263e-02,2.76388e-02,-2.77600e-01,-2.42231e-01,-3.73100e-01,-2.19453e-01,-2.44602e-01,-6.04277e-01,-9.26861e-01,-7.93519e-01,-7.97067e-01,-6.95079e-01,-9.09488e-01,-4.40252e-01,-3.93105e-03,-2.99647e-01,-4.92107e-01,-2.47466e-01,-3.16223e-02,-8.44098e-02,-9.29878e-02,2.83531e-03,-2.35279e-02,-6.61178e-03,-1.81955e-02,1.21333e-03,
1.37401e-02,1.90413e-02,2.11424e-02,-3.36696e-02,2.12821e-02,1.23039e-03,1.86653e-02,-2.48796e-02,-2.83182e-02,-1.47362e-02,-2.24177e-02,2.43170e-02,2.22459e-02,-8.81306e-03,-4.89927e-03,3.98722e-03,9.01299e-03,4.94258e-03,-3.01988e-02,3.14530e-02,2.55404e-02,2.31396e-02,1.27025e-02,-3.03702e-02,3.67144e-03,-2.77171e-02,1.07942e-02,-2.06442e-02,-1.94598e-02,3.39068e-02,1.60216e-03,1.60622e-02,3.50744e-02,1.13277e-02,-2.49458e-04,-8.28064e-02,-1.59564e-01,-5.34263e-02,-9.11462e-02,1.64184e-01,1.71381e-01,1.84853e-01,-1.05813e-02,9.27939e-03,2.10288e-01,1.22695e-01,-1.20841e-02,8.99018e-04,-1.35568e-02,-2.83078e-02,8.37072e-03,-1.79019e-02,-1.13093e-03,3.06733e-02,-3.09860e-02,-1.67392e-02,-3.40052e-02,-7.31164e-03,-1.22744e-02,4.18861e-01,4.57900e-01,-8.11361e-03,-4.71237e-03,-6.43566e-02,-1.97568e-01,-9.69740e-02,3.42843e-01,3.06934e-01,3.04113e-01,6.13433e-02,-1.10819e-01,1.19189e-01,1.92514e-01,-3.61492e-01,-4.60371e-01,-4.65945e-01,-1.83282e-01,-6.59857e-02,-1.27993e-01,-1.26506e-02,2.42284e-02,-7.89497e-03,2.75300e-02,2.26892e-02,2.04061e-02,-2.82693e-02,-3.50080e-02,2.58709e-01,-2.06102e-01,-8.81100e-02,-3.37779e-01,3.88884e-01,4.02279e-01,-3.79269e-02,-4.15680e-01,-3.66756e-01,-3.87560e-01,-4.86997e-01,-1.18143e-01,-1.06905e-01,1.31435e-01,5.90295e-01,5.44125e-01,3.62919e-01,1.18400e-01,9.70059e-02,3.07918e-01,3.94825e-01,3.45604e-01,2.96663e-01,-3.52950e-02,6.15856e-03,7.68266e-04,-2.41519e-02,-1.68993e-02,-2.95934e-01,-2.44474e-01,-2.78892e-01,-6.20277e-01,6.75864e-01,-3.42960e-01,-6.86980e-01,-9.86763e-01,-4.42711e-01,-3.13245e-01,-7.26670e-01,-7.90811e-01,-2.78779e-01,-3.20520e-01,-6.73050e-01,-2.76816e-01,-5.37841e-02,1.42545e-01,3.72459e-01,2.80116e-01,3.09694e-01,-5.17543e-02,3.60623e-01,-9.00207e-02,-2.17016e-02,-1.45861e-02,-1.40099e-02,-4.48274e-02,-6.60159e-01,-5.66912e-01,2.28022e-01,-1.05325e-01,-1.83646e-02,1.94783e-01,1.18122e-01,-3.75780e-01,-7.85491e-01,-7.05882e-01,-6.67192e-01,-1.97403e-01,-3.85339e-01,-8.85338e-02,-6.46268e-02,-8.18079e-02,2.61654e-01,-2.18223e-01,3.82907e-02,-3.36624e-01,-3.52420e-01,-6.16079e-01,-3.88672e-01,-4.26062e-01,2.74899e-02,1.57261e-02,4.85632e-02,1.58776e-01,1.05070e-01,2.00055e-01,7.02474e-01,2.66025e-01,1.86299e-02,7.78261e-02,2.98532e-01,1.24717e-01,-7.88571e-02,1.16720e-01,-9.91779e-02,-2.44992e-01,-1.65954e-01,-5.59335e-02,-7.07588e-02,-2.22408e-01,4.55189e-02,-2.22973e-01,2.58907e-01,-4.20789e-01,-8.28879e-01,-9.24048e-01,-5.10324e-01,-7.03867e-01,-3.06716e-03,7.44407e-02,2.02814e-01,4.38796e-01,5.64569e-01,8.77439e-02,8.69675e-02,3.96041e-01,2.49090e-01,1.04862e-01,2.92467e-01,1.35950e-01,-4.09218e-02,6.35450e-02,2.25296e-02,-2.07595e-01,-3.81619e-01,3.95961e-03,3.11631e-01,-1.39334e-02,4.25685e-02,5.85607e-02,2.09712e-01,1.51989e-01,-2.43444e-01,-6.99026e-01,-5.81084e-01,-8.95367e-01,3.37359e-02,-6.86103e-01,5.06741e-01,3.48639e-01,3.91837e-01,-6.13333e-02,3.82712e-01,4.82483e-02,4.15182e-01,1.88677e-01,6.66780e-03,4.08264e-01,2.33005e-01,9.93810e-02,-1.14289e-02,7.87499e-03,1.55410e-01,1.76076e-01,1.94620e-01,1.33115e-01,6.48664e-02,-7.72602e-02,-4.97442e-02,1.60177e-01,3.23546e-02,-4.71537e-01,-3.23249e-01,-7.23676e-01,4.19047e-02,1.84736e-01,3.24525e-01,8.69156e-02,4.93607e-01,3.10447e-03,2.30791e-01,5.51847e-01,3.11259e-01,5.73666e-02,1.88604e-01,3.15939e-01,6.14223e-02,2.38050e-01,3.78445e-01,2.99408e-01,1.48503e-01,4.57712e-02,3.32047e-01,1.88693e-01,2.12144e-01,1.41407e-01,2.09729e-02,3.21587e-01,4.24055e-02,-4.19839e-01,-3.26287e-01,-6.77172e-01,8.15486e-03,2.52764e-01,2.89330e-01,2.32018e-01,3.75581e-02,-3.64612e-02,1.26427e-02,2.14402e-01,6.79749e-03,-1.67824e-02,1.86295e-01,-1.01859e-01,1.14921e-01,2.46348e-01,5.33860e-01,-9.17954e-02,2.84448e-01,2.07218e-01,3.81622e-01,1.85607e-01,2.63661e-01,1.42261e-01,2.26552e-01,4.92312e-02,-1.37685e-01,-4.46945e-01,-2.87134e-01,-5.25965e-01,-1.69412e-02,2.02705e-01,2.08412e-02,2.98380e-01,3.07784e-01,-1.88157e-01,-1.54167e-01,8.08713e-02,5.00290e-02,1.65750e-02,-7.41379e-02,-6.62434e-02,3.59719e-01,1.71865e-01,-6.51956e-02,-1.36377e-01,2.54376e-02,-3.40258e-02,1.86079e-01,1.06178e-01,2.17498e-01,3.28094e-01,2.04943e-02,-1.14873e-01,-4.61002e-01,-3.45657e-01,-3.50979e-01,8.35420e-02,-5.69190e-02,1.21744e-01,2.78816e-01,-2.42309e-02,-4.86586e-02,-4.89915e-01,-2.84317e-01,-1.02610e-01,1.50012e-01,8.91778e-02,-1.42322e-01,-9.15879e-02,5.26229e-02,-3.57391e-01,-9.32402e-01,-7.54650e-01,3.67770e-02,1.55547e-01,7.96546e-03,3.76171e-02,-7.51536e-02,1.18328e-02,4.24650e-02,-1.64085e-01,-6.36948e-01,-7.06054e-01,-7.58287e-01,3.52371e-02,2.67907e-02,-3.21538e-03,1.65170e-01,4.90139e-01,2.08313e-01,-1.68605e-01,-2.38356e-01,-2.25351e-01,1.10643e-01,1.63912e-01,-3.73701e-01,-4.66903e-01,-1.89346e-01,-1.07370e+00,-1.04581e+00,-4.74406e-01,-6.26595e-02,3.29067e-01,4.97932e-02,-3.35441e-02,-2.06909e-01,-9.85471e-02,-4.33706e-02,-3.10382e-01,-6.06713e-01,-9.36075e-01,-5.72436e-01,2.32470e-01,1.81031e-02,-3.19622e-02,1.75257e-01,6.51988e-01,3.70856e-01,2.62420e-03,3.90850e-02,-3.80363e-02,1.44186e-01,-2.60194e-01,-6.64755e-01,-4.82720e-01,-4.57479e-01,-6.49952e-01,-4.13193e-01,-1.48942e-01,1.98930e-01,2.23189e-01,1.72007e-01,6.10214e-02,1.19866e-01,-1.79658e-01,-2.86443e-01,-2.41650e-01,-9.41489e-02,-1.68803e-01,-2.33222e-01,3.06544e-01,-1.48489e-02,9.57898e-02,2.17220e-02,3.85859e-01,-2.43444e-02,-2.45466e-01,-1.57606e-01,-4.00272e-02,-9.32354e-02,-5.08721e-01,-5.41421e-01,-6.50305e-01,-5.14648e-01,-2.28127e-01,1.11613e-01,8.08650e-02,3.55222e-01,7.75282e-02,2.28764e-01,2.36143e-01,-2.67101e-01,-1.69091e-01,2.72122e-01,1.04592e-01,9.11167e-03,-5.02268e-02,-1.26708e-01,5.93133e-01,1.31361e-03,1.09718e-01,1.38921e-01,2.09106e-01,-2.31736e-01,-3.60636e-01,-3.54272e-01,-2.63158e-01,-1.36385e-01,1.12768e-01,-3.69685e-01,-8.15788e-01,-4.92444e-01,3.13937e-02,1.04435e-02,6.85582e-02,3.18579e-01,1.65991e-01,2.24353e-01,2.70580e-02,-1.32725e-01,-2.41311e-01,2.22482e-01,-1.23061e-01,-1.69642e-01,-4.61374e-02,-2.05925e-01,5.38521e-01,-5.09996e-01,-2.92809e-02,1.49362e-01,9.65842e-02,-3.88357e-02,1.42939e-03,-3.63121e-01,-1.05769e-01,1.17848e-02,1.29923e-01,-6.69304e-02,-3.54347e-01,-2.13676e-01,-1.18153e-01,-3.33872e-02,1.38417e-01,3.94716e-01,1.85066e-01,-5.80412e-02,1.29854e-01,1.95506e-01,-3.15003e-02,1.04317e-01,-1.90766e-02,-2.37039e-02,-1.18986e-01,8.20676e-02,-6.28750e-01,-5.44109e-01,3.01285e-01,5.34552e-02,3.88968e-01,-1.32334e-01,2.00894e-01,-2.05320e-01,-1.48112e-01,2.88162e-01,2.79988e-01,-2.96469e-01,-2.45241e-01,-2.24048e-02,-1.17931e-01,3.38486e-02,8.62730e-02,3.64421e-01,1.44281e-01,1.84211e-01,1.76215e-01,1.15455e-01,1.61782e-01,2.08399e-02,-2.49189e-01,-3.63783e-01,-4.51793e-01,-2.89299e-01,-2.41487e-01,-5.56473e-02,4.20009e-03,2.42384e-01,7.84286e-01,-4.15080e-02,4.88176e-01,-5.49715e-02,2.59145e-01,2.81911e-01,3.63787e-01,2.53516e-01,4.51257e-02,4.79352e-02,-1.31715e-01,-1.71468e-01,6.36017e-02,2.40104e-01,-3.08658e-02,2.57929e-03,-2.59202e-01,-7.14489e-02,-2.91792e-01,-3.90929e-01,-7.10282e-01,-6.15349e-01,2.53638e-02,8.80495e-03,-1.62447e-01,1.83775e-02,1.00970e-04,1.85245e-01,7.65049e-01,2.12288e-01,1.73358e-01,-2.26614e-01,1.45493e-01,3.31378e-01,7.22086e-02,-1.29727e-01,-2.16051e-01,-1.00777e-01,-1.22436e-01,-1.32767e-01,4.74055e-02,-3.18549e-02,-3.89626e-01,-3.16750e-01,-5.52398e-01,-8.21105e-01,-6.97713e-01,-5.65486e-01,-5.02007e-01,-3.85322e-01,5.54410e-02,2.60193e-02,-2.63697e-01,-1.97702e-02,-3.44725e-02,-2.22228e-02,7.54150e-01,-1.10297e-01,4.70238e-01,-5.30427e-02,-1.40729e-01,-1.93496e-01,-1.58051e-01,-1.14524e-01,-6.50899e-02,9.23488e-03,-1.72620e-02,-1.36063e-01,-1.93774e-01,-2.09443e-01,-2.31823e-02,-1.46194e-01,-2.84220e-01,-5.77632e-01,-5.87447e-01,-2.23389e-01,-2.28890e-01,-4.15361e-01,-5.22614e-02,1.31196e-01,8.26590e-03,-2.50229e-02,-3.31838e-02,-4.23740e-02,6.93931e-01,-4.06919e-01,-6.05389e-03,1.18532e-02,1.71871e-01,-1.72192e-02,1.10799e-01,1.35844e-01,2.37539e-01,-4.00399e-02,-2.98711e-02,-2.76726e-01,-1.99386e-01,1.38880e-01,-6.04420e-02,1.80525e-01,-6.20013e-02,-1.62944e-01,-2.89936e-01,-3.12482e-01,-1.81310e-01,-6.42833e-01,-1.73123e-01,1.17804e-01,-1.89384e-02,3.27106e-03,-1.60233e-02,1.09172e-02,-1.48957e-01,-4.72449e-01,-4.40376e-01,-1.40363e-01,5.72085e-01,3.96522e-01,-1.67810e-01,-4.25385e-02,-3.22246e-02,-1.16955e-01,-1.95342e-01,1.55808e-02,1.66091e-03,-3.34694e-03,-2.21321e-01,-2.27863e-01,-1.86641e-01,-3.61052e-01,-1.83352e-01,-2.80574e-01,-2.77265e-01,-2.62107e-01,-2.68742e-01,-5.19206e-02,-1.33511e-01,-1.98841e-02,-1.35928e-03,1.63704e-02,6.55645e-01,4.36601e-02,-1.43888e-01,3.79204e-01,4.33331e-01,-4.03885e-04,-2.58790e-01,-1.62734e-01,1.36671e-02,4.05808e-02,-1.11701e-01,7.69800e-02,3.04269e-02,-1.23655e-01,-2.35635e-01,3.62049e-02,-3.43876e-01,-1.96278e-01,5.12076e-01,5.96798e-01,-2.66853e-01,-2.16116e-01,2.32335e-01,8.10567e-02,2.19047e-02,-2.84404e-03,3.48695e-03,1.71249e-02,-1.20331e-01,7.85710e-01,5.32382e-01,2.39822e-01,5.19527e-03,-2.47362e-01,-2.23305e-01,-7.63081e-02,-1.02671e-01,-2.35780e-01,1.90070e-01,-3.08903e-01,-9.84747e-02,5.25865e-02,-5.81264e-02,-1.15583e-01,2.10569e-01,2.85009e-01,2.71992e-01,1.18446e-01,-1.07421e-01,-4.38265e-01,-7.57616e-02,1.47971e-01,-1.04302e-02,9.18495e-03,6.13635e-03,-8.38403e-03,1.75330e-02,4.08124e-01,-4.94333e-01,-3.59976e-01,-1.12349e-01,4.12554e-01,-1.08707e-01,-2.16694e-02,-1.77613e-01,-1.57580e-01,-2.75442e-01,2.08261e-01,3.73284e-01,7.84195e-02,6.34210e-02,-1.37462e-01,-1.10712e-02,3.83224e-01,5.01105e-01,1.19100e-01,-1.02272e-02,-1.63333e-01,-1.54330e-01,2.20382e-01,3.11664e-02,2.23241e-02,-8.79495e-03,-1.67399e-02,2.43325e-02,-1.72240e-02,2.33667e-01,4.12107e-01,4.60439e-01,5.23440e-01,1.08379e-01,-1.09366e-01,3.84988e-01,2.14107e-01,2.03810e-02,5.21651e-01,3.72207e-01,-1.23481e-01,-1.11138e-01,4.81484e-01,6.19401e-01,4.11052e-01,2.80718e-02,-8.79434e-02,-2.41234e-01,2.47003e-01,2.18446e-02,1.90158e-02,-1.67049e-02,-8.57128e-04,
3.35381e-02,-1.10797e-02,6.50423e-04,-5.87971e-03,-3.10466e-02,-8.47814e-03,-3.17031e-02,1.10419e-02,-8.07881e-03,3.48218e-02,5.35543e-04,-2.42902e-02,8.19317e-02,6.06439e-02,-3.57545e-02,1.79892e-02,-1.34599e-02,-1.32219e-02,-3.10228e-02,-2.23200e-02,-1.09406e-02,-2.24004e-02,-4.00769e-03,-2.87356e-02,9.14179e-03,2.94373e-02,8.22158e-03,-2.49314e-02,-1.74101e-02,-8.79620e-03,-2.42383e-02,-3.43092e-02,5.89710e-02,1.83329e-02,1.41250e-01,1.88847e-01,1.75226e-01,1.12397e-01,8.59237e-02,4.08651e-02,3.19542e-01,3.09871e-02,-3.60468e-01,1.70887e-01,-1.97364e-01,-1.60130e-01,4.35617e-02,4.38423e-01,4.58078e-01,1.56369e-01,9.37951e-02,5.58244e-02,2.18808e-02,-1.23412e-02,2.88849e-02,-2.97104e-02,2.60147e-02,-1.32659e-02,5.17398e-02,-1.93878e-01,-2.48964e-01,7.04331e-04,7.89932e-02,1.01858e-01,2.13399e-01,2.08863e-01,2.18923e-01,4.24782e-01,2.61480e-01,4.32182e-01,5.48581e-01,3.53692e-01,2.01139e-01,2.63003e-01,1.47808e-01,1.22653e-01,6.47150e-02,3.44120e-01,4.31724e-01,2.10729e-01,1.83132e-01,9.31354e-02,2.07042e-02,1.58307e-02,-2.77974e-02,3.15771e-02,-1.30854e-01,-1.19001e-01,-1.49561e-01,2.39986e-01,5.99725e-01,4.04329e-01,6.70565e-01,4.91917e-01,3.75062e-01,6.27604e-01,5.52072e-01,4.67780e-01,2.18977e-01,-5.76112e-02,1.30193e-01,-2.82011e-01,-4.25170e-01,-3.54755e-01,-3.99577e-01,4.08507e-01,1.13587e-01,2.89155e-01,-9.79528e-02,-1.79492e-01,4.75098e-01,3.37654e-02,-2.24392e-02,-9.64291e-03,-1.47464e-01,-1.88356e-01,1.17450e-01,1.88940e-01,2.54115e-01,4.51473e-02,3.06615e-01,1.65662e-01,4.61495e-01,8.97269e-02,-5.86880e-03,-2.55132e-01,-9.09652e-02,-3.81366e-01,-3.69321e-01,-1.78262e-01,-1.26127e-01,-6.35613e-02,-1.73359e-01,-1.50570e-01,-5.90333e-02,-6.34589e-02,-3.87993e-01,-3.92481e-01,1.38728e-01,3.17435e-01,3.53089e-02,8.08187e-03,1.50287e-01,-2.26215e-01,1.20244e-01,9.98759e-02,1.40880e-01,3.70461e-01,-2.76286e-02,-1.15726e-01,-1.69639e-01,-3.11318e-01,-3.14333e-03,1.08291e-01,-4.23099e-02,-3.15725e-01,-4.01879e-01,-4.26916e-01,-2.81554e-01,-3.92994e-01,-3.88116e-02,-1.58968e-01,-2.82661e-01,-2.42470e-01,-1.59893e-01,-1.53240e-01,4.06137e-01,2.81987e-01,5.72443e-03,1.90521e-02,-1.58475e-01,-6.01517e-01,6.18474e-02,-1.01815e-01,-1.55914e-01,-1.82755e-01,-2.83932e-01,-9.71298e-02,-2.14870e-01,-2.84704e-02,5.41419e-03,-7.42664e-02,-2.51297e-01,-2.31244e-01,-1.03221e-01,-4.05932e-01,-3.20225e-02,-1.33997e-02,-3.54585e-02,-2.55373e-01,-1.48383e-01,-1.34446e-01,-1.27593e-01,3.44505e-02,-1.15934e-01,6.13396e-02,-2.41504e-02,-4.69542e-02,1.34036e-01,1.06226e-01,3.40485e-01,-1.64219e-01,-1.10224e-01,-3.05965e-02,-6.99500e-02,-1.08167e-01,-1.26134e-01,4.26533e-02,-1.36475e-01,-2.15830e-01,-1.27387e-01,7.22148e-02,3.56660e-02,-1.31268e-01,-1.92798e-01,-2.52590e-01,-1.98791e-01,-1.94924e-02,-2.32690e-01,-2.85935e-01,1.27422e-01,3.57784e-01,1.39120e-01,-7.99914e-02,-5.50732e-01,-2.00010e-01,3.07552e-01,2.46345e-01,1.11908e-01,-2.66506e-02,-7.22304e-02,-5.15897e-02,-1.17614e-01,-1.87084e-01,-1.66875e-01,-2.16461e-02,-4.85520e-01,-1.82898e-01,1.34564e-01,7.77632e-02,9.91323e-02,-2.08011e-01,-1.70579e-01,-4.03301e-01,-2.22336e-01,1.39805e-01,-2.64828e-01,-2.50173e-01,1.77632e-01,3.08793e-01,4.21168e-01,-3.81182e-02,-5.88677e-02,-1.63496e-01,3.75717e-01,4.32273e-01,1.48562e-01,-4.48564e-02,-1.49524e-01,4.16238e-02,-2.16601e-01,-1.95330e-01,-3.23349e-01,-1.85443e-01,-8.54049e-02,2.12407e-01,1.20144e-01,-1.43516e-01,-2.19694e-01,5.56044e-02,-1.88936e-01,-2.66460e-01,-2.40028e-01,2.00727e-02,-1.50341e-01,5.67659e-02,1.63236e-01,-2.19607e-01,-1.83664e-02,-2.93469e-01,-2.23911e-02,-1.24549e-01,-1.97647e-01,3.22217e-01,7.17841e-02,1.06698e-03,-2.79830e-01,-5.55872e-02,-1.89738e-01,-1.26745e-01,-1.70696e-01,-3.24714e-02,5.00835e-01,-9.39064e-03,-1.67714e-01,-5.69975e-01,-4.73944e-01,-3.02053e-01,-1.71351e-01,-2.66702e-01,-2.15128e-01,-1.27487e-01,6.45756e-02,2.62971e-01,2.51773e-01,-2.18817e-01,-2.00820e-01,-3.26543e-01,-5.89901e-02,-9.74166e-01,-7.92938e-02,-2.82698e-01,-9.89329e-02,2.01664e-01,-1.84919e-01,-3.35406e-02,3.22658e-02,5.28419e-02,-6.35900e-02,-1.67464e-02,1.99706e-02,-7.59984e-01,-4.52287e-01,-5.91831e-01,-3.87964e-01,-2.57385e-01,-1.25741e-01,1.48897e-01,8.51407e-02,1.73528e-01,1.02953e-01,3.39882e-01,4.94005e-01,6.02263e-01,1.62581e-01,-8.17863e-01,-5.43870e-02,-4.20420e-02,2.10990e-01,-7.06046e-01,1.42794e-01,3.13654e-01,2.39429e-01,1.12378e-02,-5.82040e-02,-1.82334e-01,-1.25431e-01,-3.52643e-01,-5.81725e-01,-7.46613e-01,-1.17757e-01,-9.18537e-02,1.42675e-01,2.75280e-01,2.96125e-01,3.42966e-01,4.26015e-01,5.16969e-01,2.57548e-01,4.16162e-01,3.63136e-01,-8.64345e-02,-4.41004e-01,-6.75339e-01,-8.40457e-03,-1.51640e-02,7.22366e-03,-6.02192e-01,3.29610e-01,1.94935e-01,1.71932e-01,-8.67978e-02,-2.48704e-01,-3.96446e-04,-4.01970e-02,-8.69072e-02,-1.83743e-02,2.57501e-01,3.89033e-01,6.05634e-01,6.24452e-01,3.15164e-01,3.70571e-01,4.76659e-01,2.59227e-01,2.61621e-01,4.39768e-01,3.35775e-01,-1.21701e-02,-3.90914e-01,3.30512e-01,-1.33133e-01,-3.91617e-02,2.20737e-02,-5.82600e-01,-1.91520e-01,1.26686e-01,-4.05234e-02,1.81219e-02,-9.30931e-02,1.41894e-01,8.37116e-02,2.56646e-01,3.47595e-01,3.61538e-01,6.54494e-01,4.02881e-01,5.20819e-01,4.11296e-01,2.94661e-01,3.39835e-01,1.89229e-01,5.71608e-02,2.42241e-01,2.99590e-01,1.27815e-02,-1.29201e-01,-8.15180e-02,5.99121e-02,-1.55585e-02,-1.55547e-02,1.00053e-02,-6.40417e-01,2.82812e-02,-1.05531e-01,-6.64284e-03,-2.78826e-01,-9.61653e-02,2.00436e-01,-5.06369e-02,1.99356e-01,2.87999e-01,4.58632e-01,5.41515e-01,3.75010e-01,2.17666e-01,1.21000e-01,-9.92427e-02,4.97312e-02,1.49748e-01,-7.64076e-02,-8.54374e-02,-1.90930e-03,-2.47344e-02,-4.58758e-01,-2.97189e-01,-3.25593e-01,3.87541e-01,-7.55148e-03,-1.42154e-02,-5.27749e-01,-2.21966e-04,-4.19201e-01,-2.30672e-01,-1.12291e-02,1.60117e-01,2.40588e-01,-4.86455e-02,1.51538e-01,3.33625e-01,3.95976e-01,2.93003e-01,1.79132e-01,4.25162e-02,-2.32155e-01,-2.46406e-01,2.64890e-04,-2.38749e-02,-1.13956e-01,-2.36073e-01,-1.02417e-01,-4.90393e-02,-3.85290e-01,-2.25521e-01,-2.63866e-01,5.37057e-01,1.19474e-02,4.49775e-03,3.24753e-01,3.42508e-01,-8.69345e-01,-4.27162e-01,2.22994e-02,3.91300e-01,3.41201e-01,-2.08381e-01,1.74277e-01,2.87178e-01,-6.30697e-02,-1.69653e-01,-2.36213e-01,-1.73503e-01,-1.59156e-01,-9.52094e-02,-8.27000e-02,-1.01278e-01,-3.09539e-01,-2.63057e-01,-3.73109e-01,-1.68966e-02,-1.06975e-01,-5.27445e-02,-2.44116e-01,1.87068e-01,2.65287e-01,3.79185e-03,2.99211e-01,2.93792e-01,-5.19394e-01,-9.11038e-02,2.32990e-01,2.85955e-01,2.58246e-01,-1.36051e-01,2.46542e-01,-4.60365e-02,-4.44580e-01,-3.13527e-01,7.95367e-03,1.08487e-01,-9.74007e-02,8.26768e-02,-6.18185e-02,-1.92654e-01,-1.69298e-01,-1.09107e-01,-3.88876e-02,4.02813e-01,3.44003e-01,4.87357e-01,6.17847e-02,-4.07020e-02,-1.75382e-02,-2.80145e-01,1.77531e-01,-6.25595e-01,-6.01269e-01,-1.48535e-02,-7.69424e-02,1.70214e-01,1.09903e-01,1.25491e-02,1.74464e-01,1.26499e-01,-4.57501e-01,-2.62320e-01,1.83753e-01,8.05130e-02,-4.38772e-02,1.08724e-01,7.65568e-02,1.04609e-01,-1.21869e-02,-1.09186e-01,1.75737e-01,3.83979e-01,1.24550e-01,-2.55727e-02,7.94516e-02,-5.28755e-02,7.65167e-03,-3.24086e-01,4.04854e-01,-1.07224e-01,-1.08726e+00,-4.52826e-01,-4.90443e-01,4.50210e-02,-7.60635e-02,2.70561e-02,1.28348e-01,-3.89569e-02,-2.37993e-01,7.18272e-02,3.25356e-01,1.16014e-01,-1.25288e-02,9.79287e-02,1.77995e-01,-1.30063e-01,-1.96596e-01,8.51285e-02,-1.95151e-02,-1.13884e-01,-1.78830e-01,-4.17497e-01,1.67588e-02,-1.94171e-02,3.22737e-02,1.18559e-02,3.41821e-01,3.06683e-01,-5.73885e-01,-4.66629e-01,-2.03615e-01,3.38234e-01,1.78685e-01,2.54804e-01,8.28373e-02,1.29244e-01,4.17299e-01,1.96871e-01,2.90507e-01,-7.20015e-02,-1.47202e-01,-3.64342e-02,8.53688e-02,-1.66381e-01,-2.73827e-01,-6.20242e-02,-1.31397e-01,-3.73202e-01,-6.49277e-01,-6.43244e-01,-6.60005e-01,-5.83139e-03,2.23907e-02,3.31251e-02,8.59945e-02,-5.15078e-01,-1.29014e-01,-4.26643e-02,-2.12227e-01,5.99278e-02,-1.70899e-01,-2.54798e-01,1.75439e-02,-5.10808e-02,-6.13919e-02,1.14488e-01,1.39910e-01,-1.45835e-01,-1.90544e-01,-3.17321e-02,2.47712e-01,-2.05285e-01,-2.45276e-01,-3.92401e-01,-3.33919e-01,-7.72919e-01,-8.76295e-01,-5.41057e-01,-6.37647e-01,2.18881e-02,-1.45086e-02,-1.90757e-02,2.53416e-02,-5.91697e-01,1.91316e-01,1.11263e-01,-1.39300e-01,-4.17560e-01,-7.98352e-02,-3.98858e-02,-1.12489e-01,-1.71537e-01,-8.47045e-02,-1.98377e-01,-2.03119e-02,-2.47773e-01,-1.75764e-01,2.10178e-02,2.05975e-01,-1.76103e-01,-1.81879e-01,-7.01947e-02,-2.90632e-01,-7.05384e-01,-7.69505e-01,-3.61419e-01,-3.85587e-01,-1.55333e-02,-2.65741e-02,2.04590e-03,-1.14401e-02,-2.81920e-01,3.88187e-01,-6.39262e-02,2.60754e-01,1.67187e-01,-1.39797e-01,2.37356e-01,1.55948e-01,3.10536e-02,2.14750e-01,2.84586e-02,3.13915e-01,1.94894e-01,1.24023e-01,1.20341e-01,2.36783e-01,3.78194e-01,-1.37319e-01,-3.39391e-02,-2.61721e-02,-2.73543e-01,-6.57884e-01,-2.24702e-01,-2.76493e-01,1.22326e-02,1.52915e-02,1.49441e-02,1.40265e-01,-4.47115e-01,-5.70768e-01,-2.10831e-01,-3.10025e-03,2.82256e-01,2.46134e-01,1.68645e-01,-3.77201e-01,-1.19140e-01,2.98435e-01,1.77920e-01,4.15032e-01,1.97528e-01,-1.28401e-01,5.98086e-02,6.06042e-02,2.83996e-01,1.25189e-01,7.09480e-02,4.09190e-01,5.42025e-01,-1.79295e-01,-1.65875e-01,-3.22822e-01,-1.73625e-02,1.19931e-02,-3.36803e-02,-6.95111e-03,1.31973e-01,1.99976e-01,-2.61705e-01,-5.69910e-02,-4.45809e-03,3.06281e-01,-1.20364e-02,-1.10343e-02,1.40721e-02,1.71489e-01,-1.53432e-01,1.00173e-01,1.18297e-01,-2.11777e-02,1.06924e-01,5.82231e-02,4.19432e-01,7.02378e-01,4.16974e-01,3.32512e-01,2.89191e-01,-2.79318e-02,-1.18450e-01,1.43609e-02,-2.16486e-02,2.40664e-02,-3.29087e-02,-2.43378e-02,-1.41130e-02,-8.53692e-02,-1.70696e-01,-5.25116e-02,-7.96664e-02,2.48617e-01,3.19009e-01,3.47437e-01,2.44967e-01,2.93691e-01,-1.50370e-01,4.25793e-02,-1.08035e-01,-2.15248e-01,-6.22440e-01,-3.04602e-01,6.72443e-01,1.61844e-01,1.59520e-02,-1.83386e-02,-1.49648e-02,1.92962e-03,-3.52403e-02,-1.59750e-02,-3.48798e-02,
1.06789e-02,-8.02283e-03,-1.62190e-02,1.46503e-02,1.17042e-04,8.30012e-04,2.50494e-02,-3.45119e-02,1.84288e-02,3.46068e-02,-2.18703e-02,-1.37720e-02,-3.65888e-02,1.53559e-02,4.14024e-02,2.65705e-02,-1.03640e-02,2.93671e-02,-2.60319e-02,1.66092e-02,1.49078e-02,3.27155e-02,4.80528e-03,3.64316e-03,3.11001e-02,6.17378e-03,-1.70830e-02,-2.60212e-02,-1.07715e-02,7.94880e-03,8.19344e-03,-3.54905e-02,1.46683e-02,-3.54206e-02,-4.91927e-02,2.28966e-02,2.82621e-02,1.49063e-02,5.13516e-02,2.54776e-04,1.13192e-01,-1.22308e-01,-1.87908e-01,-1.84627e-01,-1.58239e-01,-1.92855e-01,7.87824e-03,-1.43963e-02,-3.53040e-02,-1.12712e-01,-6.58997e-02,-3.92007e-03,5.14091e-03,-8.57830e-03,3.08758e-02,-2.83647e-02,-3.10663e-02,-1.95929e-05,-2.03194e-02,-1.57290e-01,-1.49068e-01,-1.29731e-02,-1.29277e-02,8.10527e-04,2.97244e-01,4.64843e-01,5.20635e-01,3.72448e-01,1.74047e-01,-3.58358e-02,2.26985e-01,4.05731e-01,4.32285e-01,4.66110e-01,1.05386e-01,-3.34893e-01,-5.47299e-02,2.81882e-01,1.54294e-01,-2.44148e-02,-6.69444e-03,2.15225e-02,2.85561e-02,-3.48729e-02,3.65657e-03,-2.15225e-02,1.98861e-02,-6.51380e-01,-6.06845e-01,3.38401e-03,8.48306e-04,4.64405e-01,5.29897e-01,3.47178e-01,-2.77018e-02,4.53327e-02,-5.71978e-03,-5.80031e-02,1.16354e-01,-4.74235e-01,-3.71051e-01,-2.02679e-01,3.01870e-01,1.50200e-02,-4.12286e-02,-2.72707e-02,3.89426e-01,2.22011e-01,6.39340e-01,6.68945e-01,6.17147e-02,-1.95066e-02,1.00832e-03,8.49154e-03,1.68435e-02,-4.90821e-01,-1.45179e-01,-3.99659e-01,-2.75848e-01,-3.34507e-01,-1.72221e-01,-1.76184e-01,1.43328e-01,-3.62513e-02,4.38381e-02,1.02717e-01,6.72128e-02,-2.17052e-01,-1.54632e-01,-1.43160e-02,1.90313e-01,1.14376e-01,-5.48939e-02,-9.20872e-02,1.28669e-01,-5.19994e-01,-1.38679e-01,1.22844e-01,2.88010e-01,6.77566e-02,1.29703e-02,-2.03142e-02,1.11882e-01,-4.90044e-01,-2.36776e-01,-6.37215e-01,-2.84589e-01,-3.62675e-01,-4.20866e-01,-6.52684e-02,-2.35463e-01,-2.62742e-01,-4.03780e-02,-2.56105e-01,-4.08221e-03,8.13700e-02,-4.15930e-02,-2.48205e-01,7.60228e-02,1.66420e-01,2.80215e-01,1.74224e-01,9.28617e-02,3.85626e-01,1.81145e-01,3.72182e-01,2.93992e-01,-2.03182e-03,1.23588e-02,1.47061e-01,-1.63897e-01,-3.64512e-01,-2.28206e-01,-4.60828e-01,-1.44475e-01,-1.14515e-01,-1.92746e-01,-4.03471e-02,-3.17363e-02,-1.87736e-01,5.96506e-02,1.19772e-02,-5.78338e-02,1.79586e-01,6.89462e-04,-5.20862e-02,9.56181e-02,2.71650e-01,2.52930e-01,1.09824e-01,1.94565e-01,8.37861e-02,-3.04111e-01,-5.06441e-04,1.04361e-01,1.22639e-02,9.06976e-03,3.29329e-01,1.69196e-01,-1.66040e-01,-9.85325e-02,-1.28434e-01,-3.14292e-01,-9.01723e-02,1.27685e-01,6.38139e-02,9.20316e-02,1.73749e-02,2.13071e-01,-1.66417e-02,-3.02937e-01,-2.53104e-01,-1.12480e-01,-1.69771e-01,-2.69937e-02,2.46380e-01,3.78946e-01,1.78592e-01,7.35529e-02,1.02004e-01,-3.77024e-02,-1.70156e-01,-1.39354e-01,-1.10602e-01,-1.82696e-01,-3.47634e-01,2.49726e-01,2.35028e-01,1.56824e-01,-4.42875e-02,4.94662e-03,1.23603e-01,8.33125e-02,-1.76752e-02,6.31192e-02,2.53502e-01,1.09293e-01,2.65742e-01,-5.73919e-02,-4.60547e-01,-3.56768e-01,-1.05445e-01,5.76824e-02,3.70625e-01,2.28000e-01,2.88182e-01,3.74331e-01,-1.49301e-01,-3.87666e-01,-2.41669e-01,2.17184e-01,-1.55909e-01,-8.41992e-03,-2.64971e-01,1.07126e-01,2.58398e-01,1.66460e-01,-8.38081e-02,-2.93201e-01,1.18084e-02,1.35044e-01,2.62607e-02,1.35407e-02,-2.67913e-01,-2.25822e-01,-7.55549e-02,-3.35298e-01,-4.75378e-01,-1.70324e-01,-2.10754e-02,1.99521e-01,4.16740e-01,4.52363e-01,3.10478e-01,3.09170e-01,-6.40629e-02,-7.25367e-01,-6.02446e-01,5.17238e-02,3.05348e-01,-1.48590e-02,-1.06356e-01,-5.78071e-02,2.17361e-01,-2.82547e-02,2.09256e-01,-1.33125e-01,-1.03455e-01,-7.06140e-03,-6.69822e-02,-1.47615e-01,-4.74247e-01,-5.82824e-01,-6.39055e-01,-4.73273e-01,-3.48798e-01,-8.51297e-02,2.73756e-01,7.35256e-01,6.00774e-01,3.98758e-01,2.22713e-01,4.25721e-01,1.21325e-01,-5.24746e-01,-6.32583e-01,-9.89311e-02,3.43603e-01,-2.20922e-02,-9.77811e-01,-3.39780e-01,4.46150e-02,-6.04758e-02,1.97142e-01,-2.77019e-01,-2.80475e-01,-1.54871e-01,-1.58420e-01,-8.16732e-02,-1.83137e-01,-2.43587e-01,-3.23564e-01,-5.69159e-02,3.45522e-01,3.99954e-01,5.80497e-01,5.59362e-01,5.38579e-01,3.05382e-01,3.09697e-01,1.14919e-01,-1.54325e-01,1.71434e-02,-1.14992e-01,1.20159e-01,-1.86592e-01,-3.83069e-02,-1.75346e-01,-1.59151e-01,-2.43177e-01,-1.49937e-01,-3.11617e-02,-1.59831e-01,-3.04342e-01,-5.20202e-01,-3.66384e-01,-1.76172e-01,2.66903e-02,-6.91391e-02,9.55925e-02,7.50436e-02,3.68955e-01,4.26767e-01,5.37553e-01,1.22759e-01,1.90704e-01,-3.19629e-02,9.07766e-02,-4.09490e-01,-1.64293e-01,2.71632e-02,-3.59630e-01,-1.13456e-01,3.49515e-02,1.73887e-02,-1.10383e-01,-1.97360e-01,-3.25649e-02,-6.87042e-01,-4.35823e-02,-6.30052e-02,-2.16241e-01,-5.53583e-02,-3.86768e-01,-3.87411e-01,-1.61901e-01,-1.65677e-01,2.66705e-01,3.74761e-01,5.04791e-01,2.89302e-01,9.82220e-02,1.13806e-01,-1.27678e-01,-6.38874e-02,-2.84364e-01,-5.04563e-01,-3.35055e-01,-1.52173e-01,-1.60112e-01,-2.90426e-02,-4.82525e-03,-3.66335e-02,-4.04973e-02,-2.08142e-01,1.92368e-01,-5.86375e-01,-2.42961e-01,-1.91714e-02,7.45789e-02,2.51402e-01,-2.90713e-01,-6.29048e-02,-3.38373e-02,-1.77471e-02,2.69315e-01,4.96189e-01,4.35894e-01,2.24620e-01,1.22096e-02,2.24488e-01,-2.09233e-01,-1.79754e-01,-5.00519e-01,-3.55298e-02,-1.23239e-01,-1.97544e-01,4.11850e-01,5.39761e-01,1.18743e-01,2.78802e-03,3.86159e-02,4.40879e-01,1.41675e-01,-2.98284e-01,1.99639e-01,1.96387e-01,-6.02920e-02,1.70207e-01,6.77185e-02,-8.87200e-03,1.08622e-01,-4.58906e-02,3.07464e-01,2.62560e-01,2.61734e-01,1.57177e-01,-1.34165e-01,-3.09620e-02,-2.81805e-01,-3.48380e-01,-2.05220e-01,5.30776e-02,-3.49952e-01,-2.84844e-01,2.70556e-01,4.98148e-01,1.67028e-01,-8.63579e-03,4.63391e-01,2.89272e-01,-1.92740e-02,-7.93850e-02,1.13467e-01,3.19882e-01,-9.58191e-03,2.14980e-03,1.43330e-01,1.66200e-01,1.27693e-01,4.09972e-01,3.40695e-01,3.43782e-01,-4.92732e-02,7.99291e-02,9.56532e-03,-3.35722e-02,-1.47970e-01,-3.53960e-01,1.21488e-01,2.30709e-01,-2.11038e-01,1.83458e-01,4.92133e-01,5.08211e-01,-2.29065e-02,-1.14877e-02,2.16320e-01,-1.33181e-01,-3.80539e-02,-6.77054e-02,-1.87293e-01,-1.12858e-01,1.43881e-01,-1.06893e-01,-3.57555e-01,5.38268e-03,2.36871e-01,4.50650e-01,3.23570e-01,1.42267e-01,-2.99028e-01,-6.77675e-02,-1.11930e-01,-1.45098e-02,-1.07071e-01,-1.88507e-01,2.32757e-01,1.43774e-01,4.73281e-02,-6.73102e-02,3.16951e-01,6.52127e-01,1.17828e-01,-8.58596e-02,-1.69486e-02,-9.78656e-02,2.84594e-01,-1.26022e-01,-1.97396e-01,-1.18070e-01,-2.26162e-01,-2.38256e-01,-3.75543e-01,-1.35482e-01,-3.57728e-02,-1.60661e-01,-7.99581e-02,2.17352e-02,-4.44953e-02,5.13793e-02,-3.63228e-02,8.64348e-02,1.70186e-02,-5.39629e-03,2.27867e-01,7.04994e-02,2.80899e-01,-2.07240e-02,-1.51424e-01,7.89079e-01,2.72282e-01,-2.56242e-03,-4.78292e-01,4.14660e-02,1.53993e-01,1.52194e-01,1.27591e-01,1.49632e-01,-2.42527e-02,-1.24962e-01,5.68783e-02,1.39004e-01,-8.53615e-02,-2.77151e-01,-2.18716e-01,-6.22899e-02,-2.21971e-02,5.41702e-02,1.79506e-01,1.50808e-01,-8.70338e-02,-1.03168e-01,2.03893e-02,2.18250e-01,3.99778e-01,-1.89857e-01,-4.99654e-01,4.42850e-01,9.98320e-02,-1.96662e-02,-5.84143e-02,-5.33809e-02,3.12183e-01,3.72755e-01,1.24412e-01,-1.88735e-03,1.46840e-01,-3.53819e-02,-1.42068e-01,5.72048e-02,-1.19600e-01,-1.34180e-01,-1.65547e-01,1.11184e-01,8.52886e-02,4.79751e-02,5.33284e-02,-1.94148e-02,6.24303e-02,2.18793e-01,1.65232e-01,1.84822e-01,5.15811e-02,-3.33088e-01,-5.17113e-01,1.95344e-01,-1.22568e-02,-1.65783e-02,-2.84182e-03,1.21449e-01,1.64820e-01,1.56302e-01,-2.36515e-01,-3.19767e-02,2.98139e-01,2.37576e-01,6.01040e-02,1.93019e-01,-1.21402e-01,-1.05736e-01,-1.26648e-01,1.36355e-01,3.53210e-02,-1.21994e-01,-1.31969e-01,1.46797e-01,1.01369e-01,8.48534e-02,3.06778e-01,-9.10361e-02,-2.28451e-01,-3.43183e-01,-6.20911e-01,-7.97415e-01,-4.64470e-02,-6.57528e-02,-5.69413e-02,2.25038e-01,5.00467e-02,1.50943e-01,8.46406e-02,-1.06046e-01,1.86671e-01,-7.88661e-03,-5.86777e-02,4.62713e-02,-1.67621e-01,-2.37026e-01,-1.05736e-01,-1.54058e-01,-8.23267e-02,-2.67411e-01,1.22049e-01,2.06548e-01,2.24255e-01,5.34532e-02,-6.25526e-03,-1.89443e-01,-3.15645e-01,-5.76826e-01,-4.18824e-01,-7.25410e-01,-3.64501e-02,-2.42898e-02,9.48718e-03,2.71194e-01,-6.99524e-01,-2.97863e-01,-1.47683e-01,-6.48676e-02,1.66167e-01,-1.28721e-01,-1.90386e-02,-1.08161e-01,1.09920e-01,-8.69345e-02,9.93873e-03,-1.14269e-01,-7.88164e-02,-1.18757e-01,-1.10557e-01,1.05346e-01,-9.85396e-02,3.82747e-02,1.72686e-01,1.83744e-01,-2.13951e-01,-2.31337e-01,1.77859e-01,-1.70902e-01,-2.36468e-03,-1.20430e-02,-2.39176e-02,-2.38708e-02,-9.31441e-02,2.53644e-02,-3.36656e-01,1.89785e-01,1.56974e-01,-2.07515e-01,-2.89066e-01,-3.92779e-01,-6.20752e-02,-1.23545e-01,-1.16755e-02,-8.44181e-02,-3.84073e-02,-1.19429e-01,1.09108e-01,6.85231e-02,-2.33089e-01,-2.75058e-01,-1.78455e-01,1.28022e-02,-5.12239e-01,-4.04234e-01,2.16516e-02,6.42587e-02,-2.49804e-02,2.56232e-02,1.68232e-02,1.32337e-01,1.37924e-01,-4.88635e-01,-8.50001e-01,-6.15506e-01,2.04567e-02,2.14148e-01,9.52843e-02,-2.03718e-01,-6.20565e-01,-4.30503e-02,-1.69554e-01,-4.80527e-01,-5.09127e-01,-6.65611e-01,-3.31642e-01,-3.14945e-01,-6.04031e-02,-1.76116e-01,-1.91221e-01,-6.31763e-01,-5.97900e-01,-4.52627e-01,-1.68815e-01,6.54798e-02,1.09229e-02,-8.81339e-03,8.39619e-03,-2.51427e-02,1.54193e-01,-4.83160e-01,-1.14984e+00,-8.06501e-01,-2.52040e-01,5.20537e-01,3.21881e-01,5.90014e-01,1.36746e-01,-5.16115e-02,-2.97832e-01,3.08935e-02,-6.86050e-01,-7.12630e-01,-8.39227e-01,-1.80782e-01,1.81141e-01,1.72288e-01,4.16238e-02,-1.91791e-01,1.09199e-01,1.43957e-01,-1.21046e-01,1.99767e-02,3.82904e-03,-5.57940e-03,2.26379e-02,-2.88837e-02,-2.44456e-02,-1.20779e-01,-1.90495e-01,1.04839e-03,2.44235e-02,1.68211e-01,1.25317e-01,-2.04099e-01,-4.28940e-01,1.54538e-02,-8.37677e-02,5.94667e-02,2.18735e-02,-4.77974e-01,-7.72767e-01,-3.76101e-01,3.03100e-01,3.10287e-01,1.52950e-01,1.12303e-01,-2.72829e-01,-2.03328e-04,2.31731e-02,-2.66074e-02,-1.51026e-02,
-5.08752e-03,3.50919e-02,2.09609e-02,-1.62586e-02,1.15057e-03,2.97644e-02,2.05462e-03,3.53363e-02,-2.50891e-02,-2.33583e-02,-3.39757e-02,-1.32578e-02,2.98191e-02,-1.33995e-02,-2.19181e-02,1.24435e-02,-6.68665e-03,-2.12136e-02,1.62751e-02,-3.37705e-02,-2.19414e-02,6.11407e-03,-1.16058e-02,-1.57415e-02,5.96119e-03,1.21926e-02,-2.43089e-02,6.73773e-03,1.46574e-02,-2.95623e-02,3.11014e-02,-1.14115e-03,1.36266e-02,5.01765e-03,8.93179e-02,7.33552e-02,8.02213e-02,7.72306e-02,4.85288e-02,1.32277e-01,2.37174e-01,1.02203e-01,-7.19430e-02,6.60073e-02,8.17172e-02,1.80690e-01,1.32355e-01,8.09181e-02,6.91519e-02,3.55940e-02,1.07054e-02,1.51715e-02,-9.91868e-04,-1.39233e-02,-5.70128e-03,-2.34766e-02,-2.09364e-02,2.31034e-02,-6.05709e-03,1.65079e-01,1.71252e-01,1.69215e-02,4.80725e-02,9.44527e-02,1.78441e-01,2.44441e-01,-1.84898e-01,-2.01895e-01,-3.80076e-01,-6.82602e-01,-4.43999e-01,-5.05900e-01,-4.29652e-01,-2.64628e-01,-1.76485e-01,6.39243e-02,-8.23463e-02,-1.28204e-01,-1.12324e-01,-1.04422e-01,-1.06144e-02,-4.25870e-02,-3.06245e-02,-1.86139e-02,1.57802e-02,-2.35183e-02,1.19900e-02,1.67012e-01,2.45383e-01,-1.01032e-01,2.66604e-01,-2.29040e-02,-2.04727e-01,-9.23657e-02,-1.83817e-01,-1.04972e-01,-1.64662e-02,-1.52687e-01,-5.51240e-01,-4.46952e-01,-3.63426e-01,-6.68272e-02,-5.74972e-01,-2.64190e-01,-2.97880e-01,-2.70883e-01,-1.80675e-01,-1.24475e-01,-1.11252e-02,3.72050e-02,-7.40546e-03,-3.03102e-02,-2.51086e-02,2.22467e-02,-7.45832e-02,-2.57519e-01,-4.08526e-02,-1.04913e-01,-3.39398e-02,-1.88564e-01,2.44927e-01,4.18224e-01,3.97759e-01,2.03810e-01,1.42796e-01,8.92464e-03,1.95920e-01,-4.30634e-01,-3.06173e-02,1.57872e-02,-3.38021e-01,1.23760e-01,5.84747e-02,-5.49906e-01,-2.37667e-01,1.06844e-01,2.69726e-01,2.09247e-01,2.41936e-01,1.60657e-01,-3.31514e-02,6.99271e-03,-6.80302e-02,2.35283e-01,4.89150e-02,-5.87426e-01,-8.60750e-02,2.43945e-01,2.86575e-01,-2.20995e-02,1.49593e-01,-2.00345e-01,2.07861e-01,3.52473e-01,2.04170e-01,-7.75709e-02,-1.47868e-01,-1.64689e-01,-3.95900e-01,-4.60229e-01,-8.05942e-02,-6.98674e-02,-3.24260e-01,-4.13691e-01,-2.81609e-01,4.61822e-02,8.65260e-02,8.89369e-02,1.55980e-02,-4.06545e-02,2.30375e-01,2.59182e-01,3.01227e-02,-4.57651e-02,2.23310e-01,2.32229e-01,1.66385e-01,-3.15126e-01,-4.82542e-01,-1.49562e-01,1.76089e-01,1.17906e-01,-4.66786e-02,-1.36762e-01,-2.49236e-01,-2.39198e-01,-3.97677e-01,-3.25762e-01,-1.89476e-01,1.66862e-02,-2.87222e-02,-2.03130e-02,-1.88493e-01,1.58519e-01,-1.63813e-01,-1.46608e-01,1.03995e-02,-4.46325e-03,1.50359e-01,-4.93058e-02,2.07865e-01,3.85383e-02,2.49987e-01,2.22984e-01,-8.07504e-02,-2.77467e-01,-1.56838e-01,5.12378e-02,8.73506e-02,-2.98699e-01,-4.25960e-01,-2.81186e-01,3.95340e-03,-5.16750e-02,-7.42376e-02,-1.10364e-01,-4.24441e-01,-4.54382e-01,-9.31488e-02,1.09158e-01,-1.24540e-01,6.20641e-02,-3.47249e-01,-1.95952e-01,1.10370e-01,1.74057e-01,2.54634e-01,2.46952e-01,4.61604e-01,-1.92679e-01,3.32781e-01,2.12226e-02,-1.66710e-01,-2.84425e-01,5.96634e-02,1.86051e-01,4.56393e-02,5.01885e-04,-2.30408e-01,-3.84896e-01,-1.42873e-01,1.78246e-01,3.91269e-02,2.02425e-01,-3.74396e-02,-1.13420e-01,3.17127e-02,2.07347e-01,1.25923e-01,8.36135e-02,1.49641e-01,-9.43704e-02,2.11849e-01,1.32053e-01,2.30759e-01,4.85548e-01,2.57528e-01,2.07885e-01,1.36489e-01,-6.58934e-02,-2.74900e-01,6.22429e-02,3.05490e-01,1.25995e-01,6.62814e-02,1.18093e-01,6.92316e-02,-2.50059e-01,-4.79444e-02,2.58890e-01,2.31080e-01,9.07751e-02,1.89532e-01,3.06094e-01,2.63414e-01,4.31845e-01,6.79905e-01,-1.25273e-01,-5.43859e-01,-5.98036e-01,2.28989e-01,9.70229e-02,3.97292e-01,4.08757e-01,6.87002e-02,5.18332e-01,4.79123e-01,1.82836e-01,-2.70135e-01,-3.81230e-02,3.17483e-01,1.99929e-01,1.73961e-01,1.78378e-01,-1.59295e-01,-5.15232e-02,1.83865e-01,2.84260e-01,1.87492e-01,-3.65911e-01,-2.07416e-01,1.26456e-01,3.71235e-01,6.62074e-01,4.72588e-01,-4.25419e-01,-6.38187e-01,-6.18589e-01,1.17950e-01,5.74615e-01,2.59558e-01,1.61840e-01,1.31416e-01,4.95691e-01,3.12565e-01,9.10557e-02,7.33759e-02,-2.59770e-01,-5.96867e-02,9.13662e-02,-6.02455e-02,2.30315e-01,4.55333e-03,1.77802e-01,3.70460e-01,3.07061e-01,3.14451e-01,-1.69667e-01,-3.84317e-01,1.27098e-02,1.02475e-01,5.74965e-01,7.45642e-01,2.37202e-01,-4.05015e-01,-3.33152e-01,8.11537e-02,4.25865e-01,1.49580e-01,2.03564e-01,2.38703e-01,3.33736e-01,1.34359e-01,4.46764e-02,-2.48681e-02,-1.26828e-01,-2.67590e-01,-1.48489e-01,-3.23604e-01,1.06702e-01,2.85376e-01,2.53303e-01,3.64050e-01,3.26119e-01,-3.50084e-02,-6.08626e-02,-8.26490e-02,-2.43396e-01,6.52032e-02,1.61400e-01,8.41041e-01,4.03120e-01,-2.40074e-01,-1.76562e-01,-1.16991e-03,1.40519e-01,4.83719e-01,1.04206e-01,6.59164e-03,3.11044e-01,-5.52438e-02,-1.30080e-01,-1.20622e-01,-5.76798e-02,-8.01574e-02,-3.28697e-01,-3.18338e-01,-1.89952e-01,-1.64149e-02,1.87945e-01,-5.28663e-02,-1.41939e-01,-1.84019e-01,-1.94237e-02,-1.52687e-01,-8.72410e-02,-7.41548e-02,-4.82119e-03,3.22705e-01,5.57873e-02,-2.74142e-01,1.18264e-01,-1.70827e-02,7.89705e-02,2.75001e-01,-8.41889e-03,-1.38584e-01,1.70089e-01,-3.20960e-01,-1.65547e-01,1.49687e-01,1.55412e-01,-2.25825e-01,-3.15016e-01,-3.57766e-01,-2.59873e-01,-1.66570e-01,-1.03792e-01,-2.64566e-02,-1.20157e-01,-4.33514e-02,-2.50651e-01,-1.66657e-01,-2.43180e-01,-2.92483e-01,-1.40619e-01,3.93470e-01,2.32702e-01,-2.84783e-01,1.25394e-01,4.97300e-03,-1.13202e-01,-6.25370e-01,2.42692e-01,-2.96638e-01,3.84742e-02,2.63022e-02,3.78541e-01,3.62715e-01,-2.48251e-01,-6.93476e-01,-3.68675e-01,-4.23628e-01,-4.34211e-02,-4.49390e-02,-2.92252e-01,-1.28143e-01,-1.21516e-01,-1.95389e-02,2.29102e-02,-5.24960e-02,-4.16651e-01,-3.34598e-01,-1.99365e-01,4.13821e-01,4.61425e-01,-1.84971e-01,-1.73855e-02,9.43273e-02,-1.19372e-01,-7.64158e-01,2.29852e-01,3.99538e-01,6.84179e-02,4.88386e-01,5.28067e-01,-1.20413e-01,-7.16720e-01,-3.11506e-01,-5.03373e-03,-1.67981e-01,-1.72163e-01,1.40127e-01,-2.17904e-01,-5.56485e-02,-9.34187e-02,6.15445e-02,1.33317e-01,6.02028e-03,-6.48586e-02,-2.89552e-02,1.00467e-01,-6.82807e-02,5.72811e-01,-1.21817e-01,1.23230e-01,-3.27212e-02,-4.94037e-02,-1.55532e-01,-1.90838e-01,5.89075e-01,3.05538e-01,3.12778e-01,1.74564e-02,-6.92090e-01,-5.88528e-01,-1.62132e-01,2.18734e-01,4.64206e-02,1.25347e-01,4.49941e-02,8.19656e-02,1.50981e-02,9.95896e-02,2.48057e-01,2.77021e-01,4.26571e-01,9.25763e-02,1.13940e-01,7.43012e-02,1.46862e-01,3.45527e-01,3.88551e-02,7.19196e-01,4.31337e-02,-2.64219e-02,-6.85389e-02,-5.63935e-01,3.96968e-01,2.71972e-01,-1.42030e-02,-2.31873e-01,-3.73798e-01,-2.95665e-01,-9.64197e-03,9.64765e-02,1.32536e-01,2.93150e-02,5.40157e-02,7.10873e-02,1.55716e-02,-7.26938e-02,3.61456e-02,-1.97727e-01,-1.14310e-01,-8.68591e-02,2.10463e-01,3.00245e-01,2.20707e-01,9.50442e-02,-3.04685e-01,1.35685e-01,-9.58666e-02,1.38595e-01,5.95116e-02,-3.49884e-01,1.73672e-01,6.29097e-02,-2.02458e-01,-5.20850e-01,-7.51606e-01,-7.29034e-01,-8.36221e-02,2.09635e-01,1.77609e-01,1.19621e-02,-3.66492e-01,-3.15706e-01,1.00806e-01,2.00931e-01,-5.86537e-02,-1.21907e-01,-7.68498e-02,8.74417e-02,3.77471e-01,9.31463e-02,-2.29200e-01,-2.22156e-01,1.94392e-01,-2.30712e-01,3.18133e-02,-2.43245e-02,-2.48571e-01,-8.56808e-02,3.25010e-01,4.66507e-02,-2.93446e-01,-5.15620e-01,-5.53286e-01,-5.23929e-01,3.92287e-02,4.00628e-01,4.73450e-01,5.67496e-03,-4.11062e-01,-1.92522e-01,2.16609e-01,-2.22038e-02,-9.55559e-03,-1.74127e-01,-1.06422e-01,1.53160e-02,7.65319e-03,9.24739e-02,-1.53971e-01,-3.10532e-01,4.14207e-02,-2.12811e-02,2.50042e-02,-3.40278e-02,-3.16414e-01,3.95232e-02,1.74612e-01,8.36468e-02,-1.00891e-01,-4.96189e-01,-2.54109e-01,-1.65971e-03,1.47146e-01,3.94913e-01,2.71060e-01,2.35617e-01,-8.52295e-02,-2.16183e-03,1.44155e-01,1.07612e-01,-2.78603e-02,-1.86860e-01,-4.89879e-01,-3.62044e-01,-2.38834e-01,1.57697e-01,-4.38877e-01,-4.27325e-01,1.68749e-01,4.28107e-02,-1.08321e-02,1.12958e-02,-6.17820e-01,-1.29869e-01,-4.82484e-01,-1.56018e-01,-2.03512e-01,-2.55074e-01,-6.77858e-02,1.48118e-01,2.28769e-02,4.10795e-01,4.77433e-01,3.62704e-01,1.37729e-01,-2.58153e-04,-1.04875e-01,-1.79369e-02,-4.39039e-02,-4.60610e-01,-2.34770e-01,-3.32694e-01,-3.63369e-01,-1.57398e-01,-3.35441e-01,-2.00480e-01,8.62699e-02,5.44714e-02,5.54076e-04,2.06109e-02,-5.34134e-01,-3.52086e-01,-4.59922e-01,-4.05246e-01,-2.07845e-01,1.57577e-01,1.01553e-01,1.39143e-02,-1.30173e-01,-4.02090e-02,1.87594e-01,1.13687e-01,3.79018e-02,7.62063e-02,-1.82802e-03,4.16803e-02,-2.30137e-01,-3.81685e-01,1.05065e-02,1.07462e-01,-2.08948e-01,-5.67660e-01,-6.16183e-01,-2.82398e-01,-3.67242e-02,1.48500e-02,-1.13440e-02,6.83001e-04,-3.69506e-02,-1.05397e-01,-5.05758e-01,-3.56355e-01,-2.70246e-02,-2.11938e-01,-4.06082e-01,-4.26940e-01,-3.21864e-01,-8.37752e-01,1.96950e-01,2.86535e-01,1.12865e-01,1.06076e-01,1.82248e-01,-1.84760e-01,-2.03868e-01,3.04212e-03,9.74004e-02,-1.67171e-01,-3.25883e-01,-3.78019e-01,-2.32839e-01,2.34381e-01,1.04302e-02,-5.73721e-03,3.56532e-02,-5.40968e-04,-7.63838e-02,-3.65376e-02,3.13981e-01,1.89744e-01,2.57878e-01,1.87069e-01,-3.16325e-01,-4.26123e-01,-3.64520e-01,-4.63093e-01,-4.96699e-01,-3.11700e-02,2.95189e-01,9.77016e-02,-1.43320e-01,-2.18414e-01,-2.21414e-01,-3.14887e-01,-2.62222e-01,-1.68263e-01,8.51654e-02,-5.10368e-01,-1.45391e-01,3.57019e-02,5.91365e-02,-1.08581e-02,-5.99415e-03,-4.03614e-03,-3.40938e-02,4.44204e-02,4.15418e-01,3.64873e-01,2.51687e-01,-1.59506e-01,-1.01345e-01,-5.80283e-01,-1.10939e+00,-7.35465e-01,1.38460e-01,-1.18778e-01,-2.49046e-01,-2.57253e-01,-3.77389e-02,2.65031e-01,2.31773e-01,-6.44554e-02,-1.53129e-01,2.61723e-01,3.28044e-01,-1.12364e-01,5.20893e-02,-2.51877e-02,1.05857e-02,-1.09262e-02,2.56584e-02,2.16798e-02,2.38164e-02,3.51836e-02,-2.60813e-02,7.22765e-02,1.69146e-01,2.22844e-01,2.25542e-01,2.86721e-01,1.27369e-01,1.73206e-01,9.37061e-02,5.58092e-01,5.16050e-01,-5.09562e-02,1.89426e-01,5.59285e-01,5.41769e-01,-1.78778e-01,9.68196e-02,4.30009e-01,4.05930e-01,3.22310e-01,1.07698e-02,-2.43952e-02,-9.19240e-04,-1.25226e-02,
-2.29167e-02,2.15861e-02,4.45221e-03,1.69000e-02,-1.96398e-02,-1.24666e-02,-2.92820e-02,1.76912e-02,-2.08434e-02,-1.57797e-02,-1.35464e-02,1.32462e-02,4.61213e-03,-2.60731e-02,-3.34468e-02,3.41012e-02,-3.51908e-02,1.85671e-02,1.65512e-02,1.92941e-02,-3.39597e-02,-3.08256e-02,-1.99402e-02,1.60038e-02,-2.51389e-02,2.01553e-04,-2.80164e-02,1.84802e-02,1.14530e-02,1.82417e-02,2.44472e-02,8.27832e-04,-3.81112e-03,1.05110e-02,-2.37644e-02,1.80118e-02,1.76892e-03,6.72653e-03,1.75734e-02,4.39346e-02,-2.36944e-03,4.47635e-02,-2.62195e-02,-3.53770e-03,-1.84631e-02,-4.39921e-02,-1.41335e-02,-2.66904e-02,-3.19516e-03,2.95721e-02,1.78352e-02,3.29469e-02,-5.33519e-03,1.66407e-02,-2.26105e-02,-9.65968e-03,-1.59173e-02,-3.54282e-02,9.04355e-03,2.81120e-02,3.84131e-02,-1.16569e-02,1.62486e-02,1.29349e-02,-4.42100e-02,-3.89186e-02,-2.78750e-02,-3.71033e-01,1.30974e-01,8.50622e-02,3.34632e-02,-2.61683e-02,-3.27659e-01,3.32338e-01,5.31210e-01,2.04434e-03,-6.26275e-02,8.07548e-03,8.06134e-03,-1.98731e-02,-1.26088e-02,-3.29657e-02,7.03406e-03,2.67873e-02,-2.09541e-02,-6.88128e-03,2.31902e-02,6.55976e-03,1.19807e-02,3.62462e-02,3.78427e-02,-3.13138e-01,-3.64528e-01,-2.72599e-01,-1.09118e-01,-2.92494e-01,-7.70424e-02,3.84424e-02,1.52112e-01,-1.38520e-01,-6.51613e-01,-4.94997e-01,-2.11577e-01,-2.72253e-01,-3.25224e-01,-2.93944e-01,-1.14478e-01,-4.16527e-01,-4.33590e-01,1.06856e-02,2.53616e-01,1.33635e-02,-8.49214e-03,1.08367e-02,3.19032e-02,1.32128e-01,-6.73191e-02,-8.02024e-02,-3.04569e-01,-6.16344e-01,-1.83510e-01,-2.69855e-01,6.51447e-02,-1.35921e-01,-4.11582e-01,-8.00526e-01,-5.62249e-01,-1.94759e-01,1.06226e-01,-1.23083e-01,1.57751e-01,-2.54217e-02,9.02095e-02,3.58787e-01,5.32458e-01,3.46569e-01,-2.15810e-01,1.45252e-01,3.12771e-01,1.17977e-02,-8.92859e-03,-3.47062e-02,-8.87752e-02,-1.73216e-02,-2.27466e-01,-5.03389e-01,-7.66565e-01,-2.84825e-01,1.73568e-01,1.59233e-01,2.99098e-02,-6.34685e-02,-1.26461e-01,-8.55473e-02,-8.52275e-02,-1.44868e-01,1.23424e-01,6.93202e-02,-1.09545e-01,-9.29833e-02,2.53852e-01,2.34057e-01,3.69539e-01,2.43416e-01,2.26179e-01,1.47029e-01,-1.54864e-02,6.02983e-02,1.01294e-02,-3.01581e-02,3.52639e-01,-3.64378e-01,-2.91889e-01,-1.57691e-01,-4.55781e-01,8.40543e-02,8.22128e-02,2.26903e-01,2.57050e-01,1.54178e-01,2.10524e-02,4.45763e-02,-3.32555e-02,1.45410e-01,7.51918e-02,7.29124e-02,-3.69612e-02,1.09850e-01,1.96521e-01,1.83607e-01,1.39482e-01,-6.67341e-02,4.53335e-01,2.34332e-01,3.55188e-01,3.59865e-01,-9.56602e-04,1.18557e-02,6.62170e-01,-2.01775e-01,8.74100e-02,3.36171e-01,-2.35363e-01,3.14495e-02,1.10385e-01,1.02504e-01,4.13224e-02,1.09110e-02,5.88878e-03,-7.57796e-02,8.49248e-02,1.36422e-01,2.92769e-01,4.49310e-01,5.35739e-01,4.72774e-01,3.08552e-01,6.25876e-02,3.26139e-01,2.74922e-01,-1.14301e-01,-3.92522e-01,4.25124e-01,4.35239e-01,1.89585e-02,-2.92216e-02,4.46632e-01,-1.88065e-01,-1.30650e-02,-2.12447e-01,-2.23542e-01,-1.38524e-01,-3.46838e-02,-3.49871e-02,-4.85794e-02,1.13917e-01,1.34114e-01,2.01474e-02,1.50526e-01,2.88532e-01,5.38134e-01,3.86291e-01,3.02601e-01,1.80583e-01,-4.73644e-03,-2.02729e-02,2.48663e-01,6.61801e-01,4.11810e-02,-1.61175e-01,2.99869e-01,2.98940e-01,-1.65255e-02,-5.44554e-02,4.23061e-02,-2.95991e-01,1.48911e-01,-2.97299e-01,-3.00647e-01,-2.55997e-01,-1.25621e-01,1.01135e-01,-4.20497e-02,-8.91361e-02,-2.38661e-01,2.83485e-02,-3.23120e-02,-8.05181e-02,-1.97626e-01,-3.30282e-01,-9.94531e-02,-1.71226e-01,-2.52781e-01,-4.59028e-01,-1.16159e-01,-3.66829e-02,1.70352e-01,4.73038e-01,1.89359e-01,1.54935e-01,-1.88202e-02,-4.45191e-03,7.69373e-02,-2.62699e-01,3.25829e-01,-3.77166e-01,-3.11946e-01,-1.44116e-01,1.60610e-01,1.32514e-01,7.41760e-02,-2.67473e-01,-8.94916e-02,-3.14477e-02,-1.96653e-01,-6.33424e-01,-1.08553e+00,-7.68966e-01,-5.98001e-01,-7.73832e-01,-3.29742e-01,-4.11164e-01,-3.46550e-01,-7.69209e-01,-1.22289e-01,2.85198e-01,6.41059e-01,1.62658e-01,-5.19326e-02,-4.74548e-02,4.15537e-02,-1.88222e-01,4.12310e-01,-4.19129e-01,-1.73383e-01,-1.08377e-01,2.52492e-01,1.12237e-01,1.60342e-01,-1.16612e-02,5.47973e-02,1.95184e-01,-2.16736e-01,-2.23920e-01,-4.96369e-01,-5.97780e-01,-5.83889e-01,-6.72944e-01,-5.44245e-01,-5.11537e-01,-7.25968e-01,-6.01023e-01,-4.31620e-01,9.90563e-02,3.25039e-01,9.73693e-02,-3.06330e-02,1.38519e-02,6.85499e-02,-3.10131e-02,1.91381e-01,-4.01710e-01,-1.60142e-01,-8.14051e-02,1.43449e-01,2.62345e-01,2.20412e-01,9.85146e-02,1.97082e-01,2.33031e-01,-8.17654e-02,-6.38312e-02,-3.03142e-01,-2.21281e-01,-2.35532e-01,-2.49442e-01,-1.29473e-01,-2.52516e-01,-4.98021e-01,1.82006e-01,2.57355e-02,-2.17115e-01,6.34793e-02,-1.19382e-02,-8.67813e-03,-2.07464e-02,-2.81633e-02,-6.77741e-02,-4.24781e-04,2.00464e-01,6.08727e-02,5.48407e-02,-2.29373e-01,-7.35824e-02,1.97397e-02,-8.51215e-02,1.24652e-01,1.65771e-01,-9.93583e-02,-1.80302e-01,-2.54023e-01,-3.39928e-01,-2.45905e-02,2.60159e-01,-2.72866e-01,-3.34292e-01,-1.03471e-01,1.99299e-02,4.16018e-01,7.00008e-01,-4.54365e-01,-1.56646e-01,1.09712e-01,4.44618e-02,1.73155e-02,-5.76201e-01,2.64756e-01,7.60923e-02,2.48890e-01,3.25374e-01,-9.24688e-03,-6.67419e-02,6.43484e-02,-2.38088e-01,-1.64889e-01,-3.29436e-02,-3.56051e-02,-1.83724e-03,-2.58620e-01,-4.99069e-01,-1.87183e-01,1.35310e-02,-2.06308e-01,-1.66019e-01,5.76750e-02,1.72806e-01,4.27349e-01,3.94404e-02,-7.20893e-01,-2.33334e-01,4.96013e-02,9.40090e-02,9.54992e-02,-6.30776e-01,2.21412e-01,1.50756e-01,1.16470e-01,2.20125e-01,2.10480e-01,2.06856e-01,1.05667e-01,-5.43182e-02,-8.53036e-02,-1.32256e-01,-1.23755e-02,-1.06946e-02,8.88781e-02,-1.39517e-01,-7.76751e-02,-1.88825e-01,-3.55381e-01,-1.42164e-02,-8.51828e-03,2.65101e-01,2.64879e-01,-1.29931e-01,-8.18661e-01,-3.98023e-01,-4.34642e-02,7.45155e-02,2.07811e-01,-7.19853e-02,3.28873e-01,1.04461e-01,5.43944e-02,1.01982e-01,7.93225e-02,1.12872e-02,3.97522e-02,-3.37136e-02,-7.49502e-02,-2.43450e-01,-1.86901e-01,-1.66199e-01,-1.28542e-02,5.17694e-02,-1.93944e-01,2.27147e-02,-7.12197e-03,6.06383e-02,9.25261e-02,1.92478e-01,2.01595e-01,-1.91991e-01,-7.90807e-01,-3.72224e-01,-2.46164e-02,1.12719e-02,3.68468e-01,3.57849e-01,1.45250e-01,-8.56147e-04,2.99868e-01,4.37882e-01,-1.33520e-01,-1.19244e-01,1.33987e-01,-1.52340e-01,-3.39220e-01,-4.37050e-01,-3.20104e-01,8.15801e-02,-1.95069e-01,-1.34471e-01,-6.71881e-02,1.64180e-01,9.21623e-02,1.28094e-01,2.87419e-01,1.60933e-01,5.16050e-02,1.29099e-01,-7.52703e-01,-3.34679e-01,-2.16335e-02,-3.77595e-02,3.42493e-01,3.70142e-01,5.15406e-01,6.19625e-02,8.47581e-02,2.86487e-01,-2.05491e-01,-1.07735e-01,-3.33575e-01,-3.37208e-01,-3.30450e-01,-5.00269e-01,-4.85898e-01,-8.44260e-02,5.16969e-02,-1.11784e-01,-2.69329e-01,1.49761e-01,1.90439e-01,2.10414e-01,1.72229e-01,1.33259e-01,2.46941e-01,3.56709e-01,-7.58835e-01,-3.05971e-01,-1.27847e-02,-3.69315e-02,-1.62365e-01,-5.87955e-02,5.75799e-01,-1.95044e-02,-1.14581e-01,-9.52254e-02,-3.26009e-01,-3.70643e-01,-6.49170e-01,-2.87313e-01,-4.76158e-02,-3.28479e-01,-1.20102e-01,-8.28230e-02,-1.21139e-01,-1.00458e-01,-5.77635e-02,1.13528e-01,1.84980e-01,3.40926e-01,3.28328e-01,5.97083e-02,4.29392e-01,4.26275e-01,-2.28140e-01,-1.06774e-01,-6.60048e-03,4.97445e-03,-1.54013e-01,-2.74046e-02,3.98812e-01,6.22785e-02,-9.13036e-02,-8.38352e-02,2.76182e-01,2.53573e-01,-2.12825e-01,-2.29353e-01,-8.72242e-02,1.57698e-01,5.84528e-02,-5.26282e-02,-2.11503e-01,-3.02008e-02,-1.92533e-03,1.07161e-01,4.67920e-02,2.20628e-01,3.19582e-01,3.06364e-01,2.64363e-01,2.06528e-01,-1.83074e-01,1.48989e-02,2.63095e-02,3.25409e-02,-2.14461e-01,-4.57602e-02,7.99221e-01,2.76645e-01,9.89916e-03,-1.96708e-02,3.20607e-01,1.96973e-01,3.15831e-01,-2.04300e-02,1.41114e-01,2.50707e-01,1.51627e-01,1.11596e-01,-2.24337e-01,1.46860e-01,1.83102e-01,1.10035e-01,4.09488e-01,3.37259e-01,2.33838e-01,4.65069e-01,2.87397e-01,-1.56480e-01,-1.13964e-01,2.01431e-02,-5.76618e-03,5.05036e-02,-7.30756e-02,2.61577e-01,2.26856e-01,1.69120e-01,3.35372e-01,2.60781e-02,6.38790e-02,5.15158e-02,-1.59195e-02,1.21367e-01,2.60420e-01,3.04267e-02,-1.60770e-02,-1.94667e-01,-4.98812e-02,2.79107e-01,2.22360e-01,3.14179e-01,3.22967e-01,4.24897e-01,3.02026e-01,2.57900e-01,-6.48526e-01,-3.52240e-01,-2.55199e-03,-6.93962e-03,4.95787e-04,4.46564e-03,5.56189e-03,3.38685e-01,4.48310e-01,3.58034e-01,4.79935e-01,2.32133e-01,2.44755e-01,2.89829e-01,1.71179e-01,3.27260e-01,3.82993e-01,4.60709e-02,1.26699e-02,-2.59190e-01,3.82333e-03,3.70952e-01,2.56051e-01,1.90717e-01,1.66834e-01,5.53542e-02,6.88624e-02,-3.73435e-01,-3.06596e-01,-4.35644e-01,-4.49858e-02,-7.83515e-03,-1.76397e-02,-2.43701e-02,-3.75617e-01,-3.13565e-01,2.70961e-01,1.35242e-01,-1.28820e-01,4.80313e-01,3.07771e-01,3.98374e-01,2.22938e-01,2.42705e-01,3.74830e-01,1.04108e-01,2.39619e-02,1.26431e-01,3.70457e-02,2.59725e-01,4.57944e-01,-1.17073e-01,-8.73764e-02,3.35441e-02,8.97615e-02,-2.02118e-01,5.50084e-01,-8.34896e-02,1.81265e-02,-3.12550e-04,-5.77048e-03,2.89155e-02,6.49097e-02,9.57792e-02,-7.60478e-02,-7.90367e-02,-1.19982e-02,4.80530e-02,2.64601e-02,3.19395e-01,-2.61552e-01,8.75662e-02,6.26328e-01,2.79921e-01,1.71754e-01,1.79489e-01,1.99591e-01,3.63278e-01,1.37352e-01,2.83809e-01,5.27305e-01,2.94326e-01,5.33033e-01,4.32401e-01,7.01303e-01,1.59999e-02,-1.96521e-02,3.04470e-02,-1.95060e-03,-3.52925e-02,-3.04376e-02,-1.30120e-02,1.46597e-01,-4.24122e-02,-4.58256e-01,-6.45256e-01,-5.14306e-01,-2.77286e-01,3.37225e-02,-1.15771e-01,-3.86795e-01,-2.48363e-01,-1.81395e-01,-1.41948e-01,1.34180e-01,-1.09097e-01,-2.23458e-01,-3.62408e-02,-4.60578e-02,8.10924e-02,4.13809e-01,1.01290e-01,-8.34774e-02,-2.21698e-02,-1.82576e-02,-2.04269e-03,3.01883e-02,-3.49289e-02,1.27719e-02,1.07892e-02,-2.56973e-03,1.23471e-02,-4.24825e-02,-7.83576e-03,3.84801e-03,-5.00615e-02,3.82020e-03,-8.46864e-03,-2.99854e-02,7.48808e-03,-9.71118e-02,-7.56582e-02,-7.62154e-02,-1.50829e-02,-3.73993e-02,-5.10662e-02,-2.05904e-01,-2.46649e-01,-1.68037e-01,-9.58545e-03,-3.43130e-02,2.50404e-02,2.03894e-02,-6.75018e-03,
-1.66506e-02,2.92700e-02,-7.38089e-04,1.51722e-02,4.23344e-03,-5.09395e-03,1.38417e-02,3.01038e-02,3.50534e-02,2.43885e-02,-3.53658e-02,2.39084e-03,1.05715e-02,6.62343e-02,-6.74316e-03,-3.95415e-02,7.02491e-03,2.53486e-02,6.15374e-03,-2.56445e-03,-3.39684e-02,-2.46663e-02,-6.63121e-03,-3.68471e-03,5.60413e-03,3.03804e-02,2.41670e-02,3.45480e-03,2.74873e-02,-3.04843e-02,-9.42353e-03,3.42080e-02,-4.57188e-03,-2.92791e-02,-9.97671e-03,-6.37693e-02,-5.80585e-02,-1.48908e-02,1.03601e-02,-1.91523e-01,-1.12805e-01,-5.52960e-02,1.97490e-01,-3.59886e-02,-5.30531e-02,-9.10345e-02,3.70984e-01,9.46303e-02,1.31682e-01,-4.71538e-02,-1.01726e-01,-3.82363e-03,-9.40876e-04,-2.85656e-02,2.78963e-02,2.24717e-02,3.03637e-02,2.87690e-03,3.31196e-02,-9.38783e-02,-3.68852e-02,1.45964e-01,1.41525e-01,-7.39792e-02,1.07173e-01,3.50174e-01,9.00400e-02,1.62152e-01,1.32602e-01,-1.32107e-01,9.48111e-02,6.07851e-02,-1.04783e-01,-1.22938e-01,2.54419e-01,1.19008e-01,2.96611e-01,5.19609e-01,5.94038e-01,6.25547e-02,-6.76046e-02,-8.96170e-02,-2.32268e-03,-3.38927e-02,2.39108e-02,-3.54630e-02,7.07040e-02,-2.78634e-01,-1.85899e-01,3.43532e-01,4.65624e-01,3.37047e-01,2.91963e-01,2.80956e-01,1.44489e-01,4.16245e-01,-2.52780e-02,-5.04617e-01,-7.03488e-01,-6.38955e-01,-3.60962e-01,-4.21776e-01,-2.89414e-01,-7.60825e-02,1.25320e-02,1.73515e-01,4.87085e-01,1.09870e+00,3.69623e-01,-1.88319e-01,-4.45750e-01,-8.50744e-03,2.46703e-02,-2.09377e-02,6.46280e-02,-2.70531e-01,-9.05566e-02,-2.00996e-01,-1.67363e-01,1.15703e-01,1.92245e-01,6.71627e-02,2.22711e-01,-6.44866e-02,2.20242e-01,1.76643e-01,1.75205e-01,-2.26126e-01,-1.17688e-01,-1.96009e-01,-2.39226e-01,4.66494e-02,1.08715e-01,1.82657e-01,2.37092e-01,5.75505e-01,1.43631e-01,-2.50990e-02,1.17476e-01,4.21989e-01,2.18717e-02,-3.40281e-02,1.71093e-01,-6.69067e-03,7.18100e-02,-2.23514e-01,-3.05739e-01,2.91974e-01,2.19311e-01,1.50338e-01,3.18703e-01,3.53350e-01,5.14053e-01,1.69442e-01,1.43353e-02,-1.68591e-01,-2.31280e-01,-2.37519e-01,-4.81214e-01,-9.43904e-02,-2.69635e-01,3.73786e-03,2.96991e-01,2.86111e-01,2.64154e-01,3.48825e-01,2.66390e-01,3.32861e-01,1.67496e-02,-8.68370e-03,-7.14094e-02,-1.03046e-01,-1.83019e-01,-1.75186e-01,-6.09134e-02,2.50611e-01,1.18449e-01,4.69958e-01,3.59008e-01,1.39050e-01,2.06791e-01,-1.37933e-01,-3.44493e-01,-9.21001e-02,3.92737e-02,5.16598e-02,-6.92826e-02,-1.33804e-02,-1.70238e-01,-3.82940e-01,-8.96937e-02,3.09929e-01,1.36708e-01,-2.55310e-02,-5.99294e-01,-1.40849e-01,1.71317e-02,-1.66756e-01,2.90239e-02,-3.45597e-02,-3.05401e-01,-2.10054e-01,-2.01548e-01,-3.72537e-02,1.73289e-01,1.25170e-01,3.55065e-02,-3.87583e-01,-4.60319e-01,-5.63605e-01,-3.26818e-01,1.18007e-01,7.48079e-02,2.50507e-02,6.51249e-02,2.37514e-01,2.18454e-01,-1.47955e-01,-2.67686e-01,2.86791e-02,-1.24302e-01,-1.11620e-01,-6.98260e-01,-4.50780e-01,-5.35003e-01,-4.26792e-01,-9.17558e-02,4.06734e-01,1.93417e-01,1.42980e-02,4.48766e-01,2.43167e-01,1.40275e-01,-6.85233e-02,-3.89047e-01,-4.65619e-01,-4.46574e-01,-2.20886e-01,-1.00348e-01,4.65157e-02,8.45288e-02,4.28990e-02,-3.68740e-02,8.73348e-02,5.42386e-02,-2.09414e-01,-3.08427e-02,-2.89058e-01,-4.35004e-01,-3.38705e-01,-3.12513e-01,-2.36091e-01,-2.35937e-01,2.75931e-02,2.16133e-01,4.53366e-01,-6.51561e-02,1.85316e-01,2.92940e-01,-1.44931e-02,5.68617e-02,-1.46151e-01,-1.79485e-02,-1.14298e-01,-1.44761e-01,-8.44984e-02,1.45397e-01,2.74962e-01,8.28368e-02,9.65395e-02,-1.27778e-01,-8.48048e-02,-3.77691e-02,-1.57709e-01,-1.78644e-01,-5.29059e-02,-3.27160e-01,-7.15343e-01,-7.05077e-02,-2.18486e-02,-2.43591e-01,1.34488e-02,4.54123e-01,1.01150e-01,1.00383e-01,2.86959e-01,2.46004e-01,1.80611e-01,1.43781e-01,1.53857e-01,2.37773e-01,-2.51965e-02,6.74911e-02,4.01340e-02,1.64452e-01,2.16572e-01,1.47328e-01,7.77401e-02,-9.44117e-02,-8.53396e-02,-2.46677e-01,-5.70137e-01,-3.90570e-01,-4.30907e-02,1.65149e-01,-4.68371e-01,-3.64947e-01,-3.81731e-03,-1.25796e-01,-6.79014e-01,2.07861e-03,6.88115e-02,-4.69402e-02,2.43967e-01,1.47038e-01,4.03067e-01,5.15477e-01,3.64589e-01,2.12295e-01,1.75056e-01,1.84251e-01,3.22279e-01,4.56224e-01,3.52700e-01,3.33195e-02,1.86145e-02,1.23545e-01,-4.39807e-02,-3.89006e-01,-2.20623e-01,-1.70462e-01,-9.32173e-02,2.54360e-01,-4.09823e-01,-2.50627e-01,1.31818e-01,-1.09733e-01,-1.86747e-01,1.03227e-01,2.08196e-01,1.04210e-01,3.20155e-01,8.54449e-02,9.89861e-03,2.63110e-01,2.01334e-01,-1.69109e-01,9.92932e-03,9.48873e-02,1.86815e-01,3.09315e-01,2.72857e-01,-1.24033e-01,-1.87927e-02,1.66454e-01,-2.14246e-01,-3.63115e-01,-3.48722e-01,-7.22445e-02,3.43930e-01,3.51749e-01,-2.19099e-01,-2.69818e-01,5.15103e-01,-6.59698e-02,-1.23896e-01,-1.68345e-01,2.33589e-01,1.95631e-01,2.23029e-01,2.10394e-01,-9.19222e-02,2.29251e-01,1.78631e-01,-2.22643e-01,1.62438e-02,-1.64286e-01,6.69438e-02,2.08947e-01,2.36809e-01,-8.84456e-02,-2.00441e-01,1.78100e-01,3.36528e-01,9.12089e-03,2.13961e-01,2.80970e-01,1.33879e-01,-2.05272e-01,-3.33597e-03,-6.22664e-01,-2.40722e-01,-3.13401e-02,-4.36523e-02,-2.96332e-01,-1.06166e-01,-8.17747e-02,-8.47911e-03,-5.60882e-02,-1.32186e-01,2.46597e-01,-2.46916e-02,4.46156e-02,1.37666e-01,-1.79846e-01,1.88141e-01,1.17315e-01,-1.20430e-01,-4.53699e-02,1.09778e-01,2.22600e-01,3.51138e-01,-1.06892e-02,1.41408e-01,3.65982e-01,-4.95244e-02,-2.17779e-01,3.41043e-01,-4.24177e-01,-8.41815e-02,-6.94862e-02,-7.62901e-02,-2.81763e-01,-1.40515e-01,1.48697e-01,-2.91827e-01,-3.83949e-01,-2.50457e-01,2.49688e-01,2.07445e-02,3.01895e-02,1.38869e-01,5.22162e-03,1.74676e-01,3.67593e-02,2.30442e-03,-8.27443e-02,1.36073e-01,-2.23151e-02,2.86523e-01,4.17586e-02,-6.91700e-02,1.67029e-02,1.01638e-01,-6.69988e-02,2.61371e-01,1.89807e-03,-3.31186e-01,-7.65439e-02,-3.88134e-02,-3.54095e-01,3.51523e-02,1.02967e-01,-7.33555e-02,-2.16729e-01,-3.23550e-01,1.16086e-01,-2.92923e-02,1.38335e-01,2.29410e-01,1.87170e-01,2.34779e-01,-1.89622e-01,-1.43979e-02,3.15952e-01,4.80863e-02,6.07133e-02,1.48958e-02,-7.35864e-02,-4.79870e-01,-3.80497e-01,1.17585e-01,2.31157e-01,-3.53234e-02,-6.58330e-01,-9.15648e-01,2.97395e-02,-4.12930e-02,-8.96565e-02,-1.48993e-01,-1.28857e-01,4.00797e-02,-3.45264e-01,-2.32333e-01,-1.14044e-01,5.07627e-02,2.86413e-01,2.25221e-01,7.46119e-02,1.03025e-02,-3.21963e-01,-2.08552e-01,1.36614e-01,7.75164e-02,5.90899e-02,-9.98268e-02,-2.60519e-02,-4.07753e-01,-1.12838e-01,7.36105e-02,1.88109e-01,3.26346e-02,-9.93256e-02,-1.01150e+00,-1.17841e-01,9.09682e-03,9.97352e-02,7.26894e-03,-7.12921e-01,-5.62315e-01,-5.44539e-01,-3.04324e-01,-1.35647e-01,6.98887e-02,2.01986e-01,1.95773e-01,-1.27538e-01,1.02831e-03,-6.03134e-02,-5.14512e-02,-1.86711e-01,1.50918e-01,8.09531e-02,-1.50374e-02,-1.80770e-02,-2.19692e-01,-1.20990e-01,-1.58355e-01,-2.11061e-02,1.28647e-01,1.97421e-01,-3.67505e-01,-3.99637e-02,-3.44990e-01,-1.06266e-01,1.83430e-02,-8.71814e-01,-6.78423e-01,-1.82127e-01,5.60412e-02,3.09456e-01,2.37973e-01,2.85212e-01,9.62324e-02,-2.13542e-01,-2.45880e-01,-7.22158e-02,-4.16550e-02,-1.83068e-01,-6.21138e-02,-9.30475e-02,1.97122e-01,-1.60423e-02,-2.29636e-01,-1.37465e-01,5.76920e-03,2.10909e-01,-1.52011e-01,6.14422e-02,6.98404e-02,-2.66446e-02,-6.24484e-02,-6.72817e-01,-2.90905e-01,-4.74825e-01,-1.04582e-01,3.47594e-02,9.47627e-02,6.05745e-02,1.29626e-01,1.70328e-02,2.14477e-02,-2.78149e-01,-1.37377e-01,2.88409e-01,1.61841e-01,-6.78895e-02,-1.37181e-01,-3.48583e-01,-2.42073e-01,4.86053e-02,-2.16706e-01,-3.35542e-02,-1.54015e-01,3.99502e-01,-8.88949e-02,-1.42110e-01,-1.01284e-02,2.53671e-03,-5.92857e-02,-7.39535e-01,7.79626e-02,3.12303e-02,1.34900e-01,2.88825e-01,3.21056e-01,2.94094e-01,2.09311e-01,-1.64273e-01,7.87912e-03,-1.93338e-01,-7.02462e-02,1.15654e-01,1.54511e-01,-1.11791e-01,-1.90372e-01,-3.76321e-01,-1.95586e-01,6.35272e-02,8.97791e-02,1.71511e-01,4.49093e-02,2.13513e-01,-5.49249e-01,-2.80948e-01,-1.37857e-03,-1.41606e-02,4.19536e-03,-3.59295e-01,4.11811e-01,3.90533e-01,-1.74330e-01,2.58170e-01,3.30633e-01,1.31140e-01,-1.30106e-01,-2.52685e-01,-4.08889e-02,-1.86283e-02,-1.13178e-01,-2.27115e-02,-2.13088e-01,-1.46750e-01,-7.56270e-02,-2.27996e-01,-5.68523e-03,1.85090e-01,2.79990e-01,3.57435e-02,-3.89329e-03,-3.03376e-01,-3.49722e-01,-1.30714e-01,-2.15632e-02,2.72211e-02,-2.42055e-02,-2.63923e-01,2.50910e-02,2.59500e-01,7.03493e-02,1.90658e-01,2.34790e-01,1.65553e-01,-2.37153e-02,-1.39436e-01,-1.67615e-01,-3.11948e-01,-2.15776e-01,-2.29206e-01,-3.16176e-01,-1.79226e-01,1.88396e-01,4.71928e-01,8.17673e-02,1.06689e-01,7.66810e-02,1.93972e-01,1.61498e-01,-3.17029e-01,-1.23275e-02,-6.57459e-02,2.85515e-02,-1.17670e-02,4.22831e-04,-2.83543e-01,-2.42133e-01,3.70004e-02,2.16019e-01,3.41807e-01,2.36810e-01,4.12403e-03,-1.33876e-01,-1.44109e-01,-6.40764e-03,1.14906e-02,-2.58781e-01,-4.24099e-01,-3.56654e-01,7.63391e-02,5.20003e-02,7.79938e-02,1.04025e-02,-8.20157e-02,-4.35163e-01,-3.25530e-01,-1.14096e-01,-6.51509e-01,1.01889e-01,-2.37429e-01,2.81870e-02,2.09428e-02,1.54372e-02,-1.56522e-02,2.71896e-01,3.08704e-01,6.83982e-02,3.67281e-01,2.36666e-01,-1.98967e-01,4.87359e-02,7.04917e-02,2.24796e-02,-1.58958e-01,-9.36522e-02,3.34988e-01,2.45435e-01,5.81073e-02,3.20933e-02,-2.00104e-02,-2.62007e-01,-6.69643e-01,-3.97295e-01,-1.99028e-01,-8.70402e-02,-4.26345e-01,1.12120e-02,-2.24787e-01,3.45813e-03,2.95640e-03,2.95167e-02,2.06865e-02,2.44866e-01,2.20574e-01,1.10683e-01,2.30973e-01,1.91890e-01,6.77962e-02,3.66154e-01,4.10399e-01,7.24270e-02,-1.21587e-01,-2.12684e-01,5.71283e-02,-8.26528e-02,3.57360e-02,1.11621e-02,-3.29820e-02,-2.48813e-01,-3.05180e-01,-9.18630e-02,-4.46236e-01,-1.55303e-02,6.96562e-02,-8.28891e-02,-2.47875e-02,2.49032e-02,1.28997e-02,-3.13635e-02,-2.80986e-02,1.07141e-02,-2.71330e-02,-3.05393e-02,-3.06683e-02,-1.18717e-02,-3.08902e-01,-3.80289e-01,-2.87656e-01,-2.28362e-01,-6.62732e-02,-3.13132e-01,-5.47845e-01,1.72997e-01,8.15223e-05,-5.84128e-01,-3.81623e-01,2.73881e-01,-1.68072e-01,-5.44872e-01,-5.54655e-01,-1.00238e-01,1.40710e-05,-1.56825e-02,-2.33427e-03,1.84588e-02,
