// Neural Network File Format by Kyle Julian, Stanford 2016
7,3072,10,3072,
3072,80,80,80,80,80,80,10,
0,
-3.4028235e+38,-3.4028235e+38,-3.4028235e+38,-3.4028235e+38,-3.4028235e+38,-3.4028235e+38,-3.4028235e+38,-3.4028235e+38,-3.4028235e+38,-3.4028235e+38,-3.4028235e+38,-3.4028235e+38,-3.4028235e+38,-3.4028235e+38,-3.4028235e+38,-3.4028235e+38,-3.4028235e+38,-3.4028235e+38,-3.4028235e+38,-3.4028235e+38,-3.4028235e+38,-3.4028235e+38,-3.4028235e+38,-3.4028235e+38,-3.4028235e+38,-3.4028235e+38,-3.4028235e+38,-3.4028235e+38,-3.4028235e+38,-3.4028235e+38,-3.4028235e+38,-3.4028235e+38,-3.4028235e+38,-3.4028235e+38,-3.4028235e+38,-3.4028235e+38,-3.4028235e+38,-3.4028235e+38,-3.4028235e+38,-3.4028235e+38,-3.4028235e+38,-3.4028235e+38,-3.4028235e+38,-3.4028235e+38,-3.4028235e+38,-3.4028235e+38,-3.4028235e+38,-3.4028235e+38,-3.4028235e+38,-3.4028235e+38,-3.4028235e+38,-3.4028235e+38,-3.4028235e+38,-3.4028235e+38,-3.4028235e+38,-3.4028235e+38,-3.4028235e+38,-3.4028235e+38,-3.4028235e+38,-3.4028235e+38,-3.4028235e+38,-3.4028235e+38,-3.4028235e+38,-3.4028235e+38,-3.4028235e+38,-3.4028235e+38,-3.4028235e+38,-3.4028235e+38,-3.4028235e+38,-3.4028235e+38,-3.4028235e+38,-3.4028235e+38,-3.4028235e+38,-3.4028235e+38,-3.4028235e+38,-3.4028235e+38,-3.4028235e+38,-3.4028235e+38,-3.4028235e+38,-3.4028235e+38,-3.4028235e+38,-3.4028235e+38,-3.4028235e+38,-3.4028235e+38,-3.4028235e+38,-3.4028235e+38,-3.4028235e+38,-3.4028235e+38,-3.4028235e+38,-3.4028235e+38,-3.4028235e+38,-3.4028235e+38,-3.4028235e+38,-3.4028235e+38,-3.4028235e+38,-3.4028235e+38,-3.4028235e+38,-3.4028235e+38,-3.4028235e+38,-3.4028235e+38,-3.4028235e+38,-3.4028235e+38,-3.4028235e+38,-3.4028235e+38,-3.4028235e+38,-3.4028235e+38,-3.4028235e+38,-3.4028235e+38,-3.4028235e+38,-3.4028235e+38,-3.4028235e+38,-3.4028235e+38,-3.4028235e+38,-3.4028235e+38,-3.4028235e+38,-3.4028235e+38,-3.4028235e+38,-3.4028235e+38,-3.4028235e+38,-3.4028235e+38,-3.4028235e+38,-3.4028235e+38,-3.4028235e+38,-3.4028235e+38,-3.4028235e+38,-3.4028235e+38,-3.4028235e+38,-3.4028235e+38,-3.4028235e+38,-3.4028235e+38,-3.4028235e+38,-3.4028235e+38,-3.4028235e+38,-3.4028235e+38,-3.4028235e+38,-3.4028235e+38,-3.4028235e+38,-3.4028235e+38,-3.4028235e+38,-3.4028235e+38,-3.4028235e+38,-3.4028235e+38,-3.4028235e+38,-3.4028235e+38,-3.4028235e+38,-3.4028235e+38,-3.4028235e+38,-3.4028235e+38,-3.4028235e+38,-3.4028235e+38,-3.4028235e+38,-3.4028235e+38,-3.4028235e+38,-3.4028235e+38,-3.4028235e+38,-3.4028235e+38,-3.4028235e+38,-3.4028235e+38,-3.4028235e+38,-3.4028235e+38,-3.4028235e+38,-3.4028235e+38,-3.4028235e+38,-3.4028235e+38,-3.4028235e+38,-3.4028235e+38,-3.4028235e+38,-3.4028235e+38,-3.4028235e+38,-3.4028235e+38,-3.4028235e+38,-3.4028235e+38,-3.4028235e+38,-3.4028235e+38,-3.4028235e+38,-3.4028235e+38,-3.4028235e+38,-3.4028235e+38,-3.4028235e+38,-3.4028235e+38,-3.4028235e+38,-3.4028235e+38,-3.4028235e+38,-3.4028235e+38,-3.4028235e+38,-3.4028235e+38,-3.4028235e+38,-3.4028235e+38,-3.4028235e+38,-3.4028235e+38,-3.4028235e+38,-3.4028235e+38,-3.4028235e+38,-3.4028235e+38,-3.4028235e+38,-3.4028235e+38,-3.4028235e+38,-3.4028235e+38,-3.4028235e+38,-3.4028235e+38,-3.4028235e+38,-3.4028235e+38,-3.4028235e+38,-3.4028235e+38,-3.4028235e+38,-3.4028235e+38,-3.4028235e+38,-3.4028235e+38,-3.4028235e+38,-3.4028235e+38,-3.4028235e+38,-3.4028235e+38,-3.4028235e+38,-3.4028235e+38,-3.4028235e+38,-3.4028235e+38,-3.4028235e+38,-3.4028235e+38,-3.4028235e+38,-3.4028235e+38,-3.4028235e+38,-3.4028235e+38,-3.4028235e+38,-3.4028235e+38,-3.4028235e+38,-3.4028235e+38,-3.4028235e+38,-3.4028235e+38,-3.4028235e+38,-3.4028235e+38,-3.4028235e+38,-3.4028235e+38,-3.4028235e+38,-3.4028235e+38,-3.4028235e+38,-3.4028235e+38,-3.4028235e+38,-3.4028235e+38,-3.4028235e+38,-3.4028235e+38,-3.4028235e+38,-3.4028235e+38,-3.4028235e+38,-3.4028235e+38,-3.4028235e+38,-3.4028235e+38,-3.4028235e+38,-3.4028235e+38,-3.4028235e+38,-3.4028235e+38,-3.4028235e+38,-3.4028235e+38,-3.4028235e+38,-3.4028235e+38,-3.4028235e+38,-3.4028235e+38,-3.4028235e+38,-3.4028235e+38,-3.4028235e+38,-3.4028235e+38,-3.4028235e+38,-3.4028235e+38,-3.4028235e+38,-3.4028235e+38,-3.4028235e+38,-3.4028235e+38,-3.4028235e+38,-3.4028235e+38,-3.4028235e+38,-3.4028235e+38,-3.4028235e+38,-3.4028235e+38,-3.4028235e+38,-3.4028235e+38,-3.4028235e+38,-3.4028235e+38,-3.4028235e+38,-3.4028235e+38,-3.4028235e+38,-3.4028235e+38,-3.4028235e+38,-3.4028235e+38,-3.4028235e+38,-3.4028235e+38,-3.4028235e+38,-3.4028235e+38,-3.4028235e+38,-3.4028235e+38,-3.4028235e+38,-3.4028235e+38,-3.4028235e+38,-3.4028235e+38,-3.4028235e+38,-3.4028235e+38,-3.4028235e+38,-3.4028235e+38,-3.4028235e+38,-3.4028235e+38,-3.4028235e+38,-3.4028235e+38,-3.4028235e+38,-3.4028235e+38,-3.4028235e+38,-3.4028235e+38,-3.4028235e+38,-3.4028235e+38,-3.4028235e+38,-3.4028235e+38,-3.4028235e+38,-3.4028235e+38,-3.4028235e+38,-3.4028235e+38,-3.4028235e+38,-3.4028235e+38,-3.4028235e+38,-3.4028235e+38,-3.4028235e+38,-3.4028235e+38,-3.4028235e+38,-3.4028235e+38,-3.4028235e+38,-3.4028235e+38,-3.4028235e+38,-3.4028235e+38,-3.4028235e+38,-3.4028235e+38,-3.4028235e+38,-3.4028235e+38,-3.4028235e+38,-3.4028235e+38,-3.4028235e+38,-3.4028235e+38,-3.4028235e+38,-3.4028235e+38,-3.4028235e+38,-3.4028235e+38,-3.4028235e+38,-3.4028235e+38,-3.4028235e+38,-3.4028235e+38,-3.4028235e+38,-3.4028235e+38,-3.4028235e+38,-3.4028235e+38,-3.4028235e+38,-3.4028235e+38,-3.4028235e+38,-3.4028235e+38,-3.4028235e+38,-3.4028235e+38,-3.4028235e+38,-3.4028235e+38,-3.4028235e+38,-3.4028235e+38,-3.4028235e+38,-3.4028235e+38,-3.4028235e+38,-3.4028235e+38,-3.4028235e+38,-3.4028235e+38,-3.4028235e+38,-3.4028235e+38,-3.4028235e+38,-3.4028235e+38,-3.4028235e+38,-3.4028235e+38,-3.4028235e+38,-3.4028235e+38,-3.4028235e+38,-3.4028235e+38,-3.4028235e+38,-3.4028235e+38,-3.4028235e+38,-3.4028235e+38,-3.4028235e+38,-3.4028235e+38,-3.4028235e+38,-3.4028235e+38,-3.4028235e+38,-3.4028235e+38,-3.4028235e+38,-3.4028235e+38,-3.4028235e+38,-3.4028235e+38,-3.4028235e+38,-3.4028235e+38,-3.4028235e+38,-3.4028235e+38,-3.4028235e+38,-3.4028235e+38,-3.4028235e+38,-3.4028235e+38,-3.4028235e+38,-3.4028235e+38,-3.4028235e+38,-3.4028235e+38,-3.4028235e+38,-3.4028235e+38,-3.4028235e+38,-3.4028235e+38,-3.4028235e+38,-3.4028235e+38,-3.4028235e+38,-3.4028235e+38,-3.4028235e+38,-3.4028235e+38,-3.4028235e+38,-3.4028235e+38,-3.4028235e+38,-3.4028235e+38,-3.4028235e+38,-3.4028235e+38,-3.4028235e+38,-3.4028235e+38,-3.4028235e+38,-3.4028235e+38,-3.4028235e+38,-3.4028235e+38,-3.4028235e+38,-3.4028235e+38,-3.4028235e+38,-3.4028235e+38,-3.4028235e+38,-3.4028235e+38,-3.4028235e+38,-3.4028235e+38,-3.4028235e+38,-3.4028235e+38,-3.4028235e+38,-3.4028235e+38,-3.4028235e+38,-3.4028235e+38,-3.4028235e+38,-3.4028235e+38,-3.4028235e+38,-3.4028235e+38,-3.4028235e+38,-3.4028235e+38,-3.4028235e+38,-3.4028235e+38,-3.4028235e+38,-3.4028235e+38,-3.4028235e+38,-3.4028235e+38,-3.4028235e+38,-3.4028235e+38,-3.4028235e+38,-3.4028235e+38,-3.4028235e+38,-3.4028235e+38,-3.4028235e+38,-3.4028235e+38,-3.4028235e+38,-3.4028235e+38,-3.4028235e+38,-3.4028235e+38,-3.4028235e+38,-3.4028235e+38,-3.4028235e+38,-3.4028235e+38,-3.4028235e+38,-3.4028235e+38,-3.4028235e+38,-3.4028235e+38,-3.4028235e+38,-3.4028235e+38,-3.4028235e+38,-3.4028235e+38,-3.4028235e+38,-3.4028235e+38,-3.4028235e+38,-3.4028235e+38,-3.4028235e+38,-3.4028235e+38,-3.4028235e+38,-3.4028235e+38,-3.4028235e+38,-3.4028235e+38,-3.4028235e+38,-3.4028235e+38,-3.4028235e+38,-3.4028235e+38,-3.4028235e+38,-3.4028235e+38,-3.4028235e+38,-3.4028235e+38,-3.4028235e+38,-3.4028235e+38,-3.4028235e+38,-3.4028235e+38,-3.4028235e+38,-3.4028235e+38,-3.4028235e+38,-3.4028235e+38,-3.4028235e+38,-3.4028235e+38,-3.4028235e+38,-3.4028235e+38,-3.4028235e+38,-3.4028235e+38,-3.4028235e+38,-3.4028235e+38,-3.4028235e+38,-3.4028235e+38,-3.4028235e+38,-3.4028235e+38,-3.4028235e+38,-3.4028235e+38,-3.4028235e+38,-3.4028235e+38,-3.4028235e+38,-3.4028235e+38,-3.4028235e+38,-3.4028235e+38,-3.4028235e+38,-3.4028235e+38,-3.4028235e+38,-3.4028235e+38,-3.4028235e+38,-3.4028235e+38,-3.4028235e+38,-3.4028235e+38,-3.4028235e+38,-3.4028235e+38,-3.4028235e+38,-3.4028235e+38,-3.4028235e+38,-3.4028235e+38,-3.4028235e+38,-3.4028235e+38,-3.4028235e+38,-3.4028235e+38,-3.4028235e+38,-3.4028235e+38,-3.4028235e+38,-3.4028235e+38,-3.4028235e+38,-3.4028235e+38,-3.4028235e+38,-3.4028235e+38,-3.4028235e+38,-3.4028235e+38,-3.4028235e+38,-3.4028235e+38,-3.4028235e+38,-3.4028235e+38,-3.4028235e+38,-3.4028235e+38,-3.4028235e+38,-3.4028235e+38,-3.4028235e+38,-3.4028235e+38,-3.4028235e+38,-3.4028235e+38,-3.4028235e+38,-3.4028235e+38,-3.4028235e+38,-3.4028235e+38,-3.4028235e+38,-3.4028235e+38,-3.4028235e+38,-3.4028235e+38,-3.4028235e+38,-3.4028235e+38,-3.4028235e+38,-3.4028235e+38,-3.4028235e+38,-3.4028235e+38,-3.4028235e+38,-3.4028235e+38,-3.4028235e+38,-3.4028235e+38,-3.4028235e+38,-3.4028235e+38,-3.4028235e+38,-3.4028235e+38,-3.4028235e+38,-3.4028235e+38,-3.4028235e+38,-3.4028235e+38,-3.4028235e+38,-3.4028235e+38,-3.4028235e+38,-3.4028235e+38,-3.4028235e+38,-3.4028235e+38,-3.4028235e+38,-3.4028235e+38,-3.4028235e+38,-3.4028235e+38,-3.4028235e+38,-3.4028235e+38,-3.4028235e+38,-3.4028235e+38,-3.4028235e+38,-3.4028235e+38,-3.4028235e+38,-3.4028235e+38,-3.4028235e+38,-3.4028235e+38,-3.4028235e+38,-3.4028235e+38,-3.4028235e+38,-3.4028235e+38,-3.4028235e+38,-3.4028235e+38,-3.4028235e+38,-3.4028235e+38,-3.4028235e+38,-3.4028235e+38,-3.4028235e+38,-3.4028235e+38,-3.4028235e+38,-3.4028235e+38,-3.4028235e+38,-3.4028235e+38,-3.4028235e+38,-3.4028235e+38,-3.4028235e+38,-3.4028235e+38,-3.4028235e+38,-3.4028235e+38,-3.4028235e+38,-3.4028235e+38,-3.4028235e+38,-3.4028235e+38,-3.4028235e+38,-3.4028235e+38,-3.4028235e+38,-3.4028235e+38,-3.4028235e+38,-3.4028235e+38,-3.4028235e+38,-3.4028235e+38,-3.4028235e+38,-3.4028235e+38,-3.4028235e+38,-3.4028235e+38,-3.4028235e+38,-3.4028235e+38,-3.4028235e+38,-3.4028235e+38,-3.4028235e+38,-3.4028235e+38,-3.4028235e+38,-3.4028235e+38,-3.4028235e+38,-3.4028235e+38,-3.4028235e+38,-3.4028235e+38,-3.4028235e+38,-3.4028235e+38,-3.4028235e+38,-3.4028235e+38,-3.4028235e+38,-3.4028235e+38,-3.4028235e+38,-3.4028235e+38,-3.4028235e+38,-3.4028235e+38,-3.4028235e+38,-3.4028235e+38,-3.4028235e+38,-3.4028235e+38,-3.4028235e+38,-3.4028235e+38,-3.4028235e+38,-3.4028235e+38,-3.4028235e+38,-3.4028235e+38,-3.4028235e+38,-3.4028235e+38,-3.4028235e+38,-3.4028235e+38,-3.4028235e+38,-3.4028235e+38,-3.4028235e+38,-3.4028235e+38,-3.4028235e+38,-3.4028235e+38,-3.4028235e+38,-3.4028235e+38,-3.4028235e+38,-3.4028235e+38,-3.4028235e+38,-3.4028235e+38,-3.4028235e+38,-3.4028235e+38,-3.4028235e+38,-3.4028235e+38,-3.4028235e+38,-3.4028235e+38,-3.4028235e+38,-3.4028235e+38,-3.4028235e+38,-3.4028235e+38,-3.4028235e+38,-3.4028235e+38,-3.4028235e+38,-3.4028235e+38,-3.4028235e+38,-3.4028235e+38,-3.4028235e+38,-3.4028235e+38,-3.4028235e+38,-3.4028235e+38,-3.4028235e+38,-3.4028235e+38,-3.4028235e+38,-3.4028235e+38,-3.4028235e+38,-3.4028235e+38,-3.4028235e+38,-3.4028235e+38,-3.4028235e+38,-3.4028235e+38,-3.4028235e+38,-3.4028235e+38,-3.4028235e+38,-3.4028235e+38,-3.4028235e+38,-3.4028235e+38,-3.4028235e+38,-3.4028235e+38,-3.4028235e+38,-3.4028235e+38,-3.4028235e+38,-3.4028235e+38,-3.4028235e+38,-3.4028235e+38,-3.4028235e+38,-3.4028235e+38,-3.4028235e+38,-3.4028235e+38,-3.4028235e+38,-3.4028235e+38,-3.4028235e+38,-3.4028235e+38,-3.4028235e+38,-3.4028235e+38,-3.4028235e+38,-3.4028235e+38,-3.4028235e+38,-3.4028235e+38,-3.4028235e+38,-3.4028235e+38,-3.4028235e+38,-3.4028235e+38,-3.4028235e+38,-3.4028235e+38,-3.4028235e+38,-3.4028235e+38,-3.4028235e+38,-3.4028235e+38,-3.4028235e+38,-3.4028235e+38,-3.4028235e+38,-3.4028235e+38,-3.4028235e+38,-3.4028235e+38,-3.4028235e+38,-3.4028235e+38,-3.4028235e+38,-3.4028235e+38,-3.4028235e+38,-3.4028235e+38,-3.4028235e+38,-3.4028235e+38,-3.4028235e+38,-3.4028235e+38,-3.4028235e+38,-3.4028235e+38,-3.4028235e+38,-3.4028235e+38,-3.4028235e+38,-3.4028235e+38,-3.4028235e+38,-3.4028235e+38,-3.4028235e+38,-3.4028235e+38,-3.4028235e+38,-3.4028235e+38,-3.4028235e+38,-3.4028235e+38,-3.4028235e+38,-3.4028235e+38,-3.4028235e+38,-3.4028235e+38,-3.4028235e+38,-3.4028235e+38,-3.4028235e+38,-3.4028235e+38,-3.4028235e+38,-3.4028235e+38,-3.4028235e+38,-3.4028235e+38,-3.4028235e+38,-3.4028235e+38,-3.4028235e+38,-3.4028235e+38,-3.4028235e+38,-3.4028235e+38,-3.4028235e+38,-3.4028235e+38,-3.4028235e+38,-3.4028235e+38,-3.4028235e+38,-3.4028235e+38,-3.4028235e+38,-3.4028235e+38,-3.4028235e+38,-3.4028235e+38,-3.4028235e+38,-3.4028235e+38,-3.4028235e+38,-3.4028235e+38,-3.4028235e+38,-3.4028235e+38,-3.4028235e+38,-3.4028235e+38,-3.4028235e+38,-3.4028235e+38,-3.4028235e+38,-3.4028235e+38,-3.4028235e+38,-3.4028235e+38,-3.4028235e+38,-3.4028235e+38,-3.4028235e+38,-3.4028235e+38,-3.4028235e+38,-3.4028235e+38,-3.4028235e+38,-3.4028235e+38,-3.4028235e+38,-3.4028235e+38,-3.4028235e+38,-3.4028235e+38,-3.4028235e+38,-3.4028235e+38,-3.4028235e+38,-3.4028235e+38,-3.4028235e+38,-3.4028235e+38,-3.4028235e+38,-3.4028235e+38,-3.4028235e+38,-3.4028235e+38,-3.4028235e+38,-3.4028235e+38,-3.4028235e+38,-3.4028235e+38,-3.4028235e+38,-3.4028235e+38,-3.4028235e+38,-3.4028235e+38,-3.4028235e+38,-3.4028235e+38,-3.4028235e+38,-3.4028235e+38,-3.4028235e+38,-3.4028235e+38,-3.4028235e+38,-3.4028235e+38,-3.4028235e+38,-3.4028235e+38,-3.4028235e+38,-3.4028235e+38,-3.4028235e+38,-3.4028235e+38,-3.4028235e+38,-3.4028235e+38,-3.4028235e+38,-3.4028235e+38,-3.4028235e+38,-3.4028235e+38,-3.4028235e+38,-3.4028235e+38,-3.4028235e+38,-3.4028235e+38,-3.4028235e+38,-3.4028235e+38,-3.4028235e+38,-3.4028235e+38,-3.4028235e+38,-3.4028235e+38,-3.4028235e+38,-3.4028235e+38,-3.4028235e+38,-3.4028235e+38,-3.4028235e+38,-3.4028235e+38,-3.4028235e+38,-3.4028235e+38,-3.4028235e+38,-3.4028235e+38,-3.4028235e+38,-3.4028235e+38,-3.4028235e+38,-3.4028235e+38,-3.4028235e+38,-3.4028235e+38,-3.4028235e+38,-3.4028235e+38,-3.4028235e+38,-3.4028235e+38,-3.4028235e+38,-3.4028235e+38,-3.4028235e+38,-3.4028235e+38,-3.4028235e+38,-3.4028235e+38,-3.4028235e+38,-3.4028235e+38,-3.4028235e+38,-3.4028235e+38,-3.4028235e+38,-3.4028235e+38,-3.4028235e+38,-3.4028235e+38,-3.4028235e+38,-3.4028235e+38,-3.4028235e+38,-3.4028235e+38,-3.4028235e+38,-3.4028235e+38,-3.4028235e+38,-3.4028235e+38,-3.4028235e+38,-3.4028235e+38,-3.4028235e+38,-3.4028235e+38,-3.4028235e+38,-3.4028235e+38,-3.4028235e+38,-3.4028235e+38,-3.4028235e+38,-3.4028235e+38,-3.4028235e+38,-3.4028235e+38,-3.4028235e+38,-3.4028235e+38,-3.4028235e+38,-3.4028235e+38,-3.4028235e+38,-3.4028235e+38,-3.4028235e+38,-3.4028235e+38,-3.4028235e+38,-3.4028235e+38,-3.4028235e+38,-3.4028235e+38,-3.4028235e+38,-3.4028235e+38,-3.4028235e+38,-3.4028235e+38,-3.4028235e+38,-3.4028235e+38,-3.4028235e+38,-3.4028235e+38,-3.4028235e+38,-3.4028235e+38,-3.4028235e+38,-3.4028235e+38,-3.4028235e+38,-3.4028235e+38,-3.4028235e+38,-3.4028235e+38,-3.4028235e+38,-3.4028235e+38,-3.4028235e+38,-3.4028235e+38,-3.4028235e+38,-3.4028235e+38,-3.4028235e+38,-3.4028235e+38,-3.4028235e+38,-3.4028235e+38,-3.4028235e+38,-3.4028235e+38,-3.4028235e+38,-3.4028235e+38,-3.4028235e+38,-3.4028235e+38,-3.4028235e+38,-3.4028235e+38,-3.4028235e+38,-3.4028235e+38,-3.4028235e+38,-3.4028235e+38,-3.4028235e+38,-3.4028235e+38,-3.4028235e+38,-3.4028235e+38,-3.4028235e+38,-3.4028235e+38,-3.4028235e+38,-3.4028235e+38,-3.4028235e+38,-3.4028235e+38,-3.4028235e+38,-3.4028235e+38,-3.4028235e+38,-3.4028235e+38,-3.4028235e+38,-3.4028235e+38,-3.4028235e+38,-3.4028235e+38,-3.4028235e+38,-3.4028235e+38,-3.4028235e+38,-3.4028235e+38,-3.4028235e+38,-3.4028235e+38,-3.4028235e+38,-3.4028235e+38,-3.4028235e+38,-3.4028235e+38,-3.4028235e+38,-3.4028235e+38,-3.4028235e+38,-3.4028235e+38,-3.4028235e+38,-3.4028235e+38,-3.4028235e+38,-3.4028235e+38,-3.4028235e+38,-3.4028235e+38,-3.4028235e+38,-3.4028235e+38,-3.4028235e+38,-3.4028235e+38,-3.4028235e+38,-3.4028235e+38,-3.4028235e+38,-3.4028235e+38,-3.4028235e+38,-3.4028235e+38,-3.4028235e+38,-3.4028235e+38,-3.4028235e+38,-3.4028235e+38,-3.4028235e+38,-3.4028235e+38,-3.4028235e+38,-3.4028235e+38,-3.4028235e+38,-3.4028235e+38,-3.4028235e+38,-3.4028235e+38,-3.4028235e+38,-3.4028235e+38,-3.4028235e+38,-3.4028235e+38,-3.4028235e+38,-3.4028235e+38,-3.4028235e+38,-3.4028235e+38,-3.4028235e+38,-3.4028235e+38,-3.4028235e+38,-3.4028235e+38,-3.4028235e+38,-3.4028235e+38,-3.4028235e+38,-3.4028235e+38,-3.4028235e+38,-3.4028235e+38,-3.4028235e+38,-3.4028235e+38,-3.4028235e+38,-3.4028235e+38,-3.4028235e+38,-3.4028235e+38,-3.4028235e+38,-3.4028235e+38,-3.4028235e+38,-3.4028235e+38,-3.4028235e+38,-3.4028235e+38,-3.4028235e+38,-3.4028235e+38,-3.4028235e+38,-3.4028235e+38,-3.4028235e+38,-3.4028235e+38,-3.4028235e+38,-3.4028235e+38,-3.4028235e+38,-3.4028235e+38,-3.4028235e+38,-3.4028235e+38,-3.4028235e+38,-3.4028235e+38,-3.4028235e+38,-3.4028235e+38,-3.4028235e+38,-3.4028235e+38,-3.4028235e+38,-3.4028235e+38,-3.4028235e+38,-3.4028235e+38,-3.4028235e+38,-3.4028235e+38,-3.4028235e+38,-3.4028235e+38,-3.4028235e+38,-3.4028235e+38,-3.4028235e+38,-3.4028235e+38,-3.4028235e+38,-3.4028235e+38,-3.4028235e+38,-3.4028235e+38,-3.4028235e+38,-3.4028235e+38,-3.4028235e+38,-3.4028235e+38,-3.4028235e+38,-3.4028235e+38,-3.4028235e+38,-3.4028235e+38,-3.4028235e+38,-3.4028235e+38,-3.4028235e+38,-3.4028235e+38,-3.4028235e+38,-3.4028235e+38,-3.4028235e+38,-3.4028235e+38,-3.4028235e+38,-3.4028235e+38,-3.4028235e+38,-3.4028235e+38,-3.4028235e+38,-3.4028235e+38,-3.4028235e+38,-3.4028235e+38,-3.4028235e+38,-3.4028235e+38,-3.4028235e+38,-3.4028235e+38,-3.4028235e+38,-3.4028235e+38,-3.4028235e+38,-3.4028235e+38,-3.4028235e+38,-3.4028235e+38,-3.4028235e+38,-3.4028235e+38,-3.4028235e+38,-3.4028235e+38,-3.4028235e+38,-3.4028235e+38,-3.4028235e+38,-3.4028235e+38,-3.4028235e+38,-3.4028235e+38,-3.4028235e+38,-3.4028235e+38,-3.4028235e+38,-3.4028235e+38,-3.4028235e+38,-3.4028235e+38,-3.4028235e+38,-3.4028235e+38,-3.4028235e+38,-3.4028235e+38,-3.4028235e+38,-3.4028235e+38,-3.4028235e+38,-3.4028235e+38,-3.4028235e+38,-3.4028235e+38,-3.4028235e+38,-3.4028235e+38,-3.4028235e+38,-3.4028235e+38,-3.4028235e+38,-3.4028235e+38,-3.4028235e+38,-3.4028235e+38,-3.4028235e+38,-3.4028235e+38,-3.4028235e+38,-3.4028235e+38,-3.4028235e+38,-3.4028235e+38,-3.4028235e+38,-3.4028235e+38,-3.4028235e+38,-3.4028235e+38,-3.4028235e+38,-3.4028235e+38,-3.4028235e+38,-3.4028235e+38,-3.4028235e+38,-3.4028235e+38,-3.4028235e+38,-3.4028235e+38,-3.4028235e+38,-3.4028235e+38,-3.4028235e+38,-3.4028235e+38,-3.4028235e+38,-3.4028235e+38,-3.4028235e+38,-3.4028235e+38,-3.4028235e+38,-3.4028235e+38,-3.4028235e+38,-3.4028235e+38,-3.4028235e+38,-3.4028235e+38,-3.4028235e+38,-3.4028235e+38,-3.4028235e+38,-3.4028235e+38,-3.4028235e+38,-3.4028235e+38,-3.4028235e+38,-3.4028235e+38,-3.4028235e+38,-3.4028235e+38,-3.4028235e+38,-3.4028235e+38,-3.4028235e+38,-3.4028235e+38,-3.4028235e+38,-3.4028235e+38,-3.4028235e+38,-3.4028235e+38,-3.4028235e+38,-3.4028235e+38,-3.4028235e+38,-3.4028235e+38,-3.4028235e+38,-3.4028235e+38,-3.4028235e+38,-3.4028235e+38,-3.4028235e+38,-3.4028235e+38,-3.4028235e+38,-3.4028235e+38,-3.4028235e+38,-3.4028235e+38,-3.4028235e+38,-3.4028235e+38,-3.4028235e+38,-3.4028235e+38,-3.4028235e+38,-3.4028235e+38,-3.4028235e+38,-3.4028235e+38,-3.4028235e+38,-3.4028235e+38,-3.4028235e+38,-3.4028235e+38,-3.4028235e+38,-3.4028235e+38,-3.4028235e+38,-3.4028235e+38,-3.4028235e+38,-3.4028235e+38,-3.4028235e+38,-3.4028235e+38,-3.4028235e+38,-3.4028235e+38,-3.4028235e+38,-3.4028235e+38,-3.4028235e+38,-3.4028235e+38,-3.4028235e+38,-3.4028235e+38,-3.4028235e+38,-3.4028235e+38,-3.4028235e+38,-3.4028235e+38,-3.4028235e+38,-3.4028235e+38,-3.4028235e+38,-3.4028235e+38,-3.4028235e+38,-3.4028235e+38,-3.4028235e+38,-3.4028235e+38,-3.4028235e+38,-3.4028235e+38,-3.4028235e+38,-3.4028235e+38,-3.4028235e+38,-3.4028235e+38,-3.4028235e+38,-3.4028235e+38,-3.4028235e+38,-3.4028235e+38,-3.4028235e+38,-3.4028235e+38,-3.4028235e+38,-3.4028235e+38,-3.4028235e+38,-3.4028235e+38,-3.4028235e+38,-3.4028235e+38,-3.4028235e+38,-3.4028235e+38,-3.4028235e+38,-3.4028235e+38,-3.4028235e+38,-3.4028235e+38,-3.4028235e+38,-3.4028235e+38,-3.4028235e+38,-3.4028235e+38,-3.4028235e+38,-3.4028235e+38,-3.4028235e+38,-3.4028235e+38,-3.4028235e+38,-3.4028235e+38,-3.4028235e+38,-3.4028235e+38,-3.4028235e+38,-3.4028235e+38,-3.4028235e+38,-3.4028235e+38,-3.4028235e+38,-3.4028235e+38,-3.4028235e+38,-3.4028235e+38,-3.4028235e+38,-3.4028235e+38,-3.4028235e+38,-3.4028235e+38,-3.4028235e+38,-3.4028235e+38,-3.4028235e+38,-3.4028235e+38,-3.4028235e+38,-3.4028235e+38,-3.4028235e+38,-3.4028235e+38,-3.4028235e+38,-3.4028235e+38,-3.4028235e+38,-3.4028235e+38,-3.4028235e+38,-3.4028235e+38,-3.4028235e+38,-3.4028235e+38,-3.4028235e+38,-3.4028235e+38,-3.4028235e+38,-3.4028235e+38,-3.4028235e+38,-3.4028235e+38,-3.4028235e+38,-3.4028235e+38,-3.4028235e+38,-3.4028235e+38,-3.4028235e+38,-3.4028235e+38,-3.4028235e+38,-3.4028235e+38,-3.4028235e+38,-3.4028235e+38,-3.4028235e+38,-3.4028235e+38,-3.4028235e+38,-3.4028235e+38,-3.4028235e+38,-3.4028235e+38,-3.4028235e+38,-3.4028235e+38,-3.4028235e+38,-3.4028235e+38,-3.4028235e+38,-3.4028235e+38,-3.4028235e+38,-3.4028235e+38,-3.4028235e+38,-3.4028235e+38,-3.4028235e+38,-3.4028235e+38,-3.4028235e+38,-3.4028235e+38,-3.4028235e+38,-3.4028235e+38,-3.4028235e+38,-3.4028235e+38,-3.4028235e+38,-3.4028235e+38,-3.4028235e+38,-3.4028235e+38,-3.4028235e+38,-3.4028235e+38,-3.4028235e+38,-3.4028235e+38,-3.4028235e+38,-3.4028235e+38,-3.4028235e+38,-3.4028235e+38,-3.4028235e+38,-3.4028235e+38,-3.4028235e+38,-3.4028235e+38,-3.4028235e+38,-3.4028235e+38,-3.4028235e+38,-3.4028235e+38,-3.4028235e+38,-3.4028235e+38,-3.4028235e+38,-3.4028235e+38,-3.4028235e+38,-3.4028235e+38,-3.4028235e+38,-3.4028235e+38,-3.4028235e+38,-3.4028235e+38,-3.4028235e+38,-3.4028235e+38,-3.4028235e+38,-3.4028235e+38,-3.4028235e+38,-3.4028235e+38,-3.4028235e+38,-3.4028235e+38,-3.4028235e+38,-3.4028235e+38,-3.4028235e+38,-3.4028235e+38,-3.4028235e+38,-3.4028235e+38,-3.4028235e+38,-3.4028235e+38,-3.4028235e+38,-3.4028235e+38,-3.4028235e+38,-3.4028235e+38,-3.4028235e+38,-3.4028235e+38,-3.4028235e+38,-3.4028235e+38,-3.4028235e+38,-3.4028235e+38,-3.4028235e+38,-3.4028235e+38,-3.4028235e+38,-3.4028235e+38,-3.4028235e+38,-3.4028235e+38,-3.4028235e+38,-3.4028235e+38,-3.4028235e+38,-3.4028235e+38,-3.4028235e+38,-3.4028235e+38,-3.4028235e+38,-3.4028235e+38,-3.4028235e+38,-3.4028235e+38,-3.4028235e+38,-3.4028235e+38,-3.4028235e+38,-3.4028235e+38,-3.4028235e+38,-3.4028235e+38,-3.4028235e+38,-3.4028235e+38,-3.4028235e+38,-3.4028235e+38,-3.4028235e+38,-3.4028235e+38,-3.4028235e+38,-3.4028235e+38,-3.4028235e+38,-3.4028235e+38,-3.4028235e+38,-3.4028235e+38,-3.4028235e+38,-3.4028235e+38,-3.4028235e+38,-3.4028235e+38,-3.4028235e+38,-3.4028235e+38,-3.4028235e+38,-3.4028235e+38,-3.4028235e+38,-3.4028235e+38,-3.4028235e+38,-3.4028235e+38,-3.4028235e+38,-3.4028235e+38,-3.4028235e+38,-3.4028235e+38,-3.4028235e+38,-3.4028235e+38,-3.4028235e+38,-3.4028235e+38,-3.4028235e+38,-3.4028235e+38,-3.4028235e+38,-3.4028235e+38,-3.4028235e+38,-3.4028235e+38,-3.4028235e+38,-3.4028235e+38,-3.4028235e+38,-3.4028235e+38,-3.4028235e+38,-3.4028235e+38,-3.4028235e+38,-3.4028235e+38,-3.4028235e+38,-3.4028235e+38,-3.4028235e+38,-3.4028235e+38,-3.4028235e+38,-3.4028235e+38,-3.4028235e+38,-3.4028235e+38,-3.4028235e+38,-3.4028235e+38,-3.4028235e+38,-3.4028235e+38,-3.4028235e+38,-3.4028235e+38,-3.4028235e+38,-3.4028235e+38,-3.4028235e+38,-3.4028235e+38,-3.4028235e+38,-3.4028235e+38,-3.4028235e+38,-3.4028235e+38,-3.4028235e+38,-3.4028235e+38,-3.4028235e+38,-3.4028235e+38,-3.4028235e+38,-3.4028235e+38,-3.4028235e+38,-3.4028235e+38,-3.4028235e+38,-3.4028235e+38,-3.4028235e+38,-3.4028235e+38,-3.4028235e+38,-3.4028235e+38,-3.4028235e+38,-3.4028235e+38,-3.4028235e+38,-3.4028235e+38,-3.4028235e+38,-3.4028235e+38,-3.4028235e+38,-3.4028235e+38,-3.4028235e+38,-3.4028235e+38,-3.4028235e+38,-3.4028235e+38,-3.4028235e+38,-3.4028235e+38,-3.4028235e+38,-3.4028235e+38,-3.4028235e+38,-3.4028235e+38,-3.4028235e+38,-3.4028235e+38,-3.4028235e+38,-3.4028235e+38,-3.4028235e+38,-3.4028235e+38,-3.4028235e+38,-3.4028235e+38,-3.4028235e+38,-3.4028235e+38,-3.4028235e+38,-3.4028235e+38,-3.4028235e+38,-3.4028235e+38,-3.4028235e+38,-3.4028235e+38,-3.4028235e+38,-3.4028235e+38,-3.4028235e+38,-3.4028235e+38,-3.4028235e+38,-3.4028235e+38,-3.4028235e+38,-3.4028235e+38,-3.4028235e+38,-3.4028235e+38,-3.4028235e+38,-3.4028235e+38,-3.4028235e+38,-3.4028235e+38,-3.4028235e+38,-3.4028235e+38,-3.4028235e+38,-3.4028235e+38,-3.4028235e+38,-3.4028235e+38,-3.4028235e+38,-3.4028235e+38,-3.4028235e+38,-3.4028235e+38,-3.4028235e+38,-3.4028235e+38,-3.4028235e+38,-3.4028235e+38,-3.4028235e+38,-3.4028235e+38,-3.4028235e+38,-3.4028235e+38,-3.4028235e+38,-3.4028235e+38,-3.4028235e+38,-3.4028235e+38,-3.4028235e+38,-3.4028235e+38,-3.4028235e+38,-3.4028235e+38,-3.4028235e+38,-3.4028235e+38,-3.4028235e+38,-3.4028235e+38,-3.4028235e+38,-3.4028235e+38,-3.4028235e+38,-3.4028235e+38,-3.4028235e+38,-3.4028235e+38,-3.4028235e+38,-3.4028235e+38,-3.4028235e+38,-3.4028235e+38,-3.4028235e+38,-3.4028235e+38,-3.4028235e+38,-3.4028235e+38,-3.4028235e+38,-3.4028235e+38,-3.4028235e+38,-3.4028235e+38,-3.4028235e+38,-3.4028235e+38,-3.4028235e+38,-3.4028235e+38,-3.4028235e+38,-3.4028235e+38,-3.4028235e+38,-3.4028235e+38,-3.4028235e+38,-3.4028235e+38,-3.4028235e+38,-3.4028235e+38,-3.4028235e+38,-3.4028235e+38,-3.4028235e+38,-3.4028235e+38,-3.4028235e+38,-3.4028235e+38,-3.4028235e+38,-3.4028235e+38,-3.4028235e+38,-3.4028235e+38,-3.4028235e+38,-3.4028235e+38,-3.4028235e+38,-3.4028235e+38,-3.4028235e+38,-3.4028235e+38,-3.4028235e+38,-3.4028235e+38,-3.4028235e+38,-3.4028235e+38,-3.4028235e+38,-3.4028235e+38,-3.4028235e+38,-3.4028235e+38,-3.4028235e+38,-3.4028235e+38,-3.4028235e+38,-3.4028235e+38,-3.4028235e+38,-3.4028235e+38,-3.4028235e+38,-3.4028235e+38,-3.4028235e+38,-3.4028235e+38,-3.4028235e+38,-3.4028235e+38,-3.4028235e+38,-3.4028235e+38,-3.4028235e+38,-3.4028235e+38,-3.4028235e+38,-3.4028235e+38,-3.4028235e+38,-3.4028235e+38,-3.4028235e+38,-3.4028235e+38,-3.4028235e+38,-3.4028235e+38,-3.4028235e+38,-3.4028235e+38,-3.4028235e+38,-3.4028235e+38,-3.4028235e+38,-3.4028235e+38,-3.4028235e+38,-3.4028235e+38,-3.4028235e+38,-3.4028235e+38,-3.4028235e+38,-3.4028235e+38,-3.4028235e+38,-3.4028235e+38,-3.4028235e+38,-3.4028235e+38,-3.4028235e+38,-3.4028235e+38,-3.4028235e+38,-3.4028235e+38,-3.4028235e+38,-3.4028235e+38,-3.4028235e+38,-3.4028235e+38,-3.4028235e+38,-3.4028235e+38,-3.4028235e+38,-3.4028235e+38,-3.4028235e+38,-3.4028235e+38,-3.4028235e+38,-3.4028235e+38,-3.4028235e+38,-3.4028235e+38,-3.4028235e+38,-3.4028235e+38,-3.4028235e+38,-3.4028235e+38,-3.4028235e+38,-3.4028235e+38,-3.4028235e+38,-3.4028235e+38,-3.4028235e+38,-3.4028235e+38,-3.4028235e+38,-3.4028235e+38,-3.4028235e+38,-3.4028235e+38,-3.4028235e+38,-3.4028235e+38,-3.4028235e+38,-3.4028235e+38,-3.4028235e+38,-3.4028235e+38,-3.4028235e+38,-3.4028235e+38,-3.4028235e+38,-3.4028235e+38,-3.4028235e+38,-3.4028235e+38,-3.4028235e+38,-3.4028235e+38,-3.4028235e+38,-3.4028235e+38,-3.4028235e+38,-3.4028235e+38,-3.4028235e+38,-3.4028235e+38,-3.4028235e+38,-3.4028235e+38,-3.4028235e+38,-3.4028235e+38,-3.4028235e+38,-3.4028235e+38,-3.4028235e+38,-3.4028235e+38,-3.4028235e+38,-3.4028235e+38,-3.4028235e+38,-3.4028235e+38,-3.4028235e+38,-3.4028235e+38,-3.4028235e+38,-3.4028235e+38,-3.4028235e+38,-3.4028235e+38,-3.4028235e+38,-3.4028235e+38,-3.4028235e+38,-3.4028235e+38,-3.4028235e+38,-3.4028235e+38,-3.4028235e+38,-3.4028235e+38,-3.4028235e+38,-3.4028235e+38,-3.4028235e+38,-3.4028235e+38,-3.4028235e+38,-3.4028235e+38,-3.4028235e+38,-3.4028235e+38,-3.4028235e+38,-3.4028235e+38,-3.4028235e+38,-3.4028235e+38,-3.4028235e+38,-3.4028235e+38,-3.4028235e+38,-3.4028235e+38,-3.4028235e+38,-3.4028235e+38,-3.4028235e+38,-3.4028235e+38,-3.4028235e+38,-3.4028235e+38,-3.4028235e+38,-3.4028235e+38,-3.4028235e+38,-3.4028235e+38,-3.4028235e+38,-3.4028235e+38,-3.4028235e+38,-3.4028235e+38,-3.4028235e+38,-3.4028235e+38,-3.4028235e+38,-3.4028235e+38,-3.4028235e+38,-3.4028235e+38,-3.4028235e+38,-3.4028235e+38,-3.4028235e+38,-3.4028235e+38,-3.4028235e+38,-3.4028235e+38,-3.4028235e+38,-3.4028235e+38,-3.4028235e+38,-3.4028235e+38,-3.4028235e+38,-3.4028235e+38,-3.4028235e+38,-3.4028235e+38,-3.4028235e+38,-3.4028235e+38,-3.4028235e+38,-3.4028235e+38,-3.4028235e+38,-3.4028235e+38,-3.4028235e+38,-3.4028235e+38,-3.4028235e+38,-3.4028235e+38,-3.4028235e+38,-3.4028235e+38,-3.4028235e+38,-3.4028235e+38,-3.4028235e+38,-3.4028235e+38,-3.4028235e+38,-3.4028235e+38,-3.4028235e+38,-3.4028235e+38,-3.4028235e+38,-3.4028235e+38,-3.4028235e+38,-3.4028235e+38,-3.4028235e+38,-3.4028235e+38,-3.4028235e+38,-3.4028235e+38,-3.4028235e+38,-3.4028235e+38,-3.4028235e+38,-3.4028235e+38,-3.4028235e+38,-3.4028235e+38,-3.4028235e+38,-3.4028235e+38,-3.4028235e+38,-3.4028235e+38,-3.4028235e+38,-3.4028235e+38,-3.4028235e+38,-3.4028235e+38,-3.4028235e+38,-3.4028235e+38,-3.4028235e+38,-3.4028235e+38,-3.4028235e+38,-3.4028235e+38,-3.4028235e+38,-3.4028235e+38,-3.4028235e+38,-3.4028235e+38,-3.4028235e+38,-3.4028235e+38,-3.4028235e+38,-3.4028235e+38,-3.4028235e+38,-3.4028235e+38,-3.4028235e+38,-3.4028235e+38,-3.4028235e+38,-3.4028235e+38,-3.4028235e+38,-3.4028235e+38,-3.4028235e+38,-3.4028235e+38,-3.4028235e+38,-3.4028235e+38,-3.4028235e+38,-3.4028235e+38,-3.4028235e+38,-3.4028235e+38,-3.4028235e+38,-3.4028235e+38,-3.4028235e+38,-3.4028235e+38,-3.4028235e+38,-3.4028235e+38,-3.4028235e+38,-3.4028235e+38,-3.4028235e+38,-3.4028235e+38,-3.4028235e+38,-3.4028235e+38,-3.4028235e+38,-3.4028235e+38,-3.4028235e+38,-3.4028235e+38,-3.4028235e+38,-3.4028235e+38,-3.4028235e+38,-3.4028235e+38,-3.4028235e+38,-3.4028235e+38,-3.4028235e+38,-3.4028235e+38,-3.4028235e+38,-3.4028235e+38,-3.4028235e+38,-3.4028235e+38,-3.4028235e+38,-3.4028235e+38,-3.4028235e+38,-3.4028235e+38,-3.4028235e+38,-3.4028235e+38,-3.4028235e+38,-3.4028235e+38,-3.4028235e+38,-3.4028235e+38,-3.4028235e+38,-3.4028235e+38,-3.4028235e+38,-3.4028235e+38,-3.4028235e+38,-3.4028235e+38,-3.4028235e+38,-3.4028235e+38,-3.4028235e+38,-3.4028235e+38,-3.4028235e+38,-3.4028235e+38,-3.4028235e+38,-3.4028235e+38,-3.4028235e+38,-3.4028235e+38,-3.4028235e+38,-3.4028235e+38,-3.4028235e+38,-3.4028235e+38,-3.4028235e+38,-3.4028235e+38,-3.4028235e+38,-3.4028235e+38,-3.4028235e+38,-3.4028235e+38,-3.4028235e+38,-3.4028235e+38,-3.4028235e+38,-3.4028235e+38,-3.4028235e+38,-3.4028235e+38,-3.4028235e+38,-3.4028235e+38,-3.4028235e+38,-3.4028235e+38,-3.4028235e+38,-3.4028235e+38,-3.4028235e+38,-3.4028235e+38,-3.4028235e+38,-3.4028235e+38,-3.4028235e+38,-3.4028235e+38,-3.4028235e+38,-3.4028235e+38,-3.4028235e+38,-3.4028235e+38,-3.4028235e+38,-3.4028235e+38,-3.4028235e+38,-3.4028235e+38,-3.4028235e+38,-3.4028235e+38,-3.4028235e+38,-3.4028235e+38,-3.4028235e+38,-3.4028235e+38,-3.4028235e+38,-3.4028235e+38,-3.4028235e+38,-3.4028235e+38,-3.4028235e+38,-3.4028235e+38,-3.4028235e+38,-3.4028235e+38,-3.4028235e+38,-3.4028235e+38,-3.4028235e+38,-3.4028235e+38,-3.4028235e+38,-3.4028235e+38,-3.4028235e+38,-3.4028235e+38,-3.4028235e+38,-3.4028235e+38,-3.4028235e+38,-3.4028235e+38,-3.4028235e+38,-3.4028235e+38,-3.4028235e+38,-3.4028235e+38,-3.4028235e+38,-3.4028235e+38,-3.4028235e+38,-3.4028235e+38,-3.4028235e+38,-3.4028235e+38,-3.4028235e+38,-3.4028235e+38,-3.4028235e+38,-3.4028235e+38,-3.4028235e+38,-3.4028235e+38,-3.4028235e+38,-3.4028235e+38,-3.4028235e+38,-3.4028235e+38,-3.4028235e+38,-3.4028235e+38,-3.4028235e+38,-3.4028235e+38,-3.4028235e+38,-3.4028235e+38,-3.4028235e+38,-3.4028235e+38,-3.4028235e+38,-3.4028235e+38,-3.4028235e+38,-3.4028235e+38,-3.4028235e+38,-3.4028235e+38,-3.4028235e+38,-3.4028235e+38,-3.4028235e+38,-3.4028235e+38,-3.4028235e+38,-3.4028235e+38,-3.4028235e+38,-3.4028235e+38,-3.4028235e+38,-3.4028235e+38,-3.4028235e+38,-3.4028235e+38,-3.4028235e+38,-3.4028235e+38,-3.4028235e+38,-3.4028235e+38,-3.4028235e+38,-3.4028235e+38,-3.4028235e+38,-3.4028235e+38,-3.4028235e+38,-3.4028235e+38,-3.4028235e+38,-3.4028235e+38,-3.4028235e+38,-3.4028235e+38,-3.4028235e+38,-3.4028235e+38,-3.4028235e+38,-3.4028235e+38,-3.4028235e+38,-3.4028235e+38,-3.4028235e+38,-3.4028235e+38,-3.4028235e+38,-3.4028235e+38,-3.4028235e+38,-3.4028235e+38,-3.4028235e+38,-3.4028235e+38,-3.4028235e+38,-3.4028235e+38,-3.4028235e+38,-3.4028235e+38,-3.4028235e+38,-3.4028235e+38,-3.4028235e+38,-3.4028235e+38,-3.4028235e+38,-3.4028235e+38,-3.4028235e+38,-3.4028235e+38,-3.4028235e+38,-3.4028235e+38,-3.4028235e+38,-3.4028235e+38,-3.4028235e+38,-3.4028235e+38,-3.4028235e+38,-3.4028235e+38,-3.4028235e+38,-3.4028235e+38,-3.4028235e+38,-3.4028235e+38,-3.4028235e+38,-3.4028235e+38,-3.4028235e+38,-3.4028235e+38,-3.4028235e+38,-3.4028235e+38,-3.4028235e+38,-3.4028235e+38,-3.4028235e+38,-3.4028235e+38,-3.4028235e+38,-3.4028235e+38,-3.4028235e+38,-3.4028235e+38,-3.4028235e+38,-3.4028235e+38,-3.4028235e+38,-3.4028235e+38,-3.4028235e+38,-3.4028235e+38,-3.4028235e+38,-3.4028235e+38,-3.4028235e+38,-3.4028235e+38,-3.4028235e+38,-3.4028235e+38,-3.4028235e+38,-3.4028235e+38,-3.4028235e+38,-3.4028235e+38,-3.4028235e+38,-3.4028235e+38,-3.4028235e+38,-3.4028235e+38,-3.4028235e+38,-3.4028235e+38,-3.4028235e+38,-3.4028235e+38,-3.4028235e+38,-3.4028235e+38,-3.4028235e+38,-3.4028235e+38,-3.4028235e+38,-3.4028235e+38,-3.4028235e+38,-3.4028235e+38,-3.4028235e+38,-3.4028235e+38,-3.4028235e+38,-3.4028235e+38,-3.4028235e+38,-3.4028235e+38,-3.4028235e+38,-3.4028235e+38,-3.4028235e+38,-3.4028235e+38,-3.4028235e+38,-3.4028235e+38,-3.4028235e+38,-3.4028235e+38,-3.4028235e+38,-3.4028235e+38,-3.4028235e+38,-3.4028235e+38,-3.4028235e+38,-3.4028235e+38,-3.4028235e+38,-3.4028235e+38,-3.4028235e+38,-3.4028235e+38,-3.4028235e+38,-3.4028235e+38,-3.4028235e+38,-3.4028235e+38,-3.4028235e+38,-3.4028235e+38,-3.4028235e+38,-3.4028235e+38,-3.4028235e+38,-3.4028235e+38,-3.4028235e+38,-3.4028235e+38,-3.4028235e+38,-3.4028235e+38,-3.4028235e+38,-3.4028235e+38,-3.4028235e+38,-3.4028235e+38,-3.4028235e+38,-3.4028235e+38,-3.4028235e+38,-3.4028235e+38,-3.4028235e+38,-3.4028235e+38,-3.4028235e+38,-3.4028235e+38,-3.4028235e+38,-3.4028235e+38,-3.4028235e+38,-3.4028235e+38,-3.4028235e+38,-3.4028235e+38,-3.4028235e+38,-3.4028235e+38,-3.4028235e+38,-3.4028235e+38,-3.4028235e+38,-3.4028235e+38,-3.4028235e+38,-3.4028235e+38,-3.4028235e+38,-3.4028235e+38,-3.4028235e+38,-3.4028235e+38,-3.4028235e+38,-3.4028235e+38,-3.4028235e+38,-3.4028235e+38,-3.4028235e+38,-3.4028235e+38,-3.4028235e+38,-3.4028235e+38,-3.4028235e+38,-3.4028235e+38,-3.4028235e+38,-3.4028235e+38,-3.4028235e+38,-3.4028235e+38,-3.4028235e+38,-3.4028235e+38,-3.4028235e+38,-3.4028235e+38,-3.4028235e+38,-3.4028235e+38,-3.4028235e+38,-3.4028235e+38,-3.4028235e+38,-3.4028235e+38,-3.4028235e+38,-3.4028235e+38,-3.4028235e+38,-3.4028235e+38,-3.4028235e+38,-3.4028235e+38,-3.4028235e+38,-3.4028235e+38,-3.4028235e+38,-3.4028235e+38,-3.4028235e+38,-3.4028235e+38,-3.4028235e+38,-3.4028235e+38,-3.4028235e+38,-3.4028235e+38,-3.4028235e+38,-3.4028235e+38,-3.4028235e+38,-3.4028235e+38,-3.4028235e+38,-3.4028235e+38,-3.4028235e+38,-3.4028235e+38,-3.4028235e+38,-3.4028235e+38,-3.4028235e+38,-3.4028235e+38,-3.4028235e+38,-3.4028235e+38,-3.4028235e+38,-3.4028235e+38,-3.4028235e+38,-3.4028235e+38,-3.4028235e+38,-3.4028235e+38,-3.4028235e+38,-3.4028235e+38,-3.4028235e+38,-3.4028235e+38,-3.4028235e+38,-3.4028235e+38,-3.4028235e+38,-3.4028235e+38,-3.4028235e+38,-3.4028235e+38,-3.4028235e+38,-3.4028235e+38,-3.4028235e+38,-3.4028235e+38,-3.4028235e+38,-3.4028235e+38,-3.4028235e+38,-3.4028235e+38,-3.4028235e+38,-3.4028235e+38,-3.4028235e+38,-3.4028235e+38,-3.4028235e+38,-3.4028235e+38,-3.4028235e+38,-3.4028235e+38,-3.4028235e+38,-3.4028235e+38,-3.4028235e+38,-3.4028235e+38,-3.4028235e+38,-3.4028235e+38,-3.4028235e+38,-3.4028235e+38,-3.4028235e+38,-3.4028235e+38,-3.4028235e+38,-3.4028235e+38,-3.4028235e+38,-3.4028235e+38,-3.4028235e+38,-3.4028235e+38,-3.4028235e+38,-3.4028235e+38,-3.4028235e+38,-3.4028235e+38,-3.4028235e+38,-3.4028235e+38,-3.4028235e+38,-3.4028235e+38,-3.4028235e+38,-3.4028235e+38,-3.4028235e+38,-3.4028235e+38,-3.4028235e+38,-3.4028235e+38,-3.4028235e+38,-3.4028235e+38,-3.4028235e+38,-3.4028235e+38,-3.4028235e+38,-3.4028235e+38,-3.4028235e+38,-3.4028235e+38,-3.4028235e+38,-3.4028235e+38,-3.4028235e+38,-3.4028235e+38,-3.4028235e+38,-3.4028235e+38,-3.4028235e+38,-3.4028235e+38,-3.4028235e+38,-3.4028235e+38,-3.4028235e+38,-3.4028235e+38,-3.4028235e+38,-3.4028235e+38,-3.4028235e+38,-3.4028235e+38,-3.4028235e+38,-3.4028235e+38,-3.4028235e+38,-3.4028235e+38,-3.4028235e+38,-3.4028235e+38,-3.4028235e+38,-3.4028235e+38,-3.4028235e+38,-3.4028235e+38,-3.4028235e+38,-3.4028235e+38,-3.4028235e+38,-3.4028235e+38,-3.4028235e+38,-3.4028235e+38,-3.4028235e+38,-3.4028235e+38,-3.4028235e+38,-3.4028235e+38,-3.4028235e+38,-3.4028235e+38,-3.4028235e+38,-3.4028235e+38,-3.4028235e+38,-3.4028235e+38,-3.4028235e+38,-3.4028235e+38,-3.4028235e+38,-3.4028235e+38,-3.4028235e+38,-3.4028235e+38,-3.4028235e+38,-3.4028235e+38,-3.4028235e+38,-3.4028235e+38,-3.4028235e+38,-3.4028235e+38,-3.4028235e+38,-3.4028235e+38,-3.4028235e+38,-3.4028235e+38,-3.4028235e+38,-3.4028235e+38,-3.4028235e+38,-3.4028235e+38,-3.4028235e+38,-3.4028235e+38,-3.4028235e+38,-3.4028235e+38,-3.4028235e+38,-3.4028235e+38,-3.4028235e+38,-3.4028235e+38,-3.4028235e+38,-3.4028235e+38,-3.4028235e+38,-3.4028235e+38,-3.4028235e+38,-3.4028235e+38,-3.4028235e+38,-3.4028235e+38,-3.4028235e+38,-3.4028235e+38,-3.4028235e+38,-3.4028235e+38,-3.4028235e+38,-3.4028235e+38,-3.4028235e+38,-3.4028235e+38,-3.4028235e+38,-3.4028235e+38,-3.4028235e+38,-3.4028235e+38,-3.4028235e+38,-3.4028235e+38,-3.4028235e+38,-3.4028235e+38,-3.4028235e+38,-3.4028235e+38,-3.4028235e+38,-3.4028235e+38,-3.4028235e+38,-3.4028235e+38,-3.4028235e+38,-3.4028235e+38,-3.4028235e+38,-3.4028235e+38,-3.4028235e+38,-3.4028235e+38,-3.4028235e+38,-3.4028235e+38,-3.4028235e+38,-3.4028235e+38,-3.4028235e+38,-3.4028235e+38,-3.4028235e+38,-3.4028235e+38,-3.4028235e+38,-3.4028235e+38,-3.4028235e+38,-3.4028235e+38,-3.4028235e+38,-3.4028235e+38,-3.4028235e+38,-3.4028235e+38,-3.4028235e+38,-3.4028235e+38,-3.4028235e+38,-3.4028235e+38,-3.4028235e+38,-3.4028235e+38,-3.4028235e+38,-3.4028235e+38,-3.4028235e+38,-3.4028235e+38,-3.4028235e+38,-3.4028235e+38,-3.4028235e+38,-3.4028235e+38,-3.4028235e+38,-3.4028235e+38,-3.4028235e+38,-3.4028235e+38,-3.4028235e+38,-3.4028235e+38,-3.4028235e+38,-3.4028235e+38,-3.4028235e+38,-3.4028235e+38,-3.4028235e+38,-3.4028235e+38,-3.4028235e+38,-3.4028235e+38,-3.4028235e+38,-3.4028235e+38,-3.4028235e+38,-3.4028235e+38,-3.4028235e+38,-3.4028235e+38,-3.4028235e+38,-3.4028235e+38,-3.4028235e+38,-3.4028235e+38,-3.4028235e+38,-3.4028235e+38,-3.4028235e+38,-3.4028235e+38,-3.4028235e+38,-3.4028235e+38,-3.4028235e+38,-3.4028235e+38,-3.4028235e+38,-3.4028235e+38,-3.4028235e+38,-3.4028235e+38,-3.4028235e+38,-3.4028235e+38,-3.4028235e+38,-3.4028235e+38,-3.4028235e+38,-3.4028235e+38,-3.4028235e+38,-3.4028235e+38,-3.4028235e+38,-3.4028235e+38,-3.4028235e+38,-3.4028235e+38,-3.4028235e+38,-3.4028235e+38,-3.4028235e+38,-3.4028235e+38,-3.4028235e+38,-3.4028235e+38,-3.4028235e+38,-3.4028235e+38,-3.4028235e+38,-3.4028235e+38,-3.4028235e+38,-3.4028235e+38,-3.4028235e+38,-3.4028235e+38,-3.4028235e+38,-3.4028235e+38,-3.4028235e+38,-3.4028235e+38,-3.4028235e+38,-3.4028235e+38,-3.4028235e+38,-3.4028235e+38,-3.4028235e+38,-3.4028235e+38,-3.4028235e+38,-3.4028235e+38,-3.4028235e+38,-3.4028235e+38,-3.4028235e+38,-3.4028235e+38,-3.4028235e+38,-3.4028235e+38,-3.4028235e+38,-3.4028235e+38,-3.4028235e+38,-3.4028235e+38,-3.4028235e+38,-3.4028235e+38,-3.4028235e+38,-3.4028235e+38,-3.4028235e+38,-3.4028235e+38,-3.4028235e+38,-3.4028235e+38,-3.4028235e+38,-3.4028235e+38,-3.4028235e+38,-3.4028235e+38,-3.4028235e+38,-3.4028235e+38,-3.4028235e+38,-3.4028235e+38,-3.4028235e+38,-3.4028235e+38,-3.4028235e+38,-3.4028235e+38,-3.4028235e+38,-3.4028235e+38,-3.4028235e+38,-3.4028235e+38,-3.4028235e+38,-3.4028235e+38,-3.4028235e+38,-3.4028235e+38,-3.4028235e+38,-3.4028235e+38,-3.4028235e+38,-3.4028235e+38,-3.4028235e+38,-3.4028235e+38,-3.4028235e+38,-3.4028235e+38,-3.4028235e+38,-3.4028235e+38,-3.4028235e+38,-3.4028235e+38,-3.4028235e+38,-3.4028235e+38,-3.4028235e+38,-3.4028235e+38,-3.4028235e+38,-3.4028235e+38,-3.4028235e+38,-3.4028235e+38,-3.4028235e+38,-3.4028235e+38,-3.4028235e+38,-3.4028235e+38,-3.4028235e+38,-3.4028235e+38,-3.4028235e+38,-3.4028235e+38,-3.4028235e+38,-3.4028235e+38,-3.4028235e+38,-3.4028235e+38,-3.4028235e+38,-3.4028235e+38,-3.4028235e+38,-3.4028235e+38,-3.4028235e+38,-3.4028235e+38,-3.4028235e+38,-3.4028235e+38,-3.4028235e+38,-3.4028235e+38,-3.4028235e+38,-3.4028235e+38,-3.4028235e+38,-3.4028235e+38,-3.4028235e+38,-3.4028235e+38,-3.4028235e+38,-3.4028235e+38,-3.4028235e+38,-3.4028235e+38,-3.4028235e+38,-3.4028235e+38,-3.4028235e+38,-3.4028235e+38,-3.4028235e+38,-3.4028235e+38,-3.4028235e+38,-3.4028235e+38,-3.4028235e+38,-3.4028235e+38,-3.4028235e+38,-3.4028235e+38,-3.4028235e+38,-3.4028235e+38,-3.4028235e+38,-3.4028235e+38,-3.4028235e+38,-3.4028235e+38,-3.4028235e+38,-3.4028235e+38,-3.4028235e+38,-3.4028235e+38,-3.4028235e+38,-3.4028235e+38,-3.4028235e+38,-3.4028235e+38,-3.4028235e+38,-3.4028235e+38,-3.4028235e+38,-3.4028235e+38,-3.4028235e+38,-3.4028235e+38,-3.4028235e+38,-3.4028235e+38,-3.4028235e+38,-3.4028235e+38,-3.4028235e+38,-3.4028235e+38,-3.4028235e+38,-3.4028235e+38,-3.4028235e+38,-3.4028235e+38,-3.4028235e+38,-3.4028235e+38,-3.4028235e+38,-3.4028235e+38,-3.4028235e+38,-3.4028235e+38,-3.4028235e+38,-3.4028235e+38,-3.4028235e+38,-3.4028235e+38,-3.4028235e+38,-3.4028235e+38,-3.4028235e+38,-3.4028235e+38,-3.4028235e+38,-3.4028235e+38,-3.4028235e+38,-3.4028235e+38,-3.4028235e+38,-3.4028235e+38,-3.4028235e+38,-3.4028235e+38,-3.4028235e+38,-3.4028235e+38,-3.4028235e+38,-3.4028235e+38,-3.4028235e+38,-3.4028235e+38,-3.4028235e+38,-3.4028235e+38,-3.4028235e+38,-3.4028235e+38,-3.4028235e+38,-3.4028235e+38,-3.4028235e+38,-3.4028235e+38,-3.4028235e+38,-3.4028235e+38,-3.4028235e+38,-3.4028235e+38,-3.4028235e+38,-3.4028235e+38,-3.4028235e+38,-3.4028235e+38,-3.4028235e+38,-3.4028235e+38,-3.4028235e+38,-3.4028235e+38,-3.4028235e+38,-3.4028235e+38,-3.4028235e+38,-3.4028235e+38,-3.4028235e+38,-3.4028235e+38,-3.4028235e+38,-3.4028235e+38,-3.4028235e+38,-3.4028235e+38,-3.4028235e+38,-3.4028235e+38,-3.4028235e+38,-3.4028235e+38,-3.4028235e+38,-3.4028235e+38,-3.4028235e+38,-3.4028235e+38,-3.4028235e+38,-3.4028235e+38,-3.4028235e+38,-3.4028235e+38,-3.4028235e+38,-3.4028235e+38,-3.4028235e+38,-3.4028235e+38,-3.4028235e+38,-3.4028235e+38,-3.4028235e+38,-3.4028235e+38,-3.4028235e+38,-3.4028235e+38,-3.4028235e+38,-3.4028235e+38,-3.4028235e+38,-3.4028235e+38,-3.4028235e+38,-3.4028235e+38,-3.4028235e+38,-3.4028235e+38,-3.4028235e+38,-3.4028235e+38,-3.4028235e+38,-3.4028235e+38,-3.4028235e+38,-3.4028235e+38,-3.4028235e+38,-3.4028235e+38,-3.4028235e+38,-3.4028235e+38,-3.4028235e+38,-3.4028235e+38,-3.4028235e+38,-3.4028235e+38,-3.4028235e+38,-3.4028235e+38,-3.4028235e+38,-3.4028235e+38,-3.4028235e+38,-3.4028235e+38,-3.4028235e+38,-3.4028235e+38,-3.4028235e+38,-3.4028235e+38,-3.4028235e+38,-3.4028235e+38,-3.4028235e+38,-3.4028235e+38,-3.4028235e+38,-3.4028235e+38,-3.4028235e+38,-3.4028235e+38,-3.4028235e+38,-3.4028235e+38,-3.4028235e+38,-3.4028235e+38,-3.4028235e+38,-3.4028235e+38,-3.4028235e+38,-3.4028235e+38,-3.4028235e+38,-3.4028235e+38,-3.4028235e+38,-3.4028235e+38,-3.4028235e+38,-3.4028235e+38,-3.4028235e+38,-3.4028235e+38,-3.4028235e+38,-3.4028235e+38,-3.4028235e+38,-3.4028235e+38,-3.4028235e+38,-3.4028235e+38,-3.4028235e+38,-3.4028235e+38,-3.4028235e+38,-3.4028235e+38,-3.4028235e+38,-3.4028235e+38,-3.4028235e+38,-3.4028235e+38,-3.4028235e+38,-3.4028235e+38,-3.4028235e+38,-3.4028235e+38,-3.4028235e+38,-3.4028235e+38,-3.4028235e+38,-3.4028235e+38,-3.4028235e+38,-3.4028235e+38,-3.4028235e+38,-3.4028235e+38,-3.4028235e+38,-3.4028235e+38,-3.4028235e+38,-3.4028235e+38,-3.4028235e+38,-3.4028235e+38,-3.4028235e+38,-3.4028235e+38,-3.4028235e+38,-3.4028235e+38,-3.4028235e+38,-3.4028235e+38,-3.4028235e+38,-3.4028235e+38,-3.4028235e+38,-3.4028235e+38,-3.4028235e+38,-3.4028235e+38,-3.4028235e+38,-3.4028235e+38,-3.4028235e+38,-3.4028235e+38,-3.4028235e+38,-3.4028235e+38,-3.4028235e+38,-3.4028235e+38,-3.4028235e+38,-3.4028235e+38,-3.4028235e+38,-3.4028235e+38,-3.4028235e+38,-3.4028235e+38,-3.4028235e+38,-3.4028235e+38,-3.4028235e+38,-3.4028235e+38,-3.4028235e+38,-3.4028235e+38,-3.4028235e+38,-3.4028235e+38,-3.4028235e+38,-3.4028235e+38,-3.4028235e+38,-3.4028235e+38,-3.4028235e+38,-3.4028235e+38,-3.4028235e+38,-3.4028235e+38,-3.4028235e+38,-3.4028235e+38,-3.4028235e+38,-3.4028235e+38,-3.4028235e+38,-3.4028235e+38,-3.4028235e+38,-3.4028235e+38,-3.4028235e+38,-3.4028235e+38,-3.4028235e+38,-3.4028235e+38,-3.4028235e+38,-3.4028235e+38,-3.4028235e+38,-3.4028235e+38,-3.4028235e+38,-3.4028235e+38,-3.4028235e+38,-3.4028235e+38,-3.4028235e+38,-3.4028235e+38,-3.4028235e+38,-3.4028235e+38,-3.4028235e+38,-3.4028235e+38,-3.4028235e+38,-3.4028235e+38,-3.4028235e+38,-3.4028235e+38,-3.4028235e+38,-3.4028235e+38,-3.4028235e+38,-3.4028235e+38,-3.4028235e+38,-3.4028235e+38,-3.4028235e+38,-3.4028235e+38,-3.4028235e+38,-3.4028235e+38,-3.4028235e+38,-3.4028235e+38,-3.4028235e+38,-3.4028235e+38,-3.4028235e+38,-3.4028235e+38,-3.4028235e+38,-3.4028235e+38,-3.4028235e+38,-3.4028235e+38,-3.4028235e+38,-3.4028235e+38,-3.4028235e+38,-3.4028235e+38,-3.4028235e+38,-3.4028235e+38,-3.4028235e+38,-3.4028235e+38,-3.4028235e+38,-3.4028235e+38,-3.4028235e+38,-3.4028235e+38,-3.4028235e+38,-3.4028235e+38,-3.4028235e+38,-3.4028235e+38,-3.4028235e+38,-3.4028235e+38,-3.4028235e+38,-3.4028235e+38,-3.4028235e+38,-3.4028235e+38,-3.4028235e+38,-3.4028235e+38,-3.4028235e+38,-3.4028235e+38,-3.4028235e+38,-3.4028235e+38,-3.4028235e+38,-3.4028235e+38,-3.4028235e+38,-3.4028235e+38,-3.4028235e+38,-3.4028235e+38,-3.4028235e+38,-3.4028235e+38,-3.4028235e+38,-3.4028235e+38,-3.4028235e+38,-3.4028235e+38,-3.4028235e+38,-3.4028235e+38,-3.4028235e+38,-3.4028235e+38,-3.4028235e+38,-3.4028235e+38,-3.4028235e+38,-3.4028235e+38,-3.4028235e+38,-3.4028235e+38,-3.4028235e+38,-3.4028235e+38,-3.4028235e+38,-3.4028235e+38,-3.4028235e+38,-3.4028235e+38,-3.4028235e+38,-3.4028235e+38,-3.4028235e+38,-3.4028235e+38,-3.4028235e+38,-3.4028235e+38,-3.4028235e+38,-3.4028235e+38,-3.4028235e+38,-3.4028235e+38,-3.4028235e+38,-3.4028235e+38,-3.4028235e+38,-3.4028235e+38,-3.4028235e+38,-3.4028235e+38,-3.4028235e+38,-3.4028235e+38,-3.4028235e+38,-3.4028235e+38,-3.4028235e+38,-3.4028235e+38,-3.4028235e+38,-3.4028235e+38,-3.4028235e+38,-3.4028235e+38,-3.4028235e+38,-3.4028235e+38,-3.4028235e+38,-3.4028235e+38,-3.4028235e+38,-3.4028235e+38,-3.4028235e+38,-3.4028235e+38,-3.4028235e+38,-3.4028235e+38,-3.4028235e+38,-3.4028235e+38,-3.4028235e+38,-3.4028235e+38,
3.4028235e+38,3.4028235e+38,3.4028235e+38,3.4028235e+38,3.4028235e+38,3.4028235e+38,3.4028235e+38,3.4028235e+38,3.4028235e+38,3.4028235e+38,3.4028235e+38,3.4028235e+38,3.4028235e+38,3.4028235e+38,3.4028235e+38,3.4028235e+38,3.4028235e+38,3.4028235e+38,3.4028235e+38,3.4028235e+38,3.4028235e+38,3.4028235e+38,3.4028235e+38,3.4028235e+38,3.4028235e+38,3.4028235e+38,3.4028235e+38,3.4028235e+38,3.4028235e+38,3.4028235e+38,3.4028235e+38,3.4028235e+38,3.4028235e+38,3.4028235e+38,3.4028235e+38,3.4028235e+38,3.4028235e+38,3.4028235e+38,3.4028235e+38,3.4028235e+38,3.4028235e+38,3.4028235e+38,3.4028235e+38,3.4028235e+38,3.4028235e+38,3.4028235e+38,3.4028235e+38,3.4028235e+38,3.4028235e+38,3.4028235e+38,3.4028235e+38,3.4028235e+38,3.4028235e+38,3.4028235e+38,3.4028235e+38,3.4028235e+38,3.4028235e+38,3.4028235e+38,3.4028235e+38,3.4028235e+38,3.4028235e+38,3.4028235e+38,3.4028235e+38,3.4028235e+38,3.4028235e+38,3.4028235e+38,3.4028235e+38,3.4028235e+38,3.4028235e+38,3.4028235e+38,3.4028235e+38,3.4028235e+38,3.4028235e+38,3.4028235e+38,3.4028235e+38,3.4028235e+38,3.4028235e+38,3.4028235e+38,3.4028235e+38,3.4028235e+38,3.4028235e+38,3.4028235e+38,3.4028235e+38,3.4028235e+38,3.4028235e+38,3.4028235e+38,3.4028235e+38,3.4028235e+38,3.4028235e+38,3.4028235e+38,3.4028235e+38,3.4028235e+38,3.4028235e+38,3.4028235e+38,3.4028235e+38,3.4028235e+38,3.4028235e+38,3.4028235e+38,3.4028235e+38,3.4028235e+38,3.4028235e+38,3.4028235e+38,3.4028235e+38,3.4028235e+38,3.4028235e+38,3.4028235e+38,3.4028235e+38,3.4028235e+38,3.4028235e+38,3.4028235e+38,3.4028235e+38,3.4028235e+38,3.4028235e+38,3.4028235e+38,3.4028235e+38,3.4028235e+38,3.4028235e+38,3.4028235e+38,3.4028235e+38,3.4028235e+38,3.4028235e+38,3.4028235e+38,3.4028235e+38,3.4028235e+38,3.4028235e+38,3.4028235e+38,3.4028235e+38,3.4028235e+38,3.4028235e+38,3.4028235e+38,3.4028235e+38,3.4028235e+38,3.4028235e+38,3.4028235e+38,3.4028235e+38,3.4028235e+38,3.4028235e+38,3.4028235e+38,3.4028235e+38,3.4028235e+38,3.4028235e+38,3.4028235e+38,3.4028235e+38,3.4028235e+38,3.4028235e+38,3.4028235e+38,3.4028235e+38,3.4028235e+38,3.4028235e+38,3.4028235e+38,3.4028235e+38,3.4028235e+38,3.4028235e+38,3.4028235e+38,3.4028235e+38,3.4028235e+38,3.4028235e+38,3.4028235e+38,3.4028235e+38,3.4028235e+38,3.4028235e+38,3.4028235e+38,3.4028235e+38,3.4028235e+38,3.4028235e+38,3.4028235e+38,3.4028235e+38,3.4028235e+38,3.4028235e+38,3.4028235e+38,3.4028235e+38,3.4028235e+38,3.4028235e+38,3.4028235e+38,3.4028235e+38,3.4028235e+38,3.4028235e+38,3.4028235e+38,3.4028235e+38,3.4028235e+38,3.4028235e+38,3.4028235e+38,3.4028235e+38,3.4028235e+38,3.4028235e+38,3.4028235e+38,3.4028235e+38,3.4028235e+38,3.4028235e+38,3.4028235e+38,3.4028235e+38,3.4028235e+38,3.4028235e+38,3.4028235e+38,3.4028235e+38,3.4028235e+38,3.4028235e+38,3.4028235e+38,3.4028235e+38,3.4028235e+38,3.4028235e+38,3.4028235e+38,3.4028235e+38,3.4028235e+38,3.4028235e+38,3.4028235e+38,3.4028235e+38,3.4028235e+38,3.4028235e+38,3.4028235e+38,3.4028235e+38,3.4028235e+38,3.4028235e+38,3.4028235e+38,3.4028235e+38,3.4028235e+38,3.4028235e+38,3.4028235e+38,3.4028235e+38,3.4028235e+38,3.4028235e+38,3.4028235e+38,3.4028235e+38,3.4028235e+38,3.4028235e+38,3.4028235e+38,3.4028235e+38,3.4028235e+38,3.4028235e+38,3.4028235e+38,3.4028235e+38,3.4028235e+38,3.4028235e+38,3.4028235e+38,3.4028235e+38,3.4028235e+38,3.4028235e+38,3.4028235e+38,3.4028235e+38,3.4028235e+38,3.4028235e+38,3.4028235e+38,3.4028235e+38,3.4028235e+38,3.4028235e+38,3.4028235e+38,3.4028235e+38,3.4028235e+38,3.4028235e+38,3.4028235e+38,3.4028235e+38,3.4028235e+38,3.4028235e+38,3.4028235e+38,3.4028235e+38,3.4028235e+38,3.4028235e+38,3.4028235e+38,3.4028235e+38,3.4028235e+38,3.4028235e+38,3.4028235e+38,3.4028235e+38,3.4028235e+38,3.4028235e+38,3.4028235e+38,3.4028235e+38,3.4028235e+38,3.4028235e+38,3.4028235e+38,3.4028235e+38,3.4028235e+38,3.4028235e+38,3.4028235e+38,3.4028235e+38,3.4028235e+38,3.4028235e+38,3.4028235e+38,3.4028235e+38,3.4028235e+38,3.4028235e+38,3.4028235e+38,3.4028235e+38,3.4028235e+38,3.4028235e+38,3.4028235e+38,3.4028235e+38,3.4028235e+38,3.4028235e+38,3.4028235e+38,3.4028235e+38,3.4028235e+38,3.4028235e+38,3.4028235e+38,3.4028235e+38,3.4028235e+38,3.4028235e+38,3.4028235e+38,3.4028235e+38,3.4028235e+38,3.4028235e+38,3.4028235e+38,3.4028235e+38,3.4028235e+38,3.4028235e+38,3.4028235e+38,3.4028235e+38,3.4028235e+38,3.4028235e+38,3.4028235e+38,3.4028235e+38,3.4028235e+38,3.4028235e+38,3.4028235e+38,3.4028235e+38,3.4028235e+38,3.4028235e+38,3.4028235e+38,3.4028235e+38,3.4028235e+38,3.4028235e+38,3.4028235e+38,3.4028235e+38,3.4028235e+38,3.4028235e+38,3.4028235e+38,3.4028235e+38,3.4028235e+38,3.4028235e+38,3.4028235e+38,3.4028235e+38,3.4028235e+38,3.4028235e+38,3.4028235e+38,3.4028235e+38,3.4028235e+38,3.4028235e+38,3.4028235e+38,3.4028235e+38,3.4028235e+38,3.4028235e+38,3.4028235e+38,3.4028235e+38,3.4028235e+38,3.4028235e+38,3.4028235e+38,3.4028235e+38,3.4028235e+38,3.4028235e+38,3.4028235e+38,3.4028235e+38,3.4028235e+38,3.4028235e+38,3.4028235e+38,3.4028235e+38,3.4028235e+38,3.4028235e+38,3.4028235e+38,3.4028235e+38,3.4028235e+38,3.4028235e+38,3.4028235e+38,3.4028235e+38,3.4028235e+38,3.4028235e+38,3.4028235e+38,3.4028235e+38,3.4028235e+38,3.4028235e+38,3.4028235e+38,3.4028235e+38,3.4028235e+38,3.4028235e+38,3.4028235e+38,3.4028235e+38,3.4028235e+38,3.4028235e+38,3.4028235e+38,3.4028235e+38,3.4028235e+38,3.4028235e+38,3.4028235e+38,3.4028235e+38,3.4028235e+38,3.4028235e+38,3.4028235e+38,3.4028235e+38,3.4028235e+38,3.4028235e+38,3.4028235e+38,3.4028235e+38,3.4028235e+38,3.4028235e+38,3.4028235e+38,3.4028235e+38,3.4028235e+38,3.4028235e+38,3.4028235e+38,3.4028235e+38,3.4028235e+38,3.4028235e+38,3.4028235e+38,3.4028235e+38,3.4028235e+38,3.4028235e+38,3.4028235e+38,3.4028235e+38,3.4028235e+38,3.4028235e+38,3.4028235e+38,3.4028235e+38,3.4028235e+38,3.4028235e+38,3.4028235e+38,3.4028235e+38,3.4028235e+38,3.4028235e+38,3.4028235e+38,3.4028235e+38,3.4028235e+38,3.4028235e+38,3.4028235e+38,3.4028235e+38,3.4028235e+38,3.4028235e+38,3.4028235e+38,3.4028235e+38,3.4028235e+38,3.4028235e+38,3.4028235e+38,3.4028235e+38,3.4028235e+38,3.4028235e+38,3.4028235e+38,3.4028235e+38,3.4028235e+38,3.4028235e+38,3.4028235e+38,3.4028235e+38,3.4028235e+38,3.4028235e+38,3.4028235e+38,3.4028235e+38,3.4028235e+38,3.4028235e+38,3.4028235e+38,3.4028235e+38,3.4028235e+38,3.4028235e+38,3.4028235e+38,3.4028235e+38,3.4028235e+38,3.4028235e+38,3.4028235e+38,3.4028235e+38,3.4028235e+38,3.4028235e+38,3.4028235e+38,3.4028235e+38,3.4028235e+38,3.4028235e+38,3.4028235e+38,3.4028235e+38,3.4028235e+38,3.4028235e+38,3.4028235e+38,3.4028235e+38,3.4028235e+38,3.4028235e+38,3.4028235e+38,3.4028235e+38,3.4028235e+38,3.4028235e+38,3.4028235e+38,3.4028235e+38,3.4028235e+38,3.4028235e+38,3.4028235e+38,3.4028235e+38,3.4028235e+38,3.4028235e+38,3.4028235e+38,3.4028235e+38,3.4028235e+38,3.4028235e+38,3.4028235e+38,3.4028235e+38,3.4028235e+38,3.4028235e+38,3.4028235e+38,3.4028235e+38,3.4028235e+38,3.4028235e+38,3.4028235e+38,3.4028235e+38,3.4028235e+38,3.4028235e+38,3.4028235e+38,3.4028235e+38,3.4028235e+38,3.4028235e+38,3.4028235e+38,3.4028235e+38,3.4028235e+38,3.4028235e+38,3.4028235e+38,3.4028235e+38,3.4028235e+38,3.4028235e+38,3.4028235e+38,3.4028235e+38,3.4028235e+38,3.4028235e+38,3.4028235e+38,3.4028235e+38,3.4028235e+38,3.4028235e+38,3.4028235e+38,3.4028235e+38,3.4028235e+38,3.4028235e+38,3.4028235e+38,3.4028235e+38,3.4028235e+38,3.4028235e+38,3.4028235e+38,3.4028235e+38,3.4028235e+38,3.4028235e+38,3.4028235e+38,3.4028235e+38,3.4028235e+38,3.4028235e+38,3.4028235e+38,3.4028235e+38,3.4028235e+38,3.4028235e+38,3.4028235e+38,3.4028235e+38,3.4028235e+38,3.4028235e+38,3.4028235e+38,3.4028235e+38,3.4028235e+38,3.4028235e+38,3.4028235e+38,3.4028235e+38,3.4028235e+38,3.4028235e+38,3.4028235e+38,3.4028235e+38,3.4028235e+38,3.4028235e+38,3.4028235e+38,3.4028235e+38,3.4028235e+38,3.4028235e+38,3.4028235e+38,3.4028235e+38,3.4028235e+38,3.4028235e+38,3.4028235e+38,3.4028235e+38,3.4028235e+38,3.4028235e+38,3.4028235e+38,3.4028235e+38,3.4028235e+38,3.4028235e+38,3.4028235e+38,3.4028235e+38,3.4028235e+38,3.4028235e+38,3.4028235e+38,3.4028235e+38,3.4028235e+38,3.4028235e+38,3.4028235e+38,3.4028235e+38,3.4028235e+38,3.4028235e+38,3.4028235e+38,3.4028235e+38,3.4028235e+38,3.4028235e+38,3.4028235e+38,3.4028235e+38,3.4028235e+38,3.4028235e+38,3.4028235e+38,3.4028235e+38,3.4028235e+38,3.4028235e+38,3.4028235e+38,3.4028235e+38,3.4028235e+38,3.4028235e+38,3.4028235e+38,3.4028235e+38,3.4028235e+38,3.4028235e+38,3.4028235e+38,3.4028235e+38,3.4028235e+38,3.4028235e+38,3.4028235e+38,3.4028235e+38,3.4028235e+38,3.4028235e+38,3.4028235e+38,3.4028235e+38,3.4028235e+38,3.4028235e+38,3.4028235e+38,3.4028235e+38,3.4028235e+38,3.4028235e+38,3.4028235e+38,3.4028235e+38,3.4028235e+38,3.4028235e+38,3.4028235e+38,3.4028235e+38,3.4028235e+38,3.4028235e+38,3.4028235e+38,3.4028235e+38,3.4028235e+38,3.4028235e+38,3.4028235e+38,3.4028235e+38,3.4028235e+38,3.4028235e+38,3.4028235e+38,3.4028235e+38,3.4028235e+38,3.4028235e+38,3.4028235e+38,3.4028235e+38,3.4028235e+38,3.4028235e+38,3.4028235e+38,3.4028235e+38,3.4028235e+38,3.4028235e+38,3.4028235e+38,3.4028235e+38,3.4028235e+38,3.4028235e+38,3.4028235e+38,3.4028235e+38,3.4028235e+38,3.4028235e+38,3.4028235e+38,3.4028235e+38,3.4028235e+38,3.4028235e+38,3.4028235e+38,3.4028235e+38,3.4028235e+38,3.4028235e+38,3.4028235e+38,3.4028235e+38,3.4028235e+38,3.4028235e+38,3.4028235e+38,3.4028235e+38,3.4028235e+38,3.4028235e+38,3.4028235e+38,3.4028235e+38,3.4028235e+38,3.4028235e+38,3.4028235e+38,3.4028235e+38,3.4028235e+38,3.4028235e+38,3.4028235e+38,3.4028235e+38,3.4028235e+38,3.4028235e+38,3.4028235e+38,3.4028235e+38,3.4028235e+38,3.4028235e+38,3.4028235e+38,3.4028235e+38,3.4028235e+38,3.4028235e+38,3.4028235e+38,3.4028235e+38,3.4028235e+38,3.4028235e+38,3.4028235e+38,3.4028235e+38,3.4028235e+38,3.4028235e+38,3.4028235e+38,3.4028235e+38,3.4028235e+38,3.4028235e+38,3.4028235e+38,3.4028235e+38,3.4028235e+38,3.4028235e+38,3.4028235e+38,3.4028235e+38,3.4028235e+38,3.4028235e+38,3.4028235e+38,3.4028235e+38,3.4028235e+38,3.4028235e+38,3.4028235e+38,3.4028235e+38,3.4028235e+38,3.4028235e+38,3.4028235e+38,3.4028235e+38,3.4028235e+38,3.4028235e+38,3.4028235e+38,3.4028235e+38,3.4028235e+38,3.4028235e+38,3.4028235e+38,3.4028235e+38,3.4028235e+38,3.4028235e+38,3.4028235e+38,3.4028235e+38,3.4028235e+38,3.4028235e+38,3.4028235e+38,3.4028235e+38,3.4028235e+38,3.4028235e+38,3.4028235e+38,3.4028235e+38,3.4028235e+38,3.4028235e+38,3.4028235e+38,3.4028235e+38,3.4028235e+38,3.4028235e+38,3.4028235e+38,3.4028235e+38,3.4028235e+38,3.4028235e+38,3.4028235e+38,3.4028235e+38,3.4028235e+38,3.4028235e+38,3.4028235e+38,3.4028235e+38,3.4028235e+38,3.4028235e+38,3.4028235e+38,3.4028235e+38,3.4028235e+38,3.4028235e+38,3.4028235e+38,3.4028235e+38,3.4028235e+38,3.4028235e+38,3.4028235e+38,3.4028235e+38,3.4028235e+38,3.4028235e+38,3.4028235e+38,3.4028235e+38,3.4028235e+38,3.4028235e+38,3.4028235e+38,3.4028235e+38,3.4028235e+38,3.4028235e+38,3.4028235e+38,3.4028235e+38,3.4028235e+38,3.4028235e+38,3.4028235e+38,3.4028235e+38,3.4028235e+38,3.4028235e+38,3.4028235e+38,3.4028235e+38,3.4028235e+38,3.4028235e+38,3.4028235e+38,3.4028235e+38,3.4028235e+38,3.4028235e+38,3.4028235e+38,3.4028235e+38,3.4028235e+38,3.4028235e+38,3.4028235e+38,3.4028235e+38,3.4028235e+38,3.4028235e+38,3.4028235e+38,3.4028235e+38,3.4028235e+38,3.4028235e+38,3.4028235e+38,3.4028235e+38,3.4028235e+38,3.4028235e+38,3.4028235e+38,3.4028235e+38,3.4028235e+38,3.4028235e+38,3.4028235e+38,3.4028235e+38,3.4028235e+38,3.4028235e+38,3.4028235e+38,3.4028235e+38,3.4028235e+38,3.4028235e+38,3.4028235e+38,3.4028235e+38,3.4028235e+38,3.4028235e+38,3.4028235e+38,3.4028235e+38,3.4028235e+38,3.4028235e+38,3.4028235e+38,3.4028235e+38,3.4028235e+38,3.4028235e+38,3.4028235e+38,3.4028235e+38,3.4028235e+38,3.4028235e+38,3.4028235e+38,3.4028235e+38,3.4028235e+38,3.4028235e+38,3.4028235e+38,3.4028235e+38,3.4028235e+38,3.4028235e+38,3.4028235e+38,3.4028235e+38,3.4028235e+38,3.4028235e+38,3.4028235e+38,3.4028235e+38,3.4028235e+38,3.4028235e+38,3.4028235e+38,3.4028235e+38,3.4028235e+38,3.4028235e+38,3.4028235e+38,3.4028235e+38,3.4028235e+38,3.4028235e+38,3.4028235e+38,3.4028235e+38,3.4028235e+38,3.4028235e+38,3.4028235e+38,3.4028235e+38,3.4028235e+38,3.4028235e+38,3.4028235e+38,3.4028235e+38,3.4028235e+38,3.4028235e+38,3.4028235e+38,3.4028235e+38,3.4028235e+38,3.4028235e+38,3.4028235e+38,3.4028235e+38,3.4028235e+38,3.4028235e+38,3.4028235e+38,3.4028235e+38,3.4028235e+38,3.4028235e+38,3.4028235e+38,3.4028235e+38,3.4028235e+38,3.4028235e+38,3.4028235e+38,3.4028235e+38,3.4028235e+38,3.4028235e+38,3.4028235e+38,3.4028235e+38,3.4028235e+38,3.4028235e+38,3.4028235e+38,3.4028235e+38,3.4028235e+38,3.4028235e+38,3.4028235e+38,3.4028235e+38,3.4028235e+38,3.4028235e+38,3.4028235e+38,3.4028235e+38,3.4028235e+38,3.4028235e+38,3.4028235e+38,3.4028235e+38,3.4028235e+38,3.4028235e+38,3.4028235e+38,3.4028235e+38,3.4028235e+38,3.4028235e+38,3.4028235e+38,3.4028235e+38,3.4028235e+38,3.4028235e+38,3.4028235e+38,3.4028235e+38,3.4028235e+38,3.4028235e+38,3.4028235e+38,3.4028235e+38,3.4028235e+38,3.4028235e+38,3.4028235e+38,3.4028235e+38,3.4028235e+38,3.4028235e+38,3.4028235e+38,3.4028235e+38,3.4028235e+38,3.4028235e+38,3.4028235e+38,3.4028235e+38,3.4028235e+38,3.4028235e+38,3.4028235e+38,3.4028235e+38,3.4028235e+38,3.4028235e+38,3.4028235e+38,3.4028235e+38,3.4028235e+38,3.4028235e+38,3.4028235e+38,3.4028235e+38,3.4028235e+38,3.4028235e+38,3.4028235e+38,3.4028235e+38,3.4028235e+38,3.4028235e+38,3.4028235e+38,3.4028235e+38,3.4028235e+38,3.4028235e+38,3.4028235e+38,3.4028235e+38,3.4028235e+38,3.4028235e+38,3.4028235e+38,3.4028235e+38,3.4028235e+38,3.4028235e+38,3.4028235e+38,3.4028235e+38,3.4028235e+38,3.4028235e+38,3.4028235e+38,3.4028235e+38,3.4028235e+38,3.4028235e+38,3.4028235e+38,3.4028235e+38,3.4028235e+38,3.4028235e+38,3.4028235e+38,3.4028235e+38,3.4028235e+38,3.4028235e+38,3.4028235e+38,3.4028235e+38,3.4028235e+38,3.4028235e+38,3.4028235e+38,3.4028235e+38,3.4028235e+38,3.4028235e+38,3.4028235e+38,3.4028235e+38,3.4028235e+38,3.4028235e+38,3.4028235e+38,3.4028235e+38,3.4028235e+38,3.4028235e+38,3.4028235e+38,3.4028235e+38,3.4028235e+38,3.4028235e+38,3.4028235e+38,3.4028235e+38,3.4028235e+38,3.4028235e+38,3.4028235e+38,3.4028235e+38,3.4028235e+38,3.4028235e+38,3.4028235e+38,3.4028235e+38,3.4028235e+38,3.4028235e+38,3.4028235e+38,3.4028235e+38,3.4028235e+38,3.4028235e+38,3.4028235e+38,3.4028235e+38,3.4028235e+38,3.4028235e+38,3.4028235e+38,3.4028235e+38,3.4028235e+38,3.4028235e+38,3.4028235e+38,3.4028235e+38,3.4028235e+38,3.4028235e+38,3.4028235e+38,3.4028235e+38,3.4028235e+38,3.4028235e+38,3.4028235e+38,3.4028235e+38,3.4028235e+38,3.4028235e+38,3.4028235e+38,3.4028235e+38,3.4028235e+38,3.4028235e+38,3.4028235e+38,3.4028235e+38,3.4028235e+38,3.4028235e+38,3.4028235e+38,3.4028235e+38,3.4028235e+38,3.4028235e+38,3.4028235e+38,3.4028235e+38,3.4028235e+38,3.4028235e+38,3.4028235e+38,3.4028235e+38,3.4028235e+38,3.4028235e+38,3.4028235e+38,3.4028235e+38,3.4028235e+38,3.4028235e+38,3.4028235e+38,3.4028235e+38,3.4028235e+38,3.4028235e+38,3.4028235e+38,3.4028235e+38,3.4028235e+38,3.4028235e+38,3.4028235e+38,3.4028235e+38,3.4028235e+38,3.4028235e+38,3.4028235e+38,3.4028235e+38,3.4028235e+38,3.4028235e+38,3.4028235e+38,3.4028235e+38,3.4028235e+38,3.4028235e+38,3.4028235e+38,3.4028235e+38,3.4028235e+38,3.4028235e+38,3.4028235e+38,3.4028235e+38,3.4028235e+38,3.4028235e+38,3.4028235e+38,3.4028235e+38,3.4028235e+38,3.4028235e+38,3.4028235e+38,3.4028235e+38,3.4028235e+38,3.4028235e+38,3.4028235e+38,3.4028235e+38,3.4028235e+38,3.4028235e+38,3.4028235e+38,3.4028235e+38,3.4028235e+38,3.4028235e+38,3.4028235e+38,3.4028235e+38,3.4028235e+38,3.4028235e+38,3.4028235e+38,3.4028235e+38,3.4028235e+38,3.4028235e+38,3.4028235e+38,3.4028235e+38,3.4028235e+38,3.4028235e+38,3.4028235e+38,3.4028235e+38,3.4028235e+38,3.4028235e+38,3.4028235e+38,3.4028235e+38,3.4028235e+38,3.4028235e+38,3.4028235e+38,3.4028235e+38,3.4028235e+38,3.4028235e+38,3.4028235e+38,3.4028235e+38,3.4028235e+38,3.4028235e+38,3.4028235e+38,3.4028235e+38,3.4028235e+38,3.4028235e+38,3.4028235e+38,3.4028235e+38,3.4028235e+38,3.4028235e+38,3.4028235e+38,3.4028235e+38,3.4028235e+38,3.4028235e+38,3.4028235e+38,3.4028235e+38,3.4028235e+38,3.4028235e+38,3.4028235e+38,3.4028235e+38,3.4028235e+38,3.4028235e+38,3.4028235e+38,3.4028235e+38,3.4028235e+38,3.4028235e+38,3.4028235e+38,3.4028235e+38,3.4028235e+38,3.4028235e+38,3.4028235e+38,3.4028235e+38,3.4028235e+38,3.4028235e+38,3.4028235e+38,3.4028235e+38,3.4028235e+38,3.4028235e+38,3.4028235e+38,3.4028235e+38,3.4028235e+38,3.4028235e+38,3.4028235e+38,3.4028235e+38,3.4028235e+38,3.4028235e+38,3.4028235e+38,3.4028235e+38,3.4028235e+38,3.4028235e+38,3.4028235e+38,3.4028235e+38,3.4028235e+38,3.4028235e+38,3.4028235e+38,3.4028235e+38,3.4028235e+38,3.4028235e+38,3.4028235e+38,3.4028235e+38,3.4028235e+38,3.4028235e+38,3.4028235e+38,3.4028235e+38,3.4028235e+38,3.4028235e+38,3.4028235e+38,3.4028235e+38,3.4028235e+38,3.4028235e+38,3.4028235e+38,3.4028235e+38,3.4028235e+38,3.4028235e+38,3.4028235e+38,3.4028235e+38,3.4028235e+38,3.4028235e+38,3.4028235e+38,3.4028235e+38,3.4028235e+38,3.4028235e+38,3.4028235e+38,3.4028235e+38,3.4028235e+38,3.4028235e+38,3.4028235e+38,3.4028235e+38,3.4028235e+38,3.4028235e+38,3.4028235e+38,3.4028235e+38,3.4028235e+38,3.4028235e+38,3.4028235e+38,3.4028235e+38,3.4028235e+38,3.4028235e+38,3.4028235e+38,3.4028235e+38,3.4028235e+38,3.4028235e+38,3.4028235e+38,3.4028235e+38,3.4028235e+38,3.4028235e+38,3.4028235e+38,3.4028235e+38,3.4028235e+38,3.4028235e+38,3.4028235e+38,3.4028235e+38,3.4028235e+38,3.4028235e+38,3.4028235e+38,3.4028235e+38,3.4028235e+38,3.4028235e+38,3.4028235e+38,3.4028235e+38,3.4028235e+38,3.4028235e+38,3.4028235e+38,3.4028235e+38,3.4028235e+38,3.4028235e+38,3.4028235e+38,3.4028235e+38,3.4028235e+38,3.4028235e+38,3.4028235e+38,3.4028235e+38,3.4028235e+38,3.4028235e+38,3.4028235e+38,3.4028235e+38,3.4028235e+38,3.4028235e+38,3.4028235e+38,3.4028235e+38,3.4028235e+38,3.4028235e+38,3.4028235e+38,3.4028235e+38,3.4028235e+38,3.4028235e+38,3.4028235e+38,3.4028235e+38,3.4028235e+38,3.4028235e+38,3.4028235e+38,3.4028235e+38,3.4028235e+38,3.4028235e+38,3.4028235e+38,3.4028235e+38,3.4028235e+38,3.4028235e+38,3.4028235e+38,3.4028235e+38,3.4028235e+38,3.4028235e+38,3.4028235e+38,3.4028235e+38,3.4028235e+38,3.4028235e+38,3.4028235e+38,3.4028235e+38,3.4028235e+38,3.4028235e+38,3.4028235e+38,3.4028235e+38,3.4028235e+38,3.4028235e+38,3.4028235e+38,3.4028235e+38,3.4028235e+38,3.4028235e+38,3.4028235e+38,3.4028235e+38,3.4028235e+38,3.4028235e+38,3.4028235e+38,3.4028235e+38,3.4028235e+38,3.4028235e+38,3.4028235e+38,3.4028235e+38,3.4028235e+38,3.4028235e+38,3.4028235e+38,3.4028235e+38,3.4028235e+38,3.4028235e+38,3.4028235e+38,3.4028235e+38,3.4028235e+38,3.4028235e+38,3.4028235e+38,3.4028235e+38,3.4028235e+38,3.4028235e+38,3.4028235e+38,3.4028235e+38,3.4028235e+38,3.4028235e+38,3.4028235e+38,3.4028235e+38,3.4028235e+38,3.4028235e+38,3.4028235e+38,3.4028235e+38,3.4028235e+38,3.4028235e+38,3.4028235e+38,3.4028235e+38,3.4028235e+38,3.4028235e+38,3.4028235e+38,3.4028235e+38,3.4028235e+38,3.4028235e+38,3.4028235e+38,3.4028235e+38,3.4028235e+38,3.4028235e+38,3.4028235e+38,3.4028235e+38,3.4028235e+38,3.4028235e+38,3.4028235e+38,3.4028235e+38,3.4028235e+38,3.4028235e+38,3.4028235e+38,3.4028235e+38,3.4028235e+38,3.4028235e+38,3.4028235e+38,3.4028235e+38,3.4028235e+38,3.4028235e+38,3.4028235e+38,3.4028235e+38,3.4028235e+38,3.4028235e+38,3.4028235e+38,3.4028235e+38,3.4028235e+38,3.4028235e+38,3.4028235e+38,3.4028235e+38,3.4028235e+38,3.4028235e+38,3.4028235e+38,3.4028235e+38,3.4028235e+38,3.4028235e+38,3.4028235e+38,3.4028235e+38,3.4028235e+38,3.4028235e+38,3.4028235e+38,3.4028235e+38,3.4028235e+38,3.4028235e+38,3.4028235e+38,3.4028235e+38,3.4028235e+38,3.4028235e+38,3.4028235e+38,3.4028235e+38,3.4028235e+38,3.4028235e+38,3.4028235e+38,3.4028235e+38,3.4028235e+38,3.4028235e+38,3.4028235e+38,3.4028235e+38,3.4028235e+38,3.4028235e+38,3.4028235e+38,3.4028235e+38,3.4028235e+38,3.4028235e+38,3.4028235e+38,3.4028235e+38,3.4028235e+38,3.4028235e+38,3.4028235e+38,3.4028235e+38,3.4028235e+38,3.4028235e+38,3.4028235e+38,3.4028235e+38,3.4028235e+38,3.4028235e+38,3.4028235e+38,3.4028235e+38,3.4028235e+38,3.4028235e+38,3.4028235e+38,3.4028235e+38,3.4028235e+38,3.4028235e+38,3.4028235e+38,3.4028235e+38,3.4028235e+38,3.4028235e+38,3.4028235e+38,3.4028235e+38,3.4028235e+38,3.4028235e+38,3.4028235e+38,3.4028235e+38,3.4028235e+38,3.4028235e+38,3.4028235e+38,3.4028235e+38,3.4028235e+38,3.4028235e+38,3.4028235e+38,3.4028235e+38,3.4028235e+38,3.4028235e+38,3.4028235e+38,3.4028235e+38,3.4028235e+38,3.4028235e+38,3.4028235e+38,3.4028235e+38,3.4028235e+38,3.4028235e+38,3.4028235e+38,3.4028235e+38,3.4028235e+38,3.4028235e+38,3.4028235e+38,3.4028235e+38,3.4028235e+38,3.4028235e+38,3.4028235e+38,3.4028235e+38,3.4028235e+38,3.4028235e+38,3.4028235e+38,3.4028235e+38,3.4028235e+38,3.4028235e+38,3.4028235e+38,3.4028235e+38,3.4028235e+38,3.4028235e+38,3.4028235e+38,3.4028235e+38,3.4028235e+38,3.4028235e+38,3.4028235e+38,3.4028235e+38,3.4028235e+38,3.4028235e+38,3.4028235e+38,3.4028235e+38,3.4028235e+38,3.4028235e+38,3.4028235e+38,3.4028235e+38,3.4028235e+38,3.4028235e+38,3.4028235e+38,3.4028235e+38,3.4028235e+38,3.4028235e+38,3.4028235e+38,3.4028235e+38,3.4028235e+38,3.4028235e+38,3.4028235e+38,3.4028235e+38,3.4028235e+38,3.4028235e+38,3.4028235e+38,3.4028235e+38,3.4028235e+38,3.4028235e+38,3.4028235e+38,3.4028235e+38,3.4028235e+38,3.4028235e+38,3.4028235e+38,3.4028235e+38,3.4028235e+38,3.4028235e+38,3.4028235e+38,3.4028235e+38,3.4028235e+38,3.4028235e+38,3.4028235e+38,3.4028235e+38,3.4028235e+38,3.4028235e+38,3.4028235e+38,3.4028235e+38,3.4028235e+38,3.4028235e+38,3.4028235e+38,3.4028235e+38,3.4028235e+38,3.4028235e+38,3.4028235e+38,3.4028235e+38,3.4028235e+38,3.4028235e+38,3.4028235e+38,3.4028235e+38,3.4028235e+38,3.4028235e+38,3.4028235e+38,3.4028235e+38,3.4028235e+38,3.4028235e+38,3.4028235e+38,3.4028235e+38,3.4028235e+38,3.4028235e+38,3.4028235e+38,3.4028235e+38,3.4028235e+38,3.4028235e+38,3.4028235e+38,3.4028235e+38,3.4028235e+38,3.4028235e+38,3.4028235e+38,3.4028235e+38,3.4028235e+38,3.4028235e+38,3.4028235e+38,3.4028235e+38,3.4028235e+38,3.4028235e+38,3.4028235e+38,3.4028235e+38,3.4028235e+38,3.4028235e+38,3.4028235e+38,3.4028235e+38,3.4028235e+38,3.4028235e+38,3.4028235e+38,3.4028235e+38,3.4028235e+38,3.4028235e+38,3.4028235e+38,3.4028235e+38,3.4028235e+38,3.4028235e+38,3.4028235e+38,3.4028235e+38,3.4028235e+38,3.4028235e+38,3.4028235e+38,3.4028235e+38,3.4028235e+38,3.4028235e+38,3.4028235e+38,3.4028235e+38,3.4028235e+38,3.4028235e+38,3.4028235e+38,3.4028235e+38,3.4028235e+38,3.4028235e+38,3.4028235e+38,3.4028235e+38,3.4028235e+38,3.4028235e+38,3.4028235e+38,3.4028235e+38,3.4028235e+38,3.4028235e+38,3.4028235e+38,3.4028235e+38,3.4028235e+38,3.4028235e+38,3.4028235e+38,3.4028235e+38,3.4028235e+38,3.4028235e+38,3.4028235e+38,3.4028235e+38,3.4028235e+38,3.4028235e+38,3.4028235e+38,3.4028235e+38,3.4028235e+38,3.4028235e+38,3.4028235e+38,3.4028235e+38,3.4028235e+38,3.4028235e+38,3.4028235e+38,3.4028235e+38,3.4028235e+38,3.4028235e+38,3.4028235e+38,3.4028235e+38,3.4028235e+38,3.4028235e+38,3.4028235e+38,3.4028235e+38,3.4028235e+38,3.4028235e+38,3.4028235e+38,3.4028235e+38,3.4028235e+38,3.4028235e+38,3.4028235e+38,3.4028235e+38,3.4028235e+38,3.4028235e+38,3.4028235e+38,3.4028235e+38,3.4028235e+38,3.4028235e+38,3.4028235e+38,3.4028235e+38,3.4028235e+38,3.4028235e+38,3.4028235e+38,3.4028235e+38,3.4028235e+38,3.4028235e+38,3.4028235e+38,3.4028235e+38,3.4028235e+38,3.4028235e+38,3.4028235e+38,3.4028235e+38,3.4028235e+38,3.4028235e+38,3.4028235e+38,3.4028235e+38,3.4028235e+38,3.4028235e+38,3.4028235e+38,3.4028235e+38,3.4028235e+38,3.4028235e+38,3.4028235e+38,3.4028235e+38,3.4028235e+38,3.4028235e+38,3.4028235e+38,3.4028235e+38,3.4028235e+38,3.4028235e+38,3.4028235e+38,3.4028235e+38,3.4028235e+38,3.4028235e+38,3.4028235e+38,3.4028235e+38,3.4028235e+38,3.4028235e+38,3.4028235e+38,3.4028235e+38,3.4028235e+38,3.4028235e+38,3.4028235e+38,3.4028235e+38,3.4028235e+38,3.4028235e+38,3.4028235e+38,3.4028235e+38,3.4028235e+38,3.4028235e+38,3.4028235e+38,3.4028235e+38,3.4028235e+38,3.4028235e+38,3.4028235e+38,3.4028235e+38,3.4028235e+38,3.4028235e+38,3.4028235e+38,3.4028235e+38,3.4028235e+38,3.4028235e+38,3.4028235e+38,3.4028235e+38,3.4028235e+38,3.4028235e+38,3.4028235e+38,3.4028235e+38,3.4028235e+38,3.4028235e+38,3.4028235e+38,3.4028235e+38,3.4028235e+38,3.4028235e+38,3.4028235e+38,3.4028235e+38,3.4028235e+38,3.4028235e+38,3.4028235e+38,3.4028235e+38,3.4028235e+38,3.4028235e+38,3.4028235e+38,3.4028235e+38,3.4028235e+38,3.4028235e+38,3.4028235e+38,3.4028235e+38,3.4028235e+38,3.4028235e+38,3.4028235e+38,3.4028235e+38,3.4028235e+38,3.4028235e+38,3.4028235e+38,3.4028235e+38,3.4028235e+38,3.4028235e+38,3.4028235e+38,3.4028235e+38,3.4028235e+38,3.4028235e+38,3.4028235e+38,3.4028235e+38,3.4028235e+38,3.4028235e+38,3.4028235e+38,3.4028235e+38,3.4028235e+38,3.4028235e+38,3.4028235e+38,3.4028235e+38,3.4028235e+38,3.4028235e+38,3.4028235e+38,3.4028235e+38,3.4028235e+38,3.4028235e+38,3.4028235e+38,3.4028235e+38,3.4028235e+38,3.4028235e+38,3.4028235e+38,3.4028235e+38,3.4028235e+38,3.4028235e+38,3.4028235e+38,3.4028235e+38,3.4028235e+38,3.4028235e+38,3.4028235e+38,3.4028235e+38,3.4028235e+38,3.4028235e+38,3.4028235e+38,3.4028235e+38,3.4028235e+38,3.4028235e+38,3.4028235e+38,3.4028235e+38,3.4028235e+38,3.4028235e+38,3.4028235e+38,3.4028235e+38,3.4028235e+38,3.4028235e+38,3.4028235e+38,3.4028235e+38,3.4028235e+38,3.4028235e+38,3.4028235e+38,3.4028235e+38,3.4028235e+38,3.4028235e+38,3.4028235e+38,3.4028235e+38,3.4028235e+38,3.4028235e+38,3.4028235e+38,3.4028235e+38,3.4028235e+38,3.4028235e+38,3.4028235e+38,3.4028235e+38,3.4028235e+38,3.4028235e+38,3.4028235e+38,3.4028235e+38,3.4028235e+38,3.4028235e+38,3.4028235e+38,3.4028235e+38,3.4028235e+38,3.4028235e+38,3.4028235e+38,3.4028235e+38,3.4028235e+38,3.4028235e+38,3.4028235e+38,3.4028235e+38,3.4028235e+38,3.4028235e+38,3.4028235e+38,3.4028235e+38,3.4028235e+38,3.4028235e+38,3.4028235e+38,3.4028235e+38,3.4028235e+38,3.4028235e+38,3.4028235e+38,3.4028235e+38,3.4028235e+38,3.4028235e+38,3.4028235e+38,3.4028235e+38,3.4028235e+38,3.4028235e+38,3.4028235e+38,3.4028235e+38,3.4028235e+38,3.4028235e+38,3.4028235e+38,3.4028235e+38,3.4028235e+38,3.4028235e+38,3.4028235e+38,3.4028235e+38,3.4028235e+38,3.4028235e+38,3.4028235e+38,3.4028235e+38,3.4028235e+38,3.4028235e+38,3.4028235e+38,3.4028235e+38,3.4028235e+38,3.4028235e+38,3.4028235e+38,3.4028235e+38,3.4028235e+38,3.4028235e+38,3.4028235e+38,3.4028235e+38,3.4028235e+38,3.4028235e+38,3.4028235e+38,3.4028235e+38,3.4028235e+38,3.4028235e+38,3.4028235e+38,3.4028235e+38,3.4028235e+38,3.4028235e+38,3.4028235e+38,3.4028235e+38,3.4028235e+38,3.4028235e+38,3.4028235e+38,3.4028235e+38,3.4028235e+38,3.4028235e+38,3.4028235e+38,3.4028235e+38,3.4028235e+38,3.4028235e+38,3.4028235e+38,3.4028235e+38,3.4028235e+38,3.4028235e+38,3.4028235e+38,3.4028235e+38,3.4028235e+38,3.4028235e+38,3.4028235e+38,3.4028235e+38,3.4028235e+38,3.4028235e+38,3.4028235e+38,3.4028235e+38,3.4028235e+38,3.4028235e+38,3.4028235e+38,3.4028235e+38,3.4028235e+38,3.4028235e+38,3.4028235e+38,3.4028235e+38,3.4028235e+38,3.4028235e+38,3.4028235e+38,3.4028235e+38,3.4028235e+38,3.4028235e+38,3.4028235e+38,3.4028235e+38,3.4028235e+38,3.4028235e+38,3.4028235e+38,3.4028235e+38,3.4028235e+38,3.4028235e+38,3.4028235e+38,3.4028235e+38,3.4028235e+38,3.4028235e+38,3.4028235e+38,3.4028235e+38,3.4028235e+38,3.4028235e+38,3.4028235e+38,3.4028235e+38,3.4028235e+38,3.4028235e+38,3.4028235e+38,3.4028235e+38,3.4028235e+38,3.4028235e+38,3.4028235e+38,3.4028235e+38,3.4028235e+38,3.4028235e+38,3.4028235e+38,3.4028235e+38,3.4028235e+38,3.4028235e+38,3.4028235e+38,3.4028235e+38,3.4028235e+38,3.4028235e+38,3.4028235e+38,3.4028235e+38,3.4028235e+38,3.4028235e+38,3.4028235e+38,3.4028235e+38,3.4028235e+38,3.4028235e+38,3.4028235e+38,3.4028235e+38,3.4028235e+38,3.4028235e+38,3.4028235e+38,3.4028235e+38,3.4028235e+38,3.4028235e+38,3.4028235e+38,3.4028235e+38,3.4028235e+38,3.4028235e+38,3.4028235e+38,3.4028235e+38,3.4028235e+38,3.4028235e+38,3.4028235e+38,3.4028235e+38,3.4028235e+38,3.4028235e+38,3.4028235e+38,3.4028235e+38,3.4028235e+38,3.4028235e+38,3.4028235e+38,3.4028235e+38,3.4028235e+38,3.4028235e+38,3.4028235e+38,3.4028235e+38,3.4028235e+38,3.4028235e+38,3.4028235e+38,3.4028235e+38,3.4028235e+38,3.4028235e+38,3.4028235e+38,3.4028235e+38,3.4028235e+38,3.4028235e+38,3.4028235e+38,3.4028235e+38,3.4028235e+38,3.4028235e+38,3.4028235e+38,3.4028235e+38,3.4028235e+38,3.4028235e+38,3.4028235e+38,3.4028235e+38,3.4028235e+38,3.4028235e+38,3.4028235e+38,3.4028235e+38,3.4028235e+38,3.4028235e+38,3.4028235e+38,3.4028235e+38,3.4028235e+38,3.4028235e+38,3.4028235e+38,3.4028235e+38,3.4028235e+38,3.4028235e+38,3.4028235e+38,3.4028235e+38,3.4028235e+38,3.4028235e+38,3.4028235e+38,3.4028235e+38,3.4028235e+38,3.4028235e+38,3.4028235e+38,3.4028235e+38,3.4028235e+38,3.4028235e+38,3.4028235e+38,3.4028235e+38,3.4028235e+38,3.4028235e+38,3.4028235e+38,3.4028235e+38,3.4028235e+38,3.4028235e+38,3.4028235e+38,3.4028235e+38,3.4028235e+38,3.4028235e+38,3.4028235e+38,3.4028235e+38,3.4028235e+38,3.4028235e+38,3.4028235e+38,3.4028235e+38,3.4028235e+38,3.4028235e+38,3.4028235e+38,3.4028235e+38,3.4028235e+38,3.4028235e+38,3.4028235e+38,3.4028235e+38,3.4028235e+38,3.4028235e+38,3.4028235e+38,3.4028235e+38,3.4028235e+38,3.4028235e+38,3.4028235e+38,3.4028235e+38,3.4028235e+38,3.4028235e+38,3.4028235e+38,3.4028235e+38,3.4028235e+38,3.4028235e+38,3.4028235e+38,3.4028235e+38,3.4028235e+38,3.4028235e+38,3.4028235e+38,3.4028235e+38,3.4028235e+38,3.4028235e+38,3.4028235e+38,3.4028235e+38,3.4028235e+38,3.4028235e+38,3.4028235e+38,3.4028235e+38,3.4028235e+38,3.4028235e+38,3.4028235e+38,3.4028235e+38,3.4028235e+38,3.4028235e+38,3.4028235e+38,3.4028235e+38,3.4028235e+38,3.4028235e+38,3.4028235e+38,3.4028235e+38,3.4028235e+38,3.4028235e+38,3.4028235e+38,3.4028235e+38,3.4028235e+38,3.4028235e+38,3.4028235e+38,3.4028235e+38,3.4028235e+38,3.4028235e+38,3.4028235e+38,3.4028235e+38,3.4028235e+38,3.4028235e+38,3.4028235e+38,3.4028235e+38,3.4028235e+38,3.4028235e+38,3.4028235e+38,3.4028235e+38,3.4028235e+38,3.4028235e+38,3.4028235e+38,3.4028235e+38,3.4028235e+38,3.4028235e+38,3.4028235e+38,3.4028235e+38,3.4028235e+38,3.4028235e+38,3.4028235e+38,3.4028235e+38,3.4028235e+38,3.4028235e+38,3.4028235e+38,3.4028235e+38,3.4028235e+38,3.4028235e+38,3.4028235e+38,3.4028235e+38,3.4028235e+38,3.4028235e+38,3.4028235e+38,3.4028235e+38,3.4028235e+38,3.4028235e+38,3.4028235e+38,3.4028235e+38,3.4028235e+38,3.4028235e+38,3.4028235e+38,3.4028235e+38,3.4028235e+38,3.4028235e+38,3.4028235e+38,3.4028235e+38,3.4028235e+38,3.4028235e+38,3.4028235e+38,3.4028235e+38,3.4028235e+38,3.4028235e+38,3.4028235e+38,3.4028235e+38,3.4028235e+38,3.4028235e+38,3.4028235e+38,3.4028235e+38,3.4028235e+38,3.4028235e+38,3.4028235e+38,3.4028235e+38,3.4028235e+38,3.4028235e+38,3.4028235e+38,3.4028235e+38,3.4028235e+38,3.4028235e+38,3.4028235e+38,3.4028235e+38,3.4028235e+38,3.4028235e+38,3.4028235e+38,3.4028235e+38,3.4028235e+38,3.4028235e+38,3.4028235e+38,3.4028235e+38,3.4028235e+38,3.4028235e+38,3.4028235e+38,3.4028235e+38,3.4028235e+38,3.4028235e+38,3.4028235e+38,3.4028235e+38,3.4028235e+38,3.4028235e+38,3.4028235e+38,3.4028235e+38,3.4028235e+38,3.4028235e+38,3.4028235e+38,3.4028235e+38,3.4028235e+38,3.4028235e+38,3.4028235e+38,3.4028235e+38,3.4028235e+38,3.4028235e+38,3.4028235e+38,3.4028235e+38,3.4028235e+38,3.4028235e+38,3.4028235e+38,3.4028235e+38,3.4028235e+38,3.4028235e+38,3.4028235e+38,3.4028235e+38,3.4028235e+38,3.4028235e+38,3.4028235e+38,3.4028235e+38,3.4028235e+38,3.4028235e+38,3.4028235e+38,3.4028235e+38,3.4028235e+38,3.4028235e+38,3.4028235e+38,3.4028235e+38,3.4028235e+38,3.4028235e+38,3.4028235e+38,3.4028235e+38,3.4028235e+38,3.4028235e+38,3.4028235e+38,3.4028235e+38,3.4028235e+38,3.4028235e+38,3.4028235e+38,3.4028235e+38,3.4028235e+38,3.4028235e+38,3.4028235e+38,3.4028235e+38,3.4028235e+38,3.4028235e+38,3.4028235e+38,3.4028235e+38,3.4028235e+38,3.4028235e+38,3.4028235e+38,3.4028235e+38,3.4028235e+38,3.4028235e+38,3.4028235e+38,3.4028235e+38,3.4028235e+38,3.4028235e+38,3.4028235e+38,3.4028235e+38,3.4028235e+38,3.4028235e+38,3.4028235e+38,3.4028235e+38,3.4028235e+38,3.4028235e+38,3.4028235e+38,3.4028235e+38,3.4028235e+38,3.4028235e+38,3.4028235e+38,3.4028235e+38,3.4028235e+38,3.4028235e+38,3.4028235e+38,3.4028235e+38,3.4028235e+38,3.4028235e+38,3.4028235e+38,3.4028235e+38,3.4028235e+38,3.4028235e+38,3.4028235e+38,3.4028235e+38,3.4028235e+38,3.4028235e+38,3.4028235e+38,3.4028235e+38,3.4028235e+38,3.4028235e+38,3.4028235e+38,3.4028235e+38,3.4028235e+38,3.4028235e+38,3.4028235e+38,3.4028235e+38,3.4028235e+38,3.4028235e+38,3.4028235e+38,3.4028235e+38,3.4028235e+38,3.4028235e+38,3.4028235e+38,3.4028235e+38,3.4028235e+38,3.4028235e+38,3.4028235e+38,3.4028235e+38,3.4028235e+38,3.4028235e+38,3.4028235e+38,3.4028235e+38,3.4028235e+38,3.4028235e+38,3.4028235e+38,3.4028235e+38,3.4028235e+38,3.4028235e+38,3.4028235e+38,3.4028235e+38,3.4028235e+38,3.4028235e+38,3.4028235e+38,3.4028235e+38,3.4028235e+38,3.4028235e+38,3.4028235e+38,3.4028235e+38,3.4028235e+38,3.4028235e+38,3.4028235e+38,3.4028235e+38,3.4028235e+38,3.4028235e+38,3.4028235e+38,3.4028235e+38,3.4028235e+38,3.4028235e+38,3.4028235e+38,3.4028235e+38,3.4028235e+38,3.4028235e+38,3.4028235e+38,3.4028235e+38,3.4028235e+38,3.4028235e+38,3.4028235e+38,3.4028235e+38,3.4028235e+38,3.4028235e+38,3.4028235e+38,3.4028235e+38,3.4028235e+38,3.4028235e+38,3.4028235e+38,3.4028235e+38,3.4028235e+38,3.4028235e+38,3.4028235e+38,3.4028235e+38,3.4028235e+38,3.4028235e+38,3.4028235e+38,3.4028235e+38,3.4028235e+38,3.4028235e+38,3.4028235e+38,3.4028235e+38,3.4028235e+38,3.4028235e+38,3.4028235e+38,3.4028235e+38,3.4028235e+38,3.4028235e+38,3.4028235e+38,3.4028235e+38,3.4028235e+38,3.4028235e+38,3.4028235e+38,3.4028235e+38,3.4028235e+38,3.4028235e+38,3.4028235e+38,3.4028235e+38,3.4028235e+38,3.4028235e+38,3.4028235e+38,3.4028235e+38,3.4028235e+38,3.4028235e+38,3.4028235e+38,3.4028235e+38,3.4028235e+38,3.4028235e+38,3.4028235e+38,3.4028235e+38,3.4028235e+38,3.4028235e+38,3.4028235e+38,3.4028235e+38,3.4028235e+38,3.4028235e+38,3.4028235e+38,3.4028235e+38,3.4028235e+38,3.4028235e+38,3.4028235e+38,3.4028235e+38,3.4028235e+38,3.4028235e+38,3.4028235e+38,3.4028235e+38,3.4028235e+38,3.4028235e+38,3.4028235e+38,3.4028235e+38,3.4028235e+38,3.4028235e+38,3.4028235e+38,3.4028235e+38,3.4028235e+38,3.4028235e+38,3.4028235e+38,3.4028235e+38,3.4028235e+38,3.4028235e+38,3.4028235e+38,3.4028235e+38,3.4028235e+38,3.4028235e+38,3.4028235e+38,3.4028235e+38,3.4028235e+38,3.4028235e+38,3.4028235e+38,3.4028235e+38,3.4028235e+38,3.4028235e+38,3.4028235e+38,3.4028235e+38,3.4028235e+38,3.4028235e+38,3.4028235e+38,3.4028235e+38,3.4028235e+38,3.4028235e+38,3.4028235e+38,3.4028235e+38,3.4028235e+38,3.4028235e+38,3.4028235e+38,3.4028235e+38,3.4028235e+38,3.4028235e+38,3.4028235e+38,3.4028235e+38,3.4028235e+38,3.4028235e+38,3.4028235e+38,3.4028235e+38,3.4028235e+38,3.4028235e+38,3.4028235e+38,3.4028235e+38,3.4028235e+38,3.4028235e+38,3.4028235e+38,3.4028235e+38,3.4028235e+38,3.4028235e+38,3.4028235e+38,3.4028235e+38,3.4028235e+38,3.4028235e+38,3.4028235e+38,3.4028235e+38,3.4028235e+38,3.4028235e+38,3.4028235e+38,3.4028235e+38,3.4028235e+38,3.4028235e+38,3.4028235e+38,3.4028235e+38,3.4028235e+38,3.4028235e+38,3.4028235e+38,3.4028235e+38,3.4028235e+38,3.4028235e+38,3.4028235e+38,3.4028235e+38,3.4028235e+38,3.4028235e+38,3.4028235e+38,3.4028235e+38,3.4028235e+38,3.4028235e+38,3.4028235e+38,3.4028235e+38,3.4028235e+38,3.4028235e+38,3.4028235e+38,3.4028235e+38,3.4028235e+38,3.4028235e+38,3.4028235e+38,3.4028235e+38,3.4028235e+38,3.4028235e+38,3.4028235e+38,3.4028235e+38,3.4028235e+38,3.4028235e+38,3.4028235e+38,3.4028235e+38,3.4028235e+38,3.4028235e+38,3.4028235e+38,3.4028235e+38,3.4028235e+38,3.4028235e+38,3.4028235e+38,3.4028235e+38,3.4028235e+38,3.4028235e+38,3.4028235e+38,3.4028235e+38,3.4028235e+38,3.4028235e+38,3.4028235e+38,3.4028235e+38,3.4028235e+38,3.4028235e+38,3.4028235e+38,3.4028235e+38,3.4028235e+38,3.4028235e+38,3.4028235e+38,3.4028235e+38,3.4028235e+38,3.4028235e+38,3.4028235e+38,3.4028235e+38,3.4028235e+38,3.4028235e+38,3.4028235e+38,3.4028235e+38,3.4028235e+38,3.4028235e+38,3.4028235e+38,3.4028235e+38,3.4028235e+38,3.4028235e+38,3.4028235e+38,3.4028235e+38,3.4028235e+38,3.4028235e+38,3.4028235e+38,3.4028235e+38,3.4028235e+38,3.4028235e+38,3.4028235e+38,3.4028235e+38,3.4028235e+38,3.4028235e+38,3.4028235e+38,3.4028235e+38,3.4028235e+38,3.4028235e+38,3.4028235e+38,3.4028235e+38,3.4028235e+38,3.4028235e+38,3.4028235e+38,3.4028235e+38,3.4028235e+38,3.4028235e+38,3.4028235e+38,3.4028235e+38,3.4028235e+38,3.4028235e+38,3.4028235e+38,3.4028235e+38,3.4028235e+38,3.4028235e+38,3.4028235e+38,3.4028235e+38,3.4028235e+38,3.4028235e+38,3.4028235e+38,3.4028235e+38,3.4028235e+38,3.4028235e+38,3.4028235e+38,3.4028235e+38,3.4028235e+38,3.4028235e+38,3.4028235e+38,3.4028235e+38,3.4028235e+38,3.4028235e+38,3.4028235e+38,3.4028235e+38,3.4028235e+38,3.4028235e+38,3.4028235e+38,3.4028235e+38,3.4028235e+38,3.4028235e+38,3.4028235e+38,3.4028235e+38,3.4028235e+38,3.4028235e+38,3.4028235e+38,3.4028235e+38,3.4028235e+38,3.4028235e+38,3.4028235e+38,3.4028235e+38,3.4028235e+38,3.4028235e+38,3.4028235e+38,3.4028235e+38,3.4028235e+38,3.4028235e+38,3.4028235e+38,3.4028235e+38,3.4028235e+38,3.4028235e+38,3.4028235e+38,3.4028235e+38,3.4028235e+38,3.4028235e+38,3.4028235e+38,3.4028235e+38,3.4028235e+38,3.4028235e+38,3.4028235e+38,3.4028235e+38,3.4028235e+38,3.4028235e+38,3.4028235e+38,3.4028235e+38,3.4028235e+38,3.4028235e+38,3.4028235e+38,3.4028235e+38,3.4028235e+38,3.4028235e+38,3.4028235e+38,3.4028235e+38,3.4028235e+38,3.4028235e+38,3.4028235e+38,3.4028235e+38,3.4028235e+38,3.4028235e+38,3.4028235e+38,3.4028235e+38,3.4028235e+38,3.4028235e+38,3.4028235e+38,3.4028235e+38,3.4028235e+38,3.4028235e+38,3.4028235e+38,3.4028235e+38,3.4028235e+38,3.4028235e+38,3.4028235e+38,3.4028235e+38,3.4028235e+38,3.4028235e+38,3.4028235e+38,3.4028235e+38,3.4028235e+38,3.4028235e+38,3.4028235e+38,3.4028235e+38,3.4028235e+38,3.4028235e+38,3.4028235e+38,3.4028235e+38,3.4028235e+38,3.4028235e+38,3.4028235e+38,3.4028235e+38,3.4028235e+38,3.4028235e+38,3.4028235e+38,3.4028235e+38,3.4028235e+38,3.4028235e+38,3.4028235e+38,3.4028235e+38,3.4028235e+38,3.4028235e+38,3.4028235e+38,3.4028235e+38,3.4028235e+38,3.4028235e+38,3.4028235e+38,3.4028235e+38,3.4028235e+38,3.4028235e+38,3.4028235e+38,3.4028235e+38,3.4028235e+38,3.4028235e+38,3.4028235e+38,3.4028235e+38,3.4028235e+38,3.4028235e+38,3.4028235e+38,3.4028235e+38,3.4028235e+38,3.4028235e+38,3.4028235e+38,3.4028235e+38,3.4028235e+38,3.4028235e+38,3.4028235e+38,3.4028235e+38,3.4028235e+38,3.4028235e+38,3.4028235e+38,3.4028235e+38,3.4028235e+38,3.4028235e+38,3.4028235e+38,3.4028235e+38,3.4028235e+38,3.4028235e+38,3.4028235e+38,3.4028235e+38,3.4028235e+38,3.4028235e+38,3.4028235e+38,3.4028235e+38,3.4028235e+38,3.4028235e+38,3.4028235e+38,3.4028235e+38,3.4028235e+38,3.4028235e+38,3.4028235e+38,3.4028235e+38,3.4028235e+38,3.4028235e+38,3.4028235e+38,3.4028235e+38,3.4028235e+38,3.4028235e+38,3.4028235e+38,3.4028235e+38,3.4028235e+38,3.4028235e+38,3.4028235e+38,3.4028235e+38,3.4028235e+38,3.4028235e+38,3.4028235e+38,3.4028235e+38,3.4028235e+38,3.4028235e+38,3.4028235e+38,3.4028235e+38,3.4028235e+38,3.4028235e+38,3.4028235e+38,3.4028235e+38,3.4028235e+38,3.4028235e+38,3.4028235e+38,3.4028235e+38,3.4028235e+38,3.4028235e+38,3.4028235e+38,3.4028235e+38,3.4028235e+38,3.4028235e+38,3.4028235e+38,3.4028235e+38,3.4028235e+38,3.4028235e+38,3.4028235e+38,3.4028235e+38,3.4028235e+38,3.4028235e+38,3.4028235e+38,3.4028235e+38,3.4028235e+38,3.4028235e+38,3.4028235e+38,3.4028235e+38,3.4028235e+38,3.4028235e+38,3.4028235e+38,3.4028235e+38,3.4028235e+38,3.4028235e+38,3.4028235e+38,3.4028235e+38,3.4028235e+38,3.4028235e+38,3.4028235e+38,3.4028235e+38,3.4028235e+38,3.4028235e+38,3.4028235e+38,3.4028235e+38,3.4028235e+38,3.4028235e+38,3.4028235e+38,3.4028235e+38,3.4028235e+38,3.4028235e+38,3.4028235e+38,3.4028235e+38,3.4028235e+38,3.4028235e+38,3.4028235e+38,3.4028235e+38,3.4028235e+38,3.4028235e+38,3.4028235e+38,3.4028235e+38,3.4028235e+38,3.4028235e+38,3.4028235e+38,3.4028235e+38,3.4028235e+38,3.4028235e+38,3.4028235e+38,3.4028235e+38,3.4028235e+38,3.4028235e+38,3.4028235e+38,3.4028235e+38,3.4028235e+38,3.4028235e+38,3.4028235e+38,3.4028235e+38,3.4028235e+38,3.4028235e+38,3.4028235e+38,3.4028235e+38,3.4028235e+38,3.4028235e+38,3.4028235e+38,3.4028235e+38,3.4028235e+38,3.4028235e+38,3.4028235e+38,3.4028235e+38,3.4028235e+38,3.4028235e+38,3.4028235e+38,3.4028235e+38,3.4028235e+38,3.4028235e+38,3.4028235e+38,3.4028235e+38,3.4028235e+38,3.4028235e+38,3.4028235e+38,3.4028235e+38,3.4028235e+38,3.4028235e+38,3.4028235e+38,3.4028235e+38,3.4028235e+38,3.4028235e+38,3.4028235e+38,3.4028235e+38,3.4028235e+38,3.4028235e+38,3.4028235e+38,3.4028235e+38,3.4028235e+38,3.4028235e+38,3.4028235e+38,3.4028235e+38,3.4028235e+38,3.4028235e+38,3.4028235e+38,3.4028235e+38,3.4028235e+38,3.4028235e+38,3.4028235e+38,3.4028235e+38,3.4028235e+38,3.4028235e+38,3.4028235e+38,3.4028235e+38,3.4028235e+38,3.4028235e+38,3.4028235e+38,3.4028235e+38,3.4028235e+38,3.4028235e+38,3.4028235e+38,3.4028235e+38,3.4028235e+38,3.4028235e+38,3.4028235e+38,3.4028235e+38,3.4028235e+38,3.4028235e+38,3.4028235e+38,3.4028235e+38,3.4028235e+38,3.4028235e+38,3.4028235e+38,3.4028235e+38,3.4028235e+38,3.4028235e+38,3.4028235e+38,3.4028235e+38,3.4028235e+38,3.4028235e+38,3.4028235e+38,3.4028235e+38,3.4028235e+38,3.4028235e+38,3.4028235e+38,3.4028235e+38,3.4028235e+38,3.4028235e+38,3.4028235e+38,3.4028235e+38,3.4028235e+38,3.4028235e+38,3.4028235e+38,3.4028235e+38,3.4028235e+38,3.4028235e+38,3.4028235e+38,3.4028235e+38,3.4028235e+38,3.4028235e+38,3.4028235e+38,3.4028235e+38,3.4028235e+38,3.4028235e+38,3.4028235e+38,3.4028235e+38,3.4028235e+38,3.4028235e+38,3.4028235e+38,3.4028235e+38,3.4028235e+38,3.4028235e+38,3.4028235e+38,3.4028235e+38,3.4028235e+38,3.4028235e+38,3.4028235e+38,3.4028235e+38,3.4028235e+38,3.4028235e+38,3.4028235e+38,3.4028235e+38,3.4028235e+38,3.4028235e+38,3.4028235e+38,3.4028235e+38,3.4028235e+38,3.4028235e+38,3.4028235e+38,3.4028235e+38,3.4028235e+38,3.4028235e+38,3.4028235e+38,3.4028235e+38,3.4028235e+38,3.4028235e+38,3.4028235e+38,3.4028235e+38,3.4028235e+38,3.4028235e+38,3.4028235e+38,3.4028235e+38,3.4028235e+38,3.4028235e+38,3.4028235e+38,3.4028235e+38,3.4028235e+38,3.4028235e+38,3.4028235e+38,3.4028235e+38,3.4028235e+38,3.4028235e+38,3.4028235e+38,3.4028235e+38,3.4028235e+38,3.4028235e+38,3.4028235e+38,3.4028235e+38,3.4028235e+38,3.4028235e+38,3.4028235e+38,3.4028235e+38,3.4028235e+38,3.4028235e+38,3.4028235e+38,3.4028235e+38,3.4028235e+38,3.4028235e+38,3.4028235e+38,3.4028235e+38,3.4028235e+38,3.4028235e+38,3.4028235e+38,3.4028235e+38,3.4028235e+38,3.4028235e+38,3.4028235e+38,3.4028235e+38,3.4028235e+38,3.4028235e+38,3.4028235e+38,3.4028235e+38,3.4028235e+38,3.4028235e+38,3.4028235e+38,3.4028235e+38,3.4028235e+38,3.4028235e+38,3.4028235e+38,3.4028235e+38,3.4028235e+38,3.4028235e+38,3.4028235e+38,3.4028235e+38,3.4028235e+38,3.4028235e+38,3.4028235e+38,3.4028235e+38,3.4028235e+38,3.4028235e+38,3.4028235e+38,3.4028235e+38,3.4028235e+38,
