// Neural Network File Format by Kyle Julian, Stanford 2016
6,784,10,784,
784,50,50,50,50,50,10,
0,
-3.4028235e+38,-3.4028235e+38,-3.4028235e+38,-3.4028235e+38,-3.4028235e+38,-3.4028235e+38,-3.4028235e+38,-3.4028235e+38,-3.4028235e+38,-3.4028235e+38,-3.4028235e+38,-3.4028235e+38,-3.4028235e+38,-3.4028235e+38,-3.4028235e+38,-3.4028235e+38,-3.4028235e+38,-3.4028235e+38,-3.4028235e+38,-3.4028235e+38,-3.4028235e+38,-3.4028235e+38,-3.4028235e+38,-3.4028235e+38,-3.4028235e+38,-3.4028235e+38,-3.4028235e+38,-3.4028235e+38,-3.4028235e+38,-3.4028235e+38,-3.4028235e+38,-3.4028235e+38,-3.4028235e+38,-3.4028235e+38,-3.4028235e+38,-3.4028235e+38,-3.4028235e+38,-3.4028235e+38,-3.4028235e+38,-3.4028235e+38,-3.4028235e+38,-3.4028235e+38,-3.4028235e+38,-3.4028235e+38,-3.4028235e+38,-3.4028235e+38,-3.4028235e+38,-3.4028235e+38,-3.4028235e+38,-3.4028235e+38,-3.4028235e+38,-3.4028235e+38,-3.4028235e+38,-3.4028235e+38,-3.4028235e+38,-3.4028235e+38,-3.4028235e+38,-3.4028235e+38,-3.4028235e+38,-3.4028235e+38,-3.4028235e+38,-3.4028235e+38,-3.4028235e+38,-3.4028235e+38,-3.4028235e+38,-3.4028235e+38,-3.4028235e+38,-3.4028235e+38,-3.4028235e+38,-3.4028235e+38,-3.4028235e+38,-3.4028235e+38,-3.4028235e+38,-3.4028235e+38,-3.4028235e+38,-3.4028235e+38,-3.4028235e+38,-3.4028235e+38,-3.4028235e+38,-3.4028235e+38,-3.4028235e+38,-3.4028235e+38,-3.4028235e+38,-3.4028235e+38,-3.4028235e+38,-3.4028235e+38,-3.4028235e+38,-3.4028235e+38,-3.4028235e+38,-3.4028235e+38,-3.4028235e+38,-3.4028235e+38,-3.4028235e+38,-3.4028235e+38,-3.4028235e+38,-3.4028235e+38,-3.4028235e+38,-3.4028235e+38,-3.4028235e+38,-3.4028235e+38,-3.4028235e+38,-3.4028235e+38,-3.4028235e+38,-3.4028235e+38,-3.4028235e+38,-3.4028235e+38,-3.4028235e+38,-3.4028235e+38,-3.4028235e+38,-3.4028235e+38,-3.4028235e+38,-3.4028235e+38,-3.4028235e+38,-3.4028235e+38,-3.4028235e+38,-3.4028235e+38,-3.4028235e+38,-3.4028235e+38,-3.4028235e+38,-3.4028235e+38,-3.4028235e+38,-3.4028235e+38,-3.4028235e+38,-3.4028235e+38,-3.4028235e+38,-3.4028235e+38,-3.4028235e+38,-3.4028235e+38,-3.4028235e+38,-3.4028235e+38,-3.4028235e+38,-3.4028235e+38,-3.4028235e+38,-3.4028235e+38,-3.4028235e+38,-3.4028235e+38,-3.4028235e+38,-3.4028235e+38,-3.4028235e+38,-3.4028235e+38,-3.4028235e+38,-3.4028235e+38,-3.4028235e+38,-3.4028235e+38,-3.4028235e+38,-3.4028235e+38,-3.4028235e+38,-3.4028235e+38,-3.4028235e+38,-3.4028235e+38,-3.4028235e+38,-3.4028235e+38,-3.4028235e+38,-3.4028235e+38,-3.4028235e+38,-3.4028235e+38,-3.4028235e+38,-3.4028235e+38,-3.4028235e+38,-3.4028235e+38,-3.4028235e+38,-3.4028235e+38,-3.4028235e+38,-3.4028235e+38,-3.4028235e+38,-3.4028235e+38,-3.4028235e+38,-3.4028235e+38,-3.4028235e+38,-3.4028235e+38,-3.4028235e+38,-3.4028235e+38,-3.4028235e+38,-3.4028235e+38,-3.4028235e+38,-3.4028235e+38,-3.4028235e+38,-3.4028235e+38,-3.4028235e+38,-3.4028235e+38,-3.4028235e+38,-3.4028235e+38,-3.4028235e+38,-3.4028235e+38,-3.4028235e+38,-3.4028235e+38,-3.4028235e+38,-3.4028235e+38,-3.4028235e+38,-3.4028235e+38,-3.4028235e+38,-3.4028235e+38,-3.4028235e+38,-3.4028235e+38,-3.4028235e+38,-3.4028235e+38,-3.4028235e+38,-3.4028235e+38,-3.4028235e+38,-3.4028235e+38,-3.4028235e+38,-3.4028235e+38,-3.4028235e+38,-3.4028235e+38,-3.4028235e+38,-3.4028235e+38,-3.4028235e+38,-3.4028235e+38,-3.4028235e+38,-3.4028235e+38,-3.4028235e+38,-3.4028235e+38,-3.4028235e+38,-3.4028235e+38,-3.4028235e+38,-3.4028235e+38,-3.4028235e+38,-3.4028235e+38,-3.4028235e+38,-3.4028235e+38,-3.4028235e+38,-3.4028235e+38,-3.4028235e+38,-3.4028235e+38,-3.4028235e+38,-3.4028235e+38,-3.4028235e+38,-3.4028235e+38,-3.4028235e+38,-3.4028235e+38,-3.4028235e+38,-3.4028235e+38,-3.4028235e+38,-3.4028235e+38,-3.4028235e+38,-3.4028235e+38,-3.4028235e+38,-3.4028235e+38,-3.4028235e+38,-3.4028235e+38,-3.4028235e+38,-3.4028235e+38,-3.4028235e+38,-3.4028235e+38,-3.4028235e+38,-3.4028235e+38,-3.4028235e+38,-3.4028235e+38,-3.4028235e+38,-3.4028235e+38,-3.4028235e+38,-3.4028235e+38,-3.4028235e+38,-3.4028235e+38,-3.4028235e+38,-3.4028235e+38,-3.4028235e+38,-3.4028235e+38,-3.4028235e+38,-3.4028235e+38,-3.4028235e+38,-3.4028235e+38,-3.4028235e+38,-3.4028235e+38,-3.4028235e+38,-3.4028235e+38,-3.4028235e+38,-3.4028235e+38,-3.4028235e+38,-3.4028235e+38,-3.4028235e+38,-3.4028235e+38,-3.4028235e+38,-3.4028235e+38,-3.4028235e+38,-3.4028235e+38,-3.4028235e+38,-3.4028235e+38,-3.4028235e+38,-3.4028235e+38,-3.4028235e+38,-3.4028235e+38,-3.4028235e+38,-3.4028235e+38,-3.4028235e+38,-3.4028235e+38,-3.4028235e+38,-3.4028235e+38,-3.4028235e+38,-3.4028235e+38,-3.4028235e+38,-3.4028235e+38,-3.4028235e+38,-3.4028235e+38,-3.4028235e+38,-3.4028235e+38,-3.4028235e+38,-3.4028235e+38,-3.4028235e+38,-3.4028235e+38,-3.4028235e+38,-3.4028235e+38,-3.4028235e+38,-3.4028235e+38,-3.4028235e+38,-3.4028235e+38,-3.4028235e+38,-3.4028235e+38,-3.4028235e+38,-3.4028235e+38,-3.4028235e+38,-3.4028235e+38,-3.4028235e+38,-3.4028235e+38,-3.4028235e+38,-3.4028235e+38,-3.4028235e+38,-3.4028235e+38,-3.4028235e+38,-3.4028235e+38,-3.4028235e+38,-3.4028235e+38,-3.4028235e+38,-3.4028235e+38,-3.4028235e+38,-3.4028235e+38,-3.4028235e+38,-3.4028235e+38,-3.4028235e+38,-3.4028235e+38,-3.4028235e+38,-3.4028235e+38,-3.4028235e+38,-3.4028235e+38,-3.4028235e+38,-3.4028235e+38,-3.4028235e+38,-3.4028235e+38,-3.4028235e+38,-3.4028235e+38,-3.4028235e+38,-3.4028235e+38,-3.4028235e+38,-3.4028235e+38,-3.4028235e+38,-3.4028235e+38,-3.4028235e+38,-3.4028235e+38,-3.4028235e+38,-3.4028235e+38,-3.4028235e+38,-3.4028235e+38,-3.4028235e+38,-3.4028235e+38,-3.4028235e+38,-3.4028235e+38,-3.4028235e+38,-3.4028235e+38,-3.4028235e+38,-3.4028235e+38,-3.4028235e+38,-3.4028235e+38,-3.4028235e+38,-3.4028235e+38,-3.4028235e+38,-3.4028235e+38,-3.4028235e+38,-3.4028235e+38,-3.4028235e+38,-3.4028235e+38,-3.4028235e+38,-3.4028235e+38,-3.4028235e+38,-3.4028235e+38,-3.4028235e+38,-3.4028235e+38,-3.4028235e+38,-3.4028235e+38,-3.4028235e+38,-3.4028235e+38,-3.4028235e+38,-3.4028235e+38,-3.4028235e+38,-3.4028235e+38,-3.4028235e+38,-3.4028235e+38,-3.4028235e+38,-3.4028235e+38,-3.4028235e+38,-3.4028235e+38,-3.4028235e+38,-3.4028235e+38,-3.4028235e+38,-3.4028235e+38,-3.4028235e+38,-3.4028235e+38,-3.4028235e+38,-3.4028235e+38,-3.4028235e+38,-3.4028235e+38,-3.4028235e+38,-3.4028235e+38,-3.4028235e+38,-3.4028235e+38,-3.4028235e+38,-3.4028235e+38,-3.4028235e+38,-3.4028235e+38,-3.4028235e+38,-3.4028235e+38,-3.4028235e+38,-3.4028235e+38,-3.4028235e+38,-3.4028235e+38,-3.4028235e+38,-3.4028235e+38,-3.4028235e+38,-3.4028235e+38,-3.4028235e+38,-3.4028235e+38,-3.4028235e+38,-3.4028235e+38,-3.4028235e+38,-3.4028235e+38,-3.4028235e+38,-3.4028235e+38,-3.4028235e+38,-3.4028235e+38,-3.4028235e+38,-3.4028235e+38,-3.4028235e+38,-3.4028235e+38,-3.4028235e+38,-3.4028235e+38,-3.4028235e+38,-3.4028235e+38,-3.4028235e+38,-3.4028235e+38,-3.4028235e+38,-3.4028235e+38,-3.4028235e+38,-3.4028235e+38,-3.4028235e+38,-3.4028235e+38,-3.4028235e+38,-3.4028235e+38,-3.4028235e+38,-3.4028235e+38,-3.4028235e+38,-3.4028235e+38,-3.4028235e+38,-3.4028235e+38,-3.4028235e+38,-3.4028235e+38,-3.4028235e+38,-3.4028235e+38,-3.4028235e+38,-3.4028235e+38,-3.4028235e+38,-3.4028235e+38,-3.4028235e+38,-3.4028235e+38,-3.4028235e+38,-3.4028235e+38,-3.4028235e+38,-3.4028235e+38,-3.4028235e+38,-3.4028235e+38,-3.4028235e+38,-3.4028235e+38,-3.4028235e+38,-3.4028235e+38,-3.4028235e+38,-3.4028235e+38,-3.4028235e+38,-3.4028235e+38,-3.4028235e+38,-3.4028235e+38,-3.4028235e+38,-3.4028235e+38,-3.4028235e+38,-3.4028235e+38,-3.4028235e+38,-3.4028235e+38,-3.4028235e+38,-3.4028235e+38,-3.4028235e+38,-3.4028235e+38,-3.4028235e+38,-3.4028235e+38,-3.4028235e+38,-3.4028235e+38,-3.4028235e+38,-3.4028235e+38,-3.4028235e+38,-3.4028235e+38,-3.4028235e+38,-3.4028235e+38,-3.4028235e+38,-3.4028235e+38,-3.4028235e+38,-3.4028235e+38,-3.4028235e+38,-3.4028235e+38,-3.4028235e+38,-3.4028235e+38,-3.4028235e+38,-3.4028235e+38,-3.4028235e+38,-3.4028235e+38,-3.4028235e+38,-3.4028235e+38,-3.4028235e+38,-3.4028235e+38,-3.4028235e+38,-3.4028235e+38,-3.4028235e+38,-3.4028235e+38,-3.4028235e+38,-3.4028235e+38,-3.4028235e+38,-3.4028235e+38,-3.4028235e+38,-3.4028235e+38,-3.4028235e+38,-3.4028235e+38,-3.4028235e+38,-3.4028235e+38,-3.4028235e+38,-3.4028235e+38,-3.4028235e+38,-3.4028235e+38,-3.4028235e+38,-3.4028235e+38,-3.4028235e+38,-3.4028235e+38,-3.4028235e+38,-3.4028235e+38,-3.4028235e+38,-3.4028235e+38,-3.4028235e+38,-3.4028235e+38,-3.4028235e+38,-3.4028235e+38,-3.4028235e+38,-3.4028235e+38,-3.4028235e+38,-3.4028235e+38,-3.4028235e+38,-3.4028235e+38,-3.4028235e+38,-3.4028235e+38,-3.4028235e+38,-3.4028235e+38,-3.4028235e+38,-3.4028235e+38,-3.4028235e+38,-3.4028235e+38,-3.4028235e+38,-3.4028235e+38,-3.4028235e+38,-3.4028235e+38,-3.4028235e+38,-3.4028235e+38,-3.4028235e+38,-3.4028235e+38,-3.4028235e+38,-3.4028235e+38,-3.4028235e+38,-3.4028235e+38,-3.4028235e+38,-3.4028235e+38,-3.4028235e+38,-3.4028235e+38,-3.4028235e+38,-3.4028235e+38,-3.4028235e+38,-3.4028235e+38,-3.4028235e+38,-3.4028235e+38,-3.4028235e+38,-3.4028235e+38,-3.4028235e+38,-3.4028235e+38,-3.4028235e+38,-3.4028235e+38,-3.4028235e+38,-3.4028235e+38,-3.4028235e+38,-3.4028235e+38,-3.4028235e+38,-3.4028235e+38,-3.4028235e+38,-3.4028235e+38,-3.4028235e+38,-3.4028235e+38,-3.4028235e+38,-3.4028235e+38,-3.4028235e+38,-3.4028235e+38,-3.4028235e+38,-3.4028235e+38,-3.4028235e+38,-3.4028235e+38,-3.4028235e+38,-3.4028235e+38,-3.4028235e+38,-3.4028235e+38,-3.4028235e+38,-3.4028235e+38,-3.4028235e+38,-3.4028235e+38,-3.4028235e+38,-3.4028235e+38,-3.4028235e+38,-3.4028235e+38,-3.4028235e+38,-3.4028235e+38,-3.4028235e+38,-3.4028235e+38,-3.4028235e+38,-3.4028235e+38,-3.4028235e+38,-3.4028235e+38,-3.4028235e+38,-3.4028235e+38,-3.4028235e+38,-3.4028235e+38,-3.4028235e+38,-3.4028235e+38,-3.4028235e+38,-3.4028235e+38,-3.4028235e+38,-3.4028235e+38,-3.4028235e+38,-3.4028235e+38,-3.4028235e+38,-3.4028235e+38,-3.4028235e+38,-3.4028235e+38,-3.4028235e+38,-3.4028235e+38,-3.4028235e+38,-3.4028235e+38,-3.4028235e+38,-3.4028235e+38,-3.4028235e+38,-3.4028235e+38,-3.4028235e+38,-3.4028235e+38,-3.4028235e+38,-3.4028235e+38,-3.4028235e+38,-3.4028235e+38,-3.4028235e+38,-3.4028235e+38,-3.4028235e+38,-3.4028235e+38,-3.4028235e+38,-3.4028235e+38,-3.4028235e+38,-3.4028235e+38,-3.4028235e+38,-3.4028235e+38,-3.4028235e+38,-3.4028235e+38,-3.4028235e+38,-3.4028235e+38,-3.4028235e+38,-3.4028235e+38,-3.4028235e+38,-3.4028235e+38,-3.4028235e+38,-3.4028235e+38,-3.4028235e+38,-3.4028235e+38,-3.4028235e+38,-3.4028235e+38,-3.4028235e+38,-3.4028235e+38,-3.4028235e+38,-3.4028235e+38,-3.4028235e+38,-3.4028235e+38,-3.4028235e+38,-3.4028235e+38,-3.4028235e+38,-3.4028235e+38,-3.4028235e+38,-3.4028235e+38,-3.4028235e+38,-3.4028235e+38,-3.4028235e+38,-3.4028235e+38,-3.4028235e+38,-3.4028235e+38,-3.4028235e+38,-3.4028235e+38,-3.4028235e+38,-3.4028235e+38,-3.4028235e+38,-3.4028235e+38,-3.4028235e+38,-3.4028235e+38,-3.4028235e+38,-3.4028235e+38,-3.4028235e+38,-3.4028235e+38,-3.4028235e+38,-3.4028235e+38,-3.4028235e+38,-3.4028235e+38,-3.4028235e+38,-3.4028235e+38,-3.4028235e+38,-3.4028235e+38,-3.4028235e+38,-3.4028235e+38,-3.4028235e+38,-3.4028235e+38,-3.4028235e+38,-3.4028235e+38,-3.4028235e+38,-3.4028235e+38,-3.4028235e+38,-3.4028235e+38,-3.4028235e+38,-3.4028235e+38,-3.4028235e+38,-3.4028235e+38,-3.4028235e+38,-3.4028235e+38,-3.4028235e+38,-3.4028235e+38,-3.4028235e+38,-3.4028235e+38,-3.4028235e+38,-3.4028235e+38,-3.4028235e+38,-3.4028235e+38,-3.4028235e+38,-3.4028235e+38,-3.4028235e+38,-3.4028235e+38,-3.4028235e+38,-3.4028235e+38,-3.4028235e+38,-3.4028235e+38,-3.4028235e+38,-3.4028235e+38,-3.4028235e+38,-3.4028235e+38,-3.4028235e+38,-3.4028235e+38,-3.4028235e+38,-3.4028235e+38,-3.4028235e+38,-3.4028235e+38,-3.4028235e+38,-3.4028235e+38,-3.4028235e+38,-3.4028235e+38,-3.4028235e+38,-3.4028235e+38,-3.4028235e+38,-3.4028235e+38,-3.4028235e+38,-3.4028235e+38,-3.4028235e+38,-3.4028235e+38,-3.4028235e+38,-3.4028235e+38,-3.4028235e+38,-3.4028235e+38,-3.4028235e+38,-3.4028235e+38,-3.4028235e+38,-3.4028235e+38,-3.4028235e+38,-3.4028235e+38,-3.4028235e+38,-3.4028235e+38,-3.4028235e+38,-3.4028235e+38,
3.4028235e+38,3.4028235e+38,3.4028235e+38,3.4028235e+38,3.4028235e+38,3.4028235e+38,3.4028235e+38,3.4028235e+38,3.4028235e+38,3.4028235e+38,3.4028235e+38,3.4028235e+38,3.4028235e+38,3.4028235e+38,3.4028235e+38,3.4028235e+38,3.4028235e+38,3.4028235e+38,3.4028235e+38,3.4028235e+38,3.4028235e+38,3.4028235e+38,3.4028235e+38,3.4028235e+38,3.4028235e+38,3.4028235e+38,3.4028235e+38,3.4028235e+38,3.4028235e+38,3.4028235e+38,3.4028235e+38,3.4028235e+38,3.4028235e+38,3.4028235e+38,3.4028235e+38,3.4028235e+38,3.4028235e+38,3.4028235e+38,3.4028235e+38,3.4028235e+38,3.4028235e+38,3.4028235e+38,3.4028235e+38,3.4028235e+38,3.4028235e+38,3.4028235e+38,3.4028235e+38,3.4028235e+38,3.4028235e+38,3.4028235e+38,3.4028235e+38,3.4028235e+38,3.4028235e+38,3.4028235e+38,3.4028235e+38,3.4028235e+38,3.4028235e+38,3.4028235e+38,3.4028235e+38,3.4028235e+38,3.4028235e+38,3.4028235e+38,3.4028235e+38,3.4028235e+38,3.4028235e+38,3.4028235e+38,3.4028235e+38,3.4028235e+38,3.4028235e+38,3.4028235e+38,3.4028235e+38,3.4028235e+38,3.4028235e+38,3.4028235e+38,3.4028235e+38,3.4028235e+38,3.4028235e+38,3.4028235e+38,3.4028235e+38,3.4028235e+38,3.4028235e+38,3.4028235e+38,3.4028235e+38,3.4028235e+38,3.4028235e+38,3.4028235e+38,3.4028235e+38,3.4028235e+38,3.4028235e+38,3.4028235e+38,3.4028235e+38,3.4028235e+38,3.4028235e+38,3.4028235e+38,3.4028235e+38,3.4028235e+38,3.4028235e+38,3.4028235e+38,3.4028235e+38,3.4028235e+38,3.4028235e+38,3.4028235e+38,3.4028235e+38,3.4028235e+38,3.4028235e+38,3.4028235e+38,3.4028235e+38,3.4028235e+38,3.4028235e+38,3.4028235e+38,3.4028235e+38,3.4028235e+38,3.4028235e+38,3.4028235e+38,3.4028235e+38,3.4028235e+38,3.4028235e+38,3.4028235e+38,3.4028235e+38,3.4028235e+38,3.4028235e+38,3.4028235e+38,3.4028235e+38,3.4028235e+38,3.4028235e+38,3.4028235e+38,3.4028235e+38,3.4028235e+38,3.4028235e+38,3.4028235e+38,3.4028235e+38,3.4028235e+38,3.4028235e+38,3.4028235e+38,3.4028235e+38,3.4028235e+38,3.4028235e+38,3.4028235e+38,3.4028235e+38,3.4028235e+38,3.4028235e+38,3.4028235e+38,3.4028235e+38,3.4028235e+38,3.4028235e+38,3.4028235e+38,3.4028235e+38,3.4028235e+38,3.4028235e+38,3.4028235e+38,3.4028235e+38,3.4028235e+38,3.4028235e+38,3.4028235e+38,3.4028235e+38,3.4028235e+38,3.4028235e+38,3.4028235e+38,3.4028235e+38,3.4028235e+38,3.4028235e+38,3.4028235e+38,3.4028235e+38,3.4028235e+38,3.4028235e+38,3.4028235e+38,3.4028235e+38,3.4028235e+38,3.4028235e+38,3.4028235e+38,3.4028235e+38,3.4028235e+38,3.4028235e+38,3.4028235e+38,3.4028235e+38,3.4028235e+38,3.4028235e+38,3.4028235e+38,3.4028235e+38,3.4028235e+38,3.4028235e+38,3.4028235e+38,3.4028235e+38,3.4028235e+38,3.4028235e+38,3.4028235e+38,3.4028235e+38,3.4028235e+38,3.4028235e+38,3.4028235e+38,3.4028235e+38,3.4028235e+38,3.4028235e+38,3.4028235e+38,3.4028235e+38,3.4028235e+38,3.4028235e+38,3.4028235e+38,3.4028235e+38,3.4028235e+38,3.4028235e+38,3.4028235e+38,3.4028235e+38,3.4028235e+38,3.4028235e+38,3.4028235e+38,3.4028235e+38,3.4028235e+38,3.4028235e+38,3.4028235e+38,3.4028235e+38,3.4028235e+38,3.4028235e+38,3.4028235e+38,3.4028235e+38,3.4028235e+38,3.4028235e+38,3.4028235e+38,3.4028235e+38,3.4028235e+38,3.4028235e+38,3.4028235e+38,3.4028235e+38,3.4028235e+38,3.4028235e+38,3.4028235e+38,3.4028235e+38,3.4028235e+38,3.4028235e+38,3.4028235e+38,3.4028235e+38,3.4028235e+38,3.4028235e+38,3.4028235e+38,3.4028235e+38,3.4028235e+38,3.4028235e+38,3.4028235e+38,3.4028235e+38,3.4028235e+38,3.4028235e+38,3.4028235e+38,3.4028235e+38,3.4028235e+38,3.4028235e+38,3.4028235e+38,3.4028235e+38,3.4028235e+38,3.4028235e+38,3.4028235e+38,3.4028235e+38,3.4028235e+38,3.4028235e+38,3.4028235e+38,3.4028235e+38,3.4028235e+38,3.4028235e+38,3.4028235e+38,3.4028235e+38,3.4028235e+38,3.4028235e+38,3.4028235e+38,3.4028235e+38,3.4028235e+38,3.4028235e+38,3.4028235e+38,3.4028235e+38,3.4028235e+38,3.4028235e+38,3.4028235e+38,3.4028235e+38,3.4028235e+38,3.4028235e+38,3.4028235e+38,3.4028235e+38,3.4028235e+38,3.4028235e+38,3.4028235e+38,3.4028235e+38,3.4028235e+38,3.4028235e+38,3.4028235e+38,3.4028235e+38,3.4028235e+38,3.4028235e+38,3.4028235e+38,3.4028235e+38,3.4028235e+38,3.4028235e+38,3.4028235e+38,3.4028235e+38,3.4028235e+38,3.4028235e+38,3.4028235e+38,3.4028235e+38,3.4028235e+38,3.4028235e+38,3.4028235e+38,3.4028235e+38,3.4028235e+38,3.4028235e+38,3.4028235e+38,3.4028235e+38,3.4028235e+38,3.4028235e+38,3.4028235e+38,3.4028235e+38,3.4028235e+38,3.4028235e+38,3.4028235e+38,3.4028235e+38,3.4028235e+38,3.4028235e+38,3.4028235e+38,3.4028235e+38,3.4028235e+38,3.4028235e+38,3.4028235e+38,3.4028235e+38,3.4028235e+38,3.4028235e+38,3.4028235e+38,3.4028235e+38,3.4028235e+38,3.4028235e+38,3.4028235e+38,3.4028235e+38,3.4028235e+38,3.4028235e+38,3.4028235e+38,3.4028235e+38,3.4028235e+38,3.4028235e+38,3.4028235e+38,3.4028235e+38,3.4028235e+38,3.4028235e+38,3.4028235e+38,3.4028235e+38,3.4028235e+38,3.4028235e+38,3.4028235e+38,3.4028235e+38,3.4028235e+38,3.4028235e+38,3.4028235e+38,3.4028235e+38,3.4028235e+38,3.4028235e+38,3.4028235e+38,3.4028235e+38,3.4028235e+38,3.4028235e+38,3.4028235e+38,3.4028235e+38,3.4028235e+38,3.4028235e+38,3.4028235e+38,3.4028235e+38,3.4028235e+38,3.4028235e+38,3.4028235e+38,3.4028235e+38,3.4028235e+38,3.4028235e+38,3.4028235e+38,3.4028235e+38,3.4028235e+38,3.4028235e+38,3.4028235e+38,3.4028235e+38,3.4028235e+38,3.4028235e+38,3.4028235e+38,3.4028235e+38,3.4028235e+38,3.4028235e+38,3.4028235e+38,3.4028235e+38,3.4028235e+38,3.4028235e+38,3.4028235e+38,3.4028235e+38,3.4028235e+38,3.4028235e+38,3.4028235e+38,3.4028235e+38,3.4028235e+38,3.4028235e+38,3.4028235e+38,3.4028235e+38,3.4028235e+38,3.4028235e+38,3.4028235e+38,3.4028235e+38,3.4028235e+38,3.4028235e+38,3.4028235e+38,3.4028235e+38,3.4028235e+38,3.4028235e+38,3.4028235e+38,3.4028235e+38,3.4028235e+38,3.4028235e+38,3.4028235e+38,3.4028235e+38,3.4028235e+38,3.4028235e+38,3.4028235e+38,3.4028235e+38,3.4028235e+38,3.4028235e+38,3.4028235e+38,3.4028235e+38,3.4028235e+38,3.4028235e+38,3.4028235e+38,3.4028235e+38,3.4028235e+38,3.4028235e+38,3.4028235e+38,3.4028235e+38,3.4028235e+38,3.4028235e+38,3.4028235e+38,3.4028235e+38,3.4028235e+38,3.4028235e+38,3.4028235e+38,3.4028235e+38,3.4028235e+38,3.4028235e+38,3.4028235e+38,3.4028235e+38,3.4028235e+38,3.4028235e+38,3.4028235e+38,3.4028235e+38,3.4028235e+38,3.4028235e+38,3.4028235e+38,3.4028235e+38,3.4028235e+38,3.4028235e+38,3.4028235e+38,3.4028235e+38,3.4028235e+38,3.4028235e+38,3.4028235e+38,3.4028235e+38,3.4028235e+38,3.4028235e+38,3.4028235e+38,3.4028235e+38,3.4028235e+38,3.4028235e+38,3.4028235e+38,3.4028235e+38,3.4028235e+38,3.4028235e+38,3.4028235e+38,3.4028235e+38,3.4028235e+38,3.4028235e+38,3.4028235e+38,3.4028235e+38,3.4028235e+38,3.4028235e+38,3.4028235e+38,3.4028235e+38,3.4028235e+38,3.4028235e+38,3.4028235e+38,3.4028235e+38,3.4028235e+38,3.4028235e+38,3.4028235e+38,3.4028235e+38,3.4028235e+38,3.4028235e+38,3.4028235e+38,3.4028235e+38,3.4028235e+38,3.4028235e+38,3.4028235e+38,3.4028235e+38,3.4028235e+38,3.4028235e+38,3.4028235e+38,3.4028235e+38,3.4028235e+38,3.4028235e+38,3.4028235e+38,3.4028235e+38,3.4028235e+38,3.4028235e+38,3.4028235e+38,3.4028235e+38,3.4028235e+38,3.4028235e+38,3.4028235e+38,3.4028235e+38,3.4028235e+38,3.4028235e+38,3.4028235e+38,3.4028235e+38,3.4028235e+38,3.4028235e+38,3.4028235e+38,3.4028235e+38,3.4028235e+38,3.4028235e+38,3.4028235e+38,3.4028235e+38,3.4028235e+38,3.4028235e+38,3.4028235e+38,3.4028235e+38,3.4028235e+38,3.4028235e+38,3.4028235e+38,3.4028235e+38,3.4028235e+38,3.4028235e+38,3.4028235e+38,3.4028235e+38,3.4028235e+38,3.4028235e+38,3.4028235e+38,3.4028235e+38,3.4028235e+38,3.4028235e+38,3.4028235e+38,3.4028235e+38,3.4028235e+38,3.4028235e+38,3.4028235e+38,3.4028235e+38,3.4028235e+38,3.4028235e+38,3.4028235e+38,3.4028235e+38,3.4028235e+38,3.4028235e+38,3.4028235e+38,3.4028235e+38,3.4028235e+38,3.4028235e+38,3.4028235e+38,3.4028235e+38,3.4028235e+38,3.4028235e+38,3.4028235e+38,3.4028235e+38,3.4028235e+38,3.4028235e+38,3.4028235e+38,3.4028235e+38,3.4028235e+38,3.4028235e+38,3.4028235e+38,3.4028235e+38,3.4028235e+38,3.4028235e+38,3.4028235e+38,3.4028235e+38,3.4028235e+38,3.4028235e+38,3.4028235e+38,3.4028235e+38,3.4028235e+38,3.4028235e+38,3.4028235e+38,3.4028235e+38,3.4028235e+38,3.4028235e+38,3.4028235e+38,3.4028235e+38,3.4028235e+38,3.4028235e+38,3.4028235e+38,3.4028235e+38,3.4028235e+38,3.4028235e+38,3.4028235e+38,3.4028235e+38,3.4028235e+38,3.4028235e+38,3.4028235e+38,3.4028235e+38,3.4028235e+38,3.4028235e+38,3.4028235e+38,3.4028235e+38,3.4028235e+38,3.4028235e+38,3.4028235e+38,3.4028235e+38,3.4028235e+38,3.4028235e+38,3.4028235e+38,3.4028235e+38,3.4028235e+38,3.4028235e+38,3.4028235e+38,3.4028235e+38,3.4028235e+38,3.4028235e+38,3.4028235e+38,3.4028235e+38,3.4028235e+38,3.4028235e+38,3.4028235e+38,3.4028235e+38,3.4028235e+38,3.4028235e+38,3.4028235e+38,3.4028235e+38,3.4028235e+38,3.4028235e+38,3.4028235e+38,3.4028235e+38,3.4028235e+38,3.4028235e+38,3.4028235e+38,3.4028235e+38,3.4028235e+38,3.4028235e+38,3.4028235e+38,3.4028235e+38,3.4028235e+38,3.4028235e+38,3.4028235e+38,3.4028235e+38,3.4028235e+38,3.4028235e+38,3.4028235e+38,3.4028235e+38,3.4028235e+38,3.4028235e+38,3.4028235e+38,3.4028235e+38,3.4028235e+38,3.4028235e+38,3.4028235e+38,3.4028235e+38,3.4028235e+38,3.4028235e+38,3.4028235e+38,3.4028235e+38,3.4028235e+38,3.4028235e+38,3.4028235e+38,3.4028235e+38,3.4028235e+38,3.4028235e+38,3.4028235e+38,3.4028235e+38,3.4028235e+38,3.4028235e+38,3.4028235e+38,3.4028235e+38,3.4028235e+38,3.4028235e+38,3.4028235e+38,3.4028235e+38,3.4028235e+38,3.4028235e+38,3.4028235e+38,3.4028235e+38,3.4028235e+38,3.4028235e+38,3.4028235e+38,3.4028235e+38,3.4028235e+38,3.4028235e+38,3.4028235e+38,3.4028235e+38,3.4028235e+38,3.4028235e+38,3.4028235e+38,3.4028235e+38,3.4028235e+38,3.4028235e+38,3.4028235e+38,3.4028235e+38,3.4028235e+38,3.4028235e+38,3.4028235e+38,3.4028235e+38,3.4028235e+38,3.4028235e+38,3.4028235e+38,3.4028235e+38,3.4028235e+38,3.4028235e+38,3.4028235e+38,3.4028235e+38,3.4028235e+38,3.4028235e+38,3.4028235e+38,3.4028235e+38,3.4028235e+38,3.4028235e+38,3.4028235e+38,3.4028235e+38,3.4028235e+38,3.4028235e+38,3.4028235e+38,3.4028235e+38,3.4028235e+38,3.4028235e+38,3.4028235e+38,3.4028235e+38,3.4028235e+38,3.4028235e+38,3.4028235e+38,3.4028235e+38,3.4028235e+38,3.4028235e+38,3.4028235e+38,3.4028235e+38,3.4028235e+38,3.4028235e+38,3.4028235e+38,3.4028235e+38,3.4028235e+38,3.4028235e+38,3.4028235e+38,3.4028235e+38,3.4028235e+38,3.4028235e+38,3.4028235e+38,3.4028235e+38,3.4028235e+38,3.4028235e+38,3.4028235e+38,3.4028235e+38,3.4028235e+38,3.4028235e+38,3.4028235e+38,3.4028235e+38,3.4028235e+38,3.4028235e+38,3.4028235e+38,3.4028235e+38,3.4028235e+38,3.4028235e+38,3.4028235e+38,3.4028235e+38,3.4028235e+38,3.4028235e+38,3.4028235e+38,3.4028235e+38,3.4028235e+38,3.4028235e+38,3.4028235e+38,3.4028235e+38,3.4028235e+38,3.4028235e+38,3.4028235e+38,3.4028235e+38,3.4028235e+38,3.4028235e+38,3.4028235e+38,3.4028235e+38,3.4028235e+38,3.4028235e+38,3.4028235e+38,3.4028235e+38,3.4028235e+38,3.4028235e+38,3.4028235e+38,3.4028235e+38,3.4028235e+38,3.4028235e+38,3.4028235e+38,3.4028235e+38,3.4028235e+38,3.4028235e+38,3.4028235e+38,3.4028235e+38,3.4028235e+38,
0.0,0.0,0.0,0.0,0.0,0.0,0.0,0.0,0.0,0.0,0.0,0.0,0.0,0.0,0.0,0.0,0.0,0.0,0.0,0.0,0.0,0.0,0.0,0.0,0.0,0.0,0.0,0.0,0.0,0.0,0.0,0.0,0.0,0.0,0.0,0.0,0.0,0.0,0.0,0.0,0.0,0.0,0.0,0.0,0.0,0.0,0.0,0.0,0.0,0.0,0.0,0.0,0.0,0.0,0.0,0.0,0.0,0.0,0.0,0.0,0.0,0.0,0.0,0.0,0.0,0.0,0.0,0.0,0.0,0.0,0.0,0.0,0.0,0.0,0.0,0.0,0.0,0.0,0.0,0.0,0.0,0.0,0.0,0.0,0.0,0.0,0.0,0.0,0.0,0.0,0.0,0.0,0.0,0.0,0.0,0.0,0.0,0.0,0.0,0.0,0.0,0.0,0.0,0.0,0.0,0.0,0.0,0.0,0.0,0.0,0.0,0.0,0.0,0.0,0.0,0.0,0.0,0.0,0.0,0.0,0.0,0.0,0.0,0.0,0.0,0.0,0.0,0.0,0.0,0.0,0.0,0.0,0.0,0.0,0.0,0.0,0.0,0.0,0.0,0.0,0.0,0.0,0.0,0.0,0.0,0.0,0.0,0.0,0.0,0.0,0.0,0.0,0.0,0.0,0.0,0.0,0.0,0.0,0.0,0.0,0.0,0.0,0.0,0.0,0.0,0.0,0.0,0.0,0.0,0.0,0.0,0.0,0.0,0.0,0.0,0.0,0.0,0.0,0.0,0.0,0.0,0.0,0.0,0.0,0.0,0.0,0.0,0.0,0.0,0.0,0.0,0.0,0.0,0.0,0.0,0.0,0.0,0.0,0.0,0.0,0.0,0.0,0.0,0.0,0.0,0.0,0.0,0.0,0.0,0.0,0.0,0.0,0.0,0.0,0.0,0.0,0.0,0.0,0.0,0.0,0.0,0.0,0.0,0.0,0.0,0.0,0.0,0.0,0.0,0.0,0.0,0.0,0.0,0.0,0.0,0.0,0.0,0.0,0.0,0.0,0.0,0.0,0.0,0.0,0.0,0.0,0.0,0.0,0.0,0.0,0.0,0.0,0.0,0.0,0.0,0.0,0.0,0.0,0.0,0.0,0.0,0.0,0.0,0.0,0.0,0.0,0.0,0.0,0.0,0.0,0.0,0.0,0.0,0.0,0.0,0.0,0.0,0.0,0.0,0.0,0.0,0.0,0.0,0.0,0.0,0.0,0.0,0.0,0.0,0.0,0.0,0.0,0.0,0.0,0.0,0.0,0.0,0.0,0.0,0.0,0.0,0.0,0.0,0.0,0.0,0.0,0.0,0.0,0.0,0.0,0.0,0.0,0.0,0.0,0.0,0.0,0.0,0.0,0.0,0.0,0.0,0.0,0.0,0.0,0.0,0.0,0.0,0.0,0.0,0.0,0.0,0.0,0.0,0.0,0.0,0.0,0.0,0.0,0.0,0.0,0.0,0.0,0.0,0.0,0.0,0.0,0.0,0.0,0.0,0.0,0.0,0.0,0.0,0.0,0.0,0.0,0.0,0.0,0.0,0.0,0.0,0.0,0.0,0.0,0.0,0.0,0.0,0.0,0.0,0.0,0.0,0.0,0.0,0.0,0.0,0.0,0.0,0.0,0.0,0.0,0.0,0.0,0.0,0.0,0.0,0.0,0.0,0.0,0.0,0.0,0.0,0.0,0.0,0.0,0.0,0.0,0.0,0.0,0.0,0.0,0.0,0.0,0.0,0.0,0.0,0.0,0.0,0.0,0.0,0.0,0.0,0.0,0.0,0.0,0.0,0.0,0.0,0.0,0.0,0.0,0.0,0.0,0.0,0.0,0.0,0.0,0.0,0.0,0.0,0.0,0.0,0.0,0.0,0.0,0.0,0.0,0.0,0.0,0.0,0.0,0.0,0.0,0.0,0.0,0.0,0.0,0.0,0.0,0.0,0.0,0.0,0.0,0.0,0.0,0.0,0.0,0.0,0.0,0.0,0.0,0.0,0.0,0.0,0.0,0.0,0.0,0.0,0.0,0.0,0.0,0.0,0.0,0.0,0.0,0.0,0.0,0.0,0.0,0.0,0.0,0.0,0.0,0.0,0.0,0.0,0.0,0.0,0.0,0.0,0.0,0.0,0.0,0.0,0.0,0.0,0.0,0.0,0.0,0.0,0.0,0.0,0.0,0.0,0.0,0.0,0.0,0.0,0.0,0.0,0.0,0.0,0.0,0.0,0.0,0.0,0.0,0.0,0.0,0.0,0.0,0.0,0.0,0.0,0.0,0.0,0.0,0.0,0.0,0.0,0.0,0.0,0.0,0.0,0.0,0.0,0.0,0.0,0.0,0.0,0.0,0.0,0.0,0.0,0.0,0.0,0.0,0.0,0.0,0.0,0.0,0.0,0.0,0.0,0.0,0.0,0.0,0.0,0.0,0.0,0.0,0.0,0.0,0.0,0.0,0.0,0.0,0.0,0.0,0.0,0.0,0.0,0.0,0.0,0.0,0.0,0.0,0.0,0.0,0.0,0.0,0.0,0.0,0.0,0.0,0.0,0.0,0.0,0.0,0.0,0.0,0.0,0.0,0.0,0.0,0.0,0.0,0.0,0.0,0.0,0.0,0.0,0.0,0.0,0.0,0.0,0.0,0.0,0.0,0.0,0.0,0.0,0.0,0.0,0.0,0.0,0.0,0.0,0.0,0.0,0.0,0.0,0.0,0.0,0.0,0.0,0.0,0.0,0.0,0.0,0.0,0.0,0.0,0.0,0.0,0.0,0.0,0.0,0.0,0.0,0.0,0.0,0.0,0.0,0.0,0.0,0.0,0.0,0.0,0.0,0.0,0.0,0.0,0.0,0.0,0.0,0.0,0.0,0.0,0.0,0.0,0.0,0.0,0.0,0.0,0.0,0.0,0.0,0.0,0.0,0.0,0.0,0.0,0.0,0.0,0.0,0.0,0.0,0.0,0.0,0.0,0.0,0.0,0.0,0.0,0.0,0.0,0.0,0.0,0.0,0.0,0.0,0.0,0.0,0.0,0.0,0.0,0.0,0.0,0.0,0.0,0.0,0.0,0.0,0.0,0.0,0.0,0.0,0.0,0.0,0.0,0.0,0.0,0.0,0.0,0.0,0.0,0.0,0.0,0.0,0.0,0.0,0.0,0.0,0.0,0.0,0.0,0.0,0.0,0.0,0.0,0.0,0.0,0.0,0.0,0.0,0.0,0.0,0.0,0.0,0.0,0.0,0.0,0.0,0.0,0.0,0.0,0.0,0.0,0.0,0.0,0.0,0.0,0.0,0.0,0.0,0.0,0.0,0.0,0.0,0.0,0.0,0.0,0.0,0.0,0.0,0.0,0.0,0.0,0.0,0.0,0.0,0.0,0.0,0.0,0.0,0.0,0.0,0.0,0.0,0.0,0.0,0.0,0.0,0.0,0.0,
1.0,1.0,1.0,1.0,1.0,1.0,1.0,1.0,1.0,1.0,1.0,1.0,1.0,1.0,1.0,1.0,1.0,1.0,1.0,1.0,1.0,1.0,1.0,1.0,1.0,1.0,1.0,1.0,1.0,1.0,1.0,1.0,1.0,1.0,1.0,1.0,1.0,1.0,1.0,1.0,1.0,1.0,1.0,1.0,1.0,1.0,1.0,1.0,1.0,1.0,1.0,1.0,1.0,1.0,1.0,1.0,1.0,1.0,1.0,1.0,1.0,1.0,1.0,1.0,1.0,1.0,1.0,1.0,1.0,1.0,1.0,1.0,1.0,1.0,1.0,1.0,1.0,1.0,1.0,1.0,1.0,1.0,1.0,1.0,1.0,1.0,1.0,1.0,1.0,1.0,1.0,1.0,1.0,1.0,1.0,1.0,1.0,1.0,1.0,1.0,1.0,1.0,1.0,1.0,1.0,1.0,1.0,1.0,1.0,1.0,1.0,1.0,1.0,1.0,1.0,1.0,1.0,1.0,1.0,1.0,1.0,1.0,1.0,1.0,1.0,1.0,1.0,1.0,1.0,1.0,1.0,1.0,1.0,1.0,1.0,1.0,1.0,1.0,1.0,1.0,1.0,1.0,1.0,1.0,1.0,1.0,1.0,1.0,1.0,1.0,1.0,1.0,1.0,1.0,1.0,1.0,1.0,1.0,1.0,1.0,1.0,1.0,1.0,1.0,1.0,1.0,1.0,1.0,1.0,1.0,1.0,1.0,1.0,1.0,1.0,1.0,1.0,1.0,1.0,1.0,1.0,1.0,1.0,1.0,1.0,1.0,1.0,1.0,1.0,1.0,1.0,1.0,1.0,1.0,1.0,1.0,1.0,1.0,1.0,1.0,1.0,1.0,1.0,1.0,1.0,1.0,1.0,1.0,1.0,1.0,1.0,1.0,1.0,1.0,1.0,1.0,1.0,1.0,1.0,1.0,1.0,1.0,1.0,1.0,1.0,1.0,1.0,1.0,1.0,1.0,1.0,1.0,1.0,1.0,1.0,1.0,1.0,1.0,1.0,1.0,1.0,1.0,1.0,1.0,1.0,1.0,1.0,1.0,1.0,1.0,1.0,1.0,1.0,1.0,1.0,1.0,1.0,1.0,1.0,1.0,1.0,1.0,1.0,1.0,1.0,1.0,1.0,1.0,1.0,1.0,1.0,1.0,1.0,1.0,1.0,1.0,1.0,1.0,1.0,1.0,1.0,1.0,1.0,1.0,1.0,1.0,1.0,1.0,1.0,1.0,1.0,1.0,1.0,1.0,1.0,1.0,1.0,1.0,1.0,1.0,1.0,1.0,1.0,1.0,1.0,1.0,1.0,1.0,1.0,1.0,1.0,1.0,1.0,1.0,1.0,1.0,1.0,1.0,1.0,1.0,1.0,1.0,1.0,1.0,1.0,1.0,1.0,1.0,1.0,1.0,1.0,1.0,1.0,1.0,1.0,1.0,1.0,1.0,1.0,1.0,1.0,1.0,1.0,1.0,1.0,1.0,1.0,1.0,1.0,1.0,1.0,1.0,1.0,1.0,1.0,1.0,1.0,1.0,1.0,1.0,1.0,1.0,1.0,1.0,1.0,1.0,1.0,1.0,1.0,1.0,1.0,1.0,1.0,1.0,1.0,1.0,1.0,1.0,1.0,1.0,1.0,1.0,1.0,1.0,1.0,1.0,1.0,1.0,1.0,1.0,1.0,1.0,1.0,1.0,1.0,1.0,1.0,1.0,1.0,1.0,1.0,1.0,1.0,1.0,1.0,1.0,1.0,1.0,1.0,1.0,1.0,1.0,1.0,1.0,1.0,1.0,1.0,1.0,1.0,1.0,1.0,1.0,1.0,1.0,1.0,1.0,1.0,1.0,1.0,1.0,1.0,1.0,1.0,1.0,1.0,1.0,1.0,1.0,1.0,1.0,1.0,1.0,1.0,1.0,1.0,1.0,1.0,1.0,1.0,1.0,1.0,1.0,1.0,1.0,1.0,1.0,1.0,1.0,1.0,1.0,1.0,1.0,1.0,1.0,1.0,1.0,1.0,1.0,1.0,1.0,1.0,1.0,1.0,1.0,1.0,1.0,1.0,1.0,1.0,1.0,1.0,1.0,1.0,1.0,1.0,1.0,1.0,1.0,1.0,1.0,1.0,1.0,1.0,1.0,1.0,1.0,1.0,1.0,1.0,1.0,1.0,1.0,1.0,1.0,1.0,1.0,1.0,1.0,1.0,1.0,1.0,1.0,1.0,1.0,1.0,1.0,1.0,1.0,1.0,1.0,1.0,1.0,1.0,1.0,1.0,1.0,1.0,1.0,1.0,1.0,1.0,1.0,1.0,1.0,1.0,1.0,1.0,1.0,1.0,1.0,1.0,1.0,1.0,1.0,1.0,1.0,1.0,1.0,1.0,1.0,1.0,1.0,1.0,1.0,1.0,1.0,1.0,1.0,1.0,1.0,1.0,1.0,1.0,1.0,1.0,1.0,1.0,1.0,1.0,1.0,1.0,1.0,1.0,1.0,1.0,1.0,1.0,1.0,1.0,1.0,1.0,1.0,1.0,1.0,1.0,1.0,1.0,1.0,1.0,1.0,1.0,1.0,1.0,1.0,1.0,1.0,1.0,1.0,1.0,1.0,1.0,1.0,1.0,1.0,1.0,1.0,1.0,1.0,1.0,1.0,1.0,1.0,1.0,1.0,1.0,1.0,1.0,1.0,1.0,1.0,1.0,1.0,1.0,1.0,1.0,1.0,1.0,1.0,1.0,1.0,1.0,1.0,1.0,1.0,1.0,1.0,1.0,1.0,1.0,1.0,1.0,1.0,1.0,1.0,1.0,1.0,1.0,1.0,1.0,1.0,1.0,1.0,1.0,1.0,1.0,1.0,1.0,1.0,1.0,1.0,1.0,1.0,1.0,1.0,1.0,1.0,1.0,1.0,1.0,1.0,1.0,1.0,1.0,1.0,1.0,1.0,1.0,1.0,1.0,1.0,1.0,1.0,1.0,1.0,1.0,1.0,1.0,1.0,1.0,1.0,1.0,1.0,1.0,1.0,1.0,1.0,1.0,1.0,1.0,1.0,1.0,1.0,1.0,1.0,1.0,1.0,1.0,1.0,1.0,1.0,1.0,1.0,1.0,1.0,1.0,1.0,1.0,1.0,1.0,1.0,1.0,1.0,1.0,1.0,1.0,1.0,1.0,1.0,1.0,1.0,1.0,1.0,1.0,1.0,1.0,1.0,1.0,1.0,1.0,1.0,1.0,1.0,1.0,1.0,1.0,1.0,1.0,1.0,1.0,1.0,1.0,1.0,1.0,1.0,1.0,1.0,1.0,1.0,1.0,1.0,1.0,1.0,1.0,1.0,1.0,1.0,1.0,1.0,1.0,1.0,1.0,1.0,1.0,1.0,1.0,1.0,1.0,1.0,1.0,1.0,1.0,1.0,1.0,1.0,1.0,
8.60732e-03,-1.03447e-02,1.45013e-02,1.86398e-02,2.01484e-02,-7.49844e-03,-1.89272e-02,3.50854e-02,-3.43487e-02,2.26927e-02,-1.23503e-03,-3.10240e-02,-4.84661e-02,8.16695e-02,1.60522e-01,1.41466e-01,-3.39861e-02,1.99343e-02,3.47917e-02,7.95586e-04,-3.08991e-02,1.59358e-02,5.47504e-03,-2.06135e-03,3.13874e-02,2.37233e-02,2.01596e-02,2.26627e-02,2.87145e-02,-2.26187e-03,-2.39052e-02,-2.31995e-02,5.15690e-03,1.27695e-02,-4.20898e-02,1.81044e-02,5.95842e-02,5.16064e-02,1.58708e-01,2.91214e-02,-1.49822e-01,1.79857e-01,2.03081e-01,2.23853e-01,2.45993e-01,3.71998e-01,4.84308e-02,-6.23330e-02,-2.15975e-02,-1.47577e-02,-2.18667e-02,-1.36968e-02,-2.83127e-02,-2.40503e-02,1.78621e-03,2.77567e-02,-3.13401e-02,-8.92455e-03,1.33356e-02,-4.94816e-03,-3.10921e-02,-2.53369e-02,-5.10064e-02,5.00712e-02,-3.62485e-02,5.68390e-02,4.80563e-01,4.06814e-01,-1.38161e-01,7.50207e-02,4.01280e-01,5.41138e-01,7.59592e-01,4.20013e-01,8.58843e-02,1.22664e-01,2.87641e-01,2.94452e-02,-3.38608e-02,-2.96983e-01,-2.28976e-01,9.14697e-03,6.42225e-03,-3.28271e-02,1.25556e-02,1.33972e-02,3.05815e-01,4.77630e-02,-3.53697e-02,-2.76632e-01,5.80450e-01,8.67632e-01,6.21302e-01,4.14312e-01,-1.82400e-01,4.11669e-02,2.33668e-01,1.23992e-01,3.78687e-02,2.39270e-01,3.73790e-01,3.05927e-01,8.60938e-02,2.07223e-01,-4.32697e-03,-1.14068e-01,8.25297e-02,-5.70520e-01,-5.70122e-01,-5.35799e-01,-1.18426e-01,7.33248e-03,3.14611e-02,-9.96772e-03,4.10487e-01,2.37245e-01,1.83154e-01,4.45418e-01,3.69332e-01,2.21897e-01,4.52884e-02,4.50893e-01,5.83594e-01,2.80160e-01,2.47024e-01,-5.97992e-03,-4.78133e-02,-4.65981e-02,1.07828e-01,-9.99803e-02,1.54893e-01,1.39572e-01,2.48987e-01,9.09155e-02,-6.95688e-03,-2.42117e-01,-3.65426e-01,-4.21682e-01,-3.41256e-01,-3.50453e-01,-4.13533e-04,2.52160e-02,4.29108e-01,-1.05668e-01,-6.79895e-01,-6.77348e-01,-3.34995e-01,-1.35386e-01,-2.01942e-04,6.77251e-03,-2.31359e-03,2.13589e-01,3.99215e-01,1.93965e-01,-2.70005e-02,-9.25069e-02,2.17494e-01,4.62739e-02,5.30681e-02,6.79425e-02,4.15722e-01,1.13623e-01,1.25851e-01,3.90429e-01,-1.37085e-01,-9.94070e-01,-3.23997e-01,-3.26381e-01,-6.89218e-03,1.52016e-01,5.81674e-01,-3.45665e-01,-2.70530e-01,-4.09611e-01,-1.26401e-01,1.85637e-02,-2.19863e-03,-7.18566e-02,5.06453e-01,1.69303e-01,4.39494e-01,3.50068e-01,4.02262e-01,4.55841e-01,3.57153e-01,8.92936e-02,1.39307e-01,3.05846e-01,1.09215e-01,6.23105e-02,4.37305e-01,1.77416e-01,1.39874e-01,-9.22721e-01,-1.81588e-01,-1.20004e-01,1.27641e-02,9.58718e-01,5.42668e-01,-3.10030e-01,2.67145e-02,-5.61127e-01,-4.05100e-02,1.11915e-01,7.13623e-02,1.61167e-01,1.34118e-01,1.88383e-01,-7.75500e-02,2.07062e-01,5.41277e-01,4.97264e-01,3.18542e-01,2.17870e-02,1.19404e-01,5.76085e-02,-6.64640e-02,-4.15803e-02,-1.18767e-01,-1.79089e-02,-2.49096e-01,-6.31984e-01,-1.15445e-01,-1.19608e-01,1.77425e-02,1.07719e-01,-9.05661e-01,-3.90856e-01,1.75842e-01,1.43942e-01,-3.69156e-01,-1.70511e-02,2.58203e-03,-1.67102e-02,3.29285e-01,2.51770e-01,2.81680e-01,8.54868e-02,2.88671e-01,1.43322e-02,3.40575e-02,4.97743e-02,-2.07479e-03,8.83060e-02,-2.41830e-01,7.57681e-02,2.47245e-01,-1.48109e-01,-6.94972e-01,-6.50318e-01,-2.17114e-01,4.05462e-01,1.37227e-02,5.13606e-02,-9.52840e-02,-7.20201e-02,2.20445e-01,1.96447e-01,-1.17354e-01,2.39756e-01,-1.33685e-01,-1.66982e-01,9.25892e-03,-2.85002e-01,-1.52802e-01,-6.53642e-01,-6.11145e-01,-4.20130e-01,-4.39354e-01,-5.42629e-02,1.24748e-01,5.53244e-02,3.94099e-02,-1.60962e-01,2.24461e-01,4.21749e-01,-9.45271e-01,1.20275e-01,2.02880e-01,5.94442e-01,-9.73244e-03,-3.41064e-03,3.44791e-01,-1.53327e-01,9.04516e-02,-1.86831e-01,1.46159e-02,-8.47814e-02,-1.60307e-01,-7.68516e-01,-7.43262e-01,-1.40855e+00,-1.19885e+00,-1.54997e+00,-6.92941e-01,-6.95313e-01,-1.58033e-01,-1.11388e-02,1.00768e-01,-5.12728e-02,-2.07879e-01,3.93192e-02,3.19806e-01,5.89322e-02,-3.74058e-01,6.66840e-01,3.45652e-01,6.02444e-01,-9.15861e-03,-9.74686e-02,-6.31754e-01,-5.70676e-01,-8.94611e-02,-7.70259e-01,-6.38950e-01,-6.86904e-01,-6.75029e-01,-8.86801e-01,-9.26006e-01,-1.11118e+00,-6.79865e-01,-3.42627e-01,-8.60832e-02,-2.20704e-01,1.82946e-01,2.30471e-01,-1.21697e-01,1.67635e-02,-9.99432e-02,-3.10208e-02,3.76131e-01,1.97442e-01,1.27115e-01,-6.49645e-03,-4.17090e-01,-1.38986e-01,2.65746e-02,-1.70107e-01,-6.02314e-01,-8.84564e-01,-3.68777e-01,-5.79492e-01,-8.79701e-01,-8.22813e-01,-7.30256e-01,-6.25267e-01,-1.34055e-01,5.62731e-02,2.75918e-01,2.03662e-01,2.34634e-01,1.76267e-01,2.18025e-01,6.04659e-02,-1.49858e-01,-7.96155e-03,-1.03799e-02,-2.67113e-01,-1.75237e-01,-1.34171e-02,-4.69925e-03,-2.77583e-01,-1.45895e-01,-1.15271e-01,2.43193e-02,-1.49166e-01,-1.64968e-01,-5.27718e-01,-2.08952e-01,-7.47167e-02,-4.83351e-01,-1.51872e-01,-2.30787e-01,1.43708e-01,2.14717e-01,3.35227e-01,2.88148e-01,4.13197e-01,1.14550e-01,8.80348e-02,1.42794e-01,-1.34180e-01,-5.64995e-02,1.80880e-01,4.96522e-02,4.99732e-02,-1.52006e-01,-3.94227e-01,-2.87057e-01,-2.16611e-01,1.93744e-01,6.19807e-02,1.00041e-02,-1.74015e-01,-3.10390e-01,9.75230e-02,1.87600e-02,2.23683e-01,8.58285e-02,4.38308e-01,3.57098e-01,4.06416e-01,7.90302e-02,5.34564e-02,2.72311e-02,2.61062e-01,1.45479e-01,4.98534e-02,6.68685e-04,-6.79297e-02,1.67793e-01,-7.91196e-02,5.82238e-02,6.83234e-03,1.64769e-01,-2.41128e-01,-1.57054e-01,1.87389e-01,3.85653e-01,2.36240e-01,3.83927e-02,-6.45851e-02,-3.49598e-01,3.11730e-01,3.33260e-02,7.38101e-01,3.28537e-01,2.36678e-01,1.02747e-01,3.81925e-03,2.90503e-02,1.97576e-01,-5.02093e-02,1.10608e-01,-6.53088e-02,1.77914e-02,2.01852e-01,3.39598e-02,1.36466e-01,-2.47316e-01,-2.65716e-01,3.62332e-02,-2.93835e-01,-2.31423e-01,1.91142e-01,1.90491e-01,2.54366e-01,1.96949e-01,-1.11400e-02,1.12575e-01,4.60054e-01,5.48615e-01,3.59733e-01,4.69368e-01,3.02092e-01,1.49222e-01,-1.31729e-01,-8.58734e-02,-4.86151e-02,5.90230e-02,-4.39219e-02,-4.08903e-02,1.84452e-01,7.09325e-02,7.63368e-03,1.86572e-01,-1.79588e-02,-3.11578e-01,-2.18068e-01,1.71948e-01,-2.96443e-01,-4.07590e-01,5.99945e-01,2.60658e-02,-8.91511e-02,1.51360e-01,-2.96604e-02,3.80149e-02,4.39481e-01,-7.48487e-02,2.52111e-01,3.44245e-01,3.06625e-02,2.14172e-01,-2.78304e-02,-5.87833e-02,-2.08719e-01,-2.98771e-01,-1.53007e-01,1.20312e-01,3.65349e-01,3.15978e-01,-1.69638e-02,-1.37061e-01,-9.34241e-02,-1.18328e-01,3.39735e-02,1.63989e-02,-1.04022e-01,-1.96705e-01,4.86768e-01,1.45487e-01,-1.46077e-01,2.60376e-01,-3.78899e-02,7.75179e-02,3.53883e-01,-2.67231e-01,-9.90826e-02,3.08852e-01,-2.07203e-01,1.65921e-02,3.59916e-02,1.74607e-01,1.30996e-01,-2.78556e-01,-3.64713e-01,1.33220e-01,1.86155e-01,-1.00655e-01,1.43016e-01,-4.00809e-02,-1.80368e-01,-1.83405e-02,1.77106e-01,-4.21324e-02,-5.27005e-02,6.00927e-02,1.18628e-01,1.15364e+00,5.42635e-01,-3.46072e-01,-1.63157e-02,8.63013e-02,1.25900e-01,-1.30371e-01,-2.20404e-01,1.59255e-01,-4.65809e-02,2.98052e-03,-1.92274e-01,-2.32544e-01,-4.58289e-02,2.27161e-02,-2.40580e-01,3.19917e-01,9.44124e-02,-2.83164e-01,-9.28027e-02,1.94098e-01,7.46515e-03,4.29253e-03,1.78372e-01,1.24245e-01,-1.92926e-02,6.15666e-02,-9.79585e-02,8.10973e-01,3.36866e-01,-4.27086e-01,3.17627e-02,1.14554e-02,-3.88753e-02,3.37878e-01,1.29918e-01,2.72260e-01,4.02824e-02,7.80612e-02,-8.98633e-02,-2.88143e-01,-5.47601e-02,-1.24630e-02,2.03537e-02,-1.19455e-01,1.21004e-01,6.63194e-02,9.12002e-02,3.04993e-02,-6.77185e-02,-6.00599e-02,-2.22056e-01,4.36746e-02,-1.97815e-02,9.56273e-02,-2.69814e-01,-3.58996e-01,1.10131e+00,-3.83045e-02,-2.61465e-02,1.14790e-01,4.28470e-01,1.59621e-01,-1.07782e-01,-5.91446e-02,-3.84871e-01,-1.21249e-02,9.11337e-02,-5.02778e-01,1.19438e-01,4.04431e-02,-8.41399e-02,-7.29563e-02,1.81426e-01,1.21547e-02,1.53316e-01,1.68245e-01,-2.10058e-02,-2.24138e-01,-2.45374e-01,3.36882e-02,-2.95922e-01,-1.11736e-01,-5.12675e-01,-1.15844e-01,1.23060e+00,-5.02736e-02,-8.55962e-03,3.79396e-02,7.00618e-01,3.17673e-01,6.71213e-02,2.27920e-01,-3.90948e-01,-7.12659e-02,3.74799e-02,-2.01709e-02,-1.15722e-01,8.70821e-02,-1.68327e-01,-2.12855e-02,1.73514e-01,-1.97928e-01,-2.90295e-02,3.19547e-01,-4.21135e-02,8.72585e-02,1.96002e-01,1.32529e-02,-3.13472e-01,8.33431e-02,4.24996e-02,-1.11231e-01,-2.26759e-01,-5.65944e-02,1.26196e-02,-1.76311e-02,5.78681e-01,5.40865e-01,2.98521e-02,1.13456e-01,-2.96757e-01,-1.33565e-01,-6.91689e-04,-4.70637e-02,-3.20805e-01,9.60921e-02,-2.15114e-01,9.57173e-02,1.55243e-02,-2.76390e-03,-4.38108e-02,-1.93353e-01,1.67663e-02,1.15239e-03,1.71508e-01,-5.06367e-02,1.64582e-01,6.01326e-01,-2.97380e-02,-3.11798e-01,-1.73309e-01,-8.34345e-03,-7.13172e-03,3.42160e-02,-2.98860e-01,2.33260e-01,6.82067e-01,6.10453e-01,2.15572e-01,1.39383e-01,1.60552e-01,1.53134e-01,-1.78179e-02,2.49453e-01,3.70347e-02,-5.97895e-02,-6.58456e-02,-7.22361e-02,-3.81855e-01,3.86354e-01,1.85812e-01,-1.18734e-01,-2.29055e-01,2.10455e-01,7.00116e-02,5.54640e-01,6.40375e-01,-1.84009e-01,9.62041e-02,3.05894e-03,-1.28688e-02,1.50318e-03,-2.08881e-01,5.65172e-01,2.89438e-01,-3.64885e-02,2.90807e-03,-2.60455e-01,-2.89207e-02,4.55418e-01,3.07608e-01,-1.36465e-02,-1.63350e-01,-1.47560e-03,-3.66729e-01,8.68720e-02,1.71013e-02,1.68350e-01,4.25180e-01,1.39072e-01,3.58094e-01,2.86463e-01,-1.42516e-01,1.55865e-02,-3.25406e-01,-1.90097e-01,7.49972e-02,1.75691e-03,-2.03512e-04,6.72076e-03,-6.09817e-03,-1.87321e-02,5.82071e-03,3.05699e-01,6.33446e-01,4.38870e-01,-5.46281e-01,4.84457e-01,3.96600e-01,-4.50655e-01,-2.59969e-01,7.18274e-02,1.92279e-01,9.25821e-03,-4.47758e-01,-1.49106e-01,6.28360e-01,6.83911e-01,9.60167e-01,4.29512e-01,8.11706e-01,7.68412e-02,-1.66603e-02,-6.03288e-03,2.48602e-02,1.00372e-02,1.38451e-02,5.58662e-03,-8.91469e-03,2.31951e-02,-3.55252e-02,1.58769e-02,-2.03805e-02,1.96354e-02,1.94688e-02,-8.06135e-03,1.56594e-02,3.58092e-02,1.43429e-02,4.47070e-02,2.24976e-02,2.43784e-02,5.03470e-02,3.08717e-02,4.89147e-02,-1.84868e-02,-2.30476e-02,3.74097e-02,1.02768e-02,3.47687e-02,-4.82621e-03,-2.34590e-02,2.67343e-02,-1.57600e-02,
4.36040e-03,-3.33723e-02,-2.16331e-02,2.65500e-02,-4.57820e-03,2.32078e-02,1.94508e-02,3.42412e-02,3.14180e-03,1.15072e-03,-1.09822e-02,-3.30672e-02,8.48814e-02,-4.99912e-02,-5.81884e-02,-4.43536e-03,1.44274e-02,-1.66183e-02,-1.25009e-02,-3.12028e-02,-1.59522e-03,3.27896e-02,-7.58071e-03,2.81339e-02,-2.07197e-02,1.29126e-03,1.00932e-02,-1.62592e-02,-6.91966e-03,-3.07340e-02,1.31204e-02,-1.89590e-02,3.99979e-02,5.64663e-02,1.08864e-01,1.37153e-01,2.18589e-01,1.82198e-01,3.34969e-01,3.11763e-01,4.37347e-01,2.92388e-01,3.64529e-01,5.32929e-01,3.25526e-01,2.02074e-01,4.12805e-01,1.93569e-01,1.48462e-01,1.10057e-01,1.04822e-01,6.65867e-02,-2.36438e-03,2.29951e-02,-3.37986e-03,-5.06508e-03,-5.34387e-03,2.24600e-02,1.36706e-01,4.79055e-02,1.50165e-01,1.09169e-01,1.45544e-01,2.70692e-01,2.17014e-01,-7.91542e-02,2.59242e-01,4.66408e-01,1.33290e-01,-6.30118e-02,-8.50590e-02,-3.17717e-01,-1.19586e-01,-2.46791e-01,-1.94886e-01,1.93459e-01,3.65832e-01,1.51135e-01,1.08409e-01,-4.13696e-01,-3.22678e-01,2.48898e-02,-2.57737e-02,-6.93528e-03,-7.41955e-03,3.15748e-02,2.68485e-01,-4.64843e-01,-4.71872e-01,2.67363e-01,4.95441e-01,6.70125e-01,6.17576e-01,1.12673e-01,-1.63158e-01,-2.23427e-01,-4.15533e-01,-1.68989e-01,2.98485e-01,2.63124e-01,2.80809e-01,3.33035e-01,3.11337e-01,3.65584e-01,3.51861e-01,8.81799e-02,3.93090e-01,6.33683e-01,3.23288e-01,2.73879e-01,1.39865e-01,-1.69228e-02,1.53791e-02,2.00016e-02,4.22605e-01,-3.55023e-01,2.14954e-01,6.31439e-01,3.10709e-01,4.97071e-01,7.64172e-01,1.60238e-01,8.47355e-02,-8.06859e-02,-4.88490e-02,-6.42871e-03,-1.64443e-02,-3.94522e-02,-3.42399e-02,1.18098e-02,3.01163e-02,5.21393e-01,2.39759e-01,2.38765e-01,9.86727e-02,-2.23649e-01,3.39977e-01,2.37934e-01,2.92361e-01,5.94980e-01,-2.59096e-02,3.19672e-02,1.34206e-01,-1.89201e-01,9.16610e-01,3.27442e-01,3.20638e-01,8.58357e-01,2.38485e-01,-9.03268e-02,-3.93280e-01,-3.51898e-01,-3.90852e-02,-2.04961e-01,1.14193e-01,-4.17022e-02,-3.13436e-01,-8.62466e-02,8.28231e-02,4.76566e-01,2.82987e-01,1.82794e-01,1.18821e-01,-2.01918e-01,7.24827e-02,2.98766e-01,3.69384e-01,6.32635e-01,1.31888e-02,7.16025e-02,6.49515e-03,3.11522e-01,2.94950e-01,5.66452e-01,6.53939e-01,6.99849e-01,3.42418e-01,1.29791e-01,-1.78297e-01,-5.09964e-02,-2.12279e-02,-4.88891e-02,-1.87260e-01,-8.97851e-02,-3.68465e-01,1.96462e-02,-1.08760e-01,3.20212e-01,3.94722e-01,-1.10085e-01,9.73404e-02,3.33451e-01,-3.27546e-01,2.85811e-01,2.88895e-01,1.91077e-01,3.57078e-02,3.29658e-01,1.46018e-02,3.07117e-01,6.32262e-01,4.93996e-01,4.86097e-01,2.58593e-01,5.29371e-02,-4.22390e-02,-2.04880e-01,-1.16447e-01,1.69333e-01,5.64497e-03,2.60642e-02,-1.21405e-01,-2.17034e-01,-8.42546e-02,1.15582e-01,1.14218e-01,2.62663e-01,-1.43038e-01,1.22407e-01,1.98473e-01,1.03970e-01,3.87457e-01,-1.86977e-01,-2.73117e-02,-7.95416e-02,-3.99517e-01,-1.56654e-01,2.74979e-01,3.15173e-01,1.76442e-01,2.68129e-01,-5.66940e-02,-3.00138e-01,-1.96955e-01,-1.26794e-01,-2.00711e-02,2.67434e-01,5.97363e-02,-4.02169e-02,-2.33943e-01,-3.95115e-01,-2.12767e-01,5.63099e-02,2.72100e-01,1.54394e-01,2.15457e-01,5.37820e-01,-2.65474e-01,-4.53739e-01,2.48633e-01,2.97539e-01,1.92489e-01,1.36787e-01,-4.77088e-01,3.93621e-01,4.70826e-01,-1.52605e-01,-1.69095e-01,-6.06447e-02,-1.59853e-01,-5.47941e-02,-9.15681e-02,-1.08031e-01,7.93879e-02,-9.71483e-02,-1.73054e-01,-2.77668e-01,-2.57147e-01,-2.73209e-01,-7.86866e-02,1.63550e-01,5.93522e-01,3.27878e-01,2.64880e-01,2.43122e-01,-7.95286e-02,-6.96419e-01,-7.61621e-02,2.35434e-01,-4.19865e-01,1.24627e-01,-4.56149e-03,2.63934e-01,7.36716e-01,2.84325e-01,-1.36735e-01,-1.59103e-01,-3.62797e-01,1.79184e-01,-2.77362e-01,-1.16314e-01,9.35634e-03,-1.79089e-01,-9.44505e-02,-5.72730e-02,-1.90442e-01,-1.58569e-01,2.60573e-01,5.96082e-01,6.07391e-01,3.74523e-01,-7.68095e-02,1.10781e-01,5.36199e-02,-7.31383e-01,-7.73429e-01,-3.00409e-01,-4.09775e-01,1.50212e-01,4.97247e-01,-3.38700e-01,6.33598e-01,3.09259e-01,3.61897e-02,-8.91169e-02,-6.12431e-01,-3.71617e-01,4.11794e-02,-2.55164e-01,-1.39793e-01,-1.32832e-01,3.23950e-04,1.88593e-01,3.50141e-03,1.53488e-01,4.74022e-01,6.62406e-01,6.04871e-01,4.20584e-01,-8.62431e-02,-1.85733e-01,7.62219e-02,-2.21364e-01,-8.91556e-01,-1.20130e-01,1.74316e-01,5.68184e-02,1.76840e-01,-3.56393e-01,-9.51053e-02,-1.40850e-01,3.19206e-01,2.28650e-02,-5.59094e-01,-5.53055e-01,-2.46283e-01,-4.24094e-01,-4.89672e-02,-1.12311e-02,2.54205e-01,4.89464e-01,1.18440e-01,1.24381e-01,2.84825e-01,1.38061e-01,1.42225e-01,-1.80422e-01,-4.64958e-01,-3.48950e-01,3.62626e-01,6.61222e-02,8.28069e-03,-5.13948e-01,1.43181e-01,8.31515e-02,3.82070e-02,-2.93231e-01,-2.31179e-02,-4.26298e-01,-2.09173e-01,6.35592e-02,-1.30051e-01,-6.02515e-02,-1.55069e-01,-3.25820e-01,-3.26842e-03,-1.79824e-01,9.34092e-02,1.72271e-01,2.00116e-01,7.80901e-02,-1.59659e-01,-1.99145e-02,-5.17301e-01,-3.96261e-01,-7.69693e-01,-3.04542e-01,1.86427e-01,-1.76808e-01,-3.00220e-01,-3.04219e-01,2.57485e-02,1.76634e-03,1.59710e-01,-1.17425e-01,-2.41849e-01,-4.14410e-01,-1.22554e-01,-3.14764e-01,-3.52810e-01,-1.82548e-01,-1.00648e-01,1.37705e-01,1.88403e-01,2.60302e-01,3.78148e-01,2.37390e-01,8.50154e-02,-4.10633e-02,-5.56866e-02,-3.96488e-01,-5.77694e-01,-7.16279e-02,-5.55559e-02,-2.96123e-01,-1.23594e-01,-1.49512e-01,-4.56646e-01,-1.49129e-01,4.85792e-04,1.84643e-01,2.71974e-01,7.06495e-01,-5.27672e-01,-1.88557e-01,-1.04272e-01,-4.85069e-01,-2.49636e-01,-2.14981e-01,-1.56744e-01,2.22704e-01,5.61953e-02,5.07379e-02,2.21080e-01,5.02083e-01,-5.35758e-02,-2.01991e-02,-2.87926e-01,-1.96292e-01,1.76431e-01,1.63718e-01,1.54632e-01,-4.59083e-02,1.59636e-01,6.26335e-02,9.65161e-02,3.32735e-01,-2.74963e-02,3.21365e-01,3.62915e-01,7.12474e-01,-1.67840e-01,-1.33585e-01,9.45381e-02,-1.16288e-01,-2.14407e-01,-1.80863e-01,1.64872e-01,7.01312e-02,2.26253e-01,2.55158e-01,9.93593e-02,4.32676e-01,-1.62793e-01,-1.29277e-01,-1.70226e-01,4.44948e-01,2.27555e-01,7.69840e-03,2.80551e-01,-1.25854e-02,-4.69812e-01,-6.65812e-02,-2.96680e-01,1.84016e-01,-3.73046e-01,-5.22320e-03,2.09491e-01,5.32714e-01,-1.79890e-01,-1.19360e-01,1.96898e-02,-3.60966e-01,9.99887e-02,-5.15582e-01,-2.90616e-01,5.81367e-02,1.78269e-01,-1.59898e-02,-1.04928e-01,8.59689e-02,-4.29330e-01,6.70744e-02,2.29697e-01,2.46835e-01,3.35068e-01,1.60451e-01,5.43371e-01,-7.81745e-02,-4.96148e-01,-6.39228e-01,-4.99708e-01,-8.75316e-02,-5.35072e-01,-6.92914e-01,5.90993e-02,3.12261e-01,4.23648e-01,4.50604e-02,-4.51057e-01,-2.09085e-01,-1.10129e-01,-1.49651e-01,9.96552e-02,1.34233e-01,-5.09915e-02,-3.14581e-01,-1.50526e-01,1.01621e-01,1.51114e-02,-9.15765e-02,-6.02241e-02,9.87347e-02,3.69042e-01,3.88201e-01,3.00304e-01,-3.76288e-01,-5.01568e-01,-3.13314e-01,-1.74377e-02,-2.92334e-02,4.06288e-01,5.78496e-02,-4.07720e-01,-2.85778e-01,3.15934e-01,5.00540e-03,-1.25059e-01,6.85840e-02,1.40441e-01,-2.29848e-01,1.75371e-01,1.13481e-01,-4.14416e-01,-5.16474e-01,-1.31014e-01,2.76283e-01,1.23141e-01,7.40893e-02,-6.88037e-02,-1.75875e-02,2.33736e-01,2.15286e-01,1.95448e-01,-3.03550e-01,-2.89012e-01,-3.41775e-01,2.93973e-01,-4.83610e-03,3.51311e-01,1.65849e-02,2.57923e-01,-2.59828e-01,3.29018e-02,5.49756e-01,-1.93137e-01,3.42927e-02,2.70088e-01,-6.85463e-02,-2.02515e-01,8.53579e-02,-5.98914e-02,7.36108e-02,7.07303e-02,2.70292e-01,1.22380e-01,1.19476e-01,-1.56886e-01,7.60490e-02,5.25509e-02,3.20738e-01,2.16290e-01,-6.16044e-02,-3.28658e-01,-5.41215e-01,-8.33254e-01,5.70941e-02,4.77687e-02,1.02914e-02,1.23321e-01,5.16631e-01,-2.40337e-02,7.49319e-02,-2.01885e-01,2.65492e-01,4.71867e-01,1.70896e-01,-1.69588e-01,2.23071e-02,-2.46922e-02,-1.04948e-01,-4.81228e-02,3.86083e-02,-1.70394e-01,-2.79050e-01,-6.50377e-02,1.04672e-02,-9.98191e-02,1.77145e-01,1.23306e-01,8.19417e-02,-4.09310e-01,-4.81879e-01,-6.16712e-01,-6.42624e-02,-6.99348e-02,5.05183e-02,1.25314e-01,6.01931e-02,1.69043e-01,-3.12408e-02,-1.73120e-01,-1.74918e-01,-7.50332e-02,-8.45882e-02,-3.23214e-01,-3.30259e-01,9.13632e-02,8.80709e-02,8.20640e-02,-1.22113e-01,-8.89286e-02,8.83439e-02,3.49191e-01,2.29276e-01,1.31033e-01,3.02492e-01,2.53253e-01,2.59071e-01,-5.82528e-02,-6.36402e-01,-6.36260e-03,5.78065e-02,-1.44288e-01,7.26909e-04,-1.76183e-02,5.54431e-01,1.81795e-01,-1.87451e-01,-1.53336e-01,-3.89141e-01,2.13016e-01,-5.31762e-02,-1.36542e-01,-2.37373e-01,-1.08689e-01,9.54353e-03,2.20887e-01,1.32104e-01,4.06962e-01,3.94793e-01,5.19609e-01,3.72424e-01,8.67333e-02,1.89652e-01,3.33548e-01,1.45161e-02,-1.40845e-01,-3.58153e-02,-2.00208e-01,1.16884e-01,-1.66350e-02,1.89521e-02,2.91626e-02,3.18599e-01,7.75078e-01,-8.47523e-02,-1.85320e-01,-2.24516e-01,-2.95950e-01,-1.43389e-01,6.99371e-02,-7.43357e-02,-9.58229e-02,1.30839e-02,-1.05479e-01,3.24120e-02,-1.46265e-02,5.59863e-01,2.36638e-01,-7.92816e-02,-7.26141e-02,-1.82872e-01,-4.06640e-01,-3.70185e-02,-1.01921e-02,-5.82804e-01,-7.56124e-02,5.74369e-02,-3.54673e-03,-1.72966e-02,-1.25444e-02,-3.07873e-02,-5.16365e-01,3.03379e-01,2.34299e-01,2.09202e-01,1.42134e-01,7.27527e-02,2.91502e-01,-8.16801e-02,-4.38774e-01,-5.84329e-03,4.19271e-01,3.13213e-01,-2.94572e-02,-6.57908e-02,-3.88335e-01,7.85074e-02,2.37093e-01,-2.86640e-01,-2.39044e-01,-2.63200e-01,-5.66390e-02,-4.37664e-01,-2.40047e-01,-4.11181e-02,3.13606e-05,-1.24246e-02,-1.24166e-02,-3.39654e-02,-7.79695e-02,-5.81570e-01,-9.71829e-01,-8.29712e-01,-1.55410e-01,3.03638e-01,-2.76113e-01,-6.94688e-01,-7.13945e-01,-5.49808e-01,-4.97435e-01,-5.06803e-01,-9.45802e-01,-4.44617e-01,-2.65252e-01,5.07246e-02,-2.41664e-01,-3.22081e-01,3.48915e-01,-1.60366e-01,-1.01246e-01,1.87486e-02,2.67086e-02,1.11203e-02,-2.95051e-02,3.23023e-02,-7.11290e-03,-1.86357e-02,-1.13378e-02,9.17254e-02,8.73276e-03,2.80362e-02,5.34749e-03,7.87404e-02,1.96795e-01,-8.66404e-01,-5.36671e-01,-3.11832e-01,2.81301e-01,-1.09701e-01,5.48506e-02,-2.71634e-01,-4.10574e-01,-2.54561e-01,-1.04047e-01,2.10762e-01,1.28873e-01,1.26395e-01,3.98872e-02,1.60334e-02,1.25153e-02,-2.41846e-02,8.57515e-04,
-1.46388e-02,-2.57863e-02,-3.55977e-02,-8.86126e-03,2.53340e-02,-6.43842e-03,-4.96120e-03,1.08044e-02,-1.55943e-02,-2.20654e-02,-3.56168e-02,2.60014e-02,1.13770e-03,7.19912e-03,4.36400e-03,-1.33402e-02,-2.59660e-02,-1.91192e-02,-1.69942e-02,2.03849e-02,6.88016e-03,-2.27027e-02,-3.33314e-02,-3.46790e-02,-3.04540e-02,1.29572e-02,-1.84745e-02,-2.59104e-02,-2.39293e-02,1.43310e-02,2.99076e-02,1.08899e-02,1.61687e-02,-4.77370e-03,1.88466e-02,-8.47316e-03,1.85155e-02,1.76962e-02,-4.71997e-01,-5.36160e-01,-4.93741e-01,3.90097e-03,2.46522e-01,5.75368e-01,5.87204e-01,4.02265e-01,-8.00110e-02,2.32345e-01,1.41960e-01,-4.94287e-02,3.51029e-03,-2.52297e-02,-1.64417e-02,-2.14021e-02,2.58192e-02,-3.21217e-02,-2.08830e-02,-7.74423e-03,-2.44741e-03,3.84406e-02,6.77368e-03,-6.37635e-02,1.10362e-01,4.19931e-02,-6.27961e-02,-3.59199e-01,-4.56221e-01,7.81401e-02,-3.41982e-02,-1.35728e-01,-3.69482e-01,-4.07669e-01,2.08847e-01,4.00458e-01,2.57997e-01,1.24965e-01,2.08567e-01,-5.15205e-01,-2.97297e-01,-4.24903e-01,-3.18352e-01,2.84146e-02,2.59114e-03,3.44328e-04,-6.50311e-03,-2.19990e-02,3.29127e-01,2.59730e-02,-9.33805e-03,1.21105e-02,-1.54899e-01,-8.10390e-01,-3.03764e-01,-6.04808e-01,-8.42968e-01,-1.07709e+00,-2.53116e-01,-8.14968e-01,-3.08537e-01,-3.12729e-01,-1.23957e-01,4.59804e-01,8.51428e-01,3.32272e-01,8.07385e-01,4.42008e-02,-3.29405e-01,-2.71620e-01,-3.73913e-01,3.74017e-02,8.46597e-01,-5.55377e-03,2.09874e-02,3.45637e-02,5.54843e-01,9.65447e-02,-8.05183e-01,-9.20985e-02,-1.03888e-01,-5.84780e-01,1.03921e-01,-1.51368e-01,-1.83970e-01,1.72428e-01,1.53461e-01,2.77096e-01,4.15847e-01,4.35831e-01,3.06035e-01,5.37430e-01,3.73490e-01,-2.84331e-02,-5.83716e-02,-2.19674e-01,4.61431e-02,-1.32145e-01,-2.53728e-01,-1.14312e-01,2.81566e-01,-5.28547e-01,3.10217e-02,2.27902e-02,4.70504e-01,1.41329e-02,-8.05103e-01,-4.26994e-01,-4.54253e-01,-5.99159e-01,-5.29390e-01,-1.71148e-01,2.19299e-01,1.74146e-01,-2.48567e-01,-3.07864e-01,-5.72473e-01,-3.25019e-01,-3.37033e-01,-4.64154e-02,9.13758e-03,3.86021e-01,3.89771e-01,7.45454e-03,-1.01774e-02,-3.89586e-01,-2.87125e-01,6.22811e-03,3.62222e-01,-5.58034e-01,-1.54338e-04,1.10726e-02,7.47528e-02,-4.14892e-01,-7.84404e-02,-1.09950e+00,-3.18104e-01,-5.15934e-01,-2.40056e-01,5.09620e-02,8.62142e-02,-3.25361e-02,-4.30203e-01,-2.64765e-01,-2.26508e-01,-3.20074e-02,-3.23543e-02,2.26055e-01,2.66861e-01,6.05616e-02,4.29215e-01,1.79714e-01,-1.11606e-01,8.76347e-02,1.90604e-01,2.89068e-01,9.08805e-02,-3.78462e-02,2.13989e-02,-3.36818e-01,-1.46973e-01,-5.03534e-01,3.87348e-01,7.31745e-02,-1.62456e-01,-6.79695e-01,-2.21248e-01,-4.03750e-01,-4.23996e-01,-1.33792e-01,-1.02284e-02,3.75387e-02,1.07780e-01,5.08484e-01,5.21058e-01,2.66861e-01,3.77007e-01,2.71498e-01,4.39556e-01,1.61923e-01,2.00635e-01,1.44975e-01,-4.19508e-02,-1.06781e-02,6.17233e-02,-1.43500e-01,4.01101e-01,-3.28686e-01,-1.20532e+00,3.68005e-02,7.35403e-01,8.17241e-01,5.62332e-01,-3.90240e-01,-5.89076e-01,-4.63388e-01,-4.00536e-01,2.72835e-03,1.07592e-01,3.92429e-02,5.39588e-02,1.00928e-01,1.73930e-01,1.93117e-01,1.50869e-01,1.76952e-01,4.19057e-01,3.02895e-01,1.88141e-01,2.24779e-01,2.09500e-01,-2.01762e-02,3.67458e-01,3.30104e-01,-2.05242e-01,-2.57239e-01,2.38974e-01,1.91766e-01,3.86075e-01,7.62162e-02,-1.29335e-01,-7.46858e-01,-2.02728e-01,-1.03758e-01,1.04822e-02,2.56703e-02,-8.99446e-02,2.00314e-01,8.90655e-02,1.53949e-01,-1.28077e-02,-6.64434e-02,-1.00199e-01,1.27054e-01,2.83465e-01,2.16359e-01,2.66467e-01,3.49487e-01,2.50754e-01,1.19466e+00,3.91839e-01,-7.71056e-01,-2.67126e-01,-2.84751e-01,3.21388e-01,3.15723e-01,-4.51614e-01,-9.34377e-01,-6.00367e-01,-1.30854e-01,-1.76981e-01,-8.21293e-02,1.77346e-01,1.98536e-01,2.93887e-01,2.07342e-01,7.30157e-02,-1.01406e-01,-1.32204e-01,-2.60513e-01,-9.39452e-02,-2.14628e-01,3.27610e-02,2.75869e-02,8.28032e-02,4.94361e-01,3.89580e-01,1.42009e-01,2.79276e-01,-5.07082e-01,-6.48959e-02,-4.96356e-01,9.34186e-02,-2.39304e-01,-1.74702e-01,-3.77300e-01,-2.56979e-01,1.58865e-01,-4.08236e-01,-2.42737e-01,1.19894e-01,1.79965e-01,-1.25723e-02,1.92038e-01,2.01470e-01,-3.54875e-02,-1.80911e-01,-5.47109e-02,8.74857e-02,-2.18138e-01,-1.20122e-01,-3.69603e-01,-2.93082e-01,3.31247e-01,4.30294e-02,4.58686e-01,8.97309e-01,1.50801e-01,-1.03645e-01,-3.65290e-01,-2.10341e-01,3.18063e-01,5.42741e-01,-8.66013e-02,-1.39860e-01,-7.92554e-02,-1.20998e-01,6.27509e-02,-1.46091e-01,-1.85601e-01,-3.69052e-01,-8.67244e-02,5.43594e-01,-1.02464e-02,-1.23747e-01,1.75373e-01,6.15054e-02,-5.36564e-02,-2.72839e-01,-1.28925e-01,-2.04865e-01,2.07868e-01,-2.02104e-01,-2.68701e-02,2.78928e-01,-2.20783e-01,4.53058e-02,-1.65684e-01,-7.05199e-01,9.68500e-02,2.56299e-01,4.18631e-02,-4.02539e-01,-1.14417e-01,8.02094e-02,-1.64641e-01,-2.05593e-01,-1.31033e-01,-2.93248e-01,-7.45994e-02,3.15585e-01,1.21813e-01,-4.10307e-02,-3.19999e-02,-3.58691e-02,5.70416e-02,-5.05126e-01,-3.32015e-01,-4.56767e-01,-3.99223e-01,-2.72953e-01,-1.35200e-01,2.47631e-01,2.14070e-01,7.80003e-02,-9.83849e-02,-2.00602e-01,-6.30946e-01,2.55772e-01,-1.58392e-01,-2.27856e-01,-2.18031e-01,-2.68866e-01,-5.95180e-02,3.66848e-02,-6.87241e-02,-3.59540e-02,1.89150e-01,1.92491e-01,1.38797e-01,-4.24055e-02,-1.37551e-01,-1.41831e-01,-1.51033e-01,-3.02092e-01,-2.79011e-01,-3.78256e-01,-3.15042e-01,-2.13706e-01,2.24842e-01,-4.27157e-01,-5.37042e-02,-3.50199e-02,1.36618e-01,-2.01255e-01,-9.06608e-01,-5.33806e-02,4.87945e-01,1.53582e-01,-2.53307e-02,-1.14404e-02,1.90077e-03,1.16715e-01,-8.05674e-02,1.00408e-01,5.64014e-02,-6.80782e-02,-1.84252e-01,-2.02715e-02,-3.23032e-01,-3.59825e-03,-1.41588e-01,-2.43762e-01,-9.03219e-01,-5.69298e-01,-6.32532e-01,-1.46524e-01,2.13276e-02,-1.89874e-01,-4.99389e-02,-1.34852e-01,1.65785e-01,-1.18648e-03,-1.74389e-01,1.08220e-01,4.53647e-01,-2.39508e-02,-1.45763e-01,-2.55262e-02,6.55083e-02,2.33928e-01,1.30424e-01,4.36505e-04,-1.65994e-01,-1.53587e-01,-2.10337e-01,-7.53763e-02,-2.57738e-01,-3.30717e-01,-4.26628e-01,-5.72842e-01,-1.02696e+00,-5.92149e-01,-5.20074e-01,9.49129e-01,5.13802e-02,-6.04349e-01,-6.44140e-02,-1.15958e-02,1.55580e-01,-3.49474e-01,1.51780e-02,-3.11631e-01,-1.30864e-01,-2.57158e-01,1.83034e-01,1.21182e-01,-2.08944e-01,-1.51800e-01,7.09969e-02,-1.26274e-01,-3.40346e-01,-9.70509e-02,-9.80152e-02,4.15510e-02,5.11415e-01,3.31429e-02,-2.62548e-01,-4.23481e-01,-7.72774e-01,-5.51004e-01,-5.00931e-01,5.29731e-01,3.15005e-01,2.71450e-01,-5.02659e-02,7.66302e-01,-4.23468e-04,-1.94186e-01,-3.67104e-01,1.79467e-02,-2.56018e-02,-2.07277e-01,2.23158e-04,1.76389e-01,3.16360e-02,9.71193e-02,1.21688e-01,-4.06672e-02,-2.94311e-01,-1.09958e-01,2.04436e-01,2.59334e-01,5.70770e-01,5.45277e-02,-5.00099e-01,-4.06296e-01,-1.34978e+00,-9.79619e-01,-4.54232e-01,-1.24969e-01,4.32681e-01,3.28092e-01,4.63165e-01,2.02915e-02,6.98511e-01,3.28828e-03,-3.07108e-01,-2.01899e-01,4.47778e-01,8.87403e-02,2.64262e-01,2.18307e-01,1.13341e-01,-6.93177e-02,-1.72617e-01,4.84534e-02,-2.49759e-02,8.62085e-02,2.36572e-01,3.64037e-01,5.80389e-01,2.86014e-01,2.32668e-02,-6.18965e-01,-1.39742e+00,-6.24906e-01,1.18364e-01,7.54276e-02,-1.68696e-01,1.27179e-01,4.08631e-01,9.06711e-03,-4.44196e-02,2.47682e-01,-1.97725e-01,2.05610e-01,3.67110e-01,2.04266e-01,9.46147e-02,3.96784e-02,1.10904e-01,1.43941e-01,7.70843e-02,2.51757e-03,-1.54283e-02,1.33441e-02,3.32686e-01,-2.16889e-02,3.89261e-01,1.68823e-01,-5.29817e-02,-8.13360e-01,-9.54773e-01,-2.64873e-01,1.36870e-01,-2.65012e-01,-1.51042e-01,1.43385e-01,4.09090e-02,3.99884e-02,-2.92012e-02,2.94507e-01,-2.70172e-01,9.76497e-02,-3.10580e-01,4.17647e-02,-1.20946e-02,-5.38504e-02,8.48984e-02,1.95336e-01,1.84815e-01,1.42517e-01,5.33784e-02,6.48904e-02,2.26029e-01,-6.16144e-02,1.70780e-01,-2.24323e-02,1.95741e-01,-2.38389e-01,-8.36804e-01,-5.58975e-01,2.66551e-01,-4.22282e-01,3.68472e-01,7.77995e-01,2.11376e-02,5.09983e-02,-2.76201e-02,-4.19880e-01,2.66080e-01,-1.79865e-01,-4.89848e-02,-5.10943e-02,-2.83197e-02,-2.01646e-01,8.45337e-02,1.04250e-02,1.86472e-01,3.28619e-01,1.52936e-01,1.44985e-01,-6.73431e-03,-2.02241e-01,-4.55200e-01,-3.88467e-01,-1.27051e-01,-7.40843e-01,-5.01756e-01,-3.50679e-01,1.17812e-01,4.71956e-02,5.37557e-01,6.83729e-01,-2.29105e-02,-3.72208e-03,3.13692e-02,2.68787e-01,1.62747e-01,5.10747e-01,-8.30379e-02,-8.35352e-02,-1.59607e-01,-5.25398e-02,-4.76967e-02,1.05904e-01,3.02697e-01,2.08391e-01,2.41421e-01,-2.08183e-01,-1.64796e-01,-1.16152e-01,-3.00995e-01,-2.90620e-01,-2.16557e-01,-4.28050e-01,-1.00867e-03,-5.07345e-01,-7.95957e-02,-4.74001e-02,3.47641e-02,-2.53704e-01,-2.61575e-02,2.62672e-02,-1.85739e-02,2.61896e-01,4.75520e-01,-8.93675e-02,-1.12643e-01,-1.32687e-01,-4.35027e-01,-2.55042e-02,4.63128e-03,2.85183e-01,2.82355e-01,3.74650e-01,-1.33115e-02,-2.93276e-01,-1.30262e-01,-1.99624e-01,-3.01855e-01,-2.99712e-01,1.93392e-01,-5.96502e-01,-7.28227e-01,-6.47844e-01,-5.27359e-01,-5.99966e-01,-1.62740e-01,2.85072e-02,-3.49972e-02,2.53540e-02,3.29747e-03,2.96100e-02,-8.50379e-01,-7.66426e-01,-3.59265e-01,1.71346e-01,1.27693e-01,2.95404e-01,3.42022e-01,1.39329e-01,1.72935e-01,2.88244e-02,4.60662e-02,1.68525e-01,4.45635e-02,7.31034e-01,3.36579e-01,2.92981e-01,1.15930e+00,1.64157e-01,5.16503e-01,6.59682e-01,3.58418e-01,-3.12972e-01,6.48912e-02,5.93368e-02,-1.58763e-03,-2.55133e-02,2.86841e-02,1.86181e-02,6.39569e-01,2.87339e-01,2.74576e-01,-8.00184e-03,1.88855e-01,4.70147e-01,3.72436e-01,2.05139e-01,4.91824e-01,2.57142e-01,-1.31754e-02,2.44371e-01,6.14466e-01,7.84064e-01,1.49027e-01,1.70722e-01,-1.10080e-01,-8.58572e-02,6.30637e-01,-1.29409e-01,4.80517e-01,2.94970e-02,-6.91760e-02,-1.15520e-02,-3.09238e-02,-2.80079e-02,2.44888e-02,2.08957e-02,-2.54558e-02,-1.80862e-01,-5.41777e-01,-5.82106e-01,-4.36625e-01,1.57709e-01,2.25564e-01,1.87688e-01,3.72868e-01,7.79594e-01,8.47508e-01,1.77471e+00,9.72594e-01,8.09340e-01,8.62895e-01,1.12458e+00,2.90649e-01,-3.25346e-02,7.34541e-04,-2.76769e-02,-3.67476e-02,1.55214e-02,-3.21658e-02,1.27654e-02,-1.38432e-03,
2.85970e-02,-2.61635e-02,1.92436e-02,-3.09718e-02,1.04677e-02,3.36425e-02,-2.34310e-02,2.16141e-02,1.82138e-02,-3.29381e-02,4.14457e-03,-8.32285e-03,7.85971e-02,2.43723e-02,7.02547e-04,-5.19607e-03,3.43542e-02,7.00304e-03,2.34058e-02,1.22843e-02,-1.40185e-02,-2.85426e-02,-2.93654e-02,2.05771e-02,-3.10158e-02,-3.05928e-02,-2.16690e-02,3.28818e-02,-8.52480e-03,1.05084e-02,-6.53840e-03,1.26474e-02,4.39374e-02,3.61055e-02,4.78105e-02,9.00701e-02,6.93365e-02,1.25716e-01,2.65958e-01,1.19723e-01,1.64329e-01,8.31335e-02,-2.60183e-01,-3.10764e-01,-4.58343e-01,-1.27782e-01,1.88789e-01,3.05373e-02,-7.60507e-03,-4.78066e-02,6.10882e-03,6.54154e-02,4.09961e-03,-2.43903e-02,-2.79914e-02,1.01425e-02,-2.21404e-02,-1.17850e-02,8.58461e-02,4.34979e-02,5.77289e-02,5.50802e-02,4.55270e-02,-5.24902e-02,-9.97086e-02,-2.64683e-01,-2.02625e-01,-1.46638e-01,7.61169e-01,1.92453e-01,-3.64534e-01,-5.68636e-01,-6.55435e-01,-4.50173e-01,-4.11406e-01,2.09103e-01,-1.05612e-02,-7.28796e-02,2.12628e-01,-2.09748e-02,-2.91531e-01,-5.04890e-02,1.57675e-02,2.59815e-02,1.02648e-02,2.12289e-02,-2.08328e-01,1.44488e-01,2.14391e-01,-3.21724e-01,2.63428e-01,4.94038e-01,-6.08184e-01,-5.63068e-01,4.25382e-01,6.01552e-01,4.84801e-01,-1.15773e-01,-2.30335e-01,-4.70845e-01,-6.71762e-01,-4.60842e-01,2.18069e-03,3.16253e-01,7.07700e-02,-1.34028e-02,-1.73748e-01,-1.36607e-01,-3.44118e-01,7.82103e-01,6.33962e-01,2.44196e-02,2.91836e-02,-3.41154e-02,-2.79343e-01,4.64346e-01,3.24370e-01,-1.00579e-01,1.40059e-01,-3.86300e-01,-4.54799e-01,-5.04195e-01,-2.05257e-01,4.49816e-02,-3.38109e-01,-3.47533e-01,-3.22843e-01,-5.12771e-01,-2.33039e-01,-1.20695e-01,-1.39259e-01,2.28841e-01,6.40084e-02,2.54573e-02,5.03955e-01,5.36229e-01,3.14013e-01,4.94483e-01,2.49602e-01,4.90931e-01,-1.55083e-02,1.70151e-03,8.76870e-02,3.00554e-01,-1.27529e-01,1.83765e-01,-3.17857e-02,-5.40763e-01,-3.88011e-01,-1.63273e-01,1.86090e-01,-2.36560e-01,1.39680e-01,-1.02339e-01,-1.18016e-01,-3.64270e-02,-4.00938e-01,-1.16488e-01,-4.13113e-01,-2.10300e-01,-7.61891e-03,-1.66726e-01,1.24526e-01,-1.14808e-01,2.65074e-02,-2.11880e-01,-1.43498e-01,4.81330e-01,-1.39283e-03,-8.10717e-02,-7.73560e-02,-2.04413e-01,-2.92147e-01,8.87713e-01,4.67481e-01,-3.09610e-01,9.40071e-02,-1.79994e-01,-1.97190e-01,1.73168e-01,2.07181e-01,-1.41853e-01,9.16322e-02,-1.39628e-01,-2.19739e-01,-1.31106e-01,-2.56303e-01,-2.70218e-01,1.10081e-01,-1.50790e-01,-2.44288e-02,3.59610e-01,-1.58471e-01,-7.86568e-01,1.28129e-01,-1.01215e-01,-2.91722e-04,-5.52984e-01,-5.16003e-02,5.57337e-02,-3.10416e-02,3.05652e-01,-3.15067e-01,-7.04626e-02,-2.17464e-01,-2.63891e-02,2.49516e-01,1.59217e-01,-1.91400e-02,-2.58565e-01,1.81815e-02,-3.18998e-01,-3.40724e-01,-1.93546e-01,-5.08342e-02,1.35859e-02,-1.67905e-01,-1.50462e-01,1.39930e-01,4.98387e-01,6.00523e-02,-8.85730e-02,5.30749e-01,-2.39709e-02,-1.24690e-02,-6.56156e-01,5.21904e-01,-2.01590e-01,1.19355e-02,-1.53985e-01,-2.89630e-02,-2.46893e-04,-3.04614e-01,8.82978e-03,-2.25114e-02,-8.54743e-02,-1.52889e-01,3.35381e-02,-2.24611e-01,-3.22145e-01,-4.52887e-01,-7.91852e-02,3.56611e-02,1.85615e-01,-7.30468e-02,5.60365e-02,-7.23610e-02,-5.61614e-02,1.68203e-01,4.66817e-01,-6.60466e-02,-1.82391e-01,-2.16561e-01,5.09903e-02,5.80895e-01,-4.26983e-01,-1.15613e-01,-4.51906e-01,3.15201e-01,4.39047e-01,5.84620e-02,1.05453e-01,-2.79016e-01,-2.66540e-01,-3.22569e-01,-1.22181e-01,-2.80831e-01,-2.68021e-01,1.66762e-01,1.01420e-01,2.19707e-01,4.35088e-01,-2.41070e-01,7.30170e-02,1.40206e-01,-1.07498e-02,4.47659e-01,5.30555e-01,-4.44034e-01,-7.03288e-01,-2.16297e-01,1.59421e-01,-3.09545e-01,-2.65084e-01,1.42893e-01,9.66161e-02,-1.38355e-01,-1.05303e-01,-1.08483e-01,-1.61987e-01,-4.72593e-01,-1.27643e-01,-8.39768e-02,-3.02511e-01,2.01744e-03,-3.11059e-03,8.89918e-02,1.09135e-01,2.02398e-01,2.96272e-01,2.50641e-01,1.74794e-01,2.97476e-01,5.44845e-01,4.85538e-01,1.54003e-01,-3.58484e-01,-6.86080e-01,-1.54948e-01,5.71692e-01,1.38688e-02,-7.18498e-01,-5.57892e-01,1.98266e-01,-7.28389e-02,-5.16409e-01,7.89076e-02,5.69754e-02,4.85942e-02,-1.41042e-01,1.01161e-01,1.66211e-01,-7.03538e-02,-2.59319e-01,-2.67733e-02,-3.29480e-02,8.07573e-02,2.31844e-01,1.92559e-01,2.52452e-01,1.10970e-02,4.99290e-01,2.79428e-01,-5.51456e-02,2.65638e-01,-7.60182e-01,2.38871e-02,-5.90827e-02,-1.74577e-01,-1.71279e-01,-3.13914e-02,1.68557e-01,-3.51971e-02,-5.08961e-01,2.53198e-01,1.85455e-01,2.73483e-01,2.96842e-01,3.68892e-01,7.95463e-01,1.40297e-01,-1.45847e-01,6.05819e-02,-9.22821e-02,-1.97235e-01,-9.52682e-02,3.64216e-01,1.46236e-01,-2.73863e-01,3.08511e-01,1.76535e-01,-2.63163e-01,-7.22442e-01,-9.48193e-01,7.67859e-02,-5.97272e-02,-4.53846e-01,-4.68417e-01,-7.72983e-01,-5.35473e-01,-2.65791e-01,-1.35214e-01,2.90018e-01,3.77870e-01,3.17079e-01,4.36830e-01,5.65900e-01,5.64169e-01,1.86187e-01,8.49313e-02,-1.56695e-01,3.90641e-02,-2.31966e-01,-5.87788e-02,5.01425e-01,2.80501e-02,-3.27414e-01,-8.10140e-02,-1.10153e-01,4.22232e-02,-3.56090e-01,-1.65184e-01,5.84613e-02,-5.72960e-03,4.80444e-01,-8.87372e-01,-7.70741e-01,-5.75481e-01,-5.78594e-01,-2.52269e-01,3.02081e-01,9.84177e-02,4.95716e-02,2.43640e-01,4.26572e-01,3.64069e-01,3.57157e-01,1.00391e-01,-3.01967e-02,-1.17915e-02,-4.60190e-01,-2.29607e-02,3.95986e-01,-5.09191e-02,-2.75364e-01,-4.18325e-01,-2.50157e-01,-6.69478e-02,-5.87138e-01,-2.40119e-01,5.76642e-02,2.43033e-02,5.28387e-01,-1.24056e-01,3.40032e-01,-3.36988e-01,-2.44901e-01,2.59008e-01,8.33567e-02,-1.67153e-01,-1.40603e-01,1.30221e-02,1.54804e-01,1.23169e-01,3.69420e-01,2.03175e-01,1.60179e-01,7.96367e-02,-1.81353e-01,-2.62826e-02,1.08941e-01,-2.59685e-02,-2.93902e-01,-3.51621e-01,-3.23301e-01,-6.31792e-01,-7.44079e-01,-4.39850e-02,-4.49014e-02,4.20096e-03,3.35720e-01,-6.01872e-02,6.19323e-01,1.87135e-01,-1.25326e-01,2.49051e-02,-3.00588e-01,-2.09552e-01,-1.45602e-01,-1.52195e-01,2.83078e-01,2.99556e-01,4.41073e-01,4.80472e-01,3.00895e-01,-1.45163e-01,-1.08446e-01,-2.40037e-01,-4.28244e-03,-2.95085e-01,-6.92090e-02,-2.29786e-01,-2.48664e-01,-4.62115e-01,-8.49547e-01,-2.00213e-01,-1.79027e-02,8.37909e-03,-4.48328e-01,-4.22519e-01,2.08013e-01,-6.24266e-02,-2.37303e-01,1.88771e-01,-3.58874e-02,-5.23009e-02,5.96337e-03,9.26219e-02,2.24910e-01,1.55263e-01,2.70495e-01,2.34922e-01,4.03094e-02,-1.24682e-01,8.05023e-02,-2.63130e-01,-1.76316e-01,-4.08913e-01,-1.04537e-01,-1.72633e-01,2.85705e-02,1.12332e-01,4.23685e-01,-5.39867e-01,-1.09089e+00,6.34941e-02,-4.43636e-01,-4.65039e-01,-4.64926e-02,-2.22742e-04,-3.15420e-01,-2.57117e-01,-1.09078e-01,1.09961e-01,-1.70837e-01,3.58992e-01,3.16312e-01,2.22551e-01,2.28867e-01,1.96947e-01,2.09776e-01,4.70423e-02,-4.56673e-02,-2.88858e-01,-4.89780e-01,-6.55377e-01,-5.63625e-01,-5.19020e-01,-2.32938e-01,1.20036e-01,3.38982e-01,3.68623e-01,1.15353e-01,-5.59810e-02,2.66163e-01,-3.34601e-01,-2.11218e-01,-8.00244e-02,-4.17259e-01,-2.10917e-01,-2.22659e-01,-5.48794e-02,-2.27837e-02,1.40880e-01,2.29052e-01,-7.29086e-02,6.73608e-02,9.44414e-02,2.57154e-01,1.39428e-01,1.36774e-01,-6.59333e-01,-4.66513e-01,-6.70756e-01,-7.20920e-01,-1.43874e-01,1.90979e-01,4.45900e-01,1.63693e-01,4.09239e-01,1.95325e-02,8.51444e-01,6.85016e-01,-7.11852e-01,-6.24454e-01,-3.27652e-01,-5.71534e-02,-1.62323e-01,-3.41711e-01,-2.92104e-01,-8.35854e-02,4.21946e-02,-8.59447e-02,-2.62491e-02,1.19889e-01,4.59700e-02,2.10831e-01,-1.30810e-01,-2.04414e-01,-3.88001e-01,-6.55631e-01,-4.71395e-01,-2.70573e-01,-2.38252e-02,-1.30183e-01,-1.57634e-01,2.92802e-01,6.56055e-02,4.95303e-02,-3.75488e-02,2.14711e-01,-2.62614e-01,-7.47871e-01,-2.32215e-01,1.13322e-01,5.18045e-02,-2.02418e-01,6.30908e-02,-4.78296e-02,1.20992e-01,-1.50507e-01,-8.18061e-03,3.72685e-02,3.24618e-02,-7.20308e-02,3.32868e-03,-4.18939e-02,-6.84969e-01,-9.60581e-01,-7.47632e-01,-3.27047e-01,3.05127e-01,1.95779e-01,1.51659e-01,-2.55006e-01,3.28200e-02,1.40603e-02,1.44174e-02,1.74730e-01,-2.20909e-01,-6.06949e-02,-6.09529e-03,2.12407e-01,9.92964e-02,2.64063e-01,-5.66004e-02,2.16398e-04,1.73207e-01,1.08872e-01,2.05898e-01,9.84972e-02,-1.08104e-02,-1.04924e-01,1.80404e-02,-3.29090e-02,-4.01238e-01,-7.79108e-01,-2.12152e-01,3.35923e-01,2.35721e-01,6.65866e-01,3.03116e-01,-2.70551e-03,-1.69026e-02,-2.21487e-02,3.38468e-02,7.36963e-02,-9.37483e-01,-1.85487e-01,-2.50553e-01,-4.17406e-02,1.94937e-01,4.81445e-01,1.59166e-01,-5.39722e-02,-3.27196e-02,1.21265e-02,1.29693e-01,7.31482e-02,-1.88674e-01,-4.11215e-01,-2.65122e-01,5.93519e-02,-3.53969e-01,-5.77349e-01,-2.84743e-01,3.37785e-01,-5.89373e-02,2.42438e-01,1.00982e-01,-4.81050e-02,6.21742e-03,1.66090e-02,1.40949e-02,6.14032e-01,-3.65173e-02,6.62207e-03,-4.48121e-02,-1.77039e-01,1.03244e-01,1.35532e-01,7.75017e-02,1.72091e-01,3.28240e-02,1.38017e-01,-8.36153e-02,1.97000e-01,-4.08291e-01,-4.65922e-01,-4.02546e-01,8.98678e-02,2.94630e-01,4.94412e-02,-1.83467e-02,2.82423e-01,3.76597e-01,-3.23323e-01,2.44961e-01,-5.55635e-02,3.37139e-02,-2.13857e-02,-2.79562e-03,3.45084e-02,1.43020e-01,-8.09302e-01,-5.52025e-01,-3.00737e-01,-1.09411e-01,3.66157e-02,1.14423e-01,-2.53067e-01,-3.01974e-01,2.11137e-01,-1.41814e-01,-3.37497e-01,-9.08917e-01,-5.03985e-01,-6.63718e-02,-4.06773e-02,1.83449e-01,-3.71494e-01,-7.27670e-01,9.60821e-02,4.66842e-01,2.81051e-01,1.41874e-01,-2.21105e-02,-3.37491e-02,1.80262e-02,2.15232e-03,2.77440e-02,-3.89637e-02,-4.38397e-01,-9.26560e-01,-8.34033e-01,-4.12994e-01,-1.46577e-01,-1.42220e-01,-6.06108e-01,-4.46044e-01,-4.05368e-01,-9.93250e-01,-4.44629e-01,-1.39902e-01,2.54411e-01,1.02199e-01,2.73769e-01,4.16754e-01,4.00249e-02,3.62226e-01,-2.41380e-01,-4.42727e-02,1.72329e-01,-6.12277e-02,-1.47959e-02,2.10921e-02,-8.37309e-03,1.30955e-02,-1.65049e-02,-2.78493e-02,3.33505e-02,-2.70463e-03,-1.47413e-01,-2.67679e-01,-9.81287e-02,2.40926e-02,-5.32355e-01,1.70829e-01,8.35149e-02,-1.86928e-01,-9.82397e-01,1.23056e-01,-4.15605e-01,3.64820e-02,6.28475e-01,3.10222e-02,1.55984e-01,-1.97436e-02,-1.27958e-02,2.45710e-02,1.84790e-02,-3.11323e-02,1.87537e-02,-3.28861e-02,
2.43850e-02,2.05779e-02,-2.08095e-02,1.16001e-02,2.71876e-02,-4.95797e-03,-9.56718e-04,-1.20321e-02,4.50472e-03,-8.07187e-04,-3.55159e-03,1.06136e-02,7.17149e-02,8.79475e-02,1.26795e-01,6.55558e-02,-3.25927e-02,6.39649e-03,1.60562e-02,-1.64202e-02,-7.12131e-03,-2.78648e-02,3.35760e-02,7.58249e-03,2.05619e-02,5.88877e-03,2.17251e-02,2.86455e-02,-1.89682e-03,-1.15421e-03,-2.01123e-02,-3.28952e-02,-1.12011e-02,-1.44309e-03,-4.14127e-02,-2.41161e-02,1.25278e-02,5.46042e-02,2.97261e-01,3.06422e-01,1.94565e-01,3.34391e-01,4.48482e-01,5.68431e-01,5.46209e-01,2.63495e-01,4.97318e-02,-3.27278e-02,-3.10951e-02,9.44606e-04,-3.52172e-02,-1.00502e-02,1.31557e-02,1.05790e-02,1.92350e-02,2.92920e-02,3.47055e-02,2.50012e-02,-3.33355e-02,2.16758e-02,-1.07774e-02,7.61919e-02,6.97959e-02,1.29795e-01,-3.57082e-02,-4.61232e-01,7.67601e-01,8.73553e-01,3.19208e-01,4.47457e-01,4.47469e-03,-3.80376e-01,-5.23521e-01,-5.40588e-01,-2.76965e-01,-5.15652e-01,-4.24020e-01,-5.44510e-01,-4.90108e-01,3.23282e-01,2.45436e-01,5.30867e-03,3.62123e-03,-1.86561e-02,-1.94868e-02,1.34236e-02,4.08881e-01,-6.20428e-01,-9.64441e-01,-8.96077e-02,4.94406e-01,6.79375e-01,1.04852e-02,-2.26061e-01,-4.71648e-01,5.54599e-02,2.66256e-01,2.40299e-01,2.70336e-01,3.04124e-01,1.97509e-01,-1.21811e-01,-3.95665e-01,-6.00054e-01,-6.78627e-01,-3.10967e-01,8.82589e-01,2.91694e-01,4.68855e-01,-8.97215e-02,-2.00429e-01,9.33133e-03,2.04738e-02,2.68322e-02,5.74112e-01,-6.53717e-01,2.15226e-01,1.06664e-01,1.23745e-01,2.45452e-01,9.20638e-04,9.12026e-02,1.86545e-01,2.42987e-01,2.24053e-01,-2.72092e-02,9.67669e-02,6.88429e-03,5.31803e-02,1.55412e-01,3.32861e-02,1.50285e-04,-2.13270e-01,-4.27075e-01,2.80694e-01,-2.04908e-01,-3.28671e-01,-8.95712e-01,3.28463e-02,-4.85348e-01,2.30947e-03,-2.16442e-02,4.42458e-01,-3.41202e-01,-1.08455e-02,6.27415e-01,3.85400e-01,-3.98640e-01,2.57269e-02,1.83151e-01,4.16761e-02,-4.48869e-02,-9.19148e-02,-2.25173e-01,1.94312e-01,2.83823e-01,2.74619e-01,-1.05118e-01,-1.53489e-01,-7.32063e-02,-5.05295e-03,-1.22856e-01,-7.65310e-02,-1.18255e-01,-1.59883e-01,-2.01102e-01,-2.51544e-01,-4.51477e-01,6.39536e-03,9.04139e-02,-3.81450e-01,8.18150e-01,1.64472e-01,2.43498e-01,5.09491e-02,-2.42270e-02,1.96236e-02,-1.59403e-01,-5.19683e-02,-7.86303e-02,2.01056e-01,5.80962e-03,2.29287e-01,1.17962e-01,1.68051e-01,3.57871e-01,1.79204e-01,1.10399e-01,1.75682e-01,1.34818e-01,-8.98798e-02,-1.99126e-01,-3.54725e-01,-2.39654e-01,5.88181e-03,3.22429e-01,-2.16725e-02,6.81609e-01,-3.44346e-01,4.36909e-01,7.70511e-02,-1.24991e-01,-1.89564e-01,-3.32090e-01,-4.09573e-01,-1.29919e-01,-1.20811e-01,-2.24411e-01,-1.23455e-01,-1.87167e-02,1.00810e-01,1.85322e-01,2.90126e-01,1.73931e-01,7.52707e-02,1.67566e-01,1.34461e-01,3.67885e-01,1.71326e-01,2.22922e-01,1.02401e-01,-3.54611e-01,-5.16336e-01,1.09017e-01,1.86026e-01,6.83367e-01,-8.17067e-01,6.56749e-02,-2.51605e-01,-1.31961e-01,-2.34250e-01,-3.58215e-01,-4.16562e-01,-1.75470e-01,-1.32504e-01,-3.05213e-01,-2.75579e-01,-3.86749e-01,2.82132e-01,3.87708e-01,4.59291e-01,2.76263e-01,3.01708e-02,1.07237e-01,6.09905e-02,2.54377e-01,5.51437e-01,-1.97728e-01,-3.04950e-01,-3.62591e-01,-5.28243e-01,-1.96431e-02,4.08917e-02,9.49494e-01,-2.98327e-01,2.22386e-01,-9.91070e-02,1.56430e-01,-1.01946e-01,-2.41209e-01,-8.26311e-02,6.37388e-02,-1.84979e-01,-2.88422e-01,-3.24353e-01,-6.04414e-01,-2.31932e-01,5.09421e-01,7.22637e-01,1.87752e-01,1.22205e-01,2.90289e-01,2.66935e-01,1.94362e-01,1.47858e-01,-4.44308e-01,-5.30245e-01,-6.03872e-01,-5.22238e-01,3.59126e-02,1.46392e-02,5.72182e-01,2.93968e-01,1.24625e-01,-9.23814e-02,-9.43530e-02,3.19584e-01,1.62286e-01,1.75588e-01,-1.61761e-01,-1.46513e-02,-3.14957e-01,-5.91931e-01,-7.10932e-01,-2.57774e-02,4.96182e-01,5.49558e-01,4.48835e-01,8.51585e-02,1.50156e-01,2.00080e-01,1.83767e-01,-3.05153e-01,-5.82357e-01,-7.18981e-01,-5.35347e-02,-1.65726e-01,4.94221e-01,3.54436e-02,1.64718e-01,-1.67788e-01,2.84567e-01,1.14191e-01,-6.58792e-03,5.65166e-01,4.40141e-01,5.11502e-02,-2.05693e-01,-2.52572e-01,-3.47575e-01,-5.00743e-01,-3.25516e-01,1.66436e-01,4.20376e-01,4.02625e-01,2.37110e-01,-6.95456e-03,-1.28511e-01,2.13376e-01,1.14841e-01,-1.04890e-01,-3.05010e-01,-5.78285e-01,-1.99851e-01,-1.25541e-01,4.19871e-01,-8.45613e-03,-1.93296e-02,8.51218e-01,-2.49719e-01,-4.02659e-01,2.21042e-01,3.87088e-01,1.83853e-01,5.09857e-02,-4.41587e-02,-1.14239e-01,-1.74795e-01,-1.49496e-01,-1.71418e-01,-8.66887e-02,1.00294e-01,1.68331e-01,1.49946e-01,1.03511e-01,-3.52452e-01,-5.02821e-02,1.90343e-01,-1.50410e-01,-3.25322e-01,-8.85236e-01,-1.53539e-01,-4.92245e-01,3.61129e-02,5.07531e-02,4.96730e-02,1.14252e+00,-3.22367e-01,-3.71228e-01,-3.34333e-02,-4.39783e-02,-3.33219e-01,-3.51169e-02,-2.44029e-01,-2.06629e-01,-1.71464e-01,-5.36509e-01,-2.21307e-01,1.15822e-01,7.78977e-02,2.02370e-01,-7.74119e-02,1.86048e-01,-3.68745e-01,4.28573e-02,2.34846e-01,2.91750e-01,-1.50878e-01,-5.46989e-01,-9.29657e-02,-3.77955e-01,4.88995e-02,1.71425e-02,1.79867e-02,4.49893e-01,-1.36242e-01,-7.71549e-02,3.25975e-01,-3.49045e-01,-3.61425e-01,-4.18129e-01,-1.85040e-01,-1.60919e-01,-2.30924e-01,-3.94113e-01,-2.73246e-01,1.66538e-01,2.10020e-01,1.86290e-01,-6.10159e-02,-2.07412e-02,-1.23337e-01,-2.41740e-01,3.94114e-01,9.63613e-02,-3.89790e-01,-9.30642e-01,-7.09294e-01,1.91318e-01,8.93360e-02,-1.90950e-02,-1.14988e-01,3.39462e-01,8.60045e-02,-1.41902e-01,-2.42000e-01,-5.90039e-01,-8.18101e-01,-2.09392e-01,-3.63954e-02,-6.12697e-02,-1.23907e-01,-2.75426e-01,-4.23653e-02,-1.41553e-02,2.76918e-01,1.65362e-01,-2.11514e-01,-3.30320e-01,-3.06166e-01,-2.99612e-01,2.57386e-01,-7.71814e-02,-3.50283e-01,-8.02312e-01,-6.53381e-01,7.82259e-02,9.85208e-01,3.48638e-02,1.42464e-01,7.53027e-01,2.39139e-02,-3.85452e-01,-6.53178e-02,-3.65919e-01,-2.59119e-01,-2.32013e-01,1.71594e-02,1.33189e-01,6.91950e-02,-1.25801e-01,1.23904e-01,-2.28177e-01,-4.11743e-03,8.56258e-02,-1.34057e-01,-3.48718e-01,-9.75874e-02,-1.95270e-01,6.21225e-02,-4.29677e-01,-4.44138e-01,-4.84836e-01,-4.32119e-01,3.34421e-01,1.05180e+00,-8.11955e-03,1.17137e-02,4.99354e-01,-4.09353e-01,-3.36960e-01,-1.15931e-01,5.29241e-02,-3.75451e-02,1.52470e-01,8.55774e-02,4.32575e-03,8.82768e-02,-6.52395e-02,-2.34101e-01,-3.72436e-01,-1.75960e-01,-1.04258e-01,-7.81847e-01,-1.64934e-01,1.92412e-02,-1.77147e-01,-1.57068e-01,-4.33579e-01,-3.93589e-01,2.07253e-01,1.07491e+00,1.04149e+00,4.32319e-01,8.30142e-01,8.77422e-02,2.62415e-01,2.33481e-01,-3.40647e-01,-5.78579e-02,-1.28892e-01,1.52564e-01,-7.76161e-02,-7.17456e-02,5.67980e-02,-8.10978e-02,6.67654e-02,-8.03864e-02,-4.86691e-01,-4.63930e-01,-1.72295e-01,-3.73915e-01,1.51198e-01,-2.51472e-02,2.61592e-01,1.74860e-01,1.08333e-01,4.27220e-02,-3.53247e-01,4.99994e-01,1.30247e+00,6.98484e-01,1.04748e-01,6.31410e-03,5.29227e-02,1.29360e-01,1.06414e-01,-3.21153e-01,1.26138e-01,-1.43385e-01,-9.68611e-02,1.63598e-01,1.44132e-01,1.51342e-01,1.31494e-01,1.98221e-01,-2.42087e-01,-2.97970e-01,-2.91692e-02,5.69415e-02,5.42893e-02,1.49675e-01,2.37120e-01,-6.35253e-03,-8.09098e-02,1.28510e-01,2.08074e-02,-5.35535e-02,2.46082e-01,7.35533e-01,-3.21696e-02,4.44922e-03,-5.62308e-01,3.08522e-01,-2.83228e-02,-3.18568e-01,1.82686e-01,1.78900e-01,1.36356e-01,1.78567e-01,3.94490e-01,2.33299e-01,2.98480e-01,1.28513e-01,-1.60916e-01,-1.76729e-01,-5.00275e-03,1.85485e-01,2.80916e-01,2.85407e-01,1.09967e-01,-2.78444e-02,-2.34744e-01,2.66715e-01,2.10418e-02,-1.21550e-01,2.58431e-01,-5.99478e-04,4.46631e-02,6.12734e-02,-2.12768e-01,2.03516e-01,-3.08503e-01,-4.17312e-01,2.08316e-01,2.84720e-01,4.06008e-01,2.97479e-01,4.38859e-01,2.02763e-01,3.39871e-01,2.91730e-01,5.82895e-04,-2.37373e-01,-1.92551e-01,-4.78472e-02,-7.17988e-02,5.87647e-02,-1.54519e-01,2.41087e-01,2.63059e-01,5.92450e-01,-6.96521e-02,5.24749e-02,3.55947e-01,-8.21987e-02,2.65972e-02,2.25068e-03,1.23331e-01,-1.27557e-01,5.38671e-02,2.34311e-01,3.02952e-01,2.59777e-01,3.70879e-01,2.33738e-01,3.82877e-01,3.31771e-02,-1.87646e-01,-1.44243e-01,-1.11788e-02,-4.44686e-01,-4.18566e-02,-9.79749e-02,-3.04803e-02,-6.79125e-02,4.46709e-02,4.62868e-01,3.85800e-01,3.78204e-01,3.34085e-01,1.91567e-01,4.28021e-01,-1.12462e-01,1.25569e-02,4.42076e-03,5.04263e-02,-4.46616e-01,-4.50816e-01,4.71573e-01,2.71101e-01,1.30816e-01,-5.03470e-02,1.61051e-01,2.02190e-01,2.40234e-01,2.46965e-01,1.85437e-01,-1.23487e-02,1.03627e-02,-1.39366e-01,-2.72201e-01,-1.38328e-01,2.40698e-03,-1.24649e-01,-1.56815e-01,6.49677e-02,7.06796e-01,3.01232e-01,2.76731e-01,4.16933e-01,-3.07458e-02,2.68883e-02,-2.51406e-02,4.28269e-01,-3.95970e-01,2.41613e-01,6.66995e-01,2.87253e-01,2.66979e-02,6.73733e-02,1.61812e-01,-2.12533e-02,-1.95899e-02,5.55443e-02,6.81378e-03,2.45766e-02,4.28059e-01,-1.11429e-01,-1.60358e-01,4.31327e-02,-3.86348e-01,-4.96945e-01,-6.22728e-02,2.47824e-02,2.89359e-01,4.99591e-01,3.66710e-01,1.63899e-01,-3.52046e-02,-3.14410e-02,-2.21272e-02,-8.49579e-02,1.07057e+00,4.69826e-01,8.83206e-02,-4.07668e-01,-2.59291e-01,2.02992e-01,1.49359e-01,2.25629e-02,-1.48207e-01,1.25444e-01,-1.79130e-01,-3.43218e-02,4.92026e-02,-3.69234e-01,-1.70776e-01,-7.13817e-01,-5.38625e-01,-5.01100e-01,-1.70499e-01,-5.80327e-01,3.18637e-02,-3.66763e-01,5.14623e-02,1.87234e-01,1.14139e-04,-3.55592e-02,3.27662e-02,1.59936e-02,2.88576e-01,-3.18122e-01,-4.16429e-01,4.95667e-03,5.00732e-01,1.86790e-01,-2.99802e-01,3.28752e-01,-1.03794e-01,4.82901e-02,1.94915e-01,-2.55463e-01,-2.22489e-02,-3.57467e-01,-7.74170e-01,5.76713e-03,-2.19773e-01,-4.22338e-01,-6.44920e-01,2.03355e-01,2.63109e-02,1.93796e-02,5.95186e-02,-1.71671e-02,-8.20956e-03,-6.22983e-04,-1.09001e-02,-6.61234e-03,-2.52508e-03,3.97216e-01,6.15827e-01,6.20716e-01,2.02201e-01,-2.12648e-01,-3.59049e-01,4.29827e-01,2.35352e-01,-3.63323e-02,-1.36495e-02,7.25196e-01,8.73977e-01,4.00156e-01,1.20630e-01,8.05324e-02,5.67698e-02,-7.25908e-02,-1.31960e-01,-7.05081e-02,3.71209e-02,-1.44776e-02,1.94065e-03,3.23427e-02,1.76578e-02,
-2.34702e-02,1.99842e-02,-3.92222e-03,2.10996e-02,2.26573e-02,1.60607e-02,2.67748e-02,1.92802e-02,3.11454e-02,-1.28845e-02,7.20156e-03,-2.02954e-02,5.94277e-02,1.50170e-01,1.32731e-01,1.13956e-01,-6.83968e-03,9.35489e-03,-2.17754e-03,4.47920e-03,2.32595e-02,-1.26272e-02,3.31719e-02,-1.18860e-02,2.51474e-02,1.55072e-02,1.96652e-02,1.73548e-02,2.99362e-02,2.92558e-02,2.47446e-02,7.44154e-03,-3.95248e-02,2.18903e-02,-2.97488e-02,-1.15974e-02,1.18061e-03,2.43466e-02,1.95508e-01,2.60710e-01,1.48876e-01,1.17994e-01,-7.15110e-02,-1.26357e-01,5.51320e-02,2.64524e-01,-3.72569e-02,-5.66090e-02,-2.17229e-02,-4.64620e-02,1.03234e-02,3.23170e-02,-3.34430e-02,-2.88890e-02,2.11645e-02,2.44659e-02,2.86544e-02,-2.93520e-02,-4.91250e-03,-1.41534e-02,-6.41730e-03,-1.30893e-01,-1.74937e-01,-1.61569e-01,-1.25534e-01,-1.09565e-01,2.96675e-01,2.62040e-01,-3.89072e-01,2.71479e-01,-3.28646e-02,-1.21096e-01,3.69455e-01,4.23472e-01,3.74694e-01,1.45237e-01,3.45985e-01,-9.08164e-01,-8.45734e-01,1.06850e-01,6.52252e-02,6.39212e-02,3.10396e-02,1.47422e-02,1.77545e-02,2.84958e-02,8.65859e-02,-1.27596e-01,-1.54737e-01,3.88564e-01,6.61575e-02,3.54369e-01,3.70349e-01,4.09899e-02,-5.07673e-01,3.31868e-01,2.98244e-01,-4.85218e-03,-4.66763e-01,-2.94687e-01,-5.42342e-01,-5.19055e-01,-2.29773e-02,6.20195e-01,2.27027e-01,-9.38955e-02,-1.25096e-01,-1.75182e-01,3.78115e-01,-1.90500e-01,-5.75491e-03,-2.59710e-03,-2.18546e-03,7.57357e-03,1.46084e-01,-3.79036e-01,-7.29030e-01,5.80592e-01,1.57368e-01,2.08818e-01,-1.85256e-01,-3.00457e-01,6.16242e-03,-5.04739e-02,-2.67435e-01,-4.42603e-01,-3.06098e-01,1.05355e-01,1.24391e-01,-3.65980e-01,-5.17324e-02,1.90017e-01,2.31601e-01,3.43692e-01,3.36141e-01,7.68738e-01,4.12145e-01,4.86370e-01,-6.51119e-02,-1.39466e-01,-2.23018e-02,8.50418e-03,8.30199e-02,1.53732e-01,-2.96772e-01,-1.35085e-01,-3.17703e-01,-1.80061e-01,-1.31283e-01,-1.38417e-01,1.89357e-01,-3.59257e-01,-2.29346e-01,7.41195e-02,1.47586e-01,-9.82466e-02,1.29175e-01,-1.47870e-01,-2.76258e-01,-7.47812e-02,1.40382e-01,9.25660e-02,-1.06513e-01,4.06030e-01,4.91602e-01,-2.18768e-01,-2.70890e-01,-1.52845e-01,3.52063e-02,6.58428e-02,-9.39548e-02,1.02077e+00,3.82583e-02,-5.80293e-02,7.82875e-02,-3.15775e-01,-1.62805e-01,1.93475e-01,3.12712e-01,-3.07634e-01,-2.61205e-01,-1.01173e-01,8.00591e-03,-7.07715e-02,1.35158e-01,-2.05050e-03,-3.07614e-01,-1.62184e-01,-8.98002e-02,-8.17099e-02,-5.59696e-03,-2.23896e-01,7.04067e-02,-2.58992e-01,-2.29225e-01,-2.90620e-01,2.72214e-02,5.76936e-01,4.34210e-01,6.61033e-01,5.56225e-02,9.88642e-03,5.46231e-02,4.35685e-02,3.41410e-02,2.88604e-01,6.01656e-02,-2.35675e-01,-1.62295e-01,6.02188e-02,-1.88637e-01,-2.79070e-01,-2.56877e-01,3.79576e-02,-1.47251e-01,-3.80071e-02,3.62582e-01,-8.16670e-03,-9.64013e-02,-3.26555e-01,-1.32034e-01,3.02496e-01,-5.76312e-02,-3.31751e-01,-2.68974e-01,1.93925e-01,2.48427e-01,4.41164e-02,-1.08380e-01,-1.64906e-02,-4.24243e-01,-1.14598e-02,-2.28316e-02,1.11589e-01,-4.17155e-02,2.52397e-03,2.64387e-02,1.10382e-01,3.39310e-01,1.80634e-01,-2.80317e-02,-1.01444e-02,1.35088e-01,1.28306e-01,7.25622e-03,-2.37732e-01,1.92213e-01,3.91903e-01,-5.94661e-01,-4.82071e-01,-1.40133e-01,-1.32907e-02,1.94431e-02,1.57274e-01,2.67894e-01,-4.73961e-02,2.44534e-01,4.74486e-01,2.92958e-01,1.85672e-01,6.87633e-02,-1.11837e-01,2.47370e-01,3.18747e-01,5.12770e-01,2.53561e-01,3.61663e-01,3.08544e-01,1.05093e-01,8.48839e-02,1.53916e-01,4.40497e-02,-1.13388e-01,-4.16160e-01,2.05509e-01,6.41742e-01,-4.95276e-01,-9.01265e-01,2.64624e-01,1.37979e-02,6.63707e-02,1.75963e-01,2.26040e-01,3.28659e-01,2.35551e-01,6.78546e-01,5.83125e-01,3.40212e-01,5.15601e-01,1.76325e-01,5.85861e-01,2.91475e-01,3.22875e-02,1.81006e-01,-1.81216e-01,4.19572e-03,2.76721e-02,-3.22892e-02,1.41841e-01,1.46396e-01,-2.19540e-01,-2.99452e-01,-2.24450e-02,-8.67275e-02,-9.90676e-01,-2.47365e-01,6.75159e-01,-5.00883e-02,-2.66734e-03,-5.47440e-01,7.95163e-02,1.97284e-01,2.78252e-01,6.96835e-01,3.51574e-01,2.28889e-02,2.82295e-01,2.08791e-01,4.95758e-02,1.85912e-02,-6.27434e-01,-8.38339e-01,-5.44449e-01,-1.04305e-01,-2.90171e-01,-1.36494e-01,2.17615e-01,-2.05274e-03,4.41211e-02,-1.80379e-01,6.06799e-03,-5.13964e-01,-6.29827e-01,1.54604e-01,3.35223e-01,2.16438e-02,1.56015e-02,8.25357e-02,-3.21908e-01,-1.15847e-01,-2.22580e-02,9.20700e-02,5.15526e-02,4.47945e-02,-1.65829e-01,-5.05721e-01,-6.66596e-01,-1.22512e+00,-1.00324e+00,-1.10521e+00,-4.10914e-01,-1.56493e-01,-2.07965e-01,7.19465e-02,1.47174e-01,-1.00654e-01,-1.38966e-01,3.25631e-02,-2.41725e-01,-5.94541e-01,-1.58459e-01,-1.20026e-01,3.24963e-01,2.40377e-01,-9.14967e-03,6.12682e-02,1.74319e-01,-4.82502e-01,-8.27367e-01,-5.60420e-01,-7.12333e-01,-6.10095e-01,-6.67590e-01,-7.42980e-01,-1.35422e+00,-7.33038e-01,-1.26430e-01,1.77415e-02,6.11434e-02,-2.83143e-01,-2.13161e-01,2.70159e-02,7.15559e-02,-1.30279e-01,-1.36459e-01,1.89989e-01,-9.91070e-02,-9.53902e-02,1.83290e-01,-6.47498e-01,5.33551e-01,3.60784e-01,6.76621e-03,5.17338e-02,5.26813e-02,-6.04510e-01,-1.40414e+00,-1.58199e+00,-1.43879e+00,-9.27243e-01,-1.11544e+00,-8.35529e-01,-4.51636e-01,-7.25126e-02,1.83114e-01,2.69937e-02,-4.84891e-02,-5.88763e-03,7.90876e-02,1.23405e-01,-5.24424e-02,-8.45964e-02,-4.18762e-02,5.41598e-02,-5.02736e-02,-1.49569e-01,-1.96881e-01,-8.15026e-01,-2.60142e-01,2.06315e-01,1.85964e-01,-1.56870e-01,-1.40444e-01,-5.36562e-01,-8.18549e-01,-8.74843e-01,-9.41665e-01,-7.99505e-01,-2.88619e-02,-1.07365e-01,3.44843e-02,7.25722e-02,1.07593e-02,-2.77217e-02,4.56131e-02,1.54056e-01,7.40199e-02,5.91814e-02,-2.18190e-01,2.64644e-02,2.59981e-01,2.30949e-01,6.81752e-02,2.18463e-01,1.57945e-01,-4.47446e-01,-6.52109e-01,2.07549e-01,3.23036e-01,-1.04645e-01,2.20552e-01,-1.61994e-01,-6.52896e-01,-3.86610e-01,3.49647e-01,-1.64084e-01,2.17516e-01,1.94998e-01,9.23236e-02,-4.97797e-02,3.80761e-02,2.31022e-01,-5.73364e-02,1.01491e-01,1.30609e-01,3.07028e-01,1.21539e-01,1.62604e-01,-7.98922e-02,4.26904e-01,1.09098e-01,2.54423e-01,1.87191e-01,-5.93563e-01,-5.15867e-01,8.88756e-01,2.74070e-02,-8.34681e-02,6.58261e-02,4.78489e-02,2.86349e-01,3.36084e-01,4.59506e-01,3.07128e-01,1.04739e-01,7.16469e-02,9.52548e-02,-2.30664e-02,2.80403e-02,2.00784e-01,-1.08858e-01,2.76033e-02,8.72930e-02,4.85900e-01,1.70881e-01,2.87031e-01,1.16118e-01,3.64611e-01,-9.30755e-02,-5.65060e-02,-1.33637e-01,3.45537e-01,3.37823e-01,1.04147e+00,-1.67572e-02,-6.04223e-03,9.98201e-02,4.69019e-01,4.22202e-01,1.40686e-01,2.01202e-01,4.51242e-01,-3.52276e-02,-1.17547e-01,-1.96140e-01,-5.63883e-02,-5.01499e-02,5.28934e-02,1.55704e-01,1.79741e-01,9.88463e-02,4.17778e-01,1.19641e-01,3.07739e-02,-2.99672e-01,2.53957e-02,-6.43716e-02,9.89709e-03,3.83213e-01,3.71487e-01,1.12248e+00,-1.51713e-01,-5.07789e-02,3.36983e-02,8.00687e-02,1.84168e-01,1.78220e-02,-9.55199e-03,2.99219e-01,4.37607e-01,2.86287e-01,9.15191e-02,6.14566e-02,1.58156e-01,-1.74580e-01,1.59509e-01,1.37951e-01,-1.75473e-02,-3.88960e-02,-1.63528e-02,-2.24084e-01,2.11186e-01,-1.79108e-01,-1.24093e-01,-1.38796e-01,2.41187e-02,-6.41594e-02,2.69974e-01,7.21592e-01,-3.05361e-01,2.23843e-02,-1.61067e-02,4.19740e-01,2.52009e-01,1.92544e-01,1.57269e-01,2.82265e-01,1.20194e-01,3.89151e-01,4.14076e-01,5.49543e-02,-3.98784e-02,-3.22911e-01,3.19172e-02,-4.01073e-02,6.92357e-02,-1.33946e-01,-2.24557e-01,1.65182e-03,2.12682e-01,1.16525e-02,-5.80749e-02,-2.66324e-01,2.70632e-01,2.84565e-01,-1.58162e-01,1.12134e+00,-4.50544e-02,-2.59350e-02,7.15273e-02,6.48473e-01,2.87462e-01,-2.07622e-01,6.80571e-02,-1.20427e-01,-1.82985e-01,1.14984e-01,-3.95317e-02,1.39999e-01,-6.54089e-02,9.45397e-02,5.79182e-02,1.10957e-01,2.23729e-01,1.70917e-01,2.59057e-02,3.04040e-01,2.07620e-01,4.21539e-02,1.79552e-01,2.87398e-02,2.53729e-01,5.76212e-01,7.63898e-01,3.08190e-02,1.80468e-02,-4.34377e-02,2.04337e-02,8.17977e-01,-7.39375e-02,-3.39773e-01,3.00376e-01,-3.57588e-02,2.28552e-04,1.62438e-01,-1.14533e-01,-6.84328e-02,1.03638e-01,1.69921e-01,7.35957e-02,2.93125e-02,2.84496e-01,1.68719e-01,6.09337e-02,1.32735e-01,1.87290e-01,-9.08675e-02,-2.47355e-01,2.87294e-01,3.62175e-01,8.08160e-01,4.44923e-01,-3.55916e-01,2.29348e-02,1.93427e-02,3.03502e-02,2.54352e-01,2.24789e-01,2.42698e-01,7.62651e-02,3.00548e-01,1.04524e-01,1.48305e-01,2.61478e-01,1.46699e-01,1.81916e-01,-2.20248e-01,1.12891e-01,2.98004e-01,1.86428e-01,-2.12412e-01,-2.45488e-02,2.94888e-01,-1.21160e-01,-2.36718e-01,-1.12963e-01,-2.71489e-01,-1.48997e-03,8.51710e-01,2.20784e-01,-1.42164e-01,-3.56456e-02,-2.25912e-02,-3.11200e-02,-3.70454e-01,4.72662e-03,8.50464e-01,-2.44018e-01,-8.40868e-02,-1.04527e-01,-9.19486e-02,1.78587e-01,-1.96579e-01,-7.12009e-02,-3.21673e-01,-3.25222e-01,2.32700e-03,2.66502e-01,6.06447e-02,4.03660e-01,-3.51758e-01,-2.96497e-01,2.14471e-01,5.99786e-01,1.12415e-01,2.81815e-01,6.99244e-01,4.94945e-01,2.74904e-01,-1.51991e-02,-3.20657e-02,1.32378e-02,-4.14026e-01,2.14934e-01,-8.61983e-02,-2.65756e-01,-1.90349e-01,2.01345e-01,4.64247e-01,1.18802e-01,-2.30762e-02,-1.71651e-01,2.62562e-01,-2.09908e-01,1.33933e-01,4.83024e-01,3.62836e-01,1.38365e-01,5.36792e-02,-1.62553e-01,6.00540e-01,3.81667e-01,3.02825e-01,8.92779e-02,-1.55509e-01,1.87243e-01,3.32903e-01,2.67269e-02,4.45914e-03,3.37586e-02,-1.14735e-02,-4.02490e-02,-7.34325e-01,-8.46415e-01,-5.39819e-01,1.10230e-01,-4.39592e-01,-9.26906e-02,8.39502e-02,-1.85396e-01,-5.79578e-02,6.21293e-01,1.75558e-01,-6.46420e-02,-1.91811e-01,-2.39907e-01,-4.04651e-01,-4.74737e-01,9.53372e-03,-7.46517e-02,-8.21852e-01,-2.25181e-01,-7.93248e-02,5.44527e-02,-3.01153e-02,-5.70587e-05,-7.96082e-03,1.03878e-02,2.13527e-03,-4.29021e-03,2.26969e-01,2.63867e-01,2.93121e-01,3.04449e-01,2.77852e-01,5.83633e-01,4.89489e-01,-1.01620e-01,-1.10095e-01,3.86610e-01,-3.69960e-01,5.31602e-02,5.84903e-01,7.97751e-01,4.91297e-01,-6.24439e-01,-5.72194e-01,-1.00678e+00,-6.76052e-01,2.05030e-02,-3.44617e-02,2.46981e-02,-1.98228e-02,-1.00310e-03,
2.27993e-02,1.48819e-02,-2.68717e-02,-3.54066e-02,-1.32626e-02,-3.03107e-02,-2.71698e-02,-2.40534e-02,9.85857e-03,-2.19276e-02,1.70599e-02,2.10723e-02,9.72586e-02,1.06755e-01,1.05564e-01,3.83573e-02,-1.80095e-04,3.56663e-02,5.76164e-03,1.13163e-03,-1.22307e-02,2.10103e-02,6.38949e-03,2.44075e-02,-1.07566e-02,-2.57514e-02,-2.13686e-02,-1.55438e-02,-1.73737e-02,1.49069e-02,-5.77220e-04,-1.52005e-02,2.03603e-02,7.80679e-02,8.56671e-02,1.10965e-01,1.47572e-01,1.88976e-01,4.70832e-01,6.61010e-01,3.68833e-01,-1.63859e-01,-3.96103e-01,3.53395e-01,5.46238e-01,6.53678e-01,2.91693e-01,4.48994e-01,4.48621e-01,2.06836e-01,1.65776e-01,8.78588e-02,1.22370e-02,-2.61588e-02,-1.54371e-02,-1.98687e-02,-1.65980e-03,6.24508e-03,1.18251e-02,4.60924e-01,4.67250e-01,1.94680e-01,2.38668e-01,4.59087e-01,7.94406e-01,9.98903e-01,8.30531e-01,1.23307e+00,3.69395e-01,-4.35871e-01,-1.11167e-01,-1.67063e-01,-9.20534e-02,4.64556e-02,1.57714e-02,-2.70099e-02,2.16970e-02,3.90169e-01,3.66556e-01,5.27123e-01,5.82784e-01,9.89523e-02,7.18110e-03,2.67958e-03,-2.41128e-02,-1.04463e-02,-1.64218e-01,4.78023e-01,2.15503e-01,3.95823e-01,2.05535e-01,-1.98706e-01,-3.00534e-01,1.93095e-01,-6.63827e-01,2.31468e-01,3.27307e-01,3.50117e-01,8.99689e-02,1.81913e-01,1.65049e-01,1.46852e-01,-1.02131e-02,2.44924e-01,-1.95199e-01,-7.05943e-02,1.62352e-01,2.88917e-01,2.26353e-01,-4.80061e-01,-6.90044e-01,1.72835e-02,2.96795e-02,-4.27625e-02,1.92132e-01,-1.56728e-01,5.05867e-01,1.62517e-01,1.42204e-01,-1.27194e-01,-1.84472e-01,-1.01341e-01,2.33910e-01,3.94082e-01,2.12604e-01,7.74485e-02,-1.08788e-01,-9.69914e-02,1.11181e-01,9.21621e-02,-5.37335e-02,9.46273e-02,3.38340e-01,9.01770e-02,-1.32869e-01,-4.10039e-01,-4.70812e-01,-6.92667e-01,-1.90617e-01,6.21625e-01,2.81286e-02,-5.43411e-04,8.01383e-01,-3.21954e-02,1.68566e-02,-7.26954e-02,1.87007e-03,-4.69092e-01,-3.69493e-01,-1.75666e-01,8.30691e-02,-2.88200e-01,-2.99001e-01,1.34819e-02,-3.57268e-02,-7.27071e-02,-1.29086e-01,1.57399e-01,3.45389e-01,4.94253e-03,-2.35975e-01,1.24072e-01,-1.04838e-01,1.96787e-02,2.17377e-01,-4.20811e-01,-6.83542e-02,5.99647e-01,-1.52234e-02,3.13276e-02,-1.19337e-02,-2.76094e-01,-2.23708e-01,-4.25403e-01,-4.29393e-01,-1.35426e-01,-2.62052e-01,-4.35673e-01,2.94340e-02,-2.15907e-01,-4.08609e-01,-1.08412e-01,1.10326e-01,2.58662e-01,1.47208e-01,2.52165e-01,1.22470e-01,-5.04132e-02,-2.17433e-01,-2.07682e-01,2.97738e-01,-3.73959e-01,-3.97561e-01,-1.09613e-01,1.00142e-02,2.64948e-01,1.37540e-02,-7.47767e-01,-4.91736e-02,-5.40732e-01,-3.50669e-01,-3.45791e-01,-1.55869e-01,-2.87592e-01,-2.42659e-01,-2.01663e-01,-7.38102e-02,2.77841e-02,-1.68588e-01,-1.65755e-01,-7.22340e-02,-8.20018e-02,-1.41100e-02,9.86606e-02,3.30105e-01,-1.66894e-01,-2.32930e-01,-1.53004e-01,3.48600e-01,-1.77851e-01,-2.99371e-01,4.44224e-02,-1.48980e-01,2.23737e-01,8.40539e-01,3.52400e-01,6.48904e-01,2.46686e-01,-6.41618e-01,-5.20405e-01,-1.34178e-02,-3.12149e-01,-3.76327e-02,9.52728e-02,1.82460e-01,-1.73459e-01,-9.62692e-02,6.80449e-02,1.36785e-01,-3.28357e-02,6.61473e-02,1.69141e-01,1.70206e-02,-3.26571e-02,1.71608e-02,-4.72463e-01,-2.51486e-02,-6.37261e-02,-7.13152e-01,-3.41774e-01,-2.46762e-01,-1.96391e-01,3.14256e-02,-5.58846e-03,8.01061e-01,5.65625e-01,-4.09693e-01,-6.84439e-01,-2.00025e-01,-1.30600e-01,-1.14774e-01,8.12561e-02,7.71403e-02,-1.32829e-01,4.30192e-02,-1.32407e-01,1.71710e-01,2.10537e-01,1.47853e-01,-3.57056e-01,1.82888e-02,-1.00167e-01,7.84430e-02,-1.67248e-01,-2.53095e-01,-5.13782e-01,4.46921e-02,-2.73640e-01,-2.93992e-01,1.03291e-01,6.26428e-03,-1.05787e-02,6.40922e-01,-4.70969e-01,-5.74734e-01,-3.08483e-01,5.97987e-02,-6.63613e-02,-2.20357e-01,-7.35836e-02,-3.98128e-01,9.02045e-02,-1.56516e-01,-2.18164e-01,-1.58389e-01,-3.80856e-02,-9.12420e-02,-1.66464e-01,-1.61532e-01,-1.25787e-01,1.17456e-01,-1.62885e-01,-2.97531e-01,-2.90022e-01,2.27554e-02,-6.35837e-02,-2.12823e-01,-7.20228e-04,9.69462e-03,1.04121e+00,-8.35152e-01,-6.77509e-01,-6.08517e-01,-3.95929e-01,1.90854e-01,-3.01119e-01,-3.42220e-01,2.84034e-02,-1.21135e-01,7.51236e-02,-2.11071e-01,9.24118e-02,-2.74268e-02,-2.13550e-01,-3.09867e-01,-3.86965e-01,2.67386e-02,1.66648e-01,-2.04192e-02,-5.26670e-02,-2.02394e-01,-1.93453e-01,-3.37903e-01,-2.64595e-01,-4.59676e-01,-1.95472e-01,-3.18451e-02,1.96578e-01,-6.73460e-01,-3.88001e-01,-5.20749e-01,-1.28890e-01,3.36621e-01,-1.38828e-01,-2.12301e-01,1.54470e-01,-1.76941e-01,6.03275e-02,-4.35993e-01,-8.35269e-02,1.93509e-01,-2.91881e-01,-3.98069e-01,-2.81859e-01,2.18805e-02,6.10443e-02,2.22472e-01,1.72860e-01,3.86484e-01,8.26750e-02,1.79717e-01,-1.71049e-01,2.18411e-01,1.69397e-02,7.89809e-03,2.33937e-01,2.73523e-01,-5.26083e-01,3.56654e-01,4.00148e-01,5.74623e-01,-4.47026e-01,-9.65334e-02,2.18148e-02,-2.27625e-01,-7.50082e-02,2.20632e-01,3.29408e-01,-1.99531e-03,4.69886e-04,-4.12459e-01,-2.06935e-01,1.48514e-01,2.17108e-01,1.30486e-01,-1.45719e-01,1.74600e-01,3.68288e-01,-2.04486e-02,2.52117e-02,9.42537e-01,4.52099e-01,-2.11429e-02,3.93254e-02,5.83946e-02,-2.25862e-01,-7.88182e-02,1.85042e-01,-9.29446e-02,-3.03239e-02,-2.20319e-01,3.07738e-01,-1.09132e-01,3.17587e-01,2.27519e-01,1.28384e-01,-7.29137e-02,-2.15000e-01,-4.81797e-01,-2.94610e-01,-7.88492e-02,2.80441e-02,4.69003e-02,-1.63476e-01,1.40131e-01,-6.19600e-02,4.76910e-01,8.29916e-01,9.54513e-01,4.87469e-01,-3.01528e-02,2.13231e-02,-7.41885e-02,6.10590e-01,-5.26271e-01,8.25154e-02,-3.39661e-01,1.15741e-02,7.15870e-02,2.85982e-01,2.01505e-01,4.81752e-01,5.40679e-01,3.12069e-01,1.05327e-02,-1.62650e-01,1.05377e-02,-7.50637e-02,-3.17053e-01,-1.66162e-02,6.10988e-02,7.75332e-02,2.78037e-01,2.49011e-01,4.63160e-01,3.11921e-01,3.12034e-01,1.25516e+00,1.95754e-02,-8.06510e-02,-1.70463e-01,-4.14120e-02,-2.91647e-01,-6.34223e-02,-2.86999e-01,3.66639e-01,3.56689e-01,6.16517e-01,5.57546e-01,7.18667e-01,2.11031e-01,-9.24530e-02,-2.52349e-01,-1.68812e-01,2.10559e-01,3.66051e-01,-7.51908e-02,-7.21221e-02,-1.25189e-01,2.71795e-01,3.63930e-01,3.65923e-01,-1.95038e-02,7.09142e-01,8.87527e-01,1.12634e+00,2.60750e-02,-8.33618e-02,1.15751e-02,-4.53115e-01,-9.45965e-02,1.16507e-01,1.76818e-02,1.25022e-01,1.55967e-01,3.66168e-01,5.40615e-01,5.17562e-01,2.78283e-01,-1.50023e-01,5.12762e-02,-8.46802e-02,6.04616e-02,-8.20504e-02,-3.12717e-03,-1.89042e-01,-2.81142e-01,1.82187e-01,3.83051e-01,1.05708e-01,-1.53017e-01,6.72807e-01,4.11589e-03,1.20049e+00,2.45107e-02,-7.90789e-02,-9.05583e-02,-2.94755e-01,5.22848e-01,-3.32923e-02,2.34958e-01,2.38083e-01,1.77415e-01,3.60179e-01,1.58124e-01,3.61084e-01,2.20195e-01,-3.51996e-02,-2.51476e-01,4.06267e-02,1.16441e-01,1.92701e-01,4.63306e-01,6.91375e-02,-8.78299e-02,3.85787e-01,2.95599e-01,3.53988e-01,1.73078e-01,1.83362e-01,-9.68708e-01,1.13323e+00,-4.34965e-03,7.34780e-01,1.55188e-01,4.70131e-02,6.12827e-01,2.00099e-02,-2.95422e-02,1.47558e-01,9.72677e-02,3.14009e-01,3.32030e-01,4.37689e-01,2.02536e-01,-3.43777e-02,-1.62250e-01,2.35896e-01,1.77319e-01,6.65176e-02,3.21127e-01,3.95708e-02,-1.88503e-02,2.01958e-01,3.48935e-01,3.84095e-01,-1.12195e-01,2.80593e-01,9.61983e-01,5.44227e-01,3.34769e-02,7.07877e-01,-3.35393e-02,1.56865e-01,3.38146e-01,-2.78652e-01,-4.71892e-02,1.63455e-01,7.90327e-02,1.42975e-01,1.80973e-01,3.46029e-01,2.16330e-01,-2.28312e-01,2.83934e-02,-3.09018e-01,3.86792e-02,-1.05079e-02,2.41606e-01,2.62824e-02,-2.71318e-02,3.07598e-01,2.72530e-01,3.53758e-03,-2.20141e-01,-2.89583e-01,6.90091e-01,-7.88668e-02,2.23270e-02,5.23014e-02,-5.13230e-01,3.39673e-01,4.45799e-01,1.69582e-01,2.73371e-02,2.07473e-01,1.55357e-01,-5.09654e-02,-1.22182e-01,-1.90201e-01,-1.23614e-01,-1.54156e-01,-4.34495e-01,-4.89667e-01,-1.16107e-01,-1.37348e-01,-1.89287e-01,-1.56813e-01,-9.20038e-02,4.09929e-02,3.91478e-01,-1.93456e-01,-5.60673e-02,-2.38213e-03,6.84303e-01,-2.20292e-02,-3.49323e-02,-5.19634e-02,1.69502e-02,1.04108e-01,-1.17303e-01,3.62815e-01,1.58507e-01,1.55288e-01,1.51265e-01,-8.29541e-03,2.32825e-01,-1.97895e-01,-1.77309e-01,-2.56994e-01,-3.00314e-01,-9.95461e-02,2.52308e-02,-1.45172e-01,-2.94368e-01,1.85370e-01,1.61547e-01,1.23916e-01,4.76317e-02,-4.22722e-01,-6.87801e-01,-3.77609e-01,-3.81252e-02,1.70086e-02,-8.36099e-03,2.77915e-02,1.39614e-02,2.60668e-01,3.73979e-01,1.45084e-01,-4.89626e-01,-3.00676e-01,-2.30362e-01,-2.85061e-01,-2.33440e-01,2.54035e-01,-8.42530e-02,-3.73214e-01,-1.80096e-01,-1.67765e-01,-2.89682e-01,-7.47120e-01,-3.36298e-01,2.73791e-01,-9.78182e-02,-4.70572e-01,-4.19914e-01,-7.35223e-01,-8.36981e-01,-2.65582e-01,-2.15087e-01,-8.76193e-04,1.73690e-02,2.30273e-02,-1.20227e-01,-4.08059e-01,5.40310e-01,5.47509e-02,-4.98177e-01,-6.51774e-01,-3.13858e-01,-2.24937e-02,-3.71788e-01,-4.21128e-01,-3.84216e-01,-8.51492e-01,-7.78941e-01,-9.90842e-02,1.29976e-01,-2.06893e-01,-2.13831e-01,2.07398e-03,-4.28854e-01,-3.81703e-01,-6.46220e-01,-1.23516e+00,-8.07973e-01,5.46235e-01,5.28487e-01,2.51979e-02,-3.02060e-02,-7.86660e-03,2.46341e-02,2.05146e-01,1.49769e-01,-6.29018e-01,-3.95742e-01,4.53401e-02,-5.21238e-01,-7.46115e-01,-4.45591e-03,-1.51586e-01,1.11098e-02,-5.33384e-01,-6.82120e-01,-5.40679e-01,-8.21990e-01,-7.96039e-01,-1.34821e+00,-1.22812e+00,-1.11410e+00,-1.17667e+00,-1.00216e-01,-5.88190e-02,-4.60220e-01,5.03798e-01,5.21850e-01,1.21357e-02,-3.19819e-02,-1.85470e-02,1.81063e-02,-1.54429e-02,-6.64296e-01,-7.20423e-01,-3.15732e-01,2.24487e-01,2.95518e-02,-6.05109e-01,-3.56003e-01,-9.07681e-02,-1.81837e-01,-6.90343e-01,-6.54503e-01,9.94111e-02,5.33278e-01,-6.71479e-01,-6.14411e-01,-2.95114e-01,-1.28106e+00,-1.28627e+00,-7.47516e-01,7.96898e-02,-2.18092e-01,-7.16180e-04,8.25639e-03,9.42337e-03,-6.59479e-03,2.95410e-02,3.48142e-02,-2.18742e-02,-1.62657e-02,-6.45690e-03,4.13078e-02,-9.80346e-03,-1.10199e-02,4.99852e-02,-2.18604e-01,-1.75425e-01,2.21292e-03,-6.39147e-03,-8.89397e-02,-2.01423e-02,-1.83647e-01,-1.63803e-01,3.09123e-03,-1.03764e-02,1.08668e-02,2.53011e-02,5.89521e-02,2.77369e-02,2.87119e-02,-2.82009e-02,1.10222e-02,3.36070e-03,
